1352 50
， -0.38855845 -0.11695058 0.3091134 0.1428339 -0.42272377 0.16990994 0.100339316 0.13841364 -0.08694182 0.081217565 -0.09994912 0.13782372 -0.041156583 -0.07582004 0.105974875 0.09545935 0.2521627 0.12909132 0.19827731 0.07028185 0.09801874 0.16051182 -0.09874575 0.32573977 0.2061462 -0.07960436 -0.29637468 0.6790602 -0.31495786 -0.03438974 -0.6606404 -0.012975348 -0.17553653 0.07311618 -0.17951319 -0.02127906 0.2042098 0.23381582 0.17183287 0.011611116 -0.0266636 0.02100396 0.022339202 0.2206947 -0.30307263 0.2231309 0.20938633 -0.05460222 -0.11903825 -0.15709077
子 -0.37198758 -0.22386345 -0.41791207 -0.3836787 0.486246 -0.049446754 0.77525264 0.10244694 -0.09070874 -0.2720001 0.3741121 0.22121248 0.11174373 -0.38688207 -0.44131464 -0.08380999 0.060350195 -0.32562977 0.3267311 0.20701294 0.075816326 0.22590105 -0.20512004 -0.4411298 0.15951148 0.28472424 1.2376077 0.19444615 -0.1862034 -0.36536056 -0.25230354 0.35590926 -0.31853542 -0.34818906 0.17860916 0.03941346 -0.2765984 -0.1366899 0.060024284 0.06821856 0.2475502 -0.298593 -0.25193268 0.6730014 -1.047688 0.08147015 -0.08109738 0.09647984 -0.32551438 0.15720145
。 0.053454127 0.020051703 -0.39277163 -0.061715882 0.28659096 -0.13758829 -0.2034063 -0.019250551 -0.035202935 0.245648 0.067012966 0.46277353 -0.16770971 0.08402961 0.07183629 0.13254797 -0.60494465 0.097444996 -0.009022227 -0.15234391 -0.22538273 -0.07776408 -0.019957678 0.008334163 -0.40748525 0.21731475 0.12230337 0.40341896 0.2773318 0.063451424 -2.1241906 0.046935488 0.04698946 -0.2739023 -0.08504319 0.14202644 -0.36104324 -0.032939542 0.18106 0.1387149 0.18157803 0.027250417 -0.13765475 0.20174724 -0.13591942 0.010729886 -0.13975988 -0.108340524 0.027690766 0.21563667
： -0.2170557 0.15319519 -0.11182942 -0.050453212 -0.0401923 -0.24232228 0.28327507 -0.25504136 0.37631023 0.2520892 -0.1002706 0.3381787 0.8654291 -0.34285998 0.055293247 -0.20186152 0.33943075 -0.07011258 -0.54664576 0.21632245 0.079038456 -0.21914685 0.3383169 -0.6277269 -0.034278277 0.027722038 0.037867792 2.0469546 0.30556697 -0.35668802 -0.64937687 -0.31625473 -0.07355 -0.31796736 0.8270984 0.06558709 0.08248577 -0.31487373 0.17218253 0.054810867 -0.4471374 0.18821418 0.11001853 -0.20218454 -0.065509565 -0.23531464 -0.5945942 0.09495159 0.007288221 -0.15142329
曰 0.33866125 -0.094109 0.16635948 0.29347673 0.6592243 -0.25860366 1.4187889 0.23586755 0.07190202 0.06866703 -0.2342189 -0.5195622 0.54140323 -1.1255621 -0.47880897 0.08262616 0.4953081 -0.2897737 -0.10600313 0.1979266 -0.060925875 0.024715157 -0.37490875 0.48323336 -0.18840793 -0.7889785 1.7238265 0.023065457 0.4465617 -0.11424911 -0.91632134 0.1495251 -0.5479319 0.52192825 0.251141 0.59223163 0.07540767 -0.14576359 0.11101032 -0.16847253 0.29834196 0.716557 0.01481941 0.4917916 -0.4367237 0.695072 0.09144344 -0.39715776 -0.2878131 0.42748573
之 -0.12106963 -0.19214357 0.35519382 -0.13780335 0.2304714 -0.04026049 0.53614014 0.16553348 0.8287517 -0.13549165 0.105394125 -0.3742738 0.049290787 -0.048255794 0.15928335 0.5005921 -0.16056928 0.5100174 -0.13305603 -0.015197275 0.042166382 -0.600285 -0.034691256 -0.1049554 -0.24504031 0.086922534 -0.16455951 0.1412828 -0.087780386 -0.41040838 -0.57764316 0.07840357 -0.09657336 -0.19339518 -0.41181013 0.15588245 -0.04770181 0.17597911 -0.82114196 -0.039459113 0.19935541 -0.14903027 -0.14487186 -0.6377459 -0.36777008 0.22309124 0.059341256 0.8295749 0.058974072 -0.2901444
不 -0.24276942 0.25312972 0.16133475 0.2381709 0.08390802 -0.044981726 -0.09943735 0.37387735 0.04110946 0.3296595 0.32320353 -0.47486964 0.4025251 0.23611172 -0.055740144 -0.37611723 0.15749714 0.77404684 0.4916215 0.1052329 0.16008945 0.03615515 0.6163635 0.4650293 -0.26831046 -0.3761983 0.76678693 0.61179495 -0.048955925 -0.24771915 0.13348454 -0.49449694 0.07007421 0.19690713 0.17718072 0.05764356 -0.7404653 0.17963633 -0.1461909 0.25117797 -0.08746335 -0.37121895 -0.20293753 0.15128677 -0.16875333 -0.12356228 0.82553995 -0.11717476 0.2109199 0.20193657
也 -0.16884072 -0.325477 0.41088226 0.23731318 0.4777718 -0.08262511 0.42368472 -0.30506447 0.30253926 0.25782204 0.5599531 -0.14744887 -0.36509275 -0.13377549 -0.583929 -0.36869082 -0.4367363 -0.08834113 -0.0757485 -0.3313248 0.21051487 -0.57231545 0.15970933 -0.7735499 -0.039073836 -0.67905855 0.0041769072 0.41846627 -0.06597861 0.85028124 -0.2400216 0.062602945 -0.38874522 -0.18397914 -0.21545106 0.35691994 0.035567544 0.53312105 0.20102043 0.06352821 -0.030202767 0.025523443 0.22211207 -0.37723187 -0.5294779 -0.1218686 1.0513417 0.53899205 0.37427035 0.19253086
而 -0.34909737 0.058537588 0.5950164 0.1324196 -0.048548475 0.5133629 -0.12820758 -0.575231 0.014142585 0.012130678 0.08364686 0.28953463 -0.11297012 0.023765098 -0.25402564 -0.30432418 0.17615092 0.45163965 0.0055471617 -0.8018802 0.17924137 0.22404137 -0.27893344 -0.49582508 -0.22462906 0.43420896 0.81745917 0.8973999 0.37945122 -0.5332239 -0.6031105 0.22035946 0.10269811 0.27684715 -0.009770298 -0.044004783 0.2741573 -0.594494 -0.6813465 -0.34064054 0.30506322 0.39227223 0.15136762 -0.22238077 0.6418141 0.2527185 1.5040038 0.0052799545 -0.072505035 0.32816926
？ 0.01075657 0.027587898 -0.41034007 0.5561564 0.29350308 -0.43802777 0.07245963 -0.15992391 0.16476312 -0.43944153 0.16998203 0.45806378 0.59280235 -0.13951018 0.015526887 0.1010684 0.64899933 0.34674174 -0.19774792 -0.24298272 0.40268523 0.38812667 -0.48673922 -0.73232526 0.38434044 -0.22726525 -0.07464811 0.04891197 -0.37487215 0.08090521 -1.7402582 0.08799539 0.012735094 -0.19611715 0.70331913 -0.16846351 0.0065771537 0.40129158 0.21021836 -0.40009433 -0.9085271 -0.10818436 -0.906053 -0.68723416 -0.6208059 -0.5150107 0.03283644 -1.0013314 -0.2861626 0.07922535
其 -0.48531175 0.096478745 0.006800243 0.8579394 -0.15239635 -0.23493028 0.0050650826 -0.4562883 0.4161552 -1.2551389 -0.44115326 0.003993521 0.43621805 0.5146803 -0.86839014 -0.40698588 0.54542637 0.11177535 0.19632141 0.067729585 -0.6004104 -0.26581982 0.9684589 0.091554366 -0.084409185 -0.16123518 0.40200707 0.5495706 -0.45770985 0.16820592 -0.31997815 0.18468502 -0.08836086 -0.3508002 -0.07478681 0.44537973 0.60005677 0.43524903 -0.79486626 0.41412804 -0.15226087 -0.09744637 0.107168056 -0.11870539 0.046514098 -0.05699339 0.19718231 -0.7251807 0.35506472 0.643448
人 -0.62681323 0.63627213 0.067248575 -0.41863567 0.07207857 -0.020793732 -0.48838347 -0.0073344065 0.27967766 -1.2173845 0.84987766 -0.5271726 -0.37228638 -0.5914994 0.05815804 0.22783966 -0.019304268 0.052096717 0.30652407 -0.0699214 -0.2921805 0.6935064 -0.39524236 0.07292905 -0.40744054 -0.20547108 -0.12805855 0.24637823 0.26052153 0.3614655 0.03326141 0.35914102 -0.31710845 -0.10974372 0.40920356 0.12124711 0.025801118 -0.7070997 -0.6289176 -0.3897392 -0.44482112 0.0039346456 0.2169898 -0.42956027 -0.9901535 -0.08870299 0.038317595 -0.38774326 0.036886696 -0.074210025
者 -0.5576483 -0.0636871 -0.2463905 0.3197512 0.2968474 -0.6340472 -0.014680734 -0.3093456 -0.065624095 0.23262858 0.7728959 -1.0036426 0.24487731 0.846111 0.11499843 0.43712562 0.20619394 -0.61323124 0.035221837 0.36193907 0.007054371 -0.04164823 0.14495754 0.09424402 -0.22847088 -0.1979688 -0.13576165 0.26454145 -0.33555666 -0.563083 -0.6228589 0.31034544 -0.62681735 -0.66662097 0.140747 -0.93767047 0.36286318 0.018886948 -0.32305202 -0.11109996 0.25167418 -0.48711565 -0.5645586 -0.40322495 0.37896514 0.22606388 0.7771476 0.8183417 0.5990985 0.34444708
以 -0.5267612 0.22961017 -0.81866205 -0.13046837 -0.78369904 -0.2514242 0.7647355 0.7060635 0.23571396 -0.043889888 1.0426748 0.28688234 0.7535222 0.099227995 -0.6906122 -0.038879454 -0.1307742 -0.33907163 -0.2672492 -0.6888626 0.9206871 0.46962327 0.90009695 0.592399 0.08533855 -0.19157179 0.18024746 0.04245586 0.3845046 -0.21599327 -0.049562942 0.09649216 0.35368314 0.19730788 -0.09693549 0.7417155 0.08327901 0.068659626 0.31781295 0.5649109 -0.025503965 0.43090516 -0.6902588 -0.7354449 -0.37957248 -0.1743896 0.45262328 0.4531335 0.36296663 0.1657805
有 -0.2910182 -0.33312473 0.2713035 0.1225311 0.010161681 0.05716188 -0.093995675 -0.09623558 0.16449858 -0.45502412 0.023721516 -0.51994437 0.80425626 -0.8661524 0.18273152 0.036290612 -0.43338493 -0.9548053 -0.30687585 -0.1808897 -0.17073585 0.122429475 0.14336148 0.35818443 -0.5407664 -0.26828942 0.33192775 0.36348104 -0.7461882 -0.050773274 -0.23349383 0.07148395 0.08581817 0.03644473 -0.40549296 0.17909648 -1.0005827 0.2800654 0.37092814 -0.4538967 -0.31615552 -0.873824 0.25465125 -0.8216216 -0.1799513 0.7337303 -0.17132975 -0.11305522 0.3825627 0.45853212
于 0.31051752 0.7014081 0.15709947 0.2126001 -0.49928612 0.33735698 0.13285573 0.33413485 -1.3792205 0.04091261 0.28400636 -0.42758664 1.3117144 -0.36816254 0.08341846 -0.57502055 -0.03809912 0.053709216 -0.48640877 -0.38992774 -0.1544995 -0.42728007 0.42538723 -0.14455588 -0.23519005 0.5073959 -0.09565451 0.43452632 0.40187076 0.6144332 -0.8762056 0.32375053 -0.003300703 -0.06409939 0.21843292 0.3217056 0.15882653 0.4960921 -0.7147543 -0.29493976 0.10181675 -0.11779432 0.16645025 0.3695924 -0.28366178 -0.014324316 0.6888327 -0.23242654 0.7379525 -0.9219369
矣 -1.0018969 0.1931883 -0.258076 -0.26200745 0.34110883 0.33844882 -0.098981366 0.4917082 0.77642107 0.3616174 0.0072457828 0.45577464 0.4311908 -0.72057986 1.0620747 -0.12705255 0.9614769 -0.39858085 0.39265534 0.480127 -0.2166869 -0.2305089 1.1817201 -1.093998 0.03676587 -0.2673675 0.7868253 -0.5915107 0.6410675 0.24833916 -0.35599378 0.10141881 -0.48089272 0.27871802 -0.5536036 0.10799455 0.8538817 0.10771455 -0.27858835 0.15638614 0.4861437 -0.2907466 0.77068216 -0.9105967 -0.68412215 -0.14822234 1.551373 0.517009 0.071848966 0.48792556
为 -0.067742534 0.69353926 -0.031807132 0.7489053 0.5064247 -0.3677318 0.17773582 0.031247389 -0.35235134 -0.12376502 -0.36703676 0.6039066 0.15753639 -1.3946334 0.23543724 0.20746545 -0.22916268 -0.6504142 -0.58865577 -0.13149074 1.4504056 -0.05590208 0.43857998 0.8266148 0.03855376 -0.44186324 0.29077128 0.6226018 0.1584969 -0.07299071 0.0128960535 -0.65196264 0.3406891 0.030453429 -0.44583914 -0.75120604 0.7578282 0.10119801 0.0066168997 -0.52940816 -0.1591066 -0.28483814 -0.075295605 -0.3219435 -0.675377 -0.22377564 0.7157825 0.036936678 -0.2342764 -0.41818458
君 -0.11267996 0.038050562 -0.45285976 0.33432427 0.14299884 0.36649582 0.20721404 -0.012978536 0.43555906 -0.84902024 -0.21785009 -0.4355646 -0.04471908 -1.0530108 -0.8118956 0.20358916 0.08548166 -0.65456647 0.012161906 -0.12276618 0.19945662 0.14440495 0.614857 -0.5293346 -0.5098513 -0.35372183 1.1513255 -0.6648868 -0.8590598 -0.26815864 -0.797292 -0.3089453 -0.29708302 -0.8668621 0.8988972 -0.47339708 -0.051833756 -0.7871528 -1.0072203 0.008230307 -0.218602 0.1833616 -0.17187315 0.32000625 -0.59871966 0.11786479 0.31015688 -0.07324537 0.032135524 -0.6958921
乎 -0.1071532 0.01617097 -1.2839835 -0.80961806 0.2591155 0.3467179 0.7762064 -0.36814708 -0.53179973 -0.5863213 0.1103498 -0.5941717 0.63077223 0.11799072 -0.10948482 0.012890635 0.2712301 0.62258023 -0.16783728 0.2888457 -0.19007249 -0.15559478 -0.33260667 -0.23108102 0.862121 0.001784527 -0.31580108 -0.15293412 0.78929317 0.14422387 -1.0576339 -0.8428608 -0.42140734 0.53537756 0.24008887 -0.44418743 0.34597468 0.37587285 0.4835676 -0.47159865 0.32518587 -0.8158632 0.69123745 -0.9903979 -0.32904363 0.70236516 1.5246447 0.09277889 -0.27295527 0.23004633
可 -0.019635484 0.11817162 -0.07824403 -0.58350754 0.56159914 0.60440356 0.29987633 0.236144 0.81082743 -0.53441244 0.07091241 0.11154035 -0.15186697 -0.6806634 -0.61745286 0.8508937 0.18036643 0.61539996 -0.7795935 -0.4409708 -0.25948948 -0.21971954 -0.059256524 0.7707977 0.19724159 -0.5492525 0.3068957 0.62778616 0.82756186 0.6764774 0.17613338 0.63945115 -0.32345733 -0.60315603 0.3284976 0.14048687 -0.15921746 0.12099474 0.37495646 0.51997995 0.06769437 0.10955629 -0.21218047 0.4625418 0.18428452 0.54281133 0.9509095 -0.8310198 0.090784505 0.3244275
如 0.06763861 0.23738481 -0.63287574 -0.8222659 0.34034893 -0.7429844 -0.27447206 0.28392696 0.6826091 0.07149876 0.10118298 -1.491142 -0.7442121 -0.5212133 0.46518344 -0.98675114 0.43616816 -0.3884743 -0.79663825 0.42717463 0.26252818 -0.3286523 -0.41584277 0.12652555 0.11679808 0.16004562 0.78502923 0.48869947 -0.42867616 -0.5169342 -0.5286407 0.56665236 -0.30923662 0.41845942 -0.15866295 -0.091150776 0.8489785 0.16755998 0.17676203 0.02806349 -0.6567662 0.8095209 0.29092255 -0.70753485 -0.4421235 0.39644784 0.5350625 -0.15213622 1.1640799 -0.36074674
与 -0.722548 0.5625872 0.32153517 -0.21368644 -0.14339992 -0.9293036 0.89305407 -0.4855115 0.43916315 0.21641347 0.12241714 -0.29264995 -0.840151 0.45205757 0.31301996 0.24608056 -0.22118233 -0.45440638 -0.22314961 -0.16595577 -0.20883098 0.023333024 -0.64649284 0.875955 -0.33799657 -0.65180707 1.4177513 0.20723493 0.34539723 -0.053994685 -0.40445608 -0.20270899 -0.24460019 -0.6713491 -0.14862253 -0.6005354 -0.11982018 0.20528264 -0.114328906 0.11923739 -0.2115532 0.10943556 1.098064 0.13640781 0.09978659 -1.0520082 0.7952287 -0.38400072 -0.13410766 -0.35929063
； 0.39742437 0.25467157 -0.34532088 -0.22943608 -0.27121115 -0.27194998 -0.21091278 0.5970151 0.9904735 -1.3299376 -0.06156135 -0.6921334 -0.8264357 0.050206125 0.15918724 -0.06024939 -0.1973211 -0.28817293 -0.08213049 0.3268005 0.15693648 -0.034390774 0.6661886 0.47436827 0.38204172 -0.03919273 0.13396092 1.0931562 0.2263682 0.19039384 -2.1923044 -0.3856155 -0.527888 1.0134706 0.521544 0.28276536 0.7566497 -0.66696936 0.26362535 0.29962325 0.21332228 0.24372882 -0.15907635 0.29335862 0.82127744 -0.82649535 0.5807757 0.20430867 0.04336455 -0.12774527
言 0.49395442 -0.33081216 -0.7544883 -0.36340848 -0.12938799 0.949657 0.10392605 0.043993622 0.12764543 0.56696486 0.4795933 0.6609726 -0.64438915 -0.17603815 0.11999782 1.0469586 0.527556 -0.13261817 0.024578096 0.18258643 0.14732642 -0.1276339 0.36505327 0.33117008 -0.47158116 -0.39586413 0.8720924 0.4782598 -0.15538137 -0.18849953 0.16819754 0.25814843 -0.9845043 -0.55326986 0.24392682 -0.23489098 0.7006148 -0.37772077 0.4379051 0.8040147 -0.10857827 -0.1503893 0.46547353 -1.3961353 -0.53826874 0.2950786 -0.10637123 -0.8405087 -0.011066789 0.2142817
无 0.03322277 -0.36675844 0.13379583 -1.0938113 -0.06326304 -0.5308954 0.20428257 1.0042573 0.012367502 -0.16683565 -0.106360875 0.4101971 1.4737227 0.7160038 0.049983572 0.063479654 0.010274364 0.3861605 -0.41216677 0.4123483 0.057443306 0.2835171 -0.63956755 0.6661784 -0.89383 0.20106226 1.1231854 0.0015852409 0.25456265 0.5905932 -0.33684763 -0.27320316 0.3096619 -0.42187193 0.2981442 0.5156486 -0.010777132 0.7334901 -0.2028798 -0.32681713 -0.337385 0.9164599 0.5212184 -0.9382413 -0.36554998 0.21936859 1.0664908 0.17292556 -0.47080615 -0.43390444
则 0.07733966 0.3644838 0.4705075 -0.12718983 -0.9675025 0.22065334 -0.00088787475 1.1519119 0.102277115 0.08974778 -0.27920863 0.13187468 0.40105587 0.97177774 -0.67852736 -0.31206092 0.3036403 0.28838992 -0.51485306 -0.020296749 0.29115736 -0.13482712 0.10982572 0.33119482 -0.1653238 0.9666968 0.4705659 1.3431331 0.52160436 0.0127873495 -0.4471831 1.4170139 0.17782968 0.31860033 0.18261242 -0.57075477 0.6732006 0.37219852 0.24749915 -0.32036805 0.15526043 -0.29853353 0.35314623 -0.24070139 -1.5149902 -0.08481972 0.23830043 0.54144263 0.025795538 0.16024409
！ 0.050871883 -0.13692392 -0.32901722 -0.31931084 -0.44388425 0.91951865 0.86148506 0.3725949 0.8168478 0.6301426 -0.46312773 0.35707054 0.28874534 -0.31055674 0.012244758 0.10202005 0.08218755 -0.2821729 0.7245406 0.41164836 0.17428899 -0.15480198 -0.024543261 -0.50456023 -0.3934128 -0.25142887 0.7163698 -0.029788604 1.45483 0.12060628 -1.6411536 0.4796111 -0.075418234 -0.2033506 0.5654546 -0.43036306 0.062430065 -0.19480704 0.88898295 -0.86078966 -0.86102337 -0.49474612 -0.97156477 -0.27971965 0.48221022 0.090027235 0.39262688 0.027833695 -0.22805782 -0.8103915
问 -0.5665816 0.22280402 -0.5547829 -0.02874471 0.25434342 -1.2300744 -0.34912145 0.3849717 -0.71478474 0.41391838 -0.5309382 -0.04488551 0.81453 -0.2938561 -0.43860358 0.005867256 0.0888901 -0.10454702 0.39757338 -0.6158803 -0.04372194 -0.25518098 -0.26744264 0.37429398 -0.3950994 -0.7792872 0.5836342 -0.24413864 0.55977905 0.103572056 -0.63125736 -0.72719574 -0.1951142 0.06597894 0.31016177 -0.5321883 0.023040649 -0.26196304 -0.169342 -0.9658838 0.71029294 0.2078133 0.22942333 0.32372192 -1.5359272 1.0016854 -0.428212 -0.24890484 0.8123859 -0.33771798
知 -0.9919614 0.0068572056 0.020362768 -0.2541391 0.5030267 0.55115163 0.6201644 0.5925126 -0.31275466 0.13678284 0.17536111 -0.43945852 -0.14513408 -0.20748176 0.029427819 0.31021312 -0.056528077 -0.48844266 -0.3402255 -0.51965874 -0.1741661 -0.70104575 0.19311261 0.16678318 0.010510609 -0.24506655 0.7853508 0.20370835 0.09089743 -0.0024774806 -0.11387942 0.058287866 0.74916965 -0.42746523 -0.16618256 0.26746225 -0.073779844 0.09576956 0.52615863 -0.27900782 0.3060584 -0.14557117 -0.6923185 -0.35057545 0.611199 0.18337591 0.6610034 -1.112077 0.70136636 0.3034855
何 -0.305646 0.5329675 -0.17636327 0.23073882 0.27354333 -0.072121345 0.9086456 0.3175311 0.9030314 0.66742843 -0.16212259 0.3887074 0.24794656 -0.79337734 0.48032132 -0.81478256 0.019371785 0.2116313 0.22509268 0.33336803 -0.05986249 -0.66512984 -0.54407567 1.0050931 0.75682765 -0.22486399 0.8589267 -0.31868225 -0.588366 -0.23552786 -0.36813095 0.5516802 0.20160422 -0.5247477 0.78180283 0.10814249 -0.34656566 0.6298638 -0.22526382 -0.14651735 -0.28536052 0.24874534 0.4539373 -0.18633269 -0.20178564 -0.8697155 0.7113631 -0.32233295 0.42199165 -0.12221505
吾 -0.4629289 -0.51567996 -0.13114147 -1.087786 -0.48859206 -0.14333263 0.49908802 -0.470204 1.0873822 -0.32731518 0.86247826 -0.4005458 0.5710626 -0.014321274 -0.15499178 -0.3885138 0.9365438 -0.19934744 -0.22059055 -0.40015596 -0.70073915 0.10799366 -0.43281665 0.9762204 -0.6259352 -0.56654257 0.18453257 0.59115404 0.07723277 0.36819175 0.29559875 0.8906322 -0.47087637 -0.20347115 0.18133889 0.28485277 0.42691264 -0.56738067 -0.06554514 -0.6298337 1.0523279 -0.39398733 0.6452889 -0.30202025 0.6011176 0.28031716 0.08383043 -0.61702293 0.068271875 0.3413164
仁 -0.47006857 0.8352174 -0.34104246 0.01500165 0.8619063 0.31677127 0.17925684 -0.58056504 0.06433186 -0.1035562 -0.6030623 -0.8404347 -0.48611534 -0.28436655 -0.0029013848 0.3624939 -0.10472573 0.49035048 0.09882677 0.20188512 0.053901386 -0.49733573 0.1624833 0.6748624 -0.017769145 0.7481187 0.57720625 0.46175206 0.17001233 -0.056148566 0.34170756 0.08029427 -0.16632134 -0.8045909 -0.005005383 0.7482154 -0.041562837 -0.22745827 0.4006315 -0.41304007 0.72088534 0.041055 -0.264257 -0.6001071 -0.71095455 -0.23660423 0.22426291 -0.5407079 -0.68821824 -0.018834716
夫 0.055464603 0.34371653 0.030847907 -0.037326045 0.50771964 0.23284769 0.35059068 0.09625472 0.08699925 0.14727798 0.19560976 -1.4651946 0.29876322 -0.11167268 -0.4984205 -0.53793824 0.64189917 -0.9299464 0.13494681 -0.28689137 -0.08729053 0.71563256 0.14761056 0.040358517 -0.008505162 -0.5925098 -0.14304501 -0.35777757 0.7402352 0.22104634 -0.91232264 0.05818997 -0.22974806 -1.5409245 0.56445163 0.66260844 0.55320245 0.4217514 -0.48237908 0.2061615 -0.12988037 0.5574429 -0.028539343 -0.042508096 -0.5914459 0.24581195 -0.54455197 0.37328592 -0.38008162 0.6408046
、 1.1663027 -0.6916767 0.0727782 -0.6450091 0.56089324 -0.1638341 0.54219985 -0.3461167 0.27117956 0.6710938 -0.59356445 0.26448762 1.7199135 0.18401399 -0.084129065 -0.33434236 -0.46818176 0.5370547 -0.28450638 0.5318025 -0.24553193 1.0255818 0.9228133 0.10051087 -0.03956166 -0.71382326 -0.65322864 0.9054288 0.113378204 0.16847984 -1.9728452 0.8180383 -0.6901008 1.2231721 -0.95526636 -0.47332987 -0.6736183 -0.25136262 -0.15900451 -0.46195742 -0.011980749 0.31538853 1.1753831 -0.078676976 -0.57701826 -0.7517209 0.26291043 -0.26812938 0.25929198 -0.072865434
道 -0.037862156 0.5374595 0.4426149 0.3513949 0.27768156 -0.045239292 0.008379867 0.52456456 0.18415214 -0.15343542 0.7380477 -0.5472743 -0.071227565 -0.28260595 0.28944364 0.13519219 0.57664263 0.9439926 0.2706762 -0.14555776 0.6026804 0.088736184 -0.20257987 -0.23828751 0.8382079 -0.59562874 0.4418831 0.000855091 -0.19014117 -0.24206547 -0.4582706 0.6538562 0.10432773 -0.4878978 -0.15009835 -0.006906502 0.13351643 -0.41142592 -0.2903896 0.29895452 0.6440694 0.34021166 0.45378658 -0.21953724 0.28248754 0.1455071 0.39295223 -1.7212118 -0.5845349 0.42586792
焉 -0.49591902 -0.67401594 0.24215567 0.22984219 1.0245104 0.17307435 0.18494108 -0.5907592 -0.24469157 -0.39825884 -0.13473108 -0.35687795 -0.36000246 0.23137553 0.36403173 -1.1068908 0.90179974 -0.03920533 -0.2608579 0.30716944 0.36538985 -0.7758764 0.32895434 -0.05810384 -1.1953704 0.17858456 0.1189297 0.1077545 0.32763982 0.6136991 -0.4994424 0.1809896 -0.8291636 1.5755175 0.53263456 0.5303516 -0.43428656 0.67893004 -0.67612153 0.2177436 0.19996515 0.34197465 0.37925655 -0.370315 -0.73123366 0.12261762 1.048227 0.12302551 -0.3177997 0.03931815
行 -0.786048 -0.45587337 -0.045555603 -0.25013655 0.29271245 0.3020072 -0.5442149 0.3227876 0.16882043 -0.15895149 -0.17349258 -0.59684163 0.09774144 -0.8177491 0.0028736016 0.4388946 -0.121397376 0.19941731 -0.23294353 0.7679235 0.3210156 0.15627202 0.36712456 0.097080015 0.04173619 -0.8089795 0.17607762 -0.11902763 -0.7849352 0.43715113 -0.43715882 -0.35947934 0.44592106 -0.6771377 0.75363237 0.8095637 0.35110512 0.306714 0.08853754 -0.032989707 1.3237084 0.34791023 -0.36683494 0.03683325 0.28396308 -0.23542404 0.2973804 -0.5482596 -0.43876526 0.08368402
谓 -0.36580396 0.09050318 -0.012663311 0.15729693 0.1263213 0.8101034 -0.19375677 0.8425404 -0.79977286 -0.34680274 0.997605 -0.74133587 0.0067104315 -1.0274891 -0.07901348 0.35364118 -0.043554835 0.18952097 -0.53179616 -1.0367362 0.29949296 0.16007262 0.23489958 0.24863316 -1.642051 -0.6130103 0.86967707 0.32845214 0.9017648 0.17231643 -1.0534648 1.0208979 -0.056340598 0.07433794 -0.83436626 0.11276006 0.48478162 0.68264973 -0.14651577 0.8348597 -0.63370997 -0.45139956 0.09237082 -0.42780703 -0.3178378 -0.7766644 -0.66632617 0.4743817 -0.22948031 0.07889009
必 -0.19843197 -0.28382918 0.15788098 0.13092493 0.06485384 -0.45864537 -0.49224773 0.5342385 0.4847408 -0.54612654 -0.29981273 0.2905995 0.6223046 0.39147976 -0.06728407 -0.35473147 -0.69678485 -0.04460283 0.4673091 0.12774602 -0.24906193 -0.15175326 0.2540354 -0.04419762 0.9409032 -0.48652616 0.84293884 -0.37467042 0.32196185 -0.16504124 -0.58010954 0.33788157 -0.1595139 0.48209023 0.98268425 -0.1969496 0.71519655 0.04311894 1.0630039 0.62168324 0.59552443 0.53883517 0.34913862 -0.72814965 -0.7884664 0.30216464 0.33695644 0.063764736 1.0344744 0.043971445
礼 0.48013392 0.33408716 -0.23080623 -0.6151864 0.027879829 -0.036983922 0.12957226 0.28557009 0.36733255 -0.27097166 -0.13150221 0.3509052 0.50895923 -0.48897487 0.13449831 -0.6351498 1.0050565 0.4042943 -0.76786566 -0.10003556 0.7816284 -0.5355052 -0.20749803 0.10032222 0.12747696 -0.2676344 0.5593024 0.5395685 -0.32669577 0.57313937 0.49444887 0.55776185 -0.5790896 -1.5126556 -0.7181331 -0.2939625 0.22596578 0.6185803 0.16599485 0.061550573 1.6294532 1.5445945 -0.48750135 -1.3125008 -0.51960456 -0.59847105 0.25869304 0.17692676 -0.12977907 0.4142752
孔 -0.010453201 -0.0015276115 0.13248685 0.17299189 0.34763807 -0.3815257 1.1719419 -1.3398448 0.025193559 0.36010888 0.6019357 -0.15188979 0.018203218 -1.1267911 -0.21470211 -0.28346893 0.61465573 -0.13538754 0.7175558 -0.3965732 -1.1415875 0.66478056 -0.39987555 -0.39174747 -0.93686354 -0.51414967 1.3179548 -0.3102045 0.16642173 -0.8075524 -0.7564122 0.70886886 -0.039912883 -0.25867397 0.78673065 0.14355454 0.040540986 0.14402665 0.00965667 0.37114644 1.0151011 0.6973704 0.39458656 -0.3231701 -1.9126887 -0.792206 0.07228032 0.17673013 0.031302094 -0.8719189
斯 -0.78846514 -0.2205921 0.018001122 0.26399156 0.1263366 0.5923495 -0.2558542 -0.024388097 0.15535343 0.2655468 0.011318697 -0.18354292 -0.51568955 0.495546 -0.17730962 -0.34807625 0.46666136 0.013372253 -0.7914691 -0.25590613 -0.5817728 0.13769203 0.48969868 0.37397203 0.7585119 -0.18170787 0.061398655 -0.05247737 0.7092163 -0.55797243 -0.43346626 0.19811743 0.14545994 -1.1241719 0.6003053 0.23214652 -0.10315486 -0.6984626 0.28050494 0.3224793 0.46193832 -1.3812553 0.62975603 -0.86634594 -1.5101876 -0.35829496 0.2224286 -0.23135892 -0.40901458 -0.36231852
三 -0.14747433 -0.567886 -0.1882618 -0.17105722 0.82510215 0.3642811 0.67606694 -0.4597689 0.077969566 0.03049321 0.10206297 -0.009281575 1.0270056 -0.23259619 1.5050081 0.22754952 -0.023300821 0.8340848 -0.61634165 0.0049657393 0.05367542 -0.048115738 1.6893777 0.65956694 0.5081752 0.11088785 1.0853075 -0.6028787 0.6418711 -0.16968486 -0.54168665 -0.07838713 -0.17552397 -0.79016095 -0.32415655 0.064897686 0.34380785 -0.23383749 0.010098807 1.5004393 0.10799106 0.119132586 0.005917756 0.3290097 -0.17179838 1.4298313 1.0514097 -0.34306654 -0.14892116 -0.19135323
能 -1.3194602 0.6276756 -0.09021364 0.09233044 -0.36843914 1.1068612 0.60494494 0.1589117 0.1292802 -0.0899576 0.55628026 -0.70138305 -0.16232494 0.34363982 -0.24344543 0.39975744 -0.08085162 -0.6507842 0.83492184 -0.7844887 -0.25018036 -0.09165743 0.22639327 -0.52986217 0.07605124 -0.41792753 0.7853086 1.0242006 -0.12494212 -0.38682044 0.14352266 0.24264148 0.37644976 1.0332439 0.348222 -0.04918963 0.9650434 0.41119686 -0.13161993 0.20204331 0.6054262 0.77625215 -0.39603335 -0.36350158 -0.23442465 0.4093479 -0.56391484 -0.23131606 0.6475897 0.80847514
见 1.1823566 -0.004284542 -0.43759257 0.77596146 0.8380386 0.31006134 0.32275972 0.1270366 -0.99190664 -0.3321385 0.1583349 -1.5129714 0.14519802 0.28692624 1.4868143 0.5441624 0.03715874 -0.24747388 0.100637764 0.02218393 -0.24713935 -0.15750025 0.18213566 -0.12467944 0.19994247 0.24432373 1.1021343 1.3880501 -0.80399567 0.044713683 -0.1522911 -0.03549219 0.5065664 0.112528265 0.31181002 1.0977972 -0.6471266 -0.39734185 -0.11474302 0.053001255 0.3377098 0.45088935 -1.0267581 -0.3840062 -0.5695171 -0.23542681 0.050319105 -0.3346233 -0.81759644 -1.1415504
学 -0.054344524 0.17363255 0.5325713 -0.3831806 1.1000105 0.28503552 0.17332694 -0.035635024 0.6142436 -0.2177778 -0.24229969 -0.9180284 -0.1894886 -1.1822857 -0.017672665 -0.16620722 -0.85555387 0.07593344 0.46495533 -0.87701046 0.003022411 0.6086843 0.42480737 1.1145569 -0.29454872 1.247453 0.2605681 0.48706612 -0.09892195 -0.4279278 -0.068133086 -0.13319421 -0.19916098 -0.7145429 0.5053213 -0.33584976 -0.1923087 -0.0168725 0.22102846 -0.751065 0.25624916 0.6458754 -0.10583927 -0.19452709 -1.2079175 0.5272377 0.2927383 -0.29557204 -0.21983093 0.33624384
事 0.9009884 0.067807704 0.20959078 -0.21406561 -0.44281143 -0.034176383 -0.7218007 0.4540622 0.38776058 -0.068602145 -0.52936256 -0.8535564 0.67734545 0.065953694 0.16808964 -0.6097028 0.52105784 -0.96681327 -0.37041727 -0.4927639 1.2357434 -0.6294612 0.6639182 -0.41236442 -0.32686368 -0.29761502 0.38339007 0.26055896 0.19125405 -0.37395388 -0.16779442 0.43146047 -0.8373823 -0.2496816 0.3195706 0.37416983 0.10296916 0.38124514 -0.11565456 -1.3040698 1.4556774 0.015081322 -0.57813424 0.59534085 -0.5654585 -0.35796735 0.2669771 -0.9455591 -0.38669187 -0.43732232
是 0.3660028 -0.038286272 0.38684514 -0.483663 -1.0962564 -0.31889167 0.75786686 0.03945649 -0.18101564 -0.09257331 0.36697263 0.33445874 -0.37644097 -0.5175227 0.45255417 -0.19334233 -0.283939 0.6338885 0.10235897 -0.95904416 -0.24257895 -0.04338098 0.64152485 0.5176263 0.31182316 -1.347202 0.98353004 -0.06885119 -0.5029681 0.28415707 -0.5197382 0.97369736 0.23309676 -0.70984817 1.1815006 0.606812 -0.28939396 -0.05047768 -0.5039864 -0.4873739 0.31635627 0.8594779 0.708356 -1.2640253 -0.5327691 -0.6336187 -0.48985633 0.8700072 1.4896988 -0.05307687
哉 -1.4734315 0.35569075 0.6922744 -0.71956164 0.44353265 -0.5685543 1.1751077 0.153201 -0.4067894 0.40643412 0.43417126 -0.84882206 0.88550496 -0.8996934 0.5819683 0.34106463 -1.1065784 -0.043783046 -0.63520306 -0.9971272 -0.23254979 -0.9064889 0.29192212 -0.2759006 0.28434005 0.57328683 -0.19410507 -0.8471492 0.8278818 0.52241194 -0.86894846 0.18695495 -0.41218218 -1.0260723 1.0158577 0.35305685 0.42228475 0.5423578 0.93430567 0.047543928 -0.39478675 -0.15588637 0.32926825 -0.14101246 0.059461538 -0.42013526 0.7520205 -0.51708746 -0.5560194 0.33852264
闻 0.40250286 -0.08699588 0.3012644 -0.8600907 -0.40699545 0.59163725 -0.022245774 -0.032690216 -0.29660824 -0.4052093 0.3811646 -0.89490885 0.3822484 -0.49473214 1.1657406 -0.8538555 -0.44394854 -0.7339425 -0.029210366 -0.23961847 0.5399477 -0.1997047 -1.0527794 -0.08772197 -0.32007658 -0.8041797 0.75897145 0.53672457 -0.8396537 0.35831103 -0.31677404 0.40540847 -0.25557607 -0.4886044 0.27708426 -0.90851593 -0.22748278 0.4583407 -0.9732971 0.8313636 0.21181233 0.08429254 -0.7134509 0.4357286 -1.5374993 -0.16467784 -0.5494816 -1.4274824 -0.69849354 -0.17948782
未 -0.43898284 -0.07474906 0.39548862 -0.003631046 -0.6195594 -0.51875997 -0.74501014 0.7774432 -0.2715687 1.1356921 1.0381501 -0.79719585 0.1573843 1.0660377 0.20409314 0.024645941 0.26309577 -0.1818155 -0.09343623 -0.43040207 0.32828566 0.11996234 0.14232613 0.40597588 0.7030935 -0.7028766 2.063004 -0.30587077 0.13775028 0.23112683 -1.2062762 0.8695663 -0.5253582 0.4824712 0.9560744 -0.13704018 -0.37747332 -0.24154225 -0.593206 0.23385292 0.20465085 0.15277226 -0.0137929525 0.04923551 -0.51414376 -0.061028834 0.013483832 -0.22795427 0.49628833 1.3961014
公 0.11539139 -0.13345432 0.26529655 1.0829173 0.14119886 0.2641254 0.7040375 -0.6389093 -0.41561982 0.19663878 0.14158732 -1.1325905 -0.48492974 -1.9980079 -0.37792242 -0.11336945 0.44232062 0.48294872 0.46019855 0.2071488 0.62287575 0.2575102 -0.26562664 -1.027185 0.09505952 -0.03372137 0.89933836 0.29706255 0.7450666 0.8421404 -0.1539835 0.08320472 -1.2199882 -0.29225686 -0.51855916 -1.5715733 -0.60804635 -0.6790964 0.36913672 0.60144866 0.850525 -0.0024273728 -0.33009806 -1.0891252 -1.6895779 -0.5083791 -1.2563782 -0.12265558 0.44933456 -0.8271116
好 -0.22223352 -0.8785842 0.24590561 0.16375563 1.4797035 -1.1791899 0.40225205 -0.12007865 0.3955235 0.46835935 1.2417938 0.5390562 -0.6890645 1.2080175 0.9935823 -1.0415493 -0.46619657 -0.2871925 0.36247036 0.01164702 0.46902877 -0.23737079 0.13290991 0.39520615 -0.6739556 -0.041764375 0.6811532 1.3369694 0.22191998 -0.039555106 -0.043782074 0.72374636 0.8627673 0.21226506 0.8159728 -0.83321047 0.03509257 0.80050397 -0.5506025 -0.35762435 0.123853356 0.48219526 -0.4201171 -1.4641354 -0.5640206 1.700526 0.404579 -0.634494 -0.47693688 0.34365866
我 0.2927575 -0.058768854 0.36641055 0.60344964 0.3399072 -0.5214231 1.5558714 0.018966 1.2637563 0.02906144 -0.48496214 0.118068896 0.108225204 -1.227502 -0.47310966 -0.6089482 1.5291702 0.6760984 0.31037802 0.36369532 -0.8073243 -0.13969672 0.479909 0.08011607 -0.41608638 -0.33587047 0.08141555 0.15268455 0.040792022 -0.11338008 0.19297181 1.135404 -0.12378307 -0.35360283 -1.096088 -0.98765606 0.04685663 -1.214279 -0.16479142 -0.86867785 0.8803378 0.052173655 -1.0253041 -0.89821625 -0.27327058 0.3151565 0.058300737 -0.041407987 -0.6427769 0.020510597
路 -0.59245074 -1.3358811 0.18613566 1.5469041 -0.16821356 0.13538583 0.1944346 0.3408941 0.51656544 0.047945503 -0.032571685 0.19406317 0.8079313 -0.5034992 -0.3988102 0.6691668 0.7844018 0.36850056 0.08502799 -0.5182715 -0.83481014 -0.17931838 0.38058534 -1.0596853 -0.8636571 0.011943579 1.0276711 -0.6455521 0.6315712 -0.80560344 -1.0994643 0.0065890322 -0.86212796 -0.62215215 0.9984672 -0.83889884 -0.16204755 -0.15065521 0.06815232 0.11269075 0.863024 0.08602654 -0.72059506 0.44549572 -0.5837838 1.5313084 -0.39407563 -0.5192141 1.0532272 -1.2657924
在 0.09401496 -0.8555608 -0.047056984 0.15072306 0.83913565 -0.50083053 -0.1805709 0.84761435 -0.0020519174 0.04866172 -0.5510395 -0.8879021 -0.6036532 -0.1640216 -0.34074655 -0.11547528 0.46691445 0.048042443 -0.06461276 0.7924701 -0.21071939 -0.67760164 0.5654506 -1.0611527 0.335593 -0.967021 -0.06111704 0.25239182 0.3213373 -0.23415828 -0.62092775 0.81126434 0.7016197 -0.08824632 0.3486024 1.0087205 -1.1790501 0.582059 -0.26454484 0.96033454 -0.060373154 -0.20375341 0.8425114 0.2536316 0.22501777 0.6655945 1.1768034 -1.3838241 0.2862402 -1.385235
已 -0.42177835 0.095338546 -0.7833989 -0.20385988 0.94693804 0.5144356 -0.4902928 0.05451358 -0.009021412 0.24174769 -1.1564211 -0.5320221 -0.6304302 0.04541108 0.11933054 -0.92988175 0.42443717 -0.5761142 -0.24222131 -0.084163666 -0.58175284 0.2324024 0.42316723 0.5563974 -0.99128276 -0.28150934 0.5128145 -0.8850429 0.956365 0.4866177 -1.1849706 1.1053941 0.3233702 -0.45985696 0.5010546 -0.44742364 0.1871129 0.024348522 0.2757146 0.82189834 0.45537078 0.59277564 -0.5504521 -1.0295922 -0.18898165 -0.29378036 1.4649007 0.116480425 -0.48515874 -0.098556444
得 -0.344408 -0.71421915 0.43864307 0.12274354 -0.60660076 1.0417327 -0.9981341 0.9013631 0.63972163 0.8391854 0.53822094 0.24667294 -0.46807608 -0.27780098 0.3870305 0.042498577 -0.18158382 -0.28859273 0.3138142 0.45626855 -0.33661684 -0.43384907 -0.052817963 -0.4932605 -0.6262423 -0.7963447 -0.8383299 1.5065013 1.0919337 -0.30226073 0.34839702 0.32532117 -0.46619812 -0.67534983 0.8835106 0.322173 -0.77084786 -0.47580534 0.09305243 0.21721525 0.02460057 0.101205215 -0.08479049 -0.49772286 -0.8868618 -0.19101778 1.1598369 -1.2219338 0.10501221 0.9321673
所 -0.05034988 -0.5248379 -1.0459313 1.0333388 -0.99297655 -0.011022772 -1.4415768 -0.7314162 0.55242705 0.62272495 0.8124255 0.032089513 0.61552685 -0.26682776 -0.18298562 -0.31009462 -0.09231377 0.50265795 1.1066135 0.6722343 -0.90091777 -0.58035535 -0.32266244 0.29999 0.41879514 -0.7860082 0.78010684 0.5957201 -0.12764803 -1.4315498 -0.3955499 1.0232067 -0.12485271 0.28505298 0.7511055 0.4463782 -0.6130565 0.6865709 -0.32398748 0.07871654 0.01333359 0.6939123 -0.34703496 -1.2390224 -0.1456688 0.28825432 0.81779724 0.51595366 -0.63330877 -0.029813351
民 -0.1821114 0.9001115 0.12549034 -0.4037797 -0.18895283 0.08954738 0.47392866 0.66870445 0.6628831 0.59225786 0.19687788 -0.9330325 0.1951955 0.039944373 0.293397 0.12698242 -0.27965766 -0.923288 0.057099182 0.5405811 0.25363585 0.9868935 0.873781 -0.2565716 0.6734629 -0.52278376 -0.25203177 0.2444721 -0.48644638 0.28245142 -0.19597659 0.47859848 0.1431508 -0.22472885 0.24457613 -1.2156137 -0.8207451 -0.6938297 -0.43309805 -0.17737137 0.5140394 1.144449 -0.12439527 0.24750127 -0.43486524 -0.2115436 1.3617605 -1.3690196 -0.5343874 0.49579707
小 0.93658775 -1.0067841 -0.50356597 0.80419564 -0.992428 -0.7539644 1.1488787 -0.7153089 0.34070072 1.3479816 -0.021979995 0.0010110843 -0.8942647 0.12189829 -0.2764931 0.84108037 0.4726913 -0.114557415 0.04672323 -0.82181674 0.38344774 0.3653704 0.7976142 -0.012367498 0.084585525 -0.83536214 1.1518893 0.08780975 -0.46758512 -0.13586697 -0.25204784 -0.09063335 0.7329904 -0.35484964 0.8236665 -0.04947274 -0.25753567 0.20513839 -1.1229175 -0.8483389 -0.43530107 -0.24827947 0.08473892 -0.4238071 -1.4837049 0.10394472 0.4773853 -1.0736166 0.4831433 0.81387943
天 0.44996828 0.2662186 -0.37089613 0.21170439 -0.29323262 0.13577224 -0.56994426 0.2076511 0.8649583 -0.70891327 0.7345149 -0.13101211 0.5143543 -0.3660484 0.061703473 -0.5903637 0.9742801 -0.5866599 0.9316284 -0.5362872 -0.32456145 -0.32971272 0.3159781 0.35478967 0.74705136 -0.31762654 1.3058509 -0.15434344 -0.112873614 -1.0130293 -0.31348458 -0.104093775 -1.532143 -2.010318 0.034605794 -1.0224072 -0.8363425 0.25360167 0.07642234 -0.64535826 -0.10974969 0.52035916 0.5426098 -0.47435957 -0.9157453 0.4897577 0.7601288 0.48284566 -0.14019373 0.9246435
乐 -0.6433554 -0.76568305 0.09054827 0.18837519 0.10840111 -0.028577885 0.61844057 0.031904757 0.6715265 0.26491168 0.41266873 0.4950066 -0.51732725 -0.5287542 -1.0566498 -0.9048631 0.53276443 -0.07511233 -0.57008016 0.50996107 0.53652763 0.77169186 0.2012218 0.7658366 -0.72356 0.41203138 -0.38728687 -0.27405542 -0.8502381 -0.20952152 0.16845909 0.1470797 -0.5298798 -0.58953416 0.7050392 0.293987 -0.105422445 0.05811272 0.61302346 0.33333132 1.3536861 -0.20644762 -0.8732015 -0.5960271 -0.28972694 -0.693169 0.30884424 -1.4186469 0.8715555 0.2526364
邦 -1.0069245 -0.17476088 -0.30755767 -0.8889091 -0.43879792 -0.8260017 -0.26523137 -0.13656819 -1.0360152 0.02778722 -0.3266148 -0.7995943 -0.74336505 -0.6445568 0.5131903 0.055330407 0.11217519 -0.28976634 -0.69576967 -0.041694853 -0.0010501915 0.024328738 0.5162343 -1.4712446 0.43915036 -0.73842835 1.1458193 0.71310866 0.2851946 0.22618675 0.112715505 0.54878104 0.7178141 -0.24397776 0.34524128 -0.6579126 0.13609722 0.0035649796 -0.08840356 -1.0234302 1.4034866 0.0979986 0.05501688 -0.4526435 -0.117294565 0.17400342 0.4127729 -1.1661961 0.24949844 0.51418924
亦 -0.42441192 0.65009344 -0.07831869 -0.332982 0.33911908 -0.07436272 0.01900071 -0.41721493 -0.5145283 -0.034315076 -0.6353047 0.19776571 1.2641219 0.22897233 -0.7768499 0.6538188 -0.97274333 -0.3518456 -0.41725984 0.6824011 -0.64032656 0.32349682 -0.1732881 -0.18291782 0.32936886 -0.61243135 1.04456 0.13226603 -0.20344141 -0.91193444 -0.20499833 0.72580314 0.15662694 0.5828033 0.509583 0.2597737 -0.05340266 0.27807844 0.8267601 0.29463938 -1.0160134 -0.4504506 -0.23349205 -0.8363128 -0.8167854 0.7673746 0.9499762 -0.23015808 -0.70273834 -0.03148405
使 0.24590485 -0.261305 -0.33777353 0.13876069 -0.39602327 -0.49743164 0.9548293 -0.7696395 -0.22984171 0.7767321 0.8474517 -0.6234259 0.39845645 0.81660444 -0.52267295 1.518446 0.3633477 0.15666847 -1.1231959 -0.22079407 0.3084419 -0.11540398 1.1972228 -0.081430316 -0.33416727 -0.26990965 0.9241068 -0.890727 0.22850569 -0.32745436 -0.31875494 -0.094462596 0.23518242 -0.042261284 -0.5678155 0.15275443 0.14993104 -1.3499616 1.3920788 -1.0631101 -0.15920487 0.020079758 -0.2759521 0.022066204 -1.0001367 -0.90723413 0.65141773 -0.88849926 -0.2601504 -0.8092839
大 0.103529744 0.61637074 -0.6508188 0.23851444 -0.6808105 -0.6032538 0.657456 0.46854192 0.6112391 -0.14214234 0.4496075 0.414548 0.3757734 -0.099008925 0.70880044 0.8417121 0.67413926 0.5244475 0.761615 0.6037403 -0.7476177 0.29370284 0.8088411 0.14691843 0.62300724 -0.19426471 1.8214867 0.46682638 0.8114511 0.14890403 -0.046748575 0.7293602 0.5550582 -0.13668145 -0.76412106 0.3447549 -0.36862257 0.90596837 -0.2819495 -0.8071111 0.23602678 -0.07410424 0.938518 0.09642221 0.23694913 -0.75372195 0.2700201 0.5030816 0.79071337 -1.3059336
下 -0.1433249 0.7504706 0.24224919 -0.58301175 1.4723763 0.09810631 1.2995533 0.5075911 -1.2211303 0.5887542 0.14637148 1.4571564 0.4062275 -0.027702406 -0.48070112 0.526846 -0.27267134 -0.18325952 0.29936707 -0.7495645 -0.90202254 -0.5030446 0.3037442 -0.49115065 0.23952708 -0.18639112 0.15673946 0.60298103 -1.6228385 -0.7629134 -0.867106 1.9960263 -0.13288687 -0.9386366 0.7853988 0.27334142 0.7509076 -0.118905984 -1.6441281 -0.35089234 0.054076795 -0.011130383 0.6443929 -0.38264602 0.68393743 -0.5874625 0.80184406 0.6619121 -0.31413478 0.2553105
贡 -1.3878303 0.76049674 -0.26251763 0.14062847 1.3711462 -0.49751526 0.61433965 -0.23566616 -0.5708532 -0.59541845 0.7986236 -0.07232306 1.088052 -0.0892202 -0.10387451 0.77907425 1.2946631 0.9069858 0.30940324 -0.4658136 -1.2015526 -0.69823223 -0.7377392 -0.7146947 -0.884121 -0.46712983 2.8453703 0.7782536 -0.03311041 0.12952174 -1.7264276 -0.09601458 -0.42955655 0.41193435 0.8809094 0.6584682 -1.4768002 -0.16089246 -0.9270229 0.21783416 0.6248699 0.33653486 -0.057841428 0.6827516 -2.5357788 0.093709625 -0.66631716 -0.8409528 0.27699903 -1.6689494
欲 0.07990169 -0.17407402 0.14779396 0.052482523 -0.053230826 -0.72087514 0.636928 0.6926225 -0.011114983 0.39438078 0.36387217 0.6654082 -0.7073633 -0.6921641 -1.3082306 0.56577283 1.0649168 -0.6656121 0.41777965 -0.1933591 -0.6780846 -0.11920673 -0.71452636 0.2812439 -0.39688018 -0.27594185 0.44763967 -0.034548327 -0.094216146 -0.18449958 -0.66440696 0.4163297 0.08582505 1.5019234 0.47807375 -0.47549292 -0.05563101 -0.20676282 -0.3783585 -0.18047458 0.35574463 -0.65417016 -0.6288453 0.36991426 -0.2596883 -0.44972563 0.82246846 -0.26310304 0.7456838 -0.3228107
诸 0.5085931 -0.2598835 -1.5797883 0.6896978 1.0924454 -1.6661376 0.81192 0.51750827 0.60123616 -0.059849877 -0.3087303 -1.0145004 -0.1199011 -1.3969507 0.5757476 0.8202747 1.0219753 0.793 -1.5422558 -0.06957206 0.1501286 0.9912842 -1.3286797 0.4337739 0.52351713 1.4387819 -0.05568156 0.22101216 0.54565185 0.5427926 -0.9160326 0.15300407 -0.41608056 -0.15556112 0.22802411 1.496152 -0.5549456 -0.057691064 -0.6480988 0.45426324 0.27167135 -0.542709 0.072922476 -0.06450494 -0.62755436 -0.29680297 1.6670822 0.24619168 0.6651912 1.467665
从 1.2176453 -0.53981966 -0.5691143 0.6859769 0.0152145615 0.12216762 -0.43522534 0.9085003 0.40893894 -0.76332694 0.45006695 -0.8576191 1.3960603 -0.017866433 0.37694195 0.81924665 -1.081545 -0.93328404 0.6613398 -0.80331165 0.15526302 0.021418072 0.40276563 -0.4676257 0.40682867 -0.42666194 0.92561305 0.68424195 0.37339866 -0.044885848 0.22196136 -0.70355463 -0.9911641 -0.4359835 -0.1717075 -0.7922471 1.0996864 -0.3512435 0.048303828 -0.22512044 1.0350554 -0.18214928 -0.23457493 0.016593417 -0.69976515 0.36054602 0.26491234 -1.2679813 0.18793622 -0.21077375
文 -0.3496957 -0.35351023 -0.30776745 0.6018091 0.8458347 -0.1612167 -0.20920616 0.15918115 0.5918835 -0.09684144 0.45287776 0.0108651575 1.1865355 -0.50241625 -0.24349146 0.5654885 0.43613434 -0.27976465 0.38050136 0.17052548 0.5565213 -0.97310865 0.55719715 0.4933296 0.17767052 -0.003009437 -0.40389726 0.017462952 0.016782805 0.20485765 -0.62527 2.0649328 0.7548578 -0.59258914 -0.5258239 -0.44246626 -0.09114216 -0.34971276 0.071343675 0.8264115 0.197763 0.16456726 0.08601871 0.14392552 -0.1603874 -0.67826337 0.2816933 -0.09377524 -0.26275507 -0.20371541
政 -0.73770505 1.6591164 -0.5558558 0.28884643 0.40033162 0.076071426 1.4319156 0.12161235 0.36507025 -0.4806464 -0.26766872 -0.18927693 -0.09904839 -0.7173995 0.38817978 0.4587082 0.13200268 0.048393026 0.479348 -0.6243121 -0.5641087 -0.04684727 -0.01664115 -0.4897453 0.47565666 -0.24622145 0.1885592 0.26508284 -0.1480193 -0.071487956 0.18151845 0.9473488 -0.04928699 0.01739584 0.8747299 0.067810394 -0.1798237 -0.63486385 -0.046233255 -0.24974605 2.0530758 -0.88372135 -0.34991542 0.13727416 -0.89819264 0.2008104 0.16314442 -0.41080815 -0.08313889 -1.0105529
食 -0.4299391 -0.107443176 -0.39782104 1.1365916 0.012308851 -0.91932875 0.39877638 0.54437286 0.16937587 -0.14857987 -0.02590268 -0.33006734 -0.3207541 -0.40967488 -1.0141405 0.4113813 -0.26643223 -1.1846458 1.4273754 0.1934754 -1.0996186 0.16414896 -0.41780406 -0.36231583 0.6887106 0.12389928 0.93812156 0.514039 -0.037303243 -1.1207143 0.16511497 -0.5047438 -0.44485116 -0.5592521 0.16296695 -0.127367 -0.7252983 -0.44985253 -0.4032323 0.70611054 0.37050807 1.1611363 0.6617639 -0.4802562 -0.41682282 -0.97006416 0.7406122 -1.5759177 0.38255373 -0.23958217
善 0.26785392 0.19329269 0.39519998 0.026276678 0.5560234 -0.94143265 0.19371623 0.4886201 0.92211884 -0.3599045 -0.90246767 -0.08095491 0.07730149 -0.04415118 -0.15398903 0.50114036 0.5594747 -0.6704215 0.41555217 -0.10607813 -1.3143859 -0.13051164 0.17008452 0.96872973 -0.60484666 -0.5623615 0.39821616 0.5028891 -0.43089423 0.8096433 -0.07412135 -0.3565364 -0.46027327 0.27783602 0.3866643 0.80900556 -0.105873816 -1.388517 -0.40793738 -1.3776119 -0.8216279 0.00623973 -0.75181496 -0.7152637 -1.1664932 0.5004026 0.4181914 -0.9352765 0.9140978 -0.6884983
后 -0.8764781 0.11376068 -0.56747675 0.47247502 0.86438406 0.09761925 0.17504004 -0.24951038 -0.5525317 0.6187875 -0.565768 0.30435506 -0.22625555 0.6443051 0.16012539 -0.9012514 0.5060164 -0.24009515 -0.14776367 -0.6895568 0.1723442 -0.7417135 0.3712456 0.5821315 -0.067594595 -0.4139726 -0.3381918 0.17226586 -0.15524647 0.90297085 -0.90738344 0.028198397 0.32267648 -0.3031509 0.24073817 1.0971954 -0.28624287 -0.58381367 -1.2142013 -0.37011516 1.29179 -0.68718076 0.44410235 -1.107643 0.08473834 0.90386176 -0.075574525 -0.18707195 -1.0147951 0.26979467
德 0.4369864 -0.04064566 -0.6520686 -0.10774265 1.0562226 0.81886786 0.38577914 0.5358741 0.34355235 0.10925244 0.28626207 -0.14196597 0.19511567 -0.68733203 -0.75324565 -0.4483751 0.27534094 0.60342014 1.2440213 -0.17812829 -0.012376214 0.25336504 0.15150192 1.364822 -0.16789444 -0.22332247 -0.765488 0.9413129 -0.29392856 -0.3462371 1.017888 0.49765024 -1.0251584 -0.8303896 0.20714824 -0.3217548 0.9940415 0.16440603 0.33689785 -1.0532607 0.26959315 -0.18311653 0.83495337 0.10477149 -0.8441454 0.21811734 0.6741532 -0.20665988 -0.2500595 0.1684848
求 -1.0625684 0.52273333 -0.5915242 0.27368963 -0.018044781 0.1754322 0.98092073 0.85219043 0.13416651 0.46568713 0.2269366 0.12779815 -0.6617087 -0.4959596 -0.6008531 0.37770802 1.6593671 -0.80169374 1.2565936 0.01740468 0.79688734 0.6064835 0.97035354 0.08124129 0.45991063 -1.0694633 0.4507033 0.13614915 -0.0827956 0.19535036 -0.015369056 0.66011876 0.037513528 -0.73847616 0.5763931 0.13875547 -0.21597536 0.05470184 -0.081507355 -0.8330164 -1.5354276 0.24946965 -0.43095207 -0.05048777 0.4125645 0.11771235 0.90190697 -0.4259897 0.058766603 0.03314208
对 -0.1782174 -0.41391352 0.46068496 -0.8789628 1.6043929 -0.1600375 0.5826763 0.08462726 -0.8719139 0.39453104 1.2181039 -0.5916696 -0.04520103 -0.06705913 -0.10652157 0.30998066 0.9763673 0.1477373 -0.94580525 0.87324697 -0.012658567 0.5954012 -0.31860784 0.07922086 -1.0088515 0.11086351 1.5255984 1.0016693 0.8531856 -0.4581646 -0.2850145 -1.1244215 -1.494165 -1.1371667 0.7202716 0.2555593 0.19733267 0.34539238 0.36957115 0.20199916 -0.4072246 0.2992094 0.54277885 -0.12984622 -1.1918998 0.6585137 0.1230326 -0.26915672 0.38797247 0.10553228
恶 0.58692443 0.5042513 -0.351845 0.6576289 0.8585341 -0.88039815 -0.20289443 0.6676931 -1.8596097 0.12613463 0.4995207 0.33650514 -0.4906648 0.2282576 0.99277806 0.0714657 0.5932685 -0.79287726 0.66461533 0.4155423 -0.07498269 -0.069450535 0.0080021005 0.15445204 -1.020465 0.46099845 0.766711 0.7037525 -0.6369283 -0.57683957 0.10466998 -0.015046744 -0.9792155 -1.0016887 0.4658414 0.18543647 -0.3873118 0.95165724 -0.76252836 -0.29939947 0.681469 0.6760256 -0.48714358 -0.103262834 0.22369252 0.23473161 1.6141009 -0.83618104 -0.58900297 -0.17242655
信 -0.40122136 0.09562405 -1.3601052 0.42274696 0.019958239 1.0217963 0.50791997 -0.20073779 0.5695539 0.5021965 0.6092578 -0.09533723 0.22643502 -0.62882286 0.54963756 0.33379212 -0.3379447 0.44814828 -0.49931026 -0.45097622 -0.2842306 0.44325197 0.17861143 0.89846534 -0.58506846 0.26097664 -0.14139685 0.35288942 -1.2394497 -0.19329062 0.74512964 0.26178908 -0.40517208 -0.32180998 0.20776603 0.17991413 -1.497769 -0.028013397 0.26608196 -0.008927818 0.65768844 0.8460315 -0.6215464 0.075013116 -0.65294915 0.65076834 0.90487367 -0.64660656 -0.23225449 -0.5245462
死 -0.7379686 0.0737846 -1.3129907 0.2547759 -0.50128686 -0.2572675 -0.19257617 -0.9308289 0.26261494 0.47466043 -1.003981 0.05608442 -0.9445986 0.002353262 -0.41053274 0.020192802 0.01253112 -0.5134698 -0.38075265 -0.40839928 -0.6938336 0.22226739 -0.0107346 0.061019354 0.4398071 -1.4793171 0.19622095 -0.16233324 0.4623962 0.16104294 0.21144193 -0.46094087 -0.80560106 -0.6310536 0.42358604 0.22952165 0.54373914 -0.5770837 -0.66251737 -0.19770695 1.2541518 0.5173458 -0.5836826 -0.84555644 -0.6631593 0.64015234 1.1415988 -0.4040267 0.013343306 0.16687427
然 -1.345437 0.4707711 1.0806471 -0.9324812 0.56725305 0.1534983 0.1410472 -0.4275435 -1.8036674 -0.37179178 0.025316447 -1.4147795 0.050546966 -1.1787009 0.7155877 0.5783139 0.85104597 -0.13262932 0.7150386 0.78466374 0.25373113 -0.75648063 -0.22391033 -0.11266014 0.11216647 0.8067665 0.26582864 0.879139 0.084809035 1.0048549 -0.34359083 0.3469674 0.5210419 -0.9566272 0.8177317 0.45732215 -0.5277355 0.2673022 -0.29487967 -0.0138891395 0.71400905 1.8628399 -0.41940972 -0.21533406 0.519918 -0.091792 -0.15705402 -0.07900929 0.39472225 -0.5382187
《 0.58361113 -0.45443913 -0.8849387 0.22833002 0.7417958 0.18404923 1.7376412 -0.7685847 -0.15242483 -0.15650517 0.64802206 -0.16312835 0.68634826 -0.79292715 0.13742116 -0.64465946 -0.15159312 0.044193894 -1.0500505 0.5628095 0.12769017 0.5424211 0.897482 0.5661835 0.037852425 0.8212008 0.38168785 0.66195846 -0.6487696 0.60227454 -0.1839819 1.2063049 -0.6136266 -0.48668078 0.25352883 -0.3719967 0.92098236 0.41015244 0.25025126 -0.13518599 0.80367726 0.28560066 0.3786586 -0.29034606 0.0011223507 0.93136615 -0.5564833 0.49728805 0.63143784 0.76335275
》 0.35058758 -0.17941505 -0.42639914 -0.2447544 0.3802015 0.8546871 1.8235582 -0.06672376 -0.07960153 0.22029276 0.18374605 0.8550028 -0.5161458 -0.7898398 -1.3717008 0.34801316 0.39349076 -0.41911057 -1.0221938 0.7552741 -0.09662634 1.3357749 0.5414747 -0.15859963 -0.4155151 0.7411596 0.3460015 0.32441553 0.6120646 0.5912276 -0.16154417 0.9552932 -1.7225217 -0.61492157 0.75926924 0.23757778 -0.8809339 1.282887 -0.6140107 0.85387 0.5906513 -0.0283769 0.854242 0.15429175 0.6326217 0.19006303 -0.15075319 -1.2529448 0.18618059 -0.3144254
由 0.044264883 -0.95812815 -0.563055 -0.91566014 0.9120297 0.63309294 -0.030710706 1.0418053 0.10842273 0.39746064 -0.61337686 -0.5240653 0.57318985 0.017848123 0.75082177 0.5959382 0.18015201 -0.8551399 0.95296246 -0.17424947 0.6406686 -0.49099445 1.1733626 0.7959236 -0.39085856 -1.5410903 -0.4371849 0.049006987 0.5642346 1.1354287 -0.035551395 0.840027 -0.37757882 0.5650075 0.93714195 -0.1741989 -0.54769343 0.44638774 0.6993405 -0.63154525 -0.49505088 0.65086985 -0.070460096 -0.382421 0.3379187 0.66356725 0.49170148 -0.78127545 0.18549679 -0.27997845
仲 0.19300528 0.7648123 -0.69407755 0.033841256 0.5492267 -0.02121298 -0.34179616 -0.45188648 -0.6609742 0.21962966 -0.22405678 -0.8444834 0.44177753 -1.4765679 -0.47602323 1.0696546 -0.24724191 0.14823462 -0.71156937 1.2573581 -0.52418554 -1.0962131 2.0621426 0.497097 0.99539375 -0.8317862 -0.03687368 0.39897203 0.4958533 0.29971826 0.030957188 0.6975439 -1.0568482 -0.04124212 -0.03929 0.19564301 -0.8477154 -0.795088 0.48754597 0.7737179 1.0357542 -0.31220987 -0.55701077 -0.54767567 -0.7142148 0.18907277 -0.38539693 -0.42938715 0.8768607 0.58598495
非 0.44547045 -0.87606496 -0.36959726 -1.0933926 0.7128122 0.15897831 0.6815535 1.4574436 -0.37803218 0.25187397 -1.2326462 -0.29533836 -0.44051135 -0.017337697 -0.020471882 0.15045355 0.51446897 -0.0022622738 -0.0037038117 -0.21467444 0.5097508 -0.09464688 -0.5660354 0.9930702 0.03775834 -0.6286973 1.2549945 0.829089 -0.2508235 1.0896068 0.31009027 0.5527051 -1.2303841 0.28632316 0.92769814 0.06694037 -0.41222346 1.1471766 0.103825144 0.99711734 -1.2591462 0.32938245 -0.14276215 -0.13396993 -0.038304035 -0.49330792 0.2637939 -0.51910156 1.3673131 0.2072797
出 -0.99150646 -0.029150486 -1.4937555 -0.7319795 -0.16032195 0.39927194 0.36049765 -0.065661795 0.90039283 -0.08995129 -0.79448503 -0.94455266 0.39069605 -0.22018552 -0.25065488 0.11237335 -0.6046239 -1.0179855 -0.75073355 -0.3411559 0.5534987 0.49308634 -0.34633094 0.1462361 -0.50092554 0.7069016 0.9243656 -0.26297358 -0.1595799 0.6766266 0.23668766 -0.8611922 -0.83007807 0.10345083 -0.13877302 -0.28014392 -1.0543156 -0.320183 0.15765989 0.22288318 1.2533101 -0.14285356 0.16169496 0.4975129 -0.6832747 -0.06762581 -0.11526514 -0.987965 0.05199999 -0.9511655
过 -0.129238 -0.53567404 -0.20879327 -0.394924 1.5129629 0.5666647 0.7716917 0.43617085 -0.4790902 0.10580842 0.36068827 -0.7416655 0.17568628 -0.018663136 0.28896496 0.48876378 0.28105852 -0.5854303 -0.11675491 -0.5210247 -0.9305288 -0.6362282 -0.14462489 1.0371119 0.67431283 0.17148072 -0.0052986494 0.74442583 -0.70460594 -0.74876934 -0.40600535 1.3695741 -0.849032 -0.30058703 1.2367127 -0.5362914 0.16618605 0.768448 0.19893564 -0.07786396 -0.62763774 -0.16194782 0.35095227 -0.0073814206 -0.15680501 -1.1044719 -0.15456577 -0.29687938 -0.21571457 -0.26636666
一 -0.5365978 -1.3564342 0.039383303 -0.30762082 -1.0875456 -0.3259235 0.55191255 -0.89776534 -0.01840402 -0.5634179 -0.26377526 0.32385546 1.7989742 -0.14466491 0.6523781 0.3697752 0.16978197 -0.15122907 1.8331102 -0.21743421 -0.6280751 -0.6158294 -1.6469536 1.3579571 0.13570179 -0.6507648 0.7463107 -0.33806208 -0.035517707 -0.41498923 -0.39612076 -0.21469796 -1.0802915 -0.30137324 -0.2551027 0.67032915 0.5220401 -0.13100207 -1.7991321 -0.11906106 0.18132144 1.0497123 0.20228276 -1.5648804 -0.09897578 -0.5673768 0.6867467 -0.19772886 -0.973028 -0.28628528
虽 -0.71744734 -0.44734624 0.22078699 0.022252927 -0.89668524 -1.087862 -0.014823189 0.021016002 -0.1971268 -0.6781592 -0.63232815 -0.65042603 -0.77836025 0.39279845 -0.48990625 1.4496447 -0.6719656 0.033714734 -1.0041316 0.68324006 -0.3419726 0.32857904 1.700774 -0.4210382 -0.32794383 0.4379311 0.689022 0.54807955 0.73748785 -0.2858711 0.013446518 0.34657305 0.32809272 -0.85211176 0.7641741 0.95668054 -0.37996885 -0.5063759 0.07897502 -0.81202585 0.90355504 -0.11877992 0.25053245 -0.23101045 -1.5210656 0.83021885 -0.636945 -1.0139061 -0.17378378 0.8277506
足 0.17637035 -0.88831437 -1.2946196 -0.5459346 0.7996857 0.029044513 0.99549866 -1.0091038 0.5771097 -0.81269586 1.0512468 -0.6866717 0.77138084 -1.1271888 -0.36838797 -0.5498499 -0.059847135 -0.28081265 0.71714145 -1.0842239 -0.8410431 -0.5063664 1.0271384 0.5862735 0.3768014 -0.25688425 -1.0674672 1.5785394 -0.57865334 -0.55445343 1.3594762 1.145031 0.022257637 -0.5111958 -0.18169472 -0.513868 -0.14908855 0.12845941 0.7969717 -0.8499173 -0.055856805 1.0746734 -0.6316677 0.8117328 -0.8470644 -0.42919978 1.6121132 -0.63803136 0.11095638 -1.5459406
居 0.26621348 -0.20313576 0.05449826 -0.905079 -0.3819441 -0.591682 0.4281623 -0.41139197 -0.25703007 0.11771913 0.3959924 -0.66537195 0.5329298 -1.9394852 -1.2313405 1.1445248 -1.0956268 -0.1727787 0.45586956 0.013648122 -0.04135102 0.05792733 0.7222925 0.46831578 0.7638205 0.5279375 -0.099883616 0.3559885 0.7393569 0.21740241 0.30273852 0.31664428 -0.0045562987 0.349334 0.2889154 -0.4494103 -0.9066845 0.28181595 -0.696678 -0.66235554 1.0695794 1.3506055 0.036363617 -0.41126135 -0.8063327 -0.8683035 0.46104825 0.33210686 -0.36351743 -0.46023473
尔 -0.91594815 0.108543 0.52049154 -0.13834879 0.40313673 0.8727303 0.5285922 -0.28198785 0.6687592 -0.3121192 -0.29881808 0.95240784 0.39491212 0.7158443 0.6905348 -0.2763074 0.65882885 0.61025244 -0.12543572 0.7892284 -0.6709554 -1.1217827 0.08900294 -0.5049965 0.57944864 -0.19994462 0.79420346 -0.028281085 0.4684674 -0.5524904 0.2960647 1.2753683 -1.2430645 -0.87543344 -0.40100107 -0.20190522 -0.281125 0.14681408 0.6675742 0.049527895 0.22050498 -0.5089147 -0.6048752 -0.860683 -0.23047903 -0.7015365 0.90137094 -0.6404352 -0.81470346 1.1446116
夏 -0.77267545 -0.52544993 -0.32359543 -0.050319802 1.4648093 0.2710615 -0.046922788 0.24638292 0.36363843 1.0539486 0.091793284 -0.28233576 0.642689 -1.3431432 -1.521702 -0.48843294 0.48377782 -0.0067835255 0.39414552 0.39380383 0.85489887 -0.27385396 1.1124523 -0.26614416 -0.464569 0.15851778 0.048290584 -0.87016547 0.26570588 -1.2088374 -1.2140757 -0.26906994 -1.423617 -0.18487681 0.9699718 -0.612833 0.7949796 0.28328407 -0.360924 -0.092233464 1.0945638 -0.026664048 0.32350686 -0.5838652 -0.25937092 0.69025874 -1.4127091 -0.76147836 0.801739 0.5429691
父 -0.013737038 0.45010427 -0.6417135 -0.29524562 0.04776171 -1.4456326 -0.053214896 0.5962281 -0.061728638 -0.4618885 0.29528585 -0.6414057 0.7736256 0.088374354 -0.94807786 0.3232316 1.0511497 -0.4860922 0.5456923 0.4009213 -0.04092886 -0.1463631 1.2106892 -0.9704635 0.34534103 -0.37486976 -0.1800751 0.07627317 -0.25484458 -1.1374016 -0.41314712 1.5089291 -0.89471984 -0.034457445 0.12030249 -0.84789026 0.096901886 -0.055121556 0.5211869 -0.995831 -0.41162372 -1.036246 0.7502277 -0.6874077 0.10664327 -0.61547345 -0.12157993 -1.2294723 0.8327657 -0.057009805
及 -0.96667135 -0.17282067 -0.9322675 -0.1892428 -0.16076156 -0.52794814 0.79026085 0.23960844 0.624297 -1.0365717 0.24857554 -1.0631182 -0.80714774 0.7409222 -0.5386223 0.7659199 -1.0162857 -0.41879842 0.22875233 0.017916279 -0.55967796 -1.3290163 0.23779882 0.49139893 -0.6279229 -0.3659496 0.27369115 1.9399763 -0.12693253 1.2747221 -0.32544264 0.36170825 -0.23795117 0.0921248 -0.69701153 0.056367323 -0.34626657 0.334792 -0.31743893 0.935249 0.51580393 -0.014181818 -0.6491233 -0.4075713 0.4232726 -0.8463443 1.38608 -0.09297056 -0.46382856 -0.0972687
己 -0.45764247 -0.44233906 0.122994415 -0.055159345 -0.15071337 -1.4459889 0.60949993 -0.13877545 1.2094507 -0.56331563 -0.87749076 -0.006745672 0.98924845 -0.4452084 -0.5461563 -0.503294 -1.2480242 0.30079195 1.0495592 0.91196316 -0.20836855 -0.6494838 0.54849005 -0.7070638 0.11820912 -0.36425382 0.1612745 0.55650973 0.21857426 0.3863475 0.22619957 0.91340154 1.2521784 -0.41362563 -0.09066508 -0.42456335 1.7642895 -0.07092414 -0.000934614 0.19400625 -0.052043427 -0.6846819 -0.40974677 -0.24135573 -1.1664199 -0.28073332 1.9493817 -0.71528876 0.020626275 0.16390549
予 -0.59176534 0.67668 0.06467174 -1.22049 -0.11993237 -1.3226429 0.08841535 0.19830109 -0.44922772 -0.9947878 0.32996207 -0.26530108 0.6853094 -0.51178616 -0.79268086 0.72895074 0.85054564 0.69004697 0.10016175 0.009302359 -1.1651198 -0.3563842 0.080872215 0.41199765 1.301154 -1.065348 -0.024143595 0.48692545 -0.70813066 -0.46424228 -0.060237437 1.6637232 0.16771653 0.087084815 -0.72204787 -0.30556878 -1.4248148 -0.082017295 0.29663384 -0.46173155 -0.1852242 0.5183275 -0.17697625 -1.2581756 -0.1328298 0.44636253 0.29936665 -0.9315201 -0.9201502 0.3125995
色 0.39721912 -0.190655 -0.086775795 1.5873945 0.03959073 0.96185607 -0.10593334 -0.08186248 0.6711411 -0.783336 0.6161992 -0.66273135 -0.49002114 -0.28706086 -0.24112935 -0.058477823 0.65793693 -0.39875177 0.5100511 0.9345198 0.58164 -0.6469737 1.5592855 -0.8690302 -1.6974133 0.4854917 0.37760463 0.20841862 -0.7021224 0.18082733 -0.43812388 0.6913606 -1.0179869 0.43399605 1.2842659 -0.72377676 -0.7618723 -0.101063885 -0.08674317 -0.7705668 2.018759 1.3262372 0.9858464 -0.23694344 0.32266888 -0.47919855 1.6763695 0.7644791 -0.94579965 -0.46805978
友 -0.29811957 0.47284913 0.6228594 -1.1258407 0.7996503 -0.26865667 0.8551961 0.97305936 0.08118193 -1.1573961 0.36124578 -0.496598 0.8058262 -0.04438254 -0.46533522 0.62208235 -0.20703813 -0.5489064 0.35652196 0.24506687 -0.6787664 0.007891728 -0.6964514 0.13852821 0.89746875 -0.4955565 0.27741525 0.91813076 0.19630821 0.80087686 0.41049254 -0.7047697 -0.6646892 0.2653027 -0.321353 -0.6235235 -0.3724209 -0.4586934 -0.38144457 1.0584372 1.1483631 1.091408 -0.102548316 -0.71679974 0.1213351 0.49770176 -0.017097997 -1.512557 0.30133608 -0.6488927
成 0.41053182 0.067285806 0.523104 0.6429375 0.5264324 -0.437372 0.06244801 0.6467284 0.480653 0.20487723 0.048777472 0.8730391 0.390606 -0.36061856 0.039510667 1.4158399 -0.2661455 -1.2373277 0.96449226 -0.6573681 0.17401393 -0.8657326 -0.0909902 -0.8718383 -0.5428868 0.008963589 0.3970358 0.15133432 0.23199987 -0.55481225 -0.05549129 0.2812776 0.22906618 0.28814694 0.5889207 1.0644766 -0.031967346 -0.37566328 0.24589524 0.16021822 0.451446 -0.5631333 0.86908406 -0.54536504 -1.1030377 0.21579926 0.21951184 -1.4226379 -1.1093817 -0.15672484
远 0.8066336 -0.07089158 -0.9456726 -0.93053204 -0.35941884 0.26417112 -0.04189474 -0.2604498 0.21342127 -0.21995962 0.5424598 0.27578822 -1.5395957 -0.35467425 1.5688578 0.767333 0.18471922 0.060913395 0.035160158 -0.5751433 0.028221937 0.93446773 -0.43498456 0.29909697 0.20517291 -1.077472 -0.8572378 0.16689497 -0.12595575 0.46183246 -0.5225113 0.4939655 -1.4548223 0.37694782 0.29996148 0.81593007 0.15994804 0.3969693 0.44980222 -0.032255117 0.11607386 -0.9968554 0.3888619 -0.40944713 -1.0233505 0.75649196 0.47326583 -1.1404091 0.28356785 -0.7191263
上 0.017497977 0.6817903 -0.05839519 -0.83715117 0.45718512 -0.12510638 0.46017176 -0.35539633 0.9293125 0.07786969 -0.23757645 0.7578862 -1.1080811 -0.36498913 0.6612809 1.1802782 0.7171269 -0.08038126 0.0027070548 -1.1618205 -0.39871925 0.2243864 0.9856622 0.5797448 -0.33154503 0.75232196 0.61028063 0.29199693 0.029811967 0.24082372 0.31891882 -0.16720198 0.14039229 -1.291862 0.28084564 0.4931056 -0.39563417 -0.57224697 -0.8509704 -0.07013975 -0.47527558 0.84896016 -0.29558253 -0.17449039 -1.0168947 0.7196306 0.67930275 0.3060247 1.1009779 -0.3652351
立 0.5881144 0.027055727 0.42979023 -0.034167763 -0.30653128 -0.0036841042 0.115547284 -0.78897524 0.7987896 0.47895816 0.7537703 -0.21892904 -0.4604634 -0.5667271 0.13722616 0.5296537 0.24515252 0.23513268 0.5344108 -0.12744193 -0.12587857 0.60157806 -0.65165603 0.053275358 0.27252257 -1.7900916 0.6753162 0.38011438 0.033214085 0.056030616 0.21067452 0.37080416 -0.2503826 -0.69650173 -0.45230392 0.22436795 0.20509367 -0.24055552 -0.1759791 0.50993586 -0.04217797 -1.183899 -0.1072605 -0.088589706 -0.9028739 0.12990613 1.4502934 -0.47231805 -0.489893 0.5186171
今 -0.028307363 0.21879596 1.0374414 0.14349893 0.9155702 0.07855504 -0.055444416 0.40371096 2.558296 0.9906801 0.4255187 -0.4125226 -0.040551357 -0.46422073 0.98504186 -0.21467103 -0.20055726 -0.36761898 -0.005353533 0.8864368 -0.2797943 0.17453979 0.46654773 0.28106293 -0.26938683 -0.14602827 1.6250874 0.88390636 0.15814129 0.62226284 0.41260594 0.6188735 0.12350801 -1.6831535 0.25807822 0.26025563 -0.424314 -0.18416956 0.02629885 0.4544115 1.034529 0.10099597 0.3996706 -0.6668212 -0.011890371 -0.5865915 -0.4779697 -0.38330072 -0.6562813 -0.2332905
张 -0.6431898 0.5765866 -0.019717393 0.56796235 1.6825957 -1.6529617 0.8646805 -0.7227586 0.6437218 0.78533775 0.4363991 0.28729492 1.0561973 -0.34639585 1.6038905 -0.33624104 1.019108 0.36985496 -0.992741 0.58187896 -0.09433507 0.7094635 -0.21051331 -0.03836647 -1.5425968 1.004644 0.88538843 -0.6694403 -1.3209698 -0.1831836 -1.5433023 0.43002167 -0.7502271 -0.15610655 1.8674427 -0.1858246 0.345257 -0.6517422 0.5397469 0.31285748 0.6975825 0.75243586 -0.60940135 0.35805848 -0.4135008 1.1929466 -1.0799104 -1.2664707 -0.15418305 -0.6228072
中 0.2592568 -0.6172317 -0.50393164 -0.007475511 -0.17160352 -0.29863253 0.60020065 0.21889336 1.2175298 -0.29373372 -0.5236934 -1.1333761 0.11823321 0.13965519 0.70873386 0.9305969 -0.2516828 -0.7481475 -0.15556318 -0.3247425 -1.3418987 0.6232109 -0.06484504 0.40643677 -0.41711485 -0.54756886 -0.45569524 0.82706213 0.82817143 -0.7118771 -0.34485447 0.5054821 -0.12738398 -0.37700778 1.0246902 1.1581918 0.72409326 0.07562868 -1.2431053 0.72842205 1.1207769 0.1574551 0.74179715 0.33754578 0.12334421 -0.3347882 -0.062524684 -0.35832524 0.3813039 0.2482424
季 -0.24523403 0.21366085 -0.37558216 0.040833052 0.78980666 1.2822541 -0.006335494 -0.9197129 0.5442706 -0.2595352 0.5465506 0.40163288 1.4723858 -1.989181 -0.26683766 -0.9252734 -1.370969 1.0994108 -0.28801236 0.21953174 0.07734192 0.6157122 0.42186314 0.15530199 -0.52082926 -0.0056449086 0.9699361 -0.43840083 -0.06338309 -0.1232499 -0.23600428 0.40123785 -1.4691181 -0.34665754 0.60820967 0.7806977 -0.48006442 -0.7434276 -0.11962894 0.35666728 0.4465021 -0.17716749 -0.4702879 -0.00059114856 -1.5942034 -0.24066554 0.14070204 0.006329073 0.123954564 -0.19299665
臣 0.5205242 -0.52766836 -1.0615166 0.1776311 -0.6662455 0.5866157 0.44968078 -0.3370169 0.03288823 -0.10377469 -0.9734611 -1.0972735 -0.28188694 0.75922287 -0.42304274 0.38765466 -0.47500077 -0.1380545 0.5510737 0.054520287 1.1930277 0.7400508 0.5821166 -0.0451629 0.697425 -0.5282953 0.8727425 0.2309047 0.5707533 -1.1193262 -0.34156474 0.9714331 0.009933411 -0.69892085 0.5833997 0.4363448 1.331983 -0.0026966971 -0.08192064 -1.628902 1.305939 -0.35933128 -0.362855 -0.45821992 -0.1530009 0.6331813 0.27191192 -1.295116 1.2049268 -1.2111351
贤 -1.0822158 -0.29799432 0.07006101 0.36547887 0.10699512 -0.37680653 0.3969479 -0.34954345 -0.114522874 -1.3881472 0.6036751 0.85959905 -0.6427432 0.25704643 -0.19554816 0.2942528 -0.36433014 0.5584412 0.044417575 -0.8412259 -0.21523972 -0.4048627 0.40193123 0.3147483 -0.43629384 -1.2267501 1.0339197 0.5530195 0.9339181 -0.4152978 0.038699947 0.37612763 -0.52322215 -0.7000226 0.20903483 -0.020299764 0.22460449 -0.11543989 -0.32046938 -0.9549899 -0.32657918 0.72907835 -0.6468641 0.24259165 -0.24357449 0.8675861 -0.12983836 -1.0353324 -0.36130026 -0.6157586
思 -0.22775936 -0.21017532 0.93762004 0.6349446 0.6727348 0.2548534 -0.20815195 0.5437785 -0.72512525 -0.8600065 0.31874117 0.17540832 1.0573524 0.4199961 -1.252149 -0.47209162 -0.19068933 0.024927216 1.2381649 -0.09154758 1.8443605 0.70985585 -0.14202707 0.49024168 -0.71710604 -0.065074496 0.5022771 -0.7621747 0.3878188 -0.41739848 -0.9001133 -0.19833781 -0.2896962 0.22386064 -0.144632 -0.27809244 0.82332134 1.118795 -0.15478428 -0.5911921 0.3735352 1.0575451 0.18900275 -1.1789584 0.6513044 -0.33433768 0.16369335 -0.71634746 -0.0035339165 -1.9273219
齐 0.30024892 -1.3688692 -0.08262517 0.63367444 -0.38543987 -0.025136981 0.3895299 -0.386938 -0.19732131 -0.0822128 0.55544144 1.0437968 -0.5359321 -0.5787305 0.9365259 0.3139105 0.29986572 -0.3414917 -0.33495763 0.20992999 -0.077709004 0.34136146 -0.4285804 -0.45839697 1.1694788 0.4477737 0.71326774 0.46098247 0.13199502 -0.15683325 0.23365463 1.5925255 -1.143012 -0.23722786 0.80244607 -0.62176573 -0.24744299 0.6155899 0.08279416 -0.9227952 0.3346379 -0.46716532 -0.17553197 -0.3044708 -1.0661741 -0.044053502 -1.2115217 -0.8686364 0.0060855458 0.24984844
义 -0.18938747 -0.88604766 -1.1649983 -0.62990916 0.47364938 0.54447514 -0.5102293 -0.31889835 1.8769487 0.12119938 0.14961837 0.86682415 -0.2107547 0.339873 -0.78466874 1.2387927 0.2562696 -0.3813028 0.714914 0.5385464 -0.96927696 -0.06901562 0.3654143 0.3939323 -0.7319725 -0.53594464 0.68004465 -0.06763959 -0.67001367 -0.6868092 -0.47652042 0.84798855 0.9196262 -0.58024144 0.8586047 -0.7214727 0.68206614 -0.20510931 -0.73927677 0.5873211 1.1093031 -0.2358311 -1.6994795 -0.5479125 -1.4722598 1.1581196 -0.065961696 0.095283896 0.46632507 -0.082643375
正 0.27449766 -0.0032466983 -0.052139953 0.18105575 0.19268587 -0.71900666 -0.47820812 -0.13040912 0.8737249 -0.23917489 0.7308575 -0.7830379 0.5629084 -0.91973126 -0.006246041 1.5546793 0.8177825 -1.2567443 0.09865717 0.12308929 -0.4091535 0.11302994 -1.0457296 0.5092292 0.26014045 0.5396658 0.42774 0.8599599 0.2415121 1.501073 0.1831294 0.6550024 0.5373617 -0.40877905 -0.2665882 -0.1650335 -0.947373 1.8143853 -0.13799912 -0.7951972 -0.5298739 0.2825059 -1.0502557 -0.15146899 -0.17129137 -1.225414 0.6296416 -0.57777977 -0.97348136 0.18767066
命 0.79705673 -0.07331854 -1.2455769 0.8405543 0.06970764 -0.005516792 1.5683296 0.5495513 0.104337074 0.08327695 -0.5090991 0.29082635 0.2619999 0.8801043 0.5720613 0.8599738 0.063282825 -0.2194178 -1.0117741 -1.7986946 0.32401994 -0.12097071 -0.82551914 -1.0530832 0.9299608 -0.40756714 0.44343427 1.097496 -1.0928566 0.27255917 0.18378998 1.0892785 -0.4518003 0.0028312067 0.48948058 -0.8564214 0.7928633 -1.2862005 0.29876065 -0.18648565 0.03540107 0.41790962 -0.49007612 -1.1938447 -0.33515105 0.54986626 0.89860284 1.149201 -0.74008304 0.08168764
曾 -0.68189496 0.9329908 0.048862536 -0.42714646 1.179669 -0.6494737 2.2831635 -1.877089 -0.39532188 0.11207711 0.4573029 -1.1018497 0.18521316 -0.8700506 -1.5210319 -0.3571861 -0.41348234 -0.46260795 -0.14567658 0.66819996 -0.508953 -0.40240353 0.02852154 0.14457542 0.15635027 -1.0070776 0.0041362806 -0.6268106 0.290377 -0.5209738 -1.422579 1.094654 -0.9743802 -1.0982649 0.5189252 0.07780386 -0.41725 0.9158891 1.176147 0.91177946 0.5019098 -0.2170127 0.5907244 -0.8416259 -1.0455428 -0.8181544 -0.011888804 -0.07917701 0.51282364 -0.34157342
伯 0.15560383 -0.99171156 1.2654713 0.44144684 -0.1666384 -0.09367543 1.1056484 0.5170984 -0.4043103 -0.32278618 -0.23941708 -0.6062017 1.6372769 -1.1211954 -0.016184803 0.42816585 -0.5537817 0.07189015 0.13328408 -0.782871 -0.8624749 1.4034941 0.7596464 -0.70705664 0.63550586 0.060911745 0.3819283 0.048696548 0.7790966 -0.055805642 -0.11640893 0.97868264 -0.81477314 -1.3903403 0.016081976 -0.9821593 -1.4131302 -0.7255257 -0.6192773 0.7002267 0.85957676 0.8486213 -0.1566343 0.27955833 0.24161884 -1.3311872 -0.4217549 -0.8419596 0.40617415 1.06
门 -0.16527598 0.7816203 0.37220463 0.3133266 1.2199556 0.28317985 0.81955016 1.804344 -0.73959917 0.775902 1.7126826 0.00878545 -0.5914981 -0.2657443 0.58087057 1.4523532 -0.063528314 0.04292786 0.34875622 0.0771906 -0.9078913 -0.46882704 -0.2729727 0.7792935 1.4513731 -0.4624957 0.92154735 0.9186221 0.4714082 0.94194156 -0.23048966 -0.25014266 -0.43049952 -0.17096959 -0.07444914 0.3698164 -1.148815 0.066967115 -0.79039764 -1.3217422 0.35119998 -1.1262196 -0.47239476 -0.3013435 -0.6716383 -0.52377385 0.23001774 0.0772955 -0.18943602 -0.21205114
敢 -1.9735423 1.0151815 1.2924725 -0.0071135783 -0.31782877 0.27445418 -0.82148725 -0.25111583 0.5073529 -1.3119285 0.17061971 -0.28792518 1.2137644 -0.71504605 -0.2827093 -0.015850076 1.7263833 -0.41482973 -1.2495884 -1.4115715 0.3771969 -1.1865824 -0.36141497 -0.3024671 0.32630378 -0.48087585 0.95449364 0.8746676 1.2302326 -0.15864429 0.17806824 0.18011288 -0.62089884 -0.057785716 0.3211029 -0.76660264 -0.17470898 0.8102509 -0.45282373 -0.66788304 1.1360625 0.6648543 -0.38249138 -0.13093385 0.47005704 0.9408981 0.25456223 -1.4275794 0.3171205 -0.14985472
犹 -0.60874724 1.1809056 0.14358579 0.6013181 -1.1757917 -1.2799826 1.4816381 -0.30319783 0.60459006 -0.09440839 0.6616208 1.0975486 0.5088042 0.770692 0.507263 0.9819584 0.2745159 -1.2018589 -0.5301805 0.35398653 0.28057045 -0.6539462 1.7154492 0.9472173 -0.71956897 -0.23250383 0.7266452 0.57561404 0.030147668 -0.021674681 -0.13991101 -0.67351294 -0.79474306 0.7429946 1.3966249 -0.30856267 -0.94040406 -1.0764399 -0.5899129 1.4793497 0.032883383 -0.4262001 0.8390596 -0.4512586 -0.23268749 1.0064288 1.2918059 0.22974521 -0.1877031 -0.98521173
生 -0.3098104 -0.03669995 -0.07156921 1.5021863 0.33596888 -1.4674578 -0.35159323 0.5300885 0.80784154 1.2139206 -0.13832666 0.30089957 0.16839418 0.100363106 -0.7504217 0.48174125 -0.6336591 -0.18024905 0.32538518 0.39603928 -0.5755866 0.00722573 0.5630974 -0.4448555 -0.8220058 -0.1527766 -0.3323573 0.36461094 -1.0006018 0.8502008 -0.058062613 0.10648795 -1.3733788 -1.201527 0.89903814 -0.48954248 -1.4828598 -0.39890975 1.2810236 0.4548799 0.58708394 -0.09375805 0.6809971 0.48832053 1.0295017 0.59932053 0.18064068 -0.7763525 -0.6390042 1.0482044
日 0.60880685 -1.3887547 0.2852121 0.37906972 -1.2188139 -1.0862231 -0.14951943 0.0257363 0.07009252 0.13761948 0.12213767 -0.5476883 0.77726096 -0.45931008 -0.863568 -0.4034689 -0.7735096 0.3397549 0.43293366 -0.56029236 0.3087066 1.1392787 0.29445243 1.3110113 -0.40904436 0.3136472 1.182224 0.3575014 0.13586639 0.4187429 -0.4738724 0.86373144 1.1195903 -0.10058659 -0.06358419 0.26600933 -0.70411867 -0.45654288 -0.13602161 0.10406762 0.72609174 0.6268423 -0.1607194 -1.8277786 -0.6610962 -0.3309659 -0.24218458 -0.37924147 -0.9114395 -0.27837428
敬 -0.24789672 1.0552684 0.35026628 -0.06676386 -0.06338647 0.95680875 0.051605377 -0.8535308 0.50077975 1.0399952 -0.22936852 0.5098501 0.3261401 -0.75760853 -0.75567997 0.0053369524 0.010351357 -1.121005 1.1743183 -0.0031636625 0.35752046 -0.72951597 -0.14894965 0.05573716 -0.99598366 -0.2108615 -0.49118426 0.21440668 -0.24692124 0.48159182 0.18496624 0.21286067 -0.57219416 -0.13820097 -0.399164 -0.67407954 -1.0127983 -0.55625355 0.8391572 0.87089777 1.1404713 -0.10436251 -0.6320258 0.0012232836 -0.82285845 -0.23731412 1.4551857 -0.26290628 0.32888123 -1.2436491
难 -1.4551959 0.010851503 -0.7234862 -0.29934472 1.2848858 0.21463053 -0.06838061 -0.37874803 0.15505354 0.7326887 -0.733091 0.4124635 -0.5473207 0.9249358 1.0142782 0.16564938 -1.0096142 -0.49042055 0.72996396 -0.8896357 0.28489223 -0.6484617 1.4641286 -0.32510203 0.20668149 0.5276078 0.9328858 -0.14697544 -1.1021239 -0.07294221 -0.78258276 1.1430819 -1.0766191 -0.17865483 0.716213 0.9417264 0.80806017 0.32538125 -0.015309485 -0.5998216 -0.6853687 0.7195886 -0.6749334 -1.3014319 -0.19095866 0.3696396 -0.16288339 -0.20490633 0.05067664 -0.54277956
直 -0.35887983 -0.2800928 -0.22791827 1.0791953 -0.005350192 -0.39396718 -0.48711392 0.36146048 1.4499128 -1.3392287 0.1877553 0.36510095 -0.3893543 -0.52301973 0.94503003 -1.2344489 0.43421218 0.087701924 0.49587622 -0.09694991 -1.0984932 0.26420555 0.71163934 0.11114523 -0.42914855 0.09295187 0.029896284 0.32605612 -0.7035072 0.031524174 0.75764567 0.7883025 -0.304982 -0.50677335 0.43677178 0.2847074 0.34638014 0.11426894 1.2203507 -1.0802782 0.2527933 0.9354653 -0.39075387 -0.6904942 -0.65559787 0.41594395 1.201757 -0.2986678 -0.16073507 0.09966863
丧 0.6091745 0.8830067 -0.21258032 0.7315281 -0.22538047 0.55573267 0.09565202 0.23086393 0.79083955 -1.1875101 -1.2737651 0.12917553 0.2515425 -0.40214688 0.36047924 0.17253837 0.77767956 -0.95460016 0.113839716 -0.20665692 -0.2510888 -0.7358419 -0.53925633 -0.022080202 0.22060296 -0.51828146 0.76826084 0.44346553 -0.42630437 0.677413 0.16871174 -0.062646635 -0.19700198 -0.9668147 0.19526163 0.29125512 -0.36707792 -0.13809131 0.5551451 -1.0750227 1.0192641 -0.21762337 0.1727051 -1.4467787 -0.6078201 0.8637495 0.4295249 -0.3891664 0.49525136 -0.7522778
说 0.18228795 -0.6741975 -0.45983288 -0.8560251 -0.1382673 -0.009422955 1.3144215 0.9539233 -0.47199816 1.2952571 -0.27975526 0.5993448 -0.3101513 -0.25564164 0.31183356 0.30276158 0.6758841 -0.13798377 -0.07777748 -0.35916045 1.2053579 0.8354119 0.21320286 -0.23399998 -1.8374124 -0.6960703 1.3306847 -0.71549237 -0.969521 -0.72669005 -0.35842934 0.4659307 0.0337544 -0.8870912 -0.009365453 0.61934537 -1.2717185 0.2792977 0.5334771 -1.3693595 0.6846216 1.4236681 -0.19010085 0.9163348 -0.98169166 0.8985672 1.6549705 -0.9740929 0.858824 -1.1390456
自 -0.44046524 0.3091383 -0.040407635 0.5184111 -0.43173042 -0.79002637 -0.06758912 0.21532795 0.8055764 -1.4228162 -0.03252253 -0.22944793 -0.5629935 -0.22056615 0.31372616 -0.2115573 -0.39067346 -0.60263634 0.61658835 0.4435018 -0.17376103 0.6561774 0.6476532 -0.68852013 -0.072651975 0.44724458 1.8466628 -0.13771123 0.85958016 0.46992835 -0.14594458 0.10405481 -0.49359784 -1.1957792 0.67268705 1.1623408 0.33472404 1.1388412 1.6491396 0.27499655 0.6211909 -0.3081547 0.32254216 0.7316186 -0.09852178 0.79491574 -0.2787291 -0.3002685 0.08746221 -0.4330068
用 -0.6258684 -0.106348805 -0.23447159 0.2765279 -0.1608585 -0.5787549 -1.6331837 0.75706184 0.32557493 -0.436307 0.6160124 -0.48989213 0.81450707 -1.2511443 -0.16986847 0.35365447 0.31292278 0.602403 0.07683461 -0.6078379 -0.1798963 -0.05567291 -0.81302214 2.145922 1.0726407 0.086235814 0.7606802 0.58409023 -0.84433293 -0.23691088 -0.8690522 -0.29769692 0.50481856 -0.010686119 0.13674258 -0.1347375 -0.32191727 0.20852849 0.32933393 0.78469986 0.32553703 0.0865856 0.68208134 -0.9628873 0.45062006 -1.1712711 0.3374376 -1.7703072 0.6449314 0.69897765
周 0.059192605 0.2509735 0.90120065 1.7808706 0.021317437 -0.15002559 0.18948486 -0.3381524 -0.34475458 -0.6283735 0.02922898 -0.9800111 1.7242593 0.67906296 0.08138634 -0.90806156 -0.5800686 -0.08844195 -0.2947444 1.3731894 -0.20088954 -0.5151135 0.7554388 0.20145695 -0.8528297 -0.28767017 0.53163576 -1.2665309 0.48487702 -0.5421809 -0.5108018 -0.837348 -1.0554134 0.07323058 -1.160132 -0.08579173 -0.358859 -0.3631951 -0.5386749 0.9146081 0.7196079 0.84631044 -1.7750441 -0.47220853 -1.2627811 -0.31576914 0.36471653 -0.54566246 -0.015777154 0.12624902
颜 -0.55819297 -1.1040477 -1.4222699 1.1795734 1.0515305 0.2158218 1.7187444 -1.5217872 -0.9537898 1.1377761 0.34056473 -0.39583814 -0.40739486 -0.5489059 0.9485861 -0.8251575 -1.2248557 0.799041 0.46470663 0.20195228 -0.3289573 -0.54057693 0.09931386 -0.5818806 1.2205914 -1.4609845 1.2297448 0.10376418 0.21534665 0.15224704 0.009105545 0.95765406 -0.71045154 -0.08938041 -0.07038579 0.6377919 0.80912954 -1.7972056 -1.0713327 0.76557356 0.72341067 1.2519023 0.99940795 0.34705904 -0.8910286 -0.23795703 0.7343594 0.12465492 -0.79314363 1.6509888
年 -0.117212504 -0.82867926 -0.8511539 1.7295766 -0.5807619 0.54647535 0.3031655 0.518968 -0.3974424 0.16007324 0.72106 -0.8628104 0.47237286 -0.607412 -0.34528753 -0.20976721 0.28307837 -0.43985432 -0.31376624 0.26553735 -0.1568278 1.5781698 -0.0113659315 -1.1043923 -0.4342494 -0.8780976 0.5271418 0.28561124 0.3173159 -0.7130225 -0.012852887 0.90183425 -0.4013993 -0.1579555 0.9133263 0.13660672 0.7026379 -1.0178647 -0.47049248 1.3542128 0.794045 -0.11693287 -0.08028304 0.021224422 0.42128167 -0.31001544 1.0533795 -0.6038225 -0.6008969 -0.2936661
告 -0.23968498 -0.31034583 0.5229611 0.16735075 0.4628811 0.17138337 0.4925251 0.33386916 0.12132585 0.35610655 0.81227535 0.16687235 1.559925 -0.54320323 2.0295672 1.1875495 -1.1645397 -0.05389498 0.20991915 0.6148322 -0.13234766 0.41716817 -0.5465501 0.43686205 -1.2443298 0.5805909 0.4514234 -0.33089232 -0.25431398 -0.9748502 -0.037820138 0.8041799 0.4983734 -1.4346365 0.67705125 -1.3498962 1.5161513 -0.7645157 1.4759097 0.87298596 -0.76346534 -0.62613815 -0.020474838 -0.78637654 -1.8341429 0.22253849 -0.29402605 -0.7606533 -0.057558745 -0.44137058
十 1.5079244 0.96858376 1.4630679 1.6147214 0.25811052 -0.04141752 0.63943666 -0.34966937 0.7804118 -2.152244 -0.7121341 -0.70697445 0.56812567 0.052968547 0.6427482 -0.7297641 -1.3756707 -0.54209876 -0.3821841 0.34953123 0.78566396 0.5821568 0.40685514 0.45908326 -1.1384572 -0.38819334 0.289326 0.5428221 0.85302407 -0.5556006 -0.29303053 0.419105 -1.0149764 0.7682778 2.0573418 -0.9755666 -0.4305711 0.048888035 -0.75860786 1.6796831 0.053778823 -0.7943637 -0.64438653 -0.6864474 -0.8365225 0.32134202 1.5190407 -0.5613303 -0.5328633 0.593472
怨 -0.9976154 0.4315187 -1.097349 0.70571953 -0.5134616 0.582848 0.6368526 1.4408835 0.3068878 -0.25270784 -0.45608085 0.24564569 -0.3251646 -0.79258054 -0.94556594 0.4162482 -0.80174905 -0.27027795 -0.8903773 0.44603297 0.4623948 0.9332638 -0.69857067 -0.08990217 0.06788994 -0.6166216 0.19414222 -0.07916526 0.46475163 -0.7166816 0.59047365 0.80246454 -1.0979 0.35340157 -0.27010593 0.5206644 0.6599186 0.03716834 0.0064538764 -0.5635315 0.9396172 0.5257698 0.33609578 -2.443661 0.703265 -0.26436618 0.38874587 -1.5334108 0.4726751 0.536061
达 -0.21909907 0.21723679 -0.14329432 0.20502701 -0.2771611 0.7228442 0.75306827 0.16232325 0.8539953 0.8394437 -0.41761592 0.34605333 -0.27508065 -0.746104 0.19135255 1.3627347 -0.47994903 -0.52250683 0.5801152 0.41311643 1.1717246 -0.21429597 -0.14285892 0.1741826 0.0017788013 -0.40230924 0.39068243 0.6846698 0.595951 1.3786361 0.21530126 0.5070245 -0.679026 -0.24998638 -0.15125483 -0.22308372 -0.38193765 0.17209283 0.9681561 -1.0307356 1.7639797 -0.56511086 -0.57647896 -0.084085025 -0.96635205 -0.23633832 -0.040465027 0.21902856 0.8418967 0.7074592
孝 -1.0555366 1.22652 -0.8854965 -0.25858644 1.1454352 -1.2000408 0.08833548 0.91393954 1.1267054 0.11919174 0.034655944 -0.22754121 0.24678728 0.2603772 1.1076338 0.9075275 1.4922462 0.68703794 0.10080522 -0.94346005 -1.5854001 -0.5980779 0.23328426 -0.47228035 0.39049584 -1.0632597 0.019083178 -0.13496995 0.5316284 0.259824 -0.26109666 0.5913183 0.23023444 -0.5720762 -0.54179394 0.6891492 0.23650491 -0.55332685 1.3067557 -0.32211137 2.4151528 0.2823042 0.0181281 -0.33597165 0.64947695 -0.38852763 -0.09204818 -0.4171133 -0.24237064 -0.43332097
弟 -0.3673141 0.36240432 -0.2688992 0.90546733 1.3151039 -0.49528563 -0.46999133 -0.47618404 0.6145687 -0.4342603 0.16042084 -1.3029289 0.19790494 -1.8151106 -0.52990097 0.7623316 0.88056624 -0.8230005 1.2083522 -1.4556261 0.45595953 0.64872265 -0.79032844 0.13525853 -1.0681391 0.28410357 0.19681464 -1.1314826 -0.21391638 -0.45645985 -1.6518269 0.8688818 -0.6762158 0.33858994 -1.2598763 -1.2228483 0.6243912 0.17310186 -0.11055758 1.135745 0.30027002 1.4838449 0.3048373 0.31134006 -0.9984045 -0.4575734 -0.67240494 -0.56252486 1.346198 0.19352879
至 -0.08408027 -0.7329556 -1.2183555 0.82090116 -0.522406 0.1265902 0.32445794 0.7653398 -0.17041662 0.5675515 0.91158897 -0.76199335 0.25171614 0.6321662 1.2514977 -0.12257436 0.18239692 -0.5206361 0.5395181 0.43945953 -0.80168676 0.67779386 0.69763404 0.6464735 -1.0462762 0.99624544 -1.0448782 -0.16276075 1.1642146 -1.2014376 -0.34174815 0.41207206 -1.1153214 -1.1253968 0.048578124 0.9821104 -0.70968825 1.0605087 0.76947373 0.11403963 1.2438606 0.37908205 -0.40768182 -0.7387125 -0.065876134 0.5050762 0.19744918 0.0020113054 -0.7983834 -0.83201224
先 -1.7948929 0.54827064 -0.8756789 0.85027117 0.8547394 0.8105768 0.9870065 -1.2519044 0.48487097 0.3087646 0.2944316 -0.0020687194 0.23443615 -0.74816084 0.84960115 -0.72410154 -0.13459869 -0.047126617 -1.6784446 -1.0604014 -0.15253717 -1.0035821 0.9464865 0.5936537 0.5781988 -0.95927113 1.1466974 0.061252028 1.150214 -1.605522 1.336877 0.37345234 -1.0137377 -0.2834411 -0.81516355 0.22040153 1.1245128 -1.0631093 -0.4727967 -0.7132785 -0.29995778 0.09133275 0.53000176 -0.29000103 -0.072419815 0.5893639 0.066495515 -0.46062365 0.68930566 -0.7910055
师 0.20355377 0.1606871 0.40027168 -1.4077848 0.54653543 -0.28023407 -0.00911324 0.3527659 0.63056463 -0.33103663 -1.0360574 -2.030696 0.6441746 -0.3276 0.5561534 0.9070541 -0.51939404 -0.32437807 0.25184476 1.0068192 0.3742162 1.0274742 0.4633733 -0.67572933 -0.36682397 -0.8628546 -0.20190033 0.55057675 0.5506291 -0.761878 -0.037807636 0.5408216 -0.025122257 0.48012882 -0.21450967 0.0001247423 1.3551059 0.115740724 -1.2451955 0.72698975 0.71015716 0.2847451 -0.5838329 0.30701086 -1.0331169 -2.1437378 0.19355369 -0.23890054 -0.28260785 0.27097163
女 0.3307214 -0.38442767 -0.5886345 -1.5797967 0.56233686 0.7102425 0.14231996 -0.7703991 0.42226493 -0.19978294 -0.12809607 -1.0247746 1.4263195 -0.91823995 -1.5175042 -0.25072303 0.20607896 0.76034725 1.3613222 -0.32846814 0.99428964 0.09124287 0.22115281 0.44776952 -1.1955554 -0.28914577 0.8176473 0.67759794 0.3837435 0.22079074 -0.53232354 1.126355 0.47383645 -0.8496562 0.9354226 -0.21695262 0.8238413 -0.9183112 -0.55487275 -0.08225257 0.3093318 -1.5240946 1.2930534 -0.6720432 0.8927362 0.041159797 -0.29515195 0.18732664 -0.3909484 -0.311846
多 -0.8590004 -0.26476508 -0.35564983 0.31325495 0.09608968 -0.8080583 -1.3038005 -0.32458776 0.5018355 0.95660007 0.90665454 -1.010771 1.8951929 -0.30687687 0.64324766 -0.20309137 0.21355793 -0.5237644 -0.20921849 0.27070794 -0.1291896 1.3651953 -0.9455 -0.3277531 -1.8270975 -0.025848111 0.73670495 -0.21726641 -0.4624578 0.5258784 0.3357829 0.4753914 0.09406167 0.50747305 0.77994007 0.17315283 0.32716638 -0.35296816 0.17860156 0.022945404 0.4468157 0.42385092 0.094463 0.6126211 0.38258594 0.7997691 0.5781033 0.044616476 0.46767068 -0.17903137
忠 -1.5473673 -0.18415906 1.245625 -0.14227405 0.16262157 0.18766521 -0.58159304 -0.35701576 1.2291217 -1.4588926 0.1625402 -0.65164715 1.424886 -1.4141991 1.7948736 1.3691992 -0.311251 -0.32702398 0.17441669 0.26689652 0.16029385 0.4916859 0.149396 -0.22432014 0.030080788 0.5229488 0.36063826 -0.85770667 0.93164194 -0.6976312 0.32370096 0.54103607 -0.98242867 0.67049336 0.8777966 -0.09198059 0.73589146 -0.4811858 -0.14297248 -0.23585802 -0.32942033 0.93047816 -0.41444167 -0.9437933 0.21471302 -0.118574455 1.1343786 0.28966096 0.82106364 2.0175266
四 -0.7031095 -0.46187472 1.0793561 -0.6505694 1.4793812 0.31481197 1.9141616 -0.5431683 0.45342624 -1.5644433 -0.59999 0.20099632 0.31982586 -1.0373819 0.49162078 -0.5974016 0.37782532 0.8589832 1.7194505 0.5165993 -0.41542485 1.5372559 -0.23608889 1.2189227 -0.034320127 -0.14926994 0.1472465 1.0909108 -0.4747102 0.38522935 1.1144758 -0.7801824 -0.018572867 -0.7316983 0.81971824 0.5574481 0.10504135 -0.60026824 0.28257242 -0.06747929 0.5136662 0.5390115 -0.24821544 -0.76333505 -0.87733346 0.1299493 0.018885218 -0.42206624 0.09983187 0.31513458
疾 -0.018885436 0.05492186 -0.2001797 0.2887079 0.6305033 1.1296473 -0.6659886 0.6615405 -0.29327902 1.2380252 -0.14357755 -0.52363443 0.091419846 0.13841328 -0.40823296 0.56727326 -1.1005864 -1.4027904 0.5727648 0.959287 0.6976843 -0.5452029 -0.91835916 1.3493758 -0.5525142 0.31836575 0.81522787 0.26491883 -0.30622888 -0.28236026 -1.4198496 1.2166837 -0.6725622 -0.7377764 0.052755445 -0.8984635 0.52734596 -0.375536 -0.8392331 1.2623903 0.7092625 -0.8262765 0.54005075 -0.25617772 -0.37903422 -0.4080239 0.8241465 -0.22093682 0.02207196 -0.13861863
服 0.45376927 0.71477914 0.5409802 0.37818003 1.0466348 -0.8615126 0.22404127 -0.79581386 0.84824824 0.85333246 0.15417257 -0.5606276 -1.0990727 -0.06415056 -0.37238362 -0.07123343 0.6741936 -0.2175908 1.0213177 -1.1845219 0.79098296 0.34309173 0.655776 0.780467 -0.93865126 0.46617305 0.07723956 0.7687582 0.46883175 -1.0013031 -0.03911833 -1.0293278 -0.8639528 -1.230478 -0.0055376273 1.0718749 -0.7035584 -0.21271238 -0.6829656 0.29846314 0.050854757 0.7357355 -0.15071212 -0.15238148 -0.48059076 -0.3404075 1.2624811 0.6547771 0.9374877 -0.27805945
氏 1.2459363 -0.23633866 0.019018644 0.3673095 0.66621125 0.5644334 -0.9901917 2.0257704 -1.081826 -1.234993 0.8432109 0.5607747 0.24962932 -0.88364404 -0.72564805 -0.6208415 -1.5495664 0.34295633 -0.60029846 0.5494271 0.5010163 -0.55890846 1.3528079 0.19387715 -0.71384335 -1.2663423 0.20084353 -0.1156259 1.2062273 0.63615644 -0.71933126 1.5009212 -0.47624132 -1.0283915 -0.14050005 -0.20819479 0.28812194 -1.3691628 1.3340324 -1.0764827 0.7677169 -1.3664513 0.027910126 -0.1242674 -1.2496159 -0.017488493 0.24640374 0.09048412 -0.6571781 -0.29594582
冉 0.6496873 0.49277583 0.35373896 1.3166525 0.31411093 -1.6345384 1.5435508 0.8596411 0.6035818 0.068502456 0.6120803 -0.56295043 0.029993191 -0.8868394 -0.4424868 0.24578199 0.17931412 -1.315457 -0.1369932 0.55705905 -0.41409644 -0.3694633 0.116735764 -0.7377019 0.49317494 0.87229663 0.7975055 -0.29653028 0.53282636 0.46885762 -0.114632316 0.59591806 -2.0192552 -0.5696497 0.6456542 0.6762674 -0.44679895 -1.2444189 0.6091729 1.0711588 -0.014802686 0.1648052 -0.52533644 0.14539602 -1.0838636 -0.12610146 0.22722596 -0.037832793 -0.18083912 -0.10358903
将 -1.5641142 0.26149473 0.0801971 0.56697786 -0.60052556 0.5610325 1.1345146 -0.4142852 0.7396783 0.5523318 -0.62652034 -0.3022901 0.92162204 0.25964928 -0.41637245 -0.10687373 -1.2931751 -1.1002654 0.47943783 -0.5326526 0.023114936 -0.8538892 1.7560077 0.47729924 0.010456096 0.46853656 -0.33453777 -0.5096749 1.4727013 -0.75986093 -0.026557835 0.57991725 0.1601783 0.7190939 0.2028813 0.44980326 0.8948798 0.22458158 -1.5037025 0.7670051 0.82500476 0.1399081 0.11716164 0.5974621 0.73662424 -0.38449925 -0.2677778 -0.9153374 -0.3509624 0.19177707
士 0.42347804 1.211454 0.05838938 0.25708067 -0.98256254 -0.584759 0.962142 1.699564 0.22167891 -0.23537633 0.80927205 -0.18253224 0.1326709 -0.87443846 1.153628 0.41281104 -0.036817793 -0.8407504 -0.94157356 0.84612316 -0.55746734 0.09663425 -0.48240033 -0.041990124 -0.9957435 0.48480362 0.23399171 -0.19173099 0.5756145 -1.5897541 0.23380089 0.4529314 -0.18930975 -0.6207803 0.9944828 0.8296839 1.3295765 1.1884992 -0.38922662 -0.4175288 0.06837324 -0.39723092 -1.5608057 -0.53684306 -0.09495795 -0.2542186 0.620089 -0.04820065 -0.6290153 0.046824556
丘 0.7036994 -0.7970737 -0.1885452 0.10327465 0.8394855 0.8003346 -0.52564293 0.2325327 0.54528993 0.40793514 -0.29210111 0.19728236 0.5139112 -1.5944027 -0.23811775 -0.36868683 -0.02577275 -0.09422474 -0.7198132 -1.2568954 0.17624542 -0.30633584 1.2302353 0.30505893 -0.8011591 -0.39051968 0.48756027 0.79584605 -0.5023926 -0.15780847 0.14320727 1.6171484 0.30680174 -0.24946865 0.0135853 0.15446943 0.7182853 -0.16045538 0.50183773 -1.3264332 -0.0019490091 -1.3129332 -0.040178552 -0.5351898 -1.5121561 -0.36401787 -0.9542276 -1.2041398 0.2109322 -0.90641767
身 -0.36310968 0.5595944 -1.530871 0.059793256 -0.48050615 0.72513556 -0.6430376 0.3420829 0.84236777 -0.59530425 -0.18986964 0.017455807 0.49243417 -0.28809714 -0.25252378 0.12406463 0.3964616 0.0999492 -0.4329483 -1.1912589 -0.23962234 0.26804978 0.4047544 -0.18174745 0.88114655 0.9534174 0.4007256 0.9686672 -0.13370821 0.33447474 0.19312191 -0.70352775 1.7267388 -1.6973464 2.310679 1.3097926 -0.40020633 -0.2994637 -0.16287708 0.84468836 1.1304185 0.37763616 1.3783754 -0.87079394 0.4987849 0.15265916 1.6245922 -0.7012225 -0.32913437 0.41820762
入 -0.25715977 -0.31609705 1.0713034 -0.15996943 1.5613757 0.9407056 0.5294657 -0.1869412 -0.4629517 0.6583355 1.312052 -0.755626 -0.7784373 -0.03529675 -0.79007876 1.9303533 0.40442488 -0.022404546 -0.24783911 0.38228437 -0.3093457 1.6730044 -0.08151527 -0.93270797 -0.30095217 -1.2939464 0.5735514 0.1404751 0.8936616 0.7292524 0.66942024 0.1295276 -0.8530782 -1.1886839 -0.25931373 0.545792 0.075794585 0.13651222 -0.8876676 -0.17009024 0.045527227 -0.68107486 -1.7582058 -0.8104835 -1.0526694 0.38410163 0.2567213 0.53594536 -0.9057833 0.008351962
志 0.22552663 0.14463508 0.57200074 -0.22289892 0.26494598 1.133816 -1.2246221 -0.3410166 0.1392615 -0.35677558 1.3285776 0.098213054 -0.15352197 -1.5328443 1.6426629 -0.1985528 0.36680716 -0.50126827 0.78414565 0.48199666 -0.53639925 1.0356681 0.26922813 0.2525831 0.44757077 -0.53893286 1.1228291 0.79268116 0.052269455 0.43023 0.4651984 0.95592505 -0.017694535 -0.43436673 -0.46293136 0.06310288 -0.5535708 -0.69895303 0.016287839 0.80955964 0.70068634 0.81672525 0.40437263 -1.0337007 -0.870974 0.14398104 0.30096966 -0.3773246 1.0976857 -0.21526264
耻 -0.736493 0.12075503 0.5857826 1.0325991 0.5955676 -0.07000391 -0.51655465 0.2612646 0.24820183 -0.027172199 0.4333912 -0.6055222 -0.1290715 -1.1373502 -0.1269771 1.1902943 -0.36466187 0.04389125 0.70898616 0.32055998 -0.8965113 0.17392646 -1.5502732 -0.8649401 -0.5674431 -0.094422415 0.43369812 -0.027383668 -1.3501265 -0.54813033 -0.768468 1.1243906 0.5747505 -0.57842475 -0.20462115 0.5303466 -0.42484847 -0.60672873 1.4945334 -1.2275788 0.76733935 -0.15695047 0.5633008 -0.035529166 -0.9444427 0.09574328 0.85243386 -0.15370624 0.12517175 -0.10128033
失 -1.4251901 0.39152005 -0.4017853 -0.6471941 -0.8074751 0.81513935 0.90397227 -0.79807615 0.8217784 0.27609017 1.1482018 -0.37816048 0.07630489 -0.83394456 -0.8423601 1.3559335 -0.8567212 -0.935085 0.14769651 0.22877598 0.7428706 -0.089239456 -0.9492202 0.26148802 0.6798017 -0.509219 0.2761591 -0.21891803 -0.10682158 -0.34938598 -0.7992467 0.9065242 0.13882837 -0.9218129 0.6453133 1.2149162 0.23313081 0.9897676 -1.3138514 1.2450966 2.1491897 -0.3720566 0.6908851 -0.5063621 0.20539981 0.7872898 2.148299 0.39483723 -0.47509095 0.68694055
安 -2.675923 -1.7505015 -0.7355825 0.3903746 -0.9201189 -0.9411531 0.6210184 1.1013632 0.23025824 -0.56359583 -0.3399715 -0.6751658 -0.38641366 -1.2545041 0.02800582 0.53984845 -0.36283097 -1.2192749 1.0214853 0.008449725 0.44873294 -0.8245483 -0.8807993 1.0463313 -0.25350302 -0.6785844 1.0972341 0.014631817 0.21774316 -0.66905946 1.2691461 -0.9715951 -0.75975037 0.8600468 -0.5146531 1.149595 0.74888027 -0.8085856 -0.59806424 -0.7871993 -0.096149445 1.2854638 -0.9799954 -0.7469409 -0.6975786 0.26981387 0.8629253 -1.0981661 -1.6205833 -1.1000897
富 0.24051534 -0.23510931 -0.075814374 0.8081425 1.1346866 0.19933939 -1.2973593 0.020501005 0.28234327 0.6065439 0.5738432 -0.2543981 -0.17998874 -0.77712137 0.5383428 1.3365488 0.19397654 0.1692203 1.1824989 0.8167195 -0.8742501 -0.1889228 -0.23639917 0.51337975 -0.615145 -0.60714054 -0.43394578 0.04116919 1.3716477 -0.048226416 0.09520498 1.8330091 -0.56303424 -0.39968693 0.5204986 1.0798783 -0.068065174 0.27911144 0.53907436 -0.39984366 0.29257357 0.6561427 -0.36731184 -0.48158193 -0.8188507 -0.12395871 -0.15038477 -1.4241049 -0.14155138 0.7438413
赐 0.056779005 0.18680026 -1.4106928 -1.7185929 1.0891806 -0.04415276 0.021795254 -0.23096527 -0.49551937 0.49618268 0.08995906 -1.5930916 -0.66182935 -0.50239843 0.67911166 -0.32212487 0.39451146 -0.27788946 0.28157705 0.05085294 0.11835867 0.033330996 1.0127441 0.30575046 -0.08990544 -0.476233 1.0316503 0.8471009 -0.8162193 0.33315456 -0.97784734 1.0224243 0.6679764 -0.18020041 0.39671838 1.2918897 -0.15320818 -0.348058 -0.8508321 0.20000635 0.33201605 0.8024032 -0.77227473 0.2523983 0.49437955 0.4400549 0.60880196 -1.1346798 -1.2662516 -0.3925392
患 -0.17727302 0.25220808 0.36172453 0.7142121 -0.38322788 0.641773 -0.37917745 -1.5101619 -0.184781 -0.47304818 0.43440345 0.74609345 0.6339074 0.3968724 -1.3176959 0.9339064 0.92163944 -0.13990165 -0.8124891 -0.4744746 0.88375014 -0.4875347 0.6964471 0.3943297 0.025215995 0.48220468 0.34547737 0.059760615 -0.4087223 0.2071235 -0.21064901 0.28268215 0.3421025 -0.8063545 0.31370807 0.15814506 -0.8733364 0.43419293 -1.2321819 -0.25778422 0.7636254 -0.064092115 -0.6626083 -1.6183176 -0.6379123 -0.06039709 0.7680437 -0.9002613 -0.10769343 0.5988458
百 -1.7327073 -1.785064 0.7444172 -0.95374656 1.418146 -0.582948 0.6192302 0.44194362 -0.3980565 -0.18511946 0.62966436 -0.7723592 1.8505611 -1.433172 -0.9622066 -0.7207014 -0.05922208 -0.8608243 -0.010489651 0.83041716 0.28795648 0.45454523 0.048568685 0.82080674 -1.1604035 0.5052502 -0.3229233 0.6407062 -0.96252763 0.24908184 -0.17171091 -0.036695596 0.11383778 1.0840694 1.1073836 1.0566895 -0.3479874 -0.850329 0.46046206 -0.3553281 0.2862365 -0.1394067 0.4925158 -1.8956996 0.02897691 0.5640164 0.472428 -0.6607497 0.11935736 -0.80277026
回 -0.3760398 -1.1664103 -0.2772574 -0.64262104 0.75024784 0.06211209 0.8041464 -0.25342557 -0.16988009 0.7812519 0.9130607 -1.4803398 0.84348047 -0.0907512 0.18029165 0.92956823 1.7502167 -0.6460272 0.49838474 -1.324391 1.1861506 0.48685426 -0.56428623 0.07314303 -1.8529787 -0.49987566 -0.64395994 -0.19167447 -0.61495584 0.15262589 0.29906604 0.095865324 -1.1025826 -1.294662 0.46594247 -0.7586052 0.75390404 -0.08630263 1.042765 -1.1140327 -0.013053625 0.1845938 -0.6098844 0.08924525 -0.2653102 -1.1178249 0.36569804 -1.1752479 0.91501456 0.33562148
宰 -2.5511794 0.21917112 1.632134 -0.7930409 -0.5409696 -2.218374 -0.047416992 -0.25275442 0.79128146 1.5010358 -0.24892756 -1.1813902 0.9031177 0.011330574 0.03594958 -0.12581176 -0.301929 -0.5781594 -0.73031753 0.33781224 -0.2674017 -0.08376516 0.0055081868 1.2417843 -0.85087 -0.509377 1.1943843 -0.5744406 -0.34452528 1.2335234 0.22330163 2.3733187 -1.9366984 -0.42389366 0.43083045 -0.48762843 -0.23149589 -1.7861619 -0.1839993 0.17884317 -1.0680411 -0.7389305 0.25794294 -0.44955304 -0.8568356 -0.8227992 -0.70249164 -0.38951242 -0.36331862 -0.7185277
朝 0.48640534 -0.014024386 0.2575017 0.13182811 0.43078306 1.6512151 -0.4625059 0.15604685 -0.98916465 -0.19897053 0.76357716 0.116495855 1.005098 -0.12980446 0.8587323 -0.6571034 -0.29795346 -0.1119288 -0.5483843 0.34200907 -0.63881415 0.14448097 -1.3241123 0.5869604 -0.30991867 0.32959262 1.2764827 0.3691866 -0.28545088 -2.0997863 0.38314998 0.2876838 -0.41515404 0.17324157 0.9466495 -0.92981464 -0.9834949 -0.48100236 -0.81903857 -1.3059883 2.4397883 -0.5027769 -0.79372835 -0.13816902 -0.30717307 0.40126836 0.14724773 -0.219084 0.6716029 0.2668267
莫 -1.1785609 1.2228806 -1.1509008 0.30730328 -0.5161444 -0.11056673 -0.86052763 0.42270422 -0.39304015 1.0413332 1.381156 0.30676657 -0.16089292 0.61786216 -0.14836042 -1.0850091 1.2127762 -0.50815606 -0.119375505 -1.6594672 -0.75833446 -0.009769597 -0.59877497 1.849989 0.07858911 0.36363566 0.67726016 1.0496633 1.6396317 0.74095887 0.30546027 -0.42570648 -0.17672947 -0.20599914 0.92155695 -1.016573 0.19176011 0.056621622 1.0758808 0.1423182 -0.3994519 0.23830937 0.22607714 -1.5892416 -0.13878581 -0.27729228 1.1553755 -0.7869512 -0.49817586 -0.11033824
若 0.3271668 0.5914379 0.3460915 0.44180575 -0.081172064 -1.1062268 0.5731227 -0.2526675 0.14371513 1.4928102 1.6146652 0.4587775 0.78291 -1.2307127 -0.1914021 0.19369876 0.397255 0.016083982 0.3162619 -0.2046183 -0.47421178 -1.1946031 -0.030317372 -1.2031372 0.42386457 0.59225625 0.23888166 0.5611903 1.2934141 -0.6880364 0.40683097 1.8480597 -0.41275892 -0.13555042 0.71991915 0.25391594 0.13326517 -0.49650598 -0.05766917 -1.0873052 0.6977786 0.5386427 0.19325893 -1.0143771 0.42202678 -0.53880686 -0.56533724 -0.5891981 0.57406515 0.15307644
云 -0.3873711 1.1944606 -0.6869748 -1.8656923 0.82580596 0.15536752 1.1048881 1.2408868 0.106998146 -0.61452496 0.7849202 0.47807252 1.0711056 -0.69899195 0.27478752 -1.1831839 0.9673487 0.26761702 -0.81936127 0.7236839 1.2745578 0.22710635 0.1333317 1.2526395 -0.27944145 -0.21833971 0.5921179 -0.42506048 0.23511778 -0.6440908 0.11630632 2.2514582 -1.8058591 0.63299394 0.4974967 0.8500821 -0.5174747 1.7139653 0.9316313 -0.04328785 -0.026914973 0.94902116 -0.73621017 0.37822336 0.43361562 0.7796077 -0.64369917 -1.8056836 -1.0726346 -0.95423883
孙 -0.28747 0.363029 1.320343 0.25468335 1.158751 1.6231862 0.9236654 -0.0021745851 0.3901325 0.5798377 0.6765327 0.5796011 0.36482346 -0.020464223 -0.46502894 1.2229166 -0.5503983 0.8393739 1.4091766 -1.054563 0.4693598 -0.69184303 -0.23767498 0.5131574 0.12651153 -0.1974895 0.71017003 -0.07306406 0.29001093 -0.013207975 -0.30115345 0.6510124 -0.43878573 0.62243426 0.9459006 0.1868078 0.001371715 -0.26220402 -0.47019765 0.28591248 1.3498027 -0.53428876 -0.6280508 0.6869155 -0.48346627 -0.4120687 -0.003093531 -0.30979615 0.82030535 -0.73158324
或 -0.53165907 0.09145893 0.027711859 -0.83781534 1.0031811 -1.8409364 0.5688833 -0.38670188 -0.030284375 0.88628453 1.1815214 -0.087640405 -0.17835777 -0.70726717 -0.47486633 0.04843128 0.45861247 1.8575273 -1.0931182 -0.21477188 -0.54459727 -1.1691871 -0.18271613 -0.8018703 -0.42503494 -1.5072154 0.98209316 -0.17704774 -0.6560176 -0.59077424 -0.29993722 0.8561395 -0.12991385 -1.0035074 -0.41517693 0.24068768 -1.0631557 0.13607268 0.5381812 -0.2175748 0.51728517 0.5912604 -1.3785872 -0.05168651 -1.0386778 -0.42123646 -0.4353546 -0.3105055 0.6899687 -0.37674493
勇 0.114956506 0.0961113 -1.1458411 0.02493357 -0.34500092 1.1384408 0.83490306 -0.57881117 -0.4126758 -0.42203972 0.74691063 -0.115663834 -1.0232288 -0.45624876 0.30409437 0.6955628 -0.36847296 0.0065121613 0.7249853 -0.3491966 -1.2352793 -0.3095841 0.58496577 -0.018453056 0.070481725 -0.45676392 0.14056467 0.611431 -0.40535218 -0.35965288 0.11530316 0.09310349 -0.23702814 -0.36658412 0.32781303 0.0942939 -0.4967256 0.34922254 0.25972262 -0.6707372 0.17024997 -0.40238282 0.22178689 -0.4718564 -0.545755 -0.55955434 0.7500364 -0.71055186 0.2054535 0.6891779
孰 -0.2565158 -0.43708414 -0.017706951 -0.010253838 0.96932507 -0.54350483 0.36662707 -1.2542626 0.30694944 1.0456288 0.36085147 -1.0852839 0.27835706 -0.039457884 -0.13522144 -0.1394618 0.25593376 0.93536747 0.10365693 -0.41576332 0.7981377 -0.93343836 0.7983511 0.051664095 0.32649422 0.42748952 1.6355095 -0.494445 -0.56081325 -0.3617567 -0.73405325 0.40966576 0.04891449 -0.40880874 1.3614206 0.48541373 0.61418474 0.12133434 1.4984875 -0.3703832 0.41392902 1.2653487 -1.3419981 -0.26865336 -0.2001089 -0.19989137 0.18054235 0.5772431 0.27055514 -1.7145845
叔 -2.006742 0.1760704 -0.075802386 0.48394972 0.6939812 0.056905508 1.3514229 -0.5366483 0.10704982 -0.62198025 0.2952713 -0.42499128 1.5975205 -0.7943333 -0.67525965 -1.235099 -0.65935475 0.60592115 -0.73004544 0.11868048 -0.5193295 0.362717 0.20838796 1.2822411 -0.20660529 0.8916553 0.037905052 0.4974913 0.76492095 0.89929926 -1.2071419 -0.19786178 -1.4759406 0.5510973 0.13606666 0.1094471 -0.64135444 -1.5914333 0.10206062 -0.14994285 0.43232065 -0.46234104 -0.73270255 0.43197268 -0.25977775 -0.23523583 -0.4446458 0.055004425 0.96441174 -0.42274135
渊 -0.7073417 0.3051376 -0.14610355 1.3276927 0.8844674 1.200363 0.1948864 1.0794907 1.0886047 -0.21345119 -0.671629 -0.6927658 0.7648312 -0.37485576 -1.6838753 0.8437436 1.4126112 -0.45055267 0.40243652 -1.0290493 -0.17522255 -1.3415214 -0.20937121 -1.1028477 -0.45994613 1.892637 0.37920645 1.3713824 -0.7574794 1.9870113 -1.2319752 0.91625553 -1.6410053 -0.77950215 2.2982814 -2.1999757 -0.49557742 0.18070956 0.88864404 -1.0881329 0.8615255 0.38782805 -0.91664636 0.80961037 -0.54890007 1.0726081 -0.18940134 -0.4938655 0.5605792 -1.1859541
方 0.03059379 1.180329 -0.60885024 0.6499465 0.14196827 -0.86151385 0.2708645 0.55282956 0.118826784 0.26744318 0.6613157 -0.7822098 0.038579024 0.89640176 -0.6506743 0.39058232 -0.42914066 -0.06835264 0.4083014 -0.21183503 1.2127843 0.59354424 0.60545385 -1.1914307 0.7862187 -0.53825814 1.1340393 0.9172386 0.28647003 -0.07850702 -0.59219974 0.94522995 -0.7459828 -0.04462673 0.3912205 -0.25551265 -0.54466295 -1.108092 0.25592792 -0.8643157 0.9034028 0.87920564 -0.88232213 0.43743417 -0.31458288 1.4155408 -0.4117701 0.080440484 -0.303304 1.2240245
