1352 100
， 0.09172853 0.06414397 0.06535453 -0.2450687 -0.078696705 -0.1711206 -0.015429734 0.0038170323 0.0608315 -0.26758993 -0.11837003 0.026596023 0.15264839 0.0564608 -0.062081464 -0.047835786 -0.17337112 0.056949917 0.25377473 0.15703738 -0.09987542 0.062124573 -0.08460943 -0.074124135 -0.040437903 -0.034214657 0.054989517 0.030900931 -0.11845146 -0.019615768 0.047381423 -0.019571822 -0.049618144 -0.106760934 -0.03389115 -0.010753983 -0.074744135 0.01803743 -0.04120869 0.093159966 0.011751455 0.20754856 -0.022355773 -0.12539542 -0.011108027 -0.002232234 -0.033136096 -0.07520579 -0.009484193 -0.035426658 -0.01847368 -0.050814725 -0.062672295 0.07748299 -0.0048157778 -0.012273364 -0.11899981 0.042558856 0.053071924 -0.25612038 0.1081685 -0.06642705 0.018067878 -0.21396205 -0.071569756 0.03843 -0.04412277 -0.107387096 -0.068760775 0.044310063 -0.031495463 0.3594854 -0.03462866 1.0221608 -0.15703876 -0.05240175 -0.037669048 0.1155671 -0.13859877 -0.55339324 -0.0049169566 -0.12890373 0.06284531 -0.0008725322 0.14739525 0.23443444 -0.034874987 0.13134645 0.05812894 -0.016117148 0.043385647 -0.19876535 -0.08768417 0.01196846 0.045380276 -0.09146691 0.007406532 0.014732297 0.06297604 -0.07135837
子 0.0113864625 -0.16789219 0.07927153 0.09755455 -0.1714778 -0.1879887 -0.12220388 0.0601036 0.046171375 0.42495683 -0.02001606 0.030926049 -0.08090524 0.1884268 -0.18768218 -0.14779015 0.63385534 0.044613335 0.39772743 0.27457747 0.37217358 -0.15945198 0.20863658 0.09581771 0.1835622 0.28344607 -0.0012763763 0.14429976 0.18916677 -2.4704297e-05 0.071867615 -0.029961836 -0.21096392 -0.28572807 -0.027044103 -0.19916175 0.12515813 -0.08356332 0.018799786 -0.012496814 0.09684583 0.18993518 -0.27487147 -0.0030407093 0.043142788 0.00999541 0.06737609 -0.06859305 0.20824397 0.1689438 0.036706854 -0.12569536 0.01575645 -0.069587655 0.046408813 -0.13140924 0.04664623 -0.3294126 -0.1754762 0.11152728 0.036333404 -0.32096317 -0.04690813 -0.58166635 0.084612876 0.14398435 0.086258754 0.014320197 0.12224832 -0.14117126 -0.01216326 -0.36460307 -1.015655 1.1026292 0.10744769 -0.016134124 0.30843183 -0.04791038 0.14322582 0.56126904 0.03383282 -0.03485829 -0.15925144 -0.08271695 0.21389084 0.32510826 -0.20091823 0.28156078 0.2786853 -0.07202715 -0.03614679 0.0859147 0.09883958 0.019190283 0.001756608 0.16845767 -0.12450884 0.043721773 -0.06342948 -0.009567152
。 -0.10704995 0.0018451359 0.21061274 0.2859373 -0.0657625 0.048253324 0.10990718 -0.08371627 -0.08766433 -0.26814055 0.24495918 0.010291388 -0.26853716 0.119134516 0.08838607 -0.05760632 -0.06982813 0.03157854 0.09203253 -0.050830077 0.15073466 -0.18006806 -0.13626277 0.053404253 -0.0040247394 0.076895796 -0.054134376 -0.034625486 0.1375633 -0.045729082 0.22960827 0.11825164 -0.09661942 0.13841654 -0.067007974 0.05334716 0.13521978 0.009659243 0.01886396 -0.1465207 0.048914548 -0.038941085 0.21991019 0.38953823 0.10285128 -0.08088737 -0.0888697 -0.18095134 -0.2619948 -0.037257142 -0.017671064 0.05347967 -0.10544946 0.008319429 -0.176874 0.09711672 0.054873407 0.0075145634 0.17498867 0.19238809 0.1620651 -0.050475214 0.008871384 0.37812018 0.08310313 -0.026234224 0.08526802 -0.027818888 0.1939227 -0.12094396 -0.00019268526 -0.48584262 0.20563613 1.7505761 -0.17425811 0.120864086 -0.7350568 -0.045981053 0.102651045 0.021264886 -0.311884 -0.10173679 0.21135199 -0.1781509 -0.16482556 -0.141524 0.15231414 0.09699104 -0.06252592 0.11285278 -0.03190506 -0.08784248 -0.10197294 0.18690836 -0.10842222 -0.15216495 -0.10845104 -0.042935655 -0.006798331 -0.064825766
： 0.046524186 -0.061226316 -0.058967445 0.08813714 0.03412593 0.017527517 -0.013323946 0.082033366 0.3396503 -0.60610616 -0.008165159 0.021749247 -0.0018304891 -0.047485817 -0.029572481 0.19606267 -0.13459271 0.12545858 -0.45094058 0.11953586 0.09421576 -0.023288555 0.04297811 0.003255174 0.07086491 -0.2675014 -0.0640191 -0.02785302 -0.18508403 0.12567468 -0.06817829 0.21891992 -0.057610963 -0.101919286 0.15088187 0.24027093 -0.116340674 0.09015474 0.02833798 0.034938626 -0.02742272 0.27675426 -0.16113523 0.14356142 -0.06594043 -0.42899013 0.17732576 -0.19719073 -0.26032412 -0.28991464 0.09702885 -0.0366886 -0.23965032 0.14097315 0.13099775 0.051726546 0.025082557 -0.011246689 0.13965653 0.033530533 0.0013664274 0.40954858 -0.24200553 0.036125682 -0.061976884 0.11909967 -0.10012052 -0.017435636 0.1886068 -0.014380573 0.06745398 0.6956953 -0.07570007 1.8527333 -0.16898844 0.20469832 0.590957 -0.14207226 -0.18315239 0.84368986 0.1284851 -0.14410351 -0.14934313 0.24827947 -0.086773664 -0.33286557 0.113348864 -0.017089073 -0.37747556 -0.087684065 0.06435777 0.31846964 0.028725507 0.06631122 -0.073655464 0.13565056 0.22094296 0.075471774 -0.033187877 -0.106482364
曰 0.047394812 0.069743805 -0.02564915 -0.053382266 -0.23221587 0.0065815235 -0.06696352 0.0943904 -0.19681315 -0.65254813 -0.39196694 -0.104079574 -0.13270248 0.017093917 -0.0897715 -0.22391272 1.8921885 0.053730287 0.5279314 -0.21392065 0.22027606 -0.0010575724 -0.46608022 0.031122107 0.037488922 -0.38581637 -0.16967708 0.29339725 0.026530897 0.18168056 0.10632192 -0.16080561 -0.014197391 -0.13031994 -0.08344669 -0.16650811 0.12958533 -0.040786684 -0.027304024 0.055742294 -0.002044388 0.44497478 0.12131629 -0.15931775 0.08419229 0.1752924 -0.302908 -0.06473622 -0.07629196 0.14573531 0.077829555 0.023226712 0.50149286 0.2545814 0.12752707 0.35999548 0.020518603 0.26054406 0.11261116 0.39176545 0.08197597 -0.42262882 0.060106006 -0.7264522 -0.018654987 -0.019624474 0.10894626 0.014091396 -0.16287768 0.09412147 0.15425937 -0.4556713 0.037384477 0.9863073 0.023904921 0.118535325 0.7195244 0.1562558 -0.07135583 0.42478922 0.019084362 0.20581551 -0.37001824 0.017544517 0.24650162 -0.43477142 4.6515688e-05 -0.07866585 0.5048308 0.024419868 0.13015191 0.20516467 0.17686197 -0.10573336 -0.03292279 -0.15193848 -0.028239671 0.13677406 0.06622322 0.057976417
之 -0.12630963 0.06830543 -0.1713714 0.23335552 0.028080257 0.053736262 0.055247672 -0.27374962 0.0017241767 0.3307552 -0.32869384 -0.26638553 -0.29583657 -0.09594639 0.16453972 0.15030396 -0.21537077 -0.04258702 0.18380708 -0.27775732 -0.19069237 0.064487785 0.19634813 -0.026066024 -0.23829418 0.05289775 -0.38627282 -0.4597324 -0.077163495 0.19644096 -0.10866038 -0.10225719 0.23036313 -0.045488425 0.05728238 -0.30169725 0.08264492 -0.1444268 -0.08028925 -0.07012054 -0.051436815 -0.36160368 -0.031739637 0.12146223 -0.06352648 0.15054291 0.02832055 -0.016418437 -0.089012265 0.101353705 -0.17155448 -0.06040214 0.1652147 -0.16586794 0.003785472 0.24600306 0.17166448 0.20481732 0.07642425 0.5904866 0.008192364 -0.09605378 -0.087268345 -0.2362982 0.14581282 0.2922163 -0.002760847 -0.16276643 -0.04100654 0.08681933 0.34485877 0.17409642 -0.23473552 0.9368067 0.09336509 0.044224862 0.07078082 0.046379976 0.1641736 -0.47080117 -0.00028687008 0.11886075 -0.028590988 -0.01604488 0.08122221 -0.16143075 -0.11780864 0.14358948 0.015415171 -0.12764722 0.08599161 0.43487102 0.38033843 0.0014554182 0.0008797373 0.053877596 -0.099645644 -0.2054697 0.10611869 0.017047899
不 -0.05128632 -0.34441122 -0.0694855 0.03819626 -0.088006094 -0.21889831 -0.10359218 0.18727347 -0.3883736 -0.83403075 0.23655969 -0.055365074 -0.1343124 0.16419122 0.071913 -0.17405784 -0.16291732 -0.18823573 -0.034723237 -0.049011726 0.29436734 -0.11930172 -0.056966756 0.17922948 0.057435174 0.16212527 0.19577938 0.11083233 0.2401908 0.11374183 0.13088083 -0.16685167 -0.013631904 -0.038174085 -0.17566116 -0.16494513 -0.038180366 -0.060717236 -0.080316484 -0.060466107 -0.09666681 -0.059456553 0.083296426 0.26970953 -0.03743172 0.019982481 0.09763429 -0.1570167 0.11228339 0.22747198 -0.006212916 0.039628543 0.10733461 0.06182793 -0.12906438 -0.28704315 -0.033398036 -0.012922274 -0.0039558667 0.10310279 -0.24205725 0.016785987 -0.21465513 -0.1316206 -0.2171716 0.13417372 -0.15620048 0.06750619 -0.026704008 -0.015537383 0.16740642 -0.17508984 0.055695657 0.3483642 -0.014043473 0.060750384 1.2051264 -0.03901405 -0.036522396 -0.5228308 -0.2824324 0.14951375 -0.16536243 -0.12030481 -0.0002187731 0.12995069 -0.17842494 0.10397177 -0.17983525 -0.13810827 0.07906409 -0.15386753 0.29350406 0.041592922 -0.005833206 0.2234317 -0.3422674 -0.023019873 -0.23586273 -0.25148776
也 0.21910197 -0.1420096 -0.1648694 0.041500285 0.027944492 0.18106817 0.13977778 0.36855826 0.6409901 0.86780494 0.15555434 -0.053084973 -0.23907149 -0.14563952 0.07868126 -0.2337492 0.43900934 -0.08693903 -0.29628444 -0.18129414 0.33792803 -0.13521789 0.14922965 -0.32608873 -0.028888172 0.017960956 -0.12893346 0.008076498 0.1233241 -0.009285471 0.13770276 0.031434216 -0.06274535 0.069457285 0.05490371 0.070587024 0.0071076485 -0.06636456 -0.12965019 -0.06728687 -0.14502195 -0.03406172 0.45849085 0.014689459 -0.021620637 0.31353986 0.015440148 0.067585774 -0.15917133 -0.102714255 0.15858094 0.051472217 -0.0045586224 -0.19344808 -0.025375856 -0.11776795 0.2481552 -0.053389803 0.4114161 0.39025992 0.041340444 0.15293463 0.15693842 0.047013946 -0.1981515 -0.0136974845 -0.27508655 -0.14461745 -0.079741 0.039727572 0.039848402 -0.09034759 0.09720986 0.90344596 0.016315348 0.07304639 0.8380246 0.12977305 0.053858723 -0.9038807 -0.10880589 -0.063216224 0.0651009 0.1727853 -0.08100074 0.052170686 -0.15893307 0.16283457 0.02497703 -0.05884215 0.21631068 0.032436427 -0.09296587 0.2263217 -0.16054721 -0.14526759 0.224467 0.14770195 0.013738528 -0.0046576457
而 -0.12822272 -0.33190447 -0.07049724 -0.07075286 -0.013037893 -0.025499813 -0.043680698 0.024611475 -0.26900142 0.04440502 0.3476425 0.2021434 -0.13503452 -0.046573486 -0.024066478 -0.21601263 0.22621995 -0.52031785 -0.3314614 -0.23038085 -0.07105915 -0.03709449 0.0036826704 0.15914679 0.16346264 0.1568767 0.22726128 -0.19077757 0.34188005 -0.56203187 -0.38414124 -0.42609385 0.09178749 -0.29711685 0.05285407 -0.15120976 -0.004745092 0.0011193503 0.072373375 0.17131387 -0.036011033 -0.023924682 -0.47766304 -0.55164754 0.08347974 -0.13989475 0.4538273 -0.0016028223 0.0121541675 -0.16625941 -0.07305118 -0.022479085 0.21415552 -0.09448963 -0.08694394 0.17852461 0.07672164 0.32163608 -0.25470954 0.16934322 0.30100676 -0.11378863 0.049656145 0.28486294 0.19404037 0.18388167 0.032798078 0.4325003 -0.05805715 0.122333966 -0.16081126 0.114955254 0.2559795 1.4331627 -0.16124825 0.14385505 0.3914986 0.39058584 0.0740792 -0.78330344 0.20045835 0.022461882 0.054551877 -0.063420415 -0.07318154 -0.33757246 0.0018578307 0.21160582 0.32843858 -0.022264864 -0.10702199 0.09541133 0.33940637 -0.28003955 0.14609231 0.29926798 0.32748896 0.14724326 -0.3211349 0.062543556
？ 0.34188896 0.0067720218 -0.09102529 0.2282873 0.1437235 -0.23323289 -0.088897005 0.118530594 0.40453205 -1.3076198 0.27126524 -0.012336163 -0.12405309 0.019269198 -0.2792593 0.12928589 0.34402943 -0.0062035634 -0.060385108 -0.16172527 0.3549145 0.15925865 -0.021094173 0.27234796 -0.32523903 0.32823682 -0.03411287 -0.28288153 -0.2302036 0.34791693 0.28375953 0.18810804 -0.22547008 -0.11151096 0.1410286 -0.13435084 0.14019285 0.085352995 0.2693104 -0.37901524 0.27748734 -0.15833026 0.16860242 0.009583176 -0.0799897 0.10794598 -0.39009684 0.2788977 -0.046456344 0.4465424 0.13170084 -0.010935333 0.19250412 -0.06327189 0.104951024 -0.036958262 0.20134756 0.10218102 -0.041167952 -0.49428573 -0.10567401 0.83396405 -0.12571357 0.19798693 -0.15176447 0.16245519 0.26180226 0.48390198 0.043268736 0.35858604 -0.31534013 -0.109432474 -0.83319914 1.3244892 -0.14007562 -0.17441045 -0.35366014 0.19224122 0.010319017 0.00020674539 0.12790729 -0.22105321 -0.21790259 -0.08257688 0.14020884 -0.107330486 -0.017492741 -0.11132096 0.39507046 -0.14433406 -0.06410272 -0.21064283 -0.12460984 0.14939691 -0.1290793 0.10723772 0.106604956 0.19760458 0.04887336 0.36405972
其 0.19091046 -0.14207737 -0.12726046 -0.37584722 0.22265126 0.027499977 -0.029632784 -0.10083731 0.4491432 -0.29858375 0.29964378 0.18774875 0.060970362 0.034871195 -0.089471966 0.3895292 0.2185025 -0.20420048 0.22438763 -0.31014553 -0.5583457 0.07369964 -0.14328617 0.09454878 0.03511486 0.11665836 0.28378347 -0.30451337 0.44727483 -0.053869553 0.206734 0.10915053 0.1659638 -0.0798037 0.218976 0.24361753 0.0016636204 0.11604571 0.16358443 0.031875703 0.21177967 -0.37394223 -0.12273375 0.047083564 0.28209963 -0.10017765 0.26823488 -0.38108373 -0.38919738 -0.086082675 -0.12466388 0.33907282 0.05761615 -0.103324205 0.082979195 0.044211317 -0.18465458 0.03840665 0.28795648 0.22140987 0.26075768 -0.30462602 -0.47674394 -0.08477056 0.024243979 -0.6136456 -0.036929324 0.07280197 -0.20539047 0.37451625 0.12992561 -0.47318912 -0.7110099 0.5327261 -0.13787492 0.074324325 1.0509607 -0.14039263 0.41635278 -0.4066391 0.00953728 -0.056009673 0.28941876 0.007059052 0.117512695 -0.026214479 0.1416221 -0.056913782 -0.19995847 0.18145925 0.26070356 -0.30324388 0.15299088 0.49275604 0.10827048 0.024593981 -0.10400826 -0.16192502 0.3812373 0.42311576
人 0.19461338 -0.34709466 -0.2865462 0.14690061 -0.036885343 0.14730123 0.32504466 -0.34563568 -0.05837966 -0.13228184 -0.16928886 0.1291004 0.06733801 0.2964714 -0.04045399 0.3195931 -0.24786596 0.031548996 0.20576188 0.07223937 -0.33200395 -0.6225776 0.11899627 -0.36814564 0.11684377 -0.021917714 -0.11443355 -0.00859875 0.13653532 -0.14397977 -0.13523537 0.2995758 0.27135727 0.023262909 0.19184223 0.015999513 -0.45373827 -0.10383032 0.0013082207 0.028287942 -0.31670636 0.4976801 -0.6677632 0.15551324 0.036930166 -0.03916934 -0.13289472 0.1298196 0.30659118 -0.24172238 0.1700441 0.26499534 0.37947991 0.2465664 0.47888628 -0.23398095 0.6647904 0.16794711 0.30811992 0.00042083554 -0.4306631 0.2989979 0.16867448 -0.34737238 -0.2021569 0.3092763 0.0415801 0.4362217 -0.16544783 -0.047744893 0.14492139 -0.9202051 -0.20510146 0.48304608 -0.1049645 -0.15344125 0.1920006 -0.19943483 0.12080167 -0.21248585 0.03290962 -0.5356117 -0.36026704 -0.20282881 -0.0664041 -0.0774929 0.306266 -0.12954456 0.08457495 -0.05589693 0.082562976 0.22222735 0.11758614 -0.22680038 -0.03157396 -0.08012773 0.18173222 0.17686887 -0.23548487 0.113629974
者 0.26213622 0.11822902 0.24856608 0.235505 0.6096472 0.0528215 0.009661714 -0.08789517 0.28793582 -0.24325201 0.06667728 0.42978275 -0.067749016 -0.042664416 -0.25934315 -0.17893665 -0.10761042 0.68575364 -0.51544774 0.3944102 -0.29480895 -0.45317814 -0.20649877 -0.068006024 0.24826221 0.24985012 -0.03601231 -0.08281056 -0.2136575 0.11756124 -0.040034037 -0.3780277 -0.24647437 0.30010083 -0.25615218 -0.5892292 -0.38444817 -0.10393662 0.10230897 0.16565424 0.087009154 -0.3447708 0.36236694 -0.2917624 -0.024823166 0.147189 0.37371516 0.29914373 -0.1500386 -0.12861013 0.018566051 0.32550263 0.15782148 -0.082682334 0.055645835 0.40646818 0.13685143 -0.10382225 -0.13652836 0.2980038 -0.1310931 0.20320992 -0.20374025 -0.12330395 -0.11071148 0.14779232 -0.18101485 0.12836006 -0.035576645 -0.21871701 -0.24468185 -0.48150504 -0.16583736 0.67772704 0.2983899 -0.02146622 0.3436004 0.080508284 -0.14244 -0.7104761 -0.060873687 -0.39668667 0.19596386 0.14360324 0.1166854 -0.13882561 0.07207079 -0.2074574 -0.025193447 -0.15237835 0.123084754 0.14655352 0.8222267 0.4680082 -0.19632241 -0.023999289 -0.10544317 0.011569638 0.23043333 -0.19901736
以 -0.27626848 0.18103279 0.45837015 0.37097877 -0.08129167 0.34803084 0.16739592 -0.020031946 -0.31784976 -0.2213817 -0.5905279 -0.11397458 0.28833297 0.049043562 -0.63894856 -0.050491847 -0.11631135 0.113190286 0.13894506 -0.05177832 0.51730204 0.370359 0.24243875 0.009127402 -0.047892734 0.43318763 0.29353505 -0.28983745 -0.13211235 0.05645716 -0.14100192 -0.24822499 0.005115009 0.11884495 -0.26425844 0.09678352 -0.05617885 0.13471736 -0.16156542 0.47099352 0.20442826 -0.117836796 -0.37154886 -0.2237389 0.12185657 0.10564925 -0.3332893 0.11028172 -0.2751702 -0.09285395 0.05430648 -0.08732745 0.31429043 -0.7409875 0.24453802 -0.3002542 0.1668568 -0.25405043 -0.10385428 0.3852011 0.16044071 -0.06956992 -0.07454282 0.21194655 0.2995046 0.012872881 -0.24086776 0.007894452 0.23129638 -0.038921047 -0.0053468193 -0.14468522 -0.28197443 0.8175852 0.02127203 -0.6208691 0.9833658 -0.53830844 -0.40736893 -0.23645574 -0.06516536 0.34738764 -0.07832857 0.17212921 -0.028087756 0.079470925 -0.006374443 -0.21953213 -0.28519198 0.07010482 0.03154816 -0.2630738 -0.42794883 0.07624347 0.19143732 -0.0043328656 0.113288276 -0.15122841 -0.35700014 -0.054929536
有 -0.028460853 0.19384487 0.21199083 0.1337329 -0.44783667 0.23332302 -0.017707102 -0.19836216 0.16266112 -0.3329589 -0.32285497 0.4378248 0.31967402 0.26681855 0.097034104 0.3591571 0.22848888 0.23223378 0.68097836 0.0098127425 -0.269657 -0.52081966 0.45151687 -0.28505296 0.16822246 -0.011953166 -0.2461025 -0.21251628 -0.04318287 0.029865418 0.09751714 0.17226897 -0.20458826 0.083929606 -0.27375266 -0.14958891 0.111240886 -0.11926158 -0.003970598 -0.121490285 -0.10085077 -0.13738053 0.37048864 -0.59485775 -0.035167534 0.25011775 0.05665737 0.20574462 -0.27989885 -0.41474882 -0.016512996 -0.3719851 -0.10880316 0.030385036 -0.24906848 0.0697659 0.3791522 -0.009260412 0.43224654 -0.0031732754 -0.3695174 -0.32242468 -0.21559227 -0.228493 -0.2741236 -0.018783906 0.061835196 0.022332355 0.25371686 -0.0022270372 0.027892388 -0.08863216 -0.10761702 0.5160317 -0.38264573 0.0882585 0.2622714 0.06418065 -0.030258484 -0.22279692 0.027314821 0.88212925 0.3030388 0.08645964 -0.33445272 -0.043620687 0.097136356 -0.8047184 -0.09323616 0.11821709 0.06697275 0.019730816 0.30120358 -0.27847117 -0.1241626 0.25121033 -0.10657399 0.23339564 0.026917396 -0.02286516
于 -0.22621338 -0.12437142 -0.22584538 -0.016671266 0.062772535 0.21366195 -0.34716907 -0.23683779 0.33466983 -0.34605104 -0.21208496 0.1297 -0.36136648 0.15668598 0.12723555 0.060210146 0.467802 -0.12813841 0.05132275 -0.089572616 0.014259258 0.20198129 -0.12157678 -0.77503383 0.7196692 0.41271615 0.5413408 -0.011127823 -0.75030655 -0.053486053 0.3695168 -0.12720227 0.41815105 0.3177841 0.24805823 0.04758668 0.20747839 0.0163148 0.014098444 0.0030575462 -0.2641977 -0.4087584 0.031206055 -0.37814665 -0.20269136 -0.2823089 -0.29105183 -0.31086457 0.21184327 0.041483898 -0.25495273 0.3203971 -0.5145364 -0.36070243 0.015746571 -0.17956863 -0.21615334 -0.3417082 -0.40918952 -0.25549972 -0.3165054 -0.18232417 0.3527612 -0.031824533 -0.35280308 -0.009884797 0.2954731 0.11057729 0.25040773 0.12206167 0.42852664 0.002924081 -0.042875074 1.3635362 0.4026233 0.26227978 0.35835892 -0.030596165 -0.07074648 -0.17995961 -0.14872707 -0.124805115 -0.07565285 0.13515165 -0.14869955 -0.47390077 -0.31122124 0.048709687 -0.17820558 -0.24290517 -0.33617902 -0.28865004 -0.093607605 0.046247214 -0.053010106 -0.16793695 0.07458426 -0.17969084 0.12441225 -0.14362215
矣 0.039478455 0.07704405 0.1873189 -0.091023296 0.08868172 -0.34706196 0.11288217 0.027260527 1.0898285 0.55276066 0.17434199 0.0028681008 0.0060470654 -0.9078405 -0.053845756 -0.036421347 0.12214466 0.36872292 0.2312413 -0.7240886 0.32537976 0.17358153 0.0070360536 0.102307834 -0.2304768 -0.2195443 0.4420256 -0.29840308 -0.13052024 -0.028919052 -0.26805705 0.15647775 -0.4160319 0.08097187 -0.12495807 -0.48599708 -0.019133084 -0.08609428 0.07059011 0.051344156 -0.09071183 0.008809979 -0.20973614 -0.29569843 -0.22467408 -0.59857655 0.056109585 -0.20901278 0.19932534 -0.36704302 -0.30148256 0.06887397 0.684836 -0.15895624 0.18811154 -0.07128064 -0.26057985 0.08168936 -0.23845978 -0.030256022 -0.18973549 0.47570756 0.16314645 -0.46153975 -0.012139318 -0.08710828 0.07498663 -0.238126 -0.1246637 -0.21347016 0.10684495 -1.288141 0.35767758 1.0295435 0.37351298 -0.23048441 0.8211568 -0.5310782 -0.1601608 -0.57057095 0.2605671 0.13770676 -0.15411945 -0.12280076 -0.00159617 -0.1603388 0.32472286 -0.7530341 -0.07537341 0.047778394 -0.15686677 0.26707703 -0.008385277 -0.51147044 0.01798027 0.05086985 -0.121212564 -0.14034612 -0.092426114 -0.1977784
为 -0.6182753 -0.22608322 -0.11529134 -0.12611832 0.38771072 -0.09197381 -0.111356676 0.11223377 -0.24414022 -0.1509826 -0.42029825 0.5060006 0.5452647 -0.11356552 0.049451515 -0.07081294 0.2928852 0.41757116 -0.47519484 -0.4279644 0.41858172 -0.22571433 0.36822113 -0.10932459 -0.14889202 -0.2731593 -0.21057457 0.71824247 -0.44850877 -0.32000804 0.41872245 0.1643594 -0.05544277 0.11010129 -0.0475769 -0.056945387 0.17510353 -0.2292064 -0.072129935 0.22724348 -0.1078127 0.20730957 -0.23802982 -0.036579486 0.33627495 -0.005323669 -0.09541755 -0.32666236 0.26833272 0.23030603 0.10212164 -0.047411643 0.071243525 -0.39965004 0.052154966 -0.23844285 0.3797224 -0.15388346 -0.10616634 -0.20358837 -0.16292332 0.49042064 0.046964254 -0.17623767 -0.19510438 -0.4048328 -0.04771481 -0.19926904 -0.01886839 0.15544593 -0.14543301 0.15211992 -0.7849966 0.75747865 -0.019402789 -0.464026 0.10470867 -0.2039222 0.21752304 -0.56804955 -0.3588689 0.5050079 0.04300925 0.11995402 0.03218455 -0.6423518 0.3063599 0.24612513 0.112083755 0.124302916 0.20451903 0.023441587 -0.24472113 -0.030838704 -0.24481912 -0.20825055 -0.30785954 -0.038153496 0.078846686 0.113220125
君 -0.041138433 -0.43256348 -0.3898413 -0.18830767 -0.045232877 -0.69661605 -0.36669934 -0.07191856 -0.19047381 0.038176976 -0.48614463 0.05412584 0.7976686 0.2879718 0.4677703 0.018938972 0.9696088 0.003432244 0.43814576 -0.33180827 0.63244814 -0.4496039 0.04504468 -0.0037343544 0.039082233 -0.20019461 -0.11042806 -0.2358938 -0.42991632 -0.10250129 -0.41546252 -0.022393307 0.110860154 -0.017454294 0.061733365 0.10015841 -0.023545804 0.0025372272 0.25028163 -0.45320615 0.0706361 0.07654951 0.10535902 0.42391738 0.24453188 0.21830662 -0.016481146 -0.4632741 -0.051450927 0.17784144 -0.1935846 -0.0067127836 -0.74478114 0.17332958 0.5531273 0.03595368 -0.025095021 0.15030687 0.41523132 0.12153997 0.020135244 -0.098970845 0.09967554 -0.31068948 -0.15645179 0.11375032 0.008611496 -0.017203914 0.10769865 0.30774227 -0.03649315 -0.72988385 -0.80391884 0.58769995 0.15645039 -0.05785153 0.57812554 -0.074237496 -0.47783434 -0.18232311 -0.27683687 0.04243858 0.06330463 -0.074530296 0.3061925 0.07507608 0.2761169 0.64388853 -0.11497831 0.034042314 -0.17729595 0.1842336 0.0058730193 0.24330465 0.22079153 0.3052648 0.42533764 0.17012493 -0.10173655 -0.115290575
乎 0.25138998 -0.06992794 -0.013579455 -0.012765887 0.2715688 0.009035018 0.009372703 0.19215779 0.7663096 0.10497538 -0.2919136 0.029137807 -0.18353084 -0.21054347 -0.078772485 -0.08281973 0.47515583 -0.47552723 -0.55155915 0.2139224 -0.18571237 0.2748909 -0.14990202 0.07557305 0.29489505 0.23226355 -0.13648392 -0.3115264 0.010404199 0.050304573 -0.069701515 0.01156619 -0.29978266 0.5110517 -0.1556692 -0.23016822 0.025475241 0.124528706 0.08762172 -0.22199054 -0.00633299 -0.09598134 -0.3981038 0.50211376 0.15998353 -0.14385277 -0.5556007 0.26882187 0.13826114 -0.31501013 0.24874379 -0.02508144 -0.041439254 -0.28058982 0.29734793 0.118632145 0.026601374 0.5439339 -0.34154505 -0.05838821 -0.7784017 -0.40160003 -0.14528246 -0.49958238 -0.40281346 -0.34131804 -0.203069 0.20640966 -0.50387806 0.23461126 -0.18909253 -0.13145113 -0.28678948 1.1595092 -0.05332195 -0.61203647 0.1083806 0.028724138 -0.29352188 -0.50911534 -0.11644663 0.46938965 -0.17193599 -0.36261547 -0.28195158 -0.056114636 0.014030329 -0.12347494 -0.28223 0.8990296 -0.18613063 -0.36984533 0.46530902 -0.101482145 0.09704666 -0.17704152 0.08237105 0.20375074 -0.023980696 -0.13059114
可 0.4685192 0.13562995 0.225897 0.43532535 0.13620953 0.112356015 -0.24745688 0.5474518 0.24112712 -0.31018856 -0.3153347 0.0056141266 0.33146396 -0.013644469 -0.0073298523 -0.23546465 0.5604915 -0.253187 0.14320692 -0.13763978 0.2053483 0.22321759 -0.22058557 -0.018170783 0.33670694 -0.2027206 0.3659294 0.015650406 0.3525559 -0.0057176864 -0.15017386 0.5639364 0.14586037 -0.29959393 0.013328303 0.2426741 -0.16594173 0.07711396 -0.16580868 -0.25585142 -0.23464794 0.22120838 -0.33065 -0.32586664 -0.08277695 0.16655824 -0.054581195 -0.33040845 -0.24646714 -0.63530755 -0.44374478 0.21756049 0.26779893 0.029981397 -0.014052259 -0.5112232 0.35893786 0.07037741 0.30678988 0.37766516 -0.0078042476 -0.21037568 -0.46116397 -0.27244395 -0.5323546 -0.114807285 0.32677144 0.19976212 0.16568935 0.16504371 0.25753036 -0.1629025 -0.5315712 0.27059054 -0.19408332 0.40051296 0.035015043 -0.37247133 0.45598334 -1.1527456 0.18592133 -0.08526009 -0.53698117 0.13647339 -0.33121347 -0.05007482 -0.076948054 0.06899603 0.11910714 -0.19985385 0.15968768 0.60111696 -0.10436013 -0.10639308 -0.39552996 -0.07825886 0.2223268 -0.13122177 -0.25110573 -0.11512395
如 -0.5924618 0.64447016 -0.07107754 -0.4585969 -0.14441699 0.1012533 0.2513261 -0.10724916 0.46367118 -0.03251493 -0.17926309 0.040780082 0.33640423 0.21243656 0.42968038 -0.08848681 0.55582833 0.031349737 0.12769493 0.2382817 0.11706695 0.14849722 -0.31070173 0.14529902 -0.05809797 0.32591024 -0.37477058 -0.03763669 0.04530248 -0.0064495406 0.24712436 0.0287887 -0.059030302 -0.028695486 -0.11104724 -0.22488835 0.3771326 0.42683086 0.14273518 0.054075886 0.13071594 -0.22410728 0.1311174 -0.31501606 0.1870662 0.13641635 -0.12295968 -0.032013595 0.54888844 -0.07961649 0.23498225 0.19797319 0.50679475 -0.04678301 0.2697779 0.41627595 0.5643871 -1.0641712 0.48237804 0.13837425 0.16827455 -0.005768907 -0.57548374 -0.082718946 0.12681027 0.09676797 -0.09425382 0.37767902 -0.09488776 -0.022227207 0.08396653 -0.29792044 -0.026685722 0.616976 0.29938918 0.0914371 0.31351689 0.19133437 -0.32397664 -0.6647423 0.34676638 -0.46491435 -0.0022077058 0.30525607 0.2930508 -0.41666672 0.97990584 -0.07936698 -0.5947847 0.21520704 0.4070265 0.13115804 -0.054503303 -0.3687721 0.03293126 0.020818276 0.09138949 0.2887951 -0.065659225 -0.14122975
与 0.030596288 -0.50602585 0.21381702 -0.014618484 -0.2582029 -0.11444598 0.5974982 0.006725996 0.54355896 -0.51470035 -0.32874274 0.09727578 0.22936061 -0.11001967 0.0029738834 -0.23482473 0.21306291 0.3763275 0.04682957 -0.22726394 0.025063353 -0.029817563 0.32901317 0.0487625 0.31400424 -0.28685638 0.03738147 -0.19529642 0.02618075 -0.17764637 0.16663843 0.023680871 -0.1463591 0.19481362 0.3330003 -0.3872164 -0.12835047 0.0074135307 -0.061530605 -0.71052366 0.074656405 0.29981136 0.4342305 -0.09105984 0.6543293 -0.1558635 -0.4131712 0.47933084 0.4457539 -0.031240968 0.17818089 0.14141308 -0.58088064 -0.13938943 -0.10262849 -0.30835044 -0.1662003 -0.023794618 0.10396611 0.48785478 0.98599774 -0.04613148 0.28640333 -0.13363805 0.6422212 -0.033025358 0.24277012 -0.36135948 0.35381642 0.121562436 -0.20930804 -0.030654058 -0.24419317 0.38243395 0.2295917 0.2370639 0.68626684 -0.06729411 -0.09834537 -0.60160697 -0.3627218 0.11788454 -0.2787103 -0.33722436 -0.060450323 0.13348053 0.21259779 0.06680361 -0.10337272 0.1739975 0.34299573 0.14044748 0.11260339 0.17509429 -0.21962994 0.33220342 0.21550396 0.006734251 -0.08551232 0.10981255
； 0.26397866 0.056613363 -0.5314516 -0.26668167 -0.45442402 0.48975268 0.323061 0.30737036 -0.08907188 -0.50149286 0.00946032 -0.1573332 0.23320924 0.010847289 -0.04628935 0.08585172 -0.5837872 -0.048940986 0.012689664 -0.27797598 0.1118383 -0.34794277 -0.18400793 0.43286097 0.50956917 -0.11417479 0.20919424 0.19493546 0.12916137 0.0073682405 -0.0323074 -0.056204658 0.052429877 0.21599863 -0.058670305 -0.022027064 0.27112332 0.106587134 0.10963148 0.1729746 0.266179 0.13430613 -0.32954866 0.20562106 0.06656281 0.27380228 -0.12193733 0.02448472 0.19132757 0.28911853 0.22047614 -0.16182928 0.2613211 0.04342475 0.23566298 0.18108205 -0.416968 -0.21960297 -0.03147523 -0.14181493 0.24473569 -0.05017004 -0.2266624 -0.015978204 -0.43342173 -0.1441059 -0.21093449 -0.08859173 -0.047010537 -0.06805642 0.36844036 -0.29059416 0.13589172 1.5667243 -0.04219543 -0.28956443 -0.48811418 -0.22920021 0.11809556 -0.7648085 0.8721079 0.28829667 0.122734085 0.35415772 0.059418175 -0.28605917 -0.6692142 -0.43689758 -0.4420496 -0.023698004 0.22332086 0.59277683 -0.115894355 0.9188794 -0.18717004 0.1503482 0.13364857 0.005377312 0.018679183 -0.66545296
言 0.52183896 0.030642234 0.2054074 0.4905035 -0.18816319 -0.17477718 0.6764785 -0.37451455 0.061117705 -0.22816618 0.02121164 -0.19696116 -0.13832001 -0.010833331 -0.03011267 -0.5106999 0.13136382 -0.3961823 -0.30922374 0.34145877 0.16122302 -0.23095103 0.21330957 0.4655394 -0.12442829 0.11006512 -0.2944337 0.49013558 -0.051890142 -0.20544598 0.118034825 0.8018247 -0.82409877 0.04614094 -0.09283322 -0.035279732 -0.32421026 -0.20679492 0.008547478 0.064938 -0.10709484 -0.31912535 -0.465343 -0.3321191 -0.050329763 -0.30847514 -0.0063341744 -0.9909082 -0.32063654 -0.14406464 -0.21304421 0.1528817 -0.2335292 0.10845619 0.20238027 0.13603263 0.11868716 -0.18129398 0.31588304 -0.33892038 0.103436165 0.018836435 0.2301085 -0.34380564 0.33370042 -0.0012978233 -0.13386977 -0.33336705 0.41479647 0.015889464 0.6086226 -0.70549846 -0.28654492 0.20801976 0.19371009 -0.37278834 0.5622095 -0.16109364 -0.09747142 -0.40933442 0.62099767 -0.23522064 -0.19044116 0.17593381 -0.10518165 0.22072472 0.038206995 0.21475579 0.2601542 -0.10680544 0.16691703 0.44657382 -0.3449136 0.1356498 0.05925639 -0.042412877 0.22727269 0.20342731 0.108847775 0.19941701
无 -0.03588247 0.038486633 0.48095927 0.08338177 0.17476344 -0.024910111 -0.27170038 -0.16861334 0.019950127 -0.6457221 -0.25871342 0.19932888 0.23668422 -0.29534104 0.08617208 -0.27588832 -0.2124898 -0.30580246 -0.1552146 0.04069474 0.23364787 -0.100294404 0.1127483 0.16219239 0.31642342 0.006260027 -0.14256 0.006156899 -0.08947633 -0.46782678 0.77097726 -0.11044967 0.62124324 0.45963797 0.50971955 0.0017050842 0.37558478 0.13119201 -0.011667746 0.0004186537 -0.52164096 0.0594073 -0.289364 0.7020046 -0.32881698 0.28637302 -0.91474134 0.27009413 0.1312272 -0.38651618 -0.49044132 -0.5076973 0.13000678 0.26838434 -0.4204478 0.18249121 -0.08193319 -0.2662688 0.18106242 0.46378115 -0.53978354 -0.33864236 0.02159675 -0.52339566 0.48543343 -0.0094356425 -0.20007817 -0.1203185 -0.4130297 0.011768555 -0.25996467 0.17262258 -0.3025705 0.588989 -0.14446634 -0.27883255 1.3567163 -0.10036199 0.22769247 -0.28385168 0.008869885 -0.18240441 0.26228127 -0.001999581 0.35540143 -0.022512212 0.017220799 -0.4285569 0.20905626 0.21280414 -0.14940794 0.080606714 0.23143865 0.0709865 -0.008689246 -0.1906775 0.22408178 -0.40376055 -0.39207998 0.05820918
则 0.17742604 -0.24669033 0.27419177 0.039071497 -0.10308793 -0.10460804 -0.08584896 -0.1310284 -0.057090472 -0.39580494 0.09731205 -0.19194624 -0.4210739 0.12520131 0.0095982365 0.75085694 0.1901798 0.5490762 -0.025753118 -0.12930536 0.11607815 -0.18899423 -0.15900135 0.29528403 0.05415921 -0.064598754 -0.40566757 -0.10521972 0.056217264 0.36061633 0.07744091 -0.6111181 0.17752318 0.055164278 -0.25742033 -0.39351302 0.085500166 -0.042402808 0.0037886254 -0.17181164 0.23126405 0.36335626 -0.46571532 0.2533121 -0.41592517 0.11474808 -0.1632299 -0.07198698 0.27929884 -0.4651272 -0.17427747 0.22272786 -0.4661491 -0.48459104 -0.15871574 0.60221803 0.34126738 -0.3405047 -0.031830907 -0.67383295 0.14395726 0.11060476 -0.4754643 0.50189394 0.14795329 -0.2757509 -0.11298568 0.3812572 -0.31584743 -0.011040846 0.30757344 0.11319279 -0.3998635 1.0188435 -0.23012882 -0.5133764 1.083509 -0.4125633 -0.16835703 -0.86347705 0.16493194 -0.6414192 0.23449074 -0.2502041 -0.6377961 -0.09266577 -0.26273265 0.05387502 0.16169286 0.16360304 -0.5100051 0.20319502 -0.4353405 -0.053516347 0.14799286 -0.14012599 0.4877003 -0.20068581 -0.0759125 0.1768063
！ 0.011842026 0.14200057 -0.21865684 -0.2559137 0.16148119 -0.28137413 -0.25354955 0.68445426 0.046844225 -0.75802845 -0.18640679 0.48163757 -0.13790675 -0.08644889 -0.34729257 -0.20557554 0.93951344 0.2879812 0.104015276 0.02953458 0.2744131 -0.023938358 -0.013610548 0.19650598 0.21964869 0.45426047 -0.11520647 -0.55256253 -0.18013963 0.09234267 0.33249912 0.10642999 -0.32632804 0.19360583 0.4248438 -0.092455 -0.07976504 0.32886827 0.3200577 0.15635738 -0.4227499 0.08404824 -0.14240539 0.27162722 0.09505152 -0.16644344 -0.20513488 0.026372902 -0.084779575 0.0017486507 -0.20130514 0.13853332 -0.1078485 -0.34754562 -0.020327585 -0.4521656 0.09788126 -0.19128193 0.20047869 -0.17112523 0.4338902 0.44820735 0.32213303 -0.09810023 0.5467234 -0.054431308 0.013015912 -0.1455584 0.4995242 0.7240412 -0.27762508 -0.38318425 -0.07642076 1.2499844 -0.07149944 -0.12776323 -0.58809334 0.036099367 -0.12527397 -0.121621005 0.025427971 -0.21948719 -0.029348895 0.5554985 -0.36287728 0.51650935 -0.3608569 -0.64901376 -0.29499593 -0.16342045 -0.15450168 0.7813183 0.28814378 -0.036033493 0.110009596 0.10858766 -0.5047043 0.04453873 0.4530751 0.05498956
问 -0.21893081 0.0658484 0.2179561 0.3058315 -0.27997786 -0.2672476 0.12745273 0.3927761 -0.0663332 -0.2192039 0.028555188 -0.22781204 0.21257655 -0.13594289 0.16744527 0.1801974 0.04318431 0.08157556 0.32087374 0.06506728 -0.04924841 -0.48458079 -0.6575601 -0.54995805 -0.01864299 -0.120159134 -0.3455401 0.30505612 0.1481931 0.3083244 0.17350812 -0.36058518 -0.5655395 0.30901977 0.034596402 -0.20285581 0.2164814 0.08929903 0.14748645 -0.0695729 -0.38704893 -0.09263512 0.0907012 -0.34735706 0.0016734446 -0.14779106 -0.26821953 0.036794975 -0.012053153 -0.33977246 -0.079728216 -0.20588766 0.25964034 -0.12004879 0.06579777 0.12731968 -0.07960041 -0.29869196 -0.13557175 -0.22156742 -0.009086616 -0.077345945 0.40717614 0.08070829 -0.14150013 -0.17718613 0.26387843 -0.3609044 -0.21525843 0.09774794 -0.030984122 -0.88508266 -0.6533716 0.92161965 -0.28355965 -0.3326457 0.55242467 0.59440297 -0.24109915 0.3810429 0.045412946 -0.033314973 -0.29100853 0.18687119 0.03777952 -0.36305797 -0.58616394 0.4763413 0.35460827 0.30175602 0.21261644 -0.14903612 0.23215136 0.14186716 -0.36620772 -0.07637301 -0.19024554 -0.2578836 0.19067053 0.2914085
知 -0.28912264 0.42508045 0.029370777 0.24754186 0.23223332 -0.23967353 0.090737276 0.24820352 -0.11476643 -0.259026 -0.09610301 0.4758898 -0.06371764 -0.18922359 -0.37045866 -0.586845 0.7341722 -0.025222966 -0.07673487 0.11056388 0.044105332 -0.36751089 0.21974209 -0.32672158 0.32590243 0.21790168 0.1450476 -0.1115181 0.17666864 0.34485215 0.40515313 0.51859206 -0.22065952 0.19055079 -0.09449695 0.4265712 -0.41253668 -0.27453837 0.03855762 0.12233044 -0.47784895 0.23920384 -0.27930522 -0.3965697 0.14154233 -0.046975233 -0.29148552 0.084144115 0.19035482 -0.13356827 0.4278349 -0.04161172 -0.026109027 -0.4947703 -0.09882615 -0.28633055 0.22232752 -0.25378975 0.3396531 0.29951432 0.73790205 0.061148304 -0.33431405 -0.11499217 0.32402286 0.09173676 0.1543353 -0.3398453 -0.0020532338 0.24586746 0.36788258 -0.08040111 -0.07496628 0.04928886 -0.2893432 0.025190711 0.19321215 -0.07618262 0.026264643 -0.96131784 -0.4037962 -0.12416751 -0.25981125 0.28428057 -0.16354196 -0.42844567 0.2453747 -0.0042954427 -0.22817199 0.08626516 -0.24924618 0.10076812 0.5476868 0.22172125 0.24004093 0.3380495 0.0040084757 -0.17014876 -0.15612891 -0.3904607
何 -0.32961306 0.42848682 -0.035349954 0.5776426 0.11848273 0.015919214 0.1668389 -0.16855404 0.47673932 -0.555889 -0.6636366 0.13313024 -0.07070778 0.006265689 0.19862913 -0.080622815 1.4186404 0.20717339 -0.25891545 0.22533345 0.078774326 0.08437039 0.11396404 -0.20909394 -0.018969325 -0.24485587 -0.07749912 -0.043196715 0.11680123 0.34176135 -0.007870042 0.13296343 0.2076669 0.015756775 -0.3440531 -0.0007701561 -0.20642059 0.090707615 -0.09096384 -0.64673007 -0.08758575 -0.10308417 0.19133128 0.39321893 0.31554505 -0.29295838 -0.03608819 -0.47342706 0.08857352 0.041194003 0.14588252 -0.29340708 0.0006212332 0.13812727 0.0003243134 0.046788294 -0.31275475 -0.21270828 0.115693495 0.10820638 -0.05374123 0.53221416 0.2585511 0.0013258507 -0.09061795 0.2493207 0.607088 0.053196345 0.20099021 0.4214608 -0.40770125 0.15476204 -0.17200014 0.3103218 0.43751246 -0.19512428 0.28313816 -0.16204914 0.32804 -0.55824137 -0.054137915 0.031899594 0.41384193 -0.056632742 0.29796544 0.54777175 -0.036389653 0.018345652 0.06388246 -0.09783749 0.49685815 -0.5316208 0.3144075 0.016012644 0.07015537 0.49647152 0.1812082 -0.13568099 -0.22680247 -0.008557361
吾 -0.21220742 0.46828473 0.42998356 0.35343122 -0.087388106 0.27265635 -0.03089307 -0.5838294 0.19292863 -0.32576194 0.12336919 -0.07495618 -0.16977595 -0.050752547 -0.4998534 0.10307642 0.44669786 -0.19893694 0.06351633 -0.45853302 -0.2520633 0.39865324 0.098015994 0.1846339 0.17769057 -0.4025874 0.124957815 -0.067335896 0.6539344 0.08904755 -0.20035948 0.18609098 -0.23551445 0.042664897 -0.28841162 0.48801422 -0.61837554 -0.16895019 0.25996643 -0.42336017 -0.38332674 0.24478841 -0.4951479 -0.33689338 -0.048673104 -0.17655991 0.09309072 0.12248522 -0.60887146 0.26081172 -0.09355891 -0.12387049 -0.32598975 -0.102413595 0.34176493 -0.1941815 0.7020572 -0.2772999 -0.13284762 0.63546926 0.22844164 -0.6768478 0.0065144086 -0.40227234 -0.12893786 -0.0016519652 -0.34672368 0.4504563 -0.6295179 -0.055984043 -0.2348914 0.14577657 -0.543612 0.34108192 -0.11824068 0.44137743 0.4201369 0.15723805 -0.0134691335 -0.5916098 0.19239235 -0.53731406 0.19208854 0.14309894 0.10785521 0.068371035 -0.20895098 -0.07080996 -0.023753256 0.22225824 -0.103097156 0.31329277 -0.05372329 -0.17350549 -0.438517 0.0059334077 0.06659442 -0.347671 -0.045790207 0.08083391
仁 -0.2738518 -0.02432266 -0.31635183 0.2677264 -0.23123373 -0.21370159 0.29732454 0.02310403 0.10004456 -0.24380861 -0.6534727 0.16059919 -0.4893212 -0.2555192 -0.24868397 -0.40678546 0.16388263 -0.74632454 -0.18174562 0.12868343 -0.021572215 -0.20105048 -0.042966448 -0.24523391 0.013631697 -0.61425537 0.05138018 -0.122734435 0.102232754 0.21678907 0.17715007 0.14288065 -0.07092194 -0.28158933 -0.016226493 -0.4827711 0.32606596 -0.21431664 -0.03335609 -0.18830541 -0.4594443 0.31712964 -1.0150932 -0.14952251 -0.24970181 -0.41108105 0.064027146 0.08491973 0.011410371 -0.1436446 0.101554304 0.36400783 0.17174658 -0.24192725 0.676682 -0.2434829 0.35086358 0.409634 0.090046085 0.42590383 0.39247888 -0.23762275 0.19607462 0.021570947 0.053048458 0.059669476 -0.14217012 0.4383508 0.22858351 0.15920676 0.19185486 -0.8574561 -0.28420883 0.4354765 -0.012283392 0.5580982 0.10010985 -0.4459824 0.6423246 -0.18498199 -0.43394417 -0.056480736 0.010328779 0.03943542 -0.028841365 0.12581466 0.4930546 0.34117696 0.18181784 0.10543839 0.19662842 -0.2168064 0.06685304 0.13787548 -0.80773276 0.24762812 -0.22772472 0.0045839427 0.264882 -0.3094842
夫 -0.26608554 -0.58982235 -0.46546948 0.16680945 0.4915002 -0.0041410294 -0.6219927 -0.068493806 0.48158205 -0.29831243 0.14133179 -0.2928585 -0.057568014 0.61271405 -0.37672767 -0.3020947 0.5877469 -0.038246743 0.19490057 -0.13938719 -0.2935992 -0.13801278 0.4012107 0.24800505 0.19809183 -0.6745614 0.2522108 -0.3660736 -0.07916774 0.42275745 0.0056139054 -0.13367675 0.07287189 0.2023061 -0.3361068 -0.049634494 0.086379886 0.25202975 0.6541526 0.15921207 0.618475 0.12969962 0.3099203 0.2872583 0.20780635 -0.13092652 0.2968153 0.13217604 -0.2553718 -0.0531506 0.24487261 -0.66821283 -0.081529096 -0.38669106 0.65656954 -0.0010116816 0.34559307 -0.5187491 0.10975408 0.51546514 -0.6495522 0.19057426 0.06325414 -0.5295206 0.04557427 -0.066315226 -0.20156391 -0.51104635 0.08964144 -0.01296036 0.07025559 -0.7493705 -0.122054555 0.66066885 -0.047678676 0.07562668 0.14992489 0.21072198 -0.20972031 -0.07687142 0.24544908 0.019838594 -0.055787954 -0.06266946 0.11698751 -0.30812472 0.070019536 0.57398736 -0.16673812 0.457193 -0.08452005 -0.0925735 -0.21101695 0.051850542 -0.004988189 -0.37187982 0.2916836 0.076990604 0.018119778 0.24383934
、 0.2499829 0.80419475 -0.17524722 0.06702825 0.13792793 -0.33978117 -0.22606096 0.30391267 0.26869196 -0.90575564 0.2865177 0.28098303 -0.09374164 -0.18050554 0.14964443 -0.67079127 0.097023994 -0.60332966 -0.11217452 -0.0073941587 -0.1654377 0.1609161 -0.17087314 0.03805925 0.049173865 0.2612076 -0.9277764 0.6038699 0.25812972 -0.06675118 0.22590362 -0.19842699 0.23575185 0.007214063 -0.020574726 0.68269145 -0.34803343 0.049756676 -0.47809315 -0.13281897 0.22154865 0.15439999 0.6426987 -0.04905538 0.19335124 0.010154877 0.14522135 0.1473607 -0.13331775 0.40569896 -0.6287995 -0.10998283 -0.33133686 -0.29078463 -0.19156823 0.8150736 0.037122443 -0.20029229 -0.24906649 0.013537127 -0.31479767 -0.18530051 0.021165518 0.5716814 -0.16566041 0.11986785 -0.093362726 -0.30879545 -0.29390147 -0.51744455 -0.4129363 -0.008897968 0.04279089 1.8912915 0.26480687 -0.030329056 0.2950316 -0.33615723 0.6275283 -0.2839238 0.030014997 0.59935707 -0.42529786 0.10572361 0.014686317 -0.1800812 0.50136197 -0.15291014 -0.036262974 -0.3611157 -0.05427548 0.2915872 -0.54424906 -0.17578766 0.15627569 0.37788522 0.018670242 0.1019936 0.39153135 -0.16898759
道 -0.18677965 0.30905128 0.49668697 -0.27094862 -0.33623365 -0.7529394 -0.24280445 -0.07315053 0.059739508 -0.32765898 0.054774594 -0.116932064 -0.15229912 0.3259559 -0.33904344 0.19021863 0.52202666 -0.06835919 0.27137548 0.28922623 -0.37147948 -0.34982944 0.12322748 0.0022436117 -0.2790849 -0.23053025 -0.04108562 0.24411017 -0.15771276 0.5095077 0.4245063 0.507637 -0.40924853 -0.670387 0.098960854 -0.62546414 0.13543743 0.39068723 -0.21961832 -0.006961399 0.17485316 -0.002528218 -0.37064523 0.54759777 0.034830853 0.08057356 -0.09360545 -0.15176757 -0.38712525 -0.049986597 -0.1557209 0.27573544 -0.3184029 -0.088926524 0.2751233 -0.17968151 -0.099162325 0.52024853 -0.53791565 0.24882801 0.42037916 0.07758137 -0.17146975 -0.13564779 0.068405576 0.31593558 0.20181039 -0.56632185 -0.2221894 -0.029174693 -0.42420962 -0.21207857 -0.38245043 0.093911625 0.40151963 0.39681196 0.4183766 -0.044552047 0.27999067 -1.2389003 0.062725686 -0.08194131 -0.054972075 0.18401848 0.34606197 -0.6724135 0.3163268 0.029530926 0.21525666 -0.053193178 -0.1843782 -0.15107206 -0.18142933 -0.20608868 -0.5047038 0.04248369 0.21918204 -0.34553093 -0.385993 0.11332934
焉 -0.17869982 -0.16620843 -0.24193531 0.4250504 0.055678733 -0.3650013 0.06847115 -0.33737785 0.33810842 0.21702595 -0.22615053 -0.6956598 -0.22038132 -0.07424171 0.41874394 -0.09204928 0.89957756 0.6448176 0.20836523 0.026564362 -0.12692532 0.019742655 -0.21892115 0.43310523 0.21578777 -0.22915763 -0.11220565 -0.46321937 0.49830252 -0.265601 0.19188891 0.14352441 -0.066064514 0.08038342 0.30459234 -0.10068907 0.4549417 0.18150572 0.08741511 0.42887568 -0.056855474 0.15210108 0.13053691 -0.072929144 0.37089264 -0.48346177 0.69771475 0.5079124 0.3837662 0.093894586 -0.23673105 0.030294184 0.037092842 0.25557595 -0.2635754 -0.2784174 0.96815056 -0.08276567 -0.118278325 -0.025211478 -0.27552286 -0.39221352 0.27664176 0.36523578 -0.3325316 -0.5991348 0.20823878 0.05086437 -0.078583196 0.13692948 0.11714929 -0.21648711 0.09230946 0.64881957 -0.3070821 0.41631156 1.0032035 -1.0039716 -0.5053937 -0.70072377 -0.03949783 -0.22255033 0.114375725 -0.15090352 0.14197469 -0.08608266 0.112992056 0.94953114 -0.17915851 0.0036602698 0.40694705 0.29400566 -0.10622001 0.33944607 0.27841356 -0.32326272 -0.4853251 0.0275898 -0.3582004 -0.5112278
行 -0.28639117 0.1709828 0.16213539 0.20597517 -0.5626282 -0.06893078 -0.36587825 0.12982056 0.124697745 -0.23434944 0.030336438 0.51598257 -0.061046142 0.07111112 -0.53063506 0.0031562536 0.3538239 0.015855696 0.22107452 0.13597506 0.39712417 -0.12310217 0.14943759 0.21516354 -0.14202707 -0.3070598 -0.13923493 0.0572674 -0.22292544 -0.0035591396 0.21537256 0.048255105 -0.14160903 0.03617686 0.06642916 0.39450374 0.42767137 -0.25001776 -0.041452777 0.3099091 -0.014550043 -0.17583303 -0.033392467 0.19956914 -0.25394124 0.15605363 0.5108973 -0.49084136 -0.08967245 -0.12737148 -0.14938195 -0.052009054 0.38054684 0.35174483 0.20485331 0.21516897 0.36088005 0.109016955 0.4476089 -0.49926847 0.34649095 -0.51271045 0.43755677 -0.6699597 0.0896178 -0.1013455 -0.046388097 0.28802094 0.3679866 -0.19304395 -0.18450019 -0.64863133 -0.18678464 0.29386395 -0.17592008 0.1735914 0.12634642 0.16807342 -0.114679635 -0.87968785 -0.17835599 0.094555385 -0.1526929 0.0686703 0.0522561 -0.16460119 0.16646448 0.1824636 -0.46123275 -0.072747014 -0.07115881 0.130206 0.010386561 0.009938007 -0.5567523 0.03501015 0.109336734 -0.53476447 -0.12338772 -0.6576294
谓 0.11526939 0.34788525 0.29877234 0.25958574 0.2893706 -0.21756767 0.34408554 -0.026963383 0.2793663 -0.8028381 -0.09776434 -0.49020925 0.19953756 0.07493616 -0.13752614 -0.028893277 0.3313511 0.13643181 0.5947467 -0.037559763 0.022563962 0.28239506 0.90723795 0.025602283 -0.2827758 -0.23566438 0.27566126 -0.11263742 0.1369737 -0.14336675 -0.047397856 0.06421912 0.27658322 0.04360862 -0.23116954 -0.065508574 -0.35360566 -0.8756476 -0.34188363 0.28146425 -0.4611225 0.28799483 0.9523474 0.023110421 0.07847404 -0.21737061 0.5364412 -0.18281125 0.4795358 -0.031525884 0.21593493 -0.16455235 0.40873694 -0.52511907 -0.44136253 -0.18900774 0.110589735 -0.41790298 -0.25603238 0.052798305 -0.19802901 0.09416334 0.18105915 0.31710094 -0.14119051 -0.15649483 -0.2675885 0.020117281 0.61743414 0.026325583 0.24634019 -1.0394723 -0.23328781 1.0761157 -0.14754972 -0.48289427 0.28520685 0.13597694 0.28706926 -0.26147538 0.47320712 -0.5433061 -0.39618745 -0.25531915 -0.09883497 -0.41761875 0.30981046 0.10010145 0.4107796 -0.39677602 0.018798243 0.35681316 -0.10998995 0.27181542 0.17281473 -0.3718409 -0.14761898 -0.078795664 -0.3272409 -0.023641106
必 0.33090937 0.7032549 -0.11112274 -0.18268399 -0.15150248 0.07663957 0.5984744 0.41710114 0.2747202 0.08607271 -0.088804394 0.061734177 0.38210395 -0.0545415 0.07594784 0.25118607 -0.11353806 -0.20901713 0.48407853 -0.01989219 0.5324592 -0.077928185 0.19557814 -0.21353458 0.6084022 -0.17126787 -0.40620673 0.016821466 0.5218292 0.011897264 0.38678122 -0.42586687 -0.23969117 0.38901758 0.1605148 0.022017993 -0.25500983 -0.18145874 0.4162565 -0.12499085 0.056491308 -0.004110397 -0.51230884 0.02589499 0.058177296 -0.2028967 0.020804016 -0.3581213 -0.08674586 0.14553788 -0.36511314 -0.36578938 0.4779669 -0.09511134 -0.7030907 0.5374377 -0.44626287 -0.67833704 0.2117072 -0.066312484 -0.23779495 0.16484055 0.11791217 -0.09519768 0.15347144 -0.22364123 0.103398256 0.46099722 0.9373242 -0.10518618 -0.49995443 -0.12626429 0.017574942 0.5533187 -0.027581232 -0.12230698 0.5639796 -0.80442256 -0.4386924 -0.7069 0.18361218 0.1035739 -0.19651838 0.16789533 -0.075200856 -0.4553308 0.39842778 0.49751088 0.5006699 0.36743003 0.08357483 -0.32727718 0.7462576 0.45671427 -0.049797248 -0.17014422 0.3053544 -0.024755903 0.15979049 0.24785139
礼 -0.64681774 0.5428186 0.29610142 0.035267092 -0.1440421 -0.29895607 0.55156577 -0.0046488415 0.26503292 -0.40267944 -0.18419556 0.40174887 0.026489489 -0.10412483 -0.29940945 -0.32516643 0.4959552 -0.7557254 0.15640965 -0.19538249 -0.52009755 -0.37858424 0.3245257 0.08018132 -0.33653194 -0.23363127 -0.2312655 0.41445315 -0.28096336 0.32992125 -0.16740172 -0.23066191 0.023017606 0.23672304 -0.32976547 0.11507358 0.111400515 -0.07770546 -0.25278416 0.041198626 -0.117485605 0.059217308 -0.28064454 0.25524202 0.15159819 -0.3079638 -0.14532596 -0.27583003 0.019156208 -0.25015324 0.12374351 -0.074640036 0.032597527 0.016204502 0.059855733 0.048325546 0.58107984 -0.274051 -0.3357621 0.3990633 -0.4766483 0.24690337 0.2051902 -0.22616404 -0.5304727 -0.22622482 0.036853258 0.065472856 0.07661642 0.17473318 -0.12029648 0.27415124 -0.41584784 0.35474926 0.12223442 0.0062122494 0.436394 -0.4566837 0.23366451 -0.73472476 -0.110257305 -0.26070973 -0.604479 -0.055074126 0.22239125 -0.16193928 0.2978347 -0.025727237 -0.21516666 0.16267808 -0.2674822 0.007761305 -0.26415133 0.22253446 -0.018709516 0.6201172 0.20852914 -0.104119085 0.23470974 0.30318743
孔 -0.061823677 -0.2218724 -0.2522763 -0.12856975 0.035724267 0.07776882 -0.2714872 -0.32554075 0.40133694 0.07076363 -0.49486968 0.40434915 -0.17842115 -0.55597615 0.10634555 -0.20094931 1.0111862 -0.097045556 1.0055267 -0.07772716 -0.25318116 0.011960794 -0.08104064 -0.21815823 0.074960686 -0.14365527 -0.27959284 0.26056612 -0.42874563 -0.20951982 0.040107127 0.2043696 -0.0668812 -0.21595901 0.14609718 -0.4290226 0.28985402 0.07375709 0.04032296 -0.26047283 -0.361885 0.14973395 0.73137695 0.14411306 0.18680295 -0.7607886 0.34877557 -0.045449365 0.11346302 -0.22887123 0.3970184 -0.30472985 -0.32331106 -0.03083027 0.0038324394 0.22301206 0.5150225 0.064942844 -0.41462556 0.7874445 0.32733753 0.13895231 0.18107301 -0.08349961 0.6411125 0.5441427 0.14346452 0.054778688 -0.57713574 -0.24597244 -0.58190256 -0.9540828 -0.8096638 1.1364332 -0.049730968 0.26089543 0.37156397 -1.0257938 -0.157818 0.17204116 0.4479794 -0.1324121 -0.018566743 -0.20579396 -0.38636816 0.213721 -0.6974952 0.33406818 0.40808818 -0.017566318 -0.08007141 -0.034280278 0.47789803 -0.25065264 0.18212569 0.08186349 0.09711604 0.12994109 -0.3964084 -0.59935343
斯 -0.24622086 0.0025756254 0.14564098 0.3210795 0.18613733 -0.20158273 0.29022878 0.44170815 0.6483255 0.060237132 -0.41554388 0.1955855 -0.46298766 0.17555149 -0.18579675 0.34949082 -0.73229796 0.48167598 -0.09156121 0.12983915 0.019523615 -0.58537275 -0.0010351134 -0.31792915 0.3588669 -0.008697141 -0.18222426 -0.4977835 0.0090933945 0.22700575 0.2822442 -0.107527204 -0.0584968 -0.27860537 -0.48486194 0.13058923 0.48294127 -0.14640038 0.60983557 -0.588639 0.20315786 0.04084519 -0.64569986 -0.05545947 -0.12848336 -0.38366705 0.11660357 -0.16235091 0.10213324 -0.030335821 0.05492853 -0.6570271 -0.12449048 -0.6704728 -0.3803193 -0.818486 -0.29926938 0.22610743 0.14287065 0.12287795 0.22237563 0.2548551 -0.45991516 -0.45206797 -0.17632641 0.11016998 0.33390212 0.380193 -0.42418957 0.074044436 -0.5766637 -0.96711904 0.06691311 0.51120645 -0.28665996 0.48188564 0.58331525 0.106451675 -0.02079173 -0.4048848 0.021400671 -0.24075373 0.12484937 0.06602919 0.6375903 0.27199653 -0.30176675 -0.0049406467 0.020638505 0.2042761 0.23166387 0.30962425 -0.11918986 -0.015663723 -0.24123614 0.2855393 0.33444217 0.34298414 -0.0035171176 -0.18417531
三 -0.21474256 0.015253767 0.06359099 -0.8002695 0.6780498 -0.60954046 -0.12627035 -0.5910848 0.3069666 -0.12850755 0.10551836 -0.19719441 0.23863485 -0.32707697 -0.015389193 0.25091508 0.42971796 -0.2043786 0.42170647 -0.040817793 0.47692055 -0.1388728 -0.53012305 0.22640102 -0.19376107 -0.68982136 0.25643563 0.13331746 0.12202084 0.009026642 -0.28303075 -0.32049036 -0.3954294 0.12527823 -0.22519253 0.5164714 0.54393685 0.15635507 0.4932212 -0.40666258 -0.1601239 -0.5451161 0.15099287 -0.4720687 0.02449515 -1.1037054 -0.8530521 -0.35334054 -0.32095852 0.06320872 0.47592595 -0.35864368 0.026250202 -0.251761 -0.35780606 0.15123288 0.43302578 -0.21657328 -0.059591558 0.4498572 -0.35137376 -0.27890617 -0.5954575 -0.51238 0.39645287 0.31975958 0.28484198 -0.08399738 0.24698846 0.30470875 -0.4127825 -0.22448365 0.08876392 0.78637266 -0.051935207 0.4026238 0.8027538 -0.42503735 -0.28149897 -0.52293974 -0.525536 0.33600146 -0.1327228 -0.013805967 -0.22374953 0.12841094 -0.25197378 0.24606685 -0.04102149 -0.12240357 -0.7894736 0.39193293 -0.04346586 -0.19075544 -0.41963607 -0.28198835 -0.3601949 0.028099092 0.12615761 -0.03153336
能 0.19675234 -0.027235322 0.025631797 -0.23195572 -0.03928192 0.21174714 -0.07631453 0.31724128 -0.07076342 -0.3041374 -0.084810324 -0.39805034 0.43575856 0.11459432 -0.080512956 -0.10280165 -0.058247007 0.091145016 0.69341093 -0.3529665 0.2507178 0.105116956 -0.13755253 -0.13481966 0.11289708 -0.097129874 -0.24483058 -1.0210015 0.46303082 0.34430102 -0.19820084 0.06413761 -0.28815663 0.53560287 0.06317083 -0.47697255 0.04478015 0.26261544 0.3597994 0.35277808 -0.29902196 0.21619529 -0.91117156 0.27207667 0.11255594 -0.26336548 0.56595916 -0.006733187 0.5499813 -0.109322384 -0.13526951 0.27284908 -0.3806893 0.51307964 -0.16222286 0.03907512 0.06750797 0.16721714 -0.18118995 0.46182713 0.23740685 0.13458745 -0.20707451 0.17155075 -0.18204561 0.08902726 0.31140763 -0.07863126 0.046767846 -0.20141195 -0.113981135 -0.36606485 0.07203746 0.5014021 0.2634286 0.021556485 0.7012081 0.26739985 0.22592363 -0.3201527 0.13753988 0.054328274 -0.019129708 0.18851128 0.09423316 -0.6960201 -0.42315307 0.11073812 0.40730736 -0.43679777 -0.18315263 0.038595963 0.47284037 0.6083296 0.46249318 0.19937584 1.0137914 0.3686108 -0.1560036 0.026708586
见 0.10812578 0.16539246 0.5006775 0.07560109 0.15974809 -0.5062033 0.027141456 0.065967396 0.25645936 -0.7742571 0.06852364 -0.044293486 0.18955229 -0.17394806 0.2570542 -0.24145266 0.09459949 -0.4669692 0.10924447 0.071496665 -0.08822727 -0.21919556 0.39615738 -0.10754436 -0.11349448 -0.019046072 -0.43370426 0.10281394 -0.49182576 0.8389768 -0.21695435 0.41171628 0.17928493 0.16867943 -0.30780667 -0.06272322 0.3070712 -0.30800012 0.38416237 0.1674617 -1.1723258 -0.1000639 -0.46623632 0.24827802 0.45740876 0.0018550133 -0.42062494 -0.109702 0.14593129 0.83683926 0.27278423 0.65940785 -0.6087697 0.46393043 0.5958647 0.1822406 0.25739604 -0.116504595 0.06996836 0.13910727 -0.5483718 -0.4290199 0.024174724 -0.3392002 0.582868 0.4099747 -0.25742146 0.2577907 -0.349901 -0.38908798 0.17161714 -0.86147153 0.12582397 0.49692532 -0.44487298 0.16338544 0.20812222 -0.06820406 -0.20542544 -0.0799616 -0.08214866 0.13344215 0.098809116 -0.27964622 -0.12241524 -0.10902254 0.20241465 -0.30839843 0.5386732 -0.36304045 0.5006285 0.3648281 -0.02643912 0.16738497 -0.38906726 0.09837502 0.17342165 0.9061035 0.0592262 0.007697583
学 -0.69461954 0.26144394 -0.46743655 0.45823216 -0.1066499 -0.18796016 -0.11494448 0.27291483 -0.08618325 -0.56033206 0.18253292 -0.11860991 0.06481882 0.5003408 0.04144352 -0.6095652 0.19151562 -0.13339637 0.5760534 -0.07643946 0.26562062 -0.5097337 0.32610908 -0.53328294 0.13257787 -0.26555404 -0.073355734 0.4532366 0.20905401 -0.26710352 -0.4199285 0.35179046 -0.3264483 0.4831325 -0.22715186 -0.8541825 0.1668221 -0.06217031 0.08594673 0.1726907 -0.22045271 0.6634913 -0.40018398 -0.16994596 -0.6678754 -0.29658988 -0.21049394 -0.06731359 0.29250634 -0.030318564 0.27900064 -0.7752276 -0.30214417 -0.14611414 0.10808971 0.41239393 0.21317461 -0.0072611384 0.4375085 0.79283065 0.071700685 0.14185134 -0.028472679 -0.07536388 0.43763605 -0.055904005 0.19616592 0.3587946 0.31119654 -0.10435179 -0.11891286 -0.33658054 -0.4712575 0.4139452 0.17715418 0.024921963 0.3026291 -0.11871951 -0.054929327 -0.43258813 -0.24692382 0.21548823 0.30798212 -0.1119886 0.4787722 0.13285564 -0.13091722 0.06584639 0.38035804 -0.24878436 0.30010116 -0.22401355 0.16317676 0.24438164 -1.108086 0.046499863 0.0044251583 -0.0064935684 -0.4881601 0.34419745
事 -0.25207418 -0.06558463 -0.61902356 0.07962027 -0.4528212 -0.3384536 0.26636538 -0.08529437 -0.011758156 -0.97693145 -0.13055125 0.25177482 -0.19652298 -0.62847555 0.0294717 0.264494 -0.075579256 0.51689714 -0.054984562 0.091913596 0.05334484 -0.6194334 0.36634293 -0.3059113 0.24342518 -0.11396057 -0.26533198 0.35876474 -0.04605891 -0.2963691 -0.22348219 -0.19511117 -0.044877652 0.089816265 -0.055280805 -0.306764 0.026930546 -0.66628385 -0.35491282 0.07602838 0.5542708 -0.40493596 -0.38005272 -0.1964335 0.5866007 -0.14469925 0.08700021 0.42086557 -1.0283182 0.06552718 -0.09455398 0.5571592 -0.66413337 -0.29565197 0.7290007 0.31928548 -0.3067665 -0.14037122 0.1356158 0.2709505 0.10938011 -0.78345495 1.0056908 -0.4432246 0.0074956757 -0.36823532 -0.0896081 0.105562724 0.4562123 0.36107606 0.026452554 -0.24373779 -0.5659522 0.60455006 0.11424592 0.080542736 0.5610638 0.4249116 -0.14396627 -0.31852078 0.016808178 0.195885 0.21299501 0.3066387 -0.16858748 -0.8686419 0.0401394 0.40396446 -0.23351048 0.09128807 -0.11814099 -0.21765095 -0.5296016 -0.3214568 -0.38003656 0.26702148 0.16320132 -0.1257662 0.23654015 0.3079942
是 -0.48353705 -0.02557981 0.09626872 0.039932996 -0.71350664 -0.3953986 0.103538886 0.37715486 0.40328863 -0.33832276 -0.23907918 0.4207256 0.25429595 0.043385223 -0.19853953 0.11599289 0.46377066 0.535212 0.4553789 -0.4719028 -0.13144657 0.3803919 0.18244076 -0.26559046 -0.20135556 -0.0086738905 0.22903652 0.09116089 0.090944275 0.09811757 0.6839622 -0.37825832 0.15336713 0.17015624 -0.03810567 -0.19517499 -0.5907853 0.1273517 -0.2136834 -0.4725 -0.7186086 -0.22170344 -0.3098791 0.48916972 -0.5446509 -0.4199105 0.14071634 -0.01953649 -0.10516169 0.33664504 -0.106676765 -0.18287838 -0.08640385 0.44705346 -0.06408934 0.13535504 0.03204582 -0.23909746 -0.30087554 0.44982278 0.7072436 0.6968544 0.29329887 0.3840037 -0.041105267 0.7009038 0.19593854 0.3338714 0.63136625 0.21080902 -0.31506658 -0.47160393 0.18336797 0.372172 0.14968513 -0.16020533 0.71183974 -0.03505135 -0.18267809 -0.21721648 1.0668935 -0.067347094 0.36815384 -0.220678 -0.2579653 0.040298592 -0.217221 -0.061142597 -0.18974261 0.3370431 0.32401 0.13566081 0.22151542 -0.2184919 0.027390663 0.2463753 0.4647751 -0.3631912 0.15030304 0.016099527
哉 0.42397422 -0.43803272 -0.20066662 0.59117144 0.010959222 0.05175039 -0.14438044 -0.073812306 1.179854 -0.5325204 -0.09823364 0.018217094 0.2779379 -0.06946893 -0.6302457 0.09589505 0.6347476 -0.10793246 -0.02815629 0.087727495 -0.026204899 0.09176 0.6329519 0.21069384 0.103034094 0.13235696 -0.43023032 -0.19018207 -0.43188915 0.12206472 -0.3468603 0.018488484 0.07135875 0.6042781 -0.2524589 -0.0442719 0.2520594 -0.29781088 -0.21539347 -0.1899903 -0.41573796 0.6362607 0.46973294 -0.11408444 -0.037735227 -0.05789087 -0.5757618 0.5088407 0.53645086 -0.02822741 0.00014236174 0.82446605 0.2772686 -0.19972496 -0.38984808 0.19979806 0.31503332 -0.05825417 0.23551519 0.3078116 0.11418895 0.4406035 0.3650478 -0.1904354 0.07360133 -0.35858408 0.010374918 -0.3549929 -0.18738045 -0.4215776 -0.6628285 -0.41242012 -0.60075223 1.0204062 0.23470752 0.040690392 -0.07313272 -0.054644074 0.30196568 -0.21488371 0.15396711 -0.23640285 0.04389031 -0.07511561 -0.014720111 0.30274105 -0.1748278 0.7985553 -0.6140981 0.8183719 -0.12243572 0.294248 0.96553886 -0.7799969 -0.11693662 -0.21669047 -0.17121416 -0.5418455 -0.7427855 0.08155395
闻 -0.46009064 0.7244209 0.24763714 0.7555856 0.0552309 0.07778172 0.01641558 0.29370603 0.10122065 -0.25046456 -0.08474514 -0.117128484 -0.041380238 -0.07973752 -0.071165375 0.38141847 0.8367368 0.04738208 0.71293825 0.66735524 -0.57821137 -0.03079746 0.32511127 0.23943569 0.1315347 0.6088162 -0.16198716 0.08820448 -0.52459085 -0.56198746 -0.19551171 0.6506649 -0.05276028 0.32996568 -0.13372315 0.26548555 0.36845326 0.06843192 -0.22042894 0.13531078 -0.09069405 0.19509342 -0.5559692 0.3060604 0.13276474 0.09809821 -0.32368407 -0.24655184 0.17338826 0.3849939 0.027194625 -0.06793513 -0.14350714 0.21836422 0.097732045 -0.18926026 0.2678631 -0.1821259 0.30701718 -0.11771721 0.21455336 0.51735175 0.40790302 -0.8981494 0.19797051 -0.053596124 -0.0018842559 0.22314483 0.2243554 -0.18130773 0.119967714 -0.5060951 0.20699118 0.48559672 -0.21344855 0.31409726 0.6502074 0.7378952 0.23052965 -0.3546949 -0.07720423 -0.76067406 -0.04163353 0.09548409 0.13019104 -0.3931744 0.19100443 -0.06417315 0.23732989 -0.14869949 -0.09539032 -0.21699232 -0.08717875 0.8770239 0.09094378 0.066756226 0.28919294 0.42052925 0.23988923 0.3155802
未 0.3287926 -0.19404507 0.413039 -0.14856341 -0.5896072 -0.28504822 0.2217514 0.11296549 -0.14228429 -0.6622634 -0.50248325 -0.07413635 0.04668372 0.35040197 0.10345918 -0.45057157 0.37155324 0.2948475 0.2948821 0.6438689 0.18171409 0.15076631 -0.22863877 0.3355838 0.6920744 0.098839305 -0.016305001 0.1385017 -0.15124507 0.4450334 0.42074537 -0.21819372 0.018921934 0.12460423 0.034319296 0.16382326 -0.087777264 -0.13816671 0.32730573 -0.25386062 -0.51838773 -0.30468395 0.100267544 0.84089583 0.0472349 0.31410185 0.011561817 0.4720935 -0.17457087 -0.4505599 -0.45258155 -0.11588472 -0.04624806 -0.3648132 -0.54730225 0.27081794 0.1775356 -0.9479819 -0.4628109 -0.2581119 -0.10402022 0.17054358 -0.06446068 -0.13663067 0.027031677 0.43624243 -0.1130793 -0.15439051 -0.15262045 -0.21576287 0.58398306 -0.9863201 0.21991557 0.6237656 -0.24636514 0.46610573 1.1486588 0.6891487 -0.024186974 -0.30025342 0.72564965 -0.1657995 0.51750547 -0.04009267 -0.29767424 -0.6305616 -0.34694076 -0.24552047 -0.5036106 0.52796304 0.050283674 -0.2598289 -0.00081776764 -0.05888769 -0.1728237 0.022386117 0.043964215 -0.095870934 -0.18261869 0.64460385
公 0.29294083 0.05980228 -0.12117421 -0.30237186 -0.26198864 0.097147115 0.9641509 -0.025823565 0.084601454 0.12612021 -0.19578949 0.60935104 -0.70405436 -0.0063636666 -0.20959902 0.28585213 0.70998377 0.04920736 0.4944964 0.022408003 -0.010511551 -0.1919062 0.29950234 -0.06746251 -0.36174315 -0.061709348 -0.6215422 0.6056017 -0.64717895 0.5084506 -0.49049038 -0.049646914 -0.8123843 -0.16142869 -0.021441698 0.15683523 -0.45297527 0.16817369 -0.04285444 -0.22773878 0.53644603 -0.011003339 0.17856905 -0.19841082 -0.4777531 -0.052351367 0.65508264 0.00044988556 0.24241793 -0.21821626 -0.47736713 0.07645064 0.47355595 0.11065703 -0.48662543 -0.17587878 0.29906383 -0.07596874 -0.43329614 -0.01223342 -0.5905915 -0.21131155 -0.13311009 -0.038263254 -0.002822776 0.45094168 0.55226135 -0.33545524 0.07379598 0.023607899 -0.037325867 -0.6773392 -0.16573377 1.1692305 -0.4292567 0.08924014 0.519736 -0.056003783 0.262137 0.07163834 -0.027876789 -0.3281523 0.20447095 -0.016497543 -0.50771147 0.1563259 -0.33647949 0.574597 0.021882456 0.10568931 -0.15562055 -0.12808819 0.29176503 -0.167933 0.03252599 -0.28163365 0.50630194 0.17691447 -0.28496388 -0.0077928207
好 0.04411734 0.1559299 0.26397702 0.3665296 -0.22737588 -0.08477203 0.61877257 0.43716326 -0.113502525 -0.06835607 -0.26753202 -0.709013 -0.5441246 0.22078541 -0.4513943 -0.30881563 -0.009039051 0.16565003 0.023478499 0.54012394 0.08466924 0.17642528 -0.3125482 -0.5178986 -0.28051192 0.14713262 -0.22534074 -0.07291053 -0.27888972 -0.27198872 1.255603 0.4725456 -0.35426903 -0.23518124 -0.044603564 -0.035508342 0.23401535 0.22423142 0.26584628 0.44577372 0.488687 -0.26184228 -0.27298924 -0.17439911 0.17442074 0.10502334 0.3075386 -0.2299214 -0.08110778 -0.07317892 -0.1520261 -0.45604342 -0.09900355 0.21800266 -0.23809439 0.21195167 0.51006466 0.12836899 -0.16454159 0.41214824 0.2365918 -0.004832868 0.3711322 0.14152884 0.20742826 0.0120114805 -0.09068786 -0.0065258904 -0.38548714 -0.4908309 -0.53136456 -0.432732 0.032033972 0.548006 0.33015072 0.0013983032 1.1901361 -0.19682807 0.15690368 -0.88613385 0.031235991 -0.052902054 0.034808796 0.2719705 0.70815504 -0.41588423 0.012373052 -0.11623751 -0.229613 -0.24062207 -0.2297146 0.13362068 0.99899477 -0.39694372 -0.24068011 0.2580995 -0.30938724 0.4019419 -0.18660375 -0.178172
我 0.32235527 0.021977898 -0.44340122 -0.26023343 -0.42142797 0.28342894 0.8571365 0.20484072 -0.13367091 -0.20635706 -0.32239097 0.2669295 0.113455 -0.67257017 -0.27893686 0.443098 0.7071887 -0.49110794 -0.027071966 -0.69347936 -0.8364571 0.06769628 -0.11925339 0.016209947 0.06338468 0.07479086 -0.21376722 0.14408262 -0.36503664 0.45701957 -0.4338737 0.39208528 -0.50616705 0.32602128 -0.314878 0.2895428 0.9026329 -0.02214997 0.18911168 -0.41846758 0.37362382 0.41061234 -0.8507988 0.048403267 -0.44441327 -0.22100307 0.39705077 -0.20946017 -0.09226713 -0.36013204 0.077188194 0.28946608 -0.037711497 -0.038907215 -0.22128591 0.28421393 0.5117531 -0.74152553 0.1666955 0.5998467 0.15357997 0.500367 0.20305733 -0.625638 0.5189736 0.3636099 0.11617288 -0.22848034 -0.15995641 0.34656715 -0.21636851 0.036001906 -0.17382935 0.42073327 0.15253876 0.06458353 0.37639362 -0.58565944 -0.26723439 -0.24629909 0.029834943 -0.22700375 -0.02277601 0.028017197 0.8097607 0.10562217 0.012295368 -0.16251613 0.96959674 0.43662572 -0.030786153 0.62314403 0.027842065 0.49915776 0.011137864 0.31295612 -0.30854103 0.16039631 -0.09174508 0.15274757
路 0.23848516 -0.17453903 -0.04998282 0.24143861 0.2392572 -0.250957 -0.28980145 0.111692004 0.16252588 -0.62303823 -0.14721055 -0.06660245 -0.042550262 -0.06687321 -0.03575745 0.22447054 0.48570904 -0.6663603 0.7551711 0.032343294 0.2820466 -0.13472146 -0.61985755 -0.47505203 0.9139659 -0.0048771026 -0.53078043 0.114866324 -0.4538987 -0.26108104 0.45501122 -0.072243504 -0.5693531 -0.091787055 0.2722109 -0.086493865 0.014311103 0.29450676 0.21472168 0.9144893 -0.06574448 -0.19528165 0.3528707 -0.13995737 -0.2755724 -0.12491765 0.59884506 -0.015079674 -0.38202965 0.26235312 0.47775987 -0.048816092 -0.9898175 -0.08952927 0.0045199967 0.37889722 -0.04837772 0.1898015 -0.37463644 0.4612867 -0.2677867 -0.46280563 -0.36950472 -1.0151594 -0.049209736 0.029293401 0.111168295 0.30572185 0.21547014 0.26890427 -0.025075667 -0.63715005 -0.6766588 1.0562675 -0.64185846 -0.44984898 0.009953407 -0.752493 -0.60148454 0.2634124 -0.03347917 -0.60177326 0.085165836 0.17914619 0.30070266 -0.31359372 0.49286777 -0.075185515 0.28818232 0.09619277 -0.021686543 0.7731378 0.37564772 0.03035097 0.0955095 0.26762846 0.053177632 0.17825611 0.09473169 0.39074695
在 -0.73270124 -0.0006951058 -0.3696194 0.10270347 -0.08853285 -0.043460343 0.27085537 -0.17310418 0.4368975 -0.52517307 -0.23454086 -0.08456733 0.018222822 -0.13721874 0.45331848 -0.14265741 -0.0030902599 0.23097616 0.6137906 0.34702528 -0.17254953 -0.03815627 -0.3308371 0.3490446 -0.30937088 -0.06393329 0.17431173 -0.17037824 -0.91308075 -0.18236262 0.5915321 0.48179153 0.023919366 0.29938444 0.48428932 0.2384436 -0.43744433 -0.110084854 -0.2589422 -0.38457802 0.32877055 0.19216934 -0.07069603 -0.050811775 0.8855799 0.22195677 0.18454203 -0.04265736 -0.26399514 0.6086823 0.3077999 0.3465454 -0.6528851 -0.010957878 0.8657235 -0.17832574 0.28567016 0.112342514 0.45934397 -0.42278364 -0.38739341 -0.90961796 0.08560168 -0.13845988 -0.5086479 0.1546503 0.2747437 0.13042927 0.58956456 0.71536905 -0.19242242 -0.78809804 0.58776075 0.46138984 -0.25030136 0.61250573 0.4629226 -0.84105355 -0.49222505 -0.5594254 -0.18923874 0.5286112 0.20617987 0.3277588 -0.5990664 -0.2262843 0.03383282 0.106247924 -0.13683245 -0.6486177 -0.14639573 0.18585582 0.85922694 -0.5387288 -0.8728177 -0.29469702 -0.2585745 0.21846619 -0.39692616 -0.32770592
已 0.48496574 0.5107542 0.4720039 -0.023695651 -0.40030327 -0.32650775 0.111865506 0.296066 0.61549795 -0.71832323 0.066038996 -0.33695588 0.13194968 -0.26361054 -0.17947435 -0.21081917 0.6518017 0.13776949 0.13925079 -0.006017035 0.26694417 0.024382368 0.21711363 0.49364305 0.03418684 0.29369605 0.19297948 -0.3417497 -0.23585434 -0.6563491 -0.35568702 0.16322361 -0.17759542 0.089147724 0.33897355 -0.49077687 0.1751508 0.38796186 -0.19367294 -0.22908646 -0.2608256 -0.08567684 -0.27811077 0.37306744 -0.42122713 -0.07353615 0.23189737 0.1431551 -0.43278772 -0.4123177 0.15677638 -0.79095083 0.16391847 -0.2283896 -0.16695897 -0.85710824 0.43032485 0.026885802 0.10839959 -0.41742152 -0.14902996 0.031573143 0.49602583 0.25416195 -0.3002633 0.015965315 -0.538336 -0.24757414 0.05895585 -0.20349003 0.10392533 -1.5305136 -0.0818137 0.60006785 -0.5001497 0.40611678 -0.48753852 -0.116966985 -0.25413498 -0.8705594 0.04877279 -0.17704685 -0.17609641 -0.24799308 0.51681215 -0.47286642 0.07660553 0.21675362 0.42872941 0.3732807 -0.14638938 0.48374543 0.51728874 0.030107066 0.46036586 0.24013822 0.1116758 -0.66642994 -0.053604953 -0.4879498
得 -0.158001 -0.58161014 0.4070905 0.5031452 -0.094253 -0.22419338 -0.04441137 0.3590816 0.35492164 0.05921153 0.10426466 -0.4659872 -0.050439164 -0.0669145 -0.55520266 0.03593556 -0.16997851 0.21412612 0.08682967 -0.044785935 0.11969995 0.2307331 -0.7592924 0.31080386 0.1574627 0.026850443 -0.663694 -0.21826743 -0.16102417 -0.11745743 0.50096464 0.5031378 -0.1861558 -0.3990808 -0.2903771 0.21481322 -0.014544891 -0.49082905 0.10667836 -0.7308269 0.0823448 0.85692316 -0.7545442 0.0960443 0.30089676 -0.25527748 0.3400429 0.26636723 -0.5974072 -0.2561484 0.83043015 0.13481037 -0.19572638 0.33821526 0.46862447 -0.2795172 -0.31263223 -0.3769682 0.36454242 -0.33981037 0.25317952 0.09916791 0.14260675 -0.167598 0.45356458 0.46773052 -0.14396662 0.03788472 0.4348942 0.46149483 0.25369743 -0.03354984 -0.34150735 0.4675443 -0.04419827 0.026057245 0.5115173 -0.083976835 0.0323036 -1.5358945 0.14256756 0.4209221 0.1311781 -0.014564169 0.32376847 -0.4989936 -0.41736025 -0.5356188 0.087611176 -0.3425027 -0.31512645 0.07374773 0.20759864 0.12941381 -0.10366696 -0.12951916 0.07971165 0.07346985 0.35682672 -0.61163926
所 0.18182926 -0.08017844 0.020552818 0.72300655 -0.54289144 -0.33989772 0.45034036 -0.5814608 -0.3314718 -0.39501035 -0.15371767 0.30300853 0.61900353 -0.1906537 0.023331437 -0.34810725 0.78499764 -0.45845592 -0.3158627 1.0814655 -0.1029716 -0.13232738 0.30749005 0.71922636 0.018278066 -0.2904585 -0.75101143 0.3230058 -0.1785646 0.4370098 0.31122935 0.26380637 0.43258125 -0.0815031 0.019693168 -0.5925468 0.46441993 -0.021748612 0.7978372 0.16747554 -0.20786019 -0.14564213 -0.22885697 0.13559918 -0.19602162 -0.43225503 -0.10815624 -0.0037208465 -0.4206665 0.16544902 0.09791791 0.45663467 0.34947303 -0.26045087 0.5468966 -1.3969928 -0.5979739 -0.20230177 -0.7343986 0.44859767 0.12393706 0.2880978 -0.5992417 -0.5069725 -0.40395373 -0.04657441 -0.2238357 0.53145534 0.8123095 0.06463579 -0.2369649 -0.4203502 0.31703058 0.82190955 -0.13748415 0.10171077 0.62286794 -0.48483002 0.20718454 -0.75668985 0.31240234 -0.16024095 0.4806696 0.34785038 -0.5566666 0.15157484 -0.15048906 0.078675866 -0.13516381 -0.24719304 -0.011276202 0.44798848 0.16461682 0.7149725 0.15604253 0.18308777 -0.018835198 0.43355367 0.0066648102 0.5307893
民 -0.15437464 0.22094645 -0.85378826 0.16837391 -0.40504256 -0.3085718 0.08337325 0.1624304 0.23451716 -0.48909664 -0.16304378 0.4062445 -0.32293513 0.41801015 0.045729697 0.11709017 0.37343335 -0.032467645 0.49679327 -0.17512512 0.5589704 -0.17114715 0.12520108 -0.023562506 0.6354869 -0.52377784 0.06526096 0.43326864 -0.012280354 0.17113946 -0.7379431 0.34037283 -0.47553977 -0.27836028 0.4602814 -0.08304808 -0.16899084 -0.035381768 0.034463968 -0.21622112 0.22154139 -0.042437337 -0.28560343 0.54080284 0.13442753 -0.10975073 -0.075260624 0.6034637 0.034643047 -0.18877615 -0.23817761 0.42544135 -0.2222089 0.12542307 0.11213544 0.14436036 -0.21419463 -0.37844563 0.19413632 0.11950781 0.4187323 -0.4501245 -0.24563341 -0.013770847 -0.020730002 -0.1865186 0.26460654 0.20440285 0.033889253 -0.23469742 -0.8157996 -0.19517149 0.17369698 0.27776304 -0.16473626 -0.5128454 0.82258284 0.29785338 0.19710171 -1.2680166 0.13141151 -0.39892778 -0.0061750663 -0.1762159 0.83759457 -0.1850679 0.0773339 -0.049303293 -0.16676167 0.005393462 0.11212009 0.29554757 -0.46846014 -0.8735241 -0.002150772 0.35860416 -0.071701206 0.29155543 0.16273335 -0.39850017
小 0.14177273 -0.4569566 -0.2526534 0.653504 -0.23213296 0.24885282 0.25765494 -0.84143347 0.76184505 -0.39803222 0.28810638 -0.123532005 0.200261 -0.06508701 -0.12850127 -0.3713103 0.5378063 -0.52208394 0.7564239 0.4574793 0.6341009 0.067120194 -0.31376475 -0.4986691 -0.04140835 -0.3071992 -0.3116604 0.0780972 -0.3102654 0.0143028945 -0.075640716 -0.064572684 0.30636665 -0.5691478 -0.26523757 -0.18582736 0.79535806 0.1494008 0.09674459 0.3425173 0.18285857 -0.14194697 -0.25346488 -0.019504962 0.66579103 0.29003093 0.42997065 0.5102973 -0.067049555 -0.05462782 -0.4118406 -0.23972382 -0.084828526 0.110181555 0.05716871 0.08327427 0.410145 -0.07744017 0.2532007 -0.35626945 0.45536652 -0.13764007 0.30277386 0.046939913 0.21458578 0.5241345 -0.31606114 0.42529616 0.54066133 0.24830051 0.43037987 -0.31739712 -0.3147567 0.60853696 -0.011258008 -0.5643234 0.9232948 -0.8028439 -0.35113758 -0.22029702 0.6221066 0.31423882 -0.13468105 0.024096262 -0.04785884 -0.07743483 -0.5879644 0.17099303 -0.24882944 -0.45972675 0.14196949 0.022431744 -0.41777968 -0.2785736 -0.13096163 -0.41648248 -0.42977187 -0.029417897 -0.29243758 0.18427527
天 0.07737011 0.05853343 -0.17291877 -0.10117296 0.014911783 -0.17704485 0.7720541 -0.7172899 0.6127727 0.04464996 -0.30960178 0.45850444 0.080092765 -0.47575265 0.13280869 0.23385848 0.39739114 -0.071212105 0.12061259 0.31809217 -0.100135386 0.07502879 0.37528035 0.44398004 -0.02626152 0.37262216 -0.03112106 0.0059644063 0.33684564 -0.6906478 0.29092214 -0.2966558 0.22727497 -0.1670034 -0.49395645 0.08472161 0.5672197 0.004157035 -0.37983498 -0.96360976 -0.2188631 0.19004445 -0.085781574 -0.15865166 0.35544154 -0.015384761 -0.11306935 0.10007222 -1.3690416 -0.79882914 -0.23131078 -0.60226876 0.20285133 0.1792081 -0.06800991 -0.27838853 -0.2677363 -0.42917094 -0.1285117 0.84482455 -0.16994591 -0.024710344 -0.36898565 0.16113551 -0.23558702 0.17423297 0.041363664 0.33717838 0.042226814 0.154943 -0.106569916 -0.59425336 -1.0715582 0.39106077 0.3022053 -0.43295208 0.4214691 -0.33222058 -0.50150496 -0.3048906 -0.2568274 0.16819943 0.42368495 -0.187408 0.3499649 0.03366787 0.20349516 0.2450924 0.06796655 -0.013520161 0.23548594 0.5023286 0.48352674 0.06383145 -0.70336103 0.0064194784 0.43344405 0.2906841 -0.33639058 -0.02259722
乐 -0.6312917 -0.3814188 0.33661604 0.25837576 -0.047399953 0.16929959 0.068010114 0.42629966 0.018363677 -0.11047584 -0.41702837 -0.1401324 -0.4426295 -0.1092475 0.49870202 0.1693678 0.5571557 -0.3383691 0.42198122 -0.20748548 -0.053440884 0.15164267 0.014964591 0.032500528 0.096849345 0.21946558 0.69556105 0.5749512 -0.32945707 0.25128952 0.6010854 0.33458173 -0.47791022 -0.030421346 0.063798115 -0.24463469 -0.33388424 -0.27437535 0.3466551 0.09033293 0.40272868 0.43372354 -0.034738917 0.052323934 0.110606484 0.048816763 -0.59728056 -0.050066516 -0.31722903 -0.22698449 0.070743136 0.05575847 -0.43118528 0.3139383 -0.2826786 0.1577784 0.14211711 -0.21914625 0.19937867 0.6119582 -0.40365145 -0.35288575 0.11107374 -0.40779343 -0.46668157 -0.04898438 -0.20092419 0.19323075 0.3316955 0.1156609 -0.55453146 0.10830251 -0.4645792 0.1873702 -0.31969568 -0.64203364 0.48684946 -0.33426133 0.1716557 -0.3926757 0.30371645 -0.17591326 0.42486712 0.21994726 0.6984889 0.29158562 0.8559893 0.64711976 0.44887587 -0.0803348 -0.25149417 -0.45313665 0.8407957 0.1483043 -0.25519016 0.28168923 -0.023378156 0.41991073 -0.07765261 -0.14678638
邦 -0.089097425 -0.34315264 -0.2788113 -0.033994537 -0.19077277 -0.14240453 -0.11219353 -0.002594741 0.8723457 -0.09310613 -0.66533375 -0.08803434 0.27210274 0.64407814 -0.201961 0.84197193 0.22215268 -0.36615273 0.33492488 0.09054651 0.1875304 -0.31276065 -0.27679992 0.87789536 0.3400746 -0.20907748 0.0072158864 0.016404863 -0.22584783 -0.12810907 0.19784589 -0.20388179 -0.56744826 -0.005854282 -0.1352853 0.44729 -0.23662315 0.24420084 -0.40340438 -0.27602184 -0.3900166 -0.38711947 -0.48929143 0.029721897 0.55288625 0.28792673 -0.18374386 -0.19972816 -0.3760053 -0.021164665 -0.3034904 -0.080007575 -0.045064148 -0.12128197 0.29274538 -0.07580854 1.0777957 -0.26833856 -0.287965 -0.10536097 0.23539564 0.14507517 0.5257648 0.1641048 -0.42486358 -0.008933283 0.60706276 0.2186118 0.1385543 -0.52690786 -0.04791298 -0.29775602 -0.39878547 0.32274166 -0.32523826 -0.052184016 0.6416454 0.15596232 -0.08739972 -0.28502047 -0.25518346 0.18015693 0.079352945 0.32247874 0.033523757 -0.33225387 0.024236385 0.108629175 0.25709838 0.06337694 -0.29469162 0.37431908 -0.056174822 -0.30108467 0.11989137 0.8167794 0.25423914 -0.009981887 -0.15452759 -0.3251493
亦 -0.315513 0.14627829 -0.17316435 -0.349926 -0.18820773 -0.15423164 -0.4079742 0.12181132 0.7706812 -0.63675576 -0.37442544 0.07113918 0.43677774 0.17141984 0.014033322 0.058093004 0.7128097 -0.31380937 0.19764051 0.9288864 1.487885 -0.35369506 0.0200979 0.26270515 0.507285 0.13409403 -0.3498677 -0.25454313 0.2639976 -0.0008789219 -0.2900369 -0.76497716 0.103109926 -0.4250226 -0.07824452 0.14136842 -0.7913295 -0.46103984 -0.10769792 -0.35642657 -0.024602773 -0.100042135 -0.3047416 -0.19276357 0.27560747 0.39248028 -0.055693563 -0.5250144 0.645993 -0.5389138 -0.07573782 -0.32950372 0.11632873 -0.47409257 0.39251554 -0.0599231 -0.1171979 0.56600374 -0.39413404 0.2762745 0.14842027 0.30729955 0.0021265605 -0.066939324 0.91524446 -0.12670419 -0.25718382 -0.12242008 0.6474021 -0.07083583 0.030408956 0.1175205 -0.3980188 0.9080463 -0.0888646 -0.39827245 0.88685113 -0.29227448 0.24704917 -0.21642628 -0.1811538 -0.5192414 0.52791446 -0.69963056 -0.9664837 -0.42749572 0.47194883 0.2598556 0.07940626 0.47716114 0.11203351 -0.10882745 0.11015022 -0.00927182 -0.030507432 -0.58196646 -0.3161207 0.3225929 -0.21824506 0.32746014
使 0.46567047 -0.1762775 0.34694377 -0.3128141 0.7305168 -0.2473433 0.1310828 -0.7025292 0.22089039 -0.32845145 -0.26327923 0.95563114 -0.27431968 0.35179535 -0.1147534 -0.18112728 0.37698984 -0.2939174 0.36503854 -0.086442105 0.06430496 -1.0272533 0.018478487 -0.28246748 1.0706357 0.15760885 0.3550131 -0.01411767 -0.26893207 -0.017980648 -0.18345915 0.07068479 -0.01841248 0.07839709 -0.22992577 0.16313484 -0.26918298 0.057629656 -0.19101904 -0.1331109 -0.044199184 0.14512785 -0.1494408 0.41988087 0.25060433 0.21814892 -0.02859022 0.23396783 -0.10129279 -0.23546074 -0.20291549 -0.12110849 -0.15658405 -0.32343715 -0.09804168 -0.048243187 0.6447452 -0.01169393 -0.41021803 0.43528333 0.7741117 -0.029210078 0.364761 -0.10573024 0.1433752 -0.33544976 -0.08852947 0.50432694 0.62592375 0.007326919 -0.15017155 -0.32705638 -0.13391685 0.40436277 -0.2380878 0.20128001 0.71463937 0.048464935 -0.040733736 -0.036769055 0.5232641 0.040316228 -0.21721916 -0.18849847 0.5975412 -0.05131707 0.27390295 -0.41800195 -0.053352647 -0.4151663 0.010287097 0.18254687 -0.29635984 -0.012510491 -0.113828965 0.15678269 -0.4791478 0.17667402 0.20774476 -0.33034632
大 0.41661373 0.20785186 0.17148662 -0.27868727 1.0272772 0.19933727 0.025014658 -0.6082977 0.20815007 -0.44623438 -0.40880704 0.13566189 0.37703145 -0.2786233 -0.2523664 0.1491109 -0.2720458 -0.35905644 0.24823591 -0.8566901 0.17202817 -0.05788763 0.4752757 -0.07541656 0.5168084 0.5193113 0.063802145 0.5402296 -0.30287102 0.61038315 0.51607907 -0.12572819 -0.42220604 -0.29638854 -0.02382107 -0.33568242 0.19272047 0.4086894 -0.17896725 -0.18995205 -0.097220875 0.017527286 -0.38939378 0.19360031 0.0015509655 -0.35306492 0.010593876 -0.24661998 -0.09257598 -0.40419254 0.21180734 -0.016191123 0.47107428 0.52644384 0.44045562 -0.016968934 -0.26036456 -0.57591873 0.1359719 0.33865303 0.7291053 -0.020947224 0.4586886 0.29022956 0.26528493 0.008304948 0.31146282 -0.3610172 -0.3725162 0.15964903 -0.3967473 -0.36571681 -0.05625745 0.69400704 0.26616183 -0.26238862 0.4127203 -0.57684934 0.43467826 -0.23020223 -0.30611038 0.6747854 -0.353259 -0.013673508 -0.47321713 0.32851237 -0.78351843 0.51347095 -0.21880315 0.4474784 0.29932612 0.48683786 -0.40848687 -0.45918167 0.11705983 0.9601362 0.6061167 -0.34039932 -0.2905794 -0.46836266
下 0.096964635 -0.46389684 -0.51978236 -0.05549557 0.15347473 0.31193054 -0.33790618 -0.44149047 0.86526144 -0.5680863 -0.053319525 0.023571983 0.17349203 0.27122182 0.46588832 -0.92077035 0.8506149 0.34432408 0.58027357 -0.39934736 0.08348807 -0.0782289 0.20387717 -0.30289295 -0.3192177 0.43696928 -0.5151194 0.10706241 -0.6949099 0.15851586 0.70223266 0.56703967 0.53912973 -0.15761495 -0.094184496 -0.26147512 -0.111126706 -0.2202 -0.6099235 0.22498439 -0.34378248 -0.3329952 -0.50185966 0.11640944 -0.10638993 0.040720258 -0.033668034 0.10029284 -0.0222673 0.10692329 0.52263093 -0.3212655 -0.12851028 -0.03366458 0.08605872 -0.0060694055 0.14624232 0.5408215 -0.3383439 0.46686235 0.5149141 0.27782625 0.4521671 0.5451313 -0.04105794 0.500666 -0.15153368 0.4732252 -0.21854614 0.14647241 -0.3945075 -0.89788705 -0.001229415 0.6763427 -0.033482943 -0.23122337 0.08012631 -0.39499965 0.32184222 -0.8320849 0.8337135 -0.8438804 0.18805213 0.16592215 -0.31413808 -1.0263244 -0.15061067 0.19124067 -0.27174944 0.19344433 -0.35009873 -0.041546963 0.5546398 0.07119769 -0.2976352 0.9292063 -0.6800249 -0.5364187 0.4954623 0.07826775
贡 0.2402855 -0.3526123 0.28495002 -0.17339502 0.16243461 -0.062490147 -0.23398359 0.18344359 0.35303628 -0.50946444 0.4185567 -0.55249727 -0.1875266 -0.39079773 -0.37286198 -0.1699009 1.6564629 -0.37052387 0.58172405 -0.12195007 0.30660558 -1.0417669 -0.31430867 -0.363137 -0.005923933 0.543457 -0.7484299 -0.27817214 -0.15929079 0.32804888 0.22791117 0.12274514 -0.21846375 0.15664059 -0.24527076 0.02608088 -0.2646208 0.16922262 0.063393965 0.17124593 -0.47861174 -0.4048781 0.22402613 0.40504768 0.14117602 0.013875162 0.31949642 -0.14577833 -0.32159743 -0.10872346 0.20950393 0.22082992 0.087531276 0.04182684 0.18131135 0.27523473 0.29551306 0.38747725 0.39068702 0.1687555 0.33611667 0.20407113 -0.1612592 -1.4049839 0.19357279 0.23408888 -0.5826298 -0.19457713 0.1743259 0.37276134 -0.013663995 -0.7051713 -0.73017716 1.5064298 -0.61037815 0.0977456 0.5868397 0.007649267 -0.039133295 0.54067373 -0.10893076 -0.6229703 -0.17386882 -0.22041719 -0.67198074 0.09912814 0.2954722 0.45958284 -0.08944115 -0.3787804 0.48876214 0.7670319 0.47723415 0.11395978 0.3989566 0.48935196 0.21119374 -0.02648839 -0.21766287 -0.08167418
欲 -0.2832217 -0.6641601 0.3993886 0.41058436 0.07872964 0.5100941 0.2651331 0.23897323 0.2363036 -0.8518196 0.02119066 -0.28931224 -0.2158032 0.26983997 -0.16690454 -0.38372567 0.702607 -0.008007087 0.027112875 -0.031132901 0.41819307 -0.52206945 -0.63408 -0.42289874 -0.4164227 0.44220272 -0.116320774 0.19612063 -0.233498 0.009521075 -0.34506214 -0.09629387 -0.14667764 0.29988435 0.038789965 -0.41787425 -0.53555495 0.18245137 -0.023860248 0.021443142 0.18318897 0.122937664 0.12168394 -0.42073047 0.5432247 0.2845235 0.68912745 0.033513926 0.31230494 0.410094 0.26999226 0.16291177 0.04384617 -0.059299786 0.078480594 0.09928295 -0.1724991 -0.28449005 -0.7075971 -0.12032219 0.549268 -0.011629604 0.25406638 -0.7655159 -0.18675967 0.15914084 -0.13882193 0.26599383 0.055896547 -0.11321375 -0.4687412 -0.26441374 -0.20003061 0.37200925 -0.046410732 -0.32431602 0.508312 0.1966772 -0.23188412 -0.434645 -0.06014747 -0.086846754 0.6287926 0.07175611 -0.3963025 0.08037396 -0.27311867 -0.18233177 0.22548503 -0.07849442 0.41765338 0.54430014 0.0027771927 -0.060542744 0.68154925 -0.11519888 0.13323757 -0.75069755 -0.18324995 0.82992864
诸 -0.49073833 -0.054666985 -0.7785135 -0.25276187 0.09158883 -0.27716577 0.6300601 0.38320008 1.0596048 -0.076358505 0.32761455 -0.013683294 -0.56495917 -0.18348846 0.30540076 0.27243727 0.58068293 -0.28217784 -0.2444966 -0.088765524 -0.515891 -0.68257004 -0.1560682 0.17270944 0.16668323 -0.45412773 0.1287835 -0.14274672 0.07213117 0.230743 0.08116838 -0.015371945 -0.24200703 0.310539 0.023094261 -0.31816673 -0.10124758 0.5528712 -0.030623252 0.21678293 -0.08575453 0.21874318 0.24974786 -0.17381808 -0.41255474 0.16790369 -0.92304516 -0.20647395 -0.38644913 0.31584734 0.15699752 -0.47216952 0.2918398 0.66700983 0.35112816 -0.3424566 0.48033082 -0.15314716 -0.3161347 -0.5727759 0.64540756 -0.09350278 -0.5058589 -0.79167235 -0.73828 -0.080664605 0.99016064 0.35319087 -0.1705633 -0.79315615 -0.22812755 -0.323469 0.15596718 1.1450049 0.0032597021 0.37399656 0.6396661 -0.027912157 -0.2754672 -0.22261034 0.17419273 0.17645906 0.11710329 -0.17108196 0.7550074 0.010230323 -0.29412523 0.28800198 -0.029645342 0.43736187 0.71789277 0.23011011 -0.7338915 -0.50372005 0.4395828 0.04925239 -0.19102088 -0.9689877 -0.21747866 -0.57134485
从 0.21340379 -0.054924387 0.08958092 0.42839032 0.047701053 -0.19422334 0.5179164 -0.30570045 -0.28849754 -0.53749406 -0.08961243 0.21275902 0.21159555 -0.015423849 0.72990555 -0.07050057 0.2462613 -0.046365395 -0.35540876 -0.14230926 0.024399823 -0.33934054 0.27352256 -0.15525697 0.20182903 0.48859185 -0.6006029 0.1333358 -0.17929722 0.74892086 0.09229376 0.13835052 -0.26163167 0.6409809 0.031279467 -0.38865924 0.057849158 -0.07437673 0.38612965 0.15466292 0.05131667 0.61203665 -0.89264715 0.0421836 0.16687743 0.21127646 0.41803867 -0.0064524543 -0.7264986 -0.62741345 0.45777497 0.49544382 0.0707778 0.44652584 0.20036837 0.88729835 -0.47611663 -0.05915323 -0.5776346 -0.19488898 -0.4603781 -0.052626364 0.9636469 -0.98844475 0.25774828 0.12172219 -0.13016227 0.5567292 0.09469785 -0.37347323 -0.30786043 -0.6912069 -0.20957683 0.33730677 -0.14800578 -0.3457639 0.5404955 0.092957765 0.18487255 -0.481157 -1.1570036 0.026769418 -0.39902568 0.06774254 0.06791119 -0.40646994 -0.044068877 -0.41300392 0.20923537 -0.12675507 0.38507947 -0.50364816 0.394272 -0.030582031 -0.7234194 -0.10731184 0.26902872 -0.5175132 -0.034217134 0.14100812
文 0.048792396 0.8269138 -0.8498277 0.4173456 0.084785625 -0.19963592 -0.109089635 -0.7337195 0.18333791 -0.19406123 -0.20243621 0.4097116 -0.16792291 -0.40813905 -0.45858854 0.22326756 0.55714935 0.27215695 0.801182 -0.17937647 0.12603165 -0.525937 0.022031013 -0.25203502 0.3280416 0.1316651 0.5486872 -0.033887263 0.5828356 0.3335545 0.23890537 0.2999665 0.24143505 0.1766291 -0.0032225875 -0.061547372 -0.57461643 0.024434555 -0.08476591 0.15921381 -0.009384448 -0.52551866 0.07652123 -0.4947732 0.082851276 -0.1495075 0.3773797 -0.17789303 0.010526998 0.3589326 0.034267217 -0.3610989 -0.05464274 -0.69431406 0.39197102 -0.028811077 0.5616737 -0.1377996 0.10122315 -0.07591441 -0.4380666 0.24575922 -0.031668697 0.2608515 0.19617325 0.4889228 -0.54654956 0.2624886 -0.008579134 -0.29645538 -0.2998437 -0.2708697 -0.76623386 0.5616637 0.021386866 -0.6905855 -0.38136262 -0.15754713 0.16512491 -0.5959214 0.3164558 -0.40620708 -0.5582828 -0.05856429 0.5464427 -0.5358702 -0.19686311 0.6153478 0.3958926 -0.47260723 -0.09452531 -0.063100256 0.08594267 -0.0498769 -0.30903727 -0.18160564 -0.2471731 -0.3041264 -0.3793112 -0.25622463
政 -0.08770617 -0.20389856 -0.105342455 -0.03827986 -0.1675316 0.59333295 0.5874715 -0.67848825 0.56570566 -0.5931531 -0.45370767 0.571102 -0.22844763 0.037657797 -0.2948202 0.4158129 0.68824506 -0.0022323984 0.014366845 -0.32439584 -0.111486785 -0.6253359 0.015542683 -0.8156682 0.23175867 -0.2659719 -0.026194934 -0.14408188 -0.3824618 0.17380837 0.039336473 0.34564853 -0.67576253 0.37172878 -0.54679555 0.039159004 0.24130449 -0.06910469 -0.5780128 0.14206076 -0.31774727 0.3291608 -0.9475747 -0.037080284 -0.27909362 -0.0013721676 0.115611926 -0.81974804 -0.041629285 -0.12820342 0.10338906 0.34061554 -0.52017695 -0.2927748 -0.09695327 -0.3960437 0.64643 0.61549497 -0.16826542 0.5291588 -0.41992548 -0.3336015 0.34437168 -0.40120935 -0.40395528 0.15245225 0.31114542 0.10626871 -0.2481176 0.16009614 -0.59682864 -0.3281065 -0.51240766 0.17183225 0.17888157 -0.20660795 0.029738432 0.015270954 0.34597576 -0.15657088 0.26278254 -0.56994927 0.3361616 0.05393758 0.7316527 -0.85433733 0.07627054 0.51366776 -0.075299546 0.152218 -0.06715786 0.48449364 0.382992 0.2834735 0.45201036 0.62401074 0.5020452 -0.43302897 0.2716803 -0.010698077
食 -0.09692054 0.120154805 0.4194886 0.48622748 0.03488495 0.42788592 0.51595056 -0.5930126 -0.14388312 -0.21824504 0.23574904 -0.25095055 -0.014225045 0.31111765 -0.1904959 -0.025890728 0.27587602 0.6430817 -0.15552486 -0.350259 0.19686201 -0.5105461 -0.34413618 -0.20132568 0.3550239 0.10939223 0.07909886 0.5621485 -0.25980484 0.23708393 -0.10347809 -0.21400376 -0.59025836 0.39784458 0.72699475 0.31396306 0.6207792 0.32871515 0.36845922 -0.1933189 0.016048472 0.17437615 -0.15389712 0.11388591 0.17708664 0.25359258 0.012977048 -0.12397172 0.034761846 -0.44757438 -0.059081428 0.2966464 -0.44015947 -0.041017864 0.5025186 0.108496465 0.08057277 0.16471915 -0.034003258 0.036164705 -0.53002256 0.056812793 0.09696275 -0.41423124 0.64127326 0.25180504 0.5036285 0.08724876 -0.112943284 0.24246643 -0.4222805 -0.85183877 -0.51546055 0.37452406 -0.49503836 -0.3985155 0.32760146 -0.32614845 -0.26639038 -0.4543709 -0.1946077 0.9774336 -0.013933687 0.73808545 -0.20646673 0.20223689 1.095174 0.47263262 0.23048095 -0.21165028 0.2589087 0.5577846 0.41192803 0.3183841 0.06366984 -0.039505303 0.27175596 0.83131325 -0.21009468 -0.1311503
善 0.07324221 0.4580867 -0.1791711 0.3135204 -0.11403007 0.60161847 0.11554496 0.3619448 0.5125667 -0.8388098 -0.27116704 -0.16420761 -0.43499634 -0.43331116 0.05607254 0.050916802 0.03361742 0.07540091 -0.44509643 -0.9099937 0.0137111135 0.041164972 -0.7342079 -0.27019894 0.27356195 0.28900817 0.0010530668 0.074868225 0.19871958 -0.028522253 0.49021244 0.5804871 -0.26404482 -0.13720228 0.37654307 -0.47974724 -0.13990146 0.15552893 0.8453025 -0.48239255 -0.05509459 0.14745855 -1.0676588 -0.009695049 -0.3632973 0.20755269 0.35400638 0.3783392 0.1539655 0.047282603 -0.31109658 0.3620791 0.5052318 -0.31109798 0.09692201 0.32598102 0.09937179 -0.3322257 0.9295371 0.47760835 0.27017468 -0.12707764 0.5141056 -0.37536767 -0.22526763 0.20149231 0.2669623 -0.25746906 -0.47834137 0.48235568 0.37440893 -0.3671423 -0.44720808 0.07405586 -0.23409788 0.60397494 0.18386367 -0.54241836 -0.07016212 -0.14977975 0.060990952 -0.29905695 0.18697263 0.20211543 0.80991006 -0.017955478 -0.15721737 0.23234704 -0.26323283 -0.48475724 0.1413699 -0.5184288 0.12357621 0.042046204 0.32766506 -0.09757591 -0.11576268 0.580189 -0.15053003 -0.14599021
后 -1.0350261 0.17351514 -0.2631693 0.10466128 -0.014120021 -0.17764936 -0.40754077 0.07213697 0.13219552 -0.19214047 0.18426152 -0.07001206 0.6037517 0.08446489 0.3485959 0.15722099 -0.3689759 -0.25205797 0.3438357 -0.32818636 0.15802963 -0.089591786 -0.7033132 0.03681308 0.05325587 -0.0687249 0.42463806 0.35503662 0.049648993 0.18138063 0.048189823 0.08507308 -0.26504895 -0.13571055 -0.011809369 0.1808906 0.038289163 0.28448895 -0.4581919 -0.11141791 0.3742935 -0.5911332 -0.3887443 0.47429192 0.40750885 -0.14158829 -0.52206355 -0.19191825 -0.06502777 -1.1252397 -0.20816079 -0.5681106 0.22344112 -0.44682977 -0.08681813 0.117327675 -0.31501108 -0.14389227 -0.029281253 0.41459844 -0.4642009 -0.020653183 0.40011904 -0.054404184 -0.5308634 -0.7102577 -0.07970459 -0.3214599 -0.29777446 0.03554094 -0.15193412 -1.2202952 -0.12566176 0.72812754 0.27215448 0.330329 0.44840595 0.13623378 -0.1664916 -0.7478805 -0.06696486 -0.43602943 -0.06838379 0.1676271 -0.07466188 0.43524146 0.02951372 0.6509168 0.07543849 -0.19549474 -0.16671614 0.5187367 0.14086477 0.2699797 0.16883285 0.35265446 0.24777637 -0.6364253 -0.044096537 -0.120693356
德 -0.59078175 0.15666795 0.40847746 0.37746453 0.19434702 -0.44912183 -0.4327041 0.28700206 0.4762125 -0.07284017 -0.5982742 0.4414461 0.26428425 -0.4360883 -0.0042577786 0.043286335 0.412317 -0.103287965 0.14112158 -0.8632991 -0.22620098 -0.735136 0.20632863 -0.17549099 -0.18184955 -0.29628783 -1.2157613 0.37336305 0.27990502 0.39545298 0.12687759 0.5105471 -0.04498504 -0.56113404 -0.18211564 -0.5233487 -0.049597953 0.56600183 0.1120046 0.6274148 0.13434418 0.6144625 -0.03798186 -0.5628214 0.049432423 -0.5941262 -0.2540669 -0.12264473 0.2052829 -0.5084089 -0.34190145 -0.435253 -0.3980289 -0.21870562 -0.05894285 0.076726824 -0.13115947 -1.1725359 0.55394787 0.47112978 0.5904806 0.028256422 -0.51211125 -0.32883117 -0.394572 0.21224572 0.32769603 0.32841936 -0.8346787 -0.12396314 -0.41430682 -0.5378358 -0.7619867 0.08868656 0.3224956 -0.09767464 -0.1101263 -0.38652232 -0.36640367 -1.1475303 0.4331278 -0.13355823 -0.5395501 -0.20990862 0.16225253 -0.24724716 0.29594913 0.05620493 -0.0026022308 -0.40761477 0.43809906 0.40112177 -0.14273573 0.6713774 0.12596723 -0.27598885 -0.34658757 0.16181608 0.31436524 -0.5453148
求 -0.07973438 -0.05983543 0.22296558 -0.50483024 0.65029836 -0.33089846 0.655989 0.59249157 0.35139233 -0.69477 -0.38892645 -0.1861043 -0.2186256 0.68166035 -0.72082126 0.8552106 0.603272 0.11080287 -0.16319829 0.37722644 0.6366273 -0.015479605 -0.47143316 0.1168674 -0.30714673 -0.022819608 0.61705965 -0.1260659 0.049732525 0.20301974 0.3156391 0.8397383 -0.12858933 -0.08805829 -0.27352336 -0.25013775 0.28450358 -0.12253134 -0.18161395 0.17582896 -0.25388354 0.21571326 -0.3293311 0.16596204 0.2883615 0.122738734 0.19354957 0.7460096 0.1675217 -0.060744826 -0.2037759 -0.28363034 0.03958313 -0.46734262 0.76152414 -0.30481738 0.5271943 0.009378688 0.48655567 -0.34626174 -0.4342322 0.45015875 -0.314812 -0.16852656 0.43535173 0.51997817 0.060944896 0.23705176 0.5048602 -0.058190547 0.052750148 -0.4564323 -0.04048086 0.03809604 -0.33486316 -0.21467224 0.62352604 0.2602953 0.33925796 -0.79345345 0.7249977 -0.08062827 -0.27825084 -0.8828799 0.4847512 -0.7665978 0.09640984 0.38394243 0.37143096 0.21671991 0.37284192 0.7330123 0.29898015 0.47546718 0.34826565 0.39141053 -0.32028955 -0.29148522 -0.5222498 0.42355868
对 -0.21688505 -0.19346839 0.15867609 0.30230364 0.17012073 -0.3309403 -0.29445145 -0.2781432 0.78089076 -0.46396616 0.0076385536 -0.5416589 -0.87792856 0.40440774 -0.30203897 -0.7652607 1.2026732 0.33334604 0.09987063 0.53521824 0.43804088 -0.35820964 -0.43137166 -0.507543 -0.405234 0.3043083 -0.422498 0.42994356 0.41364387 0.23613186 0.05395595 -0.05841038 -0.1928917 0.23453625 0.50409234 -0.272127 -0.58517617 -0.48999757 0.37836134 0.2550028 0.036721937 0.6728978 0.5086404 -0.41950217 0.124832325 0.53831685 -0.41427845 0.08166875 0.20936099 -0.0195672 -0.017766297 0.39400887 0.6508828 0.65101665 0.047076017 0.123879045 -0.012542246 -0.18884122 -0.47566882 0.011739069 -0.35289803 0.37547114 -0.10242396 -0.8077489 -0.11303341 -0.2591488 -0.15049322 -0.20057276 0.14650722 -0.24569482 -0.38830367 -0.3602821 -0.37380406 1.2359169 -0.5689639 0.46208245 0.98054814 -0.3779707 -0.3627159 0.57214695 -0.39287457 0.043587364 -0.5958359 -0.46972203 0.2356109 -0.10066163 0.38272607 -0.43066517 -0.49024877 -0.33146638 -0.036066625 0.34356472 0.9113507 0.5897991 -0.07221139 -0.019896682 -0.013333984 -0.9250757 -0.1730912 -0.15740061
恶 0.16849062 -0.09999263 -0.071404986 -0.5258334 -0.26222447 -0.03454291 0.086318076 -0.04802422 0.6851645 -0.15969649 0.16226713 -0.22233762 -0.19602828 0.62542146 0.047061544 -0.13729037 0.54173434 0.035020236 0.36325133 0.3584312 0.056748826 0.09880642 -0.5439806 0.6713209 0.32950523 0.0354795 -0.514158 -0.060893543 0.22802213 -0.19615456 -0.0052642776 0.40525642 0.17523779 0.65221775 -0.27847904 0.06718631 0.6292969 0.45274267 0.3052499 0.32759625 -0.9169199 0.19358529 -0.31683293 -0.07774152 0.107644506 -0.27028945 0.402122 -0.11228949 0.6141092 0.32656902 -0.09299584 0.2149024 0.33524114 0.10565016 0.75965834 0.45818034 0.092851 -0.19175482 -0.04105793 0.49780604 -0.5449649 0.08275554 0.01867631 0.00045908667 0.31426442 -0.106989294 -0.104052715 -0.11059692 0.55451757 0.08596153 -1.0564802 -0.4980581 0.09700945 0.4488838 0.14680777 -0.011045329 0.31591547 -0.24873123 -0.19216135 -0.6029112 -0.409355 -0.202403 0.1437351 0.5186263 -0.08446726 0.007619342 0.21042548 0.2564128 -0.20593329 0.09867675 -0.26972705 -0.14391664 -0.56766105 0.15577406 -0.18778636 0.16335203 -0.2104145 -0.30857784 -0.041930415 -0.055973917
信 0.32680234 0.0911149 0.18560593 1.3120269 -0.4966384 -0.055469725 0.26995778 -0.08000919 0.13774186 -0.47415859 0.41133833 0.21355158 -0.41898766 -0.06521527 0.025804294 -0.04735606 0.6939416 -0.24119659 0.4316228 0.19175155 -0.07632976 0.095001936 -0.59829754 0.06052218 -0.46436352 0.042219438 0.16332115 -0.14323184 -0.3360029 -0.20386465 -0.028582305 0.25461534 -0.11344445 0.4161526 -0.31946462 -0.29340306 -0.2358356 -0.03351204 0.20458063 0.18300562 -0.44411275 0.36296928 0.05983319 -0.40323538 -0.59180146 -0.1796652 0.1148943 -0.3055579 -0.09492109 -0.036323793 -0.054154016 -0.15537868 -0.32417622 0.18502216 0.17431767 -0.32797143 0.23123312 -0.40015122 0.012313415 0.33597454 -0.59320456 -0.5397634 0.092789635 -0.06971905 -0.010961105 -0.15411295 -0.20417322 0.25974274 0.20299262 0.20717734 0.34028164 -0.48784247 -0.4186622 0.14730099 -0.32240543 -0.02832392 0.2761054 0.26214188 -0.15151258 -1.1182559 0.039290443 0.122440614 0.12082502 -0.10866665 0.38756976 -0.32375422 0.04881956 -0.25065455 0.17780441 -0.44171432 -0.2215513 0.07349949 -0.24031459 -0.4655411 -0.59269303 0.1762064 0.3387771 0.40921205 0.22206843 -0.45728686
死 -0.001799514 -0.16112259 0.019901257 -0.42577815 -0.16237521 -0.013945285 0.69805646 -0.1803087 0.7637494 -0.02085441 -0.4775315 0.58397144 0.55100447 -0.19632669 0.18784633 -0.43318954 0.21466899 -0.162704 -0.5767872 0.28991854 0.1515616 -0.20827936 -0.5788474 -0.09392854 -0.024149613 -0.36726636 -0.075820476 -0.41015068 0.1433858 0.08610455 -0.20816228 -0.16413236 -0.18640378 -0.62307256 -0.5609068 0.30370572 -0.18885139 0.049778078 -0.15564856 -0.6791835 -0.0023252268 0.3210074 -0.5435478 -0.05439065 0.1335465 -0.36484498 -0.18059023 0.48085096 0.07019502 -0.28310195 -0.48146012 -0.23964141 0.18669973 -0.019394979 -0.34064162 -0.0018493701 0.41195124 0.10537994 -0.13841043 -0.107460156 -0.3630258 -0.74623996 0.41038188 -0.118636236 -0.33925483 -0.4287551 -0.058988206 -0.20735778 0.81964934 0.19243719 0.13865407 -0.9166526 -0.47917444 0.40343228 -0.6136728 0.04813723 0.37257427 -0.21500927 -0.6109416 -0.4137663 0.069657825 0.0782395 0.13640614 0.15597458 -0.16864562 -0.57021314 -0.5067255 0.45969975 0.53221375 -0.24473542 0.36271936 -0.5769484 0.1203353 -0.15894076 -0.49385387 0.33947688 0.12018455 -0.10095091 0.15953325 -0.18978757
然 -0.77558374 0.1831763 -0.10249461 0.16533263 -0.2976196 0.021621484 0.27869016 -0.0440867 0.41958418 -0.5904766 -0.3086362 0.31782478 -0.54572093 0.4270905 0.117141664 -0.5267387 0.28741536 -0.35598192 0.53638536 0.01600794 0.1796483 -0.42780742 0.31542623 -0.08274771 0.39040697 0.3865176 0.5043827 0.39325467 0.13094313 0.4045946 -0.4778183 -0.4572567 0.048702855 -0.2330401 -0.34753564 -0.78989035 -0.16224456 0.13792048 -0.790019 0.111675225 -0.22513007 -0.3432539 -0.32696638 0.18136284 0.21993804 0.0095294835 0.3515882 -0.37604895 0.029258618 -0.3416907 -0.11552923 -0.057041313 0.34055564 0.5287715 0.57655203 -0.17897592 0.8754688 0.18471205 0.29386002 -0.15972345 -0.5502273 -0.27899775 -0.106410734 -0.28254628 -0.3039651 -0.7512112 -0.17614383 -1.1103593 0.681327 0.26387385 -0.53475416 -0.40707332 -0.53136545 0.4053942 0.29496843 0.8528878 -0.0073948908 0.087287165 -0.5439686 -0.20643033 -0.6906554 0.30027986 -0.11652893 0.18811518 -0.30864093 -0.21454138 0.35741466 -0.24626899 0.31049928 0.4442358 0.26727012 0.44991276 0.029102411 0.14239256 0.3625149 -0.4652216 0.31788576 -0.15926734 -0.0038285402 -0.043223117
《 -0.10636529 0.6105469 -0.43038926 0.17664456 0.18438959 0.26107493 0.17629147 -0.14495377 -0.3686769 -0.0027848536 -0.5883462 -0.010512165 -0.2318865 -0.12487484 0.27688688 -0.07402965 0.9944057 0.026192773 0.047432594 -0.9315158 0.5288397 -0.31112447 0.16195826 -0.19268918 0.23591968 -0.4549151 0.51623297 -0.4557217 -0.16019583 0.83247286 0.32759467 0.86726564 0.118484214 0.5510305 -0.46775427 -0.34360886 -0.24757083 0.3826968 -0.0134502305 -0.4390545 0.1345699 -0.22863641 0.19990255 0.084117785 -0.400174 -0.69565046 0.07294847 -0.061867528 -0.6602452 0.10308417 -0.1006221 -0.83523756 0.22370881 0.034290385 0.22521242 0.7208033 0.15936688 -0.22736655 0.2679301 0.1594783 -0.28148225 -0.101555154 0.63379496 0.04109043 0.07475926 -0.35408482 -0.16662148 -0.43672124 -0.07022309 0.009726491 -0.28711024 -0.35096487 -0.6296486 0.69600433 -0.29049605 0.32281312 1.4700228 -1.0077374 0.71727836 -0.20998564 0.7075941 -0.2487051 0.011331243 0.061246276 0.021873903 0.06857296 0.031838767 0.2617841 0.037884627 0.18161911 0.4958581 -0.25050494 -0.12644823 -0.9736732 0.7143906 0.15382448 0.59995145 -0.26066288 0.19946265 0.24441655
》 -0.45460832 0.42761436 0.29603595 0.45550022 0.7192242 -0.1533305 -0.09579632 0.27763176 0.1196029 0.06558124 -0.14963314 0.039792847 -1.0493163 0.16042389 -0.2908015 -0.41244546 0.5773506 -0.22988091 -0.08598999 -0.55866516 1.1777829 -0.24064049 -0.23120558 0.36543667 0.12059388 0.037162926 0.12986907 -0.41205862 -0.24158485 0.13238567 -0.17573968 0.3173342 -0.012578967 0.12432235 -0.21648672 -0.3582114 -0.08361883 -0.37564725 0.09723362 -0.2789451 0.21581788 0.037212424 -0.41196063 -0.108735286 -0.10116712 -0.015478912 -0.21686228 -0.27254024 -0.29165795 -0.28870288 0.12379683 -0.7048971 -0.6387241 -0.1521761 -0.01215358 0.32323143 0.6049937 -0.5756773 0.33898112 -0.4354876 -0.37064993 -0.5396922 0.082634434 0.081562616 -0.23482665 -0.12317612 -0.0011577298 -0.66637427 0.19529213 0.08736018 -0.18996851 -0.7101427 -0.041642506 0.70069 -0.2532215 -0.05276716 0.5748713 -0.0123540405 -0.0909387 0.032966908 0.8183575 -0.29292 -0.1135688 0.17026551 -0.026364172 0.6881132 0.36716565 0.0014218761 -0.57659847 0.4446195 -0.41661334 0.52581924 -0.17322296 -0.35811037 0.061651576 0.508473 0.25174806 -0.08235337 -0.5068119 -0.0054804776
