1352 50
， 0.041010596 0.11083145 0.015773388 -0.017938891 -0.017394513 -0.1344505 -0.0057972916 -0.027500447 0.0688595 -0.13766406 -0.0615022 -0.14062104 -0.014778582 -0.08978433 -0.16246442 0.04480709 -0.008049036 -0.089107454 0.060273945 0.022246081 -0.01308075 -0.06280836 0.10713912 -0.10058691 0.5734315 0.07271081 0.16603582 -0.07757798 -0.051449496 -0.09002544 -0.36492416 -0.04217584 0.0040601045 -0.09144749 -0.056463934 0.051018134 0.21175893 0.040138636 0.12044589 -0.01842093 -0.09681071 0.0672904 -0.026691271 0.27833092 0.027419586 0.02686064 -0.10263867 0.020976892 0.042237166 -0.13050853
子 -0.0059279543 0.078333706 0.058984574 -0.017390987 -0.08109651 -0.03578895 0.04750379 0.0373569 0.015377168 0.08385493 -0.10823248 -0.031881478 0.030695967 -0.122209564 -0.19306861 0.09520091 0.07509226 0.1073651 0.064451404 -0.07944536 -0.0527587 0.00011284777 0.01075801 -0.02364637 -0.25869548 0.30800948 0.20974854 -0.06283599 -0.068909585 -0.07386882 0.13651802 -0.045686178 -0.041256286 -0.07392872 -0.04717244 -0.0035018644 -0.02995744 0.08233949 0.111316 -0.06613436 0.012758539 0.14614736 -0.042957842 0.36760348 0.042611323 -0.00422763 -0.011381717 -0.0059085204 -0.07797794 -0.18142445
。 -0.026564253 0.036394056 -0.021167967 0.054365378 0.02513173 0.050677843 0.058273654 0.04261433 0.00017718438 -0.00028380216 -0.07277749 0.09121009 0.08325998 -0.0695651 -0.1000672 -0.07354249 0.04694035 0.06951716 0.032614037 -0.090001166 -0.03487847 -0.015835078 0.056930203 -0.07921266 -0.14625333 0.08025643 0.15637897 -0.10583192 0.027891722 -0.05799949 -0.10349272 0.009897475 -0.052793067 0.02763045 0.028680269 -0.054799218 -0.017386338 0.04033369 -0.046221416 -0.03619721 0.016931541 -0.033181828 0.020688757 0.49642128 -0.0070723784 0.07431947 0.026147073 -0.052375503 -0.14707808 0.0064296164
： 0.034804437 0.1570515 -0.107607916 -0.032268494 0.0386957 0.0027016066 -0.002310928 -0.11941217 -0.07108402 -0.04632544 -0.10889615 -0.034811843 0.027856242 -0.051340602 -0.015552447 0.011022176 0.06790709 -0.014729596 0.014290309 -0.07266316 0.06600724 -0.11484463 0.042156123 -0.08267104 -0.23082724 0.28950173 0.16555664 -0.018488294 0.054021474 0.011425353 0.025932482 -0.040228575 -0.02350267 0.07928377 0.022729041 0.074304774 0.020053023 0.062199917 0.051697556 0.031498857 -0.16445424 0.01009792 0.074649826 0.39887106 -0.042664874 0.052663166 -0.01853434 0.008306099 -0.062031206 -0.060598314
曰 0.017114578 0.119557604 -0.1360691 -0.036161996 0.009511828 0.0243304 0.022495229 -0.11991992 -0.049410075 -0.055059616 -0.09771411 0.0013897564 0.03474555 -0.07238673 -0.037601314 0.023064768 0.058999117 0.0011952837 -0.017739734 -0.07455141 0.05762981 -0.076832645 0.029647658 -0.08303231 -0.26656273 0.25869048 0.15437384 -0.024327438 0.03541504 0.025663113 0.067856416 -0.05411831 -0.03670939 0.08150393 0.003034116 0.054152366 0.021183552 0.07922673 0.069367446 -0.015224519 -0.1548029 0.018144421 0.05743345 0.41642582 -0.042070776 0.07308726 -0.0063628233 0.018738791 -0.07069477 -0.059584256
之 0.16880623 0.042628188 -0.0061046057 -0.19930167 0.1580053 0.059126224 -0.026345208 0.23437192 -0.05633079 -0.0019956348 -0.15999778 0.04215477 0.26042575 -0.025939798 0.08752857 0.049407918 -0.26311165 -0.06541205 0.060365457 -0.1255639 -0.13427949 0.23807085 -0.2152709 0.0474265 0.021697724 -0.005157659 -0.09724223 -0.050691746 -0.08443786 -0.096849374 0.050932817 -0.12507087 -0.019456562 0.07200833 0.13431369 -0.08798649 0.2512554 0.12353965 0.018116359 -0.056907184 -0.098547496 0.17577259 -0.061044082 0.44535342 0.03916232 0.16089098 -0.05196376 -0.0056448323 0.09177503 -0.0059989598
不 -0.038179647 0.15440571 0.14221844 0.023639297 -0.06415858 -0.04518198 -0.10437575 -0.25393617 -0.013399322 -0.06284901 0.007561005 0.012877903 0.13299513 -0.09117639 -0.30708614 -0.13714704 0.019058572 -0.12192116 -0.087389536 -0.025273144 -0.1066703 -0.05418002 -0.09373374 0.063411586 0.10383475 -0.33325368 0.06328563 0.011363793 0.07932491 0.0024945913 0.20857427 -0.05673377 -0.22036834 -0.18327756 0.04336558 0.12313441 -0.25181904 -0.118566245 0.018466856 0.23437756 0.04333025 0.13689473 0.0018759455 0.5393074 -0.13893665 0.106978014 -0.14993289 -0.08904507 0.023899447 0.038735736
也 -0.054773986 -0.011772345 -0.061523616 0.26167327 0.016440539 -0.16435343 0.05896851 0.096270844 -0.053069696 -0.13287923 -0.026871972 0.042633444 0.0985745 0.06989358 0.16275848 -0.16030885 0.0380651 -0.21543156 -0.049180448 -0.16254638 -0.11256659 0.11856145 0.024582325 0.0492352 0.021944057 0.10488116 -0.0019533345 -0.0005129158 -0.02229928 0.005871131 0.036530055 -0.074732065 0.11188993 -0.056361172 0.02611973 -0.06740318 -0.06787981 -0.011127256 0.20531076 -0.12955736 -0.050860845 0.037759528 0.11122563 0.4196593 -0.041106634 0.054043673 0.027062504 0.035189863 -0.15112142 -0.10769165
而 -0.20153564 -0.019086504 -0.24275672 -0.13321522 -0.13301188 0.19794753 -0.2217537 -0.027796214 0.058598153 -0.057289407 0.21992312 0.1314607 -0.18686573 -0.058469284 0.0250276 0.033067156 -0.029336475 0.28120837 -0.114763655 -0.017743034 -0.07330286 -0.027547142 -0.05204659 0.034458634 -0.006573576 -0.082288906 -0.13062398 0.049821157 -0.0658597 0.17596921 -0.038076468 0.00050386495 -0.1858282 -0.11474507 0.021632954 0.10554784 -0.033101406 -0.013025351 0.03532121 -0.0062174574 0.07699417 0.10025061 -0.100487724 0.4996326 0.13968992 0.014161587 0.09039844 0.17245902 0.050004162 -0.06584817
？ 0.11267675 0.05622608 -0.259105 -0.07577115 -0.020734698 -0.12002307 0.055430517 -0.19453862 -0.06524738 -0.15569922 0.12609659 -0.22220646 0.12625213 -0.034181826 0.14887704 0.14285475 0.07945263 -0.10382709 -0.010380238 0.10367183 0.3435398 -0.04643663 0.0405603 -0.005654032 -0.15175213 0.18323843 -0.048405092 -0.015367275 -0.020004956 0.05180296 0.25417325 -0.029341813 -0.029323867 -0.023040535 -0.087165385 0.13947904 0.053980634 -0.0016610931 0.43777177 -0.0036516732 -0.10595253 0.25079396 0.07687223 0.3826242 -0.057753157 -0.04344772 -0.02284701 0.14089617 0.18591227 -0.15862691
其 0.14718565 -0.15379144 -0.09995079 0.13572453 -0.10240608 0.10424376 0.311294 0.021745473 -0.21505408 0.0077245096 -0.03956483 0.12054338 -0.16138515 0.07667616 0.008894976 0.05830217 -0.008194337 -0.26987162 -0.12883323 -0.081304885 0.010570224 0.12063549 0.027253535 -0.00022281108 0.09624363 -0.12040118 -0.033211406 0.070750944 0.09145278 0.12769718 0.13933866 -0.044394936 0.19045217 -0.08118812 -0.009529363 0.12988053 0.14712739 -0.13795926 0.10393033 -0.083128355 0.13420072 0.1302825 -0.035521537 0.48897573 -0.12140868 -0.029100958 0.018305838 0.0450096 -0.15620148 -0.17569122
人 -0.20217234 0.0016691266 0.0021274283 0.042107232 0.030284666 0.20777415 0.06361807 0.0032944423 0.22363736 -0.16138157 0.09124799 -0.119898185 -0.10058046 -0.19585954 0.24746966 0.09457347 0.003532413 -0.04333566 -0.044085935 -0.14683266 -0.18447548 0.010805108 0.054458816 0.09924688 -0.00010911575 0.05045336 -0.021862116 -0.059481427 -0.034642644 -0.0126907965 0.1331511 -0.10484603 -0.06473033 -0.10396418 0.007903913 -0.17537779 0.123323835 0.3227924 -0.11744353 0.204127 0.18434952 -0.24128516 -0.029018415 0.47924498 -0.11235035 -0.23532484 -0.00998777 0.19379386 0.04088484 0.044736966
者 -0.2103097 0.009809396 -0.0954716 0.020486178 0.26771653 0.011270883 0.17910427 -0.04563953 0.15802245 0.15992296 0.17577352 -0.022767162 -0.12470182 0.04876457 0.029505264 0.19075216 0.023667566 -0.22493309 -0.075919874 -0.1735897 0.17696661 0.27247906 -0.06951082 -0.15397015 0.10844044 -0.0017068072 -0.026804846 -0.07139428 -0.014393146 -0.16221896 0.028337305 -0.19620211 0.093880326 0.1324406 -0.072545946 0.09592222 -0.18790242 -0.28252327 -0.049999293 0.08904364 -0.07462586 0.17325842 0.10551935 0.49583164 0.14533293 -0.070095114 0.07574398 0.21144445 -0.06521292 0.3535945
以 -0.04064846 -0.06408277 0.2944457 -0.31154922 -0.24721311 -0.11320899 0.28374934 0.13845225 0.09893224 0.008648686 0.15271704 -0.22934863 0.08085455 -0.12226246 0.02932875 -0.014145813 0.0024852175 -0.21924019 0.19623505 0.061385594 0.21670988 -0.076097004 0.08940136 0.06409041 0.042932786 0.09018667 -0.047677174 0.10688863 0.026186641 0.07050529 0.007723316 0.06951165 0.015464764 0.12002398 0.11769189 -0.018563304 -0.13311577 0.021497866 -0.2121645 -0.28117064 -0.09648277 -0.035067324 0.14651898 0.50898224 -0.32811645 0.23473935 0.012649973 -0.0963806 0.011951985 0.0003895014
有 -0.17380917 -0.084566794 -0.032687966 -0.016829137 0.43377563 0.052230805 -0.16547853 0.12191251 0.017602952 0.048076637 -0.10196021 -0.2817372 -0.030379059 0.11722627 -0.15456684 0.029789038 0.12033244 0.12679116 -0.04673807 -0.059442483 0.16509642 -0.15404262 0.35968757 -0.1389115 -0.028695472 0.13967139 -0.23904347 0.07158596 -0.03846086 -0.071847126 -0.009063797 0.071172215 -0.032563 0.03889608 -0.034324005 -0.079108335 0.011841881 -0.04978896 -0.13132513 0.05336504 -0.2543453 -0.011606815 0.21048622 0.4624836 -0.07153628 -0.17625526 -0.104457825 0.13407086 0.13105509 0.14985701
于 -0.026138868 -0.09556041 0.026811512 0.1575305 0.08452333 0.18370572 0.098591 0.15825497 -0.09280151 0.12403114 0.1597562 -0.054820936 -0.06613369 -0.11780581 -0.09045322 0.14034888 0.075665854 -0.011753101 -0.008819405 0.21442571 0.014355351 0.016545696 0.06312813 -0.11990461 -0.1163022 0.22992603 -0.18160787 -0.21605721 0.12407509 0.06466847 -0.19574836 0.2710515 0.23173039 -0.15614314 0.057812355 -0.19745313 0.070756674 -0.032068502 0.22844101 0.13775629 0.08482705 -0.04771824 0.15592274 0.4990579 -0.03788935 0.070035286 0.021607384 0.043274593 0.19772546 -0.07701686
矣 0.25445405 0.20303753 -0.23625556 0.11191595 -0.15830429 0.025253607 -0.08719204 -0.26978317 -0.2464642 0.08710365 -0.16264863 0.09748373 0.11750367 0.09634207 -0.10069577 -0.05484575 0.08833985 0.1077951 0.21629456 -0.016475553 0.23794201 0.028357675 0.09210328 -0.243723 -0.06832923 0.21001211 -0.12868859 0.038803756 0.37735367 -0.14287841 -0.0653534 -0.01904214 0.25220007 -0.15806498 0.040145412 0.17368355 -0.040432658 0.1379856 -0.082711756 -0.16430767 0.029264428 -0.006787827 -0.2183878 0.47792196 -0.103213154 0.13565424 0.11484786 0.048886612 -0.042859107 0.32424688
为 -0.15921357 0.1903756 -0.11369791 -0.22428031 -0.100279644 -0.13468023 0.0037488074 0.14015427 0.20707425 -0.009980593 0.17390998 -0.28067806 -0.07878973 0.15744211 0.16820613 0.1122831 -0.11223666 -0.013905209 -0.4050709 0.2240224 0.03285127 0.058344398 -0.009212685 0.018419303 -0.094150126 0.25559935 -0.20765251 -0.09667129 0.18138313 -0.17526945 0.08628812 0.062234454 -0.07702554 -0.18524241 0.118567295 0.08829855 -0.061492402 -0.01591008 -0.084310755 -0.16177769 -0.10807217 -0.13220245 -0.11025671 0.40361083 -0.14186914 0.25545895 -0.2589118 -0.23863542 0.07287241 -0.029723896
君 0.15162174 -0.13252936 0.19797415 -0.00048520006 -0.048062686 0.0032044712 0.046909805 0.12677746 0.3297801 0.10907474 -0.103338115 -0.19541565 -0.10849625 0.06935981 -0.041759755 0.0057747755 0.21314177 0.2340333 0.022101877 -0.16192539 -0.13485563 -0.17281938 -0.035121046 -0.19944003 -0.09810398 0.09274676 0.10060355 0.13671272 0.039930835 -0.17074339 0.32333347 -0.0008816115 0.08502206 -0.09701648 0.34283084 0.0408236 0.11249854 0.2171144 -0.09449236 0.06455942 0.039045718 0.108841084 -0.0010844999 0.42588302 0.015436985 -0.1041871 -0.17476428 0.058960866 -0.141702 -0.25088212
乎 0.041717816 -0.14244539 -0.14280424 0.015314058 -0.14031462 -0.099108696 -0.17984115 -0.05331682 -0.019563867 -0.052140906 0.19776899 -0.15318623 -0.029100956 -0.014413844 0.010658028 0.35514936 -0.16016781 -0.09765823 -0.04441272 0.22945584 0.35124525 -0.20718 -0.17133193 -0.15204798 -0.15762277 0.16613896 -0.10059211 0.19019654 -0.07318975 0.09921591 0.20328818 -0.026002109 -0.034706067 -0.18260711 -0.016200176 -0.03913782 0.096288666 -0.16770625 0.09339633 0.121531785 -0.07003588 -0.032644458 -0.14968924 0.4328135 0.00073046354 -0.08628184 0.045246016 0.06659101 0.09620946 0.10559777
可 0.015049263 -0.011135896 -0.11891816 0.07494231 -0.15631597 -0.17721981 -0.059422478 -0.07436746 -0.10519898 -0.2046429 0.056768928 0.0877006 0.15410674 -0.0148805585 0.08685807 -0.22980197 0.11114913 -0.18527588 0.13077748 -0.05378962 0.3006034 0.11556594 -0.15818995 0.24646983 0.10044626 0.20947146 -0.2034635 0.2324553 0.037751492 -0.12613165 -0.03168431 -0.1477152 -0.018032594 0.060550023 0.27382928 -0.12563083 -0.2509364 0.1424117 -0.12620424 0.07659342 0.3352404 0.0047120973 -0.0064826556 0.47063366 -0.17427137 0.23320939 -0.03892438 0.100811705 -0.035710517 -0.19007279
如 -0.16809547 -0.0039144345 -0.451668 0.1586328 0.07462813 0.1468652 0.0016624808 0.12641141 0.03870576 -0.26462853 -0.20800953 -0.11577382 0.1808823 0.16457699 0.00990751 -0.33758157 0.23293176 -0.2902707 0.26788592 0.30291077 0.10929728 0.06824313 -0.021816203 0.017164778 0.1311551 -0.0355544 0.21229869 0.1141154 -0.045994487 -0.33196726 0.24330142 -0.05437338 -0.13863848 -0.00031933247 -0.3294538 -0.16135713 0.21076316 -0.22481237 0.057217788 -0.19778667 -0.30919874 0.19332993 0.12602569 0.46328965 0.103970274 -0.007178759 -0.058981873 -0.089057095 -0.14627898 -0.030296769
与 0.119318776 0.097082436 -0.059365343 0.065559 0.0066072443 -0.04009942 -0.10069873 0.15759026 -0.077855214 -0.034823358 0.29812753 -0.06740129 0.33661082 0.1294427 0.28449377 -0.19323044 0.18936935 -0.18756133 -0.19719104 -0.10365315 -0.01964019 0.117668964 -0.20759507 -0.091190666 0.08032872 0.11631764 -0.18239841 -0.030605756 -0.0315389 -0.02319672 0.1771018 -0.058639888 0.2167266 0.3792541 -0.09842911 0.15980744 0.051790062 -0.06822896 0.028286982 0.2851804 0.2038744 -0.08700963 -0.12894289 0.41778594 0.35152963 -0.27242345 -0.06298179 0.1302419 0.021854142 -0.29189152
； 0.111377165 -0.080412455 -0.033717237 0.103075236 0.14861149 -0.12803024 -0.13166869 -0.041681312 -0.11844909 0.22874187 0.033433773 0.003167782 -0.020070245 0.1082709 0.06524612 -0.061089493 0.083181106 -0.06137625 0.084991656 -0.16534704 0.20579389 0.106251225 -0.0062997164 0.17755115 0.24147087 -0.47165123 -0.22850893 0.11170129 0.009961587 -0.2646544 0.004544195 -0.017557992 0.24483913 -0.29193023 0.21680397 0.029859444 0.11777209 0.2513004 0.077105604 -0.22511743 -0.029108258 0.042651337 0.02832516 0.71355885 -0.0047992077 -0.12955587 -0.12530623 0.092253335 -0.09390413 -0.25985488
言 0.10172374 -0.3038659 -0.11801555 -0.19345836 0.09390835 0.0034764889 -0.13827634 -0.07554866 -0.17904337 0.08552514 -0.027842134 0.03754752 0.40071484 -0.22803839 -0.018255703 0.07319625 0.2476455 -0.115324944 -0.12750128 -0.30003512 0.052653696 -0.17638786 -0.13507015 -0.41288596 0.20911859 0.012755862 -0.24717635 0.11036021 -0.03751681 0.15408307 0.19567417 -0.12391234 0.11738862 -0.065088145 -0.044002097 0.111977555 -0.16853322 0.02879143 -0.1715264 -0.12680246 0.13604383 -0.26697314 0.034885965 0.44207034 0.0011545059 -0.13088912 0.29070893 -0.34431076 0.121793985 -0.18465683
无 -0.16900621 0.004067886 0.1342219 -0.04575721 0.021078443 -0.032269724 -0.14297035 0.08865659 -0.17793387 -0.029194286 -0.091907136 -0.29937795 0.14265057 -0.122728616 -0.03727431 0.1437351 0.14217143 0.46052226 -0.082591444 -0.041149203 0.3006185 0.3686211 0.19686538 -0.1800636 0.12030039 -0.022481235 -0.021955624 0.073047854 0.0920505 0.15440126 0.03853857 0.10943812 0.045474503 -0.112020455 0.047692254 0.15886103 0.12121874 0.01974002 -0.23176746 -0.10070005 0.10591269 0.01868547 0.30219907 0.50027007 -0.12527353 0.17799504 -0.30770782 0.16068856 -0.193452 -0.3143921
则 0.05250889 -0.123616464 -0.012954018 0.28195003 -0.02777768 -0.15718809 -0.11128038 -0.03568226 0.121843874 -0.043070756 0.22849983 -0.036759213 0.06498752 0.013135118 -0.14442375 -0.09134404 -0.25803888 0.26927555 0.26897097 0.17870818 0.12972699 0.33517513 0.16552721 0.008536483 0.09650993 -0.08072507 -0.13827612 0.115729116 -0.13225673 0.059414346 0.020159775 0.23875917 -0.041141767 -0.07732721 -0.011045606 -0.054050703 -0.2862233 0.058998153 -0.028248921 -0.05473365 -0.19028908 -0.46075988 -0.05763193 0.54167217 0.13178988 -0.1313173 0.0010345957 -0.2642232 0.043164976 -0.3569767
！ 0.14272754 -0.018983992 0.04210541 0.17538533 -0.13808757 -0.083236635 -0.24065332 0.11480715 -0.13117018 0.095277175 -0.12411367 -0.21904786 -0.13811386 0.026463877 -0.040301528 0.08634959 -0.08307474 -0.4162026 -0.15773569 -0.08674317 0.035878453 0.21529631 0.052944437 -0.23505214 -0.16117434 0.2948957 -0.035905916 0.1664015 0.10296926 -0.20075348 0.22703487 -0.032723393 -0.012108709 -0.12378903 -0.17229138 -0.114022896 0.17185806 -0.098112784 -0.14176081 0.05088021 -0.3059328 -0.14419086 -0.20494267 0.42743382 0.17067607 -0.24921295 -0.060822 0.026852624 -0.00043141015 0.029056702
问 0.28180563 0.32696354 -0.13377105 -0.023861948 -0.111560985 0.03561289 0.033709787 -0.1975867 -0.033576656 0.06861682 -0.005643882 -0.00084078615 -0.05407257 0.079329014 -0.13801686 0.10073714 0.1457964 0.19705547 0.023360165 0.07729481 -0.105843894 0.12983201 -0.039188214 -0.05346593 -0.22960836 0.47380754 -0.08545788 -0.22130679 -0.24836062 -0.1444497 -0.05233812 0.0021482771 0.40834403 0.2588293 -0.13659534 -0.10997981 0.22914337 -0.02124492 -0.17418088 0.14320542 0.06182331 0.03251302 -0.048749156 0.42691773 -0.32595512 -0.1468353 0.14670275 -0.3277282 -0.052120004 -0.07174895
知 -0.022262191 0.27452776 -0.22873913 0.07607688 -0.07835515 -0.314441 0.20013224 0.023697516 -0.06278059 -0.21791568 0.058810268 -0.026870722 -0.06418412 -0.12591977 -0.15680127 -0.06209663 0.10967455 -0.0234388 -0.15765283 -0.24231522 0.14875983 0.39625123 -0.42640308 0.06975754 0.13428542 0.0993386 0.10803403 0.2698301 0.1360511 0.15206829 0.20958406 -0.01019725 0.14192325 0.07471369 0.24928641 -0.14226286 -0.0052359654 -0.07645729 -0.07433093 0.06337116 -0.15536961 -0.11592692 0.43075976 0.44673344 -0.13453938 0.025155766 -0.1841217 -0.17066589 0.21978591 0.23951352
何 -0.114092186 0.06189684 -0.29865304 -0.080015704 0.14579791 0.076745704 0.12543695 -0.12831695 -0.04000878 -0.265824 -0.15198855 -0.17951201 0.08263018 -0.13528469 0.29710904 0.044243615 -0.063225694 -0.2346716 0.17050244 0.16765083 0.038087487 0.010233131 0.08606438 -0.13441545 -0.063319854 0.25970486 -0.068073094 0.02413413 -0.076496035 -0.050649237 0.22131497 -0.079642445 -0.020299299 -0.092985995 -0.093521856 -0.25224835 -0.027139269 -0.1250159 0.355145 -0.034707308 0.034396395 0.39036787 0.07196815 0.3517666 -0.06511555 -0.029786387 0.04406513 -0.19187734 0.2700704 -0.1165868
吾 -0.103183575 -0.27509728 0.051088482 0.039711777 -0.31414738 0.119107574 -0.0579162 0.031418823 0.013703129 -0.101346396 -0.02772606 -0.07376649 0.19283424 0.2493279 0.037964206 -0.06140425 -0.14372152 -0.15125272 0.08066608 0.2093856 0.0809885 0.12671882 0.11440326 -0.087473534 0.037217196 0.10072231 0.10884612 0.06608086 0.027174896 0.17515013 0.09428553 0.06109506 0.07286982 0.089579776 -0.05917756 0.019089205 -0.24545988 -0.19239677 0.20651914 -0.025778731 -0.05180794 -0.25683764 -0.41696826 0.46934414 0.3879807 0.1632117 -0.014433224 0.040755987 -0.08017353 0.450534
仁 -0.24298017 0.17985153 -0.11664429 0.03938521 0.0529599 -0.26253018 0.10089724 -0.0013619843 -0.099666975 -0.22360612 0.053259235 0.05836229 -0.34278265 -0.08742358 0.05084995 0.20821634 0.050684072 0.09461494 0.09650923 0.073371395 0.32141352 0.3260291 0.07051663 -0.1663343 0.081980154 0.15754116 0.020581998 -0.18635745 0.005722227 0.15541007 0.19651796 -0.103663445 0.290218 0.07074548 0.11213477 0.29806516 0.0016217408 -0.27978298 -0.10711288 0.103888996 0.052209847 0.02799877 0.030189695 0.38641462 -0.23928833 -0.056449767 0.010976724 -0.4021577 0.131816 0.31461054
夫 0.25035468 0.096217886 0.17803377 0.24359909 0.113270424 -0.09943165 0.08549708 0.020949168 -0.2099612 -0.028319012 0.20776936 -0.013267407 0.10738002 0.05321182 -0.2251633 0.109196246 0.12379278 -0.0004443148 -0.22192419 -0.11159188 -0.022525292 -0.035546478 0.011513697 0.2396595 -0.06720054 0.2685148 -0.13624845 0.07310794 0.033142146 -0.25146815 0.07057672 -0.12934352 -0.4315464 0.02338819 0.047071934 0.0049062027 -0.08760784 0.04999184 0.059495326 -0.3238403 -0.048705548 -0.111243494 0.0014403871 0.43262526 0.3902204 -0.22515322 -0.025956893 0.10120739 -0.041202676 0.164838
、 0.11980338 0.293446 0.054746617 0.038519002 0.41265088 -0.4048536 0.20771804 0.12877472 -0.43009856 0.6191693 0.022556955 0.17949598 0.19900739 -0.15111485 -0.029824782 -0.051283315 -0.0455451 -0.124868385 0.17223339 0.4854241 -0.020831967 -0.29708767 0.12873527 0.04804208 -0.20066307 -0.14332996 0.17060666 -0.30912888 -0.16102508 -0.29843962 0.03725475 0.044262707 0.07417376 -0.21163364 -0.09502102 0.45898527 0.13434555 -0.10276445 -0.45776045 -0.030082317 -0.016718853 -0.032414712 0.10490494 0.6906559 0.0800045 -0.2948677 0.08953744 -0.056283645 0.31214505 -0.09320567
道 0.096670605 -0.15837899 0.08369196 0.0058341296 0.04793443 0.15033235 -0.14046088 0.0059281564 -0.20791328 -0.015157556 0.1409242 -0.40844536 0.15629908 -0.1127317 0.18465586 -0.26899934 0.14953539 0.27593744 0.28581575 -0.24729063 0.09297675 0.08558275 -0.07820003 0.026019122 0.13916051 0.026696999 -0.0922168 0.0021753884 0.35707012 -0.21046528 0.20508465 0.24193907 0.323923 0.07845565 -0.20181113 0.018616978 -0.1499387 0.24320658 0.05315166 0.22539221 -0.15608272 0.071823746 -0.16711287 0.4591521 -0.24834585 0.097433485 -0.043488387 -0.14665239 0.12004937 -0.27305672
焉 0.08193319 -0.0076565547 -0.27130434 -0.121566474 0.3472211 -0.13795154 0.0929901 0.078656115 -0.08632467 -0.052432988 0.034192797 0.025131831 -0.05795041 -0.08366135 0.1692941 0.1867574 -0.07273429 0.44512433 0.0723929 -0.1545263 0.071634166 0.06491105 0.09274012 -0.1303627 0.024285015 -0.013777809 0.18184558 0.27140749 -0.083429866 -0.040581185 0.10970365 0.12883635 -0.22396192 0.06927587 -0.22938302 0.23487617 -0.07749684 0.1356812 0.3888903 0.053848337 0.13801545 0.1078707 -0.21393539 0.45001143 -0.29139507 -0.23975575 -0.36358777 -0.13826221 0.25343007 0.13205464
行 0.1292735 0.028523743 -0.026474101 -0.03442445 -0.111039735 0.049470052 -0.19684333 -0.09046992 -0.114155486 0.14259669 -0.120199725 -0.22039248 0.022219878 0.36668932 0.098535664 0.08237865 -0.20053741 0.16508085 0.09249572 -0.0030316631 -0.22112086 -0.019050913 0.21106988 -0.30009013 0.19043002 -0.017623235 -0.20056398 0.20355259 0.02556101 -0.023719842 0.29473734 0.3334744 -0.13912307 0.3133539 -0.23756815 0.067140624 -0.016174372 0.28671786 -0.019632185 -0.13563888 0.28493807 0.025843674 0.31347865 0.41013286 0.059584145 0.1950053 0.3997447 -0.14159842 0.14124773 -0.06229927
谓 -0.14721549 0.1978621 -0.06527218 0.11966686 0.16788931 -0.2144875 0.0074077514 -0.072507575 -0.0025287243 0.19001547 -0.013478898 0.45589644 0.0884976 -0.043174114 0.19536571 0.041496936 0.16870265 0.04992517 0.40439755 -0.13377939 0.24516578 -0.08192488 0.014053221 0.20915557 -0.043381397 0.3489584 -0.24253093 0.005648301 0.16648707 -0.12032578 0.20123579 -0.33078924 0.13765159 0.1405811 0.12734641 -0.083462454 0.2769798 0.039229084 0.011752785 0.079161264 -0.00043597905 0.11199165 -0.476246 0.32564357 -0.2982172 0.10369402 0.16134267 -0.17471707 0.120243005 -0.24579604
必 -0.069716744 -0.2558856 -0.059915904 -0.035178307 0.53681326 0.2135435 -0.31302962 -0.14606686 -0.13876884 0.057582464 -0.042504307 0.086360484 -0.19503722 -0.018503722 0.14255917 0.3857395 -0.10044271 0.09614977 -0.08361233 -0.057909723 0.16784786 -0.13569526 0.122153215 0.18602678 0.160457 -0.038995486 0.12768187 -0.18238325 -0.19286557 -0.3093016 -0.04973404 -0.19851363 -0.29254794 0.25830778 0.30651703 -0.20323722 -0.15601787 -0.10265309 -0.12124372 0.028363086 0.113117814 -0.019650312 0.060929816 0.51810396 0.20919803 0.06638356 0.028236056 -0.36535633 -0.20094247 -0.009823624
礼 0.060008712 -0.016643994 -0.10780327 -0.26491848 -0.25963983 -0.39824584 0.12306726 -0.25800326 0.054564226 0.25579795 0.36239135 -0.16302998 0.015397165 -0.11886198 0.38038057 -0.13377364 0.12843184 0.20053586 0.24641648 0.037198555 0.13194665 -0.011982431 -0.020138012 0.100346856 0.1264416 -0.006649721 -0.1639367 -0.25145686 0.118555576 0.15680201 0.05926816 0.11497281 0.042301305 0.007232864 0.13003145 -0.26763317 -0.11851667 -0.06034364 -0.13250782 -0.118004926 -0.48139486 -0.18631455 0.34445763 0.48092684 -0.06326609 -0.23839901 -0.123617955 -0.05167975 0.0750628 -0.21724573
孔 -0.27153227 0.1269095 0.08102444 -0.14228232 -0.023493437 -0.26253504 -0.34993544 -0.21260664 0.19946194 0.16400337 -0.16532618 0.17480049 0.06417529 -0.121336795 -0.23782425 -0.021306358 0.18575938 0.04679419 0.012237519 -0.18328255 -0.14823768 0.019205665 0.05681514 -0.16635127 -0.21029104 0.38520357 -0.18070538 -0.31272238 0.122714885 -0.046407204 0.1314299 0.37457383 0.10626378 0.3281863 -0.11714533 -0.07458493 0.024573877 0.106904216 0.35012645 0.074226834 -0.010472285 0.10645672 -0.08431549 0.4302008 0.21475776 -0.25186837 -0.04713749 0.09769969 0.19923685 -0.10277362
斯 0.10088568 0.06461046 0.16470838 0.41976854 -0.12348611 0.24227577 0.11146074 -0.40407297 0.07228195 -0.003050669 -0.10546769 0.24942471 0.11660422 0.29072258 0.25406507 -0.07568217 -0.101321265 0.45513868 0.112127066 -0.2348138 0.30109423 0.09483888 -0.13053429 -0.37333927 0.20035963 0.11808579 -0.57715684 -0.10160589 0.070258945 -0.2987547 0.16386956 -0.25917235 -0.13558064 0.12192976 0.07647764 -0.046679005 0.22715472 -0.22152951 -0.10442285 -0.27515298 0.16628256 0.39282432 0.06427512 0.41043708 -0.045747146 -0.24419177 0.22937721 0.066507995 0.1066464 0.14608428
三 -0.046379115 -0.009934972 0.17574401 -0.17038909 0.20662731 -0.1121823 0.13454197 0.02457047 -0.39172933 0.44619676 -0.13076769 -0.17287716 -0.1982204 -0.22290133 0.051895224 -0.14403781 0.07340719 -0.041472457 0.013024253 0.030425504 -0.1384348 -0.1551452 -0.27396694 -0.3812595 0.0011812213 0.23412424 -0.0973292 0.20727 0.15467538 0.005382951 -0.11471682 0.08548393 0.03234263 -0.01836832 0.17543894 -0.07645908 -0.32397985 -0.15102644 -0.017256321 -0.1433437 -0.08249918 0.30426902 0.18015054 0.45098275 0.21919544 0.057177 -0.27413198 -0.04231803 -0.057585277 0.0640041
能 -0.1481373 0.1718022 -0.026021091 -0.07832739 0.23798159 -0.1100393 0.340352 -0.06267767 0.16568752 0.06892036 0.2268873 -0.048955914 -0.036827102 0.024248593 -0.006283338 0.1382085 -0.12968993 0.039505437 0.14852327 -0.021647409 0.00040089898 -0.043352578 0.103694454 -0.07129506 0.14063683 -0.19856344 -0.22929256 0.22112888 0.035569005 0.21821888 0.32092202 0.09971712 0.26553535 0.004964684 -0.066404164 0.040494 0.05880983 -0.19645478 0.4672017 -0.061437774 -0.07792026 -0.10704661 -0.18229473 0.4279884 0.099713616 0.09126787 -0.11195194 -0.17352085 -0.04503637 -0.096014366
见 0.18323506 -0.13871722 -0.25381443 0.17304754 0.14678052 -0.37633455 -0.123058096 0.1639472 -0.16036487 -0.14919508 -0.19149193 0.03880655 -0.29458657 0.0056292494 -0.27790043 -0.20608181 0.31772706 -0.051545586 0.20589785 0.0033975618 -0.08521256 0.15120551 0.10508507 -0.27650705 0.12300729 -0.15835342 0.14505263 -0.3248699 -0.06359853 0.029894441 0.3273898 0.17289975 0.44526353 -0.10244229 -0.15244474 -0.028877517 0.003549495 0.16236427 0.24076714 -0.15779969 0.04006769 0.015981445 -0.2858398 0.5371703 0.3859627 -0.10761528 0.22022419 0.3345025 -0.026921153 0.28690633
学 -0.2533767 0.06745056 -0.5205179 0.16301486 -0.061091043 0.03842293 0.06211083 -0.0456145 0.07535206 0.35316774 -0.07488099 0.36738223 -0.03674252 -0.028116269 0.07608966 0.048084043 -0.25313383 0.1209449 -0.007363025 -0.26106113 0.1949341 -0.029992728 -0.108803175 0.093433514 0.14522718 0.110663734 0.07144434 0.15040809 -0.13991903 -0.03875958 0.09993533 0.22744027 0.2786078 -0.19333498 -0.19446896 0.22240435 -0.48690745 0.077127 0.06558528 0.27694464 -0.17130151 -0.11644221 0.14929752 0.41148078 0.020166185 0.4445448 -0.16342534 0.06535786 -0.036667354 -0.37591803
事 0.6471152 0.060470264 0.11931746 -0.13195626 0.15449272 0.124622576 0.17184126 -0.13926987 0.26086208 -0.2716642 -0.007366543 -0.106123045 -0.03386165 0.030899704 -0.1092392 -0.20098524 -0.24078938 0.15016225 0.18552245 0.02143789 -0.18650688 -0.27748752 -0.05483865 -0.12899573 0.01304229 -0.07938069 -0.17656319 -0.132268 -0.22983326 -0.177173 0.09365994 -0.024585482 0.5147245 -0.047173608 0.2378167 0.08966952 -0.22191143 -0.045097563 0.30911672 -0.14788978 -0.018763606 -0.17189404 0.061140947 0.5443449 -0.27968708 -0.25506857 0.18064287 -0.005110868 -0.2828243 -0.10303166
是 -0.07077883 0.04805249 0.07515471 0.15912113 0.5067904 -0.09946976 -0.1124128 -0.12663414 -0.035589952 0.122156486 -0.079458475 -0.11623048 0.4964143 -0.0975442 -0.10590947 0.38637415 0.017839765 -0.20546985 -0.11502312 -0.099098064 -0.17277159 0.15887569 0.1628381 -0.037101157 0.050419647 0.2079432 -0.046368945 -0.09203869 0.36246654 0.14429119 0.025814373 -0.025121592 0.11411073 0.03038286 0.11042195 -0.03284764 0.008478405 -0.12792087 0.24456975 -0.26914278 0.008621844 -0.20867431 0.009968309 0.41761467 -0.2831875 0.23150866 -0.1344357 0.19453 0.11335476 -0.21756458
哉 0.47726172 0.16989076 -0.15894102 0.006361756 0.09233264 -0.12222373 -0.4077976 -0.035947323 0.1964303 0.21873252 -0.28174436 -0.30035263 -0.040277544 0.12407788 0.037772972 0.25922334 -0.19933893 -0.24794173 0.23409106 -0.25710213 0.20986974 0.25649846 0.2406104 -0.070082866 -0.11465461 0.36296585 0.16708912 0.056244016 0.08363621 0.14406829 0.31952506 -0.08849964 -0.014348829 -0.2980958 -0.31652686 -0.045893133 0.1482024 0.12802981 0.044057667 0.07510769 -0.16068971 -0.32890588 0.1102309 0.40592337 -0.021421062 -0.42464343 -0.045534022 0.14676072 0.0762963 0.12384653
闻 0.37277344 0.16605909 0.1166869 0.138297 0.32616898 -0.27571633 0.16156892 -0.38243786 -0.10329879 0.13356285 -0.19035302 -0.09458315 0.30892295 0.017920388 0.045135517 -0.06345639 0.06061466 0.19820951 -0.1484986 -0.06924285 0.27148485 -0.025291283 -0.27173758 -0.146833 0.13484886 0.16385576 0.037476845 -0.15714802 -0.3853003 -0.07646883 0.13881667 0.16543093 0.17492098 0.06921295 -0.086732335 -0.19015734 0.14290722 -0.03974526 -0.043898176 -0.5367804 0.07217031 0.010969622 0.19648083 0.43070546 0.107471235 0.29430452 0.09759907 0.32675362 -0.37527433 0.19637482
未 0.24527863 -0.22387715 -0.127844 0.074829094 -0.041383367 -0.13880031 0.08422523 0.1399091 -0.08651449 0.028824903 0.08586471 0.24287184 0.016370196 -0.03258596 0.009858047 -0.052884195 0.109240524 0.11034195 0.09031734 -0.34003186 0.51149714 0.2101389 0.021070506 0.071199864 0.1712946 0.15151843 0.0010534117 0.107672945 0.018798942 -0.17855583 0.115014695 0.043990076 0.21106713 0.13207926 0.08067885 0.034982283 -0.24626675 -0.20722094 0.4449689 -0.08878239 -0.21224965 -0.1780179 -0.15875877 0.39113146 -0.007837725 -0.027875634 0.18670118 0.21104525 -0.19532123 0.08879197
公 0.5986411 0.1189984 0.23551436 -0.15228279 -0.11489487 0.00017356704 -0.032966014 0.00084946037 -0.022326231 0.1248142 0.11111949 0.3809151 0.2231294 0.025886267 -0.45144734 -0.31059396 0.018766819 -0.030475074 -0.16158797 0.11253045 0.09812267 -0.22110894 0.04243001 -0.113246374 -0.21405241 0.27040717 -0.038724054 -0.17488311 -0.049584784 -0.027021717 0.02152087 0.12131079 0.07626446 0.1270941 -0.24522124 -0.07106742 0.29945946 0.09578964 0.088652395 0.19156784 -0.062412076 0.16897555 0.22512475 0.5279683 -0.12854743 0.011377956 0.16366996 -0.009200868 0.21194513 0.15316299
好 -0.3266317 0.39475948 -0.33358702 -0.051612623 -0.011195482 -0.06828685 -0.117369 0.016327113 0.07073614 0.0020560413 -0.34552434 0.393422 -0.22964986 0.28015292 0.05316597 0.045253675 -0.2055026 0.15739244 0.0085813925 -0.3104788 0.051254556 0.4393173 -0.06283997 0.04438477 0.27258456 -0.18735416 0.17374144 0.07281677 0.009129796 -0.17125529 0.25395325 -0.23380546 0.37435308 -0.08556059 0.10673202 0.17429306 -0.438935 -0.2419733 0.17161025 -0.0868002 -0.39001417 -0.012857092 0.031575225 0.51064104 -0.00692865 -0.23294866 -0.05411391 0.17523171 -0.10106743 -0.3201871
我 0.15753154 -0.028397828 -0.079044744 -0.003958079 0.38482642 0.3090782 0.3186769 0.0700384 -0.053307608 -0.115809344 -0.05673813 -0.22976683 -0.09813181 -0.08463849 0.071571305 -0.047978412 0.17724085 0.085574165 0.024928847 0.36508444 0.006902348 0.69711894 0.06603352 -0.30941224 -0.06310629 0.27275378 -0.05319711 0.10403724 0.06746049 0.087329894 -0.101936616 -0.10140602 -0.028568942 -0.05725209 -0.11783848 0.0004152735 -0.07908953 -0.25736675 0.21355993 0.15081854 -0.16891672 -0.17293936 0.19560932 0.4858719 0.15011252 -0.21017456 -0.14360288 0.068454884 0.05891813 0.17549494
路 0.067122355 0.4951927 -0.0070615555 -0.25672373 -0.20816176 -0.10260997 -0.09740777 0.26403183 0.07203648 0.56681854 0.27194315 -0.18344392 -0.24374384 -0.17979842 -0.30482835 0.18616228 -0.039763533 0.043502588 0.06041582 0.17345963 -0.11013997 0.1502953 0.44392687 -0.10649202 -0.12607133 0.31593075 -0.104494974 0.052349802 -0.35839355 0.08289141 0.32828024 0.10308409 -0.07034497 0.02287513 -0.13903508 0.009827549 -0.062275685 -0.17209563 -0.0041356473 -0.033621803 0.2135396 0.2427637 0.053116955 0.3417385 0.08160241 0.20264608 8.42966e-05 0.24885035 0.049219165 -0.057525154
在 0.38177198 -0.36080223 -0.1955146 0.65023094 0.28202385 0.22729076 0.3607854 -0.11908071 -0.24713203 0.12920152 -0.50694287 0.03954423 0.027474485 0.1795973 -0.16964921 0.29603007 0.09037815 0.07292808 0.007147775 0.078763954 -0.051254634 -0.29349062 0.06048326 0.15765949 0.17232276 -0.06850151 0.05004478 0.14322685 0.080218546 -0.144518 0.020912832 0.36333737 0.08464979 0.07638841 0.1353821 -0.13581426 0.31032574 0.12975627 -0.05962264 0.21484703 -0.333546 -0.08788047 0.005755733 0.57184243 -0.02391401 0.015762702 0.27864164 -0.2693561 -0.44430226 0.10527433
已 -0.16540012 -0.027968243 -0.21520695 0.33614436 -0.17988645 0.025300507 -0.21272568 -0.032366272 -0.3588637 -0.115728006 -0.030609323 0.46894827 -0.10201129 -0.17624372 0.13351695 -0.185056 -0.09746711 0.088500865 0.33915302 -0.16636354 0.05811002 0.10598874 0.22414763 -0.2501681 -0.007105228 0.44502038 -0.07951989 0.2693354 -0.14135163 -0.033145156 0.07758964 0.013169121 -0.3876306 -0.09649524 0.18029837 0.15480314 0.006649223 -0.08393841 -0.119291134 -0.11144754 0.001046824 0.41698423 -0.10257948 0.33542484 0.026221624 0.32092315 0.12972352 -0.17911497 -0.025570164 0.13708398
得 0.35414854 -0.09322547 0.12566271 -0.022607122 -0.15795498 -0.07008617 -0.16223815 0.1784148 -0.42344892 -0.088832185 0.058648948 0.3367221 0.08614843 -0.062771805 -0.1573604 0.08439918 0.15188852 0.06341358 0.26292285 -0.030683639 0.23311664 0.27004755 -0.23348048 0.17619504 0.2204382 -0.09700255 -0.061028756 -0.17092772 -0.31833082 0.21071056 0.23418769 0.06947863 0.06692004 0.16967928 0.04512948 0.28104815 0.020660546 0.18058826 0.19681433 0.31257224 -0.15855253 0.20755546 -0.25549826 0.50345534 -0.05511512 -0.2459602 -0.13624102 0.015450214 -0.3467725 0.28885758
所 0.04945931 0.2495785 0.19782105 0.10584009 0.07175474 -0.005045158 0.027477426 0.2215363 -0.34299275 -0.06410894 -0.083488844 -0.022245431 0.17992009 -0.09555033 -0.029051395 0.40752792 0.15578191 -0.11635244 0.20016706 -0.3503156 0.3922392 0.2510197 -0.14264482 -0.2590508 0.2646806 -0.067238934 0.16760576 0.05968282 0.34462664 0.16933449 0.1295529 0.16539635 -0.14478597 -0.00544878 -0.13699116 -0.2655908 0.25658005 -0.24950479 -0.19807816 -0.15484262 0.12134219 -0.03322703 0.39025706 0.5392525 -0.16855413 -0.101543404 -0.23541608 0.22787227 -0.39961934 -0.04950937
民 -0.1598838 0.24493992 0.24423547 0.271748 -0.18100122 0.050267704 -0.116749205 0.15344906 -0.07404555 0.27915958 -0.042880975 0.27467802 -0.2297254 -0.11826123 0.16840258 0.04080544 -0.22650348 0.18639332 0.48424047 0.36919457 -0.17890286 0.19149001 0.0053186305 0.049735703 0.07889427 -0.07205049 0.25318882 0.16908312 0.19370258 -0.10602962 0.08927794 0.33933216 0.17403941 0.009187344 -0.012886859 -0.12364329 0.050894506 0.0783944 -0.14094932 -0.20147134 -0.199798 -0.019182643 0.018102903 0.57136524 -0.5955542 -0.1482642 -0.28440574 0.099723555 0.030728742 0.13716775
小 -0.2074185 -0.08756394 -0.031280544 0.23002386 -0.1320712 0.24594258 0.093037665 -0.21102145 0.24946724 -0.36635253 -0.0881066 -0.35793954 -0.115217626 0.39195377 -0.05902003 0.022597631 -0.22727436 0.3041735 -0.15758368 -0.5347371 -0.07678185 0.3168211 0.21766211 0.0382815 0.05666741 0.038227893 0.05964311 -0.09504911 -0.10694186 -0.1190304 0.110578604 -0.3125093 -0.031162925 -0.09686968 0.29180115 -0.0077711646 -0.17226675 0.5795223 -0.14334619 0.11137176 0.24534737 -0.2835779 -0.10112789 0.60502625 0.18786128 0.011695927 -0.3266405 0.24677029 0.41529557 -0.16482116
天 0.08474721 -0.18506856 0.12761271 0.20890297 -0.2509114 0.09283235 0.07179445 0.08278173 -0.4120362 0.059701074 0.30286676 0.09200734 0.11230125 -0.054925762 0.22907473 0.21766439 0.1888896 0.120388165 -0.16916654 -0.035895575 -0.12788731 0.040197134 0.09772771 -0.22512329 0.17802021 0.052253608 -0.19903353 0.2448883 0.33021623 -0.012739365 0.17188166 0.08703134 -0.055311162 -0.02263387 -0.32579568 -0.12826413 0.10397123 0.0458654 -0.14495294 0.17606024 -0.49714944 0.18074632 -0.05838854 0.46415874 0.13853809 -0.14436169 -0.19395214 0.26487705 0.61226887 -0.027540421
乐 0.21146838 -0.02473949 -0.19079354 0.19979173 -0.20559713 -0.24324608 0.07763901 -0.10266863 0.026629642 0.3063778 -0.25745338 -0.38383156 -0.15787816 -0.5765724 0.20323627 -0.089047395 0.09137453 0.1367202 -0.06229671 -0.06707042 0.18024704 0.19181691 -0.6054003 0.18395515 0.17763093 -0.09423792 0.219594 -0.2697424 -0.104116336 -0.3599626 0.127776 0.10003138 0.10613088 -0.472416 0.084459476 -0.064952664 -0.20628452 -0.11342916 -0.046412863 0.04610292 -0.055633795 -0.21762137 0.3852931 0.57032037 -0.12127219 0.0051125744 0.19283657 -0.1274174 0.39563072 0.41008347
邦 -0.106230795 -0.42993286 0.021802444 -0.07213511 0.44432944 -0.14648975 -0.044718523 -0.071165755 -0.03255889 -0.14460215 0.0012216212 -0.16758624 0.032278772 0.27699217 -0.29638007 0.018998388 0.07170252 0.3886402 -0.14968222 0.078466184 0.38069308 0.07480751 -0.23812738 -0.014373869 0.19975892 -0.1021051 -0.11495483 -0.16349374 0.1409428 0.049752373 0.3965386 0.2837529 -0.022114646 0.05496859 -0.14032726 -0.35310608 0.50901556 0.4795072 -0.084003896 0.004768986 -0.21624008 -0.18738803 0.011419632 0.5419735 -0.16904022 0.47311518 0.27583218 -0.038318146 0.02493382 -0.13976553
亦 0.21905984 -0.4473928 -0.1701304 0.016005356 -0.10679941 -0.054764915 -0.22509377 -0.22749834 0.32241517 -0.16600622 -0.16760175 -0.11294755 0.18948862 -0.1373902 -0.07872568 -0.09824401 -0.05956322 -0.12225615 -0.063530676 -0.025850136 0.19276705 -0.402868 0.03758348 0.12179682 0.008249634 0.031877823 -0.015317817 0.14153562 0.14912227 0.009850624 0.12210044 -0.17649995 -0.099870056 -0.2857717 0.14302363 -0.27939454 -0.009287146 0.17141421 -0.052564885 -0.18890078 -0.02029181 0.2525952 0.017942235 0.5667874 -0.4752484 0.2303779 -0.32366568 0.41404843 0.33516377 0.21425483
使 0.16194585 0.5858549 0.019073742 0.15093966 0.38377517 -0.24088468 0.13584952 0.023222003 0.32690844 0.018914538 -0.30582273 -0.23078875 -0.59086996 -0.22340772 0.17306754 -0.5450337 0.043311074 0.07254319 0.12892054 0.2978931 -0.1642448 -0.046472955 0.18289535 0.26041925 0.027556855 0.039666113 -0.24666908 -0.046526086 0.04891622 0.42318088 0.3690812 0.032906834 0.06627179 0.07072554 0.11016489 -0.25809047 0.14961387 0.119438745 -0.20112212 -0.29388842 0.17518573 0.16723546 -0.27628058 0.42587167 -0.1452918 0.22014506 -0.34075138 -0.021874776 -0.45590487 -0.24302536
大 -0.024122568 0.17611347 0.18484068 0.15755703 -0.2026486 -0.14105368 0.1733782 0.3136193 -0.07681389 -0.27682877 -0.25711152 -0.26055396 0.2796349 0.28996444 -0.0042837826 0.15045445 0.10076951 0.036552694 0.18281254 0.076235265 -0.02510642 0.11552584 -0.024363665 0.011919414 0.15074636 0.006966031 -0.061294902 -0.08384357 0.22312999 0.09764201 0.1065271 -0.015442167 -0.07187268 -0.105842635 -0.016548019 -0.08998255 -0.110585995 0.3287698 -0.24761932 0.27262115 0.18308827 0.104418606 0.02152619 0.52488446 0.5029315 0.026042951 -0.21034546 -0.14157303 0.26951453 0.048281137
下 -0.21273763 -0.26972988 -0.040195603 0.22537899 -0.029527485 0.3032823 -0.07043112 0.19895199 -0.10408624 -0.021711415 -0.0005271814 0.19470452 0.043659445 -0.018693293 0.3182347 -0.15542428 0.10900608 0.16456507 -0.0030408944 0.104299545 -0.046908185 0.05715322 0.05736696 0.04691375 0.16352236 0.0515017 -0.03711663 -0.10558099 0.16442303 -0.06475394 -0.07355313 0.45988044 -0.006618883 0.14967002 -0.12536684 0.023577642 -0.22931324 -0.1439604 -0.542548 -0.2529788 -0.1921399 0.13455568 -0.38132232 0.56732523 0.29062787 -0.333517 -0.119439535 0.27255666 0.5318517 -0.1329604
贡 0.034696467 -0.06684602 0.35511208 0.10265058 0.16660766 -0.037073314 0.023638327 -0.10177804 -0.2955543 -0.19203295 0.13362773 0.039995212 0.19906662 -0.115538515 -0.16736819 0.0036720275 0.41379008 0.24356502 0.18802248 -0.15837803 0.22526707 0.011406498 0.07578738 0.18826632 -0.27627677 0.49890468 0.17803879 -0.18957283 -0.10815429 -0.18151347 0.22278278 -0.092853256 0.20039718 -0.14265515 -0.02325044 0.08524486 0.2626819 0.006328186 0.09966733 -0.04257522 -0.12458718 -0.050106443 0.30525744 0.41081116 0.10049199 -0.045466192 -0.4866271 -0.3581629 -0.14009868 0.07870172
欲 -0.28151968 -0.14093277 -0.062060148 -0.24133052 0.37284052 -0.06724911 0.29480332 0.29477623 0.14607015 -0.31842574 0.025399014 -0.07423938 0.0017961581 -0.28780943 -0.31588545 -0.06519 -0.010387992 0.11902178 0.4745405 0.14862294 -0.3297773 0.43777478 0.54853654 -0.14292689 0.13986604 -0.08937962 0.112280905 -0.21174413 -0.08161196 0.70593494 0.33783102 -0.11027332 -0.101331085 -0.16468674 -0.40654698 0.20494951 0.16661523 0.14814991 -0.066881694 -0.17124534 0.12985091 0.21616854 0.5530678 0.5328564 0.053398702 -0.35404074 0.20057486 0.18295716 -0.005618372 0.46077216
诸 -0.034411367 -0.16986652 0.34735754 0.01929139 -0.22216661 0.13629298 0.5454468 -0.5920413 -0.04573081 0.050952777 0.17216471 -0.056071263 -0.37437594 -0.08342349 0.075574055 0.018559903 -0.021301582 0.19398727 -0.012773306 0.2812815 -0.08102718 -0.048334286 -0.20902908 -0.17327957 0.0040520374 0.094495535 -0.030713096 -0.07068375 -0.5370068 -0.13864893 0.4554461 0.017387949 -0.20930685 0.22053647 0.019718122 -0.062960714 0.4728991 0.09774189 0.2410493 -0.67878085 -0.087859854 -0.29184338 0.061597157 0.45263335 0.17068626 -0.09378623 0.18246496 -0.04703749 0.25620693 0.38689062
从 0.1703836 0.06912381 -0.27000898 0.23516448 -0.06872268 0.38491037 -0.20566338 0.22260386 0.06870234 -0.09106511 0.011379316 -0.2381825 -0.115392335 -0.29785663 0.08396092 -0.02376056 0.11220146 -0.07801148 0.20827197 0.42379677 -0.041336548 0.17073753 -0.06637527 0.32311875 0.09876502 0.08105707 -0.3768043 -0.0062285685 0.11497901 0.29589495 0.12183279 0.103779756 0.20302717 0.37566075 0.26680306 -0.006755405 -0.11923939 -0.24312152 0.19955994 -0.17590624 0.12847087 0.29329833 -0.16154806 0.4893905 0.22631547 -0.09555612 0.11259957 0.11988784 -0.16701277 0.38430527
文 -0.001666342 -0.14065458 0.4453091 0.109301575 -0.52634823 0.31387606 -0.03429157 0.45578036 0.21225572 0.052267123 -0.012405432 -0.026118211 0.010459793 0.23873222 0.115331985 -0.05524138 0.015297016 -0.09856155 0.255109 0.2193123 -0.1256297 -0.13119766 -0.01953829 0.24632639 -0.036195695 0.379962 -0.37798634 -0.0031982358 -0.31918854 -0.30104998 0.08612182 0.028899007 0.17148308 0.105829485 -0.066742316 0.1542308 -0.25547403 0.051221475 0.01357163 0.1963301 -0.46888477 0.048444945 0.25077522 0.42960432 0.23168318 0.0179468 0.12111997 -0.0959066 0.19419496 0.1326441
政 0.22231296 0.18466665 -0.22666223 0.3633853 0.11506912 0.043116625 -0.3195821 0.28718892 0.22327766 -0.061518837 -0.19618392 -0.35514724 0.04469755 0.31836963 -0.18008463 0.027166467 0.13296925 -0.22385235 -0.04865526 0.48715916 -0.06326438 -0.08533551 0.050422344 0.36898294 0.065593414 0.5345965 -0.20313649 -0.056966525 0.022210661 -0.1283483 0.23920414 0.58141094 0.43961653 0.21286261 0.07912424 0.011270224 -0.26983008 -0.16220132 0.29095635 -0.24775916 0.026643818 0.40869686 0.124754585 0.34618363 -0.38036472 0.063607745 0.02543647 -0.30585247 -0.057931412 0.063538216
食 0.40029687 0.21042421 0.2747206 -0.16390944 0.29302168 0.018836593 -0.30349395 -0.008142104 -0.15809228 0.15028918 0.035131056 -0.04363505 -0.07640349 -0.32174426 0.22401693 0.08424581 0.57673246 0.13746084 -0.23386261 -0.07870562 -0.015253819 -0.28598535 0.29590812 -0.33210257 0.26261836 -0.31593373 0.4450942 -0.10395562 0.14832513 -0.3444748 0.29878303 0.40183988 0.21921872 -0.29497993 0.33225158 0.11336922 0.14494489 -0.3227086 0.09588 -0.1680448 -0.069377586 0.18701947 -0.15097454 0.58067644 -0.3139146 0.28913385 -0.13855475 -0.051996656 -0.4730942 0.35891527
善 -0.053015202 0.1860319 -0.033040423 -0.30603164 0.20794716 0.26202646 -0.21038926 0.0054757395 -0.016603285 -0.075125836 -0.25906163 0.030199483 -0.044309366 -0.28545743 -0.0068795797 -0.106347166 -0.011994826 0.19370681 0.15226047 0.35475552 -0.0053133694 -0.0606295 -0.15904798 0.36512834 0.0848306 -0.19053541 -0.052605648 -0.17718852 0.43349618 -0.11375092 0.44740593 -0.19908771 0.15611291 -0.17329197 -0.24953783 0.21947399 0.2029975 0.036143288 0.26549113 -0.24390997 -0.052002307 -0.3382916 0.216955 0.4758957 0.33997688 -0.07507374 0.055715237 0.20358106 -0.2336784 0.14760943
后 0.45495445 -0.10334568 -0.22984473 -0.077162296 -0.24188338 -0.12200784 -0.032944698 0.084478416 -0.22580442 0.20821804 0.38107058 -0.14712602 -0.2737294 -0.10219843 -0.001422224 0.25567588 -0.39754376 0.12472479 -0.12861297 -0.14431912 -0.06275097 -0.05776577 -0.052147053 0.18837251 0.0811771 0.1249417 0.05243059 -0.2989274 0.32173017 -0.13407364 0.0032192334 -0.014837206 -0.29457653 0.19010602 0.7041295 -0.22650033 -0.41448897 -0.13130707 0.2525022 0.033682715 -0.17609572 -0.019133221 0.20597066 0.48525152 0.11980076 -0.33006275 0.19479606 0.024989836 -0.15287061 0.28688276
德 -0.111896135 -0.30395165 0.2523927 -0.07959403 0.11971045 0.02510655 0.23681152 0.04221299 -0.27156797 0.051435787 0.071316786 0.03226641 -0.18765354 0.060625646 -0.003325055 -0.013751624 -0.52978265 -0.05148093 0.33919492 -0.2661558 0.13903639 0.31900486 0.13390593 0.022468438 0.13819842 0.22166124 0.45782864 -0.033877976 -0.007814208 -0.18013376 0.13647452 -0.5971042 -0.07224051 0.08279129 -0.27907342 -0.058732003 -0.2911337 0.02724088 -0.265504 0.27039966 -0.079450645 -0.02548328 -0.12068369 0.4298566 -0.44455698 0.122571856 0.12516542 -0.1963818 0.099486046 0.032148965
求 -0.02647687 0.30849952 0.030905755 0.1817297 -0.0072150035 0.10103011 -0.053174585 0.11902928 0.30297896 -0.35435164 -0.031801544 0.040718164 0.28111595 0.17197913 0.25670272 0.043442667 0.11720042 0.087116174 -0.32160443 0.37718326 -0.043775424 0.32483432 -0.076187864 -0.08375541 0.07733518 0.24033493 0.039156023 -0.16864124 -0.05144342 0.31212467 0.19204672 -0.07076408 0.20912322 0.040152118 0.14448519 0.13432342 0.14220808 -0.009972754 -0.08024674 -0.34759447 0.034967054 -0.19688194 0.27453238 0.40082112 -0.07351527 0.1960637 0.14791138 -0.13336174 0.32016397 -0.2042974
对 -0.22182989 0.07407461 -0.2826212 -0.12633687 0.28559825 -0.37758982 0.07551512 -0.5068093 0.3074777 0.084375046 -0.11537242 -0.11651532 0.21932736 -0.10595464 -0.07743992 -0.056236807 -0.021761667 -0.13853988 -0.08693852 0.08220163 0.33480215 -0.28828394 0.11502489 -0.04969329 -0.11937515 0.37989247 -0.20133448 0.05685648 -0.53538305 0.11275418 0.31300434 -0.08670313 0.11019971 0.40529552 0.09926205 -0.18847308 -0.24735387 -0.19476765 0.33025137 -0.15049395 -0.26903158 -0.2207401 0.22348076 0.3792522 0.2500007 -0.043393347 0.0118118655 0.27361846 0.02014842 -0.1449132
恶 -0.31815872 0.03162403 0.3265605 -0.23671316 0.3740028 0.020710077 0.08036233 0.13367356 0.014572903 -0.054963112 0.26074257 0.13440904 0.01686283 -0.13801597 0.3856271 0.52641296 -0.009708766 0.21651392 -0.22487901 -0.23858285 0.28852314 -0.068464376 -0.16338876 0.3932017 0.26312873 -0.023090562 0.47712228 -0.12692636 0.10319503 -0.110835075 0.22892953 -0.16814561 -0.037921257 -0.19455624 -0.03585729 0.048590288 -0.036459565 -0.26454574 -0.1739713 -0.23221111 -0.27661502 0.21053436 -0.047628555 0.46685058 -0.38420436 -0.027118504 0.024952834 0.5234734 0.3233794 -0.0959557
信 0.030285375 -0.35475945 -0.4692029 -0.011617005 -0.15181354 0.2222286 0.024925454 0.106450155 -0.014694385 0.32107386 0.015870525 -0.014946337 0.28079012 0.047245532 -0.16380638 0.06647635 -0.29385272 0.23400278 0.37600857 0.07995208 0.009275265 0.10970531 -0.031843316 -0.30459175 0.2583872 -0.09296043 0.12360008 -0.0007518428 0.029198704 -0.62277806 0.057756543 0.09531556 -0.23741531 0.07688349 0.22503413 0.4884165 -0.4545895 -0.08274869 0.19749844 -0.25098997 -0.107167184 -0.24573883 0.3660419 0.550022 -0.3795271 -0.20125754 -0.1173208 0.06410882 0.025382943 0.047194935
死 0.122919336 -0.0954779 -0.39501292 -0.15931933 -0.17516366 -0.20797138 -0.067092076 -0.122112215 -0.34354454 0.2737453 0.24539176 -0.04521318 0.15032364 0.102357395 -0.14087598 -0.21300234 -0.30460924 0.074738376 -0.004611131 -0.009172901 -0.012149723 0.35305613 0.23725434 -0.2510731 0.15356623 0.035397902 0.02935206 0.0061809192 0.08326937 -0.008055241 0.08908466 0.028598044 0.44369003 -0.24963777 -0.16798481 -0.151283 0.105360165 0.17246428 0.19158275 0.20363116 -0.12270963 0.135195 0.19798714 0.48044816 -0.091074556 0.019288447 -0.21885058 0.13147268 -0.19551177 0.37057894
然 0.48193458 -0.20681818 -0.024821315 -0.22304556 -0.0014629497 -0.12587927 -0.4405044 -0.01726769 -0.42568496 -0.1819016 0.30121008 0.09956607 -0.06013691 -0.13063753 0.29437634 0.3147805 -0.30200028 -0.04010232 -0.33160365 0.08512497 -0.3078026 -0.18466729 0.23996727 0.34489462 -0.0030414795 0.314116 0.055356964 -0.16769841 0.22764623 0.21065766 0.051339265 -0.023923978 0.047111202 -0.10822418 0.28631297 -0.08890949 -0.30089894 0.27735078 0.045800686 0.43470493 -0.0009786958 -0.19701737 0.18036433 0.42326745 0.3528233 -0.24665503 -0.059931703 0.16359273 -0.2498853 0.0506695
《 -0.19103803 0.19516124 -0.33160892 -0.18068801 -0.1846585 -0.3205867 0.13147473 0.0952656 -0.25023896 0.37416244 -0.13278338 0.13870956 0.23636885 -0.04604075 0.43001607 0.036001135 0.30520317 -0.08756927 0.06374928 0.18776645 0.5495918 -0.19287087 -0.42919782 0.12197594 0.08373454 0.4444754 -0.05119622 -0.22595134 -0.19499198 0.16987379 -0.10202777 0.60275346 -0.21423113 -0.23266488 0.04204309 -0.0037244454 -0.08080733 0.20323305 0.027374608 0.081088975 -0.03412017 0.030628346 0.12383026 0.5144404 0.06099272 0.18737547 0.33476296 -0.024566257 -0.3060162 0.060629696
》 -0.13590671 0.13203083 -0.2308994 -0.3644294 -0.28797212 -0.26769975 0.000931837 -0.14173508 -0.38095793 0.34773728 -0.24144691 0.11113492 0.07180081 -0.037206158 0.3951668 -0.029195687 0.15907948 -0.20031697 0.06642017 0.17262271 0.5893889 -0.16700676 -0.40323716 -0.08043182 0.12952675 0.3269855 -0.086491294 -0.025837116 -0.32218188 0.0799919 0.019225415 0.5468819 -0.1618525 -0.42115536 -0.13032328 -0.110629775 -0.023255775 0.13046344 -0.21010809 0.051445078 0.095101684 -0.1728446 0.22183172 0.5411214 2.405745e-05 -0.009200857 0.18268652 0.18977302 -0.25153524 -0.041021526
由 0.47011876 0.6664165 -0.04817608 0.26384616 -0.19297585 -0.08847297 -0.3359532 -0.11448742 0.42864808 0.030729422 0.28778252 0.20674647 0.028507546 0.1799259 0.2006222 0.17703494 -0.13190521 -0.19981016 -0.14459907 0.21560195 0.07104767 0.5599449 -0.14915764 0.12569338 0.048808735 0.50068563 -0.059953257 -0.43545517 0.11014289 0.19105867 0.11523085 -0.21865675 -0.12292337 -0.09586574 -0.037255537 0.06411779 -0.14502308 -0.176259 -0.29742956 -0.27930343 0.13214755 0.032824293 -0.026146796 0.35093704 -0.19392702 -0.044736944 0.17731328 0.172626 -0.12889072 -0.13701196
仲 0.14818448 0.27576184 0.20798485 -0.08330209 -0.32826796 -0.30079582 -0.009347577 -0.0436123 -0.3959653 -0.10608008 -0.39380231 -0.037068807 0.17622934 0.057808075 0.09000194 -0.35929564 -0.06457244 -0.16449817 -0.029571373 0.35237002 0.22926743 0.25850165 0.315899 0.47670487 -0.1591877 0.44936112 0.28782785 -0.24309686 0.07100402 0.03961766 0.23446922 0.112727545 0.29991433 0.052743725 0.13681714 0.39312828 0.31413987 -0.03372013 0.20124173 0.17539369 0.48786846 -0.29760757 0.23054442 0.43958035 -0.20697 -0.14208955 -0.21897548 -0.07869859 0.3321094 0.08146858
非 0.20983094 0.2915196 -0.009716077 -0.29311267 0.08630712 0.3979745 0.2988217 -0.24412043 -0.047659844 -0.29347458 0.44717923 -0.2568061 0.16417488 0.2487073 0.2813995 -0.12701741 0.14677061 -0.028322577 -0.42978978 -0.31967697 0.22280721 0.17038058 0.035630617 -0.030911678 0.22498038 0.028130895 0.22678636 -0.2904258 0.06044661 0.26597393 0.24816658 -0.026051562 0.10843751 0.57783777 -0.44633636 -0.18236288 0.046323147 0.07306128 0.18874238 -0.34179777 -0.6231571 -0.1978615 0.20638661 0.52953714 0.17024201 -0.009613106 0.33849105 -0.29066104 -0.15147209 -0.06537103
出 0.09990085 0.20603453 0.08631214 0.14619982 0.17368154 0.10884672 0.43387538 -0.24273996 -0.27836752 0.34534946 0.2325021 0.24950165 -0.09642543 0.1751859 -0.2769449 -0.07800285 0.12764409 0.22623414 0.023454327 -0.0733388 -0.06601619 0.015286054 0.2153036 -0.082158625 0.09365455 0.1025489 -0.19353442 -0.16407661 0.094278 0.035833273 -0.14752702 -0.16046613 -0.15466107 -0.34757012 -0.2811498 -0.2587898 -0.07117698 -0.038552076 -0.14534818 -0.12082908 0.009655128 0.11580841 -0.08277439 0.52374494 0.4870137 0.2337595 -0.2671013 -0.16224977 -0.15145682 0.3068276
过 -0.2050239 0.10141133 -0.48301375 0.038714446 0.41027504 -0.039345533 -0.1676611 0.0063369717 0.031127706 -0.016510453 -0.19101325 0.073910944 -0.056841936 -0.01828101 -0.17626898 0.19369921 0.29649627 -0.15643433 -0.111837745 -0.35835853 -0.25974947 -0.03283753 0.4586922 -0.120044954 0.1276569 0.061406888 -0.064656466 0.04043132 0.11999307 0.3672625 0.122228436 0.010588093 -0.1103397 0.109514944 -0.27492452 -0.10400252 -0.114924915 0.13464467 0.0046206 0.042888016 -0.065066375 0.06529999 -0.131863 0.46142405 0.31264952 0.1402015 -0.23323755 0.050289262 -0.3191273 -0.06896253
一 0.36065578 -0.69884515 0.04853098 0.06870478 -0.050067406 -0.358079 0.11204121 -0.047450647 -0.0472846 0.032587957 0.22049208 0.11605447 0.23542206 -0.43335798 0.016566975 -0.032035887 0.23726217 0.012613114 -0.3345042 -0.08513963 0.4773084 -0.11356754 0.3260611 -0.32830542 0.23157609 0.055984203 0.30006617 -0.06445586 -0.26779613 0.39383295 0.12614219 0.43375 0.31390175 0.18476945 0.08859222 -0.28417838 0.22433439 -0.13450839 -0.27995932 -0.06461511 -0.17151204 -0.13766572 0.19208497 0.5215099 0.07114252 0.46694094 -0.16776091 -0.33509052 0.29560274 0.08082702
虽 0.17622304 0.016550837 -0.19786602 -0.20595421 -0.020003647 0.054806296 -0.19547756 0.3188836 0.32557586 0.011818945 -0.4984378 0.03796437 0.302143 0.07838723 -0.4470657 0.062048018 -0.184393 -0.19762497 0.098654345 -0.06760364 0.3107595 -0.1433687 0.15640028 0.064871795 0.26145273 -0.3379009 0.2326341 -0.43120393 0.09895843 0.017643007 0.08656259 0.12132991 0.123803236 0.5830126 0.2651805 -0.023028273 -0.033245917 -0.17303006 0.37873095 -0.018375637 0.26089504 -0.052991815 0.007364855 0.6574568 -0.05591766 0.13292362 0.06677856 -0.29288968 0.13874996 0.16269518
足 -0.17026177 -0.27093697 0.26329514 0.3351033 0.018030776 -0.079565786 -0.03748366 0.33622292 0.1499399 0.20904213 -0.08889877 -0.07435516 0.29649234 -0.10466499 0.371912 -0.16293141 0.025714999 -0.50108975 0.22586319 -0.20591865 -0.07235294 -0.2163738 -0.23945214 -0.40862915 0.23812293 0.08926529 0.06546473 -0.13337278 -0.12542544 -0.2939891 0.32028353 -0.21386667 -0.14111374 0.036041886 -0.4912614 0.046389464 -0.34765518 -0.117940255 0.003378859 -0.23339622 -0.1244834 0.12408383 0.049589332 0.4761142 -0.3847072 -0.23188049 -0.5065649 -0.35905647 -0.24204025 -0.1030979
居 0.083100855 -0.42665938 0.30666217 -0.11708929 0.022137947 0.18510655 -0.27162123 0.106304765 -0.10998493 -0.535861 -0.4366952 -0.05142555 -0.04300768 -0.026722861 -0.022724625 0.016832892 0.2295649 -0.11680166 -0.028981524 0.24404788 -0.10190914 0.0034192798 -0.08165561 0.010452327 0.06222059 -0.062242165 0.5886126 -0.22439817 -0.10597387 -0.111723945 0.1461771 0.2476861 -0.1266857 0.15471506 0.15710314 0.33034053 0.06811667 -0.3009546 -0.21600673 -0.23478904 -0.04798318 -0.065820694 -0.031251542 0.57236654 -0.170367 0.021929275 0.24362782 -0.010953698 0.17751813 -0.08122412
尔 -0.029419372 0.09750702 -0.1265263 0.0007574001 0.13371159 0.31808552 -0.31023553 0.08036655 -0.2148332 0.057285443 -0.0675677 0.18583302 0.13993241 0.035587728 -0.040382244 0.07932236 0.07129492 -0.05188355 -0.11550175 -0.06666655 0.25028446 0.08639532 -0.21204424 -0.047232497 0.10638614 0.35393715 0.23259038 0.4118549 0.039292086 0.7365961 0.043965396 -0.26401758 -0.6937822 0.36904192 -0.20336576 -0.16540436 0.1022411 -0.09259952 0.14916208 -0.13455632 -0.13820276 -0.36012942 -0.15828912 0.41126743 0.23233327 0.082339264 0.23638436 0.25513276 0.6022542 -0.31663457
夏 0.34341002 0.106581286 -0.58366054 -0.17902859 0.10105041 -0.20511733 0.62717044 -0.2161741 0.04893151 0.24366361 -0.46674758 -0.2349138 -0.04791018 -0.07071892 0.008390374 0.23218067 0.14918976 -0.2669437 0.4069291 -0.36016932 -0.096472815 0.060009155 -0.10613942 -0.036201824 -0.14911313 0.35653266 0.0552572 0.018548695 -0.43259016 -0.116543815 0.34185514 -0.00059758674 0.2351454 -0.027095526 -0.043726385 0.07834433 -0.29710823 0.07231885 0.112582505 0.120340504 0.11947865 -0.61493874 -0.06254159 0.4059884 -0.13316368 0.33606648 -0.20103307 -0.140304 0.2219373 -0.024133656
父 0.21964009 -0.27959943 0.3495033 0.14014183 0.6567574 0.019533547 0.2732837 0.008623442 -0.19797479 0.14967662 -0.19503343 -0.109970555 0.20905627 0.11679452 -0.29558912 0.20583278 -0.12245644 -0.35560098 0.1661577 0.29285243 -0.08446685 0.056381382 -0.05516236 -0.277165 0.19681406 0.34096074 -0.1812945 -0.07231112 -0.26925668 0.08128707 0.28774273 0.07057665 0.25555402 -0.4431001 0.37854576 0.08735045 -0.19851045 0.09553273 0.15743595 0.28596157 -0.06983793 0.3784145 -0.07673182 0.38230798 -0.26190355 0.14010237 0.070929125 0.11524567 -0.29457495 -0.6627152
及 -0.09765626 0.093291655 -0.01197015 -0.2326217 0.1379634 0.048972026 0.2618745 -0.020092286 -0.39459786 -0.09344485 -0.45158145 0.2804947 -0.24509461 0.07579999 -0.12484549 -0.08582324 0.35994712 -0.4675398 0.13620712 -0.095318474 -0.2959391 0.4846713 0.04703328 -0.032730434 0.29001763 -0.08000675 -0.016276669 0.017605834 -0.0493193 0.26974964 0.36147055 -0.12779078 0.44334096 0.097065456 0.42985573 -0.20787673 -0.1355326 0.19394612 0.16726364 0.3223912 -0.5153235 0.12521209 -0.00015214941 0.50322205 0.19964229 0.49214944 -0.10887057 -0.3048325 -5.0321494e-05 -0.21975073
己 -0.11708038 -0.075875945 -0.29478255 0.13279046 -0.33171624 0.07711604 0.18877581 -0.08288672 0.29354274 -0.1904336 0.24200284 0.061452795 -0.3869109 -0.10447617 0.36198542 0.09095368 0.13908298 -0.27266088 0.17672724 -0.12489651 -0.03269275 0.07794931 0.24486548 -0.051922683 0.18081589 0.062406383 -0.2821357 0.072648555 -0.14044808 0.13763487 0.25173393 0.45005438 -0.56570125 0.14743698 0.12615603 0.12216663 0.0076398943 -0.21859106 -0.5072347 -0.06856648 0.14769572 -0.1221683 0.40986204 0.50183356 -0.057659294 -0.23499928 -0.50331366 -0.27219063 -0.12837882 0.089394934
予 0.0010993689 -0.2855837 -0.10699597 0.056682333 -0.28526074 1.4360188e-05 0.54217035 -0.034862302 -0.5411664 -0.07003586 -0.03301533 -0.22921224 0.42136604 0.017911509 0.09771072 -0.08153638 -0.1704193 -0.16006804 -0.5720836 -0.27628022 0.048978373 0.107371494 -9.828352e-05 -0.30080178 0.10366586 0.31975147 -0.20846742 -0.0148307625 -0.24102743 0.2055939 0.17987794 0.2025214 -0.13567342 -0.14956307 -0.13044171 -0.33359453 0.058042664 -0.26569194 -0.32229102 0.19791654 -0.34523803 0.46106905 0.18054265 0.42880672 0.02278781 -0.091504216 -0.2862332 -0.005644322 -0.089859456 -0.29324242
色 -0.0298185 -0.33958793 -0.24591586 -0.14626606 0.11782446 -0.13256755 -0.34496668 0.12518749 0.0149614755 0.5702872 -0.35707688 0.032944378 -0.48885378 0.12149465 0.1812166 -0.04097956 0.1470588 -0.10374361 0.16874248 -0.19393368 -0.04408105 -0.24962705 -0.11868748 -0.31962353 0.19390917 0.01864323 0.017309994 -0.42628458 0.06024815 0.085502654 0.102105826 -0.46178752 0.27343145 -0.0203291 -0.059179913 0.42934415 -0.03717049 0.022244357 -0.3013913 -0.5851668 -0.4623394 0.14230868 -0.09415356 0.51974654 -0.06019817 0.03881344 0.25094914 -0.19381803 -0.30897298 -0.19720249
友 0.06285316 0.30972815 0.01684332 0.063595995 0.19526649 0.75205773 0.07695186 -0.044267073 0.17361219 0.663977 0.05634329 -0.055590007 0.23274778 -0.106339864 0.13036701 0.037534174 -0.25228608 0.13965812 0.22826527 0.64454055 0.3229903 0.12442334 -0.6422622 -0.21072707 0.19142532 0.14147787 -0.3097263 -0.0013952715 -0.07492286 -0.44694844 -0.06687255 -0.10332899 0.32154834 -0.066796035 -0.0792098 0.6701494 0.11355664 -0.34502828 -0.37587553 -0.20856735 0.3851321 -0.47332877 0.25458992 0.60774297 0.08951879 -0.011293848 -0.0840273 0.2422282 -0.25960168 0.13306332
成 0.30359462 0.1364417 0.35223487 -0.013201171 0.16697739 -0.19583249 -0.15322308 0.31513965 0.47945124 -0.40366572 0.07440786 0.22140403 -0.09061494 -0.021627018 -0.16130626 -0.010542882 -0.12223035 0.034566924 0.15388997 -0.18134288 0.20636132 -0.07324365 0.11364914 -0.06557125 0.109382324 0.083382934 0.12547816 -0.06776368 -0.1282247 -0.009742761 0.3255593 0.09938689 0.43334737 -0.4490779 0.17450812 -0.017687447 -0.0064755566 0.29959983 -0.20044543 -0.04845787 0.031192832 0.21252067 0.5504396 0.49319133 0.03466603 0.11543479 -0.07509369 0.22794814 -0.30020303 0.34545064
远 0.334925 -0.13192806 0.04201637 0.15565076 0.45499143 0.14030203 -0.07691152 -0.24191809 -0.011606142 -0.14865184 -0.18843381 0.22240214 -0.3153522 0.17531508 -0.1024408 0.4283827 -0.06625267 0.15954219 0.5644375 -0.18633358 -0.111767985 -0.2144495 -0.20176941 -0.05965102 0.0460146 0.19925472 -0.12480185 0.02994403 -0.5191394 -0.021538422 0.10165514 -0.20387611 -0.26382393 -0.39287162 -0.11216057 -0.0020815616 -0.3240987 -0.23243801 0.10606427 -0.29494467 -0.08516476 -0.38004184 0.15920593 0.45869663 -0.6741999 0.08717356 0.22053875 -0.25718176 0.546938 0.13082704
上 -0.21946767 0.04525278 -0.23666143 0.16304564 -0.36033165 0.36253566 0.162846 -0.1147715 0.15779993 0.15104762 -0.2551856 0.08341906 0.07165534 0.19915012 0.102848455 -0.19967009 0.21078625 0.2243282 0.011532602 -0.25615075 0.3155357 0.41027364 0.31096318 -0.0774432 0.28831542 -0.014202533 0.31954616 0.28526348 -0.14204416 -0.55620545 0.101775825 0.024915366 0.08875216 0.13109818 0.6225476 -0.100738205 -0.44783396 -0.24844475 -0.5078452 -0.24186613 -0.18764576 -0.36206645 -0.05347693 0.5754917 -0.1422614 -0.38741165 0.19552031 0.06691526 0.4311038 -0.2497651
立 -0.011178684 -0.0350114 -0.41561797 0.045082767 -0.25944528 0.18993594 -0.23712108 -0.0142878285 -0.1123885 -0.09161368 0.05317187 0.14996319 0.08895487 0.115027666 0.13030845 -0.33463413 0.3933335 0.0025390233 0.27829108 -0.4518742 0.5152872 0.23959523 -0.07560581 -0.42374656 0.37933072 -0.19132206 0.04654812 -0.5271232 -0.40307254 -0.028576786 0.022463575 0.46333623 0.030271154 0.011348951 -0.09462477 -0.29742387 -0.044735093 0.011610018 0.08231277 -0.11776831 0.63360214 0.17227735 0.48410606 0.6880734 0.089072905 0.13540381 -0.43739298 0.06518683 0.059784945 -0.34262732
今 -0.14676328 0.16197148 -0.39697933 0.24170677 0.15436593 -0.10102496 -0.21484007 0.26503173 0.16631879 -0.104041636 0.30984414 0.40285462 -0.21026443 0.6064546 0.2140679 -0.19317481 -0.2093142 0.15218428 -0.07122804 0.10651494 -0.24516502 0.13781583 0.037757687 0.26833388 0.13578618 0.19737379 -0.5294388 0.37755704 0.07896023 0.13596454 -0.122989334 0.23375177 -0.095100895 0.023875061 0.37064335 0.03812664 0.15635507 -0.046822995 -0.17530125 -0.25506666 -0.0009708904 0.031412274 -0.016933402 0.4736723 0.15057603 -0.10179798 -0.028326327 0.17666754 -0.035430606 0.006622441
张 0.045713075 0.09712649 -0.5729037 0.43188182 -0.051741417 0.15073119 0.04056864 0.054307066 -0.11353809 0.048899155 0.035545103 0.07900166 -0.07460372 0.2698003 -0.14238913 0.32072845 0.014801975 -0.0029748436 0.34944752 0.15600327 0.059388924 -0.15928674 -0.593401 -0.07124269 -0.325119 0.4101885 0.2511789 -0.2970965 -0.11771368 -0.06189567 0.2050258 0.09203758 0.0276907 0.31560555 -0.1570509 0.062189516 -0.24252589 0.30927017 -0.03999149 0.14385329 0.16128212 0.076683946 -0.23434603 0.53075397 -0.050695445 0.06974953 0.19368534 -0.4802644 0.32009053 0.021259049
中 0.061173584 -0.0127534075 -0.07282096 0.2660777 -0.1610336 0.42412868 0.28994542 -0.44638056 0.08237861 0.31224504 -0.18211414 -0.069987245 0.51191634 0.36373052 0.07108559 0.24038094 0.08079307 -0.06882252 0.14239311 -0.03827032 -0.023576962 0.34331745 0.553705 0.013052698 0.31298405 -0.11023718 -0.15495288 -0.35942084 0.24586841 -0.03392215 0.046737462 0.49768254 0.04466133 -0.060614295 -0.27758652 0.274807 -0.10920921 0.09656728 -0.11076511 0.09433407 0.25405014 -0.088644855 -0.4594302 0.6444907 -0.77176654 0.058011852 0.53721005 -0.06870792 0.018755041 0.012345909
季 -0.0028661357 0.20660897 -0.12085038 0.12449971 -0.09384363 -0.11221927 -0.04941731 -0.072581194 -0.25385234 0.5806063 -0.40919024 -0.19912036 -0.002148837 0.0021939904 -0.3694544 -0.210505 -0.19994676 0.23256342 0.06107685 0.22395083 -0.42203608 0.07935805 0.08346572 -0.030925406 -0.24740103 0.22296368 -0.30301362 -0.68062943 -0.4356853 -0.1503475 0.1830505 0.28421736 0.15679036 0.10475866 0.4250536 -0.06892219 0.16498287 -0.047794227 0.33209893 0.38336155 -0.19130978 -0.101576865 -0.28744727 0.5031362 -0.13693671 -0.16977291 -0.36445555 -0.3079189 0.50030833 0.16106299
臣 0.22732544 0.25023052 0.16294837 -0.11489208 -0.06322341 -0.12517107 0.30058005 0.13146193 -0.1012074 -0.15900882 -0.21019295 -0.2123042 0.45209527 0.5211383 -0.019125247 0.13388875 -0.12096255 -0.49603605 0.07219289 0.49906003 -0.22051553 0.08457657 0.23354298 -0.44589877 0.17677127 0.100435436 -0.45552918 -0.1405799 0.07411666 -0.24776532 0.41094172 0.3396232 0.048625197 -0.14219165 0.09856135 0.0075331377 -0.16129458 0.05186036 -0.26160076 0.29964882 -0.27159852 0.15319449 0.21827999 0.45276147 -0.09859261 -0.14969368 -0.20602341 0.402148 0.2181882 -0.558622
贤 0.080237575 -0.23726542 -0.09583935 0.3547206 0.43328938 0.0831626 0.16889772 -0.30533925 -0.11916721 0.17598598 -0.1604474 -0.09605213 -0.203958 0.13736412 0.32841846 -0.13801841 0.037702724 -0.17377596 0.18953018 -0.32111248 -0.12666135 0.014628915 -0.3860731 0.2914273 0.06605442 0.1531825 0.17793447 -0.32679093 0.16946231 0.14018255 0.28915253 -0.16856064 0.25726917 -0.026962956 0.08142004 0.31506076 0.03234741 0.036717232 0.40517467 0.016020086 0.3147216 0.03548807 -0.1622854 0.4453613 0.5132551 -0.27308136 -0.4871698 -0.16324908 -0.014182596 0.2101832
思 0.4195381 -0.09602262 -0.17624053 -0.16173498 -0.1581908 -0.3113008 -0.35795882 -0.21002348 -0.4260677 0.25950623 -0.35985428 0.14500763 -0.29091376 0.23169065 -0.46385255 0.22000347 -0.012961029 0.13499725 0.01935378 0.16676915 -0.35970205 -0.28471795 -0.039331574 -0.18342437 0.087895274 0.032623727 0.00910644 0.24563241 -0.48512152 0.2930684 0.13466766 0.13197705 -0.17767999 0.6385357 -0.16149293 0.4880285 -0.27778924 -0.049594484 0.119223185 0.33965477 -0.10801198 -0.04606328 0.12613285 0.5427797 0.020396529 -0.38751432 0.15249273 0.07399617 -0.5096204 -0.059974775
齐 0.3624292 0.021723904 0.48461825 0.26470557 0.32896838 -0.2895626 -0.18189166 0.3813857 0.107709005 0.22689049 -0.32467684 0.023499966 -0.32717055 0.43757743 -0.03688041 -0.20843993 0.12954332 -0.28194812 0.06343315 -0.102774985 0.080171674 -0.37192735 -0.065508224 0.29193306 0.036128554 0.045382235 0.38202363 -0.6484249 -0.25873107 -0.042648584 0.14224537 0.39537674 -0.20331123 0.22280072 -0.18094225 -0.21415259 0.022106979 0.013387804 0.045694895 0.21135859 0.2986371 0.4698197 0.0901438 0.62137085 0.01157246 -0.077998996 0.22108842 -0.21286447 0.4483112 0.22591384
义 0.038335312 0.10060776 -0.091751024 -0.26735848 -0.331727 -0.24714845 0.28535303 0.0800825 -0.27806357 -0.0014246042 -0.10061681 -0.06653819 -0.42096156 0.22874789 -0.1159581 -0.05071227 0.03125713 0.29813284 -0.13889936 0.099153474 -0.3520342 0.083026096 0.24212164 0.07484323 0.21716045 -0.10771614 0.1850811 0.08844941 0.1719837 0.15264042 0.30824143 0.0679647 0.16028598 0.234585 0.068565 0.099801704 -0.3821101 0.37048194 -0.1538026 -0.11131753 -0.12162443 -0.22839524 0.025708217 0.51808035 -0.27618974 -0.16134319 -0.033664744 0.09726919 -0.18749943 -0.8848787
正 0.18258743 0.07904335 0.05547485 0.010988959 -0.28649834 0.26977736 -0.37532935 -0.09264611 0.013745572 0.62798834 -0.048899 0.23695727 -0.0996059 0.016468095 -0.06589755 -0.12313666 0.2228767 -0.09064771 -0.40123916 -0.4703904 0.46751815 -0.20964931 0.28683755 0.12497717 0.3048027 0.14102891 -0.07341748 -0.15883088 -0.72560817 -0.19961989 0.3718629 -0.12516776 -0.20327955 -0.3270323 0.17819105 0.16737479 -0.10164113 -0.3447459 0.35944328 0.01878074 0.289388 0.50885534 0.30344093 0.36569104 -0.35559097 -0.030240953 0.31414682 -0.48843706 0.22951417 -0.14488046
命 0.2995478 0.23609053 -0.5134655 0.17419219 -0.45321476 -0.65192825 0.48913062 0.036134444 -0.03695827 0.026677052 0.0024074693 -0.05016712 0.011218381 -0.06845541 -0.050257675 -0.36577335 0.31168455 0.30876008 -0.13935599 -0.27943483 -0.26209998 -0.23887137 0.029510915 -0.4209692 0.16197775 -0.097497284 0.04427012 0.37555927 0.1378559 -0.16226491 0.31528044 0.03310578 0.10379816 0.09752818 0.10887197 0.16026083 0.19104186 0.425888 -0.3894363 0.047962774 0.0077797966 0.48922616 -0.25549877 0.5174024 0.13651858 -0.04695266 -0.083268546 0.39866304 0.37368903 0.3105266
曾 0.3602131 0.05754606 0.017571196 0.087584175 0.084947504 -0.3184299 0.19420025 0.09440914 0.1619122 0.009326411 0.33161703 0.09411416 0.04027723 -0.13956363 -0.27507833 0.26072136 0.39618686 0.095220305 0.24056065 -0.07361057 0.044515222 0.023344936 0.42320848 -0.46993902 -0.12114504 0.37577534 -0.15321183 -0.080874465 0.35323408 -0.20276655 0.24156378 0.18422079 -0.072617896 0.2354324 0.55404276 -0.1843679 -0.13588318 -0.24477607 -0.21493433 -0.4800554 -0.07391382 -0.029304564 -0.24246709 0.43049863 0.101027794 -0.1534952 0.076845475 -0.47262716 -0.26169056 0.091037944
伯 -0.4510172 -0.07651633 0.27595255 0.14005272 0.20702393 -0.23912847 0.49119532 0.09952116 -0.20640752 0.19801751 -0.174243 -0.014389062 -0.15832603 0.112308316 -0.277254 -0.23153925 0.01025124 0.07146762 0.16863424 0.38002446 0.24626814 -0.20507291 0.26951194 0.21668851 -0.13696551 0.45600036 0.113994166 0.09259412 -0.0013750665 -0.35164648 0.21114385 0.18725514 0.26753438 -0.21528237 0.024970483 -0.20691557 0.5025311 0.053766094 -0.44929236 0.45391098 0.24249831 0.23584756 0.025386445 0.49271622 -0.36178213 -0.1182536 -0.10299597 0.26434398 0.20537746 0.22484617
门 0.2047343 0.31992343 -0.64913994 -0.26544258 -0.05168838 0.04963107 0.5973302 -0.09866638 0.22292197 0.04778341 0.026459767 -0.25924218 -0.1991857 0.53259045 -0.6211907 -0.20063268 0.20018078 -0.17295574 0.365851 -0.27114567 -0.37410206 0.08268759 0.5296063 -0.07682866 0.06355668 0.0823056 -0.2192233 -0.49997753 -0.008887902 0.15811716 0.5073362 -0.28042284 -0.025419226 -0.08127092 -0.0025541831 -0.3839494 0.46752116 0.39654472 0.033863734 0.56308216 0.00990472 0.060460355 0.12915434 0.5075439 -0.29279232 0.28797472 -0.27738386 0.42674232 -0.0663506 0.112321354
敢 -0.1324081 0.6808525 0.17397119 0.26130453 -0.3122721 0.39014804 -0.1194081 -0.20164314 -0.3014629 0.1482761 0.32198107 -0.3819455 0.16403018 0.36563262 -0.14279956 -0.035189394 -0.51142365 0.22016998 -0.25034246 -0.10449858 -0.14387074 -0.09297018 0.24564897 0.48227558 0.20491952 0.26115328 -0.12396275 -0.039308272 -0.015354958 0.112615876 0.07940314 -0.13217449 0.3856627 0.13028365 0.22114277 -0.069629945 -0.5160931 -0.1150183 0.033369433 -0.08973206 -0.39334846 0.21376707 0.30554256 0.47088882 -0.3602723 -0.312889 -0.19817644 -0.17431676 -0.20134121 0.19842237
犹 -0.49814463 -0.21501607 0.23455362 0.19235745 -0.14295237 -0.050596833 0.3250358 -0.10431754 -0.5363706 0.3718949 0.0072250916 0.216069 -0.14142822 0.3158066 -0.023009712 -0.27315003 0.039764736 -0.6737353 0.25577974 -0.17358351 0.06586054 0.20398507 0.21757835 0.3642392 0.21128318 0.12855728 -0.37560278 -0.029318437 -0.49694684 0.2750522 0.27129978 0.05787629 -0.27163276 0.081099115 0.12919627 -0.050185166 0.018139068 0.2806442 0.23282231 0.16427246 -0.27085826 0.05175967 -0.1704038 0.5317711 0.4144239 0.117400326 -0.3513375 -0.08337726 -0.16622038 0.26225412
生 -0.3829833 -0.27312452 -0.21290384 -0.4043365 -0.00089815597 -0.17169112 0.12407296 0.17430197 -0.2979159 0.011071681 0.02210104 0.10874699 0.04965516 0.024177507 0.3651711 -0.01862349 -0.26547587 0.12733798 -0.20442386 -0.37509304 -0.04098324 0.36142632 -0.26000106 -0.47631723 0.20393439 0.26345497 0.18938366 0.14050648 0.19347228 0.031245746 0.12519525 -0.05668369 0.3609765 0.18837205 0.035585713 -0.25087303 0.2564685 0.07844773 0.30782604 -0.34262383 -0.0064287893 0.25456727 0.36377445 0.4175498 -0.32664213 -0.32036617 -0.24337335 0.04726787 0.005474737 0.1849275
日 0.49791276 0.032467376 -0.10258398 -0.088465974 -0.04377329 0.077429675 -0.10968996 -0.36174935 -0.3154241 0.43181035 0.04906872 -0.027074689 -0.19726019 -0.19767141 0.18628037 -0.18391767 0.07038458 -0.15780702 0.2603239 -0.018561777 -0.020680608 0.18284361 0.40459743 -0.22363846 0.13352048 0.02109487 0.15488356 0.2496487 -0.19326304 0.35620224 -0.016363865 0.14385065 -0.08301484 0.09935148 -0.22386776 0.04269183 -0.124815404 -0.2497089 0.008461711 -0.07710951 0.19796628 -0.34274575 0.017293418 0.5173678 -0.059697982 0.37873906 -0.5198272 -0.27433115 -0.25429115 0.2390915
敬 0.30978644 0.28172874 -0.3162116 -0.24156454 -0.65225035 -0.036351353 -0.08151243 -0.07264706 -0.21684279 -0.26524866 -0.28264052 -0.01884414 0.047442354 0.20172204 -0.19598189 0.19644661 -0.27700466 0.25703022 0.5458709 0.16337813 -0.388297 -0.2741758 0.32127598 0.22363351 0.22642474 -0.21102864 -0.35274005 -0.050790366 -0.10245864 -0.32265463 0.34993723 0.09274247 0.22984587 0.34654635 0.18595262 -0.011213332 0.15691082 -0.31805924 -0.20115373 -0.16794862 0.062877595 -0.35595813 0.08265359 0.5259483 -0.3921734 -0.17958985 0.015672509 0.16475841 -0.03173947 -0.33122462
难 0.4074299 -0.2988894 -0.26763508 0.15290572 0.24579507 -0.059302837 -0.5527154 0.3887859 -0.06013261 -0.49645424 0.016686624 -0.105674855 -0.2866251 -0.0976802 -0.021193529 0.29505822 -0.41635528 0.10769498 0.012417181 -0.25328976 -0.044833623 0.0126342 0.25678104 -0.14916295 0.013281376 0.3005231 -0.45488456 -0.03999237 0.007988676 -0.19096753 0.20986111 -0.0022701293 0.37297347 0.037013784 0.12765582 0.25884634 -0.3341221 0.12926471 -0.1542551 0.24834989 0.11701439 -0.31698075 -0.27932042 0.422776 -0.18050899 -0.0395902 -0.28812885 -0.06224121 -0.46927318 -0.08417418
直 -0.5470074 0.05982314 0.40081587 0.045431472 0.5406274 -0.089857854 0.50683266 -0.5824359 0.031217115 0.21520926 -0.09116006 0.13175067 -0.27268058 0.40510702 0.3964607 -0.32789877 -0.49358773 -0.008958315 0.3526013 -0.008509315 0.44863123 0.21938175 0.03625061 -0.21574631 0.3426613 0.17162079 0.15823153 0.10479921 0.107587546 0.016068984 0.33007646 -0.027673809 -0.00796787 -0.1195085 -0.14077437 0.17521337 -0.1667159 0.17242265 -0.1037704 -0.31290582 -0.31546348 0.0818552 -0.06396205 0.40036058 -0.046793427 0.0064567663 -0.24560164 0.51106924 -0.3726889 -0.21890087
丧 0.3455415 -0.17856383 0.16415611 0.022691429 -0.46976978 0.21470769 -0.33726305 0.13311413 -0.47234046 0.15276727 0.13914892 -0.13613266 0.17151354 -0.3907545 -0.027429324 0.18957083 0.11077639 -0.029611753 -0.030976262 0.56302935 -0.061935604 -0.031161394 -0.18132122 -0.13311015 0.14164968 0.060565397 -0.37313768 -0.02461754 -0.31863716 -0.17784645 0.40061918 0.33439818 0.08910675 -0.002368461 0.24242635 -0.24184941 0.019846145 -0.2684379 0.14798227 -0.18932417 -0.80220234 0.007016057 -0.35749552 0.42085993 -0.10507884 0.003747451 0.2703714 0.21505408 -0.048662756 -0.13179328
说 0.07139223 -0.3719717 0.11835879 -0.17180994 -0.057352576 0.28711224 -0.13652162 0.42797112 0.32602483 -0.27429694 0.24446756 -0.14097056 -0.08379607 0.09805621 -0.5522919 -0.0016034133 -0.32598916 0.014498767 0.11922259 -0.0796686 -0.39058805 -0.045408558 -0.34826034 0.0669553 0.19339791 0.15776525 -0.31393299 0.11884298 -0.19897573 0.42312118 0.43512303 -0.091627784 0.23744227 0.27665582 -0.46707448 0.06521224 -0.49013394 -0.11998507 0.022859927 0.014144281 -0.26743177 0.022580486 0.22111586 0.4255071 -0.08784167 0.48289835 -0.0045569036 0.08303475 -0.18338692 0.084758185
自 0.112802185 -0.21340764 -0.2940617 0.41734204 -0.28379208 0.5275813 0.25026235 0.19666022 0.016502593 0.2964789 0.48710012 -0.07372229 -0.09437891 -0.02120902 -0.22435682 0.15117472 0.047809258 0.2521914 0.29377013 -0.118678816 -0.21397373 -0.26526615 0.09723495 0.119695544 -0.020730311 0.025886092 0.3802507 -0.12705329 -0.33083916 0.11404961 0.09550879 0.042621642 0.14854576 -0.19117062 -0.17283505 -0.30643 -0.21778204 0.19214968 0.2433716 -0.11955233 -0.11771764 0.08425939 0.121568464 0.5943029 0.09577306 0.25066915 -0.21337868 0.25944623 0.15393342 0.6992379
用 0.13860914 0.47498158 -0.2464996 -0.17612146 -0.0016035021 0.072901025 -0.03116785 -0.068667404 0.17694347 0.34859255 -0.25911412 -0.272321 -0.05122549 -0.34394762 -0.18967433 -0.054959267 -0.08903269 0.292595 -0.025755886 0.1403621 0.11680311 0.41882202 0.5154607 0.07346893 0.09776375 0.068012446 0.25406626 0.1690429 0.33634654 0.48743927 0.1829035 -0.07721992 -0.2890763 -0.052564923 -0.29828107 0.17994966 -0.13837022 -0.3333347 0.45406702 -0.36935908 -0.18841879 0.03775846 0.12505832 0.41413462 -0.26028654 -0.048843168 -0.166628 -0.30357912 0.23990387 -0.09902787
周 0.11440534 -0.01604298 -0.058079615 -0.02432518 0.22514762 -0.22208118 0.34451237 -0.0046860836 0.26743364 0.18837334 -0.28391308 -0.018345157 0.08374293 0.13107511 -0.25223535 -0.16132379 -0.32517028 -0.21048772 0.07982074 -0.1685264 0.2532494 -0.2586813 -0.13595344 0.13392788 0.008555752 0.23684782 -0.014200243 -0.47039986 0.3870686 0.3625097 -0.02032297 0.22289945 0.096938305 -0.07372338 0.09225853 -0.1967857 -0.1527409 0.0768575 -0.35821262 0.34305787 0.1764898 -0.12986834 0.052194525 0.5373048 -0.21475053 0.06325028 -0.036618598 -0.136919 0.014025328 0.14114755
颜 -0.027356898 -0.05214075 -0.6590736 -0.013143225 0.064656526 -0.22957028 -0.23692352 -0.08925918 0.1262783 0.6046197 0.16038704 0.14151868 0.37954414 0.13516513 0.13940278 0.22074215 -0.19216934 0.32127023 -0.10035833 0.020541742 0.213909 0.3274539 0.7632699 -0.2208012 0.1647166 0.37961498 -0.05313644 -0.32620922 -0.1345673 0.052475683 0.18808891 -0.39918712 0.3510926 -0.08887472 -0.11055677 0.13818283 0.077112816 0.16949739 -0.1930708 -0.2756887 -0.52977365 0.4799765 0.16352034 0.32060203 0.33017826 0.22785215 -0.21486738 0.1212525 -0.018737247 0.05617147
年 0.10453111 -0.23471038 0.05143688 -0.04535205 0.26053056 -0.10953904 0.10625019 -0.13070963 -0.25713062 0.113285206 -0.32193747 0.18623671 -0.26829588 -0.3474574 0.090091646 -0.10859311 0.14619647 -0.07207662 -0.106779076 0.34085396 -0.1757579 0.015841806 -0.32084045 -0.05523983 0.18117496 0.28502995 -0.2556316 0.2604041 0.28472626 -0.10709241 0.051434036 -0.20225398 0.1071876 -0.39615613 -0.053903416 -0.68358713 -0.42917463 0.12253521 -0.40576553 -0.026477475 -0.4289117 0.13506919 0.36837816 0.46055168 -0.27284235 0.28846532 -0.13536422 0.07681569 0.03857142 -0.3684034
告 -0.33957192 0.37337893 0.4734281 -0.51084906 -0.13439754 0.12269532 -0.09742075 -0.3607795 -0.52552783 -0.14378099 -0.15393697 -0.27353522 0.059070345 -0.39552557 -0.6482249 0.27500787 -0.35397 -0.1622855 0.23450522 0.091624476 0.115279846 0.07398516 0.24362198 0.098848954 0.03768106 0.38482955 0.029582905 -0.15018332 -0.1746284 -0.3317183 0.021284156 0.3603894 -0.063299835 0.19320847 0.2566955 -0.27591595 -0.29194933 -0.2895121 0.28613245 -0.45075107 -0.13809484 0.30896097 0.59195036 0.5124309 0.31485265 0.33932313 0.30015492 -0.11391249 0.14750631 0.43872955
十 0.01321171 0.36913118 -0.22194174 0.058382303 0.08845403 -0.3587209 -0.04433288 0.2910555 -0.1386445 0.08838418 0.30547836 0.5083781 -0.36464983 -0.24970101 0.05584104 0.054054134 0.63779515 0.43973845 -0.23782367 0.22982876 -0.0269842 -0.1372755 -0.40855464 0.059283502 0.2935765 0.06626361 -0.03943532 0.24675366 -0.22569852 0.24006943 0.2855013 0.093665734 -0.15669885 0.392447 -0.30806842 -0.11261719 0.136611 -0.037525773 -0.3916212 -0.07281104 -0.33000135 0.367265 0.55521053 0.4285291 0.18202059 0.24664651 0.29106292 0.31444103 0.27433917 -0.025237978
怨 0.41518325 -0.25214857 -0.07668308 0.1655161 0.16385628 -0.12989147 0.27480474 -0.5358841 -0.2051134 -0.16740985 -0.14359878 0.11169945 0.2789869 -0.2155699 -0.12621267 0.43231612 -0.17948307 0.33078387 0.31325343 0.3489132 0.09881815 0.15621315 0.16176386 0.1278451 0.22621836 0.09546143 0.13347588 -0.5014763 0.050138675 0.24901521 0.39043707 -0.1942809 -0.5629408 -0.34497988 -0.09537629 0.45798388 -0.009554309 0.09454453 -0.35110506 -0.25303286 0.21065474 0.27396625 0.38865995 0.412411 -0.5976596 0.049101178 -0.19587381 0.22137669 -0.19793089 -0.30484456
达 -0.003603921 -0.100718096 -0.077515684 0.47214296 0.28105307 -0.018445322 0.38261822 -0.45614526 0.020274106 -0.06969647 0.0025741868 0.30616874 -0.2791333 -0.013141687 0.1987855 -0.21385333 0.26627445 0.06650711 0.0027403026 -0.039112907 0.383853 0.055436697 0.3344155 0.1972073 0.22719157 0.15809457 0.04580827 -0.2106889 0.09520118 -0.2380149 0.26477855 0.21148886 -0.12881315 0.594865 0.077436894 -0.073768206 -0.1931075 0.053337645 -0.17400348 -0.30422586 0.21177183 -0.40489933 0.20713054 0.4465043 0.11289067 -0.255728 0.02225826 0.3667768 0.121458024 -0.17434119
孝 -0.17126219 0.24115181 -0.09631753 -0.2351225 0.50868934 -0.054145787 -0.059711188 0.23388238 0.07047152 0.71171564 0.45469823 -0.22192726 -0.17987502 0.1748949 0.010733545 -0.21257468 -0.3614066 0.47519612 0.35474172 -0.024296362 0.057986733 -0.21630141 -0.45531654 0.067830555 0.009453671 0.51145035 -0.030168267 0.4901043 0.33758202 -0.3047304 0.18464105 0.07987464 0.05302546 0.04343123 0.205506 -0.31622344 0.346479 -0.45335868 0.1757848 -0.061167914 0.08205388 -0.41755006 -0.40802383 0.2930078 -0.29370487 -0.16162764 0.1702719 -0.007951868 -0.61005616 -0.3176385
弟 -0.10067459 -0.047620278 -0.43919086 -0.025025986 0.13966283 0.47871444 0.2881587 -0.058078595 0.19512406 0.56607753 0.19761676 0.15848951 0.11403521 0.39954755 -0.2717693 -0.07555103 0.010970252 0.13172162 -0.12852041 -0.53511804 0.05502353 -0.06304834 0.12601782 0.070385605 -0.043679226 0.38528678 -0.17769597 -0.12252054 -0.2274442 -0.52626455 -0.035898734 0.25590646 -0.046349693 -0.19713718 0.029995661 -0.26030144 0.14325356 -0.08328871 0.5017685 0.064987645 0.1742285 -0.23438944 -0.068731934 0.47763872 -0.76367086 -0.2519092 -0.061617516 0.045609653 -0.30718857 -0.50227064
至 0.15090548 0.35245413 0.26575482 0.3113607 0.2663448 -0.04611629 -0.19003175 -0.26127234 -0.44820514 0.10125105 0.19939734 0.24922343 -0.18600063 -0.5018499 0.018227866 -0.21731795 -0.10090825 0.3194931 -0.09944304 -0.15214609 0.10325422 0.5191427 0.15529664 -0.10184506 0.090575725 0.23135509 0.24669735 -0.015035888 0.30462784 0.04436549 0.056260705 -0.038542707 0.3727673 -0.32679054 -0.2814962 -0.4451217 -0.17487727 -0.022731079 0.21487881 0.065330006 -0.0065384884 -0.032931402 -0.3719545 0.46274182 -0.26946107 0.76094365 0.21827342 -0.18161215 0.5056646 0.08466218
先 0.14091958 -0.38659638 0.058532372 -0.28595454 -0.054667536 0.2798403 -0.2176388 -0.08779419 0.08331027 0.14647786 -0.1460018 -0.33180934 -0.21977726 0.26161635 0.18983051 0.41631964 0.018558279 0.09278271 -0.14586878 -0.17669004 -0.43707606 -0.12949802 -0.21297735 -0.52236193 0.16610363 0.0666779 -0.11279644 -0.49727383 0.53688985 -0.4603612 0.2799509 0.068394415 0.5140386 0.3424633 0.44550893 -0.1522798 0.04816773 -0.2041712 0.63358194 -0.4937115 -0.15997998 0.035460822 0.28790766 0.48911276 -0.012571956 -0.15195753 -0.1346888 -0.08201306 -0.10113868 0.31484285
师 0.13017322 -0.12238249 -0.14187415 0.32882524 0.33271644 0.038153917 0.18991138 -0.050625216 -0.061083153 -0.21708927 -0.03655175 -0.38286048 0.09192936 -0.18990377 0.15145615 -0.31695613 0.17178471 0.019721624 0.2404346 0.319592 -0.06526436 -0.13679329 -0.4801474 0.24131556 0.07311048 0.478875 0.07855983 -0.4102128 0.40100658 0.07153105 -0.08130587 -0.0277968 0.37493813 0.007336047 0.3078908 0.089753315 -0.28585178 0.33923298 -0.15162744 0.52329934 0.15901428 0.35937178 -0.15063386 0.4733623 0.27905926 -0.09774217 -0.17729974 -0.51358527 -0.037201542 0.061757807
女 0.0668974 0.4071668 -0.060323495 0.11922721 -0.26562476 -0.2979822 0.19122455 0.039245017 -0.07810522 -0.21624291 -0.06728002 -0.09791339 0.18151109 0.3384053 0.18081419 -0.36213654 -0.090234086 0.016067287 -0.59693325 -0.22591713 0.37820077 -0.075166345 -0.15517762 0.08891796 -0.052170325 0.37038782 0.14338024 -0.090506256 -0.40907478 -0.10605295 0.4895593 0.5995553 -0.2386273 -0.13292825 0.03852052 -0.15405992 -0.024932167 -0.38898972 -0.02760079 0.07674411 -0.32063478 -0.41183028 -0.7038791 0.33516115 -0.011034665 0.13304408 0.09658781 -0.028849902 0.18337934 -0.13547954
多 0.7175449 0.2791257 0.008215751 0.15592876 0.2240914 -0.14351341 -0.31119597 -0.14188223 0.5785136 0.13133757 -0.087596454 0.07501157 0.20301428 -0.013768421 0.13073866 0.46722078 0.121903904 0.01345007 0.09490569 0.10703713 -0.27381316 -0.11004306 -0.27279538 -0.12809764 0.12215473 -0.09731128 -0.21308406 0.032418855 -0.060571536 -0.042681977 0.4034282 0.43021348 0.84603983 -0.5609024 -0.23678236 0.026916713 0.2641005 -0.33309963 0.28332904 -0.038699497 0.26680386 -0.4480594 0.28475222 0.491891 0.024635157 0.3069417 -0.17721312 -0.1516515 -0.11572803 0.39365822
忠 0.118599504 -0.052991692 -0.108056255 -0.24114014 0.032096535 0.23505451 0.2263457 0.16669899 0.008876922 0.4448732 -0.24342673 -0.25416827 0.07921505 -0.24509975 -0.19476695 0.2743746 -0.19331492 0.41163772 0.84024686 0.078745335 0.09302828 -0.3150827 0.001779215 0.26440257 0.33906758 -0.015210786 -0.22768584 0.13173561 0.299083 -0.1184437 0.53871965 -0.05956266 -0.42762533 0.4690525 0.10444307 0.6821601 -0.16295417 -0.21385057 0.0012005939 -0.20055576 0.21399462 -0.46127674 -0.011006517 0.3674239 0.27970505 -0.16506514 -0.033398572 -0.17307253 -0.4950541 -0.52102965
四 -0.058256958 0.26739815 -0.30667636 0.21499567 0.19403814 0.22419432 0.19802149 -0.014961137 -0.06386496 0.08998455 0.06927536 -0.01986676 -0.17238773 0.17062646 0.49100658 0.36362568 0.84213185 -0.0065024355 0.5819471 0.009359175 -0.2098638 -0.47643268 0.16975477 0.18668626 0.32698506 0.04162998 -0.19650714 0.1008423 0.08710452 -0.18792018 0.20623736 0.15677927 -0.2511466 -0.057402875 -0.17864811 -0.08653612 -0.49141106 0.11542858 0.15354657 -0.19264793 -0.10821725 0.48379222 0.169561 0.47367513 -0.26165354 0.084064834 0.12549983 -0.026226107 0.80798393 -0.07293996
疾 -0.32657304 0.32588947 0.117243804 0.15242927 0.14879297 -0.2354014 0.2942926 -0.1782688 0.12718047 0.13665979 -0.14786267 0.043781567 -0.041284356 -0.102259554 -0.14120503 -0.28039283 -0.13628393 0.27247962 -0.17111911 -0.38752088 -0.43190828 -0.054479916 0.12658927 -0.4232584 0.095214255 0.13809848 -0.21864308 -0.20477745 0.08619685 -0.7157944 0.2551196 0.31111997 -0.3881064 0.120969765 0.16030407 -0.36162865 0.15616389 -0.05682497 -0.0726358 -0.3599739 0.11702117 0.111387424 -0.31604344 0.4373569 -0.13102087 -0.45243648 0.3609704 -0.16248477 -0.41832235 -0.30551484
服 -0.37436932 0.55080384 0.64188755 -0.43131882 0.295944 0.51811075 0.3466499 -0.09072305 0.46777186 0.1675693 0.22480555 0.1766085 -0.5209037 0.34509504 -0.08998628 -0.013035256 -0.3940166 0.25296915 0.4594348 0.013583229 0.3150146 -0.22247033 -0.001146919 0.53844976 0.10085682 -0.06591111 0.15280224 0.12720084 -0.4475014 0.10356361 -0.14221546 0.47055322 0.24525562 -0.20201895 0.37170443 -0.39291483 -0.2383764 0.023200793 -0.043620024 0.19633357 0.19855595 -0.13975467 -0.107061654 0.7723304 -0.07829583 -0.18126915 -0.15346634 -0.38659722 -0.09201558 0.2666195
氏 -0.09268023 -0.07956321 -0.42204168 -0.14053956 0.31325367 -0.37147608 0.12025859 0.15720129 -0.024561405 -0.20839292 -0.21030372 -0.31289372 -0.43352914 -0.0844455 -0.34714532 -0.4812639 -0.10572091 -0.08800779 -0.06334383 0.16796178 -0.4501295 -0.3045359 0.1479576 0.14082095 -0.1267048 0.40563047 -0.64523315 -0.17367439 -0.23164925 -0.21055788 0.23398739 0.08144235 0.05630039 0.12614621 0.35041723 -0.4300974 0.13494678 0.01738827 0.23751727 0.21635146 -0.23553453 -0.2130792 0.0807804 0.480691 -0.36320612 -0.071563125 -0.48558503 0.34166676 0.42626294 0.5490117
冉 0.06548566 0.53461087 0.14275222 0.3547808 0.32503238 -0.21848668 -0.12665853 0.0076073 0.057774574 -0.10091829 -0.15507104 -0.2415662 0.16095476 0.28632545 -0.039209273 -0.1632076 -0.050804697 -0.055087805 -0.032320015 0.3398211 0.050303895 -0.0604998 0.6503195 0.113091804 -0.09105016 0.47037148 -0.3167682 -0.40241158 -0.22325878 -0.32714513 0.31233612 -0.09060584 0.14853144 -0.00010812703 -0.23511079 -0.025397664 0.24977219 0.090091296 -0.14024879 -0.22658053 -0.08012522 0.19197112 -0.1693842 0.355228 0.29295292 -0.106895655 0.17893475 -0.23659188 0.2313247 -0.0056368993
将 0.40551212 -0.03872137 -0.21395864 0.2741448 0.04222253 -0.032851823 0.25758937 0.004761391 -0.36262724 -0.08241848 0.19795671 -0.33308652 0.54686594 0.22222733 -0.29343185 -0.59838855 -0.006208631 0.15614484 0.055322763 0.022636272 -0.55061984 -0.014151413 0.09395077 -0.14132231 0.072564974 0.19699502 -0.10161396 0.110940136 -0.020306585 -0.13004245 0.22780892 0.0024671776 0.36435026 -0.24925673 -0.19116339 0.0833448 0.506247 0.12272537 0.27362525 -0.27011672 -0.06846306 -0.18979408 -0.32338354 0.4319387 0.15281905 0.54889077 -0.46625865 0.012231647 0.30789784 0.07795253
士 0.031093342 -0.21893357 -0.6121454 0.09264153 -0.03393252 0.09774471 0.081757925 0.18992881 0.008215655 0.21684648 -0.049928352 -0.32857645 0.1323113 0.067677915 -0.017766282 -0.4631674 -0.22586027 0.25674602 0.10652529 0.25289354 0.047523767 -0.26046315 -0.2143075 0.23775226 0.0957774 0.480581 0.19097394 -0.3271533 0.5856086 -0.30827984 0.09017811 -0.37526742 0.26755953 0.21623287 0.1927088 0.22398254 -0.40201405 -0.29181683 -0.53077936 -0.08923676 0.62626785 0.408562 -0.14811663 0.415414 -0.30495644 -0.065825246 -0.026481947 0.30143008 0.2636036 0.20591913
丘 -0.056342784 0.16733432 -0.37581897 -0.0045206207 0.037790027 0.11082046 -0.18671215 0.1546233 0.35596442 0.5042006 -0.19144855 0.010040032 0.6084004 -0.06766678 0.322437 -0.2081277 0.009617044 -0.093287274 -0.06330442 -0.19461927 -0.2017842 -0.21091355 0.32823002 0.18457961 0.13599358 0.3265884 -0.20174672 -0.16398436 0.038665112 -0.27523687 0.098149076 -0.12386272 -0.06202565 0.34097743 -0.29769003 0.059716035 -0.34178653 0.04915841 0.094094455 -0.1339213 0.10035717 0.07916922 0.35137326 0.41149923 -0.005757743 0.21448036 -0.5042612 0.5253367 0.37748617 0.1112646
身 0.083844975 -0.1170527 -0.081519745 -0.92004657 0.12581375 0.4812093 0.04885534 -0.12336458 -0.071103856 0.27124783 -0.3371358 -0.14586596 -0.6172849 0.25452593 -0.2791148 -0.08226236 0.6841564 -0.39386818 0.19874975 0.21896157 0.42587167 -0.17451018 0.34037954 -0.24362943 0.2223744 -0.1568953 0.076132186 -0.06971606 -0.18946107 0.20818943 0.44495365 -0.12377693 0.34578332 -0.4621723 0.08984931 0.5741955 0.16587894 -0.23014194 -0.29011545 0.07138697 0.6060107 0.16775866 -0.08336578 0.59159726 0.047653355 0.4960577 0.16943535 -0.100948244 0.48998055 -0.2470792
入 0.7053578 0.08400831 -0.04578582 -0.103631526 0.068849675 0.08509992 0.27504295 0.026884152 0.18477078 -0.013397455 0.02655571 -0.1283241 -0.11626765 0.5759375 -0.9196234 -0.6658924 0.26086834 0.1728153 0.28284928 0.2278299 -0.19779624 -0.14884576 -0.20961858 0.27562279 -0.034827456 0.13983381 0.26630378 -0.33701825 0.1526038 -0.0731957 -0.1419067 -0.32520404 -0.09335388 -0.2275803 -0.104772635 -0.23922376 -0.16814384 0.082168974 -0.14586893 0.2508048 0.054328818 -0.37438226 0.04246637 0.7374988 0.1746191 0.0484928 0.4769216 0.2830987 0.5040317 -0.31580234
志 -0.17433512 -0.25568348 -0.43819848 0.16254734 0.23126504 0.22920352 0.5035138 0.5729654 -0.30898494 -0.3682648 -0.17407984 0.13921753 -0.030108204 -0.05313097 -0.83316284 -0.0039229225 -0.016175184 -0.07854522 0.13054466 0.30225185 0.23550852 -0.43718153 0.13437817 -0.27490526 0.095158815 0.3528963 -0.05609556 -0.12541269 0.053582862 0.16709787 0.1080623 0.094787136 0.07019484 -0.24175861 0.08165261 0.49296016 -0.3799499 0.11075798 -0.27784273 -0.17997625 0.48393416 0.27593255 0.27307147 0.50189775 -0.07746667 0.3663852 0.3129434 0.43076548 -0.13177757 -0.44796848
耻 0.22742154 -0.24114403 -0.21915638 0.28722605 0.35942712 0.01894612 -0.027330073 0.30471405 0.02424692 0.3413011 0.34697187 -0.2637782 0.14075576 -0.112673 0.13545327 0.29848328 0.10213492 0.44994938 0.13760355 -0.31875136 -0.32059067 -0.1797089 0.21211727 0.34049088 0.3468765 0.07376493 -0.03497088 -0.6415567 0.1156273 0.3886586 0.17049581 -0.2697454 -0.24484178 0.096985005 -0.27188438 0.25853977 -0.1381569 -0.08962976 -0.5855874 0.12071397 -0.2699453 0.3945739 0.49843052 0.45515072 -0.67540735 0.26964018 -0.078940846 0.20689167 0.0726115 -0.29439834
失 0.17078863 0.09877328 -0.16281854 -0.08933209 -0.14891551 0.33957964 -0.094335236 0.10915064 -0.20940135 0.14306694 -0.013933647 0.07473373 0.3557134 0.07449821 -0.3615789 0.7983137 0.6294642 -0.27481228 0.34058946 -0.41190693 -0.09102467 -0.07159887 -0.17586336 -0.051380504 0.264423 -0.15089081 0.013696565 -0.17580067 -0.038426667 -0.038216747 0.039228626 -0.18796135 0.24924132 -0.12533477 0.69552076 0.098524906 -0.21473113 0.10751176 -0.3036293 0.07328413 -0.2055661 0.28975883 -0.10527749 0.7016571 -0.30218607 0.14644387 -0.17709135 0.5078733 0.18517539 0.17147759
安 0.32302514 0.39346227 -0.2948287 0.5005077 -0.09570892 0.05887435 -0.23904379 0.2920131 0.5798111 -0.40709275 -0.059238423 -0.20346072 0.07009688 0.09912308 -0.02295478 0.44777593 0.16189475 -0.06549939 -0.12888387 -0.017105097 0.18056034 0.17220296 -0.6203812 0.35481057 0.1401575 0.12568292 -0.10709775 0.28319335 -0.36603272 -0.29425976 0.34272978 0.38814184 -0.0908391 0.12551655 -0.362702 0.40251896 0.20520562 -0.09941121 -0.5997654 0.0849399 -0.14996634 -0.49947476 0.21681364 0.5392908 -0.21597199 -0.0217494 -0.061172288 -0.03417217 -0.109094135 0.3362786
富 -0.42910743 -0.21265915 -0.29008618 -0.30414447 0.16674864 -0.06325851 0.09092238 0.13311736 -0.09196462 0.049007956 -0.6900779 -0.35014632 -0.14883927 -0.075503245 0.07403171 0.13315609 0.088023566 0.1696225 -0.09306295 -0.12597874 -0.44643477 0.07643502 0.06889929 -0.0063789403 0.17383298 0.10258522 -0.44659594 0.064078376 0.068994835 0.6005231 0.260751 0.032521762 0.2193252 -0.08578342 -0.18410692 0.17255934 0.0032831351 0.31253824 -0.20564052 0.2112706 -0.19261412 -0.2790396 0.13024515 0.47753942 -0.59015715 0.19332354 -0.047003467 0.0742706 -0.0021360936 0.65968704
赐 -0.109536156 -0.02096003 0.08531006 0.17301607 0.035161108 0.09488786 -0.5857889 0.15946081 -0.26992652 -0.2945471 0.041371774 -0.08475154 -0.2936417 0.39449 0.44604963 -0.117706545 0.03697933 -0.043221515 -0.78937376 0.27771246 0.016650198 0.011477118 -0.46983626 0.0363863 0.21407902 0.47369155 0.59330493 0.235367 -0.60575396 0.2212118 0.33915335 0.042699274 0.64801085 0.2984662 0.4350815 -0.5447102 -0.30595732 0.045823466 0.009002199 -0.102491766 0.08102779 0.31372926 0.11533476 0.41952536 -0.15775947 -0.30707932 -0.041501973 -0.14690043 0.22525531 0.32066786
患 0.044183947 0.36160457 -0.010972914 0.011332027 -0.099527545 0.06248503 0.021729358 0.5708285 0.06437366 -0.23841555 0.12712872 0.081810795 0.30436054 -0.23060697 -0.4536259 0.5523141 0.55646634 -0.0391705 0.2198305 -0.42796916 0.11786831 0.35175064 -0.10529641 0.25374666 0.31094852 0.019743843 -0.5177601 -0.1463663 -0.31122142 0.096657485 0.5117068 0.36959818 -0.024054177 -0.38695374 0.2526685 -0.016064564 0.23911634 -0.2690379 0.14418428 0.3315983 -0.0827215 0.28818455 0.51455 0.50449616 -0.32468888 -0.10271945 -0.5073932 0.028654326 -0.24324471 0.06737132
百 0.4983454 0.08074598 -0.28418294 -0.62489414 -0.020918967 -0.612983 0.06669579 0.027182167 -0.13076232 -0.07542168 -0.22164129 0.8050986 0.06229318 -0.08588516 0.27050173 0.08034597 0.24174882 -0.31405586 0.009667947 -0.054287646 0.20197082 -0.6467899 -0.10587112 -0.15428592 0.23265876 -0.06847962 -0.040009048 0.036375314 0.021928785 -0.25263357 0.103122324 0.29853123 -0.22375378 0.58854055 -0.028189057 0.11527744 0.09203037 0.2556515 -0.08605519 -0.014595699 -0.18532853 -0.06655152 0.40753174 0.5727647 -0.16022871 0.41281426 -0.42888817 0.025298607 0.2508672 -0.020511992
回 -0.07800105 -0.0046991413 -0.013869141 0.09123115 0.10517204 -0.4552918 0.07947437 -0.6292596 0.1727901 0.4769963 -0.35039386 0.17844044 0.33141604 -0.013650352 0.337097 -0.14733563 -0.2452428 -0.47225672 -0.51316494 -0.12345465 0.13849258 0.19024774 0.24060598 -0.07895042 0.21803047 0.33300608 0.5950829 -0.0076412177 0.09243789 0.52249014 0.39086035 0.041968476 0.62216616 -0.076861665 -0.04132557 -0.09369129 -0.34771892 -0.37015766 0.07234338 0.28809577 -0.4073053 0.34301013 0.12881117 0.34653807 0.09210727 -0.17666686 -0.20160209 -0.30843014 -0.20154896 -0.00527203
宰 0.83568 -0.20773986 0.034532327 -0.29592118 0.030147532 0.05849918 0.29913375 -0.3645384 0.082460016 0.1186978 -0.40578645 -0.12061057 -0.33805972 -0.09763665 -0.07871134 -0.3389437 0.25270194 -0.32360628 -0.3889788 0.59418 -0.24287753 0.41227385 -0.05004524 -0.12800111 -0.23942266 0.93985605 -0.15600534 -0.0061777034 -0.3337452 -0.3572484 -0.011774096 -0.1767062 -0.10694263 -0.091614485 -0.07900589 -0.08441495 0.00795073 -0.26784667 -0.08734161 0.4957249 -0.15597023 -0.104171336 -0.00019367825 0.40966088 -0.1544434 0.16414128 -0.3207837 -0.5828769 -0.20468569 -0.25028452
朝 -0.15241814 0.01076428 0.3193994 -0.37147343 0.44721878 0.58753383 0.4632518 -0.00083915086 -0.2763849 -0.19393219 -0.0376626 0.16959094 0.019840233 -0.10283639 0.16298966 -0.45255035 0.05053223 0.060916312 -0.05167049 -0.07179246 0.12431709 -0.4111541 0.11040818 -0.2899139 0.27297434 0.31695604 -0.31352255 0.06973846 -0.40673706 0.09736548 0.14949264 0.8403866 0.23857608 0.20382306 -0.7247541 -0.46341017 -0.0029094901 0.44041944 0.0070045227 0.17397991 0.7406136 -0.3872465 -0.18949382 0.532547 0.7113215 0.2800508 0.02062231 -0.57070357 0.06192732 0.22913258
莫 -0.29351777 0.31947494 0.041832246 0.27944303 -0.116913214 -0.06016025 0.108128235 -0.17600907 -0.6366522 -0.30263883 0.1463525 -0.18883725 -0.043148488 -0.43271646 0.13096395 0.08148296 -0.26699188 0.059481185 0.14233875 -0.13436203 0.21597373 0.7121631 0.13887379 0.19780909 0.28647745 0.053924546 -0.34778133 -0.028831737 -0.20102432 -0.324862 0.4747917 0.032631945 -0.030415572 -0.12121374 0.04057202 -0.010365976 0.017672775 -0.48925394 0.14807342 -0.10736077 -0.31355786 -0.26297277 0.7276014 0.36312655 0.16448455 0.12396859 -0.17100313 -0.058770206 0.21729563 -0.1431934
若 -0.13895749 -0.18758751 0.13615164 -0.17487575 0.034776133 -0.16675325 -0.49811754 0.41186005 0.1291653 0.036960598 -0.077768154 -0.24558687 -0.073700726 -0.31916058 -0.042353723 -0.086420886 -0.21148075 -0.14358981 0.011479611 0.0068236333 -0.27790856 0.45014486 0.11611377 0.035083417 -0.08624554 0.49306938 -0.454373 0.1655721 0.015229446 0.27713817 0.09228006 -0.28540358 0.09917094 -0.2029585 0.13851365 0.3216399 -0.18086737 0.09912678 -0.08986126 0.3664026 0.13731936 -0.1128066 0.040180944 0.42741606 -0.425849 -0.46905133 0.08633968 -0.16811152 -0.2239956 0.17704676
云 -0.32711238 0.05801915 -0.5087293 0.064908445 0.34873945 -0.18078732 -0.032848228 -0.5402395 -0.38075757 0.4319578 0.030537054 -0.7464839 0.21050327 -0.36154714 -0.06707395 -0.48284087 -0.3909714 -0.16447857 0.6380989 0.45544776 0.4570002 -0.19255419 -0.6030633 -0.06637385 0.066494584 0.6911569 0.35102397 0.17842293 0.2282008 0.22014885 0.2042837 -0.15333878 -0.12808548 -0.14467095 -0.16210987 -0.9092162 0.14840855 -0.052215464 0.05395425 0.32410136 -0.317844 -0.71794695 0.10837668 0.48964658 0.006053324 -0.101611875 0.321595 0.058361642 -0.2798173 0.5236018
