1352 50
， -0.026434207 0.04506704 0.000561723 0.1051454 0.028990047 -0.053373232 0.08369566 0.0702225 0.50023067 0.0127914725 -0.036445968 0.009115904 0.07922253 0.10759706 -0.014989104 0.023120068 -0.060712542 -0.13105087 0.034858324 -0.0940473 -0.08844171 -0.0780472 -0.032888427 0.034411352 0.029530223 -0.060035054 -0.107472464 -0.069863915 -0.069675 -0.044331774 -0.00542837 0.063421026 0.087477885 0.0937106 0.03699167 -0.06689195 0.04457583 -0.0026097111 0.0044634687 0.034187946 0.04836868 -0.009987883 0.1943286 -0.07516899 -0.015073803 0.028106263 -0.0010608966 0.07318195 0.03592426 0.0042052837
子 0.005052701 -0.10362893 0.021858051 0.10155372 -0.087735236 0.002664829 -0.048297334 -0.0023749406 -0.10437321 -0.02229853 -0.19307777 0.055787068 -0.023743857 0.53506404 -0.09495877 0.041645803 0.050842322 0.00068057777 -0.12744245 -0.021297486 0.10283404 0.025494203 0.00045790765 -0.12485733 -0.089729145 0.13021657 0.17242314 -0.009449306 0.052905194 -0.11672429 0.022089994 0.21946307 -0.039971087 -0.113902904 -0.15958191 0.06174265 0.04155749 -0.08392848 0.076108605 -0.26560095 -0.0014672485 -0.018201595 -0.64684606 -0.18265735 0.026102867 0.004156907 0.1362402 -0.019927468 0.051091235 -0.03165739
。 -0.13092959 0.107701704 0.12313827 -0.00018867163 0.15671071 -0.0065661883 0.05921018 0.08293691 -0.05143138 0.09526837 -0.10879355 -0.12904094 0.107034564 0.43676007 -0.086123444 -0.075089306 -0.18933602 -0.34122625 -0.26961398 0.11223968 0.018724086 -0.10045935 0.04276242 -0.14393644 -0.24606135 0.0013606427 -0.113966346 -0.16548517 -0.02496155 0.041346993 0.14735287 0.052833725 0.049047373 0.12380495 0.07184209 -0.15418164 0.075124934 -0.0036736862 0.46732906 -0.3781117 -0.03947542 0.11824045 -0.06279659 -0.1699744 -0.40123284 0.14285588 -0.06682287 -0.15434149 -0.08641711 0.08845861
： -0.077564016 -0.014368034 0.13698016 -0.18690716 0.10157854 0.027656477 -0.09840176 -0.051756028 0.08591155 0.14763293 -0.029172719 -0.002311194 0.2581355 0.4518427 -0.09342402 -0.2143018 0.026216146 0.022021504 -0.009800954 -0.1044574 0.19044234 -0.039170302 -0.08463523 0.22829631 -0.02834935 0.011235133 -0.13861421 0.14443246 0.03778169 -0.14739004 -0.2050809 -0.14513673 0.08394507 -0.046336323 -0.034107465 0.025081616 -0.15661515 0.044569254 0.03930468 -0.17984273 -0.12085864 -0.035599455 -0.6340767 0.10722019 0.036355335 0.09172428 0.11528939 0.2620843 -0.059712917 -0.08296075
曰 -0.11361087 0.00048206028 0.03298108 -0.17630592 0.03875388 0.16070408 -0.10428692 -0.030228667 0.029499743 0.196221 -0.014416235 -0.011284521 0.07987937 0.5493745 -0.023531627 -0.06107477 0.006586045 0.025729371 0.08879175 0.026304351 0.27978736 0.07058666 -0.13167147 0.1393622 -0.13873114 0.0824267 -0.034619205 0.07281211 0.078264154 -0.18125683 -0.1384498 -0.054641962 0.082935244 -0.056627806 -0.07892354 0.10146464 -0.11994564 0.0065714857 0.059659332 -0.18971403 -0.17974408 -0.09919647 -0.73361397 -0.004735438 -0.11230127 0.14527053 0.091141455 0.15268044 -0.025401747 -0.094720475
之 0.14235589 -0.19784175 0.09400236 0.13006711 0.045511074 -0.041631427 -0.12616265 0.044233996 0.36022496 0.18629512 0.41922227 -0.21063608 0.23495953 -0.004188371 -0.07593926 0.17772593 0.07104004 0.012174346 -0.01960318 0.082556106 -0.11695963 0.25438443 0.010608189 -0.27380255 0.18955927 -0.047737066 0.2763533 -0.28488833 0.20097871 -0.027457332 -0.20690024 -0.044080216 -0.081782475 0.13162012 -0.23369168 0.0010029743 0.32983708 -0.16531433 -0.051035497 -0.10770135 -0.22452018 -0.083596446 -0.20500995 -0.0077552274 -0.06404787 -0.28090313 -0.10411231 -0.17068005 -0.021262161 0.0055232947
不 -0.106630474 -0.27699798 -0.064418145 0.108979896 -0.06990438 -0.015660424 0.050593644 -0.2770993 0.6196073 0.0008902554 -0.27660692 0.19679405 -0.12809299 -0.050646268 0.10907386 -0.15592226 -0.21921852 0.17584206 0.095205285 0.11869113 0.12103929 -0.21588318 0.18736772 -0.15227842 -0.035180107 0.035805523 0.13736315 0.24792619 0.058165617 -0.0059385416 -0.008197054 -0.24727778 -0.051024254 -0.12301521 -0.3067526 0.065773204 0.09497363 0.07314607 0.07269116 -0.3129297 0.37603548 -0.32228324 0.026556915 0.116559915 -0.11330522 -0.09056651 0.028698836 -0.014883069 0.026108013 0.011331085
也 -0.2555777 0.24237455 0.047863837 0.20261116 0.02617853 -0.17094375 -0.1271932 0.07414028 0.14699376 -0.34108767 0.22930424 -0.024363391 -0.0014719937 0.07037053 0.13058713 -0.065320894 0.13963372 0.16392982 -0.20564745 0.090252414 -0.2522767 0.19609714 0.16641663 0.3033162 -0.21701941 0.26849446 -0.02266762 0.0176129 0.21840225 0.17459068 -0.11536303 -0.16945575 0.09615478 0.26778716 -0.15691301 -0.21347551 0.32658646 0.38483155 -0.14777683 -0.14519519 0.18877001 0.016580844 -0.35942954 -0.16970424 -0.21779618 -0.05526782 0.034465976 -0.034834273 -0.17079592 -0.1880279
而 -0.35498342 0.115407646 -0.13920966 0.104071036 -0.42495602 0.09547719 -0.26903424 -0.18619414 0.59394073 0.085125886 -0.032158345 0.1282781 -0.155484 0.029113749 -0.15480241 -0.07709865 0.021478875 -0.17783132 -0.122080326 0.28211352 0.19601947 0.13676687 -0.1465452 -0.05073353 -0.07173663 0.377638 -0.13550378 0.1591402 -0.05231316 0.2516866 0.08323796 0.26454777 -0.18715481 -0.4111346 -0.3432231 -0.047140934 -0.2737051 -0.19099174 -0.08569358 -0.036532152 0.24411006 -0.2298675 0.11618958 0.08226511 0.16461566 0.036338 -0.058999594 -0.5092734 0.31089363 0.14251414
？ -0.27653983 0.009115997 0.18456776 -0.16984203 0.32820967 0.15072882 0.12933475 -0.0754086 0.2952519 0.097910866 -0.24252741 -0.006229874 0.17440693 1.3771195 -0.15811878 0.51938194 -0.29207084 -0.19015342 0.15323602 -0.20120353 -0.004102344 -0.22947696 -0.30537078 -0.21461129 -0.21636146 0.17117253 0.102384426 -0.1352692 0.036762007 -0.021668259 0.18324058 0.3738807 0.010186988 0.28526774 -0.04337251 -0.029334318 0.0499937 0.07781938 -0.25037768 0.53077507 0.3258446 0.3107892 -0.13189888 0.4443272 -0.14562972 0.114005744 0.109562635 -0.3351241 -0.24325058 -0.16287951
其 -0.11697909 0.056327272 0.23975623 0.440312 -0.09648865 0.14497796 -0.13145442 -0.0724665 0.5227764 0.21476316 0.23910272 0.08994641 -0.25920135 0.25870496 0.16454032 -0.16784965 0.059909713 0.015391574 -0.12098872 0.101283856 0.08580338 0.27704063 0.19541225 0.22660643 -0.23137985 0.05871307 -0.12431171 0.1408556 -0.05877049 -0.076884404 -0.12517923 0.01678328 -0.38944125 0.21594292 -0.17009917 0.61659676 0.2674105 0.17190483 -0.007860814 0.030695826 0.20995985 -0.26933244 0.08351862 -0.037133873 -0.015995903 -0.14566928 -0.38845232 0.11208167 -0.086133696 -0.026682999
人 -0.0009422707 0.35408 -0.3794502 0.2539448 -0.29353473 0.16591288 -0.27251056 -0.11998315 0.6844342 -0.3074612 0.12469813 -0.24836583 -0.020413112 0.002797912 -0.22928388 0.44524255 -0.22098155 0.072205134 -0.2600393 0.14200336 -0.02544109 -0.07221915 -0.09822177 0.2379935 0.20674172 0.014477261 0.105333656 -0.14129351 -0.34835652 -0.19449554 -0.051995598 0.14375848 -0.06735412 -0.46615857 0.12326552 -0.050517175 -0.30075508 0.09297453 0.31616315 0.21170239 -0.2934474 -0.017729279 -0.6210319 -0.21873862 -0.02021197 0.15274204 -0.019318055 -0.08086564 -0.13775349 0.36508986
者 -0.36238146 -0.052651245 -0.54842275 -0.13603428 0.31681615 0.23082261 -0.23575184 0.1354021 0.45203608 0.005996111 0.0064475485 -0.31596592 0.28679454 -0.032284595 0.19166315 -0.20465578 0.12266082 0.061490558 0.0359545 -0.28696033 -0.06389873 0.12101648 -0.05262541 -0.16074722 0.1483871 0.00053323753 -0.23125596 0.15491821 0.14761105 -0.26067233 -0.12427717 0.10298409 -0.012245099 -0.1617917 0.07229313 0.1903574 0.26129055 0.1914185 0.22731462 -0.05551311 0.23180115 -0.14649908 -0.19716054 0.22743517 -0.14779182 -0.16301222 -0.33908355 -0.67458117 0.034936264 0.09672049
以 0.5387005 -0.33239824 0.3355078 -0.2065255 0.021929039 0.02471028 0.4175386 0.33459684 0.84720546 0.21228883 -0.15180984 0.18249628 0.17006443 -0.43093464 0.3266759 -0.26589882 -0.032594744 0.27642852 -0.18500474 -0.21613371 -0.07182118 -0.11384868 -0.037071116 0.12812077 -0.05713797 -0.08371033 0.37755758 0.29780534 0.15188803 -0.17176063 0.35761672 0.0035449674 0.30435947 0.37527108 -0.0354412 -0.21372478 -0.036065437 0.09029865 0.1877039 -0.10973918 -0.17155729 0.679232 -0.5649072 -0.011940334 0.22570491 -0.37295565 0.12611927 -0.27580422 0.085867755 0.25827226
有 0.20007831 -0.045459114 -0.18702775 -0.61130023 0.34096846 -0.49233776 -0.24594499 -0.056435563 0.29710197 -0.28624204 0.55923903 0.18060191 0.08943278 0.1173058 -0.46762383 -0.2885653 0.18217285 0.027269527 0.20043632 -0.45894405 -0.13753518 -0.39130348 0.23723999 0.10523134 -0.32683772 -0.17800182 -0.42239192 0.16392961 0.15447177 -0.09688086 0.28585908 0.21407148 -0.4492898 0.035126913 0.14386207 0.18953998 -0.13849162 -0.41455755 -0.19780566 0.060925648 0.27584064 -0.20571598 -0.57464653 0.05505096 -0.06985063 -0.09261945 -0.40764436 -0.16055332 -0.02310237 -0.17388886
于 0.15503131 0.3209684 0.007991879 -0.2795733 0.011922083 -0.32432404 0.3204631 0.5527655 0.430238 0.22767025 0.107624575 -0.19743219 -0.19660777 0.15704688 0.20299408 -0.012402911 0.07658129 -0.20969634 -0.48302823 -0.14592668 0.020514952 0.30852917 0.31313202 0.2768401 -0.028185755 0.08986194 0.0908633 0.25673065 0.03759171 0.56670475 0.0915598 0.68746805 0.28713682 -0.0092556765 0.266349 -0.12297815 -0.18446481 -0.37135467 -0.45784473 -0.22871016 -0.27252442 -0.066150784 -0.24334466 -0.18026258 0.30237135 -0.081629 -0.20462994 0.37156656 -0.13887614 0.14482166
矣 0.23576464 0.34891814 0.05214795 -0.14321572 0.50921905 -0.3836058 0.02892913 0.14035551 -0.08207746 0.21269155 0.05345396 0.3355883 -0.30908072 0.49434078 0.077370994 -0.00810885 -0.42415994 0.018683523 -0.17943804 0.26554674 0.3549885 -0.014910449 0.23191328 0.10704145 0.16431423 -0.069343574 -0.18234591 -0.01658398 -0.27213818 -0.051955808 -0.022277892 -0.14852387 -0.065417 0.06959808 0.5047882 0.14358938 -0.07883589 0.49475813 -0.0027253474 -0.68619806 -0.07591947 -0.33957687 -0.2825611 0.1428634 -0.11552027 -0.4663996 -0.3753845 -0.14347765 0.1304464 0.27551845
为 -0.001438157 0.12503189 -0.070792556 0.0765567 0.23632972 0.19693427 0.47408226 0.21888843 0.3914318 -0.03263117 0.26859194 -0.3662254 -0.034147143 0.21530607 0.28014666 -0.05392552 -0.1454752 0.105368495 -0.06447618 -0.048895545 -0.32816735 -0.20571803 0.4002288 -0.045755066 -0.3595255 -0.3181418 0.29505527 0.25298834 0.34536037 -0.17541964 0.15562956 -0.4613357 -0.14153725 -0.16212958 -0.14278214 -0.044219866 -0.1545334 -0.2886711 -0.15113023 0.17113893 -0.2620222 0.13195607 -0.61907583 0.33002123 0.309191 0.08365844 0.052425887 -0.14144252 0.36013722 0.3838082
君 0.17963442 0.13440923 0.2048065 0.57532585 -0.06784246 -0.1868474 -0.111870915 -0.03993641 0.19116779 -0.17470786 -0.1274696 -0.18729648 0.4001911 0.35324502 -0.4032626 0.003418231 0.31707713 0.10703089 0.0212842 -0.3722844 -0.35701385 -0.12950693 0.16692129 -0.37447277 -0.37338287 0.22836764 0.014987475 0.24618088 -0.2115506 0.32273394 -0.40610978 0.03620835 -0.16821563 -0.38818827 0.017541414 0.16931747 -0.054159973 0.49955434 0.011167135 -0.45845997 0.15060693 -0.0671542 -0.49834508 0.035426147 0.05557158 -0.10126969 0.35813877 0.030848876 0.10222622 0.119177096
乎 0.1145 0.22545043 0.2170306 -0.33752573 0.29118264 -0.3871503 0.03313725 0.18617985 0.3516057 -0.1999213 -0.17072263 -0.048312668 -0.046234116 0.6129988 -0.2602324 0.6823283 -0.17231484 0.3872285 0.11269719 -0.0019948417 0.24993707 0.5537351 0.11126934 0.08701678 0.22310285 0.24267466 -0.19391385 0.51087004 -0.1723077 -0.1750965 0.04677599 -0.03984189 0.07706739 -0.18349078 -0.2282126 0.06513335 0.16890043 0.014163525 -0.20506918 0.12290004 0.3696775 0.3819479 -0.29803756 0.4063245 -0.09759305 0.091324605 0.0057046385 -0.15710118 -0.036209587 0.09428754
可 -0.17130364 -0.15298423 0.3416961 0.123193234 -0.28264886 0.22413777 -0.24289472 0.18594167 0.82387275 -0.2752296 0.025500214 0.30477467 -0.28373045 0.13915344 0.5341712 -0.1898017 -0.48803082 0.30717805 0.22253326 0.3770976 0.032506537 -0.15169339 -0.35257718 -0.24656723 -0.01990727 -0.1214717 0.099751934 0.014606624 0.079911694 -0.099997416 0.17399253 -0.14693786 -0.19600004 0.35832247 0.21900038 -0.6502175 0.18427315 0.55941004 -0.15762927 -0.09675354 0.0076808534 -0.22797416 -0.42628285 -0.59289354 0.19294886 -0.15668829 -0.28412458 0.17008516 0.24543388 0.3500196
如 -0.1428117 -0.04060685 -0.12857302 0.13236704 -0.06657851 0.36406463 0.008717323 0.2605606 0.44769347 0.22778209 0.09148442 0.36861098 0.20461988 0.13795398 0.29783097 -0.13528514 0.3541843 0.3894321 -0.6762938 0.5626791 -0.8197672 0.1156192 -0.29679456 0.32408357 -0.14494039 -0.20670009 -0.22886208 0.12737961 -0.37208712 0.11747305 0.10795879 -0.101719275 0.35451257 0.38059333 0.084117755 0.30360165 -0.027901512 0.10203641 0.027504098 0.1881009 -0.11087494 -0.33865437 -0.334712 0.23916487 -0.22572249 0.2476692 0.31777158 -0.06505911 0.41408896 -0.35699582
与 0.018415064 -0.17597558 0.1342694 0.2123023 0.23625167 -0.17081068 0.05795573 0.056808624 0.48303992 0.13625517 -0.32319152 -0.30408698 0.17763956 0.36013764 0.2271522 0.299935 0.4707231 0.8588934 -0.24578808 -0.12410592 -0.004009187 0.1619415 -0.047240574 0.46514344 0.3611781 0.35557333 -0.19755775 -0.6968912 0.27887154 0.24721895 0.082119584 -0.12211034 0.20182438 -0.19774882 -0.09212778 -0.41443247 0.11047684 0.1947856 0.0035598222 0.3220731 -0.06377596 -0.5168201 -0.3781574 -0.31818026 0.071798764 0.09122165 0.29736513 -0.09872839 -0.027300196 -0.11187931
； 0.010324029 0.44888774 0.31571907 0.3774969 0.46673763 -0.5422233 0.7929353 0.19703723 0.9293637 0.038003292 -0.123450816 -0.15707496 0.0833513 -0.07206304 -0.7483292 -0.3806047 -0.32124826 -0.6262174 0.41688934 0.2846357 0.10734592 0.15215394 -0.4691078 -0.18783729 -0.16639754 0.12942901 0.33692414 0.45808396 -0.14931244 0.10551283 -0.026011484 0.31580082 -0.042167287 0.19143166 0.14406222 -0.062058087 0.37292045 0.5233259 -0.12930457 -0.094137356 -0.032133665 -0.2791005 0.64852685 -0.28938836 -0.47416815 0.3996851 -0.06714432 -0.254991 -0.2779656 -0.5533618
言 0.27043614 -0.07219284 0.4418786 0.069069915 -0.072546445 -0.046454426 0.05357231 -0.5489158 0.48377746 0.052532755 -0.31214038 -0.7058924 0.03641984 -0.3669649 -0.251639 -0.5829905 0.0044059777 0.13760711 -0.22972155 -0.069694884 -0.23135008 -0.08234834 -0.2492338 0.24259697 0.25667715 -0.078732945 -0.5635182 0.071068734 0.11443505 -0.14937419 0.65216833 0.016727952 -0.30283174 0.36393085 0.041236166 0.17151152 -0.75914323 0.34275487 0.19816257 -0.08668266 0.19894515 -0.1444595 -0.56860524 -0.022653464 0.11782989 0.037615154 -0.30332404 -0.14016443 -0.52539897 -0.24200717
无 0.49848968 0.029418971 0.10401688 0.1491931 -0.31187254 -0.09006846 -0.15884492 0.22339082 0.71746457 -0.5321416 0.059124745 0.23812993 -0.30976236 0.5304713 -0.26516038 -0.15723464 -0.41921967 0.70347387 0.105669945 -0.057643376 0.4995772 -0.276894 0.44739875 -0.27029598 -0.37037215 -0.5130692 0.20515366 0.40247512 0.32267287 0.31846845 -0.3032817 0.21847032 -0.19996412 -0.2312205 -0.067356884 0.27690375 -0.091460034 -0.10854037 0.086728 0.10156012 -0.1812134 -0.16061254 0.06362379 -0.12542462 -0.19489479 -0.4988524 0.14114939 -0.3499912 -0.43090189 -0.2872225
则 -0.099413365 0.47796327 -0.19624974 0.3841694 0.27643114 -0.553291 0.13151999 -0.29868782 0.7077849 0.13219358 -0.27168235 0.11963827 -0.44396278 -0.13557741 0.428134 -0.29405555 -0.48455116 0.19931988 -0.10055525 -0.10061965 -0.14733627 0.64054143 -0.08028696 0.09448852 -0.32816747 -0.44176382 0.16714622 0.26397017 0.1382625 0.20414555 -0.28712258 -0.27193695 -0.4660853 -0.19476065 0.3535675 -0.0892851 -0.22345091 -0.15833038 0.13097405 0.15774976 0.2512549 0.03908276 -0.19145614 0.0148305325 -0.039753057 0.72446454 -0.31941846 -0.266771 0.04005432 -0.22449094
！ -0.20447895 0.5200789 0.062185872 -0.30757776 0.06644845 -0.26754966 0.7506409 0.25695443 0.14085402 -0.48779094 0.011684191 -0.37443334 0.12808293 1.1677376 -0.25684097 0.39297056 -0.31156534 -0.14957973 -0.033960737 0.32829726 0.033374958 -0.057588093 0.2642236 0.26351413 0.3765741 0.32728338 0.12808889 0.7043158 0.44213635 -0.21019739 -0.08144375 0.22782381 0.06664073 0.799569 0.010485267 0.120522425 -0.05837996 0.31075266 0.53590035 0.37829277 0.037414998 -0.30706617 -0.38210848 0.0011319388 0.16561417 -0.268703 -0.09550087 -0.14731032 0.12748948 0.07323242
问 0.40307435 0.21071304 -0.00021181513 -0.051141433 -0.11020676 -0.25560024 0.93239534 -0.09842859 -0.019226993 0.31080908 -0.23817693 -0.028478162 -0.25828207 0.61247617 -0.07470746 0.11859152 0.52643174 0.3192927 -0.021242088 -0.20138122 0.17435 -0.1530819 0.6286707 0.20783255 -0.0854585 -0.6822951 -0.6238796 -0.38817033 -0.19003323 0.1763615 -0.60845476 0.2015947 0.24721578 -0.251943 0.07746875 -0.2314428 0.25027165 -0.19462183 -0.23226054 -0.29578322 -0.31955412 0.017771106 -1.0146098 -0.14948821 0.14761482 -0.18006894 0.08492465 -0.088012114 0.38098073 0.3084253
知 -0.1698014 -0.06976821 0.03453293 0.15796617 -0.036452353 0.2804388 0.48330924 0.032912537 0.48097458 -0.22299658 0.37066978 -0.33517265 -0.21094501 0.12424456 0.30402094 0.076654725 0.031968392 0.6537756 -0.26651594 0.44074705 -0.2143757 -0.39060518 -0.23780611 0.09702792 -0.29342714 -0.047239117 -0.33359823 -0.120348446 0.16971917 -0.18502495 -0.26979136 -0.19519164 -0.26956594 0.08492819 -0.15315594 -0.026471358 -0.4195354 -0.020439684 0.3153968 -0.22110897 -0.23775347 -0.29645768 -0.38763452 0.108089045 0.4025656 0.25294453 0.09722569 -0.6783993 -0.06805043 -0.007817681
何 -0.20233244 0.122744605 0.033217214 0.40441152 -0.012723841 0.24705206 -0.3110761 -0.4763165 0.14934689 0.11892653 0.032052938 -0.01695939 0.10841853 0.7526477 -0.011764273 -0.09937894 0.21325387 0.5210026 -0.15050395 -0.005041762 -0.24952637 -0.0076481304 -0.38590327 -0.65141314 -0.22514614 -0.3013651 0.03349934 -0.27453873 -0.31435075 0.00067338074 0.25266773 0.52829134 0.5873206 0.50887406 0.10257633 0.12890172 0.13304049 -0.20577845 -0.7138997 0.29241616 0.06201389 0.08755257 -0.44828874 0.3430969 0.012231506 -0.19051333 -0.38295463 -0.37339297 -0.08936537 -0.062917374
吾 -0.19946362 0.13538976 -0.36335742 -0.30548063 0.8325805 0.45788607 -0.4339794 0.16500437 0.5003877 -0.2269555 -0.2792792 -0.100463435 -0.2755556 0.12791508 0.21107233 -0.16418867 -0.22208296 0.054933403 -0.19226165 -0.12158602 -0.25907856 0.24059375 -0.03625208 -0.06002056 0.41195887 0.31482285 0.28756967 0.31278118 0.17969033 -0.1653172 -0.196067 0.2714366 0.11139242 -0.071365304 0.26154342 0.06826627 -0.44041604 0.63297766 -0.24813478 -0.23478955 0.028899362 -0.18745135 -0.19442974 -0.02390103 -0.40669397 -0.1396428 0.15674412 0.28999922 0.15397418 -0.22654146
仁 -0.07678065 0.3032872 0.094107725 0.10887077 0.28859395 0.21081454 -0.019432412 -0.298056 0.1307816 -0.09272228 -0.10195691 -0.019083686 -0.089441895 -0.06609293 0.3934713 0.17458904 -0.4274246 0.2675119 -0.11843972 -0.24771848 -0.070366696 -0.44275904 0.34114167 0.034470793 -0.07157728 0.06317919 -0.36265433 -0.30802345 -0.13021742 0.0006893191 0.15009922 0.31064674 -0.44822854 0.35763916 0.29802287 -0.11238779 0.26086715 -0.07222338 -0.19241424 -0.3275532 -0.22332406 -0.06583729 -0.4973844 0.6849216 0.04195759 0.15423751 -0.16388834 -0.36739695 -0.1322511 -0.008439827
夫 0.1449865 0.15030295 -0.13868397 0.46958387 0.6820534 0.13652521 -0.4913891 0.53158045 0.23157354 -0.16263673 0.28274184 0.34030223 -0.24980636 0.60562456 -0.13422826 -0.28893048 -0.13167073 -0.33863682 -0.30137676 0.020278618 -0.2406246 -0.2132894 0.003774413 0.12404823 0.5819808 -0.16160363 0.26630038 0.35444385 -0.15394849 0.13283256 0.30277678 0.074735984 0.0026605348 -0.24094443 -0.58208525 0.052981257 0.22677332 -0.17535628 -0.10114504 -0.22434929 0.11099883 -0.14533487 -0.4845258 -0.18194066 0.30280071 -0.28697905 0.012875168 0.22825639 -0.42209032 -0.31593505
、 0.54561085 0.6211008 0.0617829 -0.807582 -0.43707392 0.17255011 0.24704278 -0.26377204 0.32663172 0.72285163 -0.5215665 0.050959934 -0.20604824 0.25069982 -0.95194626 -0.5118366 -0.23509899 -0.30660444 -0.33539748 -0.25584468 -0.7176714 -0.23716463 0.2810291 0.105868444 0.5364418 -0.15513127 0.58064866 -0.28554296 0.21378621 0.16500314 -0.101342484 -0.21203262 0.16501187 0.34101564 -0.6515907 -0.31481457 0.14934857 -0.3936997 0.3231445 -0.09118737 0.069109574 -0.25793397 -0.28391075 0.9250177 -0.18753487 -0.092141286 -0.31855726 0.27302858 0.6363422 0.027131546
道 -0.27874666 0.04642591 -0.44830167 0.40076986 0.10955383 -0.21620218 -0.20350972 -0.07675908 0.6039474 0.29204515 -0.11085634 0.11947116 0.22517458 0.2907129 -0.16722153 0.018554578 0.32514188 0.21331416 0.52599096 -0.30958828 0.06616309 0.04112973 0.1880558 -0.22203161 -0.16660534 -0.11811978 0.2557977 -0.25479016 0.70885205 -0.012029891 0.3885462 0.1418451 -0.34549 0.03511336 -0.2458547 -0.3136734 -0.6517717 -0.36602563 -0.32423905 -0.28854507 -0.09030786 -0.23802699 -0.06749047 -0.19449157 0.029254131 -0.47232813 0.26516506 -0.14651759 -0.16195576 0.110089704
焉 0.072828144 0.35636652 -0.002862261 0.018182872 0.4675777 0.06814782 -0.18129013 -0.00336011 0.42727053 -0.24761863 0.1977096 0.21533482 0.13559097 -0.019027501 0.122935995 0.19208433 -0.34785795 0.08310405 0.084825344 0.25832844 0.226344 0.036428988 0.08766911 0.017903404 0.041398358 0.24683744 -0.734377 -0.13814332 -0.1900442 -0.094667405 -0.11582288 -0.12701589 -0.15007511 -0.12415566 0.05865153 0.046111323 0.23169903 -0.58302456 -0.46346048 0.09723719 0.78823644 0.2463275 -0.45223904 0.061008014 -0.14756621 -0.042055123 0.9986704 -0.2721528 0.2055519 0.19545496
行 0.0339571 0.38592353 0.009428626 0.43473214 -0.2508933 0.663943 0.21249104 -0.29235524 0.1877331 0.4843561 0.12386658 -0.66133946 0.46545124 0.37152314 -0.18419272 -0.42982545 -0.045387905 0.09197124 0.52577436 -0.49772453 -0.07313487 0.25148737 0.6241515 0.26462775 -0.108556874 -0.343567 -0.099558026 0.085700236 0.43920767 0.25073275 0.27180433 -0.1843965 -0.3734566 -0.037352476 0.3861262 -0.06065967 -0.26048115 -0.051338565 -0.786273 -0.47672755 0.40374237 -0.21086852 -0.33570865 -0.3846371 -0.31376073 -0.43131208 -0.030627908 -0.15226361 -0.30805558 0.351549
谓 -0.2819785 -0.5301656 0.35841188 -0.21150167 -0.0026139522 -0.6336317 0.02020896 0.19484815 -0.012773689 -0.029532421 0.074838035 0.045821674 -0.015325449 0.39954796 -0.12129612 0.05475784 0.12982334 0.6365935 0.12986574 0.77146614 -0.6409239 -0.059477866 -0.21256293 0.24117346 0.027456183 -0.2916631 -0.37348506 -0.16958794 0.033892624 -0.40044546 0.67248183 -0.11602318 -0.37984085 0.24256882 0.09056145 -0.30072302 0.1541767 -0.091206335 -0.113142066 -0.41394672 0.22270107 0.19136772 -0.62786007 -0.14680563 -0.17307678 -0.19599576 -0.25800443 0.15712355 0.26655188 0.062731765
必 0.2896759 0.040143736 0.25128546 0.090193525 -0.5435795 -0.13295907 -0.018778294 0.17062216 0.3849749 -0.023335338 -0.13189764 -0.4444803 0.18688409 0.19049788 -0.0078100525 -0.049396496 0.07086075 -0.00059556455 -0.452961 0.025535092 -0.46377707 -0.056692626 -0.5695266 0.24513145 0.45998642 -0.057367604 -0.4148918 0.58908087 -0.3536532 0.42207813 -0.48565593 0.01176904 0.11828102 0.42703578 0.3705181 0.47054407 0.082133144 -0.6693141 -0.14682266 -0.54635406 -0.13998395 -0.43389463 0.21882573 -0.18511549 -0.4167873 -0.5507209 0.07287209 -0.24480024 -0.004186933 -0.57074195
礼 -0.051139668 -0.26916042 -0.055885356 -0.16865677 0.25073865 -0.31202307 0.021391459 -0.29759985 0.70760137 -0.3518528 -0.013220214 -0.23502347 -0.06673609 0.18150392 0.22021168 0.040449467 0.019229345 -0.2835568 -0.2866408 -0.72175175 -0.49689767 0.05763923 -0.19121638 0.1847882 -0.28188214 -0.3381819 0.5216586 -0.17389089 0.42041814 -0.2974438 0.014079763 -0.27294824 -0.71908134 -0.25316757 0.0113791665 0.47372368 0.051149104 0.08119984 -0.3503919 -0.4700165 -0.5721843 0.6677991 0.011791332 0.3002387 -0.0046150857 0.3431506 -0.40565792 -0.2193904 -0.22550085 0.29774538
孔 -0.17703794 -1.0165724 -0.14666732 -0.32399672 0.41980436 0.29999897 0.23310614 0.048418216 0.13349238 -0.0681699 -0.12604603 0.42729473 -0.36715412 0.7477085 -0.040393345 -0.29730925 0.25589186 -0.6572108 -0.5213145 0.18832721 0.24874793 -0.25148275 0.30061135 0.36002988 0.45000693 -0.2234466 -0.3329747 -0.47433522 -0.3181696 -0.19913444 0.60630196 0.16934349 -0.51808167 0.64655536 -0.040406406 0.18075085 -0.17185758 0.15452294 -0.6766009 -0.6786151 0.12923059 0.5980257 -0.7793899 -0.63925546 0.5981427 -0.31041473 0.6475599 -0.83098614 0.45062596 -0.538708
斯 -0.09204015 0.30085278 0.11393495 0.45921436 -0.17548391 -0.12692611 -0.8125412 -0.41005167 0.4352446 -0.12105015 0.4511442 0.45777056 0.13958746 0.6147585 0.19588752 0.11173924 0.45760405 -0.027117291 0.21742061 0.60401785 0.05878837 -0.19394766 0.3568507 -0.111068666 0.44753873 -0.4574907 -0.0008292127 0.19341731 0.088537104 0.35448852 0.19046414 0.4089498 -0.35722682 0.37929913 0.75518674 -0.06288434 0.06314025 0.54885983 -5.867336e-05 -0.35308734 0.16308163 0.080117695 -0.1167896 0.36525014 0.18476357 -0.19694608 -0.8704998 -0.104718976 0.42204964 -0.35374418
三 -0.3158457 -0.22704706 0.22724289 -0.21810582 0.46282122 -0.5121552 -0.23531334 -0.61126775 0.4473317 0.58360785 0.23890837 0.7106994 0.29498747 -0.18320392 0.35828286 -0.23422505 -0.38671926 -0.20735732 0.29282448 -0.31146252 -0.37975574 -0.0389792 -0.13222395 0.28421366 0.24083708 1.1741074 -0.1046975 0.21245764 -0.1393062 -0.091201365 -0.19030286 0.649183 0.4534302 0.3452304 -0.14564478 0.13172974 -0.0747078 -0.06188479 -0.03135312 -0.48734507 -0.35006407 0.29845747 -0.3505189 -0.28958738 0.83899 -0.2675892 -0.2817393 -0.13434885 0.676266 0.17985347
能 -0.026844112 -0.2890497 0.3344387 0.5368209 0.15638582 -0.24652922 0.2654377 -0.26936835 0.817908 -0.45832622 0.2592578 0.0621824 -0.028236939 0.24139547 0.5713284 -0.12569629 0.17376222 0.41137585 0.072763205 -0.26027206 0.106044754 0.48056403 0.04437357 0.093602106 -0.2408624 -0.05882849 0.026011286 0.1995116 -0.51396745 0.14783196 -0.23734646 0.17904408 0.20616947 -0.85890794 -0.1648854 -0.3125091 -0.3211988 -0.18439527 0.26258412 -0.28313413 -0.08645776 0.18173216 -0.041345853 -0.09519959 -0.10317656 -0.0068080355 0.0071903276 -0.036375567 -0.0049110386 -0.17181285
见 0.31869307 -0.15866388 -0.21500911 -0.168789 0.21322714 -0.49780223 0.12424242 -0.32402134 0.419215 0.23471268 -0.24032709 0.31901875 -0.13648064 0.25426748 0.05618989 -0.16090581 1.1296588 -0.045299176 -0.6314291 0.16526155 -0.0055650747 -0.35152835 0.588536 0.5361598 0.1669385 -0.022333581 0.21774837 -0.3290061 -0.3545274 -0.25270787 -0.40023348 0.39533553 -0.082334146 -0.060296383 0.43449378 -0.023288347 -0.21379684 0.8404921 0.061160028 -0.16555448 1.2264222 -0.33446255 0.11829964 -0.160588 -0.6766928 -0.054174338 -0.051113363 -0.8212107 -0.1775698 0.11217233
学 0.017165562 -0.046532627 0.08009764 0.28703555 0.15005194 0.08954501 0.22222765 -0.88203275 0.37882814 -0.17438425 0.115841515 -0.14141989 0.34043574 0.28799 0.119102426 -0.0706312 -0.51528746 0.050661962 -0.7442381 0.3592282 -0.0721504 0.021584282 0.060704555 0.517422 -0.12413822 -0.17405874 0.076377876 -0.26801214 0.14723031 -0.34886423 0.31731784 0.2089398 -0.7476103 0.44802403 0.3869992 -0.35674956 -0.19479385 -0.5470715 -0.7061002 -0.49054536 0.10545811 -0.6881725 -0.1386134 0.031094043 0.19812383 0.2385553 0.5329141 0.3504096 -0.5134341 0.07532063
事 0.011780858 0.07773113 0.124309614 0.27989945 -0.037995838 -0.34299827 0.23611723 0.10408722 0.574696 0.21758881 -0.6017226 0.6188229 -0.04070859 -0.25782502 -0.5792201 0.21588083 0.35510784 -0.019728618 -0.28450605 -0.15204348 -0.17177069 -0.22301854 0.38311207 -0.47099903 -0.14075798 -0.69450897 -0.08962991 0.079111144 0.81367475 0.11028694 -0.46498206 0.22983031 -0.11552036 -0.4331625 0.07582139 -0.055585526 0.46019742 -0.18404002 -0.39137512 -0.1336004 -0.10149292 0.7598569 -0.5289934 0.150827 -0.65277547 0.55144393 -0.41985232 -0.5343803 0.07972009 -0.5816115
是 0.7796002 -0.71073633 -0.2103734 0.2420173 0.61567205 -0.40982524 -0.20141976 -0.012319643 0.45852688 -0.18977922 0.2723031 -0.46612018 -0.03646154 0.08137905 0.2307295 -0.17428257 0.5331608 -0.21501523 -0.04621529 0.39839938 -0.6178789 0.20662162 -0.033616927 -0.17510888 -0.56949854 -0.3550647 -0.4771886 -0.15027837 -0.29985693 -0.07575639 0.30395672 0.639351 0.14988099 0.38755497 -0.39433593 0.66612786 -0.55811363 0.002099763 0.26875567 0.10977982 0.2697906 -0.02639485 -0.6825335 -0.20250683 -0.2210403 0.16932648 -0.34637377 0.18525562 -0.6458774 0.63348675
哉 -0.256212 0.15789516 -0.67631197 0.0040869694 0.29013404 0.28594685 0.29344192 -0.08712097 0.08426579 -0.25484034 -0.061929956 0.030864129 -0.16190392 0.986056 -0.5338597 -0.10432582 0.40826914 0.15635434 0.1879746 0.014331809 -0.47208428 0.2642292 -0.055347677 0.1616529 -0.027479038 -0.05266826 0.41744375 0.38913086 -0.4244179 -0.062522545 0.30640635 -0.2023996 0.13514934 0.18134691 0.20492914 -0.019168902 0.030386219 0.08879485 0.13072504 0.2984173 -0.33192393 0.09055629 -0.6860919 0.42751205 -0.075577565 -0.23117074 -0.16991876 -0.38542295 -0.20593141 0.17244777
闻 0.07127736 0.15512131 0.6060677 -0.048728853 0.23000866 0.5030526 0.1396583 0.021134403 0.08378262 0.15790914 0.83335584 -0.32645783 -0.49436325 0.5062292 0.05511052 -0.069483034 0.38854098 0.43180317 0.14603497 -0.39343265 -0.070741326 -0.47405607 -0.41592005 0.12614548 0.13977699 0.15363018 0.38632628 0.016269047 0.49705544 -0.31935027 -0.54819125 0.08261155 -0.27424598 0.31085053 -0.08043175 -0.6038986 0.010311545 -0.12307123 -0.25239497 -0.5039984 -0.49018875 0.39491948 -0.2257649 -0.36842036 -0.65544313 0.1421718 -0.17503345 -0.47919425 0.06851031 -0.628897
未 -0.45415604 0.33830896 -0.07275177 0.322443 0.35463926 0.017955739 -0.49320853 -0.25052023 0.50752336 -0.045067504 0.20443392 0.37773725 -0.09331565 0.4567015 0.07211262 0.12063973 0.50602746 0.62510484 0.17091917 -0.050357416 0.19042015 0.24453898 0.3569314 0.13063884 -0.29943958 0.007341764 -0.36850154 0.51346844 -0.01784037 -0.26168045 -0.29664364 0.37960714 -0.34513277 0.41220257 0.84441966 -0.47342032 -0.2522339 -0.018076343 0.23768403 -0.60618526 -0.065317154 0.19819564 0.064269334 -0.1391309 0.046912115 -0.13017096 0.016087271 0.0016285554 -0.45431602 -0.8451864
公 0.41301858 0.22368371 -0.9308001 -0.20579451 -0.32785943 0.08546714 0.096483074 0.25460535 0.10785946 0.8600006 -0.3505561 -0.33505446 -0.56314695 0.90409875 0.28213575 0.123108916 0.21134086 -0.3978315 0.30330098 -0.24867041 0.18762293 0.59828275 0.018758722 -0.059371606 0.30442223 0.21330243 -0.10962302 0.24277876 -0.40529576 0.55199254 0.20931892 -0.24009584 -0.12493898 0.48899028 -0.27060464 0.22484396 0.25739372 -0.29186106 -0.17249177 -0.72433925 0.1928565 0.4206172 -0.3534192 -0.45567894 0.28107587 0.47831535 0.51065886 -0.029061252 0.3891724 0.012516297
好 -0.34439588 -0.41435632 -1.2240217 -0.5530151 0.22681418 -0.3709346 -0.054752648 0.10271227 1.1019707 -0.15207206 0.08971996 0.0473348 0.6215431 0.37757975 0.32685703 0.16470341 0.08839426 -0.01506817 -0.045929387 0.08913529 -0.15578748 0.24699683 0.19573276 0.34021118 -0.2411748 0.6015235 -0.042451635 0.4844366 0.31516755 -0.28614116 -0.12454959 -0.5966542 -0.38946244 -0.30691543 0.4986494 -0.7622083 0.031355523 0.4230004 -0.42617673 -0.24641737 0.2847262 -0.38486627 0.16922322 0.23221959 -0.5158696 -0.2037435 -0.02174646 -0.60010076 0.19819531 -0.80602115
我 -0.58465916 -0.32895523 -0.36026385 0.011938982 0.84267914 -0.34111816 -0.07521417 0.32096007 0.46286947 -0.095119216 0.2955126 -0.14926307 0.14025436 0.24704021 0.11103585 -0.4597472 0.43984136 0.56951636 -0.09098134 -0.006008549 -0.14795299 0.0836749 0.11160843 0.12890145 0.052095763 -0.16725628 0.37459254 0.17634274 -0.6302801 0.14788972 0.28550604 0.31780925 -0.011988132 -0.25184017 0.20800732 0.032113317 0.021224977 -0.15418053 0.22821493 0.33634976 -0.4640621 -0.44588983 -0.3833043 -0.1675415 0.5350766 1.0369726 -0.5518987 -0.5711386 0.27204862 -0.5783769
路 0.41168094 -0.1593783 -0.2076287 0.6372686 -0.31557995 0.5131955 0.27669516 -0.469729 0.06792561 0.008658603 -0.29132393 0.12122869 -0.48236486 0.8566719 0.13458179 -0.5170776 0.506953 -0.4960037 0.032687057 -0.16566552 0.21903105 0.0913465 0.31528404 0.15008123 -0.35061154 0.2557469 0.27077428 0.27804005 0.08260531 0.23886539 0.15867916 0.41721 0.023378976 -0.59005845 0.2713473 0.31585118 0.42604464 -0.40421483 -0.27171114 -0.56494063 0.8852149 -0.10459807 -0.6287597 -0.14721708 0.4530683 0.02647004 0.02617067 -0.58951485 -0.24616025 -0.06685958
在 0.70151097 0.19598776 -0.4204837 -0.38394836 0.12577492 0.15121281 -0.40182132 0.93239856 0.43588918 0.53729236 0.56012106 0.2222996 -0.314203 -0.5183573 -0.22412628 -0.30417034 -0.32353914 -0.4634409 0.49824515 0.3417458 -0.64402324 -0.13753173 -0.76563877 0.78038967 -0.44227386 0.02028843 -0.2047463 0.18850774 0.6263637 0.009545437 0.0287204 0.24033277 -0.41171157 0.40963602 0.1799755 0.42582142 0.2719915 -0.18210159 -0.36385033 -0.28907707 0.38841176 -0.20943399 -0.5276218 -0.24892254 -0.17059712 0.014104855 0.19280295 -0.41164067 0.05054597 -0.73787093
已 0.73220253 0.54596925 0.19570474 0.22360069 0.28337243 -0.032897316 -0.18368149 -0.047440425 -0.16252708 0.3354196 0.5535604 0.2314704 0.40608227 0.80822843 -0.2045568 0.7611786 -0.61618453 1.1331338 0.022228956 0.27973726 -0.5802282 0.21939355 0.23378883 -0.9359564 0.24363735 0.42938247 -0.6495593 0.59662104 0.51209265 -0.2639715 0.2358293 -0.14254497 0.35137144 0.56188565 0.40447557 -0.74278605 0.53671414 0.45961344 -0.14368816 -1.4200087 0.41719547 -0.41358402 -0.10013624 -0.10469237 -0.29194188 0.2922325 -0.7028856 -0.8581846 -0.058393374 0.35973278
得 -0.20900667 -0.040683392 0.26111892 0.2947881 0.3191348 0.26561245 -0.36977455 -0.092733935 0.38020372 -0.47087014 -0.0037913758 0.18710408 -0.19025828 0.24957326 0.6635933 -0.09705244 -0.33497632 0.33465838 0.34943524 -0.041434046 -0.3237968 -0.2362068 0.3106764 0.5801427 0.06407998 -0.47599646 -0.31532463 0.13534944 -0.25385892 -0.10639981 -0.41428745 -0.10905943 0.13148731 0.3499641 0.04226379 0.040064134 0.38804784 -0.8158648 0.08747205 -0.26455027 0.5145502 -0.5543631 0.16282216 -0.18817024 -0.6025176 -0.17420255 0.24850763 -0.1607833 -0.42852953 0.15199988
所 -0.40323976 -0.31289825 0.1975321 -0.51317954 0.15940306 -0.20993519 -0.39914608 0.043577403 0.83225214 0.32079297 0.61193615 0.53981864 -0.047941126 -0.49022362 0.09429153 -0.7852315 0.117987715 0.22312196 -0.058818698 0.23803037 -0.22995724 0.06481783 -0.11925937 -0.20570147 -0.4327438 0.58837324 0.003966892 0.3007446 0.26972637 0.22204952 0.1515711 0.69211906 0.44304448 0.28145045 0.118099056 0.10131707 -0.1479806 0.4806464 -0.04218766 0.030497326 -0.01990585 0.2228592 -0.3494738 0.29755825 0.03259235 -0.33762917 -0.33803865 -0.41619605 -0.17504974 0.123614214
民 0.17406128 -0.3068349 0.3389721 -0.30957907 -0.19830021 -0.15767726 0.061472412 0.48856348 1.0047989 -0.20757332 0.7141267 0.6967178 0.05257797 -0.028576748 -0.37808326 -0.954915 -0.17995778 0.078854136 0.07526939 0.7913352 0.020908546 -0.7776149 0.3404804 -0.5723201 -0.6430108 0.05176857 0.7538477 -0.102993414 0.54283756 0.036829036 0.5744053 0.08957986 0.6327269 -0.4515711 -0.17127387 -1.0470091 -0.5467703 -0.4229753 0.08402033 -0.45971715 -0.46020928 0.052458804 -0.1475123 0.617311 0.051289767 -0.33209315 -0.4651347 -0.4538049 -0.315374 0.51903325
小 -0.51502717 0.6538685 0.3079077 0.20075516 0.13743429 0.31567162 -0.15516189 0.32143176 0.8858814 -0.70916003 -0.030242333 -0.16438195 -0.20319466 -0.17603289 -0.57596815 0.46691048 0.14013718 -0.5228835 -0.09148023 -0.010512966 -0.36245206 0.8997241 0.4465428 0.13707428 0.20908363 -0.29855356 -0.19693919 0.10565596 -0.66107816 0.24998443 0.036687322 0.09478925 -0.79513097 0.10690666 -0.19194496 -0.32172605 -0.0773558 0.34285954 0.57578015 -0.07555702 0.08525896 -0.012057268 -0.77448046 -0.2411172 0.1801745 -0.05651261 0.265792 0.35173956 0.22072515 -0.3849705
天 -0.107688546 0.3671944 -0.48196894 0.019210085 0.49583462 -0.7068727 -0.5734735 0.25149587 0.5819744 -0.12690434 -0.31027508 -0.4460644 0.47789428 0.2515824 -0.24063876 -0.29851976 -0.12618035 0.2350598 0.853019 0.34065798 -0.13642557 -0.39552844 0.16294752 0.31295246 0.6973079 -0.27695352 -0.26566502 0.026545884 0.50888425 0.820059 0.47565776 -0.22964877 0.09346983 0.030101696 -0.30542272 0.80425674 -0.7293102 -0.33053067 0.27365947 -0.08060398 -0.34628996 0.01878303 -0.44521046 0.13320063 0.111193255 -0.5518836 0.48579186 -0.09567189 0.33337995 0.2530657
乐 0.12736876 0.40317196 0.46250138 -0.40085512 0.44626856 0.36116996 -0.21932362 -0.6143058 0.5316411 -0.26714778 0.18062752 -0.40126783 -0.70780516 -0.10475948 0.41668212 -0.08834739 -0.509553 0.22330701 0.08640423 -0.14686075 -0.1590705 0.21085224 -0.025754847 -0.34551793 -0.23909988 -0.45096382 0.56215405 -0.17626154 -0.47427136 0.16313365 -0.5967525 0.22334614 0.2722625 0.589548 -0.41957262 0.34138712 0.07792176 0.15342896 -0.41382653 -0.6845093 0.46795794 -0.29153243 -0.024903294 0.46020412 -0.10313616 0.39751306 -0.21314995 0.20871674 -0.09267933 0.49929583
邦 0.12332288 0.15208998 0.050868303 0.38655043 -0.07893233 -0.60959184 -0.79696727 0.04193691 0.35016012 -0.27549997 0.46168366 0.16902804 -0.33238697 0.56709254 0.10452627 0.13148083 0.16194084 -0.2941583 0.6016155 -0.3001272 -0.7281007 0.47156218 0.3846633 0.11861108 0.36145338 0.10798198 -0.02743351 -0.72644097 0.13676678 0.4163202 0.46903333 -0.17718606 -0.82707584 0.11681912 0.09014825 -0.026944181 -0.28275463 -0.0013098901 0.37090394 -0.0057300553 -0.15492068 0.08808131 -0.10558079 0.14545885 -0.5267029 0.35352176 0.3399669 0.10068884 -0.06651168 -0.20680225
亦 -0.23893374 -0.34494096 -0.21579854 0.8381119 -0.38363978 -0.14449671 0.14117528 -0.19100325 1.0905513 -0.0056677517 0.50473034 -0.033362456 0.4847777 0.18827285 -0.19083557 -0.068467714 0.34115952 -0.45329437 0.6770445 0.29219973 -0.118768625 0.015108909 -0.62503135 -0.39570865 0.090078086 -0.16042846 0.030071914 0.2521384 0.43233395 0.39443502 -0.27432027 -0.80650127 0.39489785 -0.5026486 -0.087975346 0.536911 -0.106646225 0.42800683 -0.33568415 -0.09334227 0.29592752 -0.24287523 -0.85311097 1.1069579 -0.027135314 -0.1845987 -0.49846923 0.46287197 0.17064515 0.9984974
使 -0.22412027 0.17347352 0.21792257 0.60503083 -0.51409537 -0.49054557 -0.25438404 -0.26290777 0.47320798 -0.56411624 -0.30164722 0.11027458 0.35070476 0.09743519 -0.1953469 -0.21173602 0.43420598 -0.17952347 0.09458763 0.5905483 -0.09615435 -0.5309813 0.6194567 -0.0012616778 -0.5483426 -0.5615292 1.1242175 0.31729355 -0.0040558386 0.0022956056 -0.54208267 -0.033430364 -0.03915596 0.21886793 -0.010912079 -0.30126858 0.079976104 0.07076741 -0.19200824 -0.502381 0.28541112 0.8688456 -0.45930374 0.015700286 0.46757025 -0.2659081 -0.4787756 -0.38708213 0.0026504232 0.21545883
大 -0.46597135 0.71234715 -0.43292338 0.29016224 0.3316867 -0.23720683 -0.21124007 -0.43333808 0.35775957 0.43151888 -0.6334804 0.15505315 -0.27516574 0.084434174 -0.35384235 0.21126913 0.051641393 0.19682515 0.073086396 0.13769224 -0.09601213 -0.5984528 0.28861174 0.03398985 0.25885957 -0.43941963 0.47079673 0.22427844 -0.4015053 0.37164006 0.42279944 -0.23493434 -0.09433076 0.28144574 -0.709748 0.35199425 0.09523048 0.64606017 -0.54345423 -0.4237007 -0.28215212 -0.2941935 -0.02403367 -0.1653353 -0.15082513 0.075316586 0.28302836 -0.046694364 -0.3022028 0.4685295
下 -0.06883286 0.765043 -0.16053139 -0.053482268 0.01841266 -1.5486938 0.069238484 0.24809898 0.5346902 -0.068773635 0.23436889 -0.28027058 0.012132722 0.06371128 -0.0076043033 -0.35401362 0.14375527 0.3568381 -0.4872658 0.5695184 0.47996837 -0.35856548 -0.06217093 -0.20977439 0.5683149 -0.21926124 0.10610153 -0.3360645 0.3284726 0.23629801 0.63875645 0.08138552 -0.012687488 0.30331734 0.008009178 0.3896659 -0.32568556 -0.20789559 -0.35335785 0.100756794 -0.0909281 -0.30544782 -0.27302715 -0.05898051 -0.33611575 -0.038785443 0.7966753 -0.95914584 -0.19294208 0.44483775
贡 -0.18146369 0.23510318 0.42975888 0.33736762 0.06534592 -0.34883565 0.16637573 0.43253097 -0.35220298 -0.032257583 -0.5282979 0.2169991 -0.25838602 0.88906604 0.24534589 -0.92406505 0.108050376 0.27788985 0.23314781 0.11923141 -0.12945656 0.550563 -0.120766126 -0.43340713 -0.017239157 -0.17875165 0.4451696 0.0035348882 -0.23727816 0.054244872 -0.39782795 0.23142734 0.43725163 0.53559107 0.6597047 -0.32869512 0.27057478 -0.2609767 -0.7730572 -0.20067358 -0.45935354 -0.48633674 -1.3434893 0.5722279 0.01556503 0.95231843 0.3658977 0.0068945154 -0.10741473 -0.35230738
欲 0.6908811 -0.058929615 -0.42588085 0.8324393 0.23725705 0.139366 -0.06572746 -0.035607737 0.53330314 0.58306736 -0.023305513 0.16265322 0.10649632 0.07231946 0.06824677 0.19523665 -0.5670655 -0.12869124 -0.40979713 0.23098706 0.4193198 -0.37674308 0.038919184 0.6667167 0.6808729 0.063489035 0.09385 -0.2222373 -0.16808955 -0.11820444 0.41638687 -0.22842088 0.5724716 -0.37020245 -0.02862581 0.6787361 0.10234656 0.12633596 -0.3529236 0.15814137 0.07047607 -0.047395132 -0.15648352 0.025164822 -0.8296201 0.6332165 0.19526169 -0.2910882 -0.117122054 0.25766456
诸 -0.8556634 0.31124866 -0.027053913 -0.034335826 0.17064057 0.7933077 -0.58833665 0.10392763 0.25278926 0.5398798 0.57542145 -0.01685003 0.08435515 0.93269825 0.53547204 -0.3673608 -0.15251295 -0.07521554 0.9780251 -0.26586688 -0.4420614 0.79681754 0.25562325 0.4188015 0.250281 -0.35139805 0.7515143 -0.026981816 -0.109604254 0.20439547 -0.2843499 0.79429024 0.7601616 -0.6392055 -0.82330287 0.24137652 -0.1722421 -0.14760397 0.32396457 -0.019953042 0.6672597 1.1331122 -0.19207868 -0.08154594 -0.38251054 0.35337752 0.023772156 -0.9935675 0.42481425 0.17612694
从 0.11204775 0.068012506 0.12607786 0.6104654 0.22328012 0.643862 -0.080420054 1.0367957 0.53034794 -0.015256283 0.11686047 -0.08255566 -0.5991237 0.4689039 -0.38148627 0.18930076 0.38137215 0.14510491 -0.72916085 0.32598594 0.36708835 0.11985692 -0.34833863 0.7304892 -0.013651857 -1.1438642 0.28151557 1.1260813 -0.32326296 -0.46728614 -0.56486803 0.1343539 -0.26152113 0.096795864 -0.53981745 -0.28184158 -0.043452293 0.0011821109 -0.708854 -0.49461082 0.25282347 0.023204256 0.100141756 0.022200275 -0.24730276 0.06581501 -0.6053369 -0.16422765 -0.13966413 0.055617623
文 -0.79098237 0.09515191 -0.555514 -0.07510103 0.1499828 -0.45981154 0.81687975 1.039412 0.08448079 0.08619135 -0.2032825 0.34068796 -0.22425468 0.3859775 -0.056151118 -0.4653199 -0.1576043 0.6779018 -0.5301828 -0.19860837 0.062115245 0.20965375 -0.25317812 -0.5042761 0.4659004 0.04148929 0.1672378 -0.33426726 0.5533821 -0.0065067927 -0.26671597 -0.33381 0.039071213 0.8222475 0.005388458 0.023004793 -0.49693802 -0.12821575 -0.3083742 -0.7216526 0.3512881 -0.08935981 -0.40911934 0.42950627 0.08543966 -0.39429918 0.31277633 0.050034977 0.72881263 0.16819704
政 0.7126508 -0.20870633 0.120044276 0.778896 0.10680498 -0.2965737 -0.058765154 0.89640075 0.4806515 0.1722802 -0.3814572 -0.4218311 0.25134298 0.41324306 0.0015167164 0.12538518 0.36165136 -0.29295877 -0.16365805 -0.86897016 0.092777126 -0.13997714 -0.1444839 0.0060312 -0.047440983 -0.5209 0.023146627 -0.14946115 -0.053551044 -0.1846033 1.0027543 -0.4397163 0.25984076 0.05902594 -0.2149477 -0.5430305 -0.3346958 -0.22120856 -0.32105777 -0.118944764 0.34796298 0.018327845 -1.0517752 0.236854 0.4492405 0.0029376545 -0.5108994 -0.46831855 -0.42750794 -0.26810408
食 0.13495623 -0.068391174 1.0641434 0.0390746 -0.37301937 -0.13264458 -0.34729517 -0.69878113 0.71412045 -0.057818275 -0.5731116 0.012954669 -0.72498184 -0.23875237 -0.20545691 -0.09504325 0.30468088 -0.26482037 0.40162992 0.017098863 0.28207406 0.19192964 0.22025557 -0.1826047 0.18851346 0.78256136 -0.15850937 0.598295 0.70373714 -0.4773454 -0.20512919 0.1303698 0.3208664 0.057764605 0.39674953 0.5948796 -0.2610041 -0.4464744 0.4224858 -0.69958055 -0.41096008 0.06862568 0.04749248 0.0949809 -0.008052143 -0.30118343 1.0783759 -0.7254339 0.099384926 0.0021321224
善 0.2723817 -0.28197965 0.3532028 0.09480677 0.12540685 -0.32813668 -0.016429184 -0.45212156 0.9092984 -0.0858136 0.5608024 0.049237132 0.9816412 -0.0304877 -0.23861106 0.01725555 0.11906631 0.28478977 -0.8026699 0.26362458 0.12094718 0.80865157 -0.1472365 0.016991254 0.60070205 -0.19396098 0.81558824 0.01207253 -0.45776328 0.64638746 -0.09598057 0.37132922 -0.122568086 -0.38675338 0.45788583 0.023163706 -0.38516492 0.22233589 0.29683456 -0.334156 -0.024082065 -0.22931099 -0.28474712 0.8036887 0.12643763 0.7029873 0.13117577 -0.30596054 -1.0725558 -0.15200782
后 -0.28055167 0.37404042 0.5907785 -0.09034351 0.40707013 -0.064991586 -0.5641735 -0.5126763 0.6790869 -0.582659 -0.6099702 0.31725597 -0.33613232 -0.0935168 -0.018856784 0.043295126 0.10838483 -0.60427684 -0.18442166 -0.0915899 -0.25183356 0.2848771 0.06617356 -0.37060666 0.29157156 -0.17959675 -0.65489084 -0.109923586 0.6284258 -0.08673922 -0.2790149 -0.68936145 0.3957695 -0.58918893 0.33469304 -0.74115807 -0.23191474 -0.24567558 -0.86881834 -0.23560649 -0.45311987 -0.7802916 -0.38090754 -0.10211227 0.20376298 0.039632197 -0.08260945 -0.3522677 -0.5644744 0.360365
德 -0.033171844 -0.04649488 -0.17458661 0.68320084 -0.36209387 0.1447131 -0.14625995 -0.49496222 0.406363 -0.6227546 -0.35294014 -0.21276505 0.043535676 0.049405806 -0.21288048 -0.0010846745 -0.12920706 0.037202496 0.35346052 0.6760643 0.1678521 -0.39487326 0.8525947 -0.26667354 0.30728894 -0.9002308 -0.2065899 -0.4961946 -0.36622462 -0.65516734 0.32031664 0.30406624 -0.09181643 0.3768195 0.07258834 -0.11956914 0.24067207 -0.39105687 0.021987928 0.36147478 0.1279688 0.17317776 -0.9639649 0.13942166 -0.53423095 -0.3388998 -0.5232951 0.089241005 0.50123495 -0.6511344
求 0.41740483 0.83546644 0.0730018 0.529736 -0.41813573 -0.17407517 -0.7185641 0.71755886 0.48705414 0.64175457 0.14070788 0.048559844 -0.08574408 0.4442458 0.24904472 0.31954446 0.051780444 -0.10512199 0.070225455 0.16695856 -0.55038524 -0.37778568 0.5286798 0.24379626 -0.25233945 0.1590786 0.32165262 -0.06119851 -0.05631787 -0.6392143 0.33394244 -1.0665219 -0.19997412 0.009781117 0.19916508 -0.011625786 -0.15660225 0.46113312 -0.42546183 0.14236718 -0.17017922 -0.09453552 -0.5144867 -0.23094968 0.23153901 0.40669245 -0.048637085 -0.78037584 -0.47053778 -0.16458389
对 0.004436921 -1.0810738 0.2290389 -0.6332295 0.24363352 0.13419984 -0.39920697 0.04633632 0.24034987 0.17165697 0.2966381 0.007033132 0.427225 1.5596297 -0.50567734 -0.05481317 0.48737162 0.5401953 -0.07777616 -0.178016 -0.039942585 0.28780237 -0.16728562 0.7682846 -0.14748672 0.008809454 0.80618376 -0.26333702 0.06680393 -0.5842196 -1.1579006 -0.061605252 -0.016664179 0.25118533 0.51167524 0.38228387 -0.090005144 -0.057410255 -0.62528735 0.25927183 0.26700333 0.45276773 -0.36058897 0.24131288 -0.81690806 0.40090686 -0.37262467 -0.44244716 0.10091635 0.030822538
恶 -0.6809839 0.06792054 0.06000695 0.20288 -0.12074069 -0.012229208 -0.29508808 0.36549735 0.78262675 -0.54524136 0.6469384 -0.74075073 0.15330969 -0.24860376 0.09562042 0.4150241 -0.564707 0.23232488 -0.1291408 -0.05138168 -0.38827553 -0.42905378 -0.41661778 0.23977055 0.1672337 -0.5762773 0.35147047 0.19221167 -0.5716357 0.37640497 0.31516436 0.6628356 0.29070023 -0.28925493 0.3124296 0.74887794 -0.054879364 -0.20631537 0.42776352 -0.6437544 -0.053760123 -0.054459404 -0.5349748 1.1251811 -0.5577133 -0.42087322 1.044649 -0.1970109 0.57617015 -0.40530267
信 -0.23321654 -0.50669235 -0.78736657 -0.3231746 0.7283929 0.6167388 0.13228281 -0.2081741 0.9821513 0.2942446 -0.35502404 0.8785277 0.6357249 -0.07483362 -0.4919647 -0.24633981 -0.070728034 0.025876345 -0.1796451 -0.09105685 -0.123064876 0.21086097 -0.15741968 -0.12151109 0.932901 0.03686916 0.7281566 0.057671838 0.18355781 -0.24721158 0.34701383 0.11130578 -0.26042062 -0.25381386 0.32464138 0.24323712 0.21103084 -0.32056406 -0.8379125 -0.563743 -0.23807205 -0.210089 -0.25712916 -0.0031074607 -0.330935 0.29602438 -0.3624139 -0.20546196 -0.22060873 0.58626163
死 0.107119 0.02230655 -0.6305003 0.20815499 0.864259 0.09030993 0.5592569 -0.6726623 0.5357206 -0.3290824 -0.043692116 -0.065209046 -0.51183605 0.036784414 0.34413958 -0.05992604 -0.11426339 -0.029366892 -0.46060377 0.54302984 0.21561144 -0.3369222 -0.111223504 0.20541741 0.80087 0.4278002 -0.2712812 -0.53191537 0.54348004 0.48156145 -0.24340273 0.04928035 0.11317927 0.22512887 0.08207253 0.5461342 -0.108807065 -0.11857344 -0.4355544 -0.49297172 0.11082681 0.079132244 -0.15750034 0.50189173 -0.11067063 0.016765945 0.1430459 0.039326627 -0.41044003 0.74422294
然 -0.29693973 0.21586922 -0.09173146 -0.96444905 0.064034075 0.34558663 0.10667921 0.25577256 0.5069048 0.08237825 -0.9570714 0.8203021 -0.3998444 0.087088704 -0.06507329 0.12806343 -0.27449757 0.17902008 0.19442497 0.41617614 -0.5289631 0.35898113 0.17829637 -0.3734061 0.41488314 0.16788112 0.1640782 -0.28960845 0.59432256 -0.09246467 -0.101656824 0.28335276 0.049710013 0.2254313 0.35796487 0.5307304 -0.58276206 0.11153644 -0.30330372 -0.22256795 -0.5750754 -0.77903455 -0.70894617 -0.5615736 0.38544676 -0.09541363 0.29234248 -0.72846633 -0.66728514 -0.17191981
《 0.39284205 0.15172525 0.2328469 -0.85630834 -0.6869241 -0.4313557 -0.22838937 -0.5873134 0.7576378 -0.92224854 -0.18533206 -0.7813764 -0.5330468 1.0251694 0.24419309 0.17795783 -0.8321153 0.7545983 -0.6796881 -0.65850264 -0.46665087 -0.028808152 -0.6047573 -0.12415375 0.5698718 0.16131374 -0.21642038 -0.11157006 -0.04110309 -0.51376474 -0.36567658 -0.18691513 -0.11915118 0.63239425 -0.13851161 -0.20666201 -0.38365096 0.055742964 -0.68464714 -0.90345854 -0.4552395 0.09344188 -0.2814004 0.3548437 -0.21847256 0.1102114 -0.2688873 0.5867647 -0.034318037 -0.3434194
》 0.33350092 -0.6764163 0.17969798 -0.81229085 -0.21954829 -0.56364137 -0.6411179 -0.9153508 0.48342758 0.35177234 -0.004420354 -0.26684856 -0.53361624 1.0693009 -0.11565677 -1.2582202 -1.1533124 1.0260788 0.2539962 0.09086451 -0.94048345 0.17693806 -0.88525945 -0.6234727 0.27376547 0.1117089 -0.0016253355 -0.4113061 -0.5254642 -0.08922581 -0.28498977 0.42422467 0.09793571 -0.33330408 0.25316027 -0.41662547 -0.2791956 0.9517973 -0.33169508 -0.5180557 -0.66669655 0.14279728 0.3215655 0.5504928 0.13984154 0.4429091 -0.5510266 -0.32365382 0.6369641 0.10548047
由 0.74788773 0.46444944 -0.9478452 0.33180636 -0.4402683 0.9684652 -0.19745143 0.19019066 0.26708874 -0.17969903 -0.2974892 -0.20910826 0.15303627 0.9224794 0.5856431 0.5697455 0.17043343 -0.47155872 0.5117748 0.31164685 -0.12799972 0.25798592 -0.20492609 1.5234382 -0.15293981 0.43957034 0.69758517 0.09887641 0.2969747 -0.5058611 -0.5136246 0.1498776 -0.13073556 0.041487686 -0.09381532 -0.43394494 -0.20472452 0.63892984 -0.6008642 -0.14448005 0.2904127 -0.2693332 -0.5521492 0.41607913 -0.061013754 0.1324284 -0.27953178 -0.51190394 0.07410387 -0.18270312
仲 0.1564815 0.21217705 0.42068228 -0.045093928 -0.024973711 0.34715146 0.39222983 -0.24532612 0.03472935 0.49373373 0.11032984 0.08135946 -0.43979618 0.707874 0.3672202 -0.7240584 -0.26268563 0.34264767 1.0057575 0.72306097 0.15740587 -0.04677054 0.48778886 0.026460962 0.2899546 0.21719772 0.35232332 -0.523697 0.14534171 0.06704814 -0.5362137 -0.63619804 -0.23564327 0.86028033 -0.015200305 -0.8028685 0.77623487 -0.2940673 -0.24052356 0.11730268 -0.48384127 0.07027918 -0.77072024 0.06647498 0.15214351 0.7287169 0.54123837 -0.062405407 -0.05594085 0.6704916
非 0.07376907 1.2367004 0.45720726 -0.23070605 0.06434306 1.1667905 0.15118848 0.301859 0.9600902 -0.016570643 0.1338084 -0.30218452 0.30220678 0.5335641 0.81763494 0.149485 0.12046176 1.0049168 -0.20099334 -0.29037935 -0.0076525374 -0.5089289 -0.2942825 0.23962852 -0.663885 -0.04410347 -0.3673509 -1.158794 0.60410005 -0.0674491 -0.93045706 -0.59199506 0.15336291 -0.19956164 -0.2514326 0.7225262 -0.5281998 0.7359234 -0.6360346 -0.04260681 0.67412245 -0.017554238 -0.27857783 -0.18782644 -0.6213279 -0.1120673 0.0039238203 -0.505777 -0.32811707 -0.17761594
出 0.34233686 0.58287627 -0.074290074 -0.19527902 -0.015646545 -0.10189872 -0.45853496 -0.27801007 0.11781862 0.9091179 -0.059083395 0.14240831 0.35348418 0.36573526 0.82503635 -0.22886692 0.018048633 0.16786759 0.2102787 -0.51418614 -0.46289188 -0.30024225 1.0749108 0.55480945 -0.040272873 -1.1105295 -0.6749984 -0.13062766 -0.055417486 0.10154694 0.79356223 0.9276394 0.4485372 -0.4806317 -0.14531098 -0.30186006 0.23382847 -0.20632029 0.5471316 -0.5639054 -0.42755556 -0.351418 0.05164502 0.035331722 0.4373974 0.047110192 0.29730463 -0.057159305 0.7075973 -0.08257239
过 -0.37374565 -1.1695799 -0.051028375 0.23614211 0.16629675 -0.1677985 0.058141332 0.1404502 0.43335998 -0.30260104 0.4161721 -0.73582035 0.36578876 -0.49225 -0.12805903 -0.04970509 -0.3658319 -0.38384607 0.06494786 0.65879697 0.22525708 0.75674015 -0.15603279 0.50935644 0.10998198 -0.45352075 -0.34620917 0.43693846 0.38590798 -0.108379625 -0.20786065 0.2784484 0.6015784 0.6354371 0.08603432 0.06282136 -0.48030987 0.28521284 -0.6822155 -0.06846612 0.86593866 -0.054773036 -0.7009917 -0.16606835 -0.2815683 0.33839035 0.49343532 -0.24678782 0.48712778 -0.24037701
一 -0.21552788 0.22592165 0.2179184 -0.29545507 -0.8187072 -0.32263592 -0.90632683 0.0035182317 1.0466136 -0.10422456 -0.25256085 -0.588407 -0.41586688 0.38463908 0.06659873 -0.37703222 -0.07975918 0.35086095 0.18595907 0.13057528 0.3339821 0.10670026 -0.13559566 0.3372432 0.4274792 -0.028443983 -0.058965545 -0.4192201 0.77484167 -0.47671586 0.43051997 0.3847253 -0.08340726 0.39852607 0.6204494 0.473385 -0.876799 0.014829199 0.36697158 -0.13558449 0.23710085 0.6286435 -0.05305913 0.47810596 0.6136894 0.045096405 0.34936723 0.22996902 -0.72555375 0.48689812
虽 0.25641313 -0.09944049 0.13717933 0.17851785 0.28962633 0.11879181 -0.13927703 0.3457948 1.5350574 0.35332453 -0.08862867 0.037064206 -0.5476334 -0.14375293 -0.49451345 -0.4910901 0.48060223 -0.19849038 -0.27179155 -0.2687602 0.7952399 -0.82590693 -0.456267 -0.9463312 0.08161861 0.8705231 -0.4293013 0.05341196 -0.57179785 0.008191853 -0.24185377 -0.693161 1.1683695 -0.106007114 0.8379825 -0.45291027 -0.24496692 -0.33680668 -0.68790054 -0.43647647 -1.0659828 -0.58128387 0.049017165 -0.09603391 -0.6183752 -0.46119547 0.7813579 0.1673428 -0.014372859 -0.123606324
足 0.576318 -0.16615912 0.0015123597 0.06542609 -0.004283966 0.23255923 0.22777455 -0.97336656 0.9446644 -0.7119782 -0.18374425 0.006008867 0.54415333 -0.38735846 -0.23601392 -0.5674038 -0.6168179 0.92616045 -0.038669266 0.70712566 -0.50002867 0.47189236 0.14835206 0.70956856 -0.28841072 0.51117283 0.47590077 -0.26182124 0.46422228 -0.834335 0.16374695 -0.002221862 0.6192339 0.0632461 -0.017122582 0.40428144 0.6274948 0.5643719 -0.076857395 -0.12023329 0.3006691 -0.5963941 -0.50733954 0.80858094 -0.4517818 -0.563706 0.2028847 0.8520636 0.7957757 -0.5993793
居 -0.24694334 0.06740952 0.6875106 0.13559751 0.5340219 0.7679209 0.29711765 -0.16099934 0.5712766 -0.002681296 0.73873085 -0.45565322 0.30118755 -0.01107146 -0.6139242 -0.70638233 -0.71288556 0.38953763 -0.20451407 0.16230161 0.25354138 0.37326437 0.5545267 -0.021569522 1.007505 0.80070966 0.6709866 0.27103218 -0.16871613 0.28081462 0.36480346 0.05943958 0.12100818 -0.12878084 0.5011676 -0.47134405 -0.37406215 -0.47483286 -0.28728312 -0.2336246 -0.06446322 0.63596404 -0.289333 0.048076235 -0.14451423 0.10584993 0.1756654 -0.026945068 0.526259 -0.21605954
尔 0.33032066 -0.21076521 0.043799844 0.054898307 0.2964143 0.39417747 -0.55754924 0.25163344 0.38594002 -0.2282414 -0.22468515 0.29733208 0.089540854 0.834823 0.046338983 0.22698249 0.3312053 0.55478185 0.35404167 0.073984586 0.04326335 0.027488343 -0.23161633 0.8804591 0.124234706 -0.084624626 -0.5974554 -0.12861161 0.22448917 0.20599493 0.8389694 0.109375075 -0.5039912 0.36075738 -0.7543349 0.6378905 -0.19697765 0.55081934 0.21420425 -0.13131869 0.44503 -0.5200133 -0.06059637 -0.6071975 0.23084857 0.6670898 -0.46546972 -0.057273045 -0.0056878068 0.44926998
夏 0.6373269 -0.64904356 -0.50543934 0.3566249 -0.35881868 0.54145694 -0.19852455 -0.36501023 0.17041306 0.16048285 -0.23735228 -0.22895359 -0.23619774 0.7908816 0.18147793 -0.3717648 0.23153882 -0.75693035 0.37308213 -0.10695387 0.020095624 0.9185099 -0.5158698 0.08297359 -1.0146345 -0.9156367 0.44555065 0.15907054 0.31463537 -0.67728215 0.010377118 0.06258913 -0.47174633 0.24185498 0.3023919 -0.39001188 -0.3752053 -0.55524933 -0.24020852 -0.5071169 -0.20722088 -0.9773545 -1.3592107 -0.052984662 -0.049297515 0.113876455 -0.02482037 0.40825838 -0.0010203291 0.01631955
父 0.05995759 0.35190564 0.63639987 0.26976725 -0.32310835 -0.43832898 -0.67894197 0.7471964 0.48655462 0.5752433 -0.78227717 0.8054149 0.08060216 0.16196348 -0.31797475 0.4119016 0.6827118 -0.55039537 0.38724193 -0.9379552 -1.713132 0.43630102 0.034744583 0.5110052 0.40387365 0.49969268 -0.048471566 0.1093494 0.18947892 -0.7049861 -0.3771732 0.38152894 -0.97476935 0.5438937 -0.7164202 -0.57334787 -0.5553459 -0.18493421 -0.18959372 -0.22065498 -0.123124324 -0.40151578 -1.029696 0.10433093 -0.6971437 0.37447077 -1.2163336 0.7353169 -0.4621457 -0.3637862
及 -1.1883513 -0.23640282 -0.70104563 0.17982507 0.028297843 -0.033937845 0.14793067 -0.8202543 0.7179947 0.52582633 0.3387583 -0.012548535 -0.69955194 0.14395186 -0.66836655 -0.2959587 -0.6840992 0.2698896 -0.26595154 0.013003692 -0.74400926 0.33256802 0.21318531 0.6150647 -0.22988784 -0.17538211 -0.22539608 -0.7555628 0.14998744 -0.3485501 -0.51675355 -0.7407895 0.6444588 -0.021938158 0.8492383 -0.20583606 0.45651802 -0.14539228 0.35497123 -0.14561966 -0.34972614 -0.6454789 -0.24415681 -0.7051814 -0.0869863 -0.61602056 0.016846761 -0.25039852 -0.042786375 -0.4508356
己 0.015045031 -0.22568339 -0.25891042 0.5096915 -0.5819795 1.1987586 0.16198678 -0.35659367 1.2449311 0.10353829 -0.24307981 -0.35729703 0.051641457 0.20340237 0.27933308 -0.21731214 0.17679958 0.0012333392 -0.1387717 -0.21213438 0.6486639 0.4336698 0.6964311 0.8086979 -0.2928995 0.30248448 -0.0669442 0.4028182 -0.36287108 -0.744067 0.30474362 -0.2427805 -0.58287776 0.31129423 0.17080891 0.16104425 -0.05223168 0.8329127 0.6286565 0.15242237 -0.69010955 -0.07619097 -0.1479778 0.6595545 0.8564118 0.63974255 -0.08133898 -0.6324618 0.09844572 0.007626532
予 0.03195946 -0.4644821 0.5737621 0.54491836 -0.042773668 0.30130467 -0.49906754 0.02637089 0.40921947 -0.66507334 -0.7471696 0.20379981 0.060007453 0.7293179 -0.06323411 -0.2209791 0.38012716 0.5722137 0.56117827 0.37173423 -0.2575644 0.25381058 0.031799093 -0.22765486 0.5281995 0.7890395 -0.719594 0.25437945 0.3651767 0.54903114 0.15471806 -0.33202696 0.526203 0.7869693 -0.48951587 0.33377233 -0.76155436 -0.11863763 0.43361798 0.04132949 -0.84537476 -0.49133223 0.1500278 0.5845129 -0.109151825 0.12312044 -0.0968524 0.03440775 -0.3644894 -0.7998674
色 0.29963902 0.13382651 0.7111786 0.26597613 -0.913065 -0.37506723 -0.20882243 -0.22107558 0.11395207 -0.2559455 -0.36703655 0.30306074 1.0094624 0.13038497 -0.22556624 -0.841477 -0.24124067 -0.30932292 -0.26414204 0.35469425 0.36555028 0.18846 0.24961105 0.5224751 0.17868577 -0.3899387 -0.5671562 -0.099741496 -0.19755538 -1.2171348 -0.2828238 0.42204025 0.114885435 0.73265886 0.6662358 -0.5206292 -0.09560802 -0.008232587 0.10281936 0.023823388 0.015828662 -1.2611237 0.38283044 0.9677286 -0.3664562 0.16740306 0.16157031 -1.3253657 0.5448031 -0.26706713
友 0.6396351 0.34346494 0.20854312 -0.29027697 0.09814048 -0.24706802 0.17602663 1.3212252 0.5947627 0.56329805 -0.06696305 -0.108614005 -0.082368724 0.050056417 0.12026105 -0.6676333 0.37987807 0.16377981 0.06511014 0.11373072 0.5513096 -0.10083008 0.50048214 0.40073037 0.5789754 -0.1403773 0.9208067 0.17763634 -0.4651198 -0.4390614 -0.13412718 -0.123162776 -0.010178552 0.4436582 0.471984 0.07848166 0.89870685 -0.06690496 0.28662056 -0.03641161 -0.20513074 -0.4516872 -0.10224522 1.3470496 0.08070636 0.5935125 0.20089877 -0.156413 0.12937145 0.47694373
成 -0.7253973 0.3089609 0.9228878 -0.22788528 0.11765794 0.104101054 -0.3205974 0.30622387 0.42232952 -0.14777952 0.2404995 0.098619774 -1.2290918 -0.38783216 0.4986876 0.3242717 0.03891943 -0.28249758 0.19622824 -0.96912396 -0.15496284 0.08169758 0.5798465 -0.37526178 -0.76856387 0.3661556 -0.026103472 0.3909901 -0.6267154 -0.44515046 0.28075567 0.2748519 -0.1196237 0.11899761 -0.13328947 -0.39538002 -0.10471438 0.21304984 -0.5228846 -0.6636873 -0.035789803 0.13924314 -0.653246 0.5079526 -0.8771803 0.008284101 0.038639948 0.020472504 0.21027893 -0.38015613
远 -0.26869285 0.37793028 0.75599843 0.3956592 0.5771964 -0.7234234 0.1688811 -0.18301465 0.09486092 -0.14310785 0.70546746 0.017518343 -0.5702694 -0.23070955 -0.0842557 0.209866 -0.6514712 0.11832581 0.99297565 0.6618268 0.018455617 -0.01611053 0.38932583 -0.1560175 -0.4143897 0.063945204 -0.5725557 0.45816344 -0.625922 0.39395073 0.32675517 0.29561207 0.43423864 -0.5874532 -0.5779526 0.07953147 -0.3135755 -0.0672984 -0.7594383 -0.7519425 0.33782282 0.60078883 -0.7720638 1.1382958 -0.79232097 0.30692175 0.34364226 -0.004246254 1.163571 -0.56121385
上 0.40712506 -0.48932958 -0.006583488 0.7106202 0.13369589 0.030990932 0.48535237 0.39816368 0.84584755 0.15421994 0.091232635 -0.43338418 -0.56528044 -0.19883181 -0.16046228 -0.20787603 0.11623958 0.23054036 -0.80689347 0.29954252 -0.40297425 -0.34562147 0.52470255 -0.54909617 0.4376378 -0.024848921 -0.46914434 1.3095886 0.13175574 -0.5147261 0.78290474 -0.04637099 -0.3123731 -0.1276662 0.43044174 -0.48385325 -0.7515484 0.77431697 0.11502495 -0.05674734 -0.90202856 -0.48131117 -0.42554346 1.041637 -0.5673839 0.8486669 0.6501851 -0.008770775 0.047891233 -0.50697166
立 -0.73570037 -0.20901093 0.81845725 0.056155965 0.34617153 -0.5275023 -0.4043822 -0.73270035 0.7150202 -0.4721625 -0.00057351246 -0.62166816 -0.43201178 -0.2567395 0.45978096 -0.23930202 -0.08249508 0.90668607 -0.18790676 -0.16360867 -0.013471742 -0.094450645 0.29965267 0.80275476 -0.6299786 0.06355475 0.059200794 0.07313068 0.035798285 -0.67074656 0.22485195 1.4988359 0.121726885 -0.058779452 -0.44524434 0.3203991 -0.117443234 0.47056448 -0.4731187 -0.056874804 -0.23191606 0.18992992 0.38799217 -0.9595654 0.19538365 0.3706032 -0.3425512 -0.13323894 0.77453834 0.060688674
今 0.32693297 -0.023974491 -0.7096068 0.5211502 0.0019357316 -0.22411595 -0.25571367 0.88456446 0.47092453 -0.6308513 -0.06187842 0.11230104 -0.47811913 0.39419878 0.08802836 0.013101246 -0.36242676 -0.31407914 0.3074132 0.4215894 0.5920011 0.099771984 0.59344953 0.29123905 -0.43629235 0.41706353 0.6715454 0.107039966 0.19187371 -0.20808169 -0.6422935 -0.42545295 0.33937085 0.34433162 -0.58130634 -0.31952992 0.15797816 0.17765097 -0.1881579 -0.17864718 -0.33547676 0.17923047 0.08589201 -0.9156313 0.34830892 -0.16457058 -0.09559786 -1.2012906 0.39761883 -0.080730245
张 0.45487738 1.0544578 0.27973703 -0.0055932538 0.07624599 0.13412638 0.112472 -0.33339655 -0.10396936 0.31182706 -0.7798798 -0.13033228 0.103841335 1.5489315 0.822472 -0.8217342 -0.097952396 0.28610712 -0.09516476 0.3780511 0.53069043 0.3452927 0.21371286 0.29304522 0.7724845 1.0094635 0.78366363 -0.84634584 -0.88235974 -0.024460627 0.6857095 0.1906995 -0.21334709 -0.6277173 -0.6839523 0.19911477 -0.65291244 -0.06485472 0.16626337 -0.35502517 -0.52159387 0.35133958 -0.88109165 -0.50863093 -0.27552316 -0.9171143 -0.3221405 -0.15431552 0.27474388 -0.29957467
中 -0.5486145 -0.316658 0.118077494 0.16057792 0.2316467 0.050548658 0.38459268 0.34503812 0.72826433 -0.3646284 0.05373454 0.020100104 0.30917612 0.02277727 -0.028087819 -0.52879965 -0.11074731 -0.09719214 0.042405214 0.63652813 0.11598111 -0.011847178 0.61576164 0.61974496 0.68406564 -0.5803716 -0.6741426 -0.6367595 0.4086555 0.18887265 0.5304072 0.12938727 0.2813638 -0.24576025 0.29417384 0.5502703 0.1512628 0.66111356 0.6360744 -0.44065908 -0.9960911 1.2058523 -0.401334 -0.24940959 -1.6833336 -0.23695327 -0.13317706 -0.06822765 -0.014196462 -0.29231042
季 0.03335457 -0.23919559 -0.5398826 0.043387793 0.73335576 -0.5261382 -0.11685971 -0.62402207 0.03991858 -0.298827 -0.86741155 -0.12404575 -0.83180135 0.9151749 0.2855251 -0.8817032 0.5967696 -0.17595777 0.20195445 -0.044731107 -0.7085897 -0.3330986 -0.13741991 -0.8468712 0.23820382 0.0177799 0.77137643 -0.29352474 -0.3227417 0.3042647 -0.5382597 -0.408334 0.2744705 0.42640778 0.32679117 -0.32389733 0.52394533 -0.6435174 1.027194 -0.67297363 0.7855903 0.011186886 -0.5725563 -0.40647858 0.84352344 -0.099878184 -0.46781078 -0.20007119 0.05255499 -0.7114444
臣 1.2991366 0.30716142 -0.19455393 0.60495305 0.56870276 -0.7620853 0.17002048 -1.4172235 0.6715231 -1.0606694 -0.11588637 -0.13874856 0.12797235 0.25349075 0.10695474 0.22749798 -0.2934814 -0.1983168 0.107698515 0.09407747 -0.9927327 0.0353704 0.094066724 0.4180717 -0.6668472 -0.09699132 0.6636047 -0.24446881 0.1265669 0.04018284 0.64597166 0.030608656 -0.14366587 -0.20230366 -0.35475156 0.20086548 0.0165199 0.21985242 -0.13064308 -0.17471598 -0.843184 -0.7699448 -0.35539976 0.35369575 -0.2882234 -0.4213125 -0.45492947 0.29725933 -0.019146532 0.37912914
贤 -0.08400266 -0.23254561 0.40322813 -0.40724477 1.0776484 0.42471874 -0.7507766 -0.10844766 -0.13483849 -0.30650225 0.11856016 -0.15156737 -0.11119889 0.2483114 -0.30710968 -0.3042346 0.2190993 -0.48491302 -0.20541881 0.86954963 -0.61642826 -0.46528047 -0.76722294 0.9745826 0.59298795 -0.23245744 -0.43508518 -0.25766432 -0.8253083 0.81746864 -1.6776243 0.2706843 -0.41961765 -0.111886494 -0.9018099 -0.75613517 -0.3564811 0.34517503 -0.49553198 -0.8174176 -0.18765052 -0.90665096 -0.123821504 0.9324431 0.21366861 0.25273615 0.4415983 -0.05278993 -0.6979092 -0.45665014
思 0.7179552 -0.040009458 -0.289329 0.23386627 0.41476974 -0.18119839 -0.03400227 -0.22766626 0.47109234 0.6370773 -0.59668344 1.4797302 0.06013452 0.44344035 0.24830405 -0.8878202 -0.6301773 0.362675 -0.6605356 0.0829441 -0.701792 -0.3819615 0.08974689 0.44369882 0.6738197 0.4918723 -0.5588296 -0.051257268 -0.18837376 -0.12452369 -1.8717985 0.22135925 0.033005398 0.20553613 -0.025972605 -0.21074626 -0.63621104 -0.51046664 -0.51232994 -0.01681247 -0.2405273 0.9553522 0.15950242 -0.57337594 0.045017663 -0.1823706 -0.2052185 -0.7678919 -0.3032307 -0.27358854
齐 0.043917716 -0.22305734 0.40202212 0.10267362 0.04783024 0.09767361 -0.35426858 -0.33534312 -0.24315776 -0.38688013 -0.8807852 -0.92887765 -0.6203665 0.37993565 0.5017469 -0.8362554 0.24393186 -0.49236467 0.6110067 -0.6214303 -0.94450057 0.38837427 0.17771591 0.31044525 0.5702314 -0.6859196 0.18777904 -0.8654842 -0.53609324 0.8949976 0.16730887 0.14818956 0.65673125 0.9900491 -0.26451805 -0.17717817 -0.18129723 -0.2126708 -0.12033115 -0.1357719 0.17018595 -0.5274108 -0.21336468 -0.09827064 -0.18030936 -0.055793256 0.521206 -0.3946076 0.29704684 -0.28729737
义 -0.336731 0.24047439 -0.69251496 0.5251347 -0.48829556 0.49799046 0.06582952 0.50249404 0.77113557 -0.46471253 -0.6145075 1.0021768 0.39896962 0.68973225 -0.29294878 -0.4003465 -0.18056162 0.24481824 -0.40146115 -0.49339974 -0.3935982 -0.06207009 -0.26693222 0.22815989 -0.020053927 -0.759965 0.016415486 -0.09323734 -0.43704998 0.54331 -0.7192461 0.47500512 -0.7361494 0.08963129 -1.0673451 0.15529321 -0.8594131 0.6744771 -0.5500886 -0.7309338 0.23663479 0.5095607 0.3321195 -0.47340968 0.10520636 -0.67022985 0.1883458 0.14977962 0.2854514 -0.3937757
正 0.18045563 -1.2957538 0.8798439 -0.10908485 -0.65906423 0.70100826 0.005355247 0.44578123 0.25204474 -0.5950143 -0.1199763 -0.1931302 -0.83120835 0.080494806 -0.6193351 -0.01360582 -0.39723206 -0.29646945 0.5372183 -0.3798164 -0.69397676 0.057155 0.31403872 0.9126234 -0.20577092 -0.5115825 0.10170466 0.53748703 1.1088519 0.17877123 -0.07764375 0.0053236866 0.43072477 -0.06286024 0.16555308 -0.26198626 0.9243478 -0.69975984 -0.19911756 -0.72098184 0.84601563 -0.06014131 -0.5580654 0.48615268 -0.49266264 0.16900097 0.061831217 0.29420364 -0.67380357 0.20234114
命 0.76928675 0.15470919 0.07896423 -0.017393189 0.32326517 0.1588612 -0.7485124 -0.097958446 0.7188901 0.2335321 0.10923209 -0.056166217 -0.12096619 -0.12007278 0.27755952 0.36425266 0.4688362 0.08276659 0.32959515 -0.17909989 -0.3909785 -1.1725965 -0.100850396 -0.7664525 -0.033658214 -0.35833263 -0.062229514 0.060031895 -0.29249367 0.8051188 0.0933157 0.39111552 -0.3528608 0.4279221 0.2969743 1.2807947 0.29176503 0.8312262 0.8100968 -0.48216018 -0.0033372862 -0.25462732 -0.45382282 -0.17942661 0.10794372 0.029500075 0.3780504 -0.4124339 0.26749492 0.16772595
曾 -0.63175035 0.2857104 0.7362227 0.5551752 -0.19320762 -0.5288455 -0.96997935 0.1546927 -0.3174284 -0.4597457 -0.7006459 0.03223314 0.08976392 0.34836367 0.38460788 0.033442877 0.028190771 -0.6755388 0.122416764 0.17489961 0.26155272 0.36524352 0.14674462 0.3992473 0.48358205 0.19321953 -0.65294397 -0.39209637 -0.18712221 -0.837669 -0.061761 0.6675945 0.46867013 0.66839945 -0.10542175 -0.25908583 0.29035407 0.0220274 -0.11529661 0.22946961 -0.46301267 0.06610617 -1.5896176 0.034242563 0.2280525 0.41453385 -1.1383708 -0.40695858 -0.04489487 0.7517554
伯 -0.0606413 0.62049407 -0.6857889 0.38736656 -0.38604173 -1.1206739 0.060197867 0.50641406 -0.12899482 -0.065836035 -0.31156105 0.42825192 -0.36795363 0.23676455 -1.0263244 -0.5573484 0.1963472 -0.39736935 0.33478013 -0.58807343 -0.3852058 0.50210357 -0.4358041 0.106875494 0.13211161 0.11523988 0.6957333 -0.40449467 -0.9138375 0.34839955 0.2600558 -0.08545072 -0.19654359 0.03767901 1.2073388 -0.8351836 0.087923765 0.51498604 0.019334191 -0.7138896 -0.4017681 -0.09577178 -1.263037 0.10756134 0.061185163 0.5787826 0.64965403 0.20642668 0.71005845 0.41596293
门 0.99104875 -0.7058571 -0.4747897 0.6543633 -0.6303986 0.07037956 0.27873743 -0.35725126 0.82927996 0.08177842 -0.22153264 -0.3973935 0.12212978 0.18874602 0.40901127 0.3373604 1.0292202 -0.5182729 -0.07635017 -0.71775806 -0.63897246 -0.61025316 -0.05445289 0.8230466 0.29950425 -0.3662554 0.08197703 -0.9623439 -0.25236845 0.34803933 -0.030569833 -0.09086642 -0.37765914 -0.22226703 0.5015722 0.1134213 0.16361846 0.4778414 0.98183686 -0.71382433 0.29476345 0.914025 -0.9389808 0.24832818 -0.124756284 -0.19378039 0.39398062 0.12575465 -0.62207556 -0.11149215
敢 -0.3547926 0.84162956 -0.05082167 0.19491485 0.030916302 0.3678355 0.70545614 0.58995205 0.5922847 -0.47703746 0.873013 0.637161 -0.45875558 0.30258092 0.48751476 -0.60733074 0.5156406 -0.2492791 0.4778157 0.20148464 -0.63961047 -0.47617942 -0.2805994 0.6277564 0.20872054 0.32739446 -0.15633103 0.6975734 1.220769 1.328158 -0.48960593 -0.35683674 0.029447293 0.039414324 0.8357965 0.50598705 -0.12683377 -0.39045697 0.21471715 -0.24223366 0.6795124 0.57591337 -0.8020877 0.21956214 0.74773717 0.8721251 0.02001016 -0.083570205 0.32810086 -0.31865805
犹 0.82871234 0.5687914 0.38906428 0.8297268 0.79293615 -0.18529652 -0.13541473 -1.4207866 0.34674054 0.4062883 0.48038226 -0.3058743 -0.25335154 0.12956274 0.7397181 -0.39474583 -0.13248411 0.02832295 0.3841665 0.57016695 -0.3704998 1.0966215 0.28527954 0.22032398 0.09048909 0.56407124 0.05267266 0.19500913 0.09851429 -0.82885253 0.49505556 -0.20832239 -0.044520695 0.35931966 -1.3315632 0.18878603 -0.21905027 0.14710574 0.6469622 -0.44320488 -0.033478234 -0.5556514 -0.17066264 0.6975891 -0.47954312 -0.0656262 -1.2005519 -0.098677024 0.09468646 -0.5834243
生 -0.8005271 -0.71853864 0.6401331 0.7786538 -0.412895 -0.47159496 -0.49883187 0.2380659 0.30780318 0.0014001025 0.2428765 -0.031977307 0.4260414 0.3669212 0.33025694 -0.010404385 -0.30087972 0.051118676 0.40622157 0.030165209 0.17024595 -0.47428688 -0.10119082 0.6381003 0.46243185 0.67391056 0.10007334 -0.21468969 0.02941839 -0.22686477 -0.4660909 0.2463622 0.36157778 0.24148285 -0.20222327 0.08346355 0.7312952 0.045551334 -0.25250593 0.24354964 -0.15940276 -0.3908976 -0.33616045 -0.10035038 0.17480698 -0.27375624 0.8194563 -0.2943549 0.17295349 0.29269844
日 -0.46351486 0.40966314 -0.076307684 -0.49728924 0.22337809 0.29549396 0.45735872 0.30550098 0.58940995 0.10527771 0.19440235 -0.07467676 -0.43586725 0.45805642 0.21016513 -1.1291794 0.059183322 0.6486723 1.15989 -0.20720927 -0.81472325 -0.015885893 -0.14067692 0.11202583 -0.044492673 0.44740412 0.1878307 0.013189286 -0.36372223 0.3020033 -0.16648567 -0.30136672 0.18352085 0.2682847 0.3030794 1.1784139 -0.3819866 -0.11014474 0.07101287 -0.8365569 0.3670626 0.0482983 0.44817194 -0.17518035 -0.28626248 -0.03823804 0.35492498 0.36553282 -0.19171257 0.9915976
敬 0.8114126 -0.0009531085 0.2720219 0.85962325 0.18712722 0.6154497 0.35307834 0.049728423 0.76326627 -0.1325004 0.31528196 0.620975 0.14461337 0.08186899 -0.07087232 -0.1749286 -0.1376874 -0.35701993 -0.65650165 -0.67265314 0.3940715 -0.42247376 0.15090774 0.48806608 -0.07127097 0.17665075 -0.0695236 0.29377404 0.10819626 0.5805818 0.09818937 0.04683589 -0.04456544 0.20500417 -0.8929696 -0.5698559 0.36129406 -0.23872304 -0.21760462 -0.627406 -0.83183783 0.08768163 0.20230831 -0.06426088 -0.46686864 0.13048999 -0.47602072 0.43043476 0.7090108 -0.07302697
难 -0.71061677 0.79247534 0.2485605 0.025617333 -0.22698042 0.10927547 -0.3451697 1.0440084 0.5557432 -0.2619172 -0.44646123 1.026498 -0.16511458 0.18326037 0.07371265 0.13293202 -0.16658825 0.36585027 0.31256223 0.5898877 0.21877503 0.059415147 0.57626337 -0.15091665 -0.4208616 -0.18330275 -0.23577051 0.048104223 -0.76684606 -0.18796821 -0.011773905 0.7396144 0.015671972 0.22919849 -0.5454974 0.4455237 0.194952 0.37690115 -0.73634654 -0.3171188 0.35837734 -0.5191076 -0.32530624 0.44966847 -0.030105919 -0.58135104 0.58654803 -0.08132299 -0.51487994 0.0013565371
直 0.3589198 -0.4798543 0.6512377 0.3599129 0.17646892 0.081293516 0.4211112 0.18468316 0.38100442 -0.11521251 0.96971416 -0.09698843 0.33533755 0.65720993 -0.3023196 -0.051919553 0.103835516 0.118002966 0.3068069 -0.5030082 0.15941352 0.7602382 -0.4994377 0.9674534 0.5402012 0.14885911 -0.14441462 -1.0021951 -0.18882763 -0.56480616 -0.2156713 -0.4224808 -1.0216799 -0.040591817 0.1830062 0.0882643 -0.16878834 -0.21184145 0.5321925 -0.31338644 -0.7695115 0.4578917 -0.02306423 0.3818504 -0.61851895 -0.39507502 0.096124165 -0.50090533 0.80438584 -0.47592086
丧 -0.5363629 0.1393921 0.24567328 0.304949 0.19592941 -0.6526074 0.38547722 -0.08458578 0.19245972 0.7732406 -0.62538314 -0.36335626 0.37673378 0.47429246 0.12549166 -0.18347219 -0.32332084 0.53482014 0.4640906 -0.2605162 -0.14304172 0.18564418 0.31467798 0.6326186 0.7036914 0.14298072 -0.22026479 0.5944925 0.40987733 0.33993778 0.026206741 0.25223556 -0.074134015 -0.24556921 -0.8364077 0.0787704 0.28139982 -1.1946203 -0.28329366 0.10712332 -0.47265702 -0.88707894 0.14490433 0.21310122 -0.07306973 -0.19297338 -0.38745427 -0.5585575 -0.18968251 -0.29978728
说 0.12505534 -0.15301958 0.21371906 0.94764763 0.28367007 -0.49718532 0.08892594 -0.21087646 0.7698581 0.26453832 0.22622591 0.16043718 0.7676589 0.121082805 -0.036513146 0.28022358 0.47521803 0.4489103 -0.20935552 -0.5713206 0.16891822 -0.17237371 0.22798623 0.019472664 -0.87882996 -0.03365591 0.098739535 -0.1261129 0.31619528 0.27084824 0.38322172 -0.031366374 -0.028269347 -0.14553219 -0.62214375 -0.48198694 -0.56264555 0.6510721 -0.39329425 -1.255745 0.5198413 0.6336189 -0.4561384 0.84690696 -0.47944832 0.65829545 0.16564958 -0.07934904 -0.2813359 -0.024295764
自 0.6052647 -0.7874817 0.5713457 0.67384374 0.14926693 0.31358096 -0.42592418 -0.31871778 0.11081923 0.034893308 1.0805134 0.1319588 -0.64586496 0.5065828 -0.014424757 -0.5985009 0.88521117 -0.28774038 0.58130795 -0.44312495 0.21102421 0.36094922 -1.0533425 1.3048079 1.0543915 0.7272191 0.010398366 0.4542051 0.10849693 0.20154105 0.13176006 0.7408612 0.9647159 -0.20744698 0.052156787 0.04726304 0.116633564 -0.131892 1.0967449 -0.41801065 0.43584195 0.51905704 -0.3171858 -0.6336328 -1.5318865 0.44021863 0.32802457 -0.37692317 -0.88423705 1.0408047
用 0.19859806 0.06660402 -0.32458967 0.10383764 -0.0563046 1.1833433 0.11151429 -0.3392394 0.649893 0.17221482 0.1254424 0.45984477 0.7290706 0.05550104 0.36158586 0.09238111 -0.06836665 -0.25587794 0.22165346 0.32857856 -0.13669668 -0.27674866 0.58679503 0.32771355 -0.5361895 -0.27359757 0.036007836 -0.32264146 0.4789539 -0.06533203 0.050066978 0.015739137 0.71451443 -0.09321547 -0.0840736 0.2047246 -0.49774653 -1.0734559 -0.73954344 0.41505104 0.33923918 0.60206765 -0.91878814 -0.2154711 -0.8182614 0.065687716 -0.112496875 -0.5722171 0.18174472 0.37634844
周 0.3191789 0.3381068 -0.49232528 -0.5251051 -0.47359976 -0.69156325 -0.42612904 0.17455484 0.8025524 0.34596863 -0.3141614 -0.22808498 -0.107395194 -0.3623441 -0.09098005 -0.12228859 0.4963737 -0.20716204 -0.5038991 -0.9136242 -0.21825564 0.22589684 0.508527 0.4256336 -0.67809904 -0.13947727 0.64552313 0.3450575 -0.67377263 -1.5056715 -0.3954042 0.2928187 -0.13423751 -0.40033555 0.13627021 -0.39112318 -0.11294504 0.70408803 0.62400484 -0.54906315 0.1802073 0.84062016 -0.37704492 0.4775262 0.42697814 0.27084818 -0.047818348 -0.38776302 -0.7234441 -0.097380444
颜 -0.0059614913 0.52754045 0.18345192 -0.7609037 0.61621964 -0.24532974 -0.42986837 -0.73827255 0.35574862 -1.295529 0.33984232 0.71944773 0.48288235 0.14804967 -0.026765937 0.31890756 0.9008397 -0.66451776 -0.3375995 -0.03258675 0.60564154 -0.7504272 0.21855399 0.70851064 0.6568077 -0.34068018 -0.4341223 -0.84703016 0.85411036 0.49887398 -0.6045833 0.16698736 -0.6020682 0.6044595 0.26413625 -0.55000263 -0.6613511 0.21260357 -0.3083701 -0.4239075 0.17113502 -0.99668723 -0.9829867 0.34487742 0.45127955 0.71454084 -0.7633392 -0.8328678 0.19864084 -0.46769705
年 -0.105087295 0.016221764 0.8238463 0.113184474 -0.13370529 -0.53877115 0.15402444 -0.11727571 0.80001324 -0.4092159 -0.32494423 -0.6042129 0.5635747 -0.048603754 -0.91959 -1.0444317 0.105763204 -0.024665501 0.19262266 0.17252696 0.28254887 0.0029182204 -0.4498344 0.100761056 -0.02716002 0.5925389 -0.042829413 -0.48147574 0.6001439 0.26155773 -1.1200409 -0.69394374 -0.7784102 -0.23089094 -0.42558426 0.23685615 0.2957721 -0.05693405 -0.28143153 -0.34516844 -0.81257355 0.1821702 -0.43422017 -0.03908921 1.2147593 -0.16340505 0.27803636 -0.09733374 -0.9149788 0.56644255
告 0.053952135 -0.84748816 0.7890199 0.6185375 -0.016834805 0.0165026 -0.34620818 -0.14421096 0.47222587 0.44448793 0.11275037 -0.28272557 0.2929673 0.7005348 -0.4674706 0.5798294 -0.8282124 -0.37094045 -0.069710344 -0.3322053 0.69386864 -0.69371724 1.6547873 -1.1051701 0.4393281 -0.8290751 -1.072518 0.00880764 -0.013351253 0.26042742 -0.49681836 0.10481288 0.21259506 0.028851327 -0.26667708 -0.6455154 -0.23691891 -0.51117885 -0.07068563 -0.74244016 -0.564857 -0.5350165 -0.36219007 -0.74080145 -0.51949483 -0.041725792 0.08969019 0.8449442 0.9983586 -0.019804353
十 0.16550064 -0.09661522 -0.43877918 -0.37057865 -0.8562485 -0.8395103 -0.92023593 -0.68797934 0.8366272 0.6336193 -0.22100505 -0.9766662 -0.0007214055 0.11713641 -0.80618453 -0.015964895 -0.46422672 -0.14438142 -0.557285 -0.3772499 -0.23421386 -1.1405892 0.49191523 1.1466155 0.32988334 -0.23863298 0.13958465 0.86445135 -0.7738707 -0.02885119 -0.062069237 -0.5747012 -0.3641581 0.92360944 -0.22293334 0.054886192 0.14106539 0.78664595 -0.740914 0.37688026 -1.5091949 0.30969343 -0.32171792 -0.33158627 -0.062725745 0.26766312 0.048804104 -1.0314176 -0.79077363 -0.242885
怨 0.8145518 -0.8809292 0.62815475 0.5591776 0.29915875 -0.25313586 -0.32518795 0.27794057 -0.006203133 -0.017645258 -0.07171797 0.85290915 0.091839075 0.45904648 -0.17782746 -0.37487814 -0.9029672 0.74366194 -0.2003529 0.028702106 -0.49579403 -0.18307559 -0.2340706 -0.16201565 0.8039389 -0.4087332 -0.3467667 0.46275243 -0.42922372 1.2258216 0.78921455 -0.19647758 -1.1226283 -0.020730438 -0.028415892 0.0675527 0.40572846 0.15329243 -0.41070393 0.14778556 0.06841942 0.6686643 -0.7652544 0.8002024 -0.5750285 0.27931523 -0.25849164 -1.0355195 -0.022608537 0.095862344
达 -0.05805556 -0.52501297 -0.15825114 0.14993648 0.13474938 0.12659238 -0.69677156 0.31484258 0.22462127 -0.63947135 -0.11393874 0.003811256 -0.13248636 0.2968894 0.06998935 0.43626186 -0.68738806 -0.038057823 -0.031639054 0.39816895 -0.5710807 -0.6260374 0.7687407 -0.059970494 -0.31923014 -0.3355969 0.48363522 -0.12639993 -0.41876277 0.3397851 0.38816676 0.07381153 -0.10626543 0.19200878 1.131356 -0.08556872 0.20533973 0.5271484 -1.1169512 0.23403536 -0.20249127 -0.08916315 -0.90675974 -0.84199166 -1.181237 0.25979194 -0.2785981 -0.3118816 0.44393724 0.34836066
孝 0.4576534 0.22747539 -0.21106991 0.97393453 0.5496168 0.12661114 0.42412362 0.5254091 -0.19511925 -0.7965398 1.0044147 -0.40694693 -0.07984923 1.4858489 0.63662547 0.06382719 0.091812074 -0.3539656 0.5614337 0.004229024 -0.082060866 0.22650619 -0.20384428 0.9759191 0.47708142 -0.20072083 -0.027228305 -0.01480725 -0.4606253 0.099745855 -0.4835214 0.41133118 -0.64618754 -0.27478796 -0.4009979 0.10905784 0.1183826 -0.19805615 -0.4636584 -0.7548121 -0.10660635 0.8540586 0.12035501 0.28719014 -0.5559744 -0.021163449 0.4396684 0.563583 1.1696696 0.18707892
弟 -0.21314074 -0.46282357 0.59787685 0.6327357 -0.14561161 -0.6320273 0.46448275 0.82622784 0.40350792 -1.0963061 -0.25035435 1.0319176 0.6632108 0.61441314 0.9325282 0.24966548 0.5697573 -0.56816494 0.25434276 -0.42854947 -0.5109376 1.0199598 0.13849005 0.50120425 0.26813775 -0.068126805 -0.56675434 -0.23269929 -0.30890736 0.7230445 -0.3014654 0.40009394 -0.85986674 -0.6624773 -0.30225873 1.1421369 0.35339218 -0.23634173 0.8746395 -0.69431114 0.3166356 -0.12283416 -0.6643849 -0.17153396 -0.0333504 1.3179812 -0.8972926 -0.28797483 0.58198893 -0.64083695
至 -0.044050347 0.28298008 -0.30223483 -0.0039228834 0.19459823 -0.12240753 -0.078203484 0.69294816 0.11452311 -1.300002 -0.15778705 -0.9701189 -0.57077634 0.06645145 0.8354763 0.17471828 -0.049413268 0.36913976 -0.05818999 0.42223337 -0.6036721 0.23488194 -0.23510274 -0.05053747 0.04727972 1.4972516 -0.37098807 -0.7419653 0.6794442 0.4026248 -0.10701535 0.7723033 0.2522807 -0.41258097 0.7066486 -1.108925 -0.35705918 -0.5103967 -0.43777594 -0.8618865 0.5451501 -0.9161038 -0.49470314 -0.34802747 -1.0213846 -0.6685397 -0.26293227 0.40039733 0.59747666 1.308252
先 0.55376136 0.19842315 0.41999954 0.4162201 0.7180274 0.5491557 -0.34053272 0.48953056 0.45259058 -0.59667546 -0.23776902 0.5769338 0.25210056 0.19231327 0.09324341 0.06700082 -0.21821134 0.46359503 -0.85020125 -0.8193163 -0.32484764 0.15316363 -0.68983066 -0.086963564 -0.40025502 0.5151029 -0.3675772 -0.35785532 0.56114435 -0.7090773 -0.44667763 0.33664292 0.6655036 -0.5084981 -0.0052558854 0.4738817 -0.2575509 -0.6995134 -0.003840541 -0.38187575 -0.122090414 -0.15714268 -0.19318503 0.46675467 0.86770546 -0.6628246 -0.07727415 -1.2226876 0.084049515 -0.32071507
师 0.11108649 0.47486848 -0.107439384 -0.15780398 0.43457657 0.22230226 -0.7388098 1.0384465 0.37487182 -0.7634909 -0.47795278 -0.08746075 -0.02838693 0.15525007 -0.5786104 -0.2879791 0.53498733 -0.26199633 -0.4419914 0.54377764 0.14205505 0.6411074 -0.637748 -0.099172115 0.67706 -0.40845776 0.34224883 -0.25825322 -0.2561202 -0.033042174 0.24643862 -0.66778946 -0.13218229 0.7502301 1.1736742 -0.69716185 0.28352427 -0.4366848 -0.47872606 -0.2166165 0.21237311 0.08501034 -0.69562685 -0.046465848 0.26672906 -0.2738555 0.36542347 -0.1142461 0.06396978 0.03662871
女 0.61317205 -0.31983557 0.5912807 -0.53430074 0.06722442 0.042648118 0.21851759 -0.40643093 0.4063202 -0.08981557 -0.07578711 0.4608487 -0.4081706 0.88053954 0.06955928 -0.11629295 0.16438293 0.21935591 -0.12911808 0.25388372 -1.0790298 -0.38467583 0.5292766 -0.07276136 0.031677414 0.2267629 0.30301192 0.4348308 0.25501686 -0.3418178 -0.7543987 -0.1525173 -0.43472034 0.0065574343 -0.71896297 -0.30917248 0.29085156 0.46616888 0.91562706 0.115925096 -0.8388521 0.48169464 -0.48846832 0.3587867 0.44443136 0.45029867 -0.005373523 -0.27801406 -1.1452187 0.23126136
多 0.11081131 -0.40733546 0.28241357 -0.17514071 -0.40713874 0.28675956 0.11983162 0.91645414 0.5457419 -0.25532857 -0.7313863 -0.27176514 0.1142759 0.3953429 0.3641688 -0.5631928 -0.22073658 0.009598585 -0.065383136 -0.2575896 -0.571337 0.24104746 -0.08517074 0.31876814 0.23159356 -0.16469368 0.23665167 -0.22009811 -0.07340846 0.8860614 -0.096306235 -0.2503735 -0.597814 -0.49412006 -0.41841397 1.2173945 0.26036865 0.9634827 0.35363856 -0.5632236 0.079367556 -0.35282964 -0.019203322 1.2333316 -0.111704186 -0.27434224 -0.17232634 0.014082956 -0.9352502 -0.21033841
忠 0.7409083 -1.1615367 -0.639398 0.33256295 0.2769123 0.8671162 -0.69521683 0.71983063 0.6908383 0.16112454 -0.9536281 0.639246 1.1411264 0.39654607 0.096402526 -0.5340299 -0.13903035 0.16868491 0.014202481 0.1260532 -0.27299777 0.6192998 -0.26770684 -0.6893974 0.5781751 -0.8111588 0.0062332763 0.30324316 -0.2533194 -0.152688 -0.7153349 0.25059867 0.09389848 0.12228302 -0.077771 0.10227726 -0.6193827 -0.29846734 0.077063315 -0.7539935 -0.7785873 -0.34204426 0.410275 0.23242116 -0.080583125 0.100488774 0.74300075 -0.5890653 0.3429836 0.234402
四 -0.054421183 -0.55881035 1.4049695 -0.32899597 0.57911134 0.112778 0.5166004 -0.22710378 0.27383783 0.35399413 0.033639226 0.28259653 -0.13366061 -0.060323555 -0.5052255 -0.6401093 0.6275582 -0.493528 0.37193558 0.3325595 -0.59806806 0.16973329 -0.447914 0.5741188 -0.022231305 -0.76315427 0.0035003768 -0.33916953 -0.116467826 0.21260884 0.8486259 0.24478534 -0.62137187 -0.21193771 -0.47471213 0.12707627 0.25764948 -0.13673422 -0.44121015 -0.13699356 -0.32105592 -0.1019789 -0.46111637 -0.7294147 0.3063612 0.19487025 -0.40329805 -0.9718286 0.31465924 0.6792854
疾 -0.6079537 0.3731917 -0.15686767 0.6971398 -0.03843109 -0.07682766 0.283097 0.51137894 -0.108356036 -0.54823244 0.6848246 -0.3047749 0.10279671 0.4497797 -1.0799176 -0.24719018 -0.1274224 -0.58190095 0.015264429 -0.57822865 -1.1664314 -0.05676131 0.20642374 0.26270223 -0.083261065 0.19405347 -0.42289963 0.16923901 0.37602887 -0.9283388 -1.1316437 0.27871192 0.062710024 -0.92712665 0.074759066 0.45162737 -0.10028912 0.011073218 -0.18222874 -0.9692069 -0.24060063 -0.702155 -0.27025092 -0.29310685 0.093660854 0.4112144 -0.6373148 -0.057268243 0.7314991 0.40180212
服 -0.13913079 -0.15812087 0.20324771 -0.5339268 0.19099487 0.14220922 -0.1883569 0.1732845 1.131794 0.19578172 0.2218156 0.33940813 -0.6627781 -0.07013431 0.06368802 -0.051021583 0.19260034 -0.1264182 -0.58198667 -0.9514497 0.5284209 -0.3769819 0.5427157 -0.18621917 0.53714925 -0.4323026 0.5025676 -0.85047406 -0.37986374 -0.4947622 0.27282757 0.63556707 -0.49434227 -0.20648175 -0.47089204 -0.61414653 0.1279115 -1.0107441 0.9891192 -0.24994811 0.6015913 0.21412662 -0.10733601 -0.044919886 0.057061277 0.65239245 0.98782456 0.25906226 1.3877437 0.3115653
氏 -0.61540014 0.009056764 -1.0377963 -0.5475717 -0.1626596 -0.3657522 -0.6422662 -0.40858158 0.64829767 -0.55331075 0.77641547 0.57508147 -0.54550153 0.4819897 -1.012703 -0.4949537 0.962672 -0.43879426 -0.2687384 0.061504956 -0.11858871 -0.5754532 -0.45103413 -0.679222 -0.7997597 -0.9650486 -0.21155322 -0.19810049 -0.68334746 0.1120884 0.26994538 -0.63920283 0.10190175 0.5843891 -0.18392526 -0.071333714 0.4905617 -0.5407402 -0.062420968 -1.1478713 -0.4287709 0.72253627 -0.36111826 0.2580073 0.941346 0.7947006 -0.13626093 -0.6748828 -0.12769479 0.5295584
冉 0.18001671 0.47508198 -0.29725784 0.23911801 -0.1334093 0.009330317 -0.037839625 0.10661946 -0.5554081 -0.35123911 0.0052176337 -0.50778353 -0.71101475 0.85370207 -0.58090025 -0.51403713 1.3305165 -1.2595227 0.6336684 0.13521965 -0.808228 0.24650386 -0.31225747 0.2342506 -0.36559775 0.21668161 -0.06637966 -0.45500532 -0.10249424 0.20924966 -1.4018569 -0.59162503 -0.76389486 1.2627041 0.8206451 -0.014655919 1.1110694 0.2117693 -0.9664821 -0.18555023 0.19855598 -0.34681648 -1.2456671 0.005827855 0.9376573 -0.37887856 -0.07653087 -1.2442242 0.32184353 -0.21916525
将 0.4659065 -0.701758 0.38730416 1.2308594 1.4618361 -0.5599983 0.4560838 -0.70648944 0.19870287 -0.072956204 0.50303894 -1.1256262 -0.7941759 0.842018 0.56316775 -0.12523231 1.025153 0.037113257 0.37303185 0.36926895 -0.34112442 0.43098915 0.16028629 -0.044095248 0.35713336 -0.46688867 -0.73553085 0.03749367 0.6480677 1.1977232 -0.26943362 0.46403247 0.7318304 -0.25162706 1.0240312 0.49382517 0.23187055 0.18559615 1.048931 0.32243878 0.18263678 -0.36442137 -0.084324904 -0.057554238 0.1192766 -0.54501 0.53938556 -0.6010165 1.3165162 0.21202399
士 0.4215519 0.8707098 0.28535295 0.43916237 0.109812275 -0.13712597 -0.252421 -0.15258212 0.27439222 -0.15241702 -0.0096718175 0.8555316 0.18163425 -0.05116283 -0.91711986 -0.40962905 -0.11403156 0.27722675 -0.056757227 0.0124959415 0.17514668 -0.21964675 -0.18917085 -0.08056748 -0.10488319 -0.12516558 0.54818416 -0.9727707 -1.220632 -0.73114973 1.1237022 0.16782103 -0.51739126 0.42091992 -0.26420954 0.10427901 0.5433162 0.3325087 -0.0038657296 -0.7287059 0.45292142 0.29545942 -0.6167848 0.20241289 0.34019107 -0.58370245 -0.14980862 -0.8033735 0.104179665 -0.14624122
丘 0.5116233 -0.21000399 -0.3491165 0.20783482 -0.9882278 0.30222577 0.09360357 -0.50201106 0.87285566 -0.82718945 0.47379816 -0.7236282 1.4678636 1.052323 0.31173113 0.4460021 1.2127764 0.5542025 -0.39095867 -0.76582164 -0.28192857 -0.24170393 -0.071842164 -0.098537736 -0.20134678 -0.2828686 0.15723407 -0.123330645 0.21248515 0.35196868 -0.10144571 0.7377223 -0.64500165 0.0033413146 -0.64229655 -0.46182206 -0.2302249 -0.38008943 -0.92829126 -0.43110922 -0.61105657 -0.8358605 -0.3088317 0.08908139 -0.54706705 -0.0027656113 1.0753343 0.53463835 -0.30411845 -0.34856772
身 0.83845526 0.34246153 0.33279994 0.3740013 0.13295203 0.91244394 0.8092414 0.03035811 0.92790145 -0.2672624 -0.47001973 -0.14148802 -0.73849016 -0.22262022 -0.8772139 -0.14242378 -0.051622424 0.08789666 1.0704031 -0.68714696 0.66289383 0.10815759 0.49542704 -0.41411722 -0.83809674 -0.58391166 0.07600294 -0.47726512 -0.3454445 -0.41930705 0.587179 0.78061813 0.47215825 -0.14930965 0.045672134 -0.030539963 -0.09356431 0.73472166 0.42860547 -0.41698796 0.058121175 -0.2781397 0.08266348 0.68233 -0.0778469 0.12380524 -0.6768044 -0.96446294 -0.673915 0.14192548
入 0.0075792996 0.3227818 -1.0429803 -0.35843247 -0.3694442 -0.39709592 0.31271973 0.28371325 0.65150744 0.19954994 0.34555256 -0.33164454 -0.39116725 0.6916746 0.26258796 -0.30802304 0.12531146 0.22231773 0.65988636 0.21306707 0.5640228 -0.040280778 0.43239775 -0.3613687 0.023595946 -1.0561478 -0.29899445 -0.036351774 0.18467122 0.16727301 0.42976308 -0.07173736 -0.3971327 -0.985667 -0.1805892 -0.12799798 0.1329941 -0.30286404 -0.114562385 -0.3649134 -0.30525035 0.54797494 -0.56360143 0.46507016 -0.4466052 0.46503782 -0.3273034 0.6578259 0.05486016 -0.3610091
志 0.016628424 -0.6541576 0.4135143 0.350131 -0.12153426 0.32952368 -0.096284285 -0.20558761 0.27601543 -0.14169773 -0.7861891 -0.025053708 -0.8046909 0.30470407 -0.5941112 -0.37884483 -0.5635883 0.27858612 0.4297457 0.12498522 0.37580627 -0.061255682 0.5866333 0.25237718 0.049082298 -0.6486296 -1.2963277 -1.422725 -0.11571877 1.2467155 -1.0978451 0.53483325 0.87078977 -0.43664747 0.9952706 -1.5880744 -0.59323925 0.48534358 -0.6992653 -0.321113 -0.18146296 -0.13099563 -1.2554568 0.467693 -0.28184602 -0.5221771 -0.5213848 0.6336588 -0.63484234 0.057155028
耻 -0.5941107 -0.29261908 -1.2591861 0.5323184 -0.35162696 -0.001630904 -0.27740034 0.5891006 0.97420985 -1.1580372 -0.17004527 -1.0036765 -0.22210187 0.16804774 0.10509814 -0.040803567 0.22853939 -0.5728112 0.22701727 0.09723678 0.06990226 -1.0973952 -0.25068474 0.26614645 -0.4058389 0.42242038 -1.1160879 -0.84712803 1.1558536 0.50444126 0.15945011 0.7474407 0.080477424 -0.32116237 0.10861448 0.71273154 -0.32289302 -0.0728653 0.013272774 -0.6546097 0.11897919 0.4857677 -0.36772245 -0.64928657 0.15217972 0.16152273 0.08022099 -0.18393847 1.2194545 0.60341316
失 -1.0800543 0.14983013 -0.095246375 0.69350165 0.53484035 0.002553762 -0.41427717 0.01981812 1.0174776 -0.35624042 -0.29890332 -0.2790436 -0.3452346 -1.0314795 -1.4685073 0.11663928 -0.71492475 0.17183831 0.71829486 -0.306545 -0.060619526 -0.115532644 0.09321232 0.46961516 -0.37514073 -0.13049287 -0.42196774 -0.12184671 0.7707939 -0.20801154 0.9592096 -0.5348643 0.594232 -0.27020752 -0.8834178 -0.34258652 0.46613166 -0.106068656 0.7349548 -0.35561153 -1.2219567 0.0642369 -0.82701397 -0.09376269 0.22269613 0.35526937 -0.6706072 -1.1676477 0.38906536 -0.23274639
安 0.34278288 -0.14387953 0.07140593 0.55401886 0.45113713 0.63910836 0.0748785 -0.41821352 0.9213939 0.19077401 0.23467447 -0.11642971 -0.66678345 0.508995 0.42099458 -0.81906104 -0.14881314 0.41355246 -0.08289023 -0.79230803 -0.5855453 0.0722524 1.2686161 0.0726704 -0.24483663 1.497994 -0.73565507 -0.24331291 -0.24850674 -0.27989817 0.4190157 -0.72016525 -0.46350408 -0.87223214 -0.5013281 -1.02234 -0.15674102 -0.24908584 0.7873618 0.4375872 -0.673147 0.029062515 -0.3922495 1.2259359 0.3238096 0.08256099 0.84697115 -0.38259313 0.015595002 -0.052849717
富 0.63696706 -0.8928746 -0.12183437 0.07205666 0.20006004 0.09883007 0.61342496 -0.64639825 0.36824343 -0.103180744 0.19301443 0.16078956 -0.21951064 0.17649108 -0.99737227 -0.17310789 0.83407813 0.52659786 0.63364995 0.53283614 0.7055407 -1.1284887 -0.6156495 -0.16366658 0.3165549 -0.17054275 -1.1421429 0.3599603 -0.5201016 0.20268899 -0.34691232 0.191363 -0.117790826 0.15241592 -0.13089201 -0.43483654 -0.6560015 -0.7771337 -0.03620378 -0.35146248 -0.9860139 0.6570917 -0.6009029 0.9322584 -0.25748262 0.33960992 -0.04067505 -0.6056744 -0.88944906 0.10261403
赐 0.05000553 -0.48688075 0.3852107 -0.1834485 -0.77955073 -0.26180464 0.09030422 0.8561691 -0.08520514 -0.32746354 0.48920017 -0.25526217 -1.1448785 0.1488173 -0.6380649 0.6850017 0.49405143 0.417137 0.9654405 -0.38733163 -0.7190254 -0.30117378 -0.34848577 0.87939626 -0.20380661 0.2801264 -0.10988249 0.070195295 0.2943346 -0.10542603 0.38509327 0.17618614 0.8525691 0.677939 -0.34339204 -0.040177844 0.8952442 0.77769566 -1.2444168 -0.66371423 -0.54201204 -0.82549024 -0.98340756 0.0051497975 -0.21415113 0.8145096 0.9214019 0.44110158 0.66810393 -0.9322114
患 0.844183 -0.7625649 -0.038481973 0.12636796 -0.7314032 1.0719476 0.66788274 0.09026733 1.0364715 0.26057005 0.18835112 0.25446406 -0.93868214 0.13112779 -0.7309646 0.3142476 0.05318557 0.5267631 0.07189615 -0.26223332 -0.30800182 -0.7797314 0.4095456 0.3088629 0.54424757 1.1043884 -0.16040745 1.1275886 0.090720996 0.09214455 1.0440004 0.7035848 -0.70181227 0.72405577 -1.1821479 -0.040993907 0.03195277 0.07827242 0.67127985 -0.07062303 -0.2482882 0.39246494 -0.5864635 -0.5528327 -0.0543531 0.18544212 0.539034 -0.76507735 -0.36255577 -0.4406832
百 0.0215886 0.17293333 0.8622177 -0.27150595 -0.4753548 0.24460058 -1.0497098 -0.50394034 1.4456979 0.813116 0.47776052 0.055177644 -0.082954645 0.06849123 0.251747 -0.31848523 -0.028005222 -0.19953369 0.2708365 -1.1566111 -0.0731379 -0.14615068 -0.48574784 -0.09289719 0.13471617 1.0953679 -0.17148706 1.2283546 -0.6208365 -0.13205294 0.0907905 -1.1824844 0.037044104 0.30035812 0.4164574 -0.1148517 0.23250696 -0.56037766 0.18225883 0.71888024 -0.4607512 -0.5538102 -0.6315146 -0.4153653 -0.40517792 -0.7833974 -0.5889476 -0.39021444 0.80208606 0.65358967
回 -0.73388743 -0.24310184 -0.10973557 0.6357303 0.10866208 -0.097850814 0.47699803 -1.001363 0.4561028 0.25950179 0.36001164 -0.6328454 -0.23974638 0.9325549 -0.31031168 -0.35484698 -0.30614483 -0.27611062 0.27858442 -0.4799785 -0.22721212 0.57666 0.255445 0.67534554 -0.85905224 1.2358925 -0.34483144 0.25541088 0.50468916 -0.49002635 -0.91283983 -0.83980733 0.24138089 1.2394854 0.16082865 0.8854711 -0.4467731 -0.2988491 -1.3610958 0.23576032 0.9528718 -1.2101068 -0.8764262 0.18261173 -0.10394003 -0.31262922 -0.4590688 0.5097375 -0.4610704 -0.5411062
宰 0.420197 0.25695768 -1.2890754 0.142835 0.033802815 0.17601722 0.015881993 0.04450028 0.7975166 0.4884864 -0.5820802 0.7759952 -0.051625878 1.29996 0.62545127 -0.012408534 1.4397824 -0.21145022 0.35527048 0.54337704 -0.26421565 0.14259695 0.1645885 -0.01218765 0.4851048 -0.30761623 0.62863755 0.0056008887 0.36238655 -0.629702 -0.51119125 0.30435196 0.44563392 0.061311428 -0.82465225 -0.24884996 0.94890493 0.00018137218 -0.51223826 0.20700324 -0.72296464 0.14392242 -0.87780493 -0.4326107 1.4208362 -0.077257544 -0.8571647 -0.7486461 -0.87525576 0.19991416
朝 0.36744028 -0.36705083 0.8990311 0.08830613 1.0221777 -0.8906763 -0.795228 0.517405 0.7210529 0.5066674 0.21830946 -0.667509 -1.2851632 0.37872675 0.16480047 0.21227148 -0.04599022 -0.40453818 -0.24264145 -0.2845289 0.4190245 -0.23774756 0.10442797 0.24652031 0.6677913 -0.06504836 0.1210198 -0.83503085 0.05504822 0.08599989 0.39221764 0.18723954 0.37862253 -0.20989777 0.39598873 0.5031108 -0.21924101 -0.208956 -0.4007072 -0.42659527 0.30466598 0.4435056 -0.10012114 -0.9993006 0.7050511 -0.091113575 1.019122 -0.32269502 0.15951157 -0.037981708
莫 -0.86514264 0.72962797 -0.44651854 0.97553587 0.42980915 -0.0632191 -0.042672046 -0.10005757 0.9949597 -0.28370002 0.860417 0.28201088 -0.040055003 0.6900899 -0.3194862 0.0011222098 -0.70813704 1.6326419 -0.8115167 0.045249384 -0.803234 -0.5409893 0.91703516 0.108039975 0.33638972 0.4864552 1.7937596 0.7901702 -0.065259516 0.2041216 -0.18113248 0.44896135 0.02504347 0.7303021 -0.13440546 -0.4421683 0.10379198 -0.21543644 -0.3104982 0.4369076 -0.20503165 -0.15533635 -0.05653639 -0.027655795 1.0103694 0.62412196 0.15577067 0.20286502 -0.5340404 0.22422409
若 0.015689814 0.30915186 -0.3925929 0.06611209 0.4673611 0.3660624 0.39276206 0.08822949 0.66773987 -0.48689407 -0.5868074 0.668 -0.8850831 0.21435985 -0.7567544 0.25408304 -0.13978054 -0.12087258 0.16047128 0.5109753 -0.58838075 0.52586764 -0.10883996 -0.30307132 1.0841188 -0.3145975 0.35000396 -0.08484562 -0.4988201 0.0267084 0.1412415 -0.123579755 0.17174964 -0.39007202 -0.017377075 -0.1157493 -0.5765044 1.0365559 -0.7461892 -0.023923907 -0.5598862 0.5758372 -1.2458837 -0.0007851703 -0.48142046 -0.19973685 -0.15077765 0.13123909 -0.5693258 -0.621284
云 0.38312364 -1.2446631 -0.9342651 -1.335551 1.3628167 0.5014793 0.030654078 -0.45708406 0.55382204 0.36128235 -0.17727265 -0.63393474 0.27731296 1.5726813 0.19531123 0.16714543 -0.61125326 0.85406053 -0.13586868 0.523627 -0.63446516 0.10709312 -1.1027462 -0.21886294 0.17276342 -0.3375695 -0.06093126 -0.21921128 -0.78473395 -1.0303272 -1.1881529 0.14514746 0.3363789 -0.5397368 -1.3470584 0.10424146 0.40623358 -0.06436701 -0.44328782 -0.9878209 0.13691309 0.119214244 0.39028794 0.9374923 0.2882919 0.3268088 -0.4432776 0.29726386 -0.05861444 0.27916119
孙 -0.72411907 -0.6410897 -1.1376945 0.6569798 0.4032508 -0.20513901 0.21113123 0.5118259 0.24039696 -0.021154 -1.2865118 -0.16750601 -0.67659533 0.5074561 0.7183664 -0.4604778 0.08738118 -0.27198207 0.6312643 -0.6588066 0.33636934 0.64964145 -0.5915801 -0.24344996 1.3506876 -0.33729377 -0.32043463 0.17195609 0.41267988 -0.7493982 -0.26197487 0.15502901 -0.11886759 0.014592635 -0.8215044 0.0696741 -0.0927279 -0.10024244 -0.16260128 -0.71345615 0.23911478 0.77511084 -0.35332084 -0.1425183 -0.083188266 0.6113804 0.17545688 -0.18553706 0.39022496 0.10545897
或 0.7523433 -0.9754102 -1.1195292 -0.53726083 0.56906193 -0.31630024 0.4428909 1.4895109 0.14969608 -0.77267045 0.82800233 -0.23683228 -0.6398429 0.8183326 0.052234378 -0.41140944 0.58681977 -0.044454206 0.30350944 0.43606567 0.114391506 -0.10394425 -0.11442198 -0.17691286 -0.101477355 0.8288021 -0.5267227 -1.2287856 -1.0642002 -0.24779084 -0.14806162 -0.18775049 -0.100284725 -0.117144585 0.060407545 -0.67516917 0.575135 0.36702758 -0.87994546 -0.8002903 0.104668535 0.011615046 -0.38370025 0.2696216 -0.24146505 -0.096476965 -0.08246458 -0.14798352 0.13149703 0.24409562
勇 -0.52450025 -1.1111312 -0.18738298 0.15240715 -0.35634646 -0.09936177 -0.022397837 -0.6389829 0.60394406 -1.2037268 -0.64325064 -0.38760665 0.23252927 -0.27732337 0.0629295 0.023157788 0.1934477 -0.18902966 0.12459267 -0.824987 0.15015385 -0.5254393 0.013603211 0.7705837 -0.25979862 0.5372436 0.31656757 0.5010345 -0.11808937 -0.027256986 -1.2696878 -0.11593441 -0.22247326 0.65591395 0.8063389 -0.6788131 -0.36462095 -0.0015025152 -0.2792697 0.012066684 -0.1533459 -0.11713353 -0.4662381 0.5361921 -0.10845815 -0.20344041 0.71916384 -1.086407 0.8986409 -0.26484203
