1352 100
， -0.14375734 0.10138694 -0.008317888 0.059437398 0.21854225 0.027622132 -0.03103982 -0.0660215 0.060392655 -0.023121674 0.010930837 0.011192804 0.042540368 -0.28430104 -0.006739815 0.03890993 -0.16957632 0.08397715 0.09792056 0.1200034 0.0014010405 0.16891962 0.10038856 -0.16667432 0.0028540038 0.04616323 0.1354005 -0.079490714 0.07243498 0.044552505 0.06303879 0.09404921 -0.15531512 0.008964592 0.07253191 0.20239104 -0.14674407 -0.093710326 -0.10158043 0.10465134 -0.23661591 -0.06145495 -0.07358436 -0.018611113 0.13083582 -0.15844916 0.10420162 -0.14605333 -0.11332633 0.033106 -0.03631647 0.003200217 -0.028291147 0.05124298 -0.16629435 0.030180747 0.107981965 -0.2523985 -0.27309614 -0.07266566 -0.16891144 0.1409054 0.08995675 -0.14952055 -0.25185218 0.1742437 -0.06591093 0.06632033 0.0074042086 -0.103063166 -0.14774653 0.020770896 -0.038436677 -0.07107005 -0.4861193 0.06185835 -0.04823292 0.20709367 0.12871076 0.061792664 0.176713 0.0567876 -0.04868292 -0.87237173 0.15469576 0.09471893 0.3238155 -0.2662847 -0.025407176 0.043386176 -0.09080176 0.06160841 0.024205074 0.08657051 0.032652147 0.014518375 -0.08131471 -0.09572153 0.088242464 -0.21348119
子 0.16080391 0.2155135 -0.2339054 0.4787448 0.1515346 0.29174623 0.09885493 0.024154669 -0.094104595 -0.3374925 -0.10702559 0.2201766 -0.038649056 0.7003412 -0.04439843 -0.20643975 -0.08436223 -0.24453619 -0.0293556 0.11169421 -0.049989346 0.12335132 -0.08787254 0.76383144 -0.065942205 0.16521224 -0.28880695 0.122689545 -0.07992412 0.20165014 0.2541968 -0.14649571 -0.25121692 0.1986819 0.04313067 0.19961369 -0.18670869 -0.31538272 0.17599642 0.27530935 -0.09785452 -0.060709707 -0.10336049 -0.08586956 -0.100939095 -0.38734278 0.24140865 -0.13914241 -0.30545956 -0.037495364 0.07088763 -0.17120509 -0.15244684 0.25365308 0.021348098 -0.053748894 0.13283153 0.28835082 0.017053613 -0.0027041717 -1.2948376 -0.54361254 -0.21986575 0.23297758 -0.058952425 -0.21812338 -0.08796277 0.501305 0.15785424 -0.050413318 -0.18932399 0.19000056 0.41369575 -0.3731308 -0.29001224 -0.16862376 -0.24508612 -0.045025364 0.22766034 -0.30033088 -0.021721443 -0.22230302 -0.20175701 -0.06737802 -0.046076544 0.35009447 -0.9699628 0.03869052 -0.122115545 -0.3913838 0.060282096 -0.047055904 -0.20621125 -0.12253577 -0.16299431 0.26845786 0.33123413 -0.09142846 0.084456205 -0.3484356
。 0.29271895 0.04328945 -0.10938933 -0.17240988 0.053080462 -0.33913755 0.031002931 0.13932022 0.2640034 -0.028456608 -0.3532386 -0.21920273 -0.10460557 -0.0109103825 -0.072344966 0.13946949 0.034182463 -0.23136666 0.06970594 -0.11115256 0.06436957 -0.4712611 -0.11714859 -0.04674611 0.115259595 -0.09691738 -0.28187764 -0.03466602 0.040969968 0.08912206 -0.10828761 -0.017511886 0.05643585 -0.11954489 0.07965012 -0.122544624 0.022129927 -0.19152035 0.45211232 -0.0023280203 0.21203218 0.10859502 -0.27146867 0.105248444 -0.024700185 -0.0038353791 -0.06582842 0.11633671 -0.00395491 0.038837012 0.025723584 -0.06097977 -0.088456035 -0.0371202 -0.13211215 -0.06708484 -0.0357479 0.58986264 -0.18601362 -0.13588853 0.1875719 0.49934062 0.009273766 0.16211042 0.3688875 -0.13621065 -0.20332257 -0.06942021 -0.045889344 -0.019863259 0.15527532 -0.09518664 -0.045185085 0.01881051 -1.5175769 -0.030705482 0.10604712 0.01549811 0.4456393 0.18030205 0.17907493 -0.13670255 0.1086508 -0.53874433 -0.1286716 -0.038700085 -0.7577815 0.0840973 0.29039428 -0.21869276 -0.29375222 0.20295222 -0.36430544 -0.15153767 -0.12723817 0.024744239 -0.12279481 0.048292153 -0.23270036 0.05116233
： 0.022950606 -0.104422085 -0.21387546 -0.11386078 -0.24586248 0.02006602 0.11597079 -0.043045938 0.20056963 -0.2839321 -0.11882455 0.06880068 -0.1277333 0.013055493 0.07310017 0.07162962 -0.06937426 -0.29145598 -0.11791254 -0.18988973 0.1734226 -0.100495234 -0.12878765 0.012019654 0.093228675 0.13461868 0.015505536 0.029229922 -0.24416289 0.29852825 -0.0039640465 0.10285903 -0.022775838 -0.07615115 -0.030242795 -0.2645745 -0.034930322 -0.33608267 -0.087214485 -0.21933374 0.3123656 0.03681733 0.11054674 -0.054599743 -0.104562216 -0.04581215 -0.18214579 -0.08073 0.26514432 0.022305872 0.037142165 0.2625726 -0.10062637 0.19449444 -0.046978157 0.011600481 0.08778225 0.19254674 0.19638483 0.16967386 -0.49119443 0.16328779 -0.120858334 0.1764943 0.09351456 0.22370018 -0.07727992 -0.10399551 -0.25779018 0.44540483 0.0005946615 0.27524182 -0.1923304 -0.14054395 0.22669663 0.011515585 0.44295368 -0.2626775 -0.11059636 0.060121965 -0.46393684 -0.15200308 -0.06120689 -2.5615208 -0.15024838 -0.083109275 -0.43104392 -0.0069406778 0.09766103 -0.2916202 0.25417662 -0.022252582 -0.22309554 0.077970445 -0.119981915 0.08134786 0.31826618 0.3574899 -0.07570254 0.19296154
曰 -0.118929364 -0.29948643 0.002684557 -0.058548946 -0.072677806 0.39497063 -0.19655502 -0.33469722 -0.3268118 -0.07500216 -0.21517853 0.42878646 0.45407152 0.07812293 -0.32744563 0.122153156 0.12679148 0.35097647 0.23487595 -0.119751625 0.1267239 -0.37545952 -0.41686195 1.0843853 -0.45967063 -0.097368956 0.09974447 0.07041376 -0.045626502 0.070667535 -0.008630988 0.37442926 -0.29565966 -0.39199522 0.17034929 -0.07409817 -0.82045054 -0.07263829 -0.23989637 -0.06715681 0.32557443 0.024219824 0.01743507 -0.015197316 -0.5860735 0.35127908 -0.3246657 -0.25859097 0.20243862 -0.052641645 -0.05203477 -0.012757778 -0.06200282 -0.1681819 -0.020549223 -0.016827969 0.50018287 0.055336248 -0.1024998 -0.1449743 -1.5432354 -0.07413624 0.048887737 0.27085218 -0.12756538 -0.06513103 -0.18050537 -0.20600393 0.22884047 -0.25577208 -0.3906814 0.06671411 0.079653606 -0.3210131 -0.10944509 0.44056666 -0.31613275 -0.12171998 0.23514181 0.50838417 0.18340376 -0.13773695 -0.28301784 -0.35970908 -0.0969678 0.5272434 -1.4392618 0.21560751 -0.12367225 0.15178487 0.30057496 -0.3796955 0.21750313 -0.10235216 -0.23070656 -0.16011254 -0.35825607 -1.0346247 -0.17162944 -0.41655192
之 -0.016295252 -0.46121243 -0.37837175 -0.24390411 0.36367744 -0.04733882 -0.026215173 -0.18809006 -0.06317667 -0.18319501 -0.07878296 -0.11552676 -0.0418385 0.32150027 0.16297194 0.11749871 -0.25405034 -0.046018343 0.077930056 -0.26988885 -0.13620274 -0.14627092 0.36640248 -0.27675205 -0.14333561 0.5792765 -0.015599921 0.34106055 -0.14644538 0.08165504 0.07084758 0.35050908 0.1714259 -0.1653613 0.00517742 -0.12868766 -0.34594566 0.022884011 -0.47348896 -0.032912806 0.1515266 0.069305256 0.5218119 -0.1489504 0.16395083 0.027694732 -0.050539646 0.008537522 0.08161035 -0.20391335 -0.097418144 0.75933856 -0.16838948 -0.088894516 0.37442565 0.0029004235 -0.052675057 0.0010510534 -0.03773924 0.1279961 0.12665026 0.3024165 0.09615599 0.044814955 0.03225368 0.09188007 -0.05377011 0.03362367 0.09783499 0.07147044 -0.24191809 0.1233314 0.013107817 -0.120382816 -0.75609255 -0.5861675 -0.1760143 0.06336077 -0.015088787 -0.24879248 -0.18141758 -0.060948208 -0.17812794 0.1666998 0.5520607 0.41515428 -0.33337036 0.3403828 0.24700376 0.7013231 -0.12930231 -0.025756637 0.027165927 -0.2653257 -0.2623009 0.35863635 0.17240182 -0.079833485 0.18238392 0.2118781
不 -0.6629301 -0.010683445 -0.10976447 -0.12849405 0.18782157 0.3273035 -0.031457767 -0.040532082 0.016623484 -0.43831593 -0.10255956 -0.011528116 0.023325106 0.13295707 -0.13276775 0.030811837 -0.2825024 0.07210689 0.21687086 0.6043444 0.05006419 -0.061833307 -0.043920245 0.4365984 0.03946151 -0.0058962544 -0.5824199 0.029851232 -0.042662878 -0.05292453 0.27673072 0.085146695 -0.23446646 0.006866566 0.013985483 0.33592466 -0.42383483 -0.065726765 0.036520395 0.045138407 -0.1544329 -0.1835687 0.23061143 0.05770389 -0.26877245 -0.049593158 0.073720135 -0.37014332 0.09031173 0.33610588 0.19730382 0.039006528 -0.003722542 -0.10190384 -0.18716127 -0.26240107 -0.119644925 0.13351348 0.19525614 -0.14855988 0.33609274 -0.10885222 0.0024696356 0.05681292 -0.115020156 0.31445813 0.26737785 -0.18442395 0.017392548 -0.43952042 0.20539317 0.07341311 -0.15258221 0.14559099 0.032156896 0.22059835 -0.09123801 -0.2798067 -0.06401541 -0.23705861 -0.094650514 -0.14202502 0.074204415 -0.42505795 -0.5065076 -0.4986588 -0.21469967 0.085933864 0.048489965 1.6331506 -0.25588557 0.08618336 -0.35462186 -0.11464908 0.023906026 0.0044949492 -0.16116185 -0.4611026 0.0100092245 -0.03096952
也 0.13985725 0.22397251 -0.26746818 0.23747592 -0.41328195 -0.059444647 -0.12844598 0.051128153 -0.38152277 0.18600047 -0.02743546 0.47165594 0.31268442 0.17203142 0.11614325 -0.061177984 0.4092146 -0.20232353 -0.15966108 -0.0790512 0.0712318 0.4492924 0.44260857 -0.068172604 0.08119812 0.30151594 0.12901449 -0.03332849 0.09686778 0.2205069 0.15036598 0.28067642 -0.0012615675 -0.31111103 -0.21694194 0.050588302 0.3930329 -0.07993258 0.2502368 0.046665475 0.3094735 0.12598836 -0.09119597 0.3886731 -0.24459569 -0.16689228 0.14345963 -0.0397068 0.24751137 -0.316754 -0.023750508 0.17456105 -0.30250648 -0.0065346127 -0.41151312 -0.008600017 0.0072470377 -0.4011587 0.20699105 0.13944602 -0.4920717 0.037505243 0.2369663 0.30166006 0.08245987 0.57858455 -0.18146324 -0.18623637 -0.30982977 0.21691348 -0.31833228 -0.029709833 -0.39961508 -0.053855736 -1.2027285 -0.17899586 -0.14858787 -0.3168672 -0.10260178 -0.11728856 -0.19361974 0.20687675 0.05263225 0.2011319 -0.21645714 -0.4800718 -0.19886848 0.3149175 0.06291308 0.91416705 0.08802365 -0.0701733 -0.10290003 0.21180134 0.21469104 0.029439937 0.34199503 -0.20116523 -0.0043310295 -0.030861372
而 0.31547078 0.27190903 -0.48634282 0.49435157 -0.3938996 0.5691083 -0.29415572 -0.023487326 0.77203065 0.0053783692 0.31776714 0.072687194 -0.11618435 0.3542163 -0.05830503 0.013221683 0.33088934 -0.2424999 0.64567417 -0.16615538 0.16706553 -0.21021397 -0.22293943 0.07563033 -0.47000143 -0.2425455 -0.24843204 -0.1475727 -0.059058215 -0.4354328 0.018832656 -0.2660858 -0.18916924 -0.027803952 -0.017323932 -0.5917033 0.459529 0.49999902 -0.086244486 -0.27310443 -0.48214445 -0.06848839 0.2262264 -0.17204642 -0.4012199 0.036857083 0.50405496 0.3183858 0.29383177 0.099425614 0.043929663 0.16567446 -0.09076536 0.3653214 -0.0706404 0.009143144 -0.07499753 -0.11141372 -0.49698123 -0.010312249 0.17434439 -0.5833123 0.23550871 -0.2589344 0.16818154 -0.13138698 -0.13848682 0.47259325 -0.29508147 0.17796743 -0.0055440795 0.18041757 -0.0005196404 -0.050512884 -0.42020014 0.049384788 -0.24726214 -0.13567592 0.28349364 0.29709086 -0.30740207 -0.1714283 0.08445912 -0.8301658 0.32067087 -0.10375465 -0.16100846 -0.13885024 0.16448729 1.5354434 0.22592144 -0.015895303 -0.20502917 -0.22397636 0.009751211 0.08600994 0.014294338 -0.026582701 0.16498466 -0.40713143
？ -0.36933893 0.36630383 0.4114673 -0.0129596265 -0.18469776 -0.205486 -0.104015194 -0.1713403 -0.06877438 -0.48956156 0.19279443 0.3071074 0.29598677 -0.12820892 -0.014696325 0.13309988 0.027461793 0.48321292 -0.09009463 -0.015152438 -0.065652214 0.34240434 0.033093404 -0.26913452 -0.055849988 -0.00500331 -0.14378075 0.15579613 0.0022144907 -0.34251487 -0.2400908 -0.047096588 -0.077280045 0.13041356 -0.24020074 -0.4259621 0.07360359 0.07559354 0.039983228 -0.08673074 -0.43431652 0.32938156 -0.0149018355 -0.11104035 0.33287597 -0.21225934 0.13214569 0.18671666 -0.34893942 0.23009223 -0.067358784 -0.51442516 -0.14898294 -0.2249524 -0.4740045 0.09089608 0.32518542 0.46302518 0.14481395 0.17567514 0.2215749 -0.14750573 0.015778456 0.09503486 -0.90167934 -0.014668761 -0.045102425 -0.20903385 0.25214612 0.16560389 -0.0052006682 -0.08218746 0.14870887 -0.1728986 -0.4022793 0.12333573 0.037898786 0.5413544 -0.1897197 0.24691522 -0.40783674 0.26268178 0.0055900835 -1.1093231 0.21728316 0.12783042 -2.390402 -0.10694423 -0.079106666 0.15401979 0.19257797 0.26842487 -0.11421238 -0.47327057 0.15419748 -0.17688267 0.2174617 0.44190413 -0.51134217 0.31092897
其 -0.049929403 0.3169183 -0.18109433 -0.3968813 0.1011777 -0.018364534 -0.41246906 0.38332525 0.25942227 0.20272501 -0.067966655 -0.25185555 0.22761106 -0.48756027 -0.3260866 0.047522377 0.06493214 0.11983521 0.012117478 0.60343194 -0.010535847 -0.16187653 0.8922093 0.27898082 0.16794592 0.36390865 0.100594506 0.2422245 -0.17155544 -0.33829334 -0.48817438 0.064793095 0.3247757 0.2598808 -0.30649182 0.3345448 0.06415273 -0.4613978 0.40921587 0.030436467 -0.111601844 0.21761358 -0.11436935 -0.030321792 0.25508752 0.28083664 -0.036574963 -0.030773038 -0.39658803 -0.53354615 0.18080887 -0.02373382 -0.12075701 -0.13495356 0.33195022 -0.27103958 -0.18003076 -0.39570355 0.16382106 -0.09812034 -0.8099378 0.087394245 0.04448356 -0.18532376 0.5754473 -0.5230436 0.00015764708 -0.089287385 -0.07139222 -0.3330571 -0.29496872 0.23791654 0.34199274 -0.08624561 0.2876309 -0.22725117 -0.027005477 -0.5564341 -0.3302606 0.46194923 0.28997988 -0.17069873 0.38494894 -0.5356212 0.3091722 0.083276674 -0.1548377 0.6156237 0.58157444 1.1467867 -0.2928493 -0.0036665713 -0.23410279 -0.061944593 -0.03653895 -0.019946147 0.5151136 -0.23108725 -0.4536024 -0.5836261
人 -0.029032623 -0.08121268 0.074125014 0.8913445 0.7082415 -0.34611404 0.25271636 0.6086297 -0.14443225 -0.25524223 -0.105410226 0.47361842 0.2256477 0.17837618 0.38161734 0.011390805 0.000487743 0.20476745 -0.1248347 -0.06734201 -0.06915981 0.09787449 -0.4352444 0.47869712 0.3439655 0.5124028 -0.54258686 0.23991829 0.5102095 0.33096734 0.22657655 -0.2251589 0.376503 -0.1568543 -0.2687004 0.061870042 -0.28529096 0.4522005 0.4918386 -0.7422866 -0.085700616 0.36883906 0.153338 -0.13414401 0.07490291 -0.2776979 0.40937507 -0.1603362 0.28279638 0.11094561 -0.349441 0.21782103 0.40857172 0.0049660187 0.14001487 -0.32479018 -0.07842626 -0.3837875 -0.23683566 -0.0588944 -0.24512479 0.35292554 -0.69390744 -0.08290588 0.12571199 0.14800438 -0.02758802 -0.23185569 -0.01666509 0.2091102 -0.10624982 0.05126677 0.15355767 -0.03546065 0.42245254 -0.7493258 0.21410348 0.15972766 0.50297683 0.025088208 -0.14501064 -0.11841841 -0.3245629 -0.32179224 0.18852542 -0.18793163 -0.18436696 -0.2281432 -0.017804 0.41081262 0.559835 0.013869389 0.16379264 0.4310353 0.12416386 -0.17724332 -0.13855477 -0.5353862 -0.7830703 -0.015306846
者 0.3550796 -0.49999943 0.074108794 0.38493523 0.14240974 0.108396865 -0.065936804 -0.07479215 -0.0716213 0.08049506 0.75079924 -0.28239122 0.6389457 -0.44514227 0.19964804 -0.10955839 -0.17007895 -0.20438777 -0.2588992 0.086696126 0.16918083 -0.12532437 0.0057448302 0.26379326 0.3311789 -0.22092615 0.2942061 0.15418158 0.011225494 0.46166128 -0.17826569 -0.031565726 0.38589084 0.04711353 -0.4427778 -0.6406829 -0.32543176 0.5095942 0.45519194 -0.042276382 -0.11116346 -0.35159153 0.1651037 -0.10194209 0.4293824 0.025351534 0.032704093 -0.064203165 -0.19106737 0.09561343 0.15932047 0.3477356 0.008365995 0.036460448 0.28064135 0.04661299 0.048128944 -0.98803097 -0.049400073 0.024300678 -0.09430111 -0.17909236 -0.61603254 0.013506215 -0.18673918 -0.11457092 0.52994186 -0.13952804 -0.21164502 -0.20154284 0.19140834 0.12394536 -0.050054215 -0.008185837 -1.4235831 0.504521 0.025158403 -0.1299266 -0.46380726 -0.30871817 0.013325493 -0.28383002 -0.25727028 -0.17591657 0.079107955 -0.08972893 -0.5487202 -0.036670413 0.13919763 0.37272492 -0.060915228 -0.028625464 0.013372683 0.07318502 0.2789362 -0.11533709 0.31968883 0.081020735 -0.26406643 0.04346812
以 0.48280072 -0.02548386 0.2861306 0.11084527 0.025699183 -0.07657908 -0.221906 -0.06592063 -0.71132714 -0.23091294 0.19114013 0.12231782 -0.3603009 0.23592708 0.10190901 -0.038591646 -0.4678911 0.03138994 -0.1733917 -0.17348719 -0.70308167 0.25422513 -0.10361422 -0.030089442 -0.11253443 -0.41399604 -0.08507663 -0.11064928 -0.4962018 -0.23659606 0.023244211 -0.74885696 -0.66088367 0.1270011 -0.41777 -0.19943658 -0.6178846 -0.15428779 0.006725784 -0.07361131 0.68611 0.06333661 0.08779296 0.3552799 0.13809614 -0.47830907 0.05239836 -0.22178163 -0.2210115 -0.5356237 0.15384126 -0.2704886 0.14194736 -0.13936573 0.19127688 -0.802058 0.16954075 -0.2167594 0.051830925 -0.033904307 -0.03897839 -0.30272478 0.21163973 0.5914898 0.20441253 -0.13441978 -1.0221237 -0.29581362 0.03038876 -0.15232949 -0.05263439 -0.24204928 0.20724289 -0.019961884 -0.42136753 0.36703414 0.38632277 -0.15921538 0.21476622 0.089404486 0.2952169 -0.007039011 -0.042075057 -0.5319422 0.17920613 0.20327237 0.36817205 0.47007346 0.18067627 0.98671514 -0.025920402 0.4006479 0.14532612 -0.27972856 -0.0147982575 0.18830132 0.19834782 0.27600357 0.23067932 0.36336073
有 0.23363675 0.25702408 -0.2710006 -0.18594836 0.062319905 -0.0029557578 -0.25589022 0.4325112 -0.25724825 0.17132607 0.0762747 -0.53884566 -0.08050287 0.99428034 -0.17912838 -0.083750114 -0.029617487 0.16681021 -0.16764006 -0.26370224 -0.31165716 0.12297766 -0.30569673 -0.04834133 0.27897862 -0.046172213 0.25621584 0.5354434 -0.39387783 0.49882466 -0.41875276 -0.36370838 0.1947927 -0.38746464 -0.707512 0.30718502 -0.43720883 -0.19222778 -0.0954163 0.0030805168 0.14672872 0.2232356 0.13920577 -0.06419576 -0.34211338 0.23699436 0.06431838 0.27592638 0.038353175 0.25374746 -0.112665065 -0.15899879 -0.17591466 0.18271276 0.33288682 0.105830245 -0.02791445 -0.022494705 0.2789463 -0.09183493 -0.24691357 -0.2731342 -0.08717986 -0.048405536 -0.34202182 -0.24835877 0.110132955 -0.6581828 0.28227335 0.28604707 0.36044207 -0.12755024 0.19009334 0.54139215 -0.3193276 -0.1403439 -0.30914795 0.08862027 -0.014793671 -0.27387595 0.68114525 0.24081656 0.22514474 -0.3726298 0.7433419 -0.06558738 -0.14025612 0.16184063 -0.2187284 0.29282725 0.20466802 -0.17279477 0.46292487 0.28092527 0.36466828 0.058710884 -0.28678825 -0.5987088 -0.2493627 0.013352091
于 0.10040542 -0.12554029 -0.26041785 -0.4339542 -0.05716996 0.06271591 -0.6793622 -0.102696665 0.41505545 0.35356078 0.18142317 0.13234743 -0.18156922 -0.14125322 -0.31442124 0.4343554 -0.044472657 -0.48976508 -0.07959474 0.020574922 -0.097636886 -0.1329078 -0.3599519 -0.5409848 0.3897268 -0.47888836 0.37562618 0.0013273136 0.64240766 0.3643874 0.07883853 -0.25163656 -0.1864887 -0.06026077 -0.29932877 0.23690306 -0.5088177 0.55304945 -0.44060713 0.056671407 -0.24034007 -0.15369347 0.25357243 0.3790451 0.35221568 0.054268453 -0.40573153 0.13717934 -0.22090632 0.029821515 0.3462692 0.28542203 0.3371036 -0.1327243 -0.66379213 0.012023042 0.20071138 0.3302647 0.45111006 0.05990913 -1.6109664 -0.3344176 -0.34171733 0.22038572 -0.26195464 0.4610955 0.114824995 -0.7632608 -0.058045298 -0.099320374 0.11947105 0.332311 0.22117598 0.013232241 -0.29575983 -0.08210179 0.40490255 0.039441973 0.45946506 0.53773195 0.061526023 -0.06599423 0.077859096 -0.39688128 0.16506284 -0.045944825 0.006995812 -0.5042975 0.014273728 0.9326818 0.31531626 -0.09829042 -0.2621306 -0.80798095 -0.39511997 -0.31412026 -0.10229698 0.3992928 0.5532278 -0.14746028
矣 0.843955 0.08968014 0.61538243 -0.32302994 -0.01338611 -0.060862742 -0.08883395 0.0031682083 -0.24816157 -0.34947503 -0.12709683 0.75027794 -0.18719178 0.3212635 -0.4505767 -0.04786932 -0.30207634 0.4079014 0.045983907 -0.29866648 -0.29172823 0.29843774 -0.47725663 0.39951196 0.17049891 -0.056199852 -0.7649394 -0.08769005 0.26412356 -0.052254777 -0.33393762 0.1317579 0.075037554 -0.27415174 0.17256713 -0.025992608 0.30509993 0.062297326 -0.5030728 -0.09186798 -0.07127696 -0.15447007 0.3082665 0.3290634 0.3680679 -0.6603744 -0.525375 -0.39353275 0.13688965 -0.18322693 -0.35595015 -0.032458495 0.034126148 -0.030842248 0.4218596 0.17484944 0.059891853 -1.0459329 -0.2945759 -0.0058563757 -1.0904222 -0.13699082 -0.1255701 -0.35455188 0.5691883 -0.2918243 -0.08365533 0.010190029 0.37084806 0.6215214 -0.01291456 0.37305346 -0.5594728 0.53589743 -0.8360706 -0.25289813 -0.2078185 -0.2162674 -0.21016598 0.7220989 -0.48197106 -0.10392476 0.6839136 -0.14486416 -0.09435842 -0.14026947 -0.49056634 0.6107583 -0.13932633 0.71933043 -0.27046883 -0.19867937 0.15156877 0.08598037 0.5135393 -0.06739053 -0.14012304 0.20520693 0.1121487 -0.16556183
为 0.11926777 0.12751606 0.2113403 -0.15048318 0.013032695 0.70061904 -0.023263836 -0.1460791 -0.31194767 -0.26556152 0.20024988 0.09548248 0.106416024 0.5300355 -0.26985276 -0.4505229 -0.033895742 -0.031899873 -0.4154965 -0.31903055 0.39460364 -0.33455434 0.43378565 0.16301903 -0.2958362 -0.0953565 0.53280735 -0.058652375 -0.4025085 -0.16415423 -0.5415787 0.07066557 -0.43239632 -0.04500607 0.3875071 0.15046984 -0.62228364 0.2911157 -0.22263597 -0.56891006 0.28160486 0.08850209 -0.3436326 0.6138296 -0.17023663 -1.1930398 0.2727378 0.15216555 -0.5286484 -0.44934818 -0.12881778 -0.17484158 0.5887121 0.07782655 0.12476721 -0.032840073 0.27364892 -0.31473815 0.27020752 -0.22608571 -0.20014 0.15496431 -0.13690731 -0.033903114 0.04756493 0.44343174 -0.13965365 0.32799444 -0.42305756 -0.06108648 0.5006244 0.15287113 -0.21490645 0.24804427 0.07057067 -0.027395325 0.16663224 0.4986938 0.44978112 0.21792164 -0.03633857 0.5543026 -0.0577787 -0.3370975 0.7887952 -0.2190489 -0.8808009 -0.12738332 0.65227383 0.33372924 -0.15361583 0.07462641 -0.2626341 0.0078534335 -0.28430757 0.12626751 -0.26890504 -0.26203802 0.3190159 -0.122366495
君 -0.4008049 -0.18713422 -0.48978275 -0.073398195 0.33169872 0.41452605 -0.013970235 -0.85990494 0.3452702 0.9820153 -0.12742503 0.24882506 -0.26269442 0.6123634 0.5559213 -0.6453203 -0.44531664 -0.25387245 0.10460391 -0.18233015 -0.13423121 0.6836188 0.027623594 1.3563017 0.0074723745 0.05917182 -0.11579105 0.5161232 -0.071851075 0.4594638 0.037756734 0.40594488 -0.48284668 -0.3828914 -0.039171547 -0.08943389 -0.10994004 0.012570415 0.3624208 -0.30116752 -0.3781909 -0.25258404 0.06366799 -0.45010993 -0.21648477 -0.28552783 0.027330495 0.3579971 -0.05113676 0.30249536 -0.022503434 -0.27424356 -0.20868699 -0.42678553 -0.4938433 0.12892921 -0.09420897 -0.32868987 0.094125204 -0.17508537 -1.1088018 0.7429969 0.27842072 -0.012638226 0.3620909 -0.13910371 -0.07315383 -0.28076285 -0.20622642 -0.093047224 0.05120399 -0.6776418 0.42058167 -0.17106116 0.23222576 0.27492228 0.22410335 -0.014988149 0.22035225 0.33420292 -0.15129408 -0.32181296 0.2942886 -0.03674858 -0.017179156 0.46074906 -1.3680408 0.31503424 -0.08436529 0.061860666 -0.015269856 0.19208567 -0.27643123 -0.09324866 -0.18572976 0.4640205 0.3762542 -0.6889654 -0.31527537 -0.16002198
乎 0.17021327 -0.07521278 0.07853242 0.17411955 0.12782776 -0.16475111 0.69312936 0.09624039 -0.13413154 -0.21840659 -0.0800917 0.4095957 -1.361304 0.034032468 0.36645678 -0.2751459 0.5031657 0.54804045 -0.36180633 0.6723872 0.041503955 0.18032748 -0.06575898 -0.5948321 -0.089686796 -0.93418014 0.14292751 -0.36043772 0.08836846 0.33480263 -0.12642896 0.12506156 -0.07775611 0.265921 -0.03596348 0.16269454 0.24645357 0.056296702 -0.47266012 -0.39469865 -0.27375895 -0.82287735 0.027984492 0.5819382 0.6470652 -0.29030123 0.08174382 -0.12985009 -0.2784345 -0.5579958 0.29873046 -0.10406235 0.25419313 0.28120106 0.36319777 0.09576165 0.1932948 -0.26296252 0.0068938704 -0.052395824 0.046160802 0.36624238 -0.07498275 -0.5303215 -0.08720314 -0.3954695 -0.23393662 -0.5260625 0.2627743 0.06346107 -0.15137874 0.2059256 0.12644856 0.03604287 -0.71431035 -0.15850279 -0.51004165 -0.18659644 -0.25427535 0.36613905 -0.17045327 0.09044316 -0.029599976 -0.5795705 -0.2934141 -0.34138972 -1.4242438 0.39235213 -0.4137882 0.56903106 0.29113778 -0.4686502 -0.028031662 -0.099973984 0.07625968 -0.014561146 0.3751713 -0.11031102 0.26692602 -0.102399
可 0.14376909 -0.37579 0.119871 0.06557564 0.29315096 -0.29991958 0.063969515 0.3396169 0.20073606 0.30948353 0.07111863 -0.15523466 0.36802638 0.26152846 0.52024376 0.40982312 0.128897 0.23241201 -0.0025400794 -0.5789104 -0.29339215 -0.0048015094 -0.08059216 0.57465553 -0.51924115 -0.14474691 -0.37324342 0.41310987 -0.4699368 0.1509444 0.1694226 -0.5665803 -0.5370043 0.28430775 0.46975484 0.13780935 -0.33582672 -0.71705663 -0.36393985 0.47548938 0.23508786 -0.030495875 -0.36961263 -0.20986965 -0.10688148 -0.051933173 0.27381077 0.09863727 -0.0683278 -0.59783363 -0.08563426 -0.072984286 0.0682253 -0.5493912 -0.2277475 -0.9314029 0.0999457 -1.41098 -0.357175 0.20490456 -0.105290204 -0.2272489 0.118767336 -0.20039985 0.03937508 0.89700073 0.74668556 -0.41622567 -0.2853147 0.2906551 0.015665935 0.11349819 0.43993986 -0.006804034 -0.25284877 -0.114331625 0.14738475 -0.6262656 0.40512744 0.09865807 -0.3207791 0.43188575 0.017030954 -0.22302195 -0.5804499 0.057935566 -0.31075555 0.088476494 -0.46636024 0.42949003 0.29521218 0.067029245 0.053661976 0.087752104 -0.14623615 0.31563747 0.088091016 0.089510165 -0.44459257 -0.43732396
如 0.3590288 -0.07737249 -0.29144087 0.38840073 -0.28384995 0.17965518 -0.34702453 0.27366504 0.1819399 -0.11814806 0.28991345 0.13118637 0.21316552 0.16203475 0.36681136 0.21451007 0.019705229 0.12448841 -0.032059558 0.12726408 -0.24287349 -0.044348545 -0.019347629 0.13004586 0.028316533 0.15150712 0.17091313 -0.2582317 -0.88836867 0.26584333 -0.27101547 0.047243174 0.18220866 -0.09964556 -0.013469118 -0.29665908 0.015088083 -0.61431926 0.030330341 0.18794817 0.2109838 -0.14686182 -0.3435954 0.44476905 0.06541244 0.2445866 0.044225432 0.14481562 0.5968632 1.1623085 0.113487005 -0.6663159 0.2634887 0.58490103 -0.08372384 0.19570671 -0.2723376 -0.9770643 -0.025537526 0.07633241 -0.781677 0.37548345 0.25843927 0.40517357 -0.40729818 -0.039992433 -0.40881276 0.3818006 -0.028129855 -0.47077844 0.11642345 -0.5345013 -0.37970942 0.87505364 -0.49715623 -0.2109792 0.21769935 -0.04598575 -0.07854401 0.15343359 -0.79242104 -0.09970168 -0.43620834 -0.17187835 0.50528 0.43021008 -0.30402565 0.11075551 0.01472999 0.7597184 0.05486455 -0.2237833 0.29547527 -0.463709 0.023577185 0.25130945 -0.3990467 0.121353015 0.08722012 0.5266696
与 -0.47075468 0.4444673 0.2131023 -0.0021235687 0.4832245 -0.116651885 -0.6090293 -0.18916275 -0.47719875 0.14941217 0.6363427 -0.42728347 -0.20800054 0.22785108 -0.03372306 -0.42532766 0.24980043 -0.032412227 -0.03823165 -0.6829331 0.44890285 0.6665043 -0.43465143 0.5576498 -0.023025854 0.009903142 0.6927879 0.20598154 0.05446174 -0.030074364 0.027162699 0.26353294 0.20777754 0.17361577 0.5891681 -0.33078608 -0.01462722 -0.44040608 0.5557314 -0.10960672 0.47498748 0.020552006 0.049611922 0.51156676 0.3540994 0.079810165 0.071396776 -0.08806305 0.037094317 -0.10231234 0.09851199 0.19274262 -0.54842705 0.016448652 -0.22369608 0.04350656 -0.00061441306 -0.4484039 0.73360276 0.29437113 -0.15058506 -0.013892268 -0.4580758 0.519913 -0.0152599495 0.13721007 -0.2622934 0.262203 -0.114750706 0.20369413 0.27976832 -0.19902365 0.49904108 0.20173265 -0.408002 -0.5412156 -0.5430455 -0.09349912 0.95638824 0.14760831 0.030885797 -0.07923727 -0.39346564 -0.3957153 -0.50070477 0.030971162 -0.12298392 0.28837866 -0.0013300892 0.69644123 -0.18509859 -0.23138788 -0.40186048 -0.12358034 0.34655818 0.15733635 -0.37741628 0.15824555 0.2066015 0.049882032
； -0.54287016 -0.21238469 -0.1185704 -0.31003764 0.079352625 0.21797611 0.19481994 0.15416469 0.7716277 0.53266704 -0.20591956 0.026299303 0.18231235 -0.008187953 -0.16413546 0.39159298 0.267178 0.40620974 -0.6027444 0.21900682 0.31676036 0.31450847 0.45303655 -0.19311757 0.057781868 0.673911 -1.1944995 0.36612767 0.12114596 0.58998215 -0.0599375 -0.12615429 0.39333862 0.0856934 0.38107637 -0.04557501 -0.4182719 0.5220008 -0.24210182 -0.7423981 0.16617808 -0.16212516 -0.90724957 0.14327718 -0.17761283 0.09266021 0.07961697 -0.073102355 -0.28417385 0.05746735 0.06877663 0.2580869 -0.11861779 0.10423917 0.01574943 -0.66066176 0.52840304 -0.46960625 -0.48018077 -0.31514192 -0.08879514 -0.21460319 0.283312 0.14247002 -0.29797426 -0.80350584 -0.40332457 -0.43799773 0.08856582 0.21767028 0.12876281 -0.10335675 0.11029418 0.6059408 -1.0699626 -0.2657534 -0.09084944 0.3819262 -0.18257654 0.10947647 -0.06458001 0.20898151 -0.088066354 -1.4125613 -0.42384875 0.040307395 0.059372935 0.37770218 0.57466906 0.21325034 0.27057615 -0.55259013 0.24432829 -0.38902995 -0.11478032 -0.12115564 -0.1369089 -0.2546139 -0.13507153 -0.018659558
言 -0.2674565 -0.096948296 -0.05677213 0.17365715 0.47468233 0.2369042 0.37223557 -0.11825783 0.30969793 -0.018070018 0.21808627 0.4899438 0.5018592 0.36546257 0.0055970475 0.36419424 -0.3352473 0.21905741 -0.40722823 -0.0782086 -0.019709742 0.08748321 -0.5449701 0.44271192 -0.16486032 0.022097344 -0.042514287 -0.58679754 -0.3763781 -0.29060823 0.28723887 -0.124830306 0.44409722 0.24058387 0.43544927 0.10698509 -0.050790016 -0.5336038 0.58724743 0.09397992 -0.007547828 0.1799531 0.39282814 -0.34502175 -0.48253912 0.053691585 -0.26473394 -0.15676205 -0.3238106 -0.0591517 0.83077055 -0.43947366 0.1335718 -0.33455262 -0.043687288 -0.6383556 0.18706287 0.092490554 0.2624381 0.037274387 -0.42682958 -0.0037522803 -0.39599395 -0.25117794 0.36571282 0.2988642 0.3413169 0.27045152 0.2103856 0.39340442 -0.2585759 0.23071063 0.21103102 0.06685813 -0.63061273 -0.29207727 0.45026255 0.23461851 -0.28485385 0.33741882 -0.8460251 0.23736726 0.063479684 -0.12457982 0.46925658 0.36649013 0.13523854 -0.02632519 -0.49421906 0.15792975 -0.45401585 -0.56796116 0.20550671 0.63327575 0.043925583 -0.091277145 0.0071498645 -0.1914332 -0.1920536 -0.100902095
无 -0.9282546 0.13461792 0.19758843 0.055394784 0.40096703 -0.026593937 0.39465332 -0.4069027 0.1563169 -0.1668442 -0.14791624 0.2974417 -0.7244778 0.3759848 -0.012845579 0.118705295 -0.1618301 0.22363164 0.58129543 0.55679435 -0.050441314 -0.3691183 -0.22906603 -0.4970888 -0.5549211 -0.47356996 1.2914777 0.29052094 0.35085246 -0.27587816 0.22956532 0.3321331 0.16395538 -0.13851252 0.09180667 -0.32112062 0.15673625 -0.5086079 -0.13929461 0.573695 0.49665198 -0.23660268 -0.6261636 -0.1611719 -0.024859538 0.14497225 0.043640625 0.026425954 0.40024114 -0.35806763 -0.44485387 0.5077702 0.10466928 -0.11390599 -0.0195746 0.3320404 0.123651765 -0.5049264 0.18741104 -0.73429286 -0.1037754 -0.5198546 -0.3074822 0.5751305 0.12602213 0.105735205 -0.38348106 -0.13447379 0.4015249 -0.28038886 -0.7773319 0.10949955 0.4083208 0.2642343 0.08651682 0.12005547 -0.3331115 0.26933697 0.15146437 0.24532394 0.1597412 -0.6914859 0.66530234 -0.56995 0.3107758 0.29098487 -0.20221648 -0.009845467 -0.036500294 1.243037 -0.011741136 0.29833493 -0.16521715 -0.025436493 0.23630497 0.24896945 0.26601145 -0.5980714 -0.28535968 0.627741
则 0.5449984 -0.7782961 0.58689696 0.74938244 0.03012223 -0.049252283 -0.07492219 0.061954904 0.3689012 0.24986331 -0.029182954 0.09505976 -0.23749876 0.36777326 -0.824904 0.43413562 -0.24435924 -0.04450205 0.2622351 -0.027309982 -0.4169348 0.21082778 0.118645 0.20895407 0.66970086 0.2897215 0.15138595 -0.031958625 0.25164124 -0.010380159 -0.49360377 0.18776877 -0.356682 -0.00553592 0.53709954 -0.67320395 0.44149196 0.07208355 -0.3999112 -0.07430514 -0.04315259 0.009432777 0.5436553 0.17874314 0.046054065 0.054995596 0.056601804 -0.04064603 -0.23514457 0.015042857 -0.22685122 -0.21841474 0.2895294 -0.43138096 0.015835155 0.059751425 -0.14934888 -0.087490395 -0.09501392 0.18811275 0.32307276 -0.6141281 -0.55896676 0.9388628 -0.036592584 0.28910547 -0.45117113 -0.4710145 0.057236813 -0.23586306 -1.5457981 0.28765577 0.3049943 -0.13386485 -0.5608444 0.006030223 0.043257702 0.5749511 -0.009369631 -0.1022161 -0.63470674 0.7458627 0.39813754 -1.356686 -0.060151562 0.3052428 0.06128649 -0.1388221 -0.18733223 0.52096856 -0.03025102 0.18664108 -0.44477174 0.09132512 -0.008740842 -0.33618042 0.069080904 -0.8504392 0.30670306 0.07353091
！ 0.25126055 0.2810203 0.17612998 -0.6321913 -0.13962375 -0.025190955 0.43213218 -0.19356333 0.29283613 0.39823318 0.0580755 0.074335404 0.21085572 0.19286607 0.40454748 0.24870521 -0.5397506 0.47506195 0.17064945 -0.4260429 0.115114376 0.058803152 -0.757602 0.469581 0.19067483 -0.011573835 -0.023785863 -0.20609684 0.7009847 -0.3307009 -0.5260142 0.025512513 -0.47077066 0.19112334 -0.39664307 0.2587383 0.50039434 -0.275412 -0.32988313 0.6660619 0.07328253 -0.509836 0.2278171 0.14913559 0.045786884 -0.2969775 0.19647847 0.3484379 -0.060458273 -0.13019425 -0.5427926 -0.02858052 -0.3970477 -0.23335436 -0.14197466 -0.5835953 0.64443505 0.050717548 0.14600484 0.47563097 0.029054541 -0.085607186 0.5936309 0.019083425 -0.1292977 -0.042530775 -0.035468794 0.022477197 -0.54721326 -0.009381693 0.3705889 0.18459518 0.51841146 0.13647494 -0.70709413 -0.03922451 0.047305014 -0.027091717 1.094237 0.37238097 -0.012176664 -0.061427984 -0.31298262 -1.0981779 0.5203935 -0.41808417 -1.1287512 -0.4428375 0.10473607 -0.055433016 -0.122192845 -0.39914432 0.59227276 -0.4984487 -0.2671507 0.006133693 0.41126853 0.31081188 -0.31423247 0.15881878
问 -0.07614372 -0.09650317 -0.13431947 0.5017214 0.17453365 0.08847932 -0.14280576 0.13874236 -0.16465205 -0.45522153 -0.5027897 -0.27475074 -0.15117675 0.2834724 0.0724879 0.35489172 -0.5195596 0.2847006 -0.24032484 0.10822358 -0.044873573 0.8431198 -0.45068005 0.5581376 0.3705337 0.39330012 0.54598117 -0.07426552 0.39998868 0.00033870697 -0.3776694 0.16470149 -0.08110216 -0.15649375 0.3607963 -0.055169165 -0.2159111 0.22184524 -0.12420076 -0.2870614 0.092327245 -0.39988783 0.5764712 0.47822517 -0.4430503 -0.62445277 -0.073374234 0.39710346 0.6134334 0.30238986 -0.0086032525 0.3252967 -0.13656364 0.37306938 -0.058416948 -0.4072852 -0.22171338 0.04391223 -0.47843006 -0.46635765 -0.624582 -0.4010943 -0.071271546 0.24148858 0.061145276 0.16824828 -0.06826381 -0.75484604 -0.21971184 -0.24726543 -0.23068506 -0.18313986 -0.41513687 0.69631815 -0.4084688 0.11444815 0.32550755 -0.3412125 -0.52260154 0.4331466 0.5201619 -0.26813713 0.11411119 -0.030840557 0.18467067 0.49876454 -1.2656567 -0.12545808 0.7125976 -0.7473755 -0.21762583 -0.5809314 0.19801198 -0.14739627 -0.023718353 0.028340803 -0.078888625 -0.0049408646 0.06303337 -0.59242004
知 0.4668997 4.7323476e-05 0.1514823 0.1021388 0.03466339 -0.23199435 0.29689562 0.14976938 -0.31803453 0.44157755 0.05989104 0.15860055 -0.25731233 -0.18266474 0.090923324 0.31615728 -0.35171002 -0.14475255 -0.37766558 0.02358738 -0.08659642 -0.24518417 -0.24452803 0.7945101 0.25471264 0.23904428 0.20020753 -0.029007781 -5.125742e-05 0.005376472 -0.2690108 0.08492041 -0.10152885 -0.2440285 -0.15787117 -0.41228887 -0.5610245 -0.413949 0.70386434 0.51263255 0.6353163 -0.77482724 -0.010915327 0.24651891 -0.1922177 0.29869184 -0.5570851 0.26451242 -0.35328624 -0.610391 -0.06308538 0.10042509 0.084461406 1.1075109 -0.3577565 -0.046573225 0.37023363 -0.16879518 -0.11054119 0.2458717 0.4292127 -0.22070542 0.07577808 -0.16094728 -0.072133176 0.3591766 0.5867172 0.25063372 -0.34352246 -0.014572348 0.020016802 0.56548834 0.29435566 0.41195926 -0.27361795 0.043274805 -0.068585426 -0.7072472 0.30336216 0.20698538 -0.17054126 0.117004246 -0.6507724 -0.14899804 0.5827761 0.29606858 -0.14212383 0.016304933 -0.09238787 0.6190184 0.34711838 0.2905435 0.0511781 0.13163854 -0.10020747 -0.1994083 -0.040246528 0.2889754 -0.15477459 0.008472563
何 -0.7474099 -0.35278124 0.22782758 -0.019375196 -0.7792561 0.08624074 -0.79759 -0.44938827 -0.33350453 -0.186971 -0.008131892 -0.075540185 -0.034742866 -0.06135125 -0.2622603 -0.32239375 -0.22691555 0.4433565 -0.21473154 -0.07246623 0.09763084 -0.13321345 -0.3679955 0.14007276 0.113775164 -0.1905578 0.15237118 -0.06993996 -0.27932477 0.19978522 0.27883846 0.36459383 -0.12085527 0.091300346 -0.24867359 -0.15496936 -0.19492905 -0.34939992 -0.22050084 0.2037341 0.09909225 0.13951327 0.26891395 0.24239679 0.32668167 -0.14344525 -0.0064770873 -0.16167441 -0.44533697 -0.6197292 -0.13318203 -0.77055544 -0.18629806 0.14593145 -0.11532896 0.18334626 -0.10103544 -0.11984059 0.37554082 0.27114862 -0.6460809 1.0192045 -0.17922541 0.23221636 -0.10824206 -0.043181565 0.35972187 0.27044478 -0.30570805 0.6909576 0.55283916 -0.23248616 -0.51840085 0.27719644 -0.1626471 -0.16257738 -0.045527235 -0.40232065 -0.26321858 -0.15459885 0.37456414 0.49725074 0.0015785448 -0.05216894 0.043186378 0.51927614 -0.99982333 -0.35884804 -0.29520604 0.8623845 -0.49867883 -0.056680612 -0.33893818 -0.023149146 -0.24073724 0.21368408 0.15399309 -0.1553375 -0.40076384 -0.74115497
吾 0.044518534 0.21991836 -0.07165975 -0.4590926 0.35070813 0.42829993 0.42605326 0.774626 -0.07382481 0.29529268 -0.42178756 0.53034365 0.078787 0.20783506 0.59146035 0.09832744 -0.23110542 -0.040082242 0.18855946 -0.36535713 -0.6104876 0.3226314 -0.091006994 -0.4470279 0.067533515 -0.15832348 0.42842668 0.04788896 -0.40080887 0.57867086 -0.3546281 -0.2098561 0.04114885 0.447381 0.31326926 -0.39670846 -0.50443125 -0.28423724 0.02752549 -0.13102458 0.2409069 0.5610759 0.59748745 -0.4525723 0.3249535 0.4393543 -0.122473545 0.54178756 0.07862787 -0.6222777 0.114634424 -0.635905 -0.5180264 0.3368313 0.287738 -0.22942862 0.29578564 -0.3554625 -0.35027617 0.3812847 -0.04702339 -0.31953883 0.009011207 0.34644115 0.13886882 0.0574334 0.6919557 0.10751104 0.32170993 0.6568801 0.19438438 0.121723995 -0.55314404 -0.49063888 0.235476 -0.120713696 0.22909798 -0.53246504 0.26872203 0.22148798 0.30982092 0.04937015 -0.6220736 -0.25786564 -0.35028192 0.1672429 -0.2778908 0.71843463 -0.25076848 0.94712913 -0.16668336 -0.18771411 -0.36128742 0.08727867 -0.44381264 -0.12615642 0.3035405 -0.7263257 -0.52821696 -0.46683633
仁 -0.21781473 0.008136386 0.30767357 0.49649692 -0.040128652 -0.008197358 0.44702557 0.32916695 0.08571456 -0.56774724 -0.6479534 0.38542703 0.110825226 -0.079432346 -0.18458986 -0.06775121 0.24864723 -0.104237616 -0.1889712 0.54069245 0.01021977 -0.6444224 -0.60767454 0.80544305 0.24101916 0.43831033 0.17592844 0.3595008 -0.26730594 -0.2470971 0.6720565 -0.0056011365 -0.26666325 0.03304865 0.5450218 0.19239447 0.40044636 -0.12688874 0.036053754 -0.6719293 0.39312083 0.4303967 -0.027305555 0.063288026 0.04137956 0.30703416 0.34055015 0.60711896 -0.39856485 0.41433552 -0.12743811 0.17822595 -0.124055676 -0.008592997 -0.39145917 -0.29157135 -0.044857733 -0.7371078 -0.2544967 -0.6698237 0.27105734 0.20988955 -0.01741809 -0.49846473 0.18247043 0.4520795 0.7395375 -0.1569153 -0.1229944 0.39075556 -0.14469719 -0.35608837 0.37450907 -0.29404455 -0.067015626 0.06623717 -0.5220103 -0.04790781 0.33613694 0.16100627 -0.46423656 0.09660578 -0.4081907 0.13524713 0.86735266 0.062218376 -0.46884757 0.48342305 -0.32216486 0.6743206 0.26441136 -0.30998728 -0.11622494 -0.67724866 -0.07016823 -0.07590447 0.83439106 0.06792277 0.4581352 -0.17696
夫 -0.28173795 0.41067526 -0.13721304 -0.37735513 0.40506944 0.2335292 0.57206726 -0.112580426 -0.58960557 0.25870073 -0.010704955 -0.19137451 0.0065029305 -0.24395357 0.25219008 -0.49070296 -0.08791322 -0.17732093 -0.34099448 0.24395536 -0.37059477 0.7197778 -0.09257653 0.09015583 0.18142202 0.5950155 0.14832197 0.2904907 0.34826532 0.38373637 0.602387 -0.14976917 -0.21649186 0.06492049 0.28314024 -0.51978755 -0.5793824 0.0327375 0.17359476 0.24562925 0.37879986 1.1294568 -0.21764602 -0.34616283 0.35179612 0.03781842 0.32705447 0.2786865 0.3572074 0.022664923 0.24545926 -0.202458 0.25258043 -0.14002225 -0.2917699 0.65592176 0.54717886 0.557607 0.6089859 -0.10627209 -0.79503286 0.10732052 -0.34264433 0.10508725 0.2529907 -0.553078 -0.11785498 0.24104206 -0.24927357 -0.34375834 -0.119448505 0.17542848 -0.24552995 -0.058992125 -0.25156915 0.12899452 -0.13482961 -0.044888016 -0.41305465 0.39728966 -0.19068216 -0.5221027 0.008410571 -0.263611 0.030113924 -0.23029906 -0.7414828 1.072541 0.16861768 0.6984042 0.23088603 0.20778073 0.98890734 -0.28383493 0.14587256 0.19412129 -0.28137857 -0.14153644 -0.23250966 -0.34992996
、 -1.0665907 -0.24671268 0.030556628 0.5899407 -0.058319453 -0.16078159 0.03784423 0.2483581 0.71536595 -0.8507249 -0.18466896 0.45053938 0.045577288 -0.26842067 -0.3930175 0.5229429 0.12059494 -0.3477385 0.09276095 -0.20588864 -0.0058498057 -0.07609566 0.100628264 -0.84743637 -0.010508197 0.23949547 0.7530861 -0.24329045 -0.23702955 -0.15474792 -0.21372502 -0.7551959 -0.15644309 -0.17019807 -0.17853528 0.25800827 -0.37609556 -0.4560749 -0.078057006 -0.3206016 0.14248922 -0.32879308 0.15487678 -0.79020303 0.0532367 0.2564254 0.3333609 -0.14353094 -0.035606418 -1.0260701 -0.03751164 0.12974791 0.043727838 -0.52894133 0.03827255 0.6919715 -0.548215 0.0742212 0.0051160357 0.33220023 -1.0598958 -0.00872825 0.5429425 0.21345536 0.20386009 -0.15475905 -0.17156026 -0.038984142 -0.098065406 0.14176688 -0.0068672798 -0.07545319 -0.05685104 0.22399852 -1.1381981 0.5141616 -0.5020803 -0.120708056 -0.0183993 0.5504622 -0.30321506 0.05258782 -0.45442855 -0.6551971 -0.18439057 -0.01223553 -0.91679084 -0.09925459 0.59021586 -0.008655529 -0.26610866 -0.2827725 0.11299173 0.33523515 -0.015624722 -1.2490121 -0.5534881 -0.1544964 0.55947226 0.71092933
道 0.027094737 0.28747705 0.19381621 -0.16664639 0.23248221 0.3414752 0.64546865 0.0751041 0.5145475 -0.06736022 -0.352803 -0.12477647 -0.043865133 0.17221448 0.1392343 -0.42074043 -0.70541036 0.19620971 -0.081604354 0.27128115 0.20013577 -0.018209305 -0.018969843 0.7086408 0.17287163 0.0008399198 0.39679044 0.18187849 0.09613643 -0.57537246 0.21780768 -0.0916945 -0.40084228 -0.5350089 -0.3455109 -0.7513948 -0.57676995 0.10901919 0.28350562 0.6529769 -0.020066852 -0.11273761 0.17084941 -0.108319744 0.14213568 -0.25498572 0.13263763 0.008084986 -0.21731158 0.32195342 -0.12697607 -1.1804034 -0.8781891 -0.12536478 0.22167887 0.51199263 -0.37089214 -0.61566603 -0.27445692 -0.08624211 -0.28524196 0.31609535 0.30728182 -0.02209167 -0.31718433 0.09194107 0.35373786 -0.37126526 0.035827123 0.49864596 -0.35937437 0.29447675 -0.059586663 -0.19835806 -0.22534151 -0.5440002 0.49110454 -0.24066743 0.22050637 -0.029451663 0.31078258 0.48208696 0.16395894 0.17960376 -0.2077114 0.06436929 -0.051051475 -0.5863249 0.3939559 0.9528511 0.107001744 -0.48026097 -0.27291662 -0.081278816 -0.17661363 0.004723343 -0.12668478 -0.37615606 0.23956849 0.18280225
焉 0.51925254 -0.09925858 -0.6749547 0.18914542 -0.16287406 -0.46614262 -0.1006424 0.30463928 -0.36234966 0.12462653 0.08779751 -0.04883623 0.30694583 0.23484744 0.37952143 -0.30207586 -0.15451668 -0.15514168 0.16704641 -0.010838522 0.24060175 0.060705535 -0.48567802 -0.2377999 -0.27193722 -0.5889854 -0.025679965 0.8465202 -0.76107955 -0.72020733 -0.6041937 0.15298219 0.09105933 -0.029665701 0.1525065 -0.24849442 0.05387314 -0.5794451 -0.1593481 -0.427934 -0.10079218 -0.131907 -0.07998754 -0.002641082 -0.1533483 -0.5411702 -0.6604504 -0.51775086 0.51800877 0.37620264 -0.3173188 -0.37711665 -0.36710292 0.26650095 -0.62573767 0.16073154 -0.49835166 -0.36309123 -0.15962844 -0.53934145 -0.6564591 -0.15753146 -0.20886011 0.31608284 0.11485406 0.03880519 -0.51919645 0.13769522 -0.12162211 0.4935761 -0.052078657 -0.41827428 0.1585785 0.15767439 -0.44119787 -0.4740565 -0.71545786 -0.32801464 -0.6978412 0.058579367 -0.20779793 -0.25958374 0.24772166 0.051040195 0.37281123 -0.33711156 -0.14164951 -0.06722295 -0.05711418 1.1370227 0.0009383613 -0.12873113 -0.16356128 -0.8380826 0.25580242 -0.3836201 0.4016696 -0.9785067 0.41938683 -0.34964272
行 -0.29717767 -0.14997435 -0.0139428675 -0.28558555 -0.24414621 0.15219052 0.6878846 -0.05637196 0.6924788 0.6598123 -0.38257736 0.011773398 -0.021209395 0.018069683 0.08017926 -0.054710697 -0.32612342 -0.16356751 -0.49982062 0.3612808 0.430274 -0.25732774 0.3517636 0.57870245 -0.5026173 0.3188484 0.09181089 0.8882922 -0.093818255 0.29879555 0.061879452 0.08681205 -0.34816694 -0.039913137 0.50214577 -0.013767875 -0.41225538 -0.12167307 -0.06292574 0.04465973 1.005094 0.39054877 -0.068014085 0.32845995 -0.044308763 -0.039259613 -0.47263798 0.15861173 0.305356 1.0719013 -0.016016323 -0.48360685 0.27206436 -0.17734149 0.22915412 -0.48843402 -0.12924263 -0.2589827 -0.1461747 -0.1509855 -0.26214588 -1.0169834 0.08971089 -0.2183087 -0.43928057 0.5065697 -0.4883085 0.03198574 -0.43590197 0.35749632 0.08896548 0.114928745 0.25970697 0.5429309 -0.935729 0.37997723 -0.07722192 -0.02700255 0.29575002 0.37632108 0.1397848 0.047436763 0.33088228 0.11317938 0.38788056 -0.08723747 -0.19163868 -0.18280298 0.07380351 -0.097465836 0.38533235 -0.033789925 0.5720839 0.08340361 -0.0925888 -0.050356068 -0.17347029 -0.20522623 -0.16478206 -0.12297613
谓 0.40144238 0.82810473 0.3386576 0.6077457 0.18722284 0.5898529 -0.5450789 0.36036366 0.08648393 0.7005224 -0.25383115 -0.56184095 -0.005573236 -0.87514484 0.83330977 -0.014550302 -0.48264718 -0.30856943 -0.46240947 0.45223594 -0.16740566 0.2931215 -0.663374 -0.94223475 0.083196774 0.05695356 -0.36377078 -0.3704592 0.12385628 -0.3650853 -0.05040705 0.2094568 0.1664225 0.23296554 0.740458 -0.38857484 -0.77021545 0.28589067 0.21861045 0.5861396 0.36338177 0.4973505 0.3548067 -0.18094176 -0.50756764 -0.94399863 0.19153005 -0.31688935 -0.1657379 -0.5973224 -0.060950335 -0.0020609319 -0.08225373 0.19234225 -0.16065136 -0.393858 -0.35512027 -0.32050508 0.11225003 0.5706624 -0.7109182 -0.30359998 0.52602273 0.22159003 0.49883685 -0.016871998 0.17325377 0.6491022 -0.2581003 0.23989525 0.36093017 0.026396723 0.43332008 -0.19229306 -0.44484147 0.031440187 0.42548075 -0.44762447 0.5047353 0.14880984 -0.34527707 0.4179812 0.6050231 -0.3893843 0.36285707 0.0077895457 -1.4139228 0.10151802 -0.31792825 0.067092 -0.5809988 -0.26987576 0.3210358 -0.33757073 0.123661175 -1.0130221 -0.47618875 -0.2645388 -0.33803234 0.410865
必 0.15346332 -0.68904257 -0.052703913 0.3020676 -0.55159885 -0.13792185 -0.68428564 -0.8504104 0.22949748 -0.3100624 0.00035063518 -0.21019566 -0.26164693 0.3268075 0.5240225 -0.6038542 -0.2287736 0.14565293 0.04996554 0.084544994 -0.77200896 -0.58684516 -0.22285956 -0.2759371 -0.40486124 0.5441903 -0.2850812 -0.5721595 -0.34748462 -0.4217166 -0.74437296 0.12903115 -0.6109251 0.045559373 0.48992306 0.36524794 0.09576845 0.0887364 0.3505333 0.11651704 0.15818682 -0.026261628 -0.20261244 -0.16750643 0.08963836 0.24367692 -0.32595143 -0.9482547 -1.2905893 0.29969633 0.1918341 -0.115437604 -0.3758033 0.16759956 0.33721823 0.15387473 -0.43530875 -0.84696835 0.31303868 -0.42797783 -0.36779872 0.43402216 -0.18487681 0.23541059 0.0081003355 0.7586951 -0.34701073 -0.43920213 0.3369129 -0.3755172 0.15735398 -0.17823026 -0.04687777 0.3618258 -0.28073886 -0.3410679 -0.48074904 0.1849419 -0.4109514 0.45969826 -0.43682203 0.041195773 -0.07946263 -0.5406177 -0.07823356 1.1325653 -0.067655645 0.3357684 0.55840397 0.017411469 0.5457095 -0.25575936 0.17109771 0.13475494 0.5628067 -0.08833228 0.20565659 -0.5012696 -0.7034553 -0.37826174
礼 0.034068473 0.55127513 -0.33205807 -0.65865225 -0.4652879 0.15171954 0.50894576 -0.15042868 0.19107594 -0.86799484 -0.022872759 -0.13053095 -0.16253302 -0.026086621 0.10585812 -0.16307163 -0.06438769 0.5385377 0.5419302 1.1877135 -0.40385664 -0.24578798 0.19707379 0.63420063 -0.32726514 -0.20445225 0.48191977 0.080210365 0.21126358 -0.65661025 -0.10761228 0.028366683 -0.0572894 0.10148089 0.24483785 0.18115266 -1.1010265 -0.03770598 0.35330153 0.09184243 0.56584626 -0.44863376 -0.31224382 -0.6540987 -0.16865094 -0.3521382 -0.42380238 0.56127685 -0.39631474 -0.5043406 0.7003275 -0.42080414 0.5104279 -0.25675455 0.44874275 -0.24501778 -0.21316908 -0.73631763 -0.5228944 1.1676564 -0.38324982 0.36090934 -0.45259908 0.21278006 -0.07321281 0.14574113 0.48365292 -0.02478972 0.5235008 0.2516464 -0.15330851 -0.43106145 -0.64899266 -0.4318644 -0.39267772 -0.37691894 0.1556637 0.24722159 0.12556583 -0.27003375 -0.11008961 0.48981693 -0.6246946 -0.16108236 0.5271802 -0.24633528 -0.4719965 0.72977126 -0.3197671 0.23838367 0.32491457 -0.19616218 -0.002341611 0.3800931 -0.27433315 0.11338276 -0.619904 0.12959751 0.019866863 0.22221528
孔 0.26492542 0.2709514 -0.33605263 0.10210278 0.08459203 -0.007887709 0.70300573 0.30842438 -0.29571027 -0.36261877 -0.3422688 0.13005197 -0.5297432 -0.04047449 0.3964977 -0.14581265 0.17316836 -0.9308758 0.8099725 -0.4475731 0.13049088 -0.064264484 -0.0679376 0.27191573 -0.21502608 -0.31378198 -0.44567358 0.49332684 -0.31753358 0.3538421 0.41784796 0.3195434 -0.5118107 0.26394767 0.1293723 -0.5072131 -0.52684903 0.13287602 0.022768222 -0.3321951 0.120469734 0.19889729 0.12974678 0.18283021 -0.11209319 0.12998015 0.045535844 0.5124725 0.068250306 -0.7776396 0.46645275 -0.23330414 -0.39817455 -0.42013252 0.3391659 0.1631594 -0.18957715 -0.05431477 0.4656966 0.08513115 -2.1786335 0.5740791 -0.3382231 -0.451165 -0.41047105 0.09160254 -0.06017957 -0.05393395 -0.20063 -0.10887471 0.08114502 -0.6780752 0.3738228 0.21584105 -0.42763484 -0.2536985 -0.13512287 -0.2928595 0.6977436 0.22323571 0.15244165 -0.27609256 -0.19771798 0.15748082 0.17512092 0.4050866 -1.0459952 0.21693671 0.041564215 0.8835401 0.091971315 -0.17711087 -0.22163954 0.24382757 0.97917145 0.01568942 0.07614797 -0.49329656 0.19625369 -0.119969755
斯 -0.088746876 -0.24431802 0.56362885 -0.2454736 -0.0768357 0.24893092 0.3114051 0.1068413 0.27773577 -0.4537342 0.01272375 -0.45589173 -0.2622486 0.6701017 -0.16620696 -0.2939182 -0.16729964 -0.023285912 0.2619281 0.24445014 -0.21024182 0.73349226 -1.1330996 0.19644892 0.50814897 0.30092853 -0.0026588393 -0.1802994 0.17717853 0.120223686 0.058383416 0.10054413 -0.1615856 -0.13069881 0.015866756 0.16101263 0.4088632 -0.10772266 0.8426717 0.05021797 -0.28495765 0.42001128 0.18519254 0.23892581 0.32053518 -0.23085777 -0.6879355 0.479651 -0.5091108 -0.104507715 -0.44591895 0.22575265 -0.06409825 -0.5013136 -0.65070575 -0.5167253 -0.7657327 0.2156528 0.06795445 -0.42427543 -0.13555825 0.11435879 -0.23366533 0.3058032 0.054122098 0.8259126 -0.36738476 -0.33582646 0.410041 0.018316494 -0.14474405 0.19151068 -0.18245137 0.13621649 -0.4893287 -0.048951473 -0.38645115 0.075237274 -0.7421366 -0.17733572 -0.50262237 -0.53359914 -0.75051117 -0.37979367 0.40189925 -0.21680361 0.54135233 0.8316992 -0.6449489 0.7546865 -0.07609626 -0.427305 0.033544738 -0.31494486 0.2919466 0.2601136 0.8102278 0.105786234 -0.07101844 -0.38818854
三 -0.0681221 -0.22089794 -0.3179086 -0.20480113 0.10851458 0.082522474 1.297582 0.7081734 0.26491183 -0.46195897 -0.7790421 -0.48423883 0.7397204 -0.009414338 0.10739124 -0.31058183 -1.4272588 0.81059647 0.44734162 -0.118601 -0.3423684 -0.27046683 -0.8137222 -0.06136947 0.20236349 -0.17719294 -0.37933534 0.108477384 0.25412142 0.15070549 -0.3142393 0.041473348 0.053867776 -0.1635899 1.0566177 0.22259794 -0.7133571 -0.4995309 -0.3575925 -0.09095918 -0.3679998 -0.14165507 -0.06774625 0.09088019 -0.20839502 0.35681665 0.41767776 0.9067868 -0.1492656 0.12588331 0.5091694 0.51789033 0.19603065 -0.23278895 -0.07231733 -0.38102177 -0.20598915 -0.16575278 -0.056580134 -0.14381868 -1.3330259 -0.082484215 -0.46426865 0.020830393 0.38952234 0.15068674 0.46935686 -0.0536252 -0.47020352 0.18927331 0.23057479 0.18610331 0.51742214 -0.44922918 -0.05307828 -0.08086394 -0.7021925 -0.14119796 -0.4756649 -0.09951595 -0.40542448 -0.05012991 0.36413723 -0.1793853 -0.14806297 0.46552137 -0.0647917 0.5327975 -0.308176 0.89915 -0.08901963 0.44336215 -0.16783658 -0.31726375 0.70732224 0.068238474 -0.129935 0.26754677 -0.12704137 0.14427687
能 0.4240712 -0.7027593 -0.101525895 0.37474814 -0.2766715 -0.27782312 0.76573503 0.04205768 -0.4454788 0.25410444 -0.28145283 -0.39517483 -0.4091641 0.33407548 0.080197036 0.18821527 0.3089208 0.4991853 0.13477547 -0.037586294 0.1448781 0.09751178 -0.44371784 0.6555886 -0.03177846 0.25013286 -0.6574449 -0.5895168 0.08951693 -0.54038054 0.18996683 0.3060153 0.3441919 0.07517873 0.58547777 0.17803496 -0.07763736 0.4836533 0.854995 0.15272173 0.23664102 -0.49372435 -0.2634332 -0.043295864 0.1706762 -0.4310141 0.76459813 0.045790546 0.0472866 0.062222946 0.4230178 0.13546425 -0.9194499 -0.0755394 0.55224264 0.6976536 0.3494642 -0.05371908 0.37004387 0.1481511 -0.12864833 -0.27742234 0.29605716 0.4184471 0.2708474 0.21561255 0.11609647 -0.29513022 0.5887179 0.4989099 0.047529012 0.35705313 0.17704847 -0.14363872 -0.05035509 0.16955163 0.16767755 -0.9684171 0.18138343 -0.18213177 -0.15213822 0.59496444 -0.12885983 -0.9507056 0.16586027 0.44110832 0.43102086 0.10650963 0.33477494 0.44974953 0.6867021 0.056897774 -0.4447661 -0.5004934 -0.5480413 -0.3679635 0.040819094 -0.74873763 0.14343317 -0.5473405
见 0.39649054 -0.23100819 1.0291061 0.5075227 0.43879914 -0.5137031 -0.09646517 -0.26690567 -0.14052549 0.26976526 0.28772774 0.51285017 -0.13068642 -0.2584188 -0.055094026 0.39743453 0.22721066 -0.08823414 -0.50032336 0.039567225 -0.47065026 0.03875564 0.094226725 0.4918918 -0.4400943 0.04736257 -0.32016733 0.14305457 -0.83033216 -0.24511325 1.0251894 0.18736507 -0.40640163 0.16242744 -0.5808545 0.5406685 -1.1183153 -0.272385 0.14223288 -1.0135738 -0.16489826 0.60104674 0.13299549 -0.18042323 -0.95982206 -0.20987488 0.71672046 0.51495415 -0.20600815 0.35993144 -0.23834729 -0.017853959 -0.35073325 0.083969936 0.5366089 0.7438959 0.069016956 0.24368952 -0.2800367 0.13043427 -0.06171807 -0.113742545 -0.126031 0.16070965 0.15969066 0.4863435 0.34559873 0.0011174477 -0.13382855 -0.21408285 -0.4962059 0.65148973 0.677961 -0.29387006 -0.17458889 -0.07902998 -0.023062719 0.38786748 0.20146132 0.25212038 -0.64412284 -0.3205013 -0.072400056 -0.016787358 0.21622184 -0.3393382 -0.6926985 -0.19367924 0.0018471094 0.6514511 -0.42293233 -0.28659412 -0.2139876 -0.5325134 0.05246769 -0.02393196 -0.09250001 0.15243246 -0.124947645 -0.09251224
学 -0.12765498 0.5647339 -0.122519776 -0.035057273 0.11826195 -0.033261333 -0.15573367 0.13692085 0.5129729 -0.18382917 -0.34282234 -0.11736959 0.22767042 0.6682287 -0.30682784 -0.17808235 0.02508907 0.4834532 -0.014665172 0.4532324 -0.24478388 0.04605666 -0.56132185 0.3169847 -0.5491779 0.21837902 -0.4013698 -0.035115585 -0.5377637 0.32454047 0.63720655 0.09322536 -0.24986672 -0.588054 0.4828193 0.016326107 -0.5008341 0.041863196 0.09064821 -0.062992275 0.54454726 0.28112552 -0.30928978 0.5608168 -0.6870037 0.4219727 0.6563783 0.17351384 0.45262888 -0.1580833 0.33018804 0.43384784 -0.10589443 0.14417848 -0.21962592 -0.31863254 -0.09163106 -0.823432 -0.22352573 -0.22599755 0.017000722 0.64333385 -0.58783126 0.52597415 0.040948898 0.2969398 0.28948006 -0.49925715 0.097526275 0.3659851 0.095469594 0.118627876 -0.3765242 0.12544392 -0.25492713 0.71143603 -0.006730026 0.5801056 -0.16769437 0.07060694 -0.45167637 0.38490883 -1.0382223 -0.2194356 0.33156633 1.0650603 -0.53531826 -0.25440764 -0.08689541 0.28351304 0.1923888 0.40834954 0.14017956 -0.59744215 0.06844147 0.12402182 0.004015569 -0.21611749 0.27435312 -0.6090343
事 -0.07102463 0.18610731 -0.11979546 -0.35348848 0.043265242 -0.45023593 -0.15412496 0.011179371 0.6277647 0.42052302 0.19428907 0.84161824 -0.20329772 0.4203935 -0.02002474 0.026776891 -0.16767064 -0.03538246 -0.37830454 0.8330829 0.16798525 0.25385657 0.25151393 0.5807544 -0.12198103 0.025960512 0.4426606 0.054335963 -0.3786514 0.015221663 -0.28955603 -0.6249343 -0.17515765 -0.07961179 -0.1013571 0.35236815 -0.6202313 0.60955954 0.027425531 -1.1363693 0.5382388 -0.39476228 0.75851184 0.05739878 0.022268634 -0.16293164 0.33353007 -0.33728224 0.01751678 0.5608224 -0.16574201 -0.34946442 -0.31152344 -0.0759796 -0.24515347 -0.04182587 0.45471874 -0.6378173 0.22233431 0.076714255 -0.2290276 -0.29773906 -0.26501852 0.59034795 0.4512228 0.2137049 -0.6162641 0.045943886 -0.2628218 0.21909758 0.01870714 -0.58746195 0.13645679 -0.22781147 -0.25686562 0.09709019 -0.29923338 0.25906342 -0.26524967 1.30851 0.16829795 0.022984385 -0.09355361 -0.092572 0.082551576 0.2184927 0.017289346 -0.25588462 0.4699293 -0.1564709 0.023690218 -0.46063992 -0.26936933 -0.72331685 0.40003288 0.23832248 0.09412287 -0.8640672 0.08633663 0.17778169
是 -0.5596295 -0.6438211 -0.32573134 0.08906302 -0.1319563 -0.26365486 -0.35317385 0.6158889 -0.050015125 0.5051057 -0.24813233 -0.7690097 -0.53830266 0.1631982 0.22062677 0.2986348 -0.2441493 0.005789773 0.5727551 -0.46601984 -0.2714834 0.28285056 -0.04919661 0.37605396 -0.11460843 0.24375732 -0.13325825 -0.8064152 0.5872973 -0.49651575 0.10716668 0.73354965 0.2013949 0.26136598 -0.01535261 0.14462435 0.48602507 0.5234404 -0.06914357 0.11398813 0.7051764 0.46876547 0.74042207 -0.025936287 -0.04070686 -0.58380187 -0.3914737 0.35491952 -0.12458271 -0.39699203 -0.2516947 -0.14263088 0.028421871 0.41180304 0.01988342 -0.35072204 -0.71152717 0.14213929 -0.23767127 0.038532518 -1.0819936 0.1760612 0.04457419 0.711891 0.026086772 0.59303254 0.58250636 -0.3364039 0.08355355 0.17364787 0.119319096 -0.61226344 -0.19696164 0.28084594 0.39813268 -0.0012154274 0.46828306 0.6071568 0.49550143 0.24626924 -0.19013233 -0.35778058 -0.9098753 -0.45794168 -0.04177905 -0.1659191 0.010082147 0.26264885 0.4503867 1.0152123 0.43971837 -0.6698096 -0.12232691 -0.13087817 0.598808 0.72553843 0.46703905 -0.57981163 -0.40090826 -0.32682845
哉 0.14077207 0.13596444 -0.2850386 0.9779584 -0.4619829 0.16155486 0.26525146 -0.045463335 -0.5477283 0.7198542 0.31104088 -0.41438755 0.19487907 0.003024368 0.22923361 -0.29060575 0.24350657 0.19143847 -0.28164265 0.16611613 0.054639325 -0.73991597 -0.5110857 -0.38810468 0.08499414 0.25317267 0.60867697 0.14052252 0.03943032 0.26408282 0.43276834 -0.2668578 0.6416652 0.8991678 0.6947741 0.06937418 0.033131763 -0.9241632 -0.56096727 0.39765006 0.38719258 0.06990167 0.8269171 0.6838374 0.6606409 -0.32983315 0.31731406 -0.25082383 0.0912752 -0.19052586 -0.042998306 -0.2228193 0.8422266 -0.22078846 -0.13582885 0.39285427 0.34985647 -0.2881645 -0.19037457 0.11825503 -0.6725386 0.2100434 -0.56734705 0.4478721 0.1349485 0.98808306 0.4042793 -0.6349073 -0.49373746 0.44707146 0.843982 -0.018700173 0.1342943 -0.09909385 -0.61168796 -0.33192655 -0.68473804 0.557599 0.0880581 1.0168861 0.71281314 -0.34482437 -1.2103914 -0.30745628 0.3910082 -0.07070304 -1.4927636 0.64069104 0.61009073 0.9390624 0.17079984 1.1283737 -0.18614627 0.5867962 0.32002532 -0.19399594 -0.3853445 -0.14080384 -0.033413094 0.5065602
闻 0.6418009 0.14620669 -0.2713599 0.43419436 -0.34645936 0.0019475948 -0.021662697 -0.2953788 0.5068521 -0.031171288 0.010180667 0.32412612 -0.31297103 -0.46997574 0.1985075 0.47039154 -0.43480894 0.11447014 -0.20171325 0.9320784 -0.2643814 0.26421946 -0.35969982 0.47801325 -0.61531615 0.013703901 -0.14255218 0.49722794 -0.10915901 -0.260018 0.21001932 0.3130466 0.15831324 0.2609708 -0.052865595 -0.09405921 -0.29660204 0.06333548 -0.68513596 0.0029641176 0.80871093 0.08275826 -0.49513528 -0.5256603 -0.08303853 0.18653144 -0.5018542 -0.36154318 0.24524458 0.09680488 -0.073522955 -0.930955 -0.25218707 -0.3103472 0.21714419 -0.0669067 -0.47549757 0.43528998 0.5838592 0.45277098 -0.61063856 -0.09246573 -0.011750249 0.7165723 -0.27655295 0.39271766 0.8668284 -0.50936234 -0.041374847 -0.5010681 0.22286063 0.09729072 0.28429836 0.11098635 -0.60732126 -0.25581172 0.113917165 0.1519185 0.69964695 0.13961013 -0.50634325 0.45381123 0.5421096 -0.34847602 0.70481837 0.06607008 -0.23358098 -0.2188188 -0.47738865 0.005339781 -0.4446247 -0.58729863 0.3590901 -0.3937213 -0.21681 -0.12560931 -0.5844646 0.16736692 -0.39242542 -0.2959148
未 0.60709065 -0.3459847 -0.5093347 -0.14206357 -0.037222784 -0.27988806 -0.2063539 -0.12824164 -0.13832337 -0.24179003 0.97458744 -0.19634692 0.2400788 -0.1779043 0.22825097 -0.72105426 0.030686827 0.059228227 -0.25631475 0.2991195 -0.2828897 0.3619908 -0.41960537 0.93766385 0.09397007 -0.51771367 -0.2790658 0.19183917 0.33335698 -0.9947817 -0.09274556 0.10761321 -0.0037503892 -0.27197763 0.22792527 -0.5103324 -0.5752914 -0.6015766 0.7070151 -0.13044877 -0.35307994 0.14903156 0.48217195 0.27757838 0.1848404 0.51976943 -0.26303852 0.70252335 -0.28570202 -0.25892353 0.5391698 -0.1147123 -0.17688087 0.17364146 -0.074462615 0.344659 -0.2953035 -0.11640259 0.16579676 -0.0062621464 -0.29552266 -0.090565026 -0.51175654 0.6040929 0.46039465 0.40575084 0.18966208 -0.0034183608 -0.055577792 0.002915214 -0.49644113 -0.21894057 -0.7804481 -0.32966223 -0.42526865 -0.30576348 0.4525733 0.66120803 0.32167247 -0.38332915 -0.57368606 0.2957325 0.686428 -0.97737324 -0.108170606 -0.10003376 0.25602025 0.17545429 0.25652438 0.15089497 -0.38078275 -0.121015064 0.56829745 -0.7264442 0.44979188 -0.55672324 -0.34440732 -1.1862079 -0.27964368 -0.34471315
公 0.6100393 0.64386284 0.036309972 0.89468515 -0.6595831 0.113126814 0.041377384 -0.048960805 0.09321188 -0.25651047 0.22765224 0.55151 -0.47209898 -0.30188727 0.6920696 -0.4714803 0.027710395 -0.099254735 0.37802017 0.014375134 0.37471512 -0.40507036 -0.123601235 -0.06066402 0.12875536 0.7763171 -0.3603769 -0.47279453 -0.34353548 0.20654856 -0.20308407 -0.44953215 -0.20989098 -0.37840062 0.28177795 -0.04441479 0.034429274 -0.24483229 -0.47600684 0.46363145 0.18350767 0.074590765 0.6169177 -0.26444831 -0.61522144 -0.17162028 0.2578085 0.02236254 0.19793914 -0.19766493 -0.10745218 -0.07212512 0.17740099 -0.22977854 -0.30764288 -0.120444216 -0.17705086 0.2650299 0.25952306 0.7859322 -1.5385531 0.16183823 -0.4006465 -0.17659228 1.0486976 -0.036670838 -0.28317046 -0.605008 0.50548005 -0.35436496 0.10372496 0.19533609 -0.20956902 -0.5325312 -0.9836303 0.078076914 0.20583214 -0.5351593 0.011663653 -0.2619669 -0.13080302 0.055666167 -0.59898484 -0.18282184 0.2769075 -0.046541847 0.100371264 0.010612239 -0.19748075 -0.12620361 0.4296839 -0.0610052 1.2229198 0.4116615 -0.23038937 0.16856058 -0.015855586 -0.28119546 -0.7815836 0.6480635
好 -0.09565201 -0.5284606 0.40961632 -0.0054801716 0.56004286 -0.3071681 0.67689294 -0.12823147 0.1697907 -0.32834363 -0.38112482 0.16742307 0.10250222 0.14556503 0.31388745 -0.021185549 0.25371993 -0.44683337 0.6587225 -0.006037428 0.6597288 0.37038115 0.09409281 0.65883094 0.015842173 0.3656768 0.23570095 -0.65539724 0.20572077 -0.3722412 -0.4412136 -0.6803317 -0.06007053 -0.27740076 0.4319803 -0.58313584 -0.40227205 -0.14228278 0.7124547 0.5154698 -0.17048123 -0.38692254 -0.048901223 0.89626145 -0.31016886 -0.4138879 0.029903533 -0.57101804 -0.057916433 0.21440583 0.0024235537 0.051372025 -0.1853584 0.21503916 0.46819797 0.47983786 0.17496951 -0.89349973 -0.048654366 -0.09071915 0.08038184 0.043862306 0.27157038 0.5334591 -0.20498517 -0.07137153 -0.5046184 -0.29990587 0.4328275 0.34989384 0.64368415 0.3846956 -1.0119029 -0.00053167343 -0.5184232 0.71293545 0.035214115 -0.3863058 -0.4933732 -0.5220442 -0.6694085 -0.3906413 -0.12049522 0.0441864 1.1605016 0.26710522 -0.20729849 -0.42476827 0.5751207 0.98292273 -0.12189776 0.27635634 -0.09239861 -0.8808333 0.17104027 -0.15627576 0.4598274 -0.40633526 -0.28345662 -0.22384833
我 -0.43332675 0.058186874 0.5514137 -0.40197366 -0.12637243 0.46564242 -0.161609 -0.25201687 0.4595954 -0.20002787 0.31103805 0.15819119 0.5001839 0.3994478 0.48456076 -0.34116602 0.53384376 0.30206996 0.49753138 0.020154513 -0.112703264 -0.15820755 -0.3203655 0.7829574 0.36049494 0.7600302 -0.008833055 0.13121645 0.96207845 -0.25005433 -0.4324881 -0.044953678 0.17107607 -0.13173056 0.27629283 0.25569233 0.29737476 -0.19895914 -0.013754544 -0.22841018 -0.3373186 0.14694 0.61567265 -0.62971294 -0.31421036 0.13284886 -0.50542176 0.25292566 -0.37077487 -0.44182667 -0.04648089 0.051588494 0.14988644 0.4609384 0.04436357 -0.6425218 0.2849619 -0.8550924 -0.22371688 0.90962416 -0.44537872 0.4837034 -0.40895298 -0.40348148 0.9296102 0.26572198 -0.2532914 -0.02015547 0.2377162 0.18313283 -0.48387066 0.023388349 0.022448411 0.39466038 0.23310679 -0.084949926 -0.5955735 -0.59504133 -0.21991648 -0.25608212 -0.06641073 0.71225953 -0.9022644 -0.29729325 0.5409915 0.08955773 -0.6943243 0.34090632 -0.09778949 0.45543247 -0.3850296 0.21242295 0.11655727 0.40210968 -1.1137332 0.19264418 0.01644871 0.014547245 0.20532303 -0.33577648
路 0.2836742 0.112195954 -0.9038825 -0.6792477 0.59979177 -0.6394422 0.20992534 -0.22960758 0.29928577 0.19843829 0.3158783 0.60478836 0.41016576 0.2041439 -0.3277589 0.34680682 0.39910722 0.31655398 0.272046 0.17523308 0.30412373 0.17367512 -0.40201458 -0.017656395 0.07129763 -0.2612654 0.48165637 -0.15140106 -0.33380705 -0.09807653 0.19211964 0.41655222 -0.20448288 -0.17660546 -0.007152093 -0.5229042 0.070760354 0.25713784 0.17057419 -0.049271688 -0.21830453 0.03277946 0.5140077 -0.12744725 -0.33653948 0.07421508 0.22753984 0.51248574 -0.7358465 -0.024879443 -0.056444436 0.2981514 0.4095872 -0.19550578 0.0804743 0.7214194 -0.1804181 0.52410954 -0.39000377 0.4985872 -1.5167465 0.7310082 0.10826583 -0.5759412 -0.10889499 0.57948935 -0.013716264 -0.8350682 -0.19491442 -0.11521541 -0.18505894 0.46552008 0.46256658 -0.3233608 -0.5329517 0.69029796 -0.5284 -1.3975424 0.060646534 -0.39426467 -0.35508344 -0.6102061 0.3104149 -1.057666 0.4554231 1.1039165 -0.21795167 -0.05085588 0.17181121 -0.3460051 0.17776541 -0.1267573 0.29908502 -0.13114077 -0.1618444 -0.11499502 0.9030514 -0.396117 -0.2381591 -0.0048124306
在 -0.40413794 -0.2965077 -0.5513003 -0.35239026 0.09453601 0.32695183 0.035215285 0.07396377 0.1916254 -0.056298144 0.39224735 0.46025017 -0.38919222 -0.61071736 -0.6825536 -0.61962634 0.4726154 -0.5098117 -0.22712696 -0.052071452 0.0007012193 -0.2528362 0.24993372 0.9729465 -0.10817934 -0.95287037 0.5431891 0.4171904 -0.57848537 0.31690425 -0.9628847 -0.13335636 0.32069635 0.4567378 -0.27906698 0.041164305 -1.4262451 -0.55709803 0.6873763 0.014915973 -0.058167566 0.53818 0.18423548 0.23392546 0.45196816 -0.2804906 0.50627434 -0.16130349 0.20374511 0.5268945 -0.7935263 -0.08338918 -0.120726 -0.27188435 0.008904395 0.04620582 0.30405366 0.26332262 -0.03481348 -0.82872385 -0.011643206 0.24425031 0.16393328 0.14133434 -0.0077359863 1.2651912 -0.22625914 -0.019686403 0.05083309 0.6065033 0.24549516 0.07047484 0.26399672 0.35068515 -0.85461754 1.0726546 -0.047042593 -0.42807588 -0.03271538 0.25789443 0.71804416 0.18674956 0.20391662 0.23690416 0.5335045 -0.003744038 -0.026383132 -0.17445713 -0.47963235 0.40969446 0.95156175 -0.6090252 -0.025427666 -0.46952322 -0.5305629 0.99600744 -0.22019333 -0.8117826 -0.051648956 0.57745254
已 -0.54298186 0.15044285 -0.33757335 0.24779044 0.2991068 -0.15614733 0.6441219 -0.13560951 0.14056326 -0.24986956 -0.0035652178 -0.3595809 0.11378675 -0.37129608 0.16966966 -0.6675995 0.8895095 0.13467121 -0.10539108 0.53815967 0.07953635 0.42080367 -0.14909087 0.88948834 -0.28864446 -0.05775725 -0.3061435 0.010331388 0.35215154 -0.53365946 -0.17524306 -0.24794732 -0.09037734 -0.035115357 0.26212648 -0.25098068 0.19069853 0.08557081 0.3382632 0.19606048 0.30059716 -0.115143605 -0.08398703 -0.17272447 0.24393587 0.2233608 -0.2686541 0.5363461 0.21066481 -0.40741405 -0.066310905 -0.23321126 -0.26902667 -0.3773508 -0.24922955 -0.6484795 -0.10610944 -0.65186316 0.33019775 -0.834077 -0.2772305 0.045653157 0.2576563 -0.39058542 0.3763057 0.412324 0.6698398 -0.04986126 -0.16420014 0.62774205 0.28819162 -0.48068956 -0.18315732 0.8091705 -1.2311035 0.3267708 0.10987453 0.3963449 0.492646 -0.26414242 -0.84327954 -0.5278413 0.5223514 -0.12463917 -0.47667515 -0.22359227 -1.1794703 0.7955163 -0.42474708 0.4079415 0.5576041 0.07599786 0.9739185 -0.53281784 -0.32045183 -0.7932654 -0.16724382 -0.15580198 -0.07462916 -0.5797863
得 -0.42480308 -0.27589726 0.13188608 -0.26636958 0.31489128 -0.4424309 -0.19067492 0.5751371 0.1586378 -0.1407498 -0.2260006 0.10618977 0.06125474 0.33442256 -0.13486205 0.1253911 0.29855976 0.25693575 -0.3878199 0.39099196 -0.39309847 0.11643447 -0.21618193 0.77437425 -0.13226768 -0.5215849 -0.29535344 0.130261 0.4540733 -0.06587916 -0.17184845 -0.012199054 -0.68239653 0.2213868 0.32467213 -0.74857974 -0.3435256 -0.66021925 0.19517328 0.26519462 -0.06486667 0.26439643 0.7876912 0.26088238 -0.09361445 -0.06974033 -0.10668627 -0.8005779 -0.07619424 0.16686265 -0.3854202 0.64302 -0.48636374 0.4257605 -0.3205517 -0.039118286 -0.029892372 -0.3176015 0.17097569 0.37516418 -0.05325196 -0.37232676 -0.15875404 -1.0575657 -0.60653484 -0.0058005983 0.16883782 0.5934985 0.034152076 0.86367416 0.30440226 0.008270281 0.06923738 -0.17457496 -0.8846813 0.21900705 0.54105437 0.3262587 -0.10060694 -0.070553 -0.20605102 0.4681221 0.5603214 -0.33611047 0.4950221 -0.51525575 0.07934408 0.28636432 -0.49928495 0.30340216 0.67691565 -0.41799933 -0.56734616 -0.015079285 -0.42730764 0.4567644 -0.25878382 -0.12799874 -0.29908326 -0.053095035
所 -0.67983913 0.18558604 0.09925869 -0.19441919 0.34336442 0.11432984 0.40293783 -0.15821956 -0.029064417 0.22492859 0.43189394 -0.42703843 0.02301771 0.09852654 0.3736871 -0.10175053 0.61662936 0.2957741 -0.3285655 -0.5879264 0.42665848 -0.06454637 -0.13692948 0.60991764 0.21702859 -0.53800976 -0.06887549 0.23411718 -0.77457124 -0.8889557 0.070848815 1.040344 -0.5826824 0.11828043 0.109430276 -0.036412302 -0.13921887 0.11248977 0.5198723 -0.13276212 -0.23281221 0.22079068 0.5303979 -0.88478756 -0.14592813 -0.80316 0.32249248 0.045594137 -0.11589363 0.49227837 0.4219892 -0.43266326 0.0048282472 -0.14233232 0.35974455 -0.57424635 -0.8293495 -0.652014 0.67309374 -0.4080688 -0.64141214 -0.065532565 0.4892767 0.2572648 0.88552403 -1.0192736 0.51378655 -0.05434217 -0.41475314 0.26519868 -0.7108883 -0.54402536 0.9165597 -0.33641824 -1.1248329 -0.27433223 -0.38145384 -0.43428332 0.5884089 -0.46806893 -0.71268696 0.13025151 0.17949966 -0.82154995 0.38026008 -0.43437308 0.21632683 -0.5949827 -0.006121095 0.49544153 0.3637029 -0.2039819 -0.6562422 -0.12163966 0.06877549 0.15780662 -0.5886289 0.7209193 0.26969683 -0.3454118
民 0.63759357 -0.6323687 -0.19491059 -0.0740526 0.275145 -0.31482112 0.27683374 0.44114527 0.38966665 -0.39680734 -0.8687937 -0.25770816 0.15700552 0.32720903 -0.480478 -0.09809107 -0.01117334 0.0071814205 -1.10778 -0.45297286 0.30677518 -0.017588861 0.4155489 0.5126102 0.12278011 0.08490753 -0.30023423 -0.13923734 -0.07611682 -0.63766044 0.013636175 -1.1249517 -0.21760139 -0.6271647 0.2286803 -0.3872082 -0.16772804 -0.3216065 -0.14113331 0.17962894 0.78754085 -0.30650938 0.5098291 0.025811287 -0.108811654 -0.07319531 -0.80114037 0.42283607 -0.38995728 -0.37952825 -0.24817145 -1.3632452 -0.3186223 0.5417382 -0.23530848 0.27848187 0.30350122 -1.2322954 0.20699169 -0.58954656 -0.07703869 -0.59323204 -0.07650587 -0.048082948 -0.7329341 -0.29850972 -0.24917491 -0.42761216 -0.1691176 -0.46459746 -0.096848466 -0.1253819 0.009429944 -0.17331763 -0.21305583 0.2856902 -0.72694534 0.1955334 1.1108134 -0.018682418 -0.29398936 -0.21136937 -1.2394943 -0.2686577 0.072673775 -0.879823 -0.03315882 -0.1267777 -0.502384 1.0306709 0.06896962 -0.14440002 -0.64622355 0.44216582 0.0051924167 -0.40597904 0.12670568 -0.5754987 -0.20863378 0.046665445
小 0.62104505 -0.47560006 -0.714484 -0.14574045 0.028776806 -0.57067156 0.10642695 0.66513664 0.32250234 -0.022902306 0.48427713 0.2891764 0.75311834 0.5962227 0.39466208 -0.012200091 -0.07144948 -0.5116827 -0.028565207 0.031137427 0.1605132 0.6897336 0.52267224 1.0231483 0.36106893 0.36906648 0.34315056 -0.080705084 -0.6530045 -0.59075445 -0.15379319 0.4058028 -0.5867375 0.3482946 0.11278862 -0.36604387 -0.5469229 0.90414655 -0.36601096 1.1760769 0.30872306 0.35683033 -0.05005917 0.5197871 0.28282273 -0.17116204 -0.3720561 -0.36972445 -0.12415502 -0.23415063 0.30676278 0.12082884 0.23170269 -0.7924597 0.04937192 0.32373798 0.079071485 -0.05019152 0.4008404 -0.041047633 -0.600813 -3.4370576e-05 -0.032157484 -0.517514 0.07892924 -0.4340303 -0.6047386 -0.39232272 -0.07856492 -0.011342851 -0.68158793 0.0038479737 -0.14512923 0.32684782 -0.08725932 0.29456192 -0.25509074 0.02379203 -0.20672669 0.22344597 0.083422065 0.58128744 0.35426968 -0.7022015 -0.5358213 -0.25902387 -0.8258847 -0.14310238 -0.53182757 0.80243015 -0.7185572 -0.4593371 0.600036 0.016479634 -0.22411273 0.4667613 0.37981576 -0.35421315 0.34890056 -0.8514974
天 0.5386512 1.0118139 -0.21807012 0.14405158 -0.0917917 -0.34041694 0.026688283 -0.05100474 0.5672579 0.013512716 -0.12674284 -0.025358163 0.19953324 1.2614437 -0.0069453614 -0.3362891 -1.0389056 0.2341268 -0.008003756 0.3636124 -0.41485882 0.6960706 -0.30053404 -0.015101054 -0.14323124 -0.29365095 -0.16014974 0.45672253 -1.3543155 0.5994437 0.13567623 0.008656922 0.10738244 -0.2629928 0.20481531 -0.53639156 0.30311853 -0.5121207 0.40827248 -0.15503408 0.1814208 -1.1210175 0.25009188 0.6961524 -6.717227e-05 -0.014391677 -0.6826348 0.26249304 -0.28179523 -0.27584684 -0.4783383 -0.368692 0.07874644 -0.19031017 -0.12216783 -0.58027893 -0.8580474 -0.5271358 -0.643433 0.25088167 -0.8961442 -0.3028618 -0.30671138 0.81072384 0.48577476 -0.57353437 1.622342 -0.55199224 0.19371416 0.10246289 -0.45566675 -0.24594936 0.7965389 -0.05820305 -0.11540255 -0.24567781 -0.8339551 0.4148895 0.019687146 0.44245148 0.06693062 -0.49697372 -0.03305677 0.028246228 0.047572263 -0.5702339 -0.3737427 0.5442649 -0.09640881 0.53452486 -0.5869167 0.1687604 -0.0006878059 -0.4222832 -0.049203526 -0.0672806 0.43583208 0.001185274 -0.83011794 -0.3442035
乐 0.18247755 0.87231964 -0.317478 0.14501444 -0.5615414 -0.53138584 -0.15959257 0.6014701 -0.6215228 0.13021466 -0.54710054 0.1562283 0.19504233 0.5493674 0.3814868 -0.7412865 -0.10781537 -0.47283706 -0.061318792 0.8471087 -0.41790947 -0.00837995 0.27413344 0.5880349 -0.34854984 -0.24532707 1.1387283 -0.0653214 -0.3159444 0.14008993 0.15457276 0.17394143 -0.04741424 0.13095406 -0.034603834 -0.015938248 -0.08454722 -0.1844623 0.5500262 -0.21478572 0.07110167 0.06205412 -0.4186653 -0.20546183 -0.13166197 -0.35606462 -0.3509903 -0.3454319 -0.64939815 -0.57839155 0.55613875 -0.58815736 0.30700764 -0.15267858 0.46544415 -0.09905281 -0.09005437 0.19613001 -0.22144382 -0.4381812 0.29224986 0.6838756 0.40912268 0.13508819 -0.25200772 -0.4490768 0.5004969 -0.27004585 0.20095061 0.42766353 0.20142676 1.2227356 0.27387324 0.027384557 -0.18013 0.35878992 -0.5419499 -0.35404307 -0.24166043 -0.11452008 -0.9780461 0.022463152 -0.10667394 -0.16750519 0.1916095 -0.18925574 0.08157225 0.13359544 0.25945696 0.5538065 0.3715728 -0.41394195 -0.89810777 -0.28427398 -0.43575305 0.03904191 -0.46056762 -0.40085545 -0.2019892 -0.36785224
邦 0.24287291 0.29676843 -0.74198604 0.37270352 0.47738898 0.12634094 0.533329 -0.4468966 0.6100729 -0.08719926 -0.029361168 0.0767858 0.108020894 0.61327034 -0.20139985 -0.31866187 -0.1870114 0.098876506 0.27446312 0.6353118 -0.07008389 0.0075175376 -0.25642508 0.5358404 -0.22426012 0.19989891 -0.4921643 0.27141073 0.2006426 -0.23892207 -0.3502261 -0.10809065 0.40387073 -0.14897515 0.22979006 -0.91459614 -0.35388517 -0.35452363 0.055570528 -0.31379017 0.4522183 -1.124249 -0.49204028 0.53997326 -0.17277697 0.8500469 -0.16524611 1.24601 -0.08934689 0.03629421 -0.3885847 -0.87747955 0.60774827 -0.15632375 -0.10706838 1.037979 -0.13019438 0.21388067 -0.35605735 0.535928 -0.7799849 -0.5200352 -0.25638828 -0.122141905 -0.5618111 0.7947064 -0.4749301 -0.06446491 -0.090604976 0.80740726 -0.061482012 0.21940574 -0.324963 0.09765928 -0.09039448 0.22578953 0.49937305 0.4331545 -0.48791134 0.9777172 0.28261054 0.15990904 -0.67539257 0.098537594 0.3361059 -0.032824162 -0.07441397 0.59639406 -0.41717538 0.5056914 0.0639259 -0.431303 -0.9089981 0.53125393 -0.13186134 -0.032084078 0.49145743 0.1836047 -0.30293435 0.16098645
亦 -0.44713342 -0.10164874 0.1145245 0.01497999 0.19681475 0.22827746 0.5290871 -0.03942004 0.50495654 0.1002887 0.635976 0.55350846 0.5477579 0.1568069 0.13494357 0.20955631 -0.3457212 -0.1568124 -0.049966294 -0.19797848 -0.59783185 -0.26183337 -0.071530364 0.55776554 -0.10862543 -0.15512754 -0.36359644 -0.32947287 -0.31893942 0.40570647 0.7741503 0.7362038 0.15152122 -0.4128247 0.5416704 0.5383668 -0.1801539 -0.928418 0.36867544 0.7748039 -0.10356668 -0.7557013 -0.2545967 0.24412575 0.42017663 0.30237636 0.017348932 0.15025525 -0.42275646 -0.22127172 -0.51962245 -0.7725204 0.09149288 0.64205295 0.00019545073 0.089936554 -0.60257196 0.109036125 0.05667141 -0.9994209 0.15571313 -0.016167872 -0.41972154 0.08627307 -0.26832572 0.57362837 -0.078482576 0.2013231 -0.5605955 -0.7156453 -0.039669715 -0.35342422 0.55832255 0.43844467 -0.08368513 -0.10662153 0.26856476 0.30289036 0.045582302 -0.05830132 0.76443356 0.2940395 0.40408406 -1.2412819 0.14903057 -0.24693839 -0.22749247 0.41839305 -0.4516247 1.0755918 -0.047812972 -1.189796 0.8300239 -0.34678194 0.042693138 -0.11210366 0.4192491 0.25118074 -0.0062785693 -0.074074335
使 0.26677093 0.09585817 -0.51744336 -0.09431304 -0.1672486 0.1648329 -0.35041416 -0.119813144 -0.24187294 0.347333 0.66140735 -0.5856267 0.25664374 0.1184779 -0.22979517 0.11055476 -0.7897492 -0.06615285 -0.5448395 0.2013014 0.15193668 -0.22435363 -0.020541305 0.9977037 0.18085292 0.38573274 0.44355989 -0.28610018 0.1888006 0.08621014 0.13406557 0.13715251 -0.25136688 0.05882301 -0.17109516 -0.54737985 0.07733223 0.33234042 0.37563902 0.10333651 0.35177115 -0.3465676 0.43039334 -0.437739 -0.09342772 -0.32311547 -0.21624726 0.65293175 0.24975663 0.22785708 -0.44982973 -0.06280893 1.025645 -0.86002326 0.24665216 0.0022518435 -0.058163024 -0.015608664 -0.010616441 0.6260577 -0.4015849 -0.8170881 0.06577212 -0.51854926 0.023180326 -0.13154057 0.22169663 -0.11161964 0.2690402 -0.48541075 -0.013298901 -0.17373127 0.39782873 -0.3541273 -0.08859281 0.41098496 0.0794934 -0.42190745 1.016994 0.726819 0.158141 -0.24693882 -0.5891914 -0.64766467 -0.93719786 -0.20542234 -0.38687927 -0.13793585 -0.110188775 0.6148593 -0.62989664 -0.2535878 -0.057543118 0.16898207 0.31373608 -0.20820488 -0.10299214 -0.36474925 0.20028289 -0.19462927
大 -0.2962515 0.014231351 0.51521856 -0.44701618 0.07598606 -0.23528618 0.072631784 -0.2755553 0.16821495 -0.47878113 0.41825914 0.29203123 -0.76692563 -0.7914965 0.018867563 -0.03197215 0.3471883 0.030058213 -0.094250605 -0.8214969 -0.24594466 -0.22409748 -0.21742299 0.9325009 -0.27451155 0.5590302 -0.09437397 -0.109200984 0.45992118 -0.5509489 0.410937 -0.33275208 -0.30615276 -0.1835757 -0.051824547 -0.02146706 -0.36183843 0.110053465 0.8533844 -0.118029006 0.17698215 -0.35100508 -0.00021156784 -0.19707921 0.17878029 -0.688165 -0.2750917 0.48313612 -0.14125499 -0.030576475 -0.08277682 -0.093842246 0.45958406 -0.1900335 0.4820317 0.38034528 0.24290743 -0.66433907 -0.14936142 0.8424379 -0.97791916 0.7479278 0.44222933 0.020381808 0.20129764 -0.48755845 -0.054437764 0.53645897 -0.14144276 0.69026875 0.28561276 0.051410627 0.49169323 0.23184264 0.31993788 0.17302755 -0.21001652 0.60480344 -0.36040506 1.0171458 0.6180852 0.18671386 -0.4919771 -0.5058587 -0.09198738 0.4047884 0.580512 0.17304285 -0.0826609 1.0471718 0.1926042 -0.07775301 -0.37146226 0.47192702 -0.22820732 -0.47879457 0.62118965 -0.06676852 0.2971015 -0.044906344
下 -0.74099505 -0.12452904 0.3534669 0.44703546 -0.8174837 0.23653398 -0.5716277 -0.030157255 -0.25255355 0.4044477 -0.08635506 -0.8002749 0.30548552 0.19540732 0.020122962 1.0963666 0.7244342 0.231424 0.70835656 -0.03256546 -0.2833443 -0.51381385 0.040365234 -0.02160844 -0.11225962 0.04548811 -0.85221165 0.52829254 0.5174037 -0.038152635 0.42146996 0.63038105 -0.71427536 0.4505551 -0.33799583 0.09589482 0.13936906 0.3522549 0.9724357 -0.110133596 0.6330385 -0.042112824 0.48485297 -0.4810314 0.14716825 -0.9279253 -0.3142321 -0.49482796 0.54897964 0.0762023 -0.6479833 -1.166045 0.24592593 0.152476 -0.47799563 0.3796091 1.0783576 -0.8022739 -0.15790425 0.07160116 -0.2747487 0.7775234 -0.18083376 -0.21754877 -0.09705507 0.7303383 0.14063945 -0.10534851 -0.7270114 0.40912375 -0.19297785 0.12533899 -0.04243237 -0.18732774 -0.7610146 0.07172887 0.14649208 1.0296439 0.2852674 -0.25734252 0.032513045 -0.89512056 0.39320555 -0.6027668 1.1603072 0.040823765 -1.305227 -0.32144305 -0.012715663 0.7849076 0.33317497 -0.4842129 0.46425363 -1.2546794 0.30261722 -0.02941748 0.11808676 -0.3020006 0.96924645 -0.2900425
贡 0.009426846 0.46821177 -0.7627067 0.20610486 -0.18233109 -0.771103 0.30590245 -0.29951495 0.77282864 -0.6623902 -0.11405497 0.21200393 0.020130802 0.092720255 -0.38335845 0.09035422 0.2513701 -0.24140905 0.29566473 0.4500429 -0.43589655 -0.46047112 0.27760425 0.7749667 0.33096945 0.7373251 0.68752575 -0.40669888 0.089846194 0.36120483 0.67679036 1.2857041 0.4236911 -0.08895651 0.0061272616 0.32840016 0.6049425 -0.6318836 0.49306005 -0.65921926 -0.4194911 0.12877503 1.4808967 -0.17912434 -0.0587732 0.0310389 0.30110615 -0.3760097 -0.17903157 -0.09041799 -0.3077202 0.058254626 0.047797643 -0.17137845 -0.10277844 -0.103562854 0.72145045 0.7391206 0.20336545 0.1302468 -2.5418434 0.3411544 -1.0828357 0.021848941 -0.1912596 0.1855891 0.087624446 0.15862444 0.6970972 -0.61475426 -0.003878812 0.85125935 -0.19652256 -0.22931263 -1.1171311 -0.45412317 -0.11298725 -0.24255224 0.68551195 -0.5794965 -1.0778071 -0.56565106 -0.5771708 -1.3115706 0.88882095 0.4717096 -1.9887394 -0.037538905 -0.10487683 0.25887832 0.21697986 0.7592974 0.41254386 -0.48417795 1.3002435 0.3741171 0.3425714 -0.47782925 -0.054707415 0.04059125
欲 -0.63720477 -0.76043814 -0.3844306 -0.28165004 -0.19847967 -0.026237795 0.030793322 0.23828454 -0.279375 -0.09113096 0.15325725 0.62828314 0.21931513 0.3439653 -0.42393246 0.4902713 -0.12521237 -0.24049053 -0.25662452 -0.5486892 -0.046075214 0.44407073 -0.8946347 0.70585215 -0.19623369 -0.07147745 -0.3010166 -0.7361516 0.17001168 0.3499813 -0.15469325 0.2689955 0.94972235 0.28531605 0.00035008191 -0.86357635 -0.45977905 0.20677248 0.11443313 -0.40225783 -0.31044024 0.11635726 0.12638253 0.047115322 -0.1517613 0.16236629 0.8569217 -0.3157212 0.47981143 -0.24159971 0.3834411 -0.5162596 0.5650405 0.22378623 0.037873536 -0.43515754 -0.4675345 -0.42138916 0.49943092 0.43610016 0.06235285 -0.23820096 -0.014205727 0.29071087 0.13408826 -0.3237743 -0.7182867 -0.20495258 -0.5016009 -0.31795773 0.056537993 0.15854916 -0.3548592 -0.22293738 -0.52287847 0.6519129 -0.4199053 -0.48317257 1.1195961 -0.44402665 0.49905598 0.2672155 0.41489553 -0.18684945 -0.1778693 0.5096227 -0.22035377 -0.378544 -0.57313883 0.4826655 0.3560831 -0.036029 -0.73154175 0.1437945 1.1068012 -0.031658743 0.3663481 -0.26139563 -0.21350114 0.1342194
诸 -0.12658924 0.3937665 0.03786912 -0.18865646 -0.18795426 -0.121237956 -0.31245115 -0.37650815 -0.40329129 -1.2165985 -1.0572406 0.09301488 -0.3561667 0.57574826 -0.63120323 -0.41962677 -0.09861404 -0.24650541 -0.023463449 -0.15683572 -0.34510812 1.1508173 -0.6255262 -0.24767897 0.08665649 -0.036383275 0.50452965 0.58299315 0.4298275 0.2938301 0.06299192 -0.14072534 -0.113065965 -0.278804 1.1099385 0.106222846 0.16510503 0.027442724 -0.3069901 -0.36813176 -0.53837913 0.9071208 -0.9611951 0.16576208 -0.3651743 0.53287953 -1.9038026 -0.0504743 -0.12747805 0.17892684 0.038504858 0.10211336 1.0191725 -0.016546955 -0.18184027 0.2108664 -0.6069918 -0.8519224 -0.41933605 -0.6151892 -0.7035481 -0.6076148 -0.6403797 0.48277706 -0.10793828 -0.6576518 -0.24230269 -1.5728743 -0.21540985 0.29031265 0.7653566 -0.26622397 0.45762596 -0.486821 -0.7773372 -1.1338335 -0.20569122 -0.18577231 -0.6463525 0.6017396 0.46539828 -0.22809729 -1.4447461 -0.684604 0.25036708 -0.37689918 -0.6797612 0.70003533 -0.4105854 0.91097915 0.23315215 0.5301706 -0.70107853 0.30177152 0.562937 0.532156 0.13124329 0.5284744 0.93707085 -0.01561688
从 0.0045595276 0.16624065 -0.13818786 -0.48167726 0.18469666 -0.3992516 -0.006401736 -0.40033057 0.42742294 0.0315183 0.28533515 -0.15581816 0.81563735 -0.35592696 0.8770245 0.50382066 0.8257339 -0.090965204 0.3505966 0.8777951 -0.26680702 -0.22355229 -1.36735 1.3743299 0.07911433 0.015183249 -0.04533885 -0.43061212 0.07756456 -0.22457184 -0.28770342 0.3005253 -0.20914175 0.10910026 0.33436263 0.113374874 -0.19573657 0.49516627 0.60283756 0.36421824 0.7107372 -0.997787 0.87251365 -0.24116714 -0.04031835 -1.0066795 1.0639096 -0.004488698 -0.5854989 0.24107626 0.025477275 -0.38132843 -0.35151792 -0.10956328 1.2625061 0.26677117 0.88270235 -0.034135256 -1.2424027 0.01110206 0.580694 -0.15263169 -0.6061874 -0.009283439 -0.102661595 -0.07790837 0.5590679 -2.0047743 0.035561416 0.06834584 0.47076625 0.35559392 0.41972822 -0.15368702 -0.29236472 -0.253763 0.17281157 0.4468376 0.15855888 0.41522342 -0.29588822 0.20656179 -0.2839148 -0.21517576 0.40004572 0.644668 -0.35461357 -0.08985458 0.107510895 0.4358791 -0.41458613 -0.3510953 0.7358625 0.055077128 -0.6230881 0.27437922 -0.8676179 0.55397505 -0.07819809 -0.5489731
文 -0.118312 0.029588223 0.85738 0.82581306 0.72580093 -0.16544242 -0.7924865 0.029629955 -0.1398301 0.0053694644 -0.9163247 0.09458004 1.3111497 0.2262073 -0.024348045 0.23579648 -0.4792711 -0.3350115 0.08233985 0.43302208 0.2338408 0.01108109 -0.23636521 -0.06312652 0.38611078 0.7613189 -0.81542015 0.45188743 -0.31319964 0.22364065 -0.50364363 -0.11258725 -0.87997746 -0.17290129 0.1282252 0.13529888 -0.33676398 -0.6060931 -0.13225177 0.71839243 0.30647755 0.105443604 0.43849912 -0.46750814 -0.06782347 0.098694965 -0.42644587 -0.42882743 0.1262066 -0.39460957 -0.19971654 -1.0173889 -0.0656708 0.49379224 0.12101886 0.45231888 0.29439348 0.45203677 -0.37238643 -0.17997484 -1.1116451 -0.062934116 0.49088305 -0.45688263 -0.42457297 0.9906986 1.1151501 -0.023347193 0.041997332 0.15353121 0.20190342 0.2986147 0.12071112 1.0447414 0.24464718 -0.015199628 0.28143206 -0.5155051 0.41708446 0.49873188 -0.46631676 0.047292102 -0.7307397 0.2453151 0.7659521 0.19581118 -0.7986407 0.09428317 -0.050419223 0.29029387 -0.15359256 0.79456264 0.37313616 -0.5236259 0.39455417 -0.093904436 -0.34994638 0.10359611 0.6054097 0.17274179
政 -0.4648744 -0.7256993 0.46419412 0.65429777 -0.72403663 -0.08097422 1.2028862 -0.1514441 -0.37794474 0.24005087 -0.100992866 0.3411261 0.050286338 0.5261773 -0.41802046 -0.39619106 -0.3679989 0.00493298 -0.32656556 0.3946067 -0.37347028 -0.60410845 0.123668514 0.3382558 -0.20565279 0.55949575 0.1348309 0.09600384 0.3841505 0.6563225 0.064272895 -0.10381789 -0.0019034953 0.03014636 0.4128267 -0.16394775 0.15406199 0.44649598 0.7142289 -0.8098497 -0.06736567 -0.5655826 0.14461702 -0.34045762 -0.33188334 -0.47653717 -0.15474547 0.32742855 -0.17683485 0.46440065 -0.45357823 -0.9978594 0.17571446 -0.34596658 0.91588664 -0.3367735 0.24419941 -0.33442506 0.27010697 0.8222742 -0.2349941 0.23849222 0.0583879 0.18649258 -0.17021908 0.80698955 0.1549511 -0.69733137 0.392337 0.38479042 0.08026995 -0.0048362087 0.14540237 -0.057146117 -0.094279766 -0.13033149 -0.30806848 -0.6549293 -0.335175 0.819772 0.08901161 0.13999178 -0.3314804 -0.16360924 0.7632219 0.13925168 -0.8514645 0.16424502 -0.4016606 1.2667224 0.1592229 -0.16217156 0.838751 -0.6747142 0.030252224 -0.11085081 0.8674149 -0.30093232 -0.3716331 -0.69351166
食 -0.10192446 0.46180537 -0.09979213 -0.08035226 0.27771303 -0.22935921 -0.36479357 0.1254704 0.36093765 -0.94195354 -0.14766924 -0.03044102 -0.4522937 -0.34213257 0.53224945 0.009518259 -0.30972686 -0.10702588 0.018103508 0.26936975 0.47691008 0.42378986 -1.0207537 1.7512496 -0.173091 0.2213534 0.055517793 -0.37428486 1.0216724 0.46472743 0.3106413 -0.28147554 -0.20671283 0.15455444 0.36988148 -0.1690796 -0.47433385 -0.1566058 -0.24547309 -1.0885869 -0.118232116 0.19516586 0.271487 0.4299803 -0.5758212 0.35558507 0.4441119 -0.07647035 0.043870438 -0.695451 0.4230635 -0.70760185 0.9605295 0.14742656 0.67716515 0.31004947 0.17384811 -0.20023395 0.38006213 0.41406006 0.022777729 0.24443264 0.18618865 1.0614691 0.25674227 -0.25126064 -0.45253667 -0.17726155 0.6317872 0.13277297 -0.23291524 -0.12596917 0.039430544 -0.6252055 -0.793662 0.30470577 -0.43514362 -0.6877524 0.19103625 0.09016767 -0.5227285 -1.026673 -0.09990919 0.25808275 0.4101503 0.6523631 0.61069036 0.6756681 -0.8338692 0.15610076 0.49559277 0.78880805 -0.43640962 -0.87900394 -0.40357974 0.19276881 0.3794133 -0.37995175 -0.5855919 -0.00036813156
善 0.27150637 0.07614994 -0.042421997 -0.682173 -0.07164523 -0.7889309 -0.4042412 0.3538156 -0.38216835 -0.05932791 0.22358976 0.50259465 0.11435265 0.20943981 -0.18644848 0.5946298 0.5551313 0.46462065 -0.24883302 -0.2706001 -0.10459291 0.26170686 0.21927258 0.8585274 -0.20579544 0.1900007 0.34251523 0.14163378 0.1907312 0.09021559 0.030383596 0.01642822 0.016684368 0.32551166 0.26373968 -0.19572632 -0.30928278 0.10051212 -0.21547997 -0.40400776 -0.02097202 0.3713607 0.21642372 0.321803 0.37338516 0.5188051 -0.36281806 -0.2974182 -0.38542634 -0.40223178 0.14555472 -0.18524371 -0.075363405 0.038313605 -0.8281034 -0.4622125 0.1991756 0.0028557226 0.29142377 -0.24873936 0.2953601 1.2032809 -0.24000543 -0.066461965 -0.19014643 0.14033961 0.025609361 0.09284179 0.47656196 0.20825794 -0.0982924 -0.1615641 -0.58297825 -0.32628882 0.39592865 -0.0015048423 -0.06753173 -0.14394745 0.45350695 0.37193358 -0.96118605 -0.5257054 -0.3409484 0.020035278 0.5755206 1.0690813 -0.46206436 -0.22585616 0.27650058 1.6111759 -0.24871802 -0.7691979 0.2732765 0.31105757 0.052196257 0.27644575 0.23925656 0.2606732 -0.8440569 -0.0004397037
后 0.5861428 -0.5977023 -0.425234 -0.24157402 -0.039434817 0.23279864 0.16765699 -0.2608978 -0.52078706 -1.3336385 0.24281083 -0.24709049 -0.4464895 0.1009071 0.003543556 0.17701687 -0.32788527 -0.46781546 -0.4063841 0.3343683 -0.3548564 0.53093976 -0.14082816 0.27485892 -0.41118732 0.32664508 0.33717328 0.5801277 -0.21245 -0.2393417 0.1977321 -0.4235146 -0.21192876 -0.073663265 0.07190952 0.124466784 0.14438339 -0.14017685 0.45578364 0.45423967 -0.34895214 -1.0888625 0.25120875 -0.21625097 -0.31918085 0.5593041 0.10274406 0.84772074 0.0103938235 0.16001458 -0.1631635 0.011842914 -0.08577017 -0.31453142 0.48133746 -1.1403581 0.43932587 -0.63142544 0.25679725 0.40416318 -0.26750636 0.9751153 0.24604723 -0.42278197 0.10580248 0.30225644 0.14463498 0.5423435 0.020724209 -0.14183524 -0.24668692 -0.24067068 0.60990465 1.0414574 -0.624366 -0.16969948 0.57110107 0.091636576 -0.15197892 0.52899766 0.4562676 -1.1034296 1.4812188 -0.008252759 -0.81418186 -0.19638255 -0.1937799 -0.1099821 0.22605683 0.8283959 0.21440576 0.0648259 -0.15561494 -0.52592146 0.3895543 -0.24659769 -0.07552649 -0.8008499 0.0062536327 -0.9266348
德 0.09874411 -0.01769884 0.58567315 0.24688374 -0.22260381 -0.31842205 -0.06396078 -0.1720197 0.13388024 -0.21680094 -0.263449 0.07115098 -0.08098703 0.7022534 -0.6466722 -0.12282562 -0.12128873 0.030917972 -0.5321358 -0.4689714 -0.112754054 -0.26377478 0.16689856 0.6575921 0.76740986 0.011284213 0.83889514 -0.11297371 -0.4036723 0.19194908 -0.5256901 0.25123438 -0.105914906 -0.1561526 0.49032354 -0.06518175 -0.7670495 -0.02807938 0.75869346 0.55127996 -0.14777559 0.36982623 0.010862835 -0.50264204 -0.06230847 -0.25337434 0.5570065 0.15050974 -0.20591944 -0.43107656 0.699387 -0.5531808 0.78368515 0.13979755 0.0612794 -0.71196616 -0.24971868 -0.9470297 -0.114252165 0.48957103 -0.18565714 0.43554437 -0.404333 0.6659335 0.2559339 -0.17518614 -0.0066965134 -0.34267005 -0.2395162 0.7520045 -0.9526688 -0.021331673 0.17383051 0.0019156123 -0.08541489 -0.64662695 0.2739744 0.88154554 -0.24607012 -0.90202415 -0.9144435 -0.24388257 0.07406837 -0.14041832 0.7530963 0.25537625 0.12708753 0.37443793 0.32458287 0.19975366 -0.03544814 0.52883124 -0.6376519 -0.3492258 -0.25425553 0.6082505 -0.021812275 0.32603768 0.043489855 0.30640683
求 0.036965206 -0.08137431 -0.3643549 0.5313069 0.013185943 -0.57339495 0.582584 -0.20056292 -0.4394693 -0.60348994 0.4467117 -0.47215283 0.4420848 -0.31243744 -0.19908045 -0.0021760322 -0.5959804 -0.274135 0.14679414 0.15550967 0.14654136 0.5080428 -0.19807789 1.270725 0.06817005 1.0378656 0.0066837007 0.52103984 -0.105853856 0.0067657954 -0.1300083 -0.11519359 0.025901524 0.006334131 -0.52563024 -1.5561591 0.48883265 -0.42103183 0.5535578 -0.58965784 -0.26206765 0.3984478 0.2766776 0.77991843 -0.0571752 -0.47913694 -0.085682176 0.22388041 0.30318865 -0.6575336 -0.05823749 -0.69721043 0.013371492 0.08834316 0.18349276 -0.117481254 -0.6851572 -0.5623145 0.023103308 0.92560863 -0.28492558 -0.30845556 0.5249968 -0.5758542 -0.034076106 0.25351542 0.41306984 0.25658616 -0.12974232 0.3824622 -0.976103 -0.2214747 0.31058207 0.2635018 0.1883019 0.21198623 -0.003493664 0.48847786 0.6304056 0.4648922 -0.3829226 0.11598733 0.023983369 -0.22845088 0.3164546 0.0063274023 -0.56868255 -0.6515246 -0.2090266 -0.035973158 0.20515732 0.035274323 0.5500182 -0.09926925 0.17315927 0.37083232 0.2722923 -1.0044928 -1.112326 0.386551
对 -0.1044412 -0.05606177 -0.6827818 0.00994755 -0.25303823 -0.48817572 0.15045793 -0.89081407 -0.10322869 -0.52496254 0.3385963 1.2016375 0.024309093 0.474487 -0.06969096 0.14087634 0.84066856 0.62368727 0.7193095 0.48217183 0.74954474 -0.024882374 -0.088329226 0.8686801 0.27406377 -0.4126424 0.10504923 0.014295431 0.5211556 -0.3483731 0.026387217 0.10047489 0.5506678 0.6746638 -0.5249633 0.15869007 -0.11359245 -0.56788605 -0.30812943 -0.21109882 0.30480978 -0.117246255 0.77941304 0.84162265 -0.1240746 -0.70368713 0.4547503 0.43710747 0.3435324 0.19020449 -0.2914665 -0.17874643 -0.2672158 -0.11355045 0.05493594 0.15826884 -0.32958204 -0.17819847 -0.3128689 0.33937892 -0.5235621 -0.07951379 -0.027000079 0.27619258 -0.17613056 0.67979217 0.13690543 0.5312326 0.05608312 -0.16546012 -0.6598785 -0.30259293 0.32156578 -0.49250627 -0.7980671 0.17255935 -0.31453848 -0.768193 0.091749184 -0.33733693 -0.3724994 -0.4864382 0.5311906 -0.34324437 0.02453609 0.08423692 -1.6219928 0.03499815 0.16068146 -0.14578679 0.019984098 -0.08587626 0.060191646 -0.5274508 0.7332629 -0.19266813 -0.13260534 0.2908963 -0.10221173 -0.068279706
恶 -0.2757111 -0.14539462 -0.10503015 -0.5262115 -0.54170334 -0.43653762 0.15531236 0.6167467 0.0792791 -0.07922208 -0.017774016 -0.23061703 0.07283417 0.1522021 -0.028149813 0.12373666 0.21481162 -0.22238621 0.28541383 0.7481313 0.4398846 0.036572155 -0.87003857 1.0001729 -0.750084 -0.014568064 0.6629283 -0.2589092 0.52960163 -0.2989563 0.07142881 -0.3568848 0.43411303 0.078159526 0.44442666 0.5195756 -0.5419034 0.833416 0.21249983 -0.66739273 0.1468928 0.06844144 -0.7045506 -0.052286133 -0.366083 -0.6281599 -0.16361849 -0.26107264 -0.079511516 -0.108387105 0.031718764 -0.05405776 0.18813406 0.063053206 0.009576225 0.32964396 0.23101044 -0.18981242 -0.33798024 -0.04440208 -0.54091805 -0.11484419 -0.3534595 0.5352904 0.15418395 0.09052809 -0.31797245 0.23951249 0.04202223 0.18694761 -0.011890407 -0.19821249 0.38061634 0.13182478 -0.25910744 0.5073129 -0.5709341 0.102743626 0.13876666 0.051724076 0.10844107 0.76827604 0.90156263 -0.17704676 0.6227377 0.8800446 -0.15107462 -0.1168359 -0.5665429 0.44047892 -0.5342629 0.07533888 -0.10894902 -0.5701578 0.094689354 -0.37880254 -0.5029029 -0.1616376 -0.6336573 -0.10758268
信 0.007290489 0.09434924 0.8011869 0.813535 0.3447943 -0.15183486 0.023868578 -0.38446683 -0.8717657 0.74581796 -0.6307941 -0.5214693 0.10984688 0.3089012 0.018606786 -0.21332105 -0.62904054 0.15453456 0.04651134 0.66782296 -0.516059 0.037763692 -0.092095844 0.5654015 -0.038644064 -0.101163544 1.1447005 0.6082002 0.12966496 -0.10390219 0.59525126 0.20697622 -0.5142665 0.09707632 -0.47178203 -0.07897939 -0.36471444 -0.57192767 -0.24564117 0.156253 0.5378304 0.738339 1.3339996 -0.6210799 -0.8763913 -0.00486909 -0.23192361 0.06271227 -0.15658331 -0.41314596 -0.0065628346 -0.5797621 0.22496869 0.36685967 -0.102924764 0.0075060967 0.1917638 0.13212655 -0.4704736 0.6461215 0.117466405 0.5304299 0.12028072 0.42262694 0.20975278 0.2267009 0.34644276 -0.63437325 -0.029294144 -0.04897136 0.16393715 0.5972881 0.33090797 0.5883241 -0.39069137 0.8578692 0.009495966 -0.10906122 -0.112557426 0.088027924 -0.97420394 0.056257114 -0.5077992 -0.393586 0.6563403 1.0132886 0.26285446 0.26158175 0.055883512 0.19144808 1.0818177 -0.3745972 -0.047488485 -0.53678197 -0.21884921 -0.7277282 0.22339606 -0.19795552 -0.38231573 -0.26161814
死 -0.34143448 -0.20171022 -0.605293 0.44881478 0.29138315 0.016459402 0.75603867 0.059188522 -0.6846539 -0.7462547 -0.10315665 0.7210985 0.18247078 0.0009246422 0.41395047 0.35335135 -0.07414498 -0.30980438 -0.12579678 -0.4074748 -0.1542215 -0.42953333 -0.9002273 -0.21598063 -0.065479584 0.8792975 0.5860634 0.5511328 -0.04966178 0.31651837 0.070470855 -0.8696813 -0.41903502 -0.38754654 -0.32662967 -0.604306 -0.12705322 0.31095052 1.1126819 -0.5969481 0.21594174 -1.1032604 0.08073928 0.0025106259 -0.60185206 0.5700805 -0.678295 -0.0925585 -0.81102175 0.27740374 0.20397083 -0.48135224 0.71956843 -0.3397176 -0.83244973 0.2676371 -0.010429457 -0.60305893 0.3897507 0.87701267 0.4917551 -0.08661739 -0.26503754 0.29991323 0.78000844 0.6203648 -0.08729595 -0.48747614 0.19108395 0.38273916 -0.24316019 -0.33921266 -0.26107326 0.4721609 -0.51186776 0.23374034 -0.98872304 -0.73238707 0.16216747 0.60410005 0.28776476 -0.11497484 0.07759373 0.3380617 -0.12540402 0.58733076 -0.15866455 0.6721816 0.32502866 0.66376114 -0.870495 -0.91578823 0.489588 -0.09916207 1.2315407 0.1899922 0.6505885 -0.046886217 0.12889184 -0.84491986
然 0.5715265 0.2626266 -0.64063734 0.24944727 -0.13001633 -0.18658929 1.1267884 -0.44301018 -0.39155206 -0.54013145 0.06305853 0.08570073 -0.42126724 -0.7101529 0.37756956 0.33628514 0.34878653 0.5514098 0.2469793 0.09894654 -0.104589336 -0.20963924 -0.5062794 1.0862988 -0.50150883 -0.30915985 0.18787387 1.2283778 0.20491675 0.39594275 0.2785625 -0.27606106 0.157808 -0.27446944 -0.6824368 0.8032832 -0.3442969 0.09615023 -0.5609856 -0.1433444 -0.014700727 -0.016758505 -0.41771278 0.19060929 -0.17935964 -0.06967751 -0.28131756 -0.11230225 -0.06714681 0.32404873 -0.20148762 -0.91770935 0.7357815 0.48758772 -0.20636919 0.22116114 -0.03374874 0.23424055 -0.4588663 0.014076782 -0.056299835 -0.49035683 -0.48815453 -0.06501092 -0.45622486 0.2990211 0.46873727 0.2124579 -0.186305 0.66695774 -0.1756667 -0.13511914 -0.7258775 -0.11389609 -0.51210576 0.25063196 0.42105785 -0.1732868 0.013571361 0.08087146 0.36014026 0.07330318 0.08162865 -0.21206705 0.21392457 0.96716714 -0.43636885 1.0408131 0.44362107 0.55073017 0.18740317 0.028781563 0.035364304 0.026743257 -0.76785475 0.098743685 -0.08304001 -0.5623747 0.71242744 -0.38125342
《 0.5441379 -0.920162 0.26559126 -0.85997164 -0.035951104 0.5809254 -0.18104556 -0.21318394 -0.63279593 -0.29924917 -0.58314866 0.045961715 -0.38032362 -0.69785786 -0.4511693 -0.03671767 0.5618523 -0.064030595 -0.32078353 -0.028632635 -0.014876905 0.7931837 0.8358479 0.50926954 -0.25958624 -0.6645419 -0.17036043 -0.09285589 0.074915424 0.6030323 -0.4635305 0.24569835 0.038543716 -0.20812644 -0.2688933 -1.1075925 0.014988518 -0.9185198 0.4688919 -0.98360234 0.582423 0.4801127 -0.1796364 -0.9658318 -0.5771288 -0.73189336 0.047298647 0.6716483 -0.3926725 0.17028819 0.36579162 0.37699348 0.7023867 -0.39778918 -0.014273201 -0.030216245 0.93152064 -0.14642899 0.12428915 0.18905827 -1.8403792 -0.0693537 -0.10595611 0.57462144 0.48554114 0.47403535 0.73248947 0.40172267 0.9522554 0.85240537 -0.00042144713 -0.22864252 -0.19837853 0.21193203 0.19884302 -0.34769842 0.5733249 -1.5530598 0.04700568 0.36134517 -0.16823085 -0.033512563 -0.33902296 0.42087615 0.67121875 1.5232462 -0.32513943 -0.70848083 0.93780047 0.7802679 0.06306613 0.20629092 0.108654514 0.09487994 -0.16199571 0.15919675 0.47897273 -0.24918327 0.016211396 -0.4549991
》 -0.0692083 -0.02150627 0.2528143 -0.027002951 -0.16815099 0.4649935 0.92673784 0.3402372 -0.2937272 0.09823642 -0.017677564 0.32668054 -1.1205316 0.4122757 -0.17270072 -0.93880445 0.02768563 0.36159748 -1.054683 0.084412605 -0.041539438 0.12934707 0.46538612 0.73253006 -0.5186162 0.11974555 0.117993034 -0.07954018 0.0698797 -0.22586109 -0.31538576 0.1276177 -0.29607522 -0.3946245 -0.47857246 -0.115314364 0.034475386 0.012224815 -0.20334242 0.3876398 -0.004573595 0.571194 0.2943315 0.61391765 -0.3425641 0.60557926 -0.8043176 0.20052268 -0.23403333 -0.2010799 0.31303084 -0.5804137 0.06840021 -0.576176 0.36448398 -0.08740077 -0.022928799 0.10985592 -0.48218283 0.22539376 -1.0029254 0.12018545 -0.17759496 -0.21918796 0.008738864 -0.16796486 0.93961215 0.47083595 0.49703655 0.85446084 -0.05851905 0.06424833 -0.4714185 0.9019985 -0.60778046 0.099570066 0.039576102 -0.5084112 -0.34823993 0.48181885 -0.58002865 0.39173973 0.11037855 -0.65548986 -0.14444596 0.21701099 -0.5707578 -0.14254579 -1.2138305 -0.096054725 0.43598834 -0.11631294 -1.0483328 0.097157 0.25229725 -1.4335679 -0.2661548 -0.47577605 -0.5136769 0.48764092
