1352 50
， 0.27150318 0.044010416 -0.06629339 -0.050755136 -0.032957897 0.13829002 0.04758951 -0.071505465 -0.015545242 -0.035729602 0.027619073 0.041644067 0.021278687 0.0085111195 -0.00838127 -0.013672796 -0.6545388 -0.0054019233 -0.0019600235 0.012879416 -0.14305393 -0.072150305 0.041329913 -0.025505561 0.15912262 0.0073411106 0.08233169 0.029658228 0.068800025 -0.019436141 -0.05351668 0.0050675645 0.003443956 0.058494452 0.010265041 -0.0047461377 -0.006413323 0.050493844 0.05423725 -0.011344183 -0.0820292 0.002808253 -0.024258697 0.03072798 -0.0348132 -0.020771973 -0.06761074 0.025153657 -0.011652084 0.05256145
子 -0.048720732 0.045512762 -0.043772504 -0.12889767 -0.20592618 -0.030177282 0.06959489 -0.012297818 -0.045187514 -0.03928836 -0.0022426397 0.17119339 -0.02940272 0.14949983 0.106819086 0.08531828 -0.016096361 -0.95124555 -0.123421036 -0.102608934 0.073291734 0.008565748 -0.019299336 -0.00074830477 0.07362853 0.055465177 0.0068220473 0.05693123 -0.034215495 0.059844323 0.10541938 -0.109661296 -0.11104463 -0.2079664 -0.053620163 0.014760679 -0.041978776 0.07550857 0.15131755 0.105186984 0.03843028 0.076221235 0.081143565 0.08860033 0.03449654 0.059240494 0.044045825 0.011303039 -0.027345648 -0.13210748
。 0.32177067 0.024000447 -0.04119266 -0.0111106485 -0.014636223 -0.21736313 -0.12580788 0.10122094 0.16162816 0.105639525 -0.14871454 0.18494925 0.047383286 -0.032116182 -0.010531258 0.08347502 -0.39582282 -0.61196655 -0.026076812 0.025921928 0.3841099 -0.062188443 -0.19320872 0.07877724 0.24504179 0.049670216 -0.14073232 0.15168066 0.08109357 -0.08765706 0.059893746 -0.074861936 -0.015395005 0.13372956 0.16875876 -0.06727845 0.11789884 0.13335289 -0.090281956 -0.0045998776 0.043647233 0.0014885099 0.0638362 -0.09338475 0.072698124 -0.077651955 -0.079173446 -0.09353435 0.034763083 0.18953207
： -0.05186898 0.023172306 0.009942563 0.06670262 0.0008154898 0.012819417 -0.08515949 0.06449587 -0.08372288 -0.09564786 0.04681658 -0.10749295 0.12012492 -0.08659505 -0.07822062 -0.09824448 -0.0729024 -0.8416241 0.124006346 -0.05468807 -0.10565527 -0.104564205 0.06680133 -0.0103061 0.0058604153 -0.109845385 0.068161465 -0.2193379 -0.0017470007 -0.11362992 0.09808145 -0.017385392 -0.05212964 0.051999502 -0.03393279 -0.095945306 0.15590928 0.046123758 -0.04144702 -0.12821268 0.0041800286 0.22740924 -0.045855477 0.12463146 -0.004236513 -0.11647806 -0.0039936965 -0.10586831 0.17035693 -0.098026544
曰 -0.055979278 0.057273455 0.10126196 0.056739736 -0.018451225 0.025113903 0.037714675 -0.05239781 -0.026210515 -0.07934383 0.012523456 -0.100589074 0.010760641 -0.07693242 -0.16790165 -0.086076744 -0.05037675 -0.97009444 0.13762702 -0.015514347 0.04555789 -0.051319987 0.10008705 -0.03915892 0.0016846486 -0.116839334 0.011600794 -0.14991783 0.06575957 -0.13416423 0.10469628 -0.033601407 -0.0015684852 -0.078409426 0.0075185336 -0.028744483 0.14249414 0.007860661 -0.023859492 -0.06922666 -0.050190974 0.17950602 -0.104045674 0.12689935 -0.033176087 -0.18164365 0.0639241 -0.07411905 0.11684433 0.027214793
之 -0.14016633 -0.26762283 -0.10146084 -0.0066060526 0.1344917 0.15325426 -0.13671322 0.13170257 -0.08002209 0.15941282 -0.074037105 -0.21861842 -0.2475545 -0.14293402 -0.1193491 0.024330964 -0.5353796 -0.27555263 -0.053896938 0.041210115 0.087799355 0.05823617 0.06297395 0.08792099 -0.17632966 -0.008673228 -0.0712859 0.05385434 0.12228997 -0.04651981 0.06364503 0.2953856 -0.08950713 -0.0033146823 -0.09774772 0.21849176 0.061719123 -0.068476856 0.052683853 0.045615006 -0.10385429 0.29030645 0.14278854 0.114888966 -0.16576076 0.20584103 -0.030870682 0.08120879 0.0660148 0.025977049
不 -0.35360113 0.27117214 -0.25055867 0.15468071 -0.07061602 -0.30510542 -0.12408221 -0.053068217 0.059336416 -0.0037553406 0.023013407 -0.07762349 -0.11384448 0.0022623176 0.11064013 -0.15552032 -0.79043436 -0.003809639 0.12303926 0.0076630847 0.17108211 0.13089864 0.037895948 -0.10173611 0.026894094 0.06036253 0.12091266 -0.0810876 -0.19081734 0.04942126 -0.09247978 -0.17825384 -0.069077015 -0.22924162 0.02617288 0.13117094 0.17790696 0.24465746 0.068191074 -0.086742885 0.31976494 -0.0339342 -0.06341359 0.092460595 0.0022219545 -0.06967102 0.13406065 0.15281962 -0.029551744 0.023816118
也 -0.08327237 -0.006020944 0.13798392 0.23463838 -0.021281099 -0.16498476 0.10020806 0.010581706 0.02343243 -0.04375057 0.09341029 0.15646979 -0.27773345 -0.024018126 -0.005099574 0.25058082 -0.37478513 -0.3954535 0.1238393 0.0063475845 0.25490156 -0.11466843 0.26507732 0.01782471 -0.008985569 0.14636393 0.07995771 -0.028183063 -0.09086448 -0.06269796 -0.10017005 0.010866485 0.15842468 0.19418634 0.15005548 -0.03251146 0.024861872 -0.36286095 -0.020259997 -0.14335753 -0.23614901 -0.057179436 0.19107991 0.065221846 -0.029669372 0.04255199 -0.13297467 0.07342912 0.038192153 -0.07715478
而 0.040111147 -0.22034153 0.017752131 0.09335255 -0.19731577 -0.17351542 0.41353342 0.08317714 -0.13398132 -0.1869552 0.110662475 0.1973334 0.021827787 -0.29067746 0.02681137 -0.020115634 -0.6925297 -0.0017523539 -0.048058443 -0.19860141 0.03719785 0.17966075 0.0138437785 0.05823619 -0.15008134 0.08533041 -0.2549644 0.11184938 0.12108603 -0.058845513 -0.013264878 -0.2026175 -0.16648266 -0.2078374 -0.19785653 -0.20926398 0.04577146 -0.19557549 0.01021051 0.029303323 0.026961507 0.024711158 -0.23074076 0.20498945 0.12914737 -0.081879556 0.2405785 0.053528447 0.26579276 -0.11210667
？ 0.40061852 -0.47350007 -0.02338137 0.324253 0.22922309 -0.033512883 -0.029111432 0.0469594 -0.17385985 0.22106981 0.23272775 -0.14488864 0.11515034 0.11452844 0.23301102 -0.043958902 -0.2887733 -0.8792358 0.1031492 0.17937915 -0.35407963 0.08671827 -0.16409534 -0.24617992 0.0973516 0.049897105 -0.18052678 0.13512187 -0.10159363 -0.34556657 -0.1419247 -0.1630926 -0.011115138 0.005704491 0.2942589 -0.2632115 -0.115657076 0.31512186 0.12127221 -0.12819214 0.1302137 -0.5120278 0.13916805 0.024346648 0.21071915 0.04286544 0.16401069 0.05475322 -0.17547446 0.053462896
其 -0.14238936 -0.030817209 0.4567452 -0.028486231 0.053065628 -0.18988216 0.035013434 -0.16313498 -0.27571124 -0.023093615 -0.18454024 0.039037086 -0.04361054 -0.045379754 0.055075392 -0.20777906 -0.6389063 -0.17233469 0.32756618 -0.14643389 0.07205562 -0.22330701 0.29442573 -0.10044965 0.04573727 0.19390652 -0.10074713 0.0013022466 0.09462477 0.2301028 -0.12957907 0.23848452 0.13322863 -0.422733 0.12046062 0.023790063 -0.037796076 -0.095208004 -0.04966435 0.011851481 -0.0805849 0.06551161 0.23512955 0.0704612 -0.051561557 0.11142724 0.14895889 0.029328635 -0.30648798 0.08474784
人 -0.20036009 1.9585685e-05 -0.08392293 0.18723235 -0.07124766 0.07121567 -0.19043401 -0.15785223 -0.09739278 -0.12347015 -0.1124835 0.26247084 -0.24709575 0.042703934 -0.25486702 -0.027892008 -0.48542163 -0.340329 -0.17777298 -0.12840278 -0.044397227 -0.024840485 0.0056250268 0.22528419 -0.089434065 -0.085342154 -0.0070928363 0.27813008 0.039594147 0.26777095 0.1384408 0.031296108 0.083953485 -0.13019887 -0.116005965 -0.2682251 -0.029465415 0.045445416 -0.25455964 -0.13804193 -0.04257473 -0.023398101 -0.05967661 -0.38177958 0.13912177 0.24469352 0.009992285 0.1962855 -0.09061719 0.11708987
者 -0.15391523 -0.3980443 -0.12315279 0.1166887 0.030658884 0.21930428 -0.17215276 -0.18890558 0.19767389 -0.090713955 -0.046219468 -0.18742712 0.18223424 0.00058429217 0.09906346 0.11317558 -0.58669484 -0.188651 0.37535414 -0.29451644 0.14331317 -0.0039940863 -0.23073773 -0.1937096 -0.16629623 0.26350313 0.042019766 -0.045815773 0.12879571 0.09465171 0.23792312 -0.34374046 -0.05335149 -0.19811332 -0.004723596 -0.13053405 -0.00407793 -0.4035068 0.0038010462 -0.14805576 0.17814116 -0.006064291 0.09411545 -0.09463917 -0.00962782 0.16702643 0.018519266 -0.28954282 -0.028405601 0.39561749
以 -0.3257418 0.26209038 -0.024712032 -0.27486894 -0.12168291 0.1301025 0.23880997 0.02608613 -0.05456152 0.17843497 -0.071699224 -0.05248211 0.32310525 -0.11541878 0.023011088 -0.14269717 -0.7863613 -0.3452106 0.0078886235 0.07103434 0.038488667 0.24879299 0.09983678 -0.0065719825 -0.25714922 -0.19799566 -0.22034024 -0.40175495 -0.12356165 0.15826783 0.4336735 0.16720456 0.29467818 0.124729864 -0.23352008 0.25055245 -0.0054016183 0.14730212 0.10613569 -0.10065306 0.07616193 -0.38668388 -0.0973007 -0.25808913 0.051225036 0.15197568 -0.3312018 -0.18880048 -0.15528214 -0.2272962
有 -0.07259742 0.30972448 -0.093870156 0.17591459 0.12895921 0.47474003 -0.17858972 0.4352516 0.37651765 0.08436806 -0.26122546 -0.12709653 0.21602643 0.07988719 0.06394302 -0.17631838 -0.3922026 -0.4500719 0.13326816 -0.022501446 -0.36119032 -0.4048079 -0.13758369 -0.16305593 -0.18211707 0.019121226 0.1146323 0.034267515 -0.03429533 0.102212675 0.095438235 -0.12343469 -0.09213599 -0.024369303 -0.005902833 0.2242007 -0.060985073 -0.47880197 -0.2118847 -0.12598956 0.23398314 0.10068103 -0.01617727 -0.11763202 0.5544391 0.022508873 0.28340238 -0.08559509 -0.1671189 0.095244676
于 0.15238498 0.12719876 0.22323446 0.17528391 -0.28442204 -0.0026889485 -0.11475062 -0.045775894 0.18072745 -0.2279592 -0.14284411 0.43775812 -0.12055813 -0.07715519 0.0956957 0.114297695 -0.40800977 -0.2897722 -0.039183 0.4156333 -0.45849332 0.08143171 -0.16093992 -0.09612493 -0.11615247 0.05338207 -0.0044059125 -0.17491108 0.448144 0.10558829 -0.03026797 0.32602626 0.015472627 0.014889809 -0.43114182 0.0038968907 0.30598435 -0.20154665 0.100771345 0.19313367 0.11906593 0.063061595 -0.17824927 0.044951774 -0.014617889 0.1689419 -0.00017644092 0.11817909 0.21942359 -0.1075564
矣 0.07672733 0.14819653 0.07752122 0.04344371 -0.07695869 -0.062324755 0.06485154 0.16707239 -0.48082364 0.021795396 -0.52372175 0.03838978 0.41480723 -0.29242307 0.0795292 0.30226314 -0.28179166 -0.5225392 0.029191189 -0.09218521 0.2114581 -0.056285623 -0.39816916 0.09991989 0.0381187 0.38373145 0.12794061 -0.26205984 0.23996642 -0.014601646 -0.21090196 -0.015134475 -0.08339029 -0.015595398 0.003692829 0.13955866 0.014361536 -0.7034922 -0.20815063 0.15702415 0.006398352 -0.2883499 0.015733603 -0.18921156 0.059403837 -0.34784824 -0.14811952 -0.26726264 -0.12680799 -0.030030191
为 -0.17342009 0.0038298788 -0.23486187 0.11712044 -0.077577986 0.06927419 0.036312032 -0.38966027 0.32989419 -0.050911013 0.22371775 -0.308396 0.24076498 -0.003930202 -0.20836762 -0.117385246 -0.43364072 -0.50486207 0.050545856 0.15924518 -0.16290724 0.43531674 0.1876598 0.1551362 -0.17633916 0.42161945 -0.105646506 -0.4402692 -0.0068556126 0.157005 -0.2878527 -0.01599989 -0.087657705 0.23855971 -0.40077758 -0.024368636 -0.34261504 0.051607568 -0.07243422 0.2372465 -0.3717023 -0.1177022 0.1457218 -0.48676503 -0.042868394 0.06398449 0.23665403 0.070378296 -0.11802722 0.20998695
君 -0.26233745 -0.05916667 0.024866313 0.04724594 -0.31673732 -0.084610045 0.14380795 0.44256786 -0.20063767 0.06927721 -0.13675739 0.14645095 0.017822692 -0.05141644 0.21877153 0.08020609 -0.19030644 -0.7012585 0.02338308 0.10044136 -0.31740898 -0.01529746 0.48495764 0.12785065 0.005025123 0.15706208 0.25208712 0.42725247 -0.26222774 0.3213754 -0.08614868 -0.17244005 -0.37491825 -0.10590571 -0.20447102 -0.2869949 -0.15816222 0.31385103 0.08700046 0.2507436 -0.087477006 0.05402941 -0.005455942 -0.2866772 -0.008781859 -0.002974895 -0.25363603 -0.20598692 -0.12022274 -0.06297284
乎 -0.012027627 -0.16224459 0.192356 0.1411493 0.0045927293 -0.01707556 0.24145892 -0.075220406 -0.016665401 0.112321995 -0.18537003 -0.12252059 -0.2565091 -0.07722651 -0.024257911 -0.1466644 -0.27454156 -0.56719697 -0.28093162 0.18200785 -0.39340478 0.048015617 -0.34412077 -0.2794304 -0.2100267 0.3723461 -0.15855876 -0.19204056 -0.15357979 -0.17444213 -0.119490035 -0.19150358 -0.09378325 0.036554683 -0.05191105 -0.5418355 0.09681841 0.016434003 -0.37776577 0.124760084 -0.15373993 -0.5106418 0.022315579 0.36607504 0.12992306 -0.11487183 0.4951982 -0.2916368 -0.1438652 -0.0062067118
可 -0.23628888 0.2639784 -0.08170513 -0.11055703 0.41610157 -0.20215024 0.066937044 -0.058834836 -0.3243235 0.18967904 0.3202971 -0.15973914 0.04450618 -0.48384264 0.07029021 -0.071951985 -0.63469344 -0.25640878 -0.256708 -0.0896545 0.36540708 -0.078921705 0.13506375 -0.4266365 0.14401852 0.011026693 0.36910203 -0.23474415 -0.04773603 -0.124745056 -0.22033618 0.27894193 -0.17477791 0.13284893 -0.01368053 0.07579234 0.17726962 -0.33236244 0.31601572 0.22326325 0.0060987948 -0.47110093 -0.10143891 -0.18601616 0.17232738 0.009248114 -0.098376974 0.016403072 0.007863854 0.08780148
如 -0.32484493 -0.09595933 -0.049657796 0.42930037 -0.17827207 -0.052680384 0.36620545 -0.32074055 0.019603757 0.41849807 -0.20352234 0.11028356 0.0107293315 0.4006772 0.10724306 0.06344956 -0.54769635 -0.3134066 0.27166894 0.2221081 -0.14489877 -0.21377978 0.50831527 0.24331991 0.14221762 -0.47634357 0.30561543 -0.19542466 -0.3610903 -0.41733816 -0.3481342 -0.015043967 -0.29493937 0.30700275 0.108996734 0.017438782 -0.029639088 -0.38335443 -0.40429333 -0.13543224 0.14803305 -0.17030178 -0.07627516 0.3158772 -0.35354817 -0.054638904 -0.16316082 -0.052050054 -0.23724481 0.081780925
与 -0.06369702 -0.1277182 0.0666418 0.1620216 -0.16487595 0.09146554 -0.0466425 -0.051401682 0.11384576 0.31927627 0.5202646 -0.22777085 -0.23743582 -0.3340884 0.05609656 0.105912894 -0.39449048 -0.37187886 0.31022018 -0.0014167642 0.11955318 0.3398698 -0.17006522 -0.07926489 0.07453936 -0.049494337 0.37222478 -0.06573474 0.15936664 -0.06327804 0.09292775 0.027833475 0.12736474 -0.19914053 0.3266275 -0.35715833 -0.2569615 -0.46697855 0.3271515 0.00076036685 -0.27072936 0.045336325 -0.07829195 0.30364153 0.021135427 0.21517818 0.0415879 0.09102922 0.38658673 -0.10620993
； 0.5026017 -0.37605765 0.26855505 -0.11925206 0.035194658 -0.48786688 -0.4029912 0.049001675 0.13884345 0.0125876395 0.019856984 -0.07265726 -0.19271402 0.084935874 -0.074361116 0.29266664 -1.1618344 0.16088295 -0.16393341 0.3314111 0.14787617 -0.4580625 0.17631611 -0.18233441 -0.35103112 -0.110976264 0.12341289 -0.1624325 -0.0432684 -0.0060097547 -0.17012964 0.08836182 -0.022194618 -0.2160489 0.041410048 -0.31710207 -0.2237871 0.19395804 0.14556663 0.13426416 -0.0040344987 0.22761504 0.058469225 -0.23933552 -0.18766715 -0.076994546 -0.065547705 -0.15802649 -0.084921174 -0.13193761
言 0.10644484 0.29985753 0.2897825 0.17921972 -0.015869224 -0.35897177 -0.0206487 0.22413401 -0.2168459 0.64832324 -0.11387423 -0.31272087 -0.0116299875 0.018141389 -0.28653014 -0.29100528 -0.552746 -0.14489937 0.2983813 0.028249249 -0.06028231 0.38781023 0.103114344 -0.06308508 -0.028732885 -0.30489227 -0.26847285 -0.186489 -0.030295733 0.5288036 0.07960753 -0.1888589 0.297142 0.16182202 -0.19201417 -0.38019347 0.04944311 -0.33339226 -0.0028572888 -0.17026207 0.11812234 0.35222873 0.28987765 0.020224754 0.38182262 0.045115102 0.026720533 -0.2980734 0.0012197394 0.01885751
无 -0.25876677 0.20936684 -0.049829293 -0.07301889 0.04192904 -0.0014133658 -0.41277957 0.46059212 0.0010592834 0.08602645 0.003955912 0.11326458 0.0058191866 0.42722046 0.21301249 0.1676428 -0.6899665 -0.15821855 -0.46156758 -0.06813523 -0.25938097 0.019941011 0.27455553 0.30899453 0.18065968 -0.35794324 -0.00038702445 -0.24864323 0.15176229 -0.30331263 0.076647475 -0.047827594 0.19333379 -0.2820555 -0.6481378 -0.30314988 -0.109904535 -0.11385215 -0.16701198 0.15170263 0.012317585 -0.21149518 0.12742405 0.0015007575 0.17098829 -0.2676941 0.39643604 -0.027730351 -0.18904658 -0.013593275
则 -0.09189863 0.061700832 0.55520505 0.29005894 -0.23435819 -0.1047277 0.17482635 0.21697831 0.21055456 -0.19076955 0.07286199 -0.32723606 0.039789513 -0.07002852 0.12631519 0.28582892 -0.83868676 -0.060762126 -0.16193329 -0.30582523 -0.19669473 0.09513458 0.15051442 0.019008176 0.036481827 0.19729403 -0.13834645 -0.17012872 -0.11980254 -0.21814689 -0.0047033434 -0.1342562 0.27894104 -0.0010799342 -0.32380354 0.18930948 0.13349365 -0.057869766 -0.24921103 -0.23604141 -0.00843487 0.23795702 -0.19415054 -0.30193168 -0.099074975 -0.049205206 -0.06728688 0.39319164 -0.58659697 -0.20077105
！ 0.46962124 -0.1022877 -0.13645338 0.057909712 0.05835504 0.0050144466 -0.19273153 0.05623797 -0.15381703 0.024314227 -0.03345727 0.09272622 0.06079506 0.10627689 0.027158488 -0.08869071 -0.15909868 -0.8870703 -0.2988483 0.40246135 0.019600252 -0.17568073 0.14045505 -0.33992356 -0.33932945 0.2960091 -0.034385014 -0.16503085 0.05766485 0.11530508 -0.37834924 -0.29874143 0.13523568 -0.3316777 0.31647065 -0.544485 0.1829491 -0.1075805 -0.06074789 -0.2156977 -0.1597816 -0.02502231 0.048027005 -0.035313908 -0.18042564 0.058971364 0.038676735 -0.15710261 -0.1826112 0.39022088
问 0.1701746 -0.0025282113 -0.041007943 -0.02828746 -0.09141422 -0.027872553 0.01089454 -0.24292691 0.18338197 -0.30904916 -0.058305535 0.12215849 0.12982483 0.29083592 0.05459613 -0.038956583 -0.0824344 -0.9366412 0.25251898 0.34022826 -0.37936658 0.008201639 -0.12782434 0.1284639 0.11332771 0.08531083 0.1825197 0.12425407 0.02365069 0.022028772 -0.25698486 0.5309012 0.21428017 -0.011887515 -0.29235148 0.38770574 0.16756546 -0.45478916 -0.32652488 0.23273255 -0.478449 0.17064257 0.2792716 -0.067144096 0.2247495 0.029454008 0.2776939 0.22645779 0.52858007 -0.12159034
知 -0.3363459 0.02846553 -0.28864253 0.037485678 0.26703978 -0.20154448 -0.2322874 -0.10435707 0.13379163 -0.2827641 0.39895976 -0.3490811 0.23617277 -0.42065334 0.2747237 0.09448333 -0.5355006 -0.428539 -0.18946871 -0.11287045 0.05383163 0.2057462 0.43169743 0.21867155 0.0792048 -0.24077302 -0.09966514 -0.03686188 -0.35292357 0.01659317 -0.064957686 -0.10499958 0.2617407 -0.0043777083 0.03704727 -0.2073746 0.21089987 -0.19278285 -0.20010415 -0.04534891 0.20786907 -0.08538687 0.11233988 0.19255589 -0.024988059 -0.05396516 0.07123206 -0.0009338994 0.27855715 0.20359363
何 0.002959103 -0.08049763 -0.104840465 0.100386724 0.5384315 0.030534336 0.0703171 0.20068537 -0.10714338 0.0031364546 0.044045787 -0.38577232 0.026406636 0.59180933 0.18412034 0.060022034 -0.36664942 -0.64049304 0.0037660005 0.30029848 -0.27251208 0.2555622 0.030931547 0.07815255 -0.12367947 -0.19849369 0.11985368 0.4836131 -0.37050036 -0.07182647 -0.10381096 0.05540873 0.17940456 0.1562276 0.007592789 0.06285134 0.026173666 -0.16504973 0.1522798 0.079674885 -0.19893484 -0.5563027 -0.14003333 0.43032175 -0.19319142 0.41047066 0.042082928 -0.09180059 -0.14632666 -0.042683434
吾 -0.10579358 0.03068559 0.33143407 0.11582539 0.1288098 -0.027624141 -0.10147962 -0.0126505 -0.21146302 0.23140232 -0.254179 0.14721996 0.1201154 -0.24915937 -0.013662174 0.2656396 -0.37753633 -0.35892552 0.094808534 -0.1461015 -0.3161128 0.03905358 -0.30785564 0.017563537 -0.19837597 -0.103889905 0.16524771 -0.5527863 0.12821424 0.02707278 0.093877874 -0.54172903 0.32389277 -0.043663252 0.3279406 -0.11888389 0.26327062 -0.08253072 0.23922478 -0.28377786 -0.12121123 -0.10517056 -0.116089165 -0.014223186 -0.36999205 -0.17578351 -0.35049573 0.03588924 -0.22973877 -0.023909766
仁 -0.08539788 -0.18371609 -0.086979635 -0.12640208 0.099691465 -0.28946418 -0.0065923235 -0.26808298 -0.13226065 -0.346303 0.013608843 -0.32676676 0.5356637 0.11146295 0.3414655 -0.23546347 -0.2789796 -0.2967724 0.008498776 -0.080185205 -0.13877599 0.20971091 -0.071470164 -0.026956733 -0.12171483 0.49767146 -0.014399947 0.031841893 0.26249176 -0.17176412 -0.12054508 -0.10550169 0.37526864 0.08066088 0.10062857 0.17539409 0.055741027 -0.23401558 -0.0012692378 0.12342212 -0.043897565 -0.16626206 -0.0018668493 -0.127888 0.2657899 0.0019367018 -0.12556066 -0.14988849 0.31091326 0.32779366
夫 0.005426338 -0.3623998 -0.0698923 -0.3267529 0.011184307 0.024073526 -0.00097452255 0.35410994 -0.098735295 0.12172134 -0.19090405 0.18816535 -0.74124885 -0.15913577 0.11954288 0.3835456 -0.10085966 -0.6514642 0.17414673 -0.22710206 -0.29224 -0.013157912 -0.22686595 0.27833077 0.11236855 0.20601335 0.05808218 -0.1928949 -0.1518542 0.20771956 0.09245677 -0.32805136 -0.19765495 -0.18113723 0.29855365 -0.13881616 0.010198203 -0.4555942 0.28831065 0.016477156 0.3288041 -0.24082191 -0.47918946 -0.328887 -0.027199335 0.18872607 -0.3720026 0.4295745 -0.38948944 0.1421793
、 0.0752485 -0.27924475 -0.2987154 -0.20735592 -0.1712121 -0.63022923 -0.037163474 0.44323978 0.23461935 0.37285283 -0.2216402 0.24265304 -0.24620989 0.53366804 -0.15658137 -0.3068376 -0.7232929 -0.5311895 0.6487123 -0.1261635 -0.13890406 -0.15039074 -0.91408557 -0.11220775 -0.5774 -0.062372763 0.04523519 -0.4625742 -0.32583532 -0.35581112 0.06399021 0.43836764 -0.44761306 0.23448937 -0.28060225 -0.35858697 -0.07362171 0.15702304 -0.34647694 -0.17574373 -0.08798593 0.32736886 5.9080885e-06 0.12400367 0.08681694 0.23969601 -0.15358546 0.16052435 0.102054216 -0.16129665
道 -0.23536102 0.035585828 0.43156415 0.17130518 0.027313905 0.10997709 -0.48082516 0.31193465 0.08271821 0.060015403 0.42751965 0.3610806 0.13556045 -0.27620572 -0.018755095 0.06427553 -0.5583607 -0.2068364 -0.13708043 0.0026932654 -0.33095336 0.18995634 0.08278943 0.03410349 -0.08814479 -0.02802744 0.20755158 0.15565938 -0.12992357 0.04127945 0.16962582 -0.04586655 -0.46791193 -0.038029242 -0.141131 0.25712934 -0.37249172 -0.045072205 0.13558707 -0.17611362 -0.17372501 0.04761795 0.19806731 -0.0025343539 0.19854271 0.09287039 -0.016088596 -0.30902404 0.098052666 -0.13373637
焉 0.08233446 -0.05554603 0.022022285 -0.15802175 0.56013215 -0.19726977 -0.07084682 0.12760015 0.077799745 -0.13790998 0.023708371 0.08557397 0.012997472 -0.43544623 0.24403356 -0.31177008 -0.46737128 -0.50739634 0.2950931 -0.56585336 -0.1383102 0.18650585 0.22203602 0.37856948 -0.16158907 -0.40807375 0.25932392 0.3777697 0.12618954 -0.7227771 -0.044564407 -0.2498821 -0.115726106 0.072743006 0.055691376 0.5676073 0.12075975 -0.47223526 0.17171828 0.16414583 -0.07251644 -0.25108117 0.0069596516 -0.076317936 0.5704524 -0.14137779 0.53051126 0.34520525 -0.22534305 0.18069874
行 -0.012556146 -0.07121254 0.059966296 -0.06865376 -0.031869803 -0.11314332 -0.039250046 0.251681 -0.2592587 -0.02938705 0.3578544 0.20086446 0.2963952 0.19207737 -0.11141407 -0.3263788 -0.31527725 -0.31435356 0.18302654 0.14574137 -0.1782679 -0.068595625 0.46688867 -0.1404664 -0.0023135243 -0.100102246 -0.10921193 0.074741505 0.26432797 -0.035334866 0.35237595 -0.5271436 0.28268492 0.16990308 -0.4527172 0.27385908 -0.24952663 -0.23978192 0.1929441 0.28406003 0.28885588 0.090800144 -0.012593488 -0.30480084 -0.28441915 -0.22716686 -0.11318879 -0.04564915 -0.2750539 -0.29922923
谓 -0.25152126 -0.28000286 -0.19324337 0.24482617 0.2758978 -0.080254406 0.053233277 0.17684147 0.17455623 0.6228024 0.40155473 -0.1475856 0.2518641 -0.014463638 0.3483048 -0.17166604 -0.2760597 -0.6659678 -0.18943697 0.31392962 0.45273703 -0.054049682 -0.049510032 -0.1397741 0.11651072 -0.20672894 -0.21358277 0.05321677 0.036247116 0.12444669 -0.2855265 0.020809725 -0.033561073 0.49397668 -0.35946867 0.084337264 -0.16540554 -0.5001875 -0.102476805 0.5135268 -0.25546873 0.19416249 -0.38750756 -0.12807733 0.26396376 0.35927498 0.25237185 -0.05462027 -0.57934195 -0.39979365
必 -0.12519419 0.06122774 0.3147039 -0.34223887 0.14293131 0.20605473 0.06599763 -0.50471747 0.19146344 0.6756971 0.36185512 0.070226975 -0.005218398 0.09281909 -0.21470958 0.4787526 -0.7304604 -0.12105938 0.16757749 -0.36317983 -0.05988693 -0.26388937 -0.07570809 0.06407832 0.07028256 0.33911836 -0.10473738 0.52555573 0.025900235 -0.10590958 -0.15661354 0.19426496 -0.2030217 0.43351895 0.058765396 0.119346574 -0.054647148 -0.19740248 -0.1427226 0.061279263 0.121544816 0.21289478 -0.5351429 -0.053422995 0.084762365 -0.15426499 0.35895652 -0.5223424 0.036336765 -0.18151177
礼 -0.20613419 -0.20294566 0.09719106 0.41527265 0.07037991 -0.24800658 0.22046675 0.0057929233 0.11069667 0.28400746 0.22184049 0.08681076 0.016352467 -0.07312069 0.27618298 0.40856832 -0.71551365 -0.17297168 -0.13047923 -0.062463157 -0.68443733 -0.17056185 -0.09593541 0.26425582 -0.025801778 -0.10568016 0.0796083 -0.6592405 -0.5816651 0.033961233 0.5635531 0.4257157 -0.1728133 0.34062916 0.093857564 0.10766302 0.47468194 -0.06885833 -0.17981146 -0.12976448 0.042444155 -0.06988823 0.22235444 -0.25799885 0.3450948 0.08545623 0.06651267 -0.0918194 0.065331325 -0.08863828
孔 -0.29439342 -0.5453075 -0.25207233 -0.062163852 -0.3379576 0.16024905 -0.1015941 -0.058145814 -0.06821256 -0.037435237 0.2825337 0.2750786 -0.142309 0.09610807 0.69231963 -0.24700107 -0.23810494 -0.85688514 -0.2128327 0.14603063 -0.02940236 0.39938247 -0.49285647 0.18210766 0.8140956 -0.19226147 -0.31884503 0.046107553 0.24602939 0.5277038 -0.29333034 0.087296434 -0.05598988 0.06328639 0.3572286 0.20197342 -0.09486547 -0.3744389 -0.0743685 -0.18189445 0.5602788 -0.035484698 -0.35144565 -0.20356984 -0.09767433 -0.15547808 0.78153104 -0.04063257 0.20558484 -0.48425475
斯 -0.32098094 -0.6359883 0.6434667 0.12689355 0.54975396 0.35026395 0.33644098 0.22362214 -0.2717875 -0.21350753 -0.29567552 -0.101363294 0.2658194 0.048388824 -0.029154858 -0.066367716 -0.5079402 -0.41577303 -0.058652285 0.17332672 0.10853119 -0.3047007 -0.0018359468 0.14423397 0.35279664 0.60688454 -0.013516969 0.17937618 -0.26412922 0.45943934 -0.018392004 0.11928776 0.06467135 0.031306293 0.26213178 0.24303956 -0.2865873 -0.42441082 -0.13231465 0.18954894 0.5538155 -0.033749156 -0.024911866 -0.17764163 -0.011199158 0.293562 -0.22964774 -0.2615712 -0.47361204 -0.09205207
三 -0.18174273 0.26458308 -0.46477607 -0.23218906 0.16284096 0.47027054 -0.3830143 -0.046784833 -0.24060328 0.31480354 0.1679635 0.20776388 0.08900911 -0.19474933 0.6955719 0.22585683 -0.5925371 -0.3157306 -0.09317006 0.26144192 -0.068242766 -0.26547813 -0.40738997 -0.25889447 0.34669396 0.59244746 -0.0777309 -0.37273213 -0.055902146 -0.05656413 0.07258385 0.06181856 -0.14918381 -0.20421225 -0.22795187 -0.22172685 0.5543514 -0.31537926 0.061140176 -0.124029495 0.044856958 0.52977854 -0.04729574 0.1258751 -0.2294896 0.04494959 0.12917915 -0.43867132 0.1332374 0.14523461
能 -0.31655586 -0.10412493 0.32744363 0.3060115 0.14363144 -0.13953345 0.15152715 -0.36315435 0.35969242 -0.27402973 -0.0336371 0.037325487 -0.18136728 -0.18814975 -0.14015764 0.36344293 -0.686172 -0.21694206 -0.18904524 -0.37173504 -0.32965526 0.30715135 0.032898866 -0.13272116 -0.20513327 -0.0801864 -0.25941673 0.055681277 -0.0062761665 -0.20772368 -0.08247949 -0.003106985 -0.17968537 -0.20779009 0.04807069 0.51191026 -0.18581885 0.1447977 0.034651686 -0.080314934 0.020829711 -0.27009222 -0.015642978 0.096174814 0.16244671 -0.40371022 -0.08423791 -0.112182066 0.03863379 0.015064238
见 -0.11900755 -0.22117431 -0.23428696 0.3183877 -0.05921818 -0.3947922 -0.33174732 0.027887164 0.09404315 0.03381936 -0.4838423 0.13444048 -0.23147343 0.24440143 0.25536016 0.21339752 -0.58795345 -0.15686613 0.21601915 -0.12817602 -0.019366346 -0.055763893 -0.41784754 0.18496987 -0.14887401 -0.5111704 0.4374565 0.17237082 0.40253773 0.2615985 -0.18646196 -0.55304295 0.4815421 -0.119846195 -0.061950184 0.16992226 0.004106585 -0.09311497 0.0130051365 0.2804853 0.09546643 -0.11743795 -0.2931314 0.34664237 -0.13363457 0.18533543 0.27673456 -0.3294572 0.26385373 -0.14887509
学 -0.016796792 0.1927355 -0.2719944 0.2620741 0.34494057 -0.4433145 0.26731506 -0.20875148 0.03062846 -0.11253404 -0.014295436 0.0044604344 0.25881913 -0.5390518 0.12549625 -0.10960845 -0.50528926 -0.36765656 -0.54160213 -0.09924603 -0.11394825 0.07945851 0.02017142 -0.23083666 0.7178725 0.28350115 0.14062773 -0.42148697 0.0036412578 -0.18185218 0.03036682 -0.09966617 0.12244286 -0.1973472 0.3908882 0.07346945 -0.56208414 -0.016757531 0.24157952 -0.17909472 -0.012751751 0.45803553 -0.10452993 -0.4389702 -0.27364644 0.07755635 0.1329476 -0.22900058 0.49255875 -0.38210848
事 0.18266213 -0.31109154 0.2754575 0.12799005 -0.35843205 -0.24365745 0.0042728223 0.024916567 0.56949127 0.14943537 -0.2974738 -0.2677726 -0.1551624 -0.027544953 -0.25559965 0.08113573 -0.49140447 -0.19458741 0.4104999 0.5885273 -0.4826501 0.02988687 -0.055899702 0.19363137 0.115935594 0.18955506 0.721724 -0.23083192 -0.35867947 0.06603714 0.48238504 0.058631144 0.3038827 -0.11205571 0.10955526 0.6412945 -0.22610822 -0.100180864 0.40477553 0.3191739 -0.18112123 0.042612962 -0.2950006 -0.3598787 0.16098212 -0.32289493 0.14100203 -0.33521485 0.26804644 -0.16027556
是 -0.13655312 0.55341065 0.16309755 0.6210429 -0.04688662 0.008184992 -0.5113334 0.17381532 0.244864 -0.17816827 -0.08650841 -0.2327426 -0.15278003 0.11913636 0.069554254 0.388404 -0.39206186 -0.41913873 0.1134869 0.5298329 0.118386716 0.7611207 0.07332461 -0.006631754 0.2950621 0.053611185 -0.25709683 0.29426885 0.27632993 0.05168725 0.16089165 0.14754884 -0.20346832 0.0923817 -0.019359728 -0.13386492 -0.21025355 -0.65146106 0.111321695 0.22803424 -0.5270928 -0.01208422 0.39406183 -0.04006026 0.16629131 0.14096254 0.393323 -0.16932426 -0.4518874 0.5703457
哉 0.36268252 -0.34379166 0.22486332 0.13776071 0.091001935 0.06643294 -0.24457991 -0.1123588 -0.119818754 -0.22804128 -0.23927926 -0.34478053 0.11855744 0.3834964 -0.5033927 0.11044649 -0.024515139 -0.95822334 -0.37087965 0.15845934 -0.33214292 0.23280434 0.09928248 -0.12892954 -0.41348994 -0.18746968 0.28577384 -0.23587374 -0.28049338 0.0710848 -0.1704193 -0.572363 0.15211426 0.119254775 0.24755667 -0.25575367 -0.20036548 -0.16748989 -0.2602836 -0.29688853 -0.0638413 -0.11265854 -0.1292097 -0.27569374 -0.15852214 -0.11237952 0.25272295 0.0035455716 -0.5314865 0.25492087
闻 -0.23219268 -0.12231707 0.324352 0.024909811 0.9086524 -0.030228423 0.13077413 -0.31049517 -0.038428515 0.21411209 0.12291456 0.32371882 0.33153215 0.071393885 -0.036413424 0.5040615 -0.35851598 -0.5914655 0.18997759 0.25726524 -0.4788388 -0.16086519 -0.051312394 -0.4015224 0.13161205 -0.30722937 -0.0111917695 -0.47063473 0.2684074 -0.12072003 -0.21314223 -0.16883291 0.079731695 0.19652797 0.01848894 0.5563092 -0.61067253 0.024844525 -0.11790029 0.0073658153 0.20222503 0.3765401 0.39158243 -0.25584817 0.049744222 -0.077095516 -0.40301386 -0.15468721 0.43696254 0.028639343
未 -0.20994155 -0.44307262 0.37784892 0.12873758 0.27071428 -0.18763123 -1.0637311 -0.21653216 -0.25435543 0.16316351 0.31376433 0.16476488 0.5162341 -0.3555394 0.30396482 0.056555722 -0.4416485 -0.30815792 -0.05116214 -0.40654334 -0.06676422 0.13243972 -0.060748786 0.14532506 0.08245871 0.11335124 0.2026501 0.16091022 -0.020327497 0.13637775 0.24502409 -0.36188164 0.2716619 0.23047681 -0.09167348 0.34891805 -0.18708126 -0.3014897 -0.31556 -0.30575043 -0.18810272 -0.1483277 -0.15927942 0.28776035 -0.23838402 -0.21672165 -0.00072762783 0.05512493 0.030990731 -0.018578995
公 0.09630511 -0.30572024 0.05717447 -0.34148452 -0.63379437 -0.38708168 0.3091037 0.13998161 0.22524354 0.13505189 0.56615776 -0.22862379 0.022609988 -0.35094696 -0.09379185 -0.20646678 -0.18392695 -0.88742715 -0.09363762 0.038687196 -0.5410288 -0.45879707 -0.19745244 -0.050760962 -0.16095427 -0.6107483 -0.053201687 0.30331093 0.42693064 0.29241154 -0.39736083 0.15564401 -0.33679253 -0.034388937 -0.18335645 0.7136891 -0.0025781284 -0.11064519 -0.52200234 0.13029477 0.37076634 -0.06207214 0.5237204 0.61037785 -0.48322755 -0.056021944 0.185122 0.13959338 0.33948973 -0.008207252
好 -0.35582882 -0.4966092 -0.28700343 0.81030524 -0.1944871 -0.045669995 0.12625924 -0.15579034 0.37149546 0.45535576 -0.14279263 -0.34165356 0.52992064 -0.35400593 0.047065943 0.6705624 -1.0713766 -0.20769383 -0.16566388 -0.4728671 0.2966111 -0.2994364 0.3536961 0.58935565 0.081316076 0.22052199 -0.20066154 -0.2753701 -0.16558829 0.032765847 -0.37398311 -0.46487603 0.5105281 0.29738486 0.16302474 0.27472088 -0.2827715 -0.3656394 0.4924542 0.20729329 0.23936687 0.18739614 -0.14105079 0.16868685 -0.3237333 -0.12950419 0.16851017 0.20620209 0.14244649 -0.31687695
我 0.056860596 -0.1775467 0.17267537 -0.41524982 -0.27128485 0.20138273 -0.16807452 -0.41896963 0.10725124 -0.15683828 -0.54445034 -0.33516523 0.11591595 -0.6103355 0.2584394 0.38071108 -0.40479913 -0.6933057 -0.0004903635 -0.16112487 -0.58983666 -0.03621443 0.21884736 0.33507198 -0.25332984 0.13508666 0.39869815 -0.054467753 0.048647214 -0.24428768 0.012697277 -0.031449344 0.05139855 0.1518809 0.26297545 -0.37078676 0.08638195 -0.4052235 -0.13534997 -0.31567433 0.8454047 -0.09571544 0.28059146 0.041538253 -0.23762408 0.31899643 0.0752594 0.32662332 -0.41880038 0.1046477
路 -0.12034356 0.06927261 -0.02416921 -0.23209684 0.16522832 -0.1604713 -0.0495425 -0.18890703 -0.095813386 -0.39639488 0.01837332 0.34667966 0.41141775 0.18035819 0.15711774 0.30460054 -0.1967585 -1.0027083 -0.2150408 -0.2590865 -0.3860416 -0.27742186 -0.25739434 0.11782388 -0.3100697 0.1481316 0.04320337 -0.08382991 -0.011098158 0.112434134 -0.28025627 -0.13557632 -0.28714904 -0.521869 -0.085081436 0.77739257 0.14988217 -0.044735547 0.44065025 0.085942455 0.23637187 0.016075175 0.23515177 0.5807607 -0.054717295 -0.18720004 0.41498753 0.34365195 0.08306723 0.34301832
在 -0.23602974 0.28479365 0.077631965 -0.70105565 -0.089259185 0.19037445 -0.29029042 0.7162516 0.15408838 0.40537232 -0.5024668 -0.13037395 -0.4241541 -0.28400722 -0.09742521 -0.19268693 -0.58436596 -0.31270036 0.5329787 0.011050252 -0.11040217 -0.27972537 0.5637033 -0.35086203 0.20311649 0.26444507 0.5637159 0.1307234 0.4299046 0.13123257 -0.09053221 -0.15615249 0.3959586 0.6020735 0.10575323 -0.21190242 -0.60258067 -0.28875616 -0.3395838 0.18218979 0.104832545 -0.11803878 -0.08078685 -0.08048477 -0.009760857 -0.25911385 0.07346002 0.050068825 0.34263736 0.1331807
已 -0.29119906 -0.19871433 -0.12921032 0.011705417 0.74509555 -0.43287644 0.58272964 0.3735679 -0.36971536 0.72575885 -0.16004519 0.16775435 0.26299417 -0.09940093 -0.22091128 -0.007089255 -0.4027526 -0.5926219 -0.35744226 0.39489877 0.41210717 -0.16693157 -0.2972044 -0.18441111 -0.02871445 0.69005007 0.34079325 -0.21596642 0.057116937 -0.5326361 -0.32081658 -0.5101807 0.2065941 0.23260936 -0.14712588 0.18650441 0.09673924 -0.62652135 -0.09211456 0.2021683 0.083605774 0.1086807 0.37807748 -0.21090026 -0.12352111 -0.21999593 -0.0071011167 0.030543366 0.31357428 -0.21965058
得 -0.2650262 -0.19243805 -0.3378263 0.08059193 0.41800135 -0.29136485 0.07916279 -0.10248114 -0.47416994 0.5454899 -0.06957957 -0.29728314 0.1621411 0.36531094 -0.289081 0.41399968 -0.6726575 -0.07834421 -0.18318583 -0.091549076 -0.41299438 0.12219052 0.18534222 0.11186789 -0.21682544 -0.14578857 0.022137804 0.08719306 0.62705636 -0.1548989 -0.3261685 -0.30564308 0.30530936 -0.24399583 0.33364615 0.39282414 -0.08480833 0.18599907 -0.21262842 0.031954717 -0.3169136 0.39608026 0.06642631 -0.14558916 0.23749232 -0.21297348 0.06879403 -0.08338783 0.26219416 -0.54699236
所 -0.5391202 -0.08932032 0.02969725 -0.3294249 -0.078973755 0.1586236 -0.0117618255 0.22866611 0.066672266 0.2506056 -0.28550592 -0.34386817 -0.26953834 0.32127345 0.3414389 0.22483842 -0.77170473 -0.07599758 -0.29257855 0.24007845 0.07519805 -0.04319331 0.029235516 -0.18359452 0.013181665 -0.19338241 -0.21253042 0.025860487 -0.036688656 -0.16942027 0.46075886 -0.0660037 0.3638424 -0.21179323 0.23194744 -0.30065218 0.47124866 -0.32153046 -0.12280721 0.15789239 0.19528003 -0.03376342 0.36046323 -0.29801738 0.23044598 -0.5500843 0.03215522 -0.01615611 -0.4672194 -0.07776682
民 -0.34910458 0.069086134 -0.12664805 -0.32291773 0.22032243 0.014877554 -0.4624937 0.33030403 0.22509882 -0.35475162 -0.63046354 0.45752525 0.5078233 0.121679686 -0.44644943 -0.110505335 -0.90984386 -0.06401332 -0.45383742 0.4342106 -0.1424975 0.14688864 0.1846503 0.39713728 -0.2675021 0.14580813 -0.4139272 -0.3552416 -0.5016296 -0.32766533 0.07675259 -0.14021032 0.38138443 0.02650676 -0.016515806 0.21538815 0.1696713 -0.27412164 -0.016575625 -0.26459542 0.09815118 -0.02315936 -0.26689306 -0.18299422 0.13424677 -0.22318074 0.31439668 -0.44573274 0.07843188 -0.6071125
小 -0.21193576 -0.04268704 0.014280788 0.29739794 -0.40532875 0.47373074 -0.2619017 0.06445611 0.09631542 -0.027058449 0.43444616 0.38740316 -0.5456448 -0.3770945 -0.24205804 -0.3091835 -0.5666415 -0.42779657 -0.7945983 -0.6683199 -0.12917669 -0.15223359 0.11897538 0.1499024 0.025806883 0.051368162 0.17432103 0.1843264 -0.08944743 0.32071564 0.119908124 -0.02788877 0.046403445 0.1216821 -0.009950775 -0.23922959 -0.008918872 -0.17604013 0.10916995 0.06660912 -0.38845313 -0.38781896 -0.060326878 -0.23458657 -0.068207555 -0.35873425 0.038598742 0.34566694 0.0834817 -0.12165319
天 -0.24869117 0.51242864 -0.19764958 0.009846086 -0.06443621 0.35904145 -0.61987984 0.28997245 -0.24377595 -0.34707764 0.2997103 0.11234543 -0.18208812 -0.5151715 0.44296917 -0.21711789 -0.60481626 -0.33488187 -0.16556849 0.39854875 -0.24783564 -0.12305793 -0.309585 0.07206832 -0.14955908 0.012241869 -0.37990123 -0.37523946 -0.45494977 -0.19777244 0.27735236 0.093488894 -0.055696834 -0.32989737 0.4653751 -0.2127749 -0.558061 -0.71985376 -0.55524 -0.00062628486 0.00479405 0.16927211 0.12100832 0.45850593 -0.072676525 0.24077211 0.22019307 -0.037648953 -0.04526793 0.11348274
乐 -0.18471119 0.23479195 -0.006274218 -0.06137406 0.64115804 -0.55465186 0.39087805 -0.30395514 -0.23457335 0.058256872 -0.19607382 -0.53063375 -0.16643752 0.32557502 0.047767848 0.094074816 -0.8453494 -0.20133983 0.07415074 -0.60613793 -0.3041691 -0.2522826 -0.3627004 0.31817436 0.027360542 0.43833965 0.3514848 -0.19539118 -0.021411685 0.102266155 0.54758805 0.010767722 0.15137757 0.18258385 -0.11459928 -0.23330916 0.22778697 -0.0030724294 -0.45605516 0.09914157 0.13933696 -0.33928543 -0.006386359 -0.4138876 -0.41000614 0.27984473 0.21427089 0.30107328 0.28033856 0.6044495
邦 -0.16460577 -0.12413161 0.76473635 0.21873005 0.31292742 -0.37387678 0.3527555 0.7312425 0.07675325 0.121099725 0.022143224 -0.13465208 -0.7818229 0.18070108 0.42378 0.15260768 -0.40972406 -0.2811438 -0.15859023 -0.150094 -0.51959604 -0.41226807 0.098300405 -0.11875875 -0.12794383 -0.42914113 -0.4568641 -0.10554431 0.5177496 0.041256517 0.03711703 -0.08357242 -0.07211466 0.4919688 -0.45143664 0.029310994 -0.65431976 -0.32772237 0.32400686 -0.01178962 0.032649666 0.07354707 0.053179376 -0.026085764 0.31108278 0.021806102 -0.25423726 0.012070891 -0.058812402 0.4292882
亦 -0.18372138 0.37761754 0.28893247 0.6461425 0.39669633 -0.19298302 -0.03070669 -0.09086973 -0.9347752 -0.37541005 0.19856274 -0.20739453 -0.37759486 0.03858415 -0.22347224 -0.26511955 -0.7813451 -0.27783844 -0.06539386 0.21863236 -0.12178256 0.37512824 0.12569794 -0.12648563 -0.4544025 0.2367981 0.42287004 -0.06402942 -0.36063078 0.31377906 -0.14117415 0.16910975 -0.8317824 0.2951311 0.116389364 0.23370004 -0.26318577 0.22020112 0.038965642 0.16075538 0.38927472 0.016298216 0.006383852 -0.328456 -0.04100638 -0.11054332 0.4432076 -0.77166647 -0.28850666 0.11032843
使 -0.18891847 -0.16505778 -0.45902118 -0.19849776 -0.10777064 -0.33483768 -0.029377732 0.01855042 0.15867288 -0.40189707 -0.009167458 0.37411532 -0.024295485 0.38992688 0.046647508 0.47582296 -0.5394686 -0.3703359 -0.34270936 -0.24804223 0.089908384 0.41822 -0.10322248 -0.4550604 -0.63219774 -0.23298371 0.4651256 0.14316787 -0.2742194 0.101317964 -0.41735542 0.41469952 0.32917428 0.5634605 0.29363617 0.13849859 0.33701628 -0.15563324 0.5216453 0.18576474 -0.26151374 -0.015299418 0.3324831 -0.32623607 0.124427475 0.31681412 0.2676859 -0.7676719 -0.17979516 -0.26208842
大 -0.16834597 0.040316757 -0.35620448 -0.27903342 0.06709719 -0.006225633 -0.5244806 0.069771275 0.16768464 -0.122287855 -0.054302655 0.070538275 0.35970578 -0.3861702 -0.41766185 0.17381126 -0.58138674 -0.37168723 0.1902406 0.12744635 -0.2020892 0.15614714 0.045731105 0.19634333 -0.35936671 -0.14995638 0.33720282 -0.1936773 -0.43350634 0.41478997 -0.23434453 -0.131217 -0.3444467 -0.05210991 -0.17026584 -0.16646159 -0.21605046 0.041611064 0.09074202 0.34470674 -0.283841 0.032255944 0.3249218 0.33641908 -0.22696927 0.30905947 0.25556073 0.4237511 -0.0048998175 0.16131215
下 -0.040028404 0.5096338 -0.14502573 -0.22832535 -0.058621317 0.05745128 0.17358384 0.29892424 -0.31563872 -0.45307282 -0.17011276 -0.16288547 -0.0071994523 -0.15793212 0.29950318 0.25402498 -0.69401956 -0.21357977 -0.40895188 0.19213259 0.03965447 0.24909262 -0.5549441 -0.12057918 -0.23322338 -0.42650697 -0.54100066 0.058399223 -0.2560523 -0.05308145 0.10873587 0.025427064 -0.22995012 0.028168116 0.008850662 -0.21080023 -0.23089018 -0.6861295 0.16750251 -0.15648405 -0.008692847 0.27921212 -0.42041987 -0.051444415 -0.37138453 0.45585158 0.10711686 -0.086219415 0.37749627 0.35570243
贡 0.0627882 0.45632288 0.8503229 -0.7173251 0.5260445 -0.31688973 0.05360845 -0.39633778 0.6252494 0.271268 0.00477867 0.10247627 -0.21816711 0.21266888 -0.038692523 0.11425249 -0.046950143 -1.4924059 -0.22861136 -0.07786034 -0.46566457 -0.32189283 -0.2006231 0.6613173 -0.086644575 0.062362842 0.14365993 -0.36183503 -0.19468002 -0.24876253 -0.4094799 0.31962007 -0.024174025 -0.34744886 -0.07531353 0.24892353 -0.26348895 -0.28180325 0.30505487 0.06496193 0.05837436 -0.20864798 -0.34785452 0.027146295 -0.21727602 -0.030582162 0.035768315 -0.09125072 0.49535105 -0.21790335
欲 -0.40979987 0.099179685 -0.7430316 -0.10949356 -0.084920906 0.017906433 -0.53650486 0.17734009 -0.37734774 -0.21572104 -0.5120448 0.011505072 0.033273075 -0.299067 -0.16467714 0.07909967 -0.6457969 -0.44435787 -0.17541446 -0.27046746 -0.46379077 0.25380275 -0.0037762315 -0.13670626 -0.51374 -0.32170644 -0.1701079 0.42683765 0.29179308 0.21977966 0.1264844 -0.13537006 0.24292472 -0.29363912 -0.19923337 0.10337587 0.18945827 0.019995974 -0.17691694 -0.09503752 0.8386029 -0.2744279 0.17960133 0.2971162 0.8417447 -0.111436866 -0.4466876 0.16647574 -0.19185594 -0.5947138
诸 -0.2923454 -0.6077445 0.6795067 -0.16091731 0.18467766 0.23843646 0.0947401 -0.19534577 -0.010768686 -0.45038673 0.57412523 0.19731715 -0.8416101 -0.24468064 -0.627212 -0.26480985 -0.2161974 -0.6587448 0.06644956 0.7076481 -0.11574077 -0.013310525 -0.2610311 -0.19384588 -0.09722572 -0.21812469 0.31984377 0.44981593 0.32283774 -0.3975512 0.068361804 -1.0542414 0.24472795 0.2912577 -0.7274482 0.2137026 0.44494525 -0.37721938 -0.042928718 -0.26822624 0.09727515 -0.2768883 0.023499126 -0.22412235 0.5031243 -0.058206055 -0.29886538 -0.10978777 -0.05049703 -0.29004964
从 -0.08204568 -0.0310449 0.25708687 0.39677602 0.30732852 -0.29637462 -0.6611368 -0.3659176 -0.20640714 -0.079127535 -0.3470454 0.22870079 0.045962967 0.09390759 -0.0938092 -0.029969938 -0.40336934 -0.29132316 0.14230855 -0.16639183 -0.40253213 0.47460765 -0.18930498 -0.44202352 -0.23679046 -0.037719462 0.333462 0.18520138 -0.049572017 -0.14094336 -0.3299252 0.08602213 -0.38336226 -0.19197863 0.36053538 -0.16505568 0.3289932 -0.5121443 0.11573754 0.61686903 -0.08929064 -0.36822775 0.3811921 -0.5052315 -0.6465348 -0.30503282 -0.2611162 0.124289736 0.2016854 0.1779358
文 -0.35352686 0.27629724 -0.20233323 -0.24066354 0.087232485 -0.046389878 -0.07401022 0.0920227 0.13721201 0.07795383 0.40712768 -0.036238883 0.47847417 -0.1615607 0.5151857 0.3296811 -0.42632276 -0.7059498 -0.56162196 0.22570959 -0.4124298 -0.26629147 -0.2253346 -0.23056923 0.09202433 0.3224163 0.15554987 -0.47070125 -0.28504324 -0.03941581 -0.6120355 -0.061868805 -0.1270615 0.0020754773 -0.29171407 0.16526644 0.039349847 -0.028755901 -0.43221185 -0.6448339 0.45429116 -0.046334706 0.24582674 0.102409355 -0.4534201 0.7809673 -0.43864945 -0.18299901 -0.1626732 -0.31085005
政 0.079267 0.29610533 -0.045319706 0.09885474 -0.4305018 -0.35660636 -0.46265587 -0.21278045 0.29245812 0.5748005 -0.15060048 -0.09499969 0.48559928 0.28892156 0.1951873 0.2785182 -0.35563982 -0.6499799 0.3415855 0.43009862 -0.5922099 0.7941063 0.29906812 -0.3010727 -0.1683852 0.22276448 0.110983364 0.81849056 -0.09485496 -0.11839279 -0.07879441 0.46941054 -0.32340258 0.4545961 -0.13041723 0.21840078 0.059355557 -0.76250875 0.9298874 0.08121494 0.70516384 -0.48638543 0.23063791 -0.2578409 -0.29352888 0.24452692 0.14487536 -0.33897486 0.0059152385 -0.24476376
食 -0.83216786 0.34679964 -0.036896024 -1.29114 0.18730666 -0.16409566 0.18142186 0.6102517 -0.14483334 -0.5257633 -0.13584429 0.18366756 0.37478447 0.079924345 0.29901356 0.61592275 -0.89684576 -0.22897851 0.6773577 0.038834736 -0.23557459 -0.15212633 0.1610373 -0.13441369 -0.3710315 0.6941891 -0.6907983 0.1381514 0.5153498 0.21298791 0.18325478 -0.6039818 0.06848816 -0.2942426 0.28061137 -0.18855132 -0.023984818 0.35976318 0.3266356 -0.1264161 -0.30194503 0.04897001 -0.18454082 0.41025922 -0.20399977 -0.336861 0.32020894 -0.6447864 0.25925353 -0.102347694
善 -0.16067412 -0.15374175 -0.44360262 0.7670349 -0.52867866 -0.32622692 -0.045777824 0.09090569 -0.32802564 0.1943005 -0.8540955 -0.17387384 -0.4816388 -0.024481496 -0.14765787 -0.13964829 -0.5344012 -0.38018793 -0.19088237 -0.24268298 -0.5302405 -0.09402876 0.013692181 0.084752664 -0.37795755 -0.03725307 -0.052599967 0.38430947 0.2451147 -0.53940475 -0.26968086 0.05250347 0.44446957 -0.296402 0.048744276 0.054808084 0.3056577 -0.049011465 -0.16425191 -0.043233186 0.2583393 -0.10904446 -0.18654218 -0.039311692 -0.27526805 -0.16335607 -0.07976823 0.13503441 0.5615525 -0.11812634
后 -0.13640301 -0.07635824 0.014453051 0.02698957 0.5074672 -0.3274879 0.16424212 0.22900319 0.08870521 0.07987265 0.21671039 0.29423532 -0.046925146 -0.6926157 -0.39684698 0.0042582825 -0.49647358 -0.32583368 0.33932298 0.060297683 -0.65506595 -0.26461652 0.12347387 0.8227193 -0.06467792 0.30323353 -0.057232782 0.16562352 -0.49132836 0.24967052 -0.012337126 -0.028868992 0.28965822 0.20215526 -0.26693696 -0.16042553 0.46362865 -0.08728417 0.44679368 0.46038443 0.34453133 0.34930778 -0.20042925 0.22456436 -0.25252953 -0.096990265 0.45551914 0.10201407 0.01817352 0.1176129
德 -0.33809155 -0.42532307 -0.026185285 -0.17205174 -0.038259435 -0.15729482 -0.3542561 0.018757027 0.22978926 -0.28250828 -0.18834706 -0.28297934 -0.27677816 0.6069963 -0.0059132827 -0.3903056 -0.4522924 -0.3185539 -0.6418196 -0.2857385 0.2818195 -0.24767232 0.06064712 0.020680819 0.25530913 -0.22522086 0.15116818 0.05053575 0.30864915 -0.06261869 -0.1312232 0.38685834 0.089368105 -0.060241207 0.07105737 0.3017935 -0.31706005 -0.21346721 0.148538 -0.19272263 -0.6397808 -0.37412915 0.13939805 0.3133213 0.004591185 0.2958863 -0.30741665 0.00792847 -0.21138534 0.19071901
求 -0.26074144 -0.19464034 -0.28865743 -0.23120603 -0.14146549 -0.16998783 -0.18417996 0.14540467 -0.065488026 -0.22649644 0.32203677 0.15446018 0.4257283 0.24338466 -0.4535807 -0.08190171 -0.20331527 -0.5351098 0.39183396 -0.3289027 -0.35281596 -0.20004553 0.32338938 -0.22120129 -0.17785393 -0.535734 -0.34369206 -0.0065263053 0.07167547 -0.0569061 0.3838575 0.07764952 0.27848703 -0.15178548 0.09347454 -0.4589995 -0.22789063 -0.3511055 0.67726636 0.59675777 -0.021352965 -0.292205 0.17971592 -0.04763556 -0.10774339 0.08964302 -0.32989672 0.37813765 -0.41979674 0.16442643
对 0.1214352 -0.28434226 0.24968779 0.39974967 0.2627917 0.20882314 0.06982189 -0.27607742 0.15319183 -0.1308132 0.11276236 -0.25414416 -0.3357777 0.33617735 -0.15354642 0.17153358 -0.06269278 -1.0209405 0.1740821 0.099859655 -0.49488592 0.15573442 0.05899262 -0.42984366 0.61199695 0.10424266 0.22497444 -0.32347572 0.4854007 -0.6022396 0.53607184 -0.2889505 -0.19530578 0.09156837 0.23584329 -0.100178935 0.019371405 -0.16720763 0.6446202 -0.19409461 0.13204533 -0.16812545 -0.6825396 0.28294927 -0.05404324 -0.2593739 0.4211336 -0.517123 0.104998685 0.18600571
恶 -0.699938 -0.22651461 0.075792916 -0.15513115 -0.0238375 0.3339798 -0.09094908 0.033854313 0.009278923 -0.6077003 0.08035934 -0.39638695 -0.3726584 0.49596578 0.30529156 0.039630685 -0.8461538 -0.26269022 0.21283898 0.16216314 -0.011661826 -0.04596614 0.3130705 0.23422056 -0.3343142 0.014374583 -0.9531454 0.5294481 -0.1281291 -0.20206453 0.18580164 0.24829607 -0.16152321 0.17435019 0.13991058 -0.3052419 -0.30387092 -0.052007217 0.31559086 0.14400756 0.20170501 -0.35313562 -0.40290663 -0.19457051 0.87986183 0.23168018 0.011942369 -0.24893558 0.2109697 0.37442455
信 -0.24813111 -0.12510678 0.30431885 -0.04695989 -0.22081333 -0.038487338 -0.7484975 0.091581106 -0.118427776 0.051312596 -0.2669116 -0.015971141 0.27488506 0.1917959 -0.8412363 -0.16160096 -0.834494 -0.011248984 -0.11750309 -0.5292427 -0.3813522 0.18124093 -0.37624648 0.4084233 0.04542349 0.36914366 0.22566019 -0.114322565 -0.5237755 -0.36539087 0.56755173 -0.45089018 -0.0964031 -0.5596559 0.25892544 0.23554793 -0.5265592 0.050408103 0.29133362 -0.16497551 -0.0009045074 0.2770215 0.19288586 0.074507415 -0.38401628 -0.25708458 0.35146618 -0.28326604 0.2860628 -0.73547226
死 0.10548072 -0.35921475 -0.18850973 0.30060068 0.22087625 -0.6713068 -0.0055444594 0.17776842 -0.4863983 -0.15581332 -0.14851598 -0.051739458 0.33950692 -0.31833252 0.16246878 -0.14161178 -0.37035155 -0.21946816 -0.109609395 0.62726516 -0.5342287 0.43036315 -0.05035371 0.76112014 -0.04587119 0.251902 -0.11487181 -0.48356357 0.57714516 0.07919329 0.010379497 0.12726611 0.40430868 -0.37111598 0.04412873 0.35730565 -0.8864743 -0.629486 0.17256597 -0.34931573 -0.41839063 0.4975992 0.72118604 0.024692694 0.33297452 -0.25528845 -0.23656665 0.2965794 -0.28932565 -0.34995735
然 0.055090733 0.0029876537 0.4127425 -0.07757411 0.4602753 -0.27442032 -0.7340575 -0.20849021 -0.6013935 0.23618226 0.29631618 -0.02612221 -0.11698227 -0.080354616 -0.04441289 -0.07703793 -0.16605297 -0.6382175 -0.05061173 0.13402528 -0.81061655 -0.22422084 -0.4710095 1.0621787 -0.48528993 -0.027935227 0.0032128433 -0.24207313 -0.07066306 0.340725 -0.14984384 -0.1979638 0.55771756 -0.3005338 -0.14454192 -0.063318804 -0.2547661 0.07174577 0.31203493 0.45838273 0.3845002 0.24050665 -0.26897457 0.3092458 0.2314654 0.01741265 -0.22091526 0.33834323 0.03791071 0.24835166
《 -0.26412654 0.575419 0.25433135 0.13194118 0.68399423 -0.7491955 1.0014658 0.307774 0.041538693 0.62814796 -0.08223507 -0.46730614 0.6444933 0.041933455 -0.10813525 0.3388269 -0.67304754 -0.6261264 -0.21577731 -0.30720538 -0.49933192 0.16297819 -0.26768175 -0.9538227 0.6078249 0.18898652 0.04702048 -0.21809998 -0.13876358 0.23481035 0.30462757 0.15556388 -0.51150775 0.22181888 -0.8155736 -0.3846592 0.15701148 -0.16103388 0.24950172 -0.43706623 -0.3014892 0.1483462 -0.37311068 0.25783315 -0.26098976 0.05585811 -0.01732146 -0.05472987 0.66347784 0.14536962
》 -0.009544964 -0.3745648 0.5668857 -0.54945874 1.2804768 -0.42164916 0.47765875 0.05444012 -0.75887626 -0.14541236 -0.37114424 -0.39764547 0.5114658 0.33025402 -0.09278921 0.16655919 -0.589784 -0.5576266 -0.55485475 -0.37483177 -0.57233495 0.38346076 -0.27436978 -0.4977594 0.6445264 -0.079881944 0.14388284 -0.9742332 -0.19391432 0.1627167 0.09451007 0.25318846 0.103620745 0.05722381 -1.0196093 -0.13407671 -0.0067504235 -0.3102194 -0.07717662 -0.045665115 -0.50893384 0.19841677 -0.44922107 0.52334064 0.17854759 -0.05940688 -0.22440067 0.12061148 -0.1031628 -0.060104202
由 -0.57753825 -0.53564465 -0.23888497 0.4913731 0.14488205 -0.29750693 -0.1973762 -0.19224398 0.03944524 0.032457028 0.10261463 0.29108346 0.33666512 -0.14150378 -0.3892297 0.09786969 -0.25008625 -0.80522597 -0.051849816 -0.39869526 -0.30273643 -0.4337803 0.44981757 -0.5052976 0.1536795 -0.24920265 0.019886358 0.6017242 0.21650375 0.24170081 -0.051818512 0.042620067 0.17552716 0.2219575 0.06495201 -0.2636953 0.04563446 0.007221782 0.36677238 -0.06873726 -0.018620694 -0.5665149 0.026908211 -0.25402012 -0.848825 0.16533048 -0.06878283 0.45772824 0.095828526 -0.14924316
仲 0.032408603 0.013441736 -0.16821118 -0.5069384 -0.0051508006 -0.9389478 -0.1617939 -0.000980905 0.21578036 -0.67588246 0.92250204 -0.28754005 0.2121562 0.21072942 -0.2806317 0.09090398 -0.1492755 -0.8364885 0.11923607 -0.3486047 -0.33970952 0.19565766 -0.08409536 0.0010746833 -0.06483346 -0.28071862 -0.07769885 -0.33355087 0.11785932 0.12022309 -0.95839936 0.22632104 0.35457933 0.3552641 -0.011211448 -0.15876453 -0.07884981 -0.07011854 -0.5286876 -0.22384728 -0.16172902 -0.37775773 -0.10863019 -0.1798088 0.033174783 0.14663376 0.047219027 0.39850494 -0.06652889 -0.30421326
非 -0.23378897 0.3815342 0.0490366 0.36849087 -0.003906407 -0.17565185 -0.050335582 -0.4691256 -0.071917385 -0.0116827395 0.71889967 -0.01295164 -0.1613495 -0.5334357 -0.19718488 0.4615926 -0.5797364 -0.59287596 0.29634607 -0.47799492 -0.7021501 -0.41860414 0.18097356 -0.4955948 0.4571679 -0.45137328 -0.15635845 0.6881548 -0.10517081 0.16077879 0.45508632 0.13992651 0.6479538 0.34767702 0.18753886 -0.5367073 -0.5524887 0.21087009 -0.14097165 -0.29360932 0.4798971 -0.15470125 0.26864678 0.3443548 0.37426776 0.22468078 0.17542197 0.42719656 0.12946689 -0.24024583
出 -0.04873858 0.24629723 -0.33639762 0.2616221 -0.117577545 -0.08308407 0.026037375 -0.30890924 0.18597282 -0.54001844 -0.14321084 0.37226453 0.40547746 -0.52150595 0.13247277 -0.14385852 -0.4671295 -0.36316317 0.2846589 -0.12451732 -0.1534535 -0.13010718 -0.5000365 0.09200256 0.2619138 -0.392332 -0.0796543 0.10466585 -0.40281564 0.28685606 -0.17415014 -0.63466686 0.22640644 0.59003407 -0.09715598 0.14791991 0.28551584 -0.70227605 -0.3679388 -0.15104489 -0.30349475 -0.21058887 0.33745617 0.29832864 0.25717694 0.5764082 -0.102588885 0.4402672 -0.18664436 -0.5275807
过 0.0716979 0.1896013 0.16874142 0.04897605 0.017142257 0.12769642 0.11075406 -0.5321035 0.2594853 0.07706763 0.06397911 -0.23002629 -0.48822302 0.45670676 -0.39016366 -0.14878023 -0.47578204 -0.2579156 -0.026162094 0.048234105 -0.09632572 0.36199206 0.18628861 -0.021310346 0.10139363 -0.25983486 -0.3051112 -0.32491294 1.1373765 0.3619559 -0.49365884 -0.7819742 -0.027083412 -0.22742061 0.64819896 -0.22673242 0.078393094 -0.3632677 0.3324843 0.0010079135 0.4386764 0.18600619 0.39614743 -0.09625922 -0.020177772 0.35488105 0.029027151 -0.096539184 -0.21817581 -0.16650009
一 -0.21758857 0.5414699 0.2824921 0.1588709 0.22477904 0.06626819 -0.122640945 0.29626828 0.061341718 -0.14401516 0.84781617 0.38648653 -0.2837554 0.44084564 -0.2573902 -0.30305386 -0.720112 -0.15987988 0.19777587 -0.038259 -0.35390058 -0.42477566 -0.48165354 -0.36085868 0.043229 -0.018139679 -0.51991886 -0.4465957 0.2275642 0.45932165 0.6681947 -0.081962876 0.040914755 -0.1357429 0.016136251 0.29579306 0.020410443 -0.15743698 -0.15048169 0.03627483 -0.3874585 -0.4763069 0.5107404 0.3819046 -0.41423672 0.14330395 0.48619357 -0.3907455 0.16544586 0.52737105
虽 -0.122810446 0.95295334 0.33886734 0.28350747 -0.037276246 0.3142942 0.2975358 0.23386821 0.3973109 0.2812474 0.27914828 0.016328573 0.006039662 0.52204645 -0.41674292 -0.2937888 -1.1346672 -0.16297865 0.21691029 -0.7757481 -0.17439151 0.8371462 -0.481326 -0.17098807 -0.5980049 -0.1863571 -0.17085542 0.5822215 0.011080164 -0.15134573 -0.24506766 -0.635709 0.28931507 -0.1064219 0.022223728 0.85697186 0.15290345 0.11185305 0.4569869 -0.26575327 0.27081665 0.5543898 -0.15543868 0.25321978 -0.8679919 -1.0249971 -0.80513555 -0.09406561 0.18599263 0.4896095
足 -1.1698315 0.16219227 -0.12392809 0.011863157 0.18883182 -0.39014137 -0.1705098 -1.1583738 0.24399157 0.08465199 -0.46841303 0.39778224 -0.39644045 0.43846428 0.010044543 -0.6068822 -0.9386504 -0.24629986 0.15367314 0.14077781 0.38043213 0.0038653198 0.31651154 0.04084768 -0.07328928 0.08232574 0.49833703 -0.097486906 0.10089623 -0.68577915 0.19307113 -0.04955712 -0.3733753 0.60175437 0.39394987 -0.6356871 -0.4463485 0.17776531 0.012582387 -0.7017966 -1.1011451 0.14572035 -0.14083739 0.08211708 -0.355278 0.48298016 0.01574753 -0.7464122 -1.0216779 -0.40792572
居 -0.5932299 -0.3898285 0.17098278 -0.817574 -0.27545646 -0.057480067 -0.6149264 -0.02622082 -0.071608454 0.65811324 0.6021218 -0.26843914 -0.027953375 0.31952745 0.09820453 -0.23147169 -0.59465903 -0.3591766 -0.18673505 0.32706097 0.15352313 -0.09310527 0.39764643 0.48733255 -0.26548547 -0.14011817 -0.32807735 -0.5631922 0.6194225 -0.26821756 0.45852798 -0.27067584 0.5037155 0.6279308 0.14508505 -0.3119886 0.033208992 0.1927578 0.053028584 -0.12772359 0.43326682 0.022687327 -0.13275982 0.16922209 0.19043961 -0.031801935 -0.25257206 -0.038057584 0.45653525 0.40861633
尔 -0.15049909 0.32648382 0.44372305 -0.094042204 -0.037417002 0.28845578 0.22475244 -0.009573236 -0.51240987 0.10074831 0.08245685 -0.50699514 -0.43211907 -0.015020877 -0.242516 0.14371102 -0.34467655 -0.37538162 -0.032749016 0.23439978 0.13388483 0.38156816 -0.40747052 -0.40840822 0.3536515 -0.08674616 -0.0011589333 0.33900115 0.18084317 -0.39706555 -0.05291248 -0.20041104 0.27716023 -0.048895556 0.18753317 -0.70164025 -0.062886916 -0.69752455 -0.4431287 0.19587308 -0.11142524 0.14915708 0.22949651 0.59550977 0.21301246 -0.02009997 -0.041928332 0.19091219 -0.6569111 0.10621374
夏 -0.5510279 -0.3011778 0.2799783 0.0031138104 0.81448215 0.05049207 0.20812026 0.13494076 0.3376047 -0.096394144 -0.18464226 0.010845211 -0.22626045 0.10746198 0.27477854 0.12863421 -0.28421214 -1.2921575 -0.38300037 -0.30245918 -0.26430005 0.47408232 -0.009816156 -0.32791647 -0.26509747 -0.13846904 -0.42161477 -0.017483462 0.12855282 0.5501717 0.027666483 0.08788982 -0.38702857 0.12358382 0.32871234 0.4338164 0.30669585 0.39337054 0.029060006 -0.40691167 0.1866837 0.5879247 -0.14083625 -0.2549023 -0.37401196 -0.23740299 0.18543464 0.24112613 -0.31370085 -0.20318006
父 -0.12600884 0.06324689 0.24761555 0.03225735 0.020641498 -0.34632722 0.16763118 0.53344405 0.15888557 0.77135104 -0.5425956 0.74762225 -0.4244272 0.25591972 0.5735824 -0.17005393 -0.6121986 -0.5265452 0.42543665 -0.10706053 -1.1111529 0.537356 0.12357979 -0.5760561 -0.14477836 0.9800959 -0.14680016 0.09946129 0.029207602 0.32237893 -0.25397715 0.5041012 -0.074196815 0.15650062 -0.29292843 -0.2258112 -1.0271094 0.25686452 0.53314346 -0.25271893 0.13221557 0.4844062 0.22825342 0.30632308 0.25278217 0.17583774 -0.27928588 -0.23427208 -0.04417129 -0.34039137
及 -0.28982556 0.051896956 -0.46132943 0.32040647 0.27928814 -0.0068564033 0.019894099 -0.69844484 -0.35455668 -0.08249424 0.4614053 0.3259875 -0.7541227 0.8496708 -0.052706335 -0.030699125 -0.8015022 -0.14630269 -0.20529537 -0.35319558 0.19371383 -0.5304067 0.51042646 -0.13311967 -0.14461891 0.12617856 -0.17497559 -0.6989465 -0.51982915 0.23163942 -0.20357034 -0.22434527 0.22311355 0.2801831 0.45794123 0.0666257 0.25725392 -0.40478584 -0.24532801 0.19941393 0.5102575 0.66826963 0.2147391 0.36710584 -0.03885161 -0.008586414 -0.16953245 -0.060976766 0.09232827 0.38717434
己 -0.62951165 -0.6784113 -0.2494523 -0.0073119816 -0.25027877 -0.1971737 0.2323079 -0.45454967 -0.20579553 -0.021044303 0.15767834 0.22329344 0.29967123 0.22019662 -0.13198802 -0.72162145 -0.76490176 -0.28458956 0.17549258 -0.26928574 -0.050340604 0.321336 0.101628125 0.05364317 -0.03810013 -0.18746738 -0.38220084 -0.16576923 0.047430802 -0.0029408282 0.39016503 -0.11215731 -0.0831589 -0.21085277 0.15735118 -0.5638698 0.53738207 -0.10170324 -0.070638016 -0.5695915 -0.3352061 -0.49410778 0.50489336 -0.7105139 -0.30211812 -0.4641987 0.076659866 0.2924417 0.00037526386 -0.31338367
予 -0.38020092 -0.10828822 0.56022185 -0.11563807 0.3414131 -0.063143596 -0.09272447 0.3621377 0.16342711 0.34573323 0.3735572 -0.47941747 -0.016162658 0.3949651 0.29051742 -0.17196815 -0.4332445 -0.4578211 -0.45920166 0.27606934 -0.31034073 0.3079271 0.059178118 -0.0027420563 0.11238272 0.02642221 0.017705478 -0.17436993 -0.2692107 0.30339974 0.07995876 0.0063914275 0.22857277 -0.35541978 0.4566317 -0.207767 -0.20837782 -0.06509324 0.37777147 -0.61495197 -0.06414699 0.53921044 0.2690125 0.37206566 0.06179439 0.18362148 0.14024213 0.40490294 -0.347203 0.91993845
色 -0.35158095 -0.0001357146 0.7475509 -0.056376263 -0.13694854 -0.21402797 -0.1354555 -0.45178118 -0.10999492 0.3989604 -0.27087972 -0.6343663 0.40536454 1.5170265 -0.012856541 0.10850247 -0.96569973 -0.114581965 -0.2373928 -0.046846952 0.42157102 -0.74073297 0.19854361 0.12980516 0.07689914 0.28523615 -0.22469091 0.26239607 0.067486785 0.50333804 -0.57398 -0.41907334 0.0540394 0.14492762 -0.45865056 -0.38093218 0.12074868 -0.19384205 -0.64301527 -0.18014406 -0.35486552 -0.012117741 -0.0045105084 0.12007155 -0.26828244 0.17227851 0.07735338 -0.78339446 0.38334644 -0.43728244
友 -0.07970412 -0.5944387 -0.09958823 -0.62623644 -0.113394424 -0.32132965 -0.109872915 -0.49923667 -0.46908998 -0.26977134 -0.6489556 -0.33051324 0.38917002 -0.12482931 0.3409136 0.31792107 -0.87167764 -0.15710354 0.7593422 0.19442545 -0.49396056 0.38600892 -0.7157223 0.04858526 -0.09364749 -0.1067479 0.63098985 0.037454788 0.10582759 -0.239235 -0.1445489 0.20390752 0.3349711 -0.5354671 -0.5026704 -0.6450773 -0.043363173 -0.20794356 -0.24492405 -0.41621226 -0.31458563 0.113459185 0.0817615 -0.995095 -0.47325706 0.054167323 -0.010987034 -0.24566093 0.35686246 -0.6019949
成 -0.45515648 -0.3326803 -0.07841389 -0.34311375 -0.091403596 -0.07527122 -0.6000605 -0.5318585 -0.14826667 -0.042451553 -0.2072427 -0.5344723 0.3627273 -0.43757024 0.0035875437 -0.09557559 -0.62914973 -0.3287562 -0.15082027 -0.20012634 -0.2982677 -0.3309682 0.1326997 0.45082846 -0.5735786 -0.101593345 -0.30899212 0.22573367 -0.10712657 0.6907326 -0.45359737 0.09939825 -0.2938731 0.5478964 0.046257854 0.15313762 -0.40674525 0.20641272 0.10386739 0.24606101 0.21117918 0.105908275 0.38753 -0.13058048 0.27878273 -0.37306002 -0.010653841 -0.257143 0.010190253 -0.33361104
远 -0.17532232 0.26832193 0.04193935 -0.2665347 0.378333 -0.46926945 -0.3186412 -0.6441715 -0.20084019 -0.44313785 -0.9157611 -0.6328715 -0.124436125 0.34360486 0.3406175 0.03810313 -0.48455688 -0.45835248 -0.4118759 0.1294662 -0.04892215 -0.2714157 0.33644027 0.12435158 -0.7436834 0.06827589 0.023833206 0.4553652 -0.266597 -0.5530181 0.4290402 0.10040856 -0.3388469 0.05379372 0.47622272 0.66655856 -0.23922113 -0.32681212 0.34434655 1.0506828 -0.1865742 -0.077282235 -0.18512902 -0.14900912 0.20477323 -0.38685116 -0.5930434 0.32499313 -0.4368733 0.7294237
上 -0.1069953 0.3289836 0.34930474 -0.09506647 0.117705934 -0.28802454 0.35701388 0.06910746 0.47266927 -0.33497646 0.1897387 -0.057926126 0.047589224 0.2745021 0.391217 -0.16034552 -0.67494607 -0.25107622 0.2886092 0.018887097 0.24165039 -0.45030627 -0.25434777 0.3524414 0.4647124 -0.083400294 -0.38474232 -0.3925438 -0.7479731 0.21967909 -0.13218768 -0.31927758 -0.10259185 0.23114784 0.093622565 -0.30570734 -0.8548205 -0.299393 0.114483856 0.14709963 -0.08189229 -0.14280517 -0.34524736 -0.41605276 -0.86486953 -0.7322251 -0.387792 -0.28847283 0.06632466 0.21870112
立 -0.6961826 -0.041032344 0.34471008 -0.27447477 0.38234425 -0.0573352 0.46708736 -0.23302466 -0.3979294 0.30282003 -0.0479682 0.44609222 -0.17712766 -0.7660262 0.93182445 0.13706662 -1.0848517 0.120369636 0.021644132 0.2908109 -0.1795105 -0.11453597 -0.56481355 -0.31471944 0.34794334 -0.37436587 -0.28181437 0.09124917 0.24471073 0.12628444 0.31454775 0.111806214 -0.54866767 -0.25635952 0.7463931 -0.36717463 -0.06343349 -0.3556909 -0.059884064 0.14300431 -0.09789006 -0.0541156 0.4831239 -0.046879347 -0.34032723 -0.57734954 -0.2349807 -0.41795135 -0.21078368 -0.9283243
今 -0.27892885 -0.6159245 0.3779195 0.1359972 0.14054988 -0.48600504 -0.039636172 0.5068918 0.60229206 -1.2684844 -0.006530913 0.2806457 -0.1959245 -0.6001736 -0.42108262 0.18922257 -0.4416278 -0.30976242 0.07408059 0.05753019 -0.19229317 0.5291261 0.63922197 -0.102353685 0.14900208 0.2350719 -0.05980953 0.38770604 0.06501043 -0.24853161 -0.102714114 0.11287498 -0.4177748 -0.3228015 -0.10545043 -0.1572637 0.0760917 -0.45693025 0.23081365 -0.18594852 -0.43746775 -0.19250819 -0.34496182 -0.48578885 -0.690017 -0.12214582 -0.28833294 0.1898922 -0.08793548 0.12515524
张 -0.10734091 -0.2627877 0.06135591 -0.056431364 -0.32481205 -0.19713175 0.25998744 -0.31190702 0.21784237 -0.14016818 -0.25594962 0.3583309 -0.049196575 0.39090592 -0.29970536 -0.24469674 -0.07669525 -1.2378865 -0.7246988 -0.01068998 0.05786854 0.089416064 -0.6251816 -0.90184486 0.23442003 0.33937192 -0.11131688 0.0039106477 -0.55472386 -0.0016318882 0.38927084 0.20871632 0.26791316 -0.042836122 -0.40113255 0.33393767 -0.7131766 -0.5633981 -0.018290697 -0.4425626 0.15367888 -0.49437872 -0.09289397 0.29184344 -0.19489026 -0.8355216 0.19702221 0.5568147 0.6591846 -0.25060987
中 -0.17343919 0.4583847 0.7096083 -0.037009902 -0.21625847 0.041942175 0.04354213 -0.36367786 -0.16127324 -0.47433227 -0.4231701 0.12006124 0.17405039 -0.1274303 -0.40488747 -0.2085854 -0.9567212 -0.22761036 -0.20282434 -0.044048406 0.36309308 0.44820035 -0.02417824 -0.63557243 0.42923573 0.18646775 -0.30659384 0.41006574 -0.09957583 0.09161712 0.24738795 0.12644847 0.14205845 -0.020211993 -0.17269912 0.45571607 -1.0516344 -0.25882304 -0.18959557 -0.94695455 0.27838334 0.31101885 0.06177932 0.11654149 0.57183546 -0.18512996 -0.5372076 0.13124351 -0.06668785 -0.22826329
季 0.114361554 0.026424047 -0.34236753 -0.054781888 -0.45076248 -0.80873466 -0.04362452 0.0041355747 0.3240131 0.3273059 0.06424161 -0.22943604 0.19111505 0.35204682 0.11756467 0.833593 -0.35930938 -0.9226106 -0.35032013 0.31620032 -0.5658894 0.22747056 0.022117987 0.29047823 -0.62227786 1.0350475 -0.16222093 -0.27252796 0.3177134 -0.31504068 0.5472906 0.36249408 -0.27698863 -0.09444378 0.2639508 0.89607567 0.69737107 -0.08805383 0.12260341 -0.18556634 0.097613096 0.3232724 0.22710337 -0.2323585 -0.25500587 0.20791732 0.09994375 0.32781515 -0.45455867 -0.18746921
臣 -0.4506905 -0.27112606 -0.65198296 0.09526358 0.21543182 -0.25671956 0.14984034 0.59259635 0.5724837 0.3726818 -0.6832217 -0.48498648 -0.36874276 0.019944025 0.2643005 0.38523644 -0.73789287 -0.33993712 -0.41856027 0.30699468 -0.38215336 0.17884417 0.4518936 -0.48469988 -0.4436491 0.047495816 0.034029353 -0.48479685 -0.475329 0.85751796 -0.12302904 0.27349475 -0.4828607 -0.6116581 0.32595724 -0.036856867 -0.7835835 -0.19498701 -0.00530253 0.25000358 -0.4790885 0.12011201 0.0687657 -0.24964672 -0.019977804 -0.15384959 -0.042195175 -0.075128704 -0.272745 0.55380774
贤 -0.19027285 -0.42328164 -0.33148852 0.27418834 0.28105822 -0.13071042 -0.34265152 -0.30822724 -0.19068615 0.08750227 -0.6257272 0.32446378 -0.038501926 -0.00031812204 -0.07135579 0.673007 -0.47104087 -0.4004096 0.11424102 -0.48090994 -0.25969386 0.553559 -0.07183065 -0.16385978 -0.10014353 -0.27777478 -0.49853596 -0.059593994 -0.33618963 -0.021788334 -0.8304747 -0.35683987 0.26913217 0.164305 0.24394302 -0.68433803 0.33927143 -0.095931984 0.021035962 0.0130108325 -0.42601535 0.17853336 0.011968633 0.2262791 -0.19327264 0.21468583 0.34954345 -0.08823468 0.57096606 0.21059635
思 0.29957426 -0.055638257 -0.25819457 -0.5966611 -0.82294756 -0.42983478 0.09414786 -0.5500425 -0.10632748 0.7923134 0.18745776 -0.13160194 0.41503146 0.41582248 0.06800159 0.29648712 -0.4257856 -0.17610492 -0.34176648 -0.09931928 -0.728691 -0.34693623 0.4085381 0.023665838 0.111098416 0.278575 0.25954548 -0.37589073 -0.053490218 0.3133162 -0.03340148 -0.6908203 0.32645422 0.08324863 -0.07031287 0.10583902 -0.24767248 -0.2683903 0.12024306 -0.2221473 0.04219794 0.75725716 -0.06710168 0.77606404 0.6378255 -0.56799215 0.33393425 0.42600757 0.8607892 0.009673329
齐 -0.41015086 -0.48760334 0.34835538 -0.5057458 0.18687049 -0.1213443 -0.033282638 -0.32510725 0.4829298 0.3962515 0.15168583 -0.1501261 0.11943042 -0.013785132 0.055552304 0.17914419 -0.52213764 -0.5557469 -0.14431082 0.3092284 -0.2097417 -0.21107835 -0.26823345 -0.3093523 -0.16144688 -0.27772346 0.2094919 0.47576356 0.8504334 0.40746155 -0.3931751 0.4400447 -0.74254227 0.49794433 0.1502666 -0.04348158 0.9060528 -0.03170792 -0.07195604 -0.5653138 0.05264932 0.25688848 0.014904394 -0.17389739 -0.3506789 0.028718494 0.1741844 0.60138243 -0.22041133 0.18693793
义 -0.07750157 -0.12321176 0.21481222 -0.13132651 -0.6057969 -0.3102872 0.020785602 0.2063741 -0.2474617 0.4812599 0.04765212 0.38325864 0.042962454 -0.17875819 0.2268659 -0.2335986 -0.8285767 -0.09366334 -0.4632079 -0.85565484 -0.25923267 -0.17096741 0.31678703 0.04370412 0.3460718 -0.26550776 0.451257 -0.030476587 -0.383287 0.5109654 -0.0836431 0.1456718 0.44425833 -0.122083224 -0.265957 -0.0074705062 0.20570835 -0.00016752693 0.4870211 0.2421503 -0.2961767 0.39423597 0.8213775 -0.35913727 -0.05142549 -0.023733757 0.54734874 -0.24607679 0.46828565 0.0053922436
正 -0.5755305 0.056298748 0.0701957 0.13893919 0.3920746 -0.6938937 0.056297604 -0.66396517 0.889052 0.5617974 0.4944236 -0.24701534 -0.25380442 0.66287357 -0.4933445 -0.342838 -0.5791858 -0.40640488 1.0810784 0.44814956 -0.17419285 -0.48056656 -0.21232058 0.029568875 0.09342277 0.25476277 -0.07354547 0.6036412 -0.088015 0.11120181 0.24310471 -0.490839 -0.2481829 -0.15209757 -0.44662422 -0.064619355 -0.11087585 -0.0053161485 0.23570895 0.23884508 -0.13476302 -0.5921034 0.84736645 0.43498403 0.61601985 -0.740044 -0.17182948 -0.022053065 0.270777 0.22757867
命 -0.15132363 0.03355025 -0.72630835 -0.26608256 0.086397484 -0.13487656 -0.067291096 0.25321874 0.49485123 0.25582147 0.032562632 0.08839733 -0.23135287 -0.5616015 0.05414561 -0.32267207 -0.85110897 -0.22760603 0.40797666 0.4287414 -0.120606706 0.010261989 -0.12497482 0.5805166 -0.31330666 -0.7544899 0.5534102 -0.40307876 0.3755541 0.16241865 0.0968216 0.12124532 -0.49048728 -0.79844004 0.66032135 -0.19870755 0.2613174 -0.38118464 -0.3948545 0.0613413 -0.43091366 -0.035807252 0.33824107 0.044174977 -0.18510796 -0.2213258 -0.019567149 -0.43516916 -0.22839445 -0.8582526
曾 0.024244478 0.13833573 -0.0041301637 0.22237006 0.29973304 -0.31181422 -0.07614885 0.46154672 -0.11651059 -0.018234627 0.21319711 0.24426848 0.4932029 -0.008285082 -0.24226281 -0.43392116 -0.21623498 -1.218029 0.07429535 -0.26308274 0.35675603 -0.14371218 -0.43582416 0.34851715 -0.1414678 0.37034234 -0.011485653 0.64921325 -0.12835237 0.3454906 0.47574872 0.2848382 0.18580668 -0.21544838 0.13663046 0.3422387 -0.18761988 -0.50508606 0.1402035 -0.07105994 0.5263125 0.24597244 0.060166135 0.1685598 -0.06812546 0.1444482 0.42341605 -0.17695947 -0.35917184 -0.044920594
伯 0.09941406 0.4521405 0.18446922 -0.37044916 -0.27832496 -0.52014035 -0.36960748 0.5764066 0.3662144 -0.01262517 0.0005165976 0.09128287 0.5541465 -0.043161415 -0.18212181 -0.48205945 -0.2768392 -0.9302133 -0.14671229 0.12541318 -0.20846118 -0.6910923 0.003466497 -0.5370096 -0.3948827 -0.13901255 0.03564489 0.20522684 -0.5571708 0.341662 -0.9216092 0.5277599 0.5269219 0.42915103 -0.24326313 0.3737481 0.330275 -0.5914177 0.28689757 0.026416099 0.7040401 0.12763575 -0.4586277 -0.54472417 0.15711446 0.0040023085 0.010704185 0.115441024 0.06909644 -0.41579276
门 0.047651187 -0.11415138 -0.7915219 0.54969275 -0.57632864 -0.11254659 0.39045092 0.07169105 -0.02611937 -0.32609618 -0.24166347 0.14058009 -0.38865334 -0.06634557 -0.08000687 -0.59055793 -0.42405266 -0.51595277 -0.20664398 0.47170803 -0.30189046 -0.15075667 0.21646875 0.13855256 -0.24136646 -0.59822136 -0.35574552 -0.062897086 -0.027736755 0.6770071 0.11338546 0.13371603 0.14205968 -0.0054573272 0.21078436 0.58757204 0.26247814 -0.44320637 0.55839634 -0.09815414 -0.4954178 0.39226124 0.70828164 0.46155444 0.33919686 -0.51469314 -0.30049023 0.27389577 -0.1398118 -0.614708
敢 -0.42601693 0.1644348 0.10764108 0.12072272 0.35869715 -0.31881785 -0.62107056 0.27313972 0.35093132 -0.4429089 0.3640321 -0.11693244 -0.25127134 0.14500523 0.3516032 0.17501724 -0.54420584 -0.59508985 0.26264748 -0.017186029 -0.97559726 -0.7366007 0.43010232 0.4289847 -0.40829188 1.0213885 -0.4618446 -0.17926025 0.211138 -0.26956528 0.081351615 0.6276298 0.40117264 -0.063285306 0.70081663 0.12631081 0.18194331 -0.21432401 0.6159602 -0.056269925 0.39975518 -0.4918724 0.026703546 -0.13918738 0.3231842 -0.56046814 -0.40536076 0.2561486 -0.03241749 -0.011819644
犹 -0.45966923 0.2225364 -0.36307296 -0.58372724 1.1745709 -0.4700759 0.37337878 0.063542426 -0.015706407 -0.057278007 -0.7791318 0.15551683 -0.884984 -0.51979566 0.086443834 0.082383305 -0.79088277 -0.57669675 -0.2612623 -0.5049152 -0.14459468 0.3905428 0.30084515 -0.5565116 -0.3105831 -0.17932151 -0.08625664 -0.2111694 -0.031901017 0.36086166 -0.34570405 0.003349601 0.60269076 -0.5644133 0.12495728 0.11542904 0.30039462 -0.08057994 -0.21031617 -0.5588239 -0.14473912 0.1395497 0.22849315 0.43971044 -0.38417995 0.5600852 -0.36096457 -0.4061051 -0.36877286 0.14409532
生 -0.164823 -0.06791872 -0.12550351 -0.646337 0.69830346 -0.07599738 -0.15622437 0.42772058 -0.27284315 -0.40185368 0.4685628 -0.23075083 -0.13045567 -0.75481683 -0.20847794 -0.33446485 -0.39194575 -0.37601283 -0.07664492 0.47449788 -0.23625328 0.13729045 0.23589425 0.05696703 0.08978504 0.10765568 0.11674615 0.54078376 -0.065411985 -0.3438383 0.19970408 0.2702994 0.38805646 0.016362127 0.535512 -0.37685895 0.020406296 -0.47948086 0.35650986 -0.33637035 -0.4000626 0.022430865 0.17359135 -0.26689368 0.80560046 0.28437835 0.011389904 -0.21316296 -0.3541619 -0.80776453
日 -0.13012758 0.77799916 -0.046024345 -0.58010525 0.48563942 -0.66321987 -0.048638772 -0.33702376 -0.21498816 0.45705712 -0.064123675 0.88176274 0.19412814 -0.08091744 -0.3694823 -0.07608412 -0.4456144 -0.28364474 -0.23551401 0.6188268 -0.44006985 0.00948034 0.13746746 -0.27525365 -0.028084405 -0.39052996 -0.32403046 -0.479937 0.59704137 -0.84123015 0.35964525 -0.24705677 0.42309877 -0.23277773 0.46254158 0.14419565 0.63124156 -0.48710415 -0.37773612 0.21290088 0.17157696 0.29529077 0.3252411 0.52913505 -0.05594701 -0.11861941 -0.22416966 -0.008860883 -0.82106537 0.0569378
敬 -0.21321702 -0.13033836 -0.22649363 -0.053912867 -0.41322875 -0.2166108 -0.020993562 0.3329766 -0.14324781 -0.013191122 -0.14181748 -0.08386029 0.22490497 0.3044484 0.18648799 -0.27801517 -0.8938787 0.004950037 -0.25872168 0.25744385 -0.21490055 0.07605304 0.36596972 -0.27551535 0.4796077 -0.11022734 -0.21959223 0.05540177 -0.7892036 -0.06695538 0.26883328 0.13709608 0.11426084 0.23539136 -0.0020753385 0.6146498 0.21994178 0.18413407 -0.17542252 0.011722437 -0.18332197 0.45720407 0.17872418 -0.004731868 -0.14712904 -0.41128471 -0.11689604 -0.088979006 0.40065983 -0.52535874
难 -0.04207022 -0.5495864 -0.6404792 0.17708103 -0.505426 -0.087053716 -0.5510799 -0.38737154 0.46275175 0.3937635 -0.30852613 0.27300483 0.4007164 -0.4540922 -0.6767768 0.07564648 -0.4791192 -0.21139576 -0.058899548 -0.16227342 -0.12981369 0.73340344 0.01022667 -0.15962887 0.10823243 0.019793982 0.028656803 0.3506473 -0.57821655 0.7748361 -0.2903046 -0.16008456 0.19026087 0.03210447 -0.2972687 0.23404731 -0.4743653 -0.77342796 0.17346671 0.6519475 -0.6699293 -0.4327342 0.11650495 0.41950306 -0.042405497 -0.6730257 0.88000643 -0.6369509 0.07132911 0.04664277
直 -0.39825365 -0.1372681 0.4427593 -0.027596276 -0.090950966 0.28995565 0.041134562 -0.010583633 0.04356755 -0.2175189 -0.09077503 -0.39854953 -0.0571423 -0.17276762 0.07970429 -0.015924996 -0.6899539 -0.27718613 -0.4693432 -0.48878726 0.17351748 -0.091220595 -0.5321404 -0.76335996 0.034137316 -0.5017757 -0.4362003 -0.2580101 -0.50670666 -0.06584168 -0.59522927 -0.31338188 0.25721744 0.10987106 -0.18331796 -0.31750056 -0.4993658 -0.30263513 0.08181452 -0.416827 -0.39932716 0.44164887 0.42130235 -0.42520413 0.02411592 0.28140104 -0.032474004 -0.23011811 -0.024520036 -0.39405674
丧 -0.089204475 0.0074687563 -0.11975444 0.25535187 -0.6221867 -0.31472123 -0.42667142 0.1891849 -0.07654042 0.70880425 0.031492542 0.28130063 -0.006211829 0.4813935 0.64850235 0.108780526 -0.5033682 -0.14347255 0.260622 1.3532962 -0.44765347 0.09374685 -0.008274443 -0.08963678 -0.6790869 0.70537674 -0.26088414 -0.1960127 0.058576576 -0.062532686 0.39164585 -0.29446414 0.29370782 0.65158415 -0.5486289 -0.15015407 0.20040536 -0.413846 -0.27876708 -0.118137695 -0.30005896 0.3545591 -0.22627057 0.0916426 -0.15085036 0.41021407 0.1682509 -0.38624284 0.070092134 -0.21658173
说 -0.34114334 -0.019598614 -0.041904945 0.91732055 -0.5192589 -0.57273084 -0.4087818 -0.530515 -0.2743281 0.12692219 0.2763143 -0.051277336 -0.312005 0.08527348 -0.28963444 0.3828936 -0.42573407 -0.37041003 -0.5867875 0.023995943 -0.5346389 0.57324415 0.054924496 -0.38990772 0.047628336 0.3770745 0.32843626 0.6944475 -0.9031374 -0.29685715 0.6399415 -0.22111559 -0.38844666 0.14540902 -0.43994567 0.3120617 -0.3275507 0.20339106 -0.3614496 0.19068167 -0.44314954 0.29203996 0.8622182 -0.1738743 0.3854673 -0.008460199 -0.6137205 -0.41868275 0.07046396 0.15005249
自 0.04929895 -0.07921432 0.067987606 -0.14440005 0.2112099 -0.16512914 -0.6741253 -0.08079235 -0.1501765 -0.67780477 0.23520426 0.72001725 -0.27572674 0.5572242 -0.22984304 -0.07961291 -0.38073725 -0.4368313 -0.021468354 -0.2271632 0.19403224 0.022919586 -0.6075528 0.29988047 0.1431358 -0.4458369 -0.12432721 0.35606766 -0.17265415 0.32000172 0.16867754 -0.95637107 0.15177791 -0.31213573 -0.3987043 0.36324123 -0.1992031 -0.02695132 -0.54172045 -0.10445951 -0.07006871 -0.0016639167 -0.1796303 0.42406952 0.14228229 0.072244465 -0.07326685 -0.7516703 0.2870232 0.052579634
用 -0.14660925 0.58431655 -0.3563646 -0.110411644 0.4132087 -0.051444087 0.011132493 -0.022493085 0.2197933 -0.10622969 -0.47893786 -0.8325111 -0.25836074 -0.11467218 0.08211623 -0.40952528 -0.54231113 -0.7238974 -0.095448434 -0.20633858 -0.5366385 0.16545354 0.333316 0.33387113 0.15251864 0.471535 0.2496557 0.31822526 -0.32939705 -0.6261312 0.061450977 0.19416644 0.43846256 0.3137058 -0.06133285 0.28748086 -0.5707596 -0.2570031 -0.30452436 -0.18671907 0.16486333 -0.26716644 0.9369693 0.24922831 0.61162925 -0.426065 0.26865357 0.20815665 -0.3811209 -0.12862174
周 -0.29254404 0.44240698 0.23753968 0.24369352 -0.36908403 -0.42103487 0.052972805 0.04728006 0.15438117 0.11022811 -0.1648275 -0.49947548 0.21582387 -0.35697347 -0.09505338 -0.17954338 -0.27076498 -0.35804623 -0.31461015 -0.15476404 -0.32593334 -0.72687566 -0.7889674 -0.45374808 -0.51778114 -0.57840073 0.26067895 -0.55812526 -0.35352224 0.30741504 -0.17071441 0.44539312 -0.2066107 0.58083534 -0.07952924 -0.13957986 0.64397526 -0.36365053 0.33382952 0.7560301 -0.47790673 0.88862085 0.4030454 -0.24476336 -0.008290651 -0.103469975 -0.14645529 -0.53950423 0.36652577 0.57138383
颜 -0.2214578 -0.1869168 -0.25232878 0.7389466 0.39589477 -0.48664558 -0.2866073 -0.26106077 -0.08117406 0.19096771 -0.13892218 -0.095909856 0.40932196 0.2481618 0.019247157 0.28311753 -0.3092857 -0.78892785 -0.28051305 -0.15102048 -0.70116335 -0.48423037 0.23153944 0.21092555 0.00204496 0.50810635 -1.0504713 -0.6531272 0.8894403 -0.012241704 -0.20374827 0.6898107 0.057732865 -0.08436772 -0.054972064 0.33237436 -0.21811122 -0.57481056 0.24014421 -0.122439764 -0.087268814 0.35136795 0.7547071 0.8403287 -0.30204076 -0.58031327 0.23381779 -0.565884 -0.43858021 0.2550746
年 -0.19840398 0.1467747 -0.49859762 0.100172885 0.22164305 -0.23360515 -0.107335 0.50001204 -0.6747644 -0.6455034 0.58720994 0.47836202 -0.67112404 -0.0066513536 0.06865647 0.42610902 -0.42065758 -0.5607675 -0.4244137 -0.52363545 -0.72280645 0.26060143 0.29567596 0.036480874 0.7695989 0.43963897 0.2569243 0.13411553 -0.6004516 0.25476748 0.68946004 1.0725967 -0.813935 0.14368595 -0.3084843 -1.0108308 0.3202996 -0.29860097 0.43717584 0.054495256 0.52334076 0.2593096 0.57324266 0.60778433 0.16165943 -0.24415565 -0.26440442 -0.3127262 -0.3891427 0.116508074
告 -0.29316533 0.26579088 0.27091226 -0.8164979 -0.373415 0.86283493 -0.07200423 -0.35961813 0.7741217 0.4466952 0.033393126 0.19692102 0.5927115 0.17360395 -0.42618218 -0.6402558 -0.51735973 -0.773193 -0.11588313 0.3214477 -0.3705322 0.44169486 0.043481704 -0.05104763 0.9830122 1.0225983 0.2650983 0.96213263 -0.41699007 -0.0972999 -0.52020186 -1.0017668 -0.46817836 -0.51074284 -0.3752997 0.7368116 0.387356 -0.21219237 0.43997076 -0.24970974 -0.26588 -0.08042176 0.8555434 0.35845694 -0.31521195 -0.39858028 -0.9909962 0.2233714 -0.07360592 -0.7010817
十 0.15318975 -0.23110457 -0.7373807 -0.07151547 -0.14304796 -0.157986 -0.1888636 0.62060803 -0.10022917 -0.33187836 0.72886163 -0.5548607 0.42269376 0.98334754 -0.60217065 0.45863003 -0.42109898 -0.27490503 -0.6381822 0.6702709 -0.011522635 -0.6572684 0.25700596 -0.5073451 0.22224925 -0.3996241 0.25781158 -0.06524119 -0.5302072 0.27356198 -0.03083803 -0.13319388 -0.48378688 0.11919214 -0.2510091 -0.66659594 0.26319367 -0.94539124 -0.19937553 0.022560991 0.28809896 -0.05405164 -0.5604249 -0.018240204 0.14721571 -0.32155827 -0.061938357 0.2774444 0.29187542 -0.109107874
怨 -0.51332176 0.104405746 -0.17816457 -0.31836548 -0.21743436 -0.08000298 -0.07927671 0.38805556 -0.3240108 0.3462374 -0.18103033 -0.3779505 0.23609757 0.52939886 -0.38657597 0.45588452 -0.65407205 -0.24141333 -0.59452283 0.24312642 -0.10615975 0.30218112 0.009634462 -0.035479322 0.36751184 0.31087565 -0.12575981 -0.4191891 0.44731522 -0.81773746 -0.39002323 0.032015093 -0.115402766 -0.26253465 0.009889965 0.46881014 -0.15607099 -0.15194435 0.124075204 -0.2805905 0.3296288 -0.40700808 0.18187152 -0.26892287 0.79778594 0.31270826 -0.03849303 -0.08770867 0.09489699 -0.062034234
达 -0.46194613 -0.083804384 0.6683152 -0.036951616 0.41296425 0.19043887 -0.039464183 -0.26742423 0.8558925 0.013297412 0.14841345 0.041188933 -0.28931928 0.0051491135 -0.04358627 -0.17169707 -0.5317378 -0.44612697 -0.6597406 -0.24219704 0.11442168 -0.37921396 -0.54212767 -0.44754153 0.05935997 0.3156796 0.19084336 0.52047455 0.14913327 -0.1472785 -0.20218448 -0.18691334 -0.16945915 -0.25090024 0.066747084 -0.43961215 -0.45370194 -0.31749368 -0.032478977 -0.123537906 0.56897265 0.005853279 -0.06519299 -0.27379432 0.12915206 0.043310378 -0.35381314 0.15760209 0.22893584 -0.643102
孝 0.19500424 -0.18504003 0.2027051 -0.13876845 -0.26934916 -0.8049984 0.2725817 -0.35580263 0.16896203 -0.06782108 -0.27227703 -0.2807563 -0.08255142 0.14209834 0.37300244 -3.0688476e-05 0.074253954 -0.58653796 -0.5610648 0.33538795 -0.33514082 0.22738564 -0.100574404 -0.58357 0.10449463 -0.09172656 -0.5262214 0.32865214 0.050422024 -0.18676752 0.87959754 -0.026591904 0.5127898 0.27354375 0.048605822 0.4644173 0.27525848 -0.63275784 0.43635705 0.050822467 -0.18324989 0.34217468 -0.32595176 -0.15114716 0.16969056 0.28211498 -0.035364076 0.08761613 -0.5386107 -0.031137688
弟 0.03344433 0.102211475 0.20446047 -0.08316985 -0.42170835 -0.6889883 -0.09634745 -0.6828552 0.6179589 -0.6777896 -0.027965786 -0.18647686 -0.7598584 -0.36946434 0.71736556 0.5245067 -0.2871625 -0.49818572 -0.22098714 0.011470498 -0.54794854 -0.31819314 -0.42733014 -0.5282692 0.8498638 -0.35221314 -0.6376111 0.20229298 -0.13343935 0.4351509 0.08818503 0.36206442 0.13844952 -0.21139647 0.017751629 0.13118586 -0.18036236 -0.2613117 0.58518255 -0.05501307 -0.36274332 0.27241227 0.3124461 -0.18321538 0.46484697 -0.41016486 0.4801593 -0.4567764 -0.5238363 0.2612811
至 -0.25601506 0.19284926 0.7709597 0.08260752 0.51132494 -0.7737293 0.29002935 0.21962236 -0.099140905 0.770876 -0.094675705 0.9418869 0.48356113 -0.2935487 0.15540017 0.2715306 -0.68106484 -0.26241446 -1.0026617 0.50158423 -0.35418952 0.04821466 0.1910974 0.5350719 -0.12692036 -0.03967587 -0.47100088 0.32902458 0.76222456 0.037765663 -0.4857741 -0.23570327 -0.007040189 0.3220541 -0.09958827 0.42143485 -0.3705562 -0.1797091 -0.16146387 0.021484977 0.45989868 -0.33817402 -0.39498 0.49631247 -0.056207277 0.42432505 -0.27291024 0.38160366 0.2552959 0.4687693
先 -0.2798914 0.10947539 0.048550073 -0.14262745 0.035496384 -0.08929448 -0.543799 -0.06338884 0.3016856 0.7326061 -0.12892787 -0.08013267 0.41905028 -0.5253614 0.23308027 -0.05868262 -0.5454967 -0.5411387 0.6922318 0.11733202 -0.5349604 0.15930337 0.5874076 -0.121075705 0.13941155 0.6927572 0.5165209 0.5314817 -0.5690176 -0.29079106 0.78095585 0.20836732 0.40788648 -0.3956825 0.38794374 0.46407083 0.8757979 -0.31615222 0.44572806 -0.3022313 -0.1154483 0.10158584 -0.1691559 -0.21571845 0.18884727 -0.074620165 0.52326316 -0.5059332 -0.16119318 -0.50671715
师 0.2803063 0.75341237 0.21690497 -0.28132024 0.047624007 -0.38626564 -0.08404115 -0.47519982 -0.27064234 0.6485584 0.19159618 -0.013692223 0.3397413 0.076199524 0.6216821 0.5236635 -0.5336672 -0.81246847 0.31487012 -0.6925728 -0.23999844 0.46232137 -0.6980534 0.61148 -0.12185692 -0.5303724 0.14984785 0.4244365 -0.15779053 -0.11432895 0.10649793 0.5857729 -0.61923647 0.48466963 0.20287234 0.31497976 0.10696739 -0.513739 -0.32783094 -0.3069387 0.29669347 -0.34319687 -0.2369398 0.16054814 -0.14770532 0.8926169 -0.08535991 0.25687912 -0.168071 -0.020853357
女 -0.17662346 -0.77209955 0.16249497 0.20123252 0.19855817 -0.43950284 -0.10172228 0.45011082 0.67752343 -0.3668656 0.14678279 0.14275716 0.010706512 0.64738774 -0.48345175 0.013748145 -0.10351503 -0.6720372 0.474765 0.21902558 -0.28058115 0.16772889 0.19541712 -0.25629318 0.18903011 -0.24552706 0.07684222 -0.92966425 0.3044382 0.4731558 -0.037195325 -0.659787 -0.25296515 0.14082356 0.29743433 0.2962461 -0.25480348 -0.087039575 -0.016779775 0.1647553 -0.46860233 -0.6711966 0.05990231 -0.21868639 0.07339917 0.5989173 0.31584793 -0.3061986 -0.20691104 0.59025383
多 -0.6002304 -0.2561249 0.2651191 0.3883843 -0.630395 -0.50392735 -0.21171512 -0.30402747 -0.51594937 0.5524929 -1.1111451 0.48851725 -0.12797436 0.31613424 0.23825198 0.03254774 -0.57021993 -0.28244737 0.755396 0.09231721 -0.73285794 0.1141402 0.80506814 -1.2943108 -0.0007734729 -0.21594615 0.12637618 0.14845121 -0.4128931 0.34336802 -0.03369193 0.33810478 0.13755894 -0.4992629 -0.32769534 -0.30005845 0.31420374 -0.0051941695 0.042117056 0.043092117 -0.22632521 -0.1263072 0.25559485 -0.8302011 0.20054232 -0.9265136 0.14649057 0.4986499 0.45276377 0.71566004
忠 -0.5611265 -0.109736465 0.9788153 -0.2451884 -0.15624982 -0.04297053 -0.6700817 0.032610662 -0.27316839 0.6742955 0.0578523 -0.2107092 0.34397644 -0.03861436 -0.10196512 -0.4743312 -0.6550446 -0.2537462 0.07748381 -0.60331935 -0.29072624 0.7691042 -0.0020888406 0.120963305 0.2565108 0.43505296 -0.19410072 0.7302057 -0.4384536 -0.5614538 -0.12923197 -0.515579 -0.39116442 -0.034361042 -0.71248496 0.15292224 -0.55504656 0.015774421 0.74552673 -0.123007976 -0.0048351237 0.22871716 -0.52882206 0.026998634 -0.43808278 -0.29939103 0.1469469 0.11098066 0.37289152 -0.17054212
四 -0.28125533 -0.010096229 -0.28077915 -0.23091863 -0.027723752 0.011147896 -1.007246 -0.4274464 -0.17322567 -0.7291839 -0.22856283 0.4721803 -0.03860455 0.4219784 0.07011699 -0.103292115 -0.57412374 -0.30599225 -0.5797562 0.041490637 -0.18050362 0.3838238 0.21978384 -0.6903627 0.052635193 -0.55851215 -0.16082618 0.055473622 -0.30513445 -0.33515802 -0.039481625 0.15471904 -0.8933485 0.22391886 0.3950505 0.34412974 -0.38452703 -0.51925087 0.041446965 0.2981115 0.8282314 -0.40999463 -0.9993902 -0.36644676 -0.33660462 -0.3001505 0.023059659 -0.24045382 0.15532345 -1.0116378
疾 0.08942076 -0.1928052 -0.4832534 0.15881383 -0.032866254 -0.6037971 0.021015542 0.09113263 -0.06693721 -0.77904344 0.4671772 0.30690187 0.092387795 0.009470193 -0.14963172 0.14361766 0.08068686 -0.4340084 -0.23326744 -0.4127622 -0.28366905 -0.53401333 0.64082307 0.25574854 0.2656932 1.0384246 0.897124 0.4736767 0.41875273 0.16627847 -0.2080997 -0.3956978 -0.54698884 0.03401414 0.32240063 -0.22886236 -0.083196834 -0.75626856 1.0755658 0.21233597 -0.15325981 0.5931293 -0.48041198 -0.5922712 0.40922496 -0.45221794 -0.3687774 -0.41777453 -0.960482 0.05232893
服 -0.4076235 -0.18484758 0.14293244 -0.08315906 -0.22957961 0.29501328 0.23519133 -0.2506272 0.17629775 -1.1140997 -0.49088636 -0.65543544 -0.11702672 -0.33043864 -0.27520347 -0.13506435 -0.8939482 -0.30413043 0.14380127 0.34139287 0.11609235 -0.05689612 -1.1500125 -0.2940855 0.043628372 0.62416846 -0.73719865 0.24477865 -0.10275899 -0.015236994 0.7159497 0.13283734 0.18636845 0.2380974 -0.48219144 1.1842494 0.39315507 -0.09623912 1.2327758 0.00136948 -0.24744643 -0.30036044 0.014418486 -0.49061415 0.7438282 0.6307333 -0.5216225 -0.41450384 0.44105497 -0.28805265
氏 0.334084 0.35603377 -1.2332093 0.34904477 0.32453758 -0.5526126 0.31065324 0.58862066 0.26181474 -1.2442156 0.25514698 -0.008881136 0.36370823 0.4440309 -0.3547204 -0.014854861 -0.13627033 -0.9769563 -0.38782236 -0.36326715 -0.7242648 -0.2092834 0.3574786 0.50888145 -0.07124011 0.53095 0.16508356 0.12928466 0.14213797 0.6430684 0.5973858 0.6162019 -0.44960406 0.7280607 0.6360989 0.52709454 0.66632694 -0.71290797 -0.41064715 0.22295961 0.26323926 0.3558187 0.39641204 0.25281647 0.30857462 0.25588498 -0.57175493 -0.16567393 -0.03724769 -0.35276565
冉 -0.024846314 -0.18099084 -0.43195564 0.38914615 0.021790417 -0.10756555 -0.1982115 1.0292016 0.028551413 -0.146568 0.37205622 0.11144923 0.34587625 0.62965107 -0.13939378 -0.4689854 -0.062179465 -1.009181 0.45600715 -0.32474968 -0.16105129 -0.21201286 -0.64786786 -0.68333524 -0.16457412 -0.3092943 0.24673977 0.5567052 0.24872416 0.27373737 -0.14463231 0.4055285 -0.16977593 0.15776116 0.2103085 0.21693252 -0.21821186 -1.0782593 0.6761147 -0.20486256 0.13071315 -0.6942584 0.36721718 0.47627315 -0.1982925 0.31385374 -0.12894978 -0.20571907 0.28992298 -0.26937518
将 0.17960227 0.22289325 -0.051008694 0.45582068 0.36753726 -0.21297665 -0.14330271 0.5753829 -0.04458338 -0.53654903 0.0752028 0.42284366 -0.68538636 0.12666398 0.6388369 -0.24597925 -0.45833376 -0.3941341 -0.108292766 0.43513322 -0.37145886 0.5123439 0.1486254 -0.026614152 0.1689711 -0.4867312 0.74374723 -0.18175657 0.53088015 0.30807763 0.22850974 -0.34877566 0.36778465 -0.6051619 0.14389582 0.71860003 -0.17319015 -0.6704883 -0.24945919 -0.35148907 0.3348865 -0.16611904 -0.13284464 -0.28167093 -0.14833222 0.3982103 -0.008419692 -0.118017994 0.24208514 -0.48135418
士 0.09877103 0.09104076 -0.39991614 -0.16606902 0.113516316 -0.33554962 -0.13355401 -0.45007712 -0.2779392 0.45267436 0.08632498 -0.1110178 0.23568541 0.21695217 0.64902395 -1.3611002 -0.28572783 -0.60651904 -0.42327693 -0.37770444 -0.13420916 0.03886147 -0.82782304 -0.033850864 -0.17328016 -0.21740949 -0.06988889 -0.004657515 -0.36791998 0.5085713 0.23348951 0.32653877 -0.20943466 0.15283272 0.13803388 -0.036617056 -0.41478 -0.7298033 -0.08487556 0.46298096 -0.12031521 -0.39775446 0.099307865 0.029398914 -0.3428665 -0.020179378 -0.6784976 -0.7027794 0.35970637 -0.53374666
丘 -0.08659501 0.00014811133 -0.25038767 1.5245234 0.108310476 -0.08026334 0.51078624 -0.15152803 0.4288223 0.60591745 0.00515079 0.7460526 -0.09018184 -0.18728927 0.20877181 -0.5085317 -0.6362161 -0.85279876 0.7847053 -0.2564643 -0.27373582 0.54055494 0.7149103 0.6543521 0.5689986 -0.23125497 0.44748828 0.38200408 0.3073999 -0.3359356 -0.077285774 0.05746018 -0.057155948 -0.025192609 0.1326241 0.28071514 -1.119187 -0.609302 -0.11304628 -0.7846089 0.29334214 0.3724091 -0.06523606 0.069907255 -0.3776333 0.07050641 0.11345261 -0.01630023 0.5280139 -0.3054385
身 0.31988484 0.22987741 -0.36340556 -0.47888207 -0.2733584 -0.58872765 -0.10261318 -0.72635585 -0.16130064 0.568258 -0.70345837 0.08750535 0.07501276 0.029195279 0.008442221 -1.0298067 -0.67556983 0.0014450015 0.12759267 0.37642267 -0.509511 -0.24494521 -0.2841805 0.36322114 -0.6377964 -0.1860078 0.38313973 0.13334537 0.021019945 0.3337806 0.84269595 -0.055508964 0.58825886 -0.2712745 -0.10545209 0.30665156 0.5914682 -0.65645355 0.6163755 -0.054593135 0.29522473 -0.22735421 -0.1422793 0.3970041 0.09479795 -0.71135056 -0.37994152 -0.5551505 -0.39027447 0.21563984
入 -0.031199727 0.13893773 0.63315713 0.3533637 -0.38665468 -0.9564151 -0.025879834 0.130129 0.6025789 -0.6924297 0.26943713 -0.54950607 -0.5455804 -0.42786106 -0.022679826 0.17825198 -0.46416512 -0.40671602 -0.55977154 0.321486 -0.2519641 -0.2661948 -0.30062577 -0.7550771 -0.2427938 -0.29144692 0.9691556 0.45681438 0.4169511 0.84047014 0.25922248 0.06568983 -0.20359218 0.31588897 -0.3958407 0.41896844 -0.17915806 -0.046653744 0.072022736 0.14404026 0.4546512 0.05127577 -0.2921854 0.20268463 0.20192736 -0.005992143 -0.34604752 0.2631642 0.17147858 -0.12164515
志 0.26318166 0.12369649 0.72087103 -0.14952064 -0.10479319 -0.5074813 0.13455501 -0.19667119 0.3746126 0.34320617 -0.19277215 -0.03842514 0.49434 0.6739917 -0.18111865 -0.13490772 -0.48861462 -0.53789794 0.030664753 -0.45978087 -0.08475251 0.18077877 0.016329363 -0.02606128 0.24522269 0.0017364561 0.05139091 0.22095768 0.34712777 0.027238132 0.48636642 0.1318354 -0.3265846 -0.06417624 0.111727744 0.18003753 -0.4560249 -0.5480075 1.0801995 0.32641783 1.2121817 -0.031743955 -0.4091802 0.6644753 0.48272377 -0.01721111 -0.81386334 0.08281571 0.26810515 -0.9999432
耻 -0.49895826 -0.007970576 -0.3036374 0.16001545 -0.022527926 0.16135149 0.45981443 0.043245763 -0.2224531 0.09972567 0.5520243 1.2512602 -0.10186436 -0.23716241 0.73503894 0.24548954 -1.0309561 -0.2782953 -0.072613604 -0.39765418 -0.3943311 -0.718894 0.19791894 0.4567154 0.24371503 0.17964639 0.16814323 0.6837144 -0.2758899 0.4789684 0.4894832 -0.07496569 0.026564853 0.111170225 0.2050001 0.4444067 -0.9950138 -0.16781797 -0.65116775 0.18739237 0.33051747 0.040110845 1.1886853 -0.23892327 0.1834863 -0.11427493 0.68129396 -0.26004162 0.2446904 0.16309667
失 -0.2139817 0.92939395 0.032941587 -1.1355014 0.3901142 -0.3717234 -0.3845857 -0.11261477 -0.6304542 0.30547 -0.20194559 -0.6487373 -0.4559053 -0.2521993 0.17731966 -0.02413665 -1.0475987 -0.16565028 0.2000834 -0.10242537 0.059523825 0.233545 -0.36527005 0.64304096 -0.3358622 0.019925717 -0.25754398 -0.034976088 -0.3984008 -0.11795105 0.6853831 -0.20921583 0.2514729 -0.40991035 0.22348998 -0.4036308 0.17715064 -0.60327435 0.10800005 0.37786445 0.2923567 -0.019143384 0.502225 -0.4002217 -0.4854685 -0.36554 -0.32178637 0.6348437 0.58218807 0.29153994
安 -0.328698 0.2133679 -0.01363328 -0.38195732 -0.3760194 -0.39570493 -0.26774764 -0.38606262 -0.08176464 -0.3252781 -0.023403002 0.00847613 0.6378695 0.46398252 -0.40317002 -0.58384895 -0.6386777 -0.49857804 -0.21334553 -0.234953 -0.25418496 0.6911307 0.6434392 0.830043 -0.29627436 -0.51911813 -0.9825898 -0.7846459 0.55610377 -0.77944905 0.95620525 -0.12440848 -0.29320422 0.18305366 0.5447997 -0.94524604 -0.2714441 -0.60059035 0.16389868 0.36851582 0.4612974 0.1375679 -0.18570757 -0.5092633 -0.60693246 0.5600109 0.29504478 -0.027336556 0.02938743 0.0017364841
富 0.14137517 0.28945172 -0.53741664 -0.34924132 -0.09113906 -0.38633782 -0.3208377 0.34886166 -0.4062916 0.3078926 0.0691071 -1.1894884 -0.29626524 0.18596728 -0.27122074 -0.37633663 -0.38644105 -0.20114803 -0.20330489 -0.2874208 -0.4947542 0.6139174 -0.30475503 -0.0047181505 -0.09390789 -0.10679817 0.17795081 -0.3562111 -0.24446705 -0.26675352 0.11106031 -0.5123479 -0.33014852 0.075598486 0.064465635 0.18821119 -0.45734593 -0.25072357 -0.4571252 0.5969709 -0.1561312 0.20151314 0.4384387 -0.17715584 -0.015831944 -0.6344661 0.17700595 -0.39478707 0.6416169 0.09618247
赐 -0.6451755 0.8579836 -0.1198697 -0.06583556 0.36789748 -0.23605493 0.32811877 -0.3740539 0.23417778 0.3423841 0.044236798 -0.09138025 0.019034985 -0.42401627 0.26451355 0.5267153 -0.31299523 -1.0253714 0.4245201 0.53647465 -0.43542382 -0.4463036 0.7864883 -0.6224118 0.23009197 0.053297885 -0.18191998 0.790675 -0.15482683 -0.36226842 -0.5994262 0.44654283 -0.020661015 0.58136785 0.61781514 -0.9370475 -0.085823365 -0.46374297 -0.16322483 -0.03719694 -0.24120507 0.18846643 -0.19380766 -0.42005032 0.25125307 -0.011770451 0.042176854 0.5833251 0.5072786 -0.8738615
患 -1.1246823 -0.35614866 -0.55360776 0.34747484 0.030800868 -0.074852705 -1.1695442 -0.12953237 0.219892 0.7545364 -0.4042212 -0.27289575 -0.36049667 0.31993195 0.33751515 -0.5658226 -0.8987741 -0.40689418 0.12431942 0.6097379 -0.35652396 -0.12798597 -0.31178513 0.74342585 0.21112925 0.5453091 -0.6842877 -0.053756874 0.0062016295 0.27999508 0.3897156 0.5004897 0.4360941 -0.75058603 -0.31895173 -0.22638935 0.7557567 0.056572057 -0.032703333 0.44844288 -0.113112755 -0.4778242 0.7504616 -0.15126571 0.5026744 -0.46742517 -0.46044618 0.19627583 0.32488903 -0.70336896
百 -0.63375175 -0.45301396 -1.624239 -0.69208384 0.4401126 0.28206792 0.31352606 -0.014271563 -0.30763152 0.78372854 0.5614644 -0.1715316 -0.024508895 -0.06463575 -0.35387316 -1.0498707 -0.79584265 -0.5015779 -0.372442 -0.26865384 -0.11620962 0.49374786 0.5076965 -0.6151156 -0.5754632 -0.37783602 -0.40630338 -0.29646972 0.39943975 -0.29140317 -0.08965663 -0.072126165 -0.37630367 0.1337195 -0.30087516 -0.02170559 0.024289448 -0.045744862 -0.31037948 -0.6848381 0.42576772 0.5920503 -0.5135962 -0.6204518 0.49323204 -0.21316262 -0.36576107 -0.54913414 -0.12538123 0.758934
回 -0.026893163 0.21802057 0.57817906 0.48146284 0.6922488 -0.39096418 -0.7592864 -0.15855707 -0.49322456 0.55261165 0.42309803 -0.30475917 0.44073975 0.41510686 -0.29702917 0.09144688 -0.4019975 -0.9182956 0.928565 -0.2781477 -0.42113075 -0.23404424 1.0433433 0.4040981 -0.3082113 0.44650716 0.26695484 -0.2817912 0.07659482 0.30044293 -0.22840403 -0.59655327 0.37950176 -0.07618525 0.6835021 -0.6020869 -0.15273161 -0.30849677 0.98774403 -1.0209478 -0.31849015 0.7002656 0.16874239 0.1935932 0.24474806 0.026248736 -0.053831365 0.5667533 -0.42248723 0.22422227
宰 0.35380343 -0.15075567 -0.8794709 -0.031793024 -0.2602977 -0.10855762 0.5662991 -0.18634911 0.1266146 0.351114 0.3965077 -0.11301874 -0.7988143 0.38351315 -0.21130429 0.14999086 -0.22768381 -1.0104558 0.6648221 -0.08007971 -1.011521 0.69441324 -0.5862147 -0.72441554 0.7430173 0.121250585 0.13302188 -0.6666121 -1.2270898 1.164143 -0.4623376 0.4434541 0.4770547 0.33154696 0.37228727 0.41632137 0.16158567 -0.7500099 -0.18887612 -0.12307204 0.22159609 0.26807037 0.8285948 0.03414588 -0.51472217 0.16347921 0.46492964 0.87972724 -0.21060908 0.36364126
朝 -0.16749968 0.29366866 0.5083764 -0.80741125 -0.16845493 0.06744045 -0.09196177 -0.202292 -0.34885725 0.5362266 0.040673465 0.40302008 0.30177912 -0.12419257 -0.4456146 0.18924978 -0.4116269 -0.40389085 0.011365677 1.197861 -0.71667516 0.00970134 -0.42555282 -0.3548014 0.34053555 -0.8058293 -0.7388569 0.83911777 0.37256905 0.14770168 0.073190376 0.1512785 -0.5677817 -0.31305507 -0.25118524 0.07903835 0.111181386 -0.30203387 0.74158275 0.03329251 -0.14229253 -0.002969458 -0.59980196 -0.117443115 0.623817 0.24186309 -0.078496456 0.3308148 0.33635828 -0.40558553
莫 -0.14615066 -0.33799052 0.112409554 0.6479074 0.44661278 -0.27166507 -0.20740435 -0.23153052 0.14986247 -0.37575322 0.5169684 0.00046380502 -0.18568029 0.34143165 -0.28914675 -0.03235466 -0.50723636 -0.18396105 -0.5687641 0.1407057 -0.42016336 0.16539983 -0.21921958 0.22868562 0.16392353 0.53186435 -0.00015199989 -0.11170747 -0.83690184 -0.4587057 -0.1346157 -0.56813854 0.206904 -0.87538224 0.12980819 0.2970645 0.5531287 -0.24717695 0.18597375 -0.0891109 -0.3439481 -0.011335079 0.023725135 -0.5573018 -0.11872035 0.22270818 -0.39803284 0.24079457 0.16069217 0.12542202
若 0.045094516 0.36039227 -0.193586 0.45455125 -0.22539085 -0.2948558 -0.81248826 -0.22552253 -0.16530707 -0.097698025 0.3597267 -0.73261297 -0.09708641 0.10122253 0.63834167 -0.24200867 -0.2827759 -0.7290944 -0.35028163 -0.16138834 -0.38232052 0.17160372 0.16945389 0.6246049 -0.695029 0.6995365 0.5669356 -0.12353551 -0.1841557 0.7459248 -0.608579 0.050463166 -0.10363661 0.20517384 -0.02800442 -0.2519534 0.011689837 -0.36694506 -0.18280262 -0.0059610982 0.11245518 -0.33277085 0.049210805 0.0037450832 0.4781112 -0.35184428 -0.5352638 0.2922165 0.36864397 0.424061
云 -0.099871136 0.38559246 0.14376025 0.0311054 0.80811715 -0.7451458 0.5744409 0.27189428 -0.07090228 0.41529217 -0.40279347 -0.84467614 -0.51209724 -0.8504899 -0.22331615 0.000869228 -0.027370965 -1.2266322 -0.727507 0.36200777 -0.90922314 0.671772 -0.07436953 -0.5682153 0.8021922 -0.15116924 0.82347155 -0.041960794 -0.34453002 -0.33710805 0.39352113 0.010993581 -0.26442143 0.82897866 0.11327275 -0.26793447 0.088327 0.055171262 -0.6731451 0.41893923 0.14185448 0.051370848 -0.5142547 0.27339715 -0.75268567 0.47257337 -0.013408242 0.34903035 -0.64032644 0.47411227
孙 0.03249904 0.16153619 -0.036216024 -0.39871058 -0.44822022 -0.5603385 -0.43017983 0.03268216 0.8732857 -0.07480091 0.7716294 -0.5403273 -0.18546785 -0.35001433 0.044749252 -0.6314837 -0.39561296 -0.60022235 0.80885464 0.25772464 -0.1902986 0.2536203 -0.55068994 -0.5078258 -0.09175035 -0.22600068 -0.39636448 0.13220394 0.16190577 0.6963796 0.27011618 -0.22105151 0.42263502 0.6281105 0.21964484 0.62492764 0.8463277 -0.18990007 0.114611305 0.5461998 0.88355017 0.20538269 -0.034382924 -0.7177531 -0.32859987 0.5469122 0.64997196 -0.572578 -0.5649724 -0.5236563
