1352 100
， 0.01882579 0.006468769 0.0027188018 0.013850859 0.14226782 -0.009315369 -0.09667081 0.034661707 -0.043176666 0.0010137811 0.04440945 -0.14849554 0.18004027 0.032622207 0.04530362 0.085254766 -0.021608653 -0.06197456 0.116840884 0.05743556 0.08271591 -0.040814087 0.072482616 -0.016747229 -0.1722523 0.06325453 0.018826254 -0.060158413 -0.022829503 -0.12574336 -0.055268217 0.03302106 -0.04143623 0.114702106 0.025686681 -0.10009523 -0.05883699 0.0723101 -0.046052057 0.16050191 0.09262994 0.054662276 -0.12508675 0.06756685 0.03971359 0.10415744 -0.10176247 -0.021849064 0.07710342 -0.044690818 0.025397787 0.1835607 -0.012713832 -0.036951303 -0.003614321 -0.06490986 -0.05060264 0.019424476 -0.060727995 0.041410718 -0.06821623 0.08581448 -0.04386649 0.3548895 -0.039775845 0.039553877 -0.04891295 0.08647577 -0.021332104 0.0790912 -0.015804905 -0.032440264 -0.0334932 0.00046929266 -0.044870533 0.07100251 0.062419668 0.018290177 0.18707825 -0.08466854 0.06843906 -0.005686937 -0.04908276 0.18150067 -0.055773724 -0.007119268 -0.02930951 -0.0335165 0.069190346 -0.107902735 -0.0017923509 -0.0062051723 -0.020886108 -0.058157913 -0.089300305 0.04675069 0.024523063 0.07545739 0.053937666 -0.04311115
子 -0.13672373 -0.09795289 -0.029871171 -0.19277 0.00054123567 -0.16652231 0.04440937 -0.108514994 0.18913653 0.09023282 -0.18264611 0.22879699 0.0133532705 0.12658748 0.08415695 0.14537942 0.04210358 -0.1260138 0.09877424 -0.22194812 -0.06702687 0.066935815 -0.124945685 0.19477986 0.107973285 -0.16146064 -0.096813075 -0.032815095 0.024776489 0.0016545614 -0.19501281 0.05256867 1.183293e-05 -0.018903062 -0.13043201 -0.100686364 0.05999952 -0.008126088 0.09332881 -0.09091863 -0.0337967 -0.18865642 0.14993387 0.08494001 -0.070782736 0.025723917 0.039738916 -0.12546143 -0.06970698 0.09229946 -0.0103138555 0.030184627 0.12276485 0.23072135 0.04217245 -0.08111378 0.27466977 0.13489732 -0.0025061741 -0.14575723 0.1622005 0.024157675 -0.018780177 0.67931163 -0.19220223 -0.20436232 0.26836932 0.01919525 -0.010810343 0.033762563 0.020879911 -0.0060275043 -0.053493492 -0.059904892 -0.057920974 0.017723069 -0.12623228 0.11164575 -0.34943223 -0.0026878456 0.014224834 0.06722683 -0.052432343 -0.22956973 -0.08916163 -0.0755791 0.1692263 0.22455099 0.17431822 -0.22777162 0.15554309 0.007333306 0.03834711 -0.0066898386 -0.17641959 -0.09690433 -0.06637137 -0.09904018 -0.021108061 0.122668505
。 -0.03717379 0.035706718 -0.24689177 -0.034842968 0.12068682 -0.11842492 0.16511604 -0.31672078 -0.009967197 -0.08283515 -0.11801138 -0.025158301 0.04693577 0.22828403 0.13580823 0.021794727 0.082064316 -0.041259345 -0.22294497 -0.057808273 0.059041295 -0.05293912 0.12846152 0.00054927735 0.17380674 0.16975191 -0.032955863 0.052985005 -0.0007170866 0.006380907 0.10059128 -0.19828849 -0.05149041 -0.088453986 -0.05130779 -0.07135654 0.07142631 -0.0079941545 -0.31917894 -0.037952207 0.08109215 -0.17551622 -0.03498744 -0.04896286 -0.18449605 0.18644811 0.015708305 -0.1927208 0.006921662 -0.06901771 -0.13648552 -0.06007608 0.007195122 0.0059763696 -0.041348573 0.15786226 -0.17371601 -0.0029451635 -0.009559593 0.013610301 0.112027586 -0.039214354 0.12649377 0.5433514 0.099168435 0.28563625 0.12602736 -0.03470638 0.045561057 0.064550206 0.09496338 -0.1746972 0.07311404 -0.13589413 0.41284913 0.1937483 -0.08092272 -0.018127989 -0.20854586 0.05286582 -0.049974434 0.0064206882 0.09748319 -0.040469203 0.009370922 -0.21392816 -0.043468036 0.0039687622 -0.071247555 -0.06197141 0.1070312 0.4353799 0.13588393 -0.025063092 0.13331099 0.10572925 -0.08845093 0.036883608 0.040425982 0.20625912
： -0.04505143 -0.057730295 -0.09150191 0.030473234 -0.039732922 0.00762111 0.08661767 0.14489919 -0.11904668 0.013051108 0.10197741 0.3866019 0.077239595 -0.12401868 -0.22530681 -0.032612216 -0.119106196 0.02159528 0.059388947 0.22548696 -0.18523934 0.05031365 -0.0010102964 0.026325338 0.2634251 -0.0951577 0.17665581 -0.101810716 0.057643164 0.08226136 0.073392704 0.060870867 -0.09501804 -0.08408693 -0.10590533 -0.041669864 0.030812368 -0.13892539 -0.023087006 0.05000799 0.14419802 -0.03365273 0.34077683 0.029712347 0.26293886 -0.026330244 -0.13893332 0.04822848 0.039674193 -0.05795255 -0.102292225 -0.28031304 -0.054992143 -0.19102818 -0.21722417 0.026183903 -0.01033303 -0.1620245 -0.011478021 0.066422276 0.037650958 -0.04780565 0.015170001 0.63037366 -0.09399586 0.02073896 -0.07653218 0.11078437 -0.07650727 -0.05473375 -0.040729266 0.09200566 0.21336307 -0.15158448 -0.0068906806 0.085255384 0.16966347 -0.1797668 -0.35598874 0.060537163 0.026023993 0.028397787 0.014259676 0.0076097907 -0.14074105 -0.042835653 0.09587112 -0.056838267 -0.046607114 -0.013665423 -0.22198199 -0.15507625 0.2033861 0.02952129 0.095001884 -0.083756 0.04959306 0.011352278 0.085107245 0.13565502
曰 -0.031361587 0.0072380626 0.012285453 -0.03407677 -0.045928854 0.04855177 0.28352693 -0.017155565 -0.010731276 -0.20249274 0.21762754 0.3008923 -0.039644532 0.025268089 0.063716054 -0.10878181 0.12475946 0.09159632 0.12759545 0.06388282 0.07144593 -0.1056779 8.093783e-05 0.0740838 0.2109102 -0.26045072 0.14870256 -0.29465818 0.02015618 0.054083113 -0.12776354 0.21710292 -0.07490298 -0.19760609 0.03138539 -0.08255105 -0.032667752 -0.11484338 0.12982923 -0.11719923 0.024644807 0.0852346 0.2942824 0.042090315 0.24555255 0.110231176 0.06541709 0.16708232 -0.17425811 -0.07455059 -0.07762107 -0.21619287 0.076505214 -0.2533691 0.055277105 0.07919778 0.06206377 0.14276351 0.12239626 0.004791138 0.24018571 0.017185746 0.095837265 0.7940241 -0.13427089 0.027090345 0.03507784 0.03390011 -0.086799316 0.051715575 -0.10420245 0.10944473 -0.0178841 -0.0993056 0.01891254 0.09727492 0.106205925 -0.08912993 -0.40780568 0.07792988 -0.08609778 0.08515435 0.09278811 0.09938126 -0.017749019 -0.023973571 0.25742406 -0.16777992 0.14929919 -0.02048342 0.09949488 -0.18219231 -0.06261265 -0.06875773 -0.06290614 0.07443783 -0.03380652 0.118425384 0.11927073 0.010473037
之 0.013532389 -0.19996805 0.02766521 0.059197657 -0.09766884 -0.13243763 -0.092397705 0.010705799 0.0048776134 -0.024615198 0.0077617574 -0.21549046 -0.11389478 -0.114939615 0.014342572 0.16200304 -0.013283686 -0.14757694 0.13842124 0.07143841 0.24669455 0.03330903 0.04195491 -0.31180066 0.34682843 -0.09538826 0.05938925 0.046600904 0.024093345 -0.045711733 0.11587132 -0.018479908 0.053066988 0.06417466 0.13388863 0.18248375 0.045624286 -0.1299078 -0.07830288 -0.0073512523 -0.03363945 0.01061996 0.05791461 -0.17818652 -0.2152354 -0.289558 0.14447269 -0.13534594 -0.106895834 0.004947012 0.11110385 0.21396509 0.1956693 0.20399025 -0.16311617 0.059390392 -0.119203806 -0.12854493 0.10293697 -0.24315478 -0.39869016 0.15800151 -0.09204242 0.38517335 0.14441513 -0.038170885 -0.016977603 -0.029074233 -0.055532884 -0.26584503 0.1159048 -0.22137675 -0.00050375675 -0.05911706 -0.21948284 -0.08021038 0.15371934 0.039348457 -0.24998851 -0.24689615 -0.041450847 -0.22450171 -0.22047232 -0.0770247 0.15140611 0.12853304 -0.028130852 -0.2716458 0.05183289 -0.17155217 -0.048663363 -0.009873804 -0.040520724 -0.29792905 0.27922937 -0.111832626 -0.2495991 -0.032757644 -0.026516976 -0.018701414
不 0.02788701 0.42788556 0.18343526 -0.03806967 0.10863536 0.042209588 0.1730734 -0.14993252 -0.08242811 0.16980994 -0.020512084 -0.26084247 0.16727565 -0.0608769 -0.02655449 0.091799855 -0.13350002 0.43734005 -0.15096305 -0.016445134 0.029408535 -0.1189175 0.04638929 0.017983131 0.007129955 -0.19396879 -0.21322434 0.18556839 0.05280724 -0.3861024 0.098593935 -0.022925276 0.04293479 -0.0016789064 0.11758895 0.3118385 -0.0011678818 -0.21345963 -0.10403789 -0.14539373 0.11149007 0.03786114 -0.19661516 0.09443745 0.038273774 -0.33741117 0.08823548 -0.095295 1.6792086e-05 -0.00023776547 -0.14308025 -0.06229617 -0.116418555 0.24205753 -0.0805238 0.13047858 0.048021283 -0.05357839 -0.1417647 -0.31009123 0.10696754 0.0141418595 0.007209868 0.5638557 0.021491537 0.00757577 0.1115301 -0.0014141228 0.25733876 0.052200407 -0.08219181 -0.13642965 0.0011129924 0.094302304 -0.16204461 -0.11769238 -0.017623153 -0.12976794 0.27826917 0.29389396 -0.1321733 0.23511449 -0.16085391 -0.20747392 -0.28889424 0.18808185 0.006114898 -0.03389397 -0.08141777 0.10202154 -0.037124846 -0.002137243 -0.17442411 0.17167962 -0.063376166 0.01808934 -0.28540167 0.17379425 0.009801033 0.07837251
也 -0.0024723574 -0.067586794 -0.16575 -0.2925713 -0.2644478 -0.19009623 0.10454948 0.03578811 -0.15129413 -0.2281611 -0.0091459 0.1388865 -0.120947786 0.17931475 0.0061446964 -0.10380214 0.019126 0.047035955 0.07826452 -0.02906012 0.24519417 -0.008126354 0.10627383 0.04621621 -0.11735626 0.14380085 -0.2549626 0.12380526 0.08394098 -0.033491164 0.059831433 -0.19319163 0.18092383 0.20088616 0.07953253 -0.24447392 -0.00017831882 -0.108348854 0.118686885 0.30625066 -0.1388596 0.1428465 0.2909089 0.0887286 -0.2659507 -0.24835229 0.15271369 -0.0190288 -0.06405225 0.18021794 -0.004956055 0.10338474 0.16231239 -0.10662411 0.041826792 0.14686124 0.22662617 0.14972562 -0.21291935 -0.024130074 0.015174356 -0.11595878 0.030606357 0.6032444 -0.15404063 0.4364356 -0.18706816 -0.08211266 0.037874095 -0.15537773 0.107302815 0.19689098 0.06446741 -0.1721973 0.05626353 -0.038769916 -0.033895656 0.04332711 -0.04280128 -0.06286657 0.106842175 0.017249737 -0.22038478 -0.076969184 -0.16640612 0.31988868 -0.17195569 -0.21182266 -0.11609078 0.40141514 -0.14549752 0.07958247 0.018890306 0.2751715 -0.067099385 0.3890426 0.09686613 -0.05993776 0.07118132 -0.16168924
而 0.099552214 0.17297406 -0.1419359 0.106108986 0.0055564125 -0.08242448 0.035208523 -0.30825007 -0.15299538 -0.04794478 -0.12268674 -0.5351716 -0.08067374 -0.18807471 -0.10237099 -0.14148198 -0.012662383 0.33892348 0.11503372 0.054420587 0.10613597 0.54071856 -0.1825029 -0.07378319 -0.20546654 -0.084664 0.053553153 -0.17469178 -0.15554632 -0.13125546 0.2521431 -0.0087350495 0.20256561 0.09082551 0.16617031 0.06262337 -0.1340573 -0.0036826453 -0.05819995 0.3872912 -0.19220562 -0.10205612 -0.52762836 -0.03396555 0.048780765 0.08119959 -0.15601191 0.16953784 0.08899427 0.015760556 -0.122648284 -0.23493351 0.2863827 0.04706033 -0.027634608 -0.05009248 0.053470567 0.17680526 -0.018247407 0.21993999 0.22204663 -0.2822984 0.065995425 0.62545204 -0.05176418 -0.26126513 0.40478402 -0.2071319 0.1994598 -0.26629758 0.019399995 0.087804526 0.022638017 0.14324583 0.2779599 -0.091286585 0.06874748 0.23548323 0.21325305 0.07561134 0.082822435 -0.19726457 -0.09606069 -0.45597506 -0.011562258 -0.28445888 -0.040945668 0.20787197 0.08289775 -0.04523823 0.057390023 -0.3095915 -0.08455507 0.001256243 -0.023483377 -0.27443627 0.04305655 -0.29790816 -0.05280682 -0.029349307
？ -0.08677828 -0.072220795 -0.048748285 0.06940492 0.3221817 0.12702593 -0.14078605 -0.5147935 0.27539068 -0.039671987 -0.46875936 0.21193905 -0.10566493 0.15288858 -0.070413664 -0.36344165 -0.2005467 -0.046429418 -0.17194913 -0.39102948 0.1139804 0.29081613 -0.20929351 0.102846675 -0.26671615 -0.28905076 -0.086553 -0.37087467 0.07514959 -0.15876265 0.07115342 0.012625927 0.12764971 -0.29838672 0.16291915 -0.35141078 -0.1381413 -0.010408146 0.028415337 -0.02535771 0.13577685 -0.4956907 0.35914755 -0.045506913 0.0799567 0.40668812 0.023241341 0.11422737 -0.113719165 -0.54847926 -0.13971192 -0.3202207 -0.20921525 0.21487623 0.0010111032 -0.2505873 -0.0641097 -0.046622306 -0.072739854 -0.15112232 -0.15857583 0.298939 0.025680903 0.64093167 -0.009814091 -0.11983645 0.028683614 -0.20789789 0.045126278 0.20197599 -0.27014038 -0.16872364 0.21444838 -0.5903487 -0.0748785 -0.015605146 0.122482665 0.19357467 0.0058770166 -0.19143604 -0.11255611 -0.03745893 -0.44647595 0.048331406 0.31993842 -0.107698426 -0.21906671 -0.32538515 -0.15443519 0.27882856 -0.1255194 -0.11366097 0.070550226 -0.18469863 -0.10689782 -0.22315449 -0.001834842 0.13958305 -0.07098633 -0.021352831
其 -0.19815746 -0.055636458 0.15006743 -0.066321254 0.10271471 0.08563478 0.20199968 0.2912718 -0.26124504 -0.37196967 0.10512478 -0.48946628 -0.29903033 -0.10454023 0.18791907 -0.10996862 -0.12559782 0.2620881 -0.044963997 0.1125201 -0.002761502 -0.15045127 -0.12095644 -0.09452412 -0.27402908 -0.049533676 -0.041348755 -0.10061744 -0.07588942 0.4247329 -0.028520107 -0.015231809 0.044933736 -0.11505941 0.6436451 -0.14169212 -0.039006907 0.0704901 -0.055148736 -0.099297896 -0.12114413 -0.31231257 0.2410668 -0.05702423 -0.06063029 -0.20373392 0.17929927 0.000237876 0.06078328 0.09591904 0.04619011 0.0070438962 -0.10763353 0.004367907 -0.22161798 0.13863592 -0.0044494593 -0.13320076 0.29373458 0.23571892 -0.0774902 0.0045257634 -0.24874808 0.47469395 -0.4647138 -0.13618259 -0.005747324 -0.17513105 -0.42462555 -0.012241196 -0.059079047 -0.30117804 -0.2788635 0.21315703 0.12449303 -0.008409069 0.10057077 0.01804516 -0.04433538 0.27409214 0.13892567 -0.07354691 -0.18394038 -0.16171661 0.045522183 0.06702092 -0.046194293 -0.093410954 0.058550715 -0.05970706 -0.031449698 0.15699153 -0.38257697 -0.06988472 -0.35838085 -0.071413085 0.087533936 -0.29630554 -0.09432474 -0.02187299
人 -0.046386495 -0.13228491 0.0126359835 0.061883025 -0.28025424 -0.08650955 -0.21335207 -0.15495679 0.09877788 -0.053209513 0.08233513 -0.102092475 -0.0817106 -0.17755249 0.021704134 0.24674557 0.3838414 0.1867418 0.41928834 0.03363603 -0.23508729 -0.2849374 -0.17296897 0.2781384 -0.120273806 0.1845313 -0.12197537 0.4528104 0.0527811 -0.15255785 -0.0085230665 0.29174644 0.0037415684 -0.3734115 0.20031705 -0.061840847 0.3800943 0.065822445 0.5026549 -0.13597931 -0.15821482 -0.029435627 -0.5382447 -0.13270724 0.28010365 -0.05629117 0.35075942 0.059489585 0.045031294 0.14923863 0.12873125 -0.30384806 -0.18386346 -0.37379098 0.2578573 -0.06679412 0.2910906 -0.2839694 -0.24870956 -0.22843601 -0.19708668 0.06345353 -0.2817347 0.76836574 -0.014859041 -0.18074845 -0.193682 -0.6548859 0.22972031 0.24288197 -0.1883075 -0.07921811 0.07630097 0.19244118 -0.124188066 0.032769945 0.05891071 0.035688944 0.027845133 -0.16978516 -0.065363355 -0.023192048 0.03053582 -0.0553776 0.67047566 0.0046423087 0.03846081 -0.24916394 -0.018404579 -0.030345906 0.41205037 0.42048362 0.44235033 0.13465486 -0.1882822 0.23993084 0.11244917 -0.05705938 -0.0031706218 -0.2502508
者 0.06140622 0.16551977 0.08092382 0.091840394 -0.10032607 0.33875272 0.009465946 -0.16691908 0.15154415 -0.07454805 0.07141643 0.02478432 -0.14924344 0.41457987 -0.2938504 -0.44350514 0.06606755 0.019695735 0.100791104 0.03107815 0.056546718 0.06538835 -0.10464017 0.037591226 -0.2141614 -0.23945501 -0.07104785 0.14934394 -0.37310398 0.18489006 -0.14683764 -0.14328715 0.37013727 -0.034393463 0.09868894 0.08717679 -0.24287754 -0.27063918 0.042446345 0.25186384 -0.15513815 -0.44741875 0.19479144 0.032653682 0.20225582 0.029693894 0.044678524 -0.01461929 0.4666549 0.0068433606 -0.039280526 0.3221937 0.10901727 -0.059849657 -0.0059547615 0.10797956 -0.032021936 0.13761346 -0.05349304 -0.041037783 -0.33274075 0.033092316 -0.09340637 0.8830158 -0.26821604 -0.129089 -0.27660638 -0.20183566 -0.04403454 0.10879986 0.44102892 -0.19254355 -0.22275059 -0.028917843 -0.19323549 -0.07402979 0.05947598 -0.517922 0.4059907 -0.0029012137 -0.03391411 -0.16433895 0.28525344 -0.13965538 0.1189403 -0.0013615284 0.3068458 -0.045602437 -0.11127468 0.417578 -0.21858934 0.18441658 0.21133503 -0.036111064 0.34523425 0.15739037 -0.22436027 -0.36328357 0.14161791 0.272736
以 -0.15954958 -0.18644144 0.10159644 0.028466053 -0.116837434 -0.10852351 -0.41235268 0.10097744 -0.021347053 -0.0916605 0.23572902 -0.32192448 0.004345294 -0.54897517 -0.23826718 0.0367999 0.11311038 -0.4734139 0.17770654 0.15528807 0.005605229 -0.2331867 0.09510389 0.073691756 0.045495372 -0.16780092 0.22141242 0.13804851 -0.432507 0.32277125 -0.057754878 -0.039240584 0.16657099 0.06015842 0.0062232935 0.4920937 -0.09583205 0.32081535 0.023270156 -0.18596114 -0.41192645 0.0737606 0.21330787 0.180892 0.13106324 0.07628835 -0.10607867 -0.0069044046 -0.2595786 -0.1294853 -0.088792995 -0.17043188 -0.4777345 0.26800743 0.5540587 0.18121532 -0.06943913 0.105245106 0.15861435 -0.018415656 -0.12529919 0.26701608 0.05201758 0.77947193 -0.01182469 0.06363242 0.44749063 -0.06578983 0.13602398 -0.21688859 -0.026456116 -0.08924588 0.16332702 -0.11992649 0.0003632408 -0.0054132133 -0.41583633 0.09951105 -0.034716867 0.14168487 -0.13279453 -0.018180631 0.22533149 -0.26291353 -0.25557002 0.07278854 0.25154164 0.035373047 -0.3538017 0.2092807 -0.14765625 0.09215324 -0.08597215 0.25657257 0.12303256 -0.044438146 0.32834938 0.3709019 0.12470085 -0.17568399
有 0.2923709 -0.32749313 -0.09205946 -0.030676072 0.2554278 0.5305046 0.24841665 -0.0015743158 0.0896851 0.1307248 -0.13830861 -0.06693497 -0.12795149 -0.44438756 -0.31237164 0.08786051 -0.04105697 0.019875567 0.189651 -0.09466605 0.13672055 -0.19563231 -0.13106868 -0.11464228 0.15678905 0.3162932 0.013970013 0.076427 -0.38684845 -0.10245846 -0.017653763 0.33375248 0.061221175 -0.46359247 -0.2027171 -0.08087906 0.28291485 0.25395912 0.090364836 -0.09912563 0.13683532 0.17015694 0.14757179 0.43867323 0.03145726 -0.17001662 0.27128315 0.08883355 0.38259962 -0.4366679 -0.24032865 -0.10889056 0.21374413 -0.13414922 0.42081457 0.11909575 -0.0026791405 -0.03446938 0.26684844 0.1913374 0.058642127 -0.00045998822 -0.11457601 0.4560468 0.2771042 -0.103096075 -0.23198035 0.2547537 -0.17687535 0.0024601284 0.18230893 0.08359583 0.046241272 -0.2286746 0.045900766 -0.243279 -0.10220365 -0.12211825 0.13997287 -0.22704136 -0.005242348 0.06895905 -0.25761506 -0.2570899 0.14135408 0.46602026 -0.033246353 0.3510536 -0.20006302 -0.10031597 -0.113270424 0.19618307 0.31566548 -0.14097993 0.29635206 -0.04725222 -0.19782954 0.05380982 -0.3602382 0.28202003
于 -0.26112187 0.033334896 0.11328369 0.108304724 0.14237134 0.38103417 -0.19438794 -0.19772278 0.22633983 -0.46637666 0.16804822 -0.3535665 -0.18805544 0.015742755 0.29725266 0.4988604 0.254605 -0.16537556 -0.5181848 -0.046616424 0.09827472 0.074980736 -0.4555046 -0.16543232 0.27489772 0.2896311 0.034380406 0.10534248 0.24684104 -0.012386541 -0.17922308 -0.15403791 -0.1463819 0.036708456 0.10040741 0.004326799 -0.2178829 0.5040072 0.40038863 0.4549857 -0.40618548 -0.09114979 -0.19550726 0.145367 0.18966757 -0.008575864 0.12368055 0.20901498 -0.34980613 0.10657643 0.15850833 -0.15450308 0.15411025 -0.067550756 0.0644074 -0.08744327 -0.11871448 -0.034193914 -0.24056247 0.29590958 0.06737127 0.11805 0.34931684 0.4939858 0.104703 0.014607366 0.021034783 0.17948958 -0.2398497 -0.3952048 0.0011689021 -0.25697762 -0.1294684 -0.16581714 -0.18158087 0.23994824 -0.31565675 -0.16640836 -0.081079856 -0.09375047 0.19090924 -0.06394684 -0.44563267 0.08808685 0.0073996424 0.011989086 0.55403996 0.5064433 0.058374967 0.37944633 -0.22044963 -0.10218938 0.2440892 0.0031484729 0.014046076 0.17963326 -0.29901534 0.056976844 -0.04667458 -0.044793323
矣 0.075680114 -0.0047058226 -0.133933 0.2013078 -0.1520543 -0.364325 0.271389 0.11991571 -0.19941308 0.2751654 0.074954495 -0.2161307 0.043225057 0.10762159 -0.08349203 0.091655225 0.099099375 0.12192371 -0.21916012 -0.33869094 -0.27573448 -0.22517283 -0.09308444 -0.0029205785 0.20394476 -0.07700303 -0.25718382 -0.1582073 -0.24841635 0.26253727 0.12663244 -0.20361184 -0.59459966 -0.029052846 0.12421147 0.25447413 -0.055457935 0.25866643 -0.023490878 0.022731302 0.09170968 -0.2834472 0.46384472 0.06538377 -0.39486763 0.1445654 -0.04562868 0.16479371 0.24427053 0.16126354 0.033911716 -0.24989337 0.29732743 0.017336035 0.12348376 -0.32672578 -0.32868564 0.21296446 0.07741713 -0.1560383 -0.03625595 0.080455154 0.3073792 0.6555021 -0.41380662 -0.07532569 -0.50066864 -0.031604126 -0.059709083 -0.2904482 -0.2639506 0.34109017 -0.018177686 -0.13104577 -0.29006207 0.47948796 -0.101101056 -0.087524965 -0.05331805 -0.027290955 0.12427117 -0.13241318 -0.01657372 0.123295635 0.61174977 0.015666915 -0.22398615 0.34064472 -0.18423077 -0.37999746 0.103587896 0.053402547 0.28801736 0.4775443 0.035584565 0.21200553 0.18767177 0.2359344 0.043242197 0.28689513
为 -0.13266787 -0.06373581 0.5326169 0.20506755 0.14160755 0.1720158 -0.30335778 -0.12105428 0.051543653 0.27237228 -0.118162625 0.00927031 0.13899176 0.149181 0.091826394 0.09533578 0.024046998 -0.026570922 -0.3902911 0.1480684 -0.019043125 -0.05806766 0.29843438 -0.20068927 -0.22905247 0.30231053 -0.049886983 0.25238407 -0.26296437 -0.3061636 -0.19197462 -0.005456228 0.42166486 0.29066017 0.17126721 0.015858822 0.24141273 0.112511225 -0.06464676 -0.45552084 0.088975914 0.09573058 0.40177768 -0.07575412 0.29861045 0.34802392 0.07508095 0.20652348 0.15159385 -0.08665461 -0.04439867 -0.040282663 0.16238214 -0.15694629 0.5019968 -0.12399092 0.274025 -0.2742898 0.002650088 0.25185966 -0.18312101 -0.10148911 0.43827805 0.65525156 -0.27946797 -0.15412852 -0.3512182 0.031416073 0.4575095 -0.5656476 0.33318695 -0.1538738 0.14667709 -0.04089252 -0.41731718 -0.28864166 0.14584346 -0.20857902 -0.26954576 0.052461427 0.14481416 0.136621 0.04726797 -0.56511533 -0.2632874 0.019317621 0.18300489 -0.43442395 0.32117403 0.13723506 0.189157 0.045798074 0.05510462 -0.28263536 0.3192118 0.11701618 0.044308845 -0.07744369 0.051492658 0.17340007
君 -0.12486199 -0.14962727 -0.099614516 -0.035606954 0.19786645 -0.15432684 -0.08317258 0.14645892 0.34464717 0.38882917 0.03213659 0.24126063 -0.30992177 0.19377771 -0.082545094 0.015475009 -0.110776685 0.1748788 -0.075838335 0.057146635 0.1847244 -0.08157408 -0.25620845 0.2050654 -0.14233086 0.11970782 0.017367056 0.19614218 0.14931725 0.49411628 -0.37026024 0.0660789 0.14782661 0.26949647 -0.013655149 0.50174093 0.3372557 0.10745216 -0.4191418 -0.33336934 0.13207129 0.13718751 0.14567953 0.74562657 -0.22929189 -0.1511743 0.34078583 -0.072699845 0.13418424 0.04501501 0.08703824 0.19763635 0.092499174 -0.26225558 -0.15828957 -0.10409426 0.07198317 -0.41258436 -0.25667733 -0.19196194 0.114039995 -0.26802808 -0.73915195 0.73013985 0.46727255 0.22250772 0.42531025 -0.31080437 0.11939762 -0.20803338 -0.10701235 0.26996928 0.054490164 0.101096444 0.0009061705 0.19393548 0.20005757 0.2370178 -0.19927056 0.014374421 0.3073496 0.11244744 0.10337822 -0.17955673 -0.00070246856 -0.14257967 0.055371914 -0.18862703 0.06395349 0.16399696 0.098190784 -0.049328074 0.12044043 -0.27266562 -0.44398803 0.017347561 -0.006758144 -0.121789455 0.12332507 -0.10684968
乎 0.30132082 -0.70729965 -0.041868832 0.22662859 0.224801 0.013654282 -0.094011515 0.031062838 0.09628265 0.08435613 -0.10624576 -0.3070319 0.2569533 0.05098156 0.0802574 -0.07243435 -0.23256648 0.0016060094 -0.033849303 0.02029169 0.027688323 0.4108844 -0.23836309 0.08307215 -0.16507639 0.25771818 -0.47455525 0.035986837 0.100317396 -0.11523504 -0.0850621 0.5143477 -0.12227094 -0.38486734 0.34160185 -0.046391025 -0.21938944 0.08272135 0.3183367 -0.18958654 -0.06041612 -0.45097908 0.201254 -0.21400441 0.33732712 0.35789528 -0.13970183 -0.11524808 -0.32050595 -0.03351413 -0.1624759 0.16599615 0.4984527 -0.20458388 -0.3313462 0.008451974 -0.09629312 0.20062308 -0.24345541 -0.14849421 -0.30755427 -0.2898373 0.13413866 0.4925981 -0.05489931 -0.26738918 0.004682486 0.033983927 -0.003272266 0.011426889 0.026922645 0.61664885 0.31497929 -0.5997261 -0.14390978 0.0049202647 -0.059474595 -0.45584288 -0.21629524 0.41332057 -0.2844842 0.026991744 -0.15676191 -0.25270987 0.2895916 0.44849867 0.0063830023 0.087698855 0.15925123 0.08240786 -0.101284154 0.03101828 -0.087922305 0.008445839 -0.22938718 -0.12738353 0.15632913 0.2780681 0.35858008 0.040137194
可 0.35563216 0.12797228 0.16863358 -0.04160019 -0.051137675 -0.46909186 0.094654836 -0.2963243 -0.027817558 0.3368024 -0.025365891 -0.5133671 0.021000521 -0.2952044 0.3006225 -0.3653908 0.35591406 -0.09160641 -0.08353584 -0.23420617 -0.0853836 0.73558724 -0.2544956 -0.34131008 -0.6019473 -0.24820487 0.1840965 0.18383726 0.19274469 -0.14002788 0.13585037 -0.12443507 0.036795467 -0.13095555 0.18892838 0.28262997 0.123232126 0.095904544 -0.06345788 0.18303004 -0.045894578 0.24178421 0.43113002 0.133438 -0.079846 -0.15017729 -0.16651942 -0.1845739 0.22555813 0.009833074 -0.16639556 -0.29448485 -0.23697075 -0.30863613 0.22348204 0.2584077 -0.21963684 0.1097612 -0.048885625 -0.38096294 -0.06749204 0.12479728 -0.09336732 0.6584223 -0.071213484 0.10100905 0.34363446 -0.05580908 -0.16814423 0.1761076 0.2569581 -0.099099465 -0.080812566 0.16943793 -0.05235157 0.008805626 -0.11320672 0.12131874 -0.23222035 0.14751317 0.18693444 0.15204208 -0.32408583 0.29026562 -0.10912766 0.6098945 -0.10621117 0.19751783 0.045793295 0.24244295 0.35307106 0.16305579 0.121343896 0.034061298 0.35449943 0.37001738 0.37148598 0.15079384 -0.28991568 0.106690004
如 -0.2581745 0.15322612 0.24320911 -0.08355253 -0.1081075 0.025738213 -0.051082417 0.41193572 -0.038162597 0.30903643 -0.22724596 -0.15948735 0.34067434 0.2742325 -0.0016859231 0.13417083 -0.1336015 0.19249286 0.09445938 0.095763475 -0.12169887 0.01250991 0.094635315 -0.845385 -0.04468222 -0.22260405 0.06657772 -0.15465257 0.18715382 -0.09536987 -0.24214594 -0.33195347 0.050975487 -0.14765868 0.11855359 0.23906513 -0.40086982 0.23740524 0.0014941592 0.20072193 0.035237838 0.0700681 0.46097416 -0.148506 0.30569804 -0.11699234 -0.28911045 -0.022448914 -0.27795643 0.34804654 0.6988181 -0.36726174 -0.014914395 -0.14819634 0.10944242 -0.22391872 0.084833674 0.07245462 -0.17709044 0.01248621 0.17408666 -0.22259822 0.002989929 0.61855173 -0.018310988 0.2750511 0.33058333 -0.06794846 0.0032784129 -0.02115771 -0.01985943 -0.18784069 -0.23128177 0.11171731 0.03425227 -0.18064703 -0.29788828 0.09919967 -0.16219072 -0.06895596 -0.10729602 -0.04301663 0.5277196 -0.4818933 0.5901804 0.34459758 -0.68586177 -0.056710284 0.03167038 0.1141616 0.04767033 -0.022457229 -0.112657376 0.21844205 -0.18329987 0.47075438 -0.0143337175 -0.029472504 -0.66134745 -0.5483922
与 0.77029836 0.114543475 0.18810742 0.21895981 0.18346786 0.11467644 -0.7389484 0.37592563 0.48648936 -0.4607779 -0.30043265 -0.16887231 -0.260731 0.27891883 -0.21444906 0.11429396 -0.31241786 -0.15983915 0.07866714 -0.1911203 -0.51326007 0.034306098 -0.26499602 0.110738784 -0.3207277 -0.03913736 0.4171411 0.03707965 0.20596386 -0.45827654 0.42095387 0.05307011 0.17971635 -0.14327525 0.13058065 0.2482657 0.3473566 -0.057210665 -0.272591 0.14873923 0.17907704 -0.043704126 0.50771517 -0.47271958 0.13445057 -0.2209975 0.13713793 0.42933312 -0.069281906 0.39241037 0.30397752 0.0862217 0.17591648 -0.09970901 -0.072280996 -0.052856337 0.11295422 -0.13206808 0.18947525 0.31502593 0.09194234 -0.065907754 0.08099184 0.7442823 -0.19168463 -0.31582192 -0.08345148 -0.2717941 -0.14702411 0.06649387 0.28425586 -0.23146644 -0.088194184 -0.0014594747 0.09800017 0.13068247 0.1845579 0.46731624 -0.3238235 -0.16464812 0.030716438 0.13506663 0.06964627 0.25930744 -0.3361202 0.09488169 -0.4153008 0.0046770563 -0.13953656 0.11052259 -0.1500157 0.19087313 0.04956232 0.09060581 0.30070773 0.13241579 -0.017521555 0.19392739 -0.067778446 -0.06365205
； 0.010577441 0.20955461 0.11021841 -0.036389966 0.8151802 -0.029495833 -0.34986037 0.117109306 -0.052091885 -0.029147688 0.7539922 -0.363528 0.14682588 -0.17348042 0.45297134 -0.39688143 -0.15425353 -0.02308082 -0.22432923 -0.26386443 0.04917229 -0.22728744 0.36648688 0.24373391 0.046918217 0.41603836 -0.16452637 -0.20342122 -0.095875196 0.19536673 -0.061496455 0.09422432 0.079375744 0.2721401 0.06343766 -0.20847273 -0.15987901 -0.2037504 -0.30881062 0.05753623 -0.13002354 -0.2041571 -0.060689323 -0.34459278 -0.2618245 -0.15003598 -0.09160263 -0.26453546 -0.27919513 -0.08041375 0.44890016 0.20781682 -0.3788908 0.092499346 -0.09636551 0.24996391 0.19276255 0.19072472 -0.24103943 -0.14196171 -0.051620133 -0.33220485 -0.14395183 0.61272484 -0.009372039 -0.0022503694 0.031567425 -0.049380112 0.29702157 0.6200681 -0.66724306 0.14245649 -0.32937357 0.3505533 0.5771731 -0.094361186 0.8635665 -0.01907881 0.27733183 -0.105570994 -0.024378443 -0.14087753 -0.2118432 0.040350042 -0.095858015 0.15960337 0.1762289 0.045453236 0.18637192 -0.24888054 -0.5508782 0.2403441 0.82687116 -0.08376915 0.25450113 0.026683116 -0.094423786 -0.07412229 -0.13508019 -0.39214528
言 0.08913666 0.09548761 -0.07197469 -0.22259544 -0.07227139 0.18319276 -0.05097359 0.18549402 -0.30454215 -0.044726405 -0.15379684 -0.0794062 -0.17416911 -0.23509035 -0.10049349 -0.4940532 -0.18993644 -0.2653548 -0.22902635 0.19945559 -0.058989745 -0.55733824 -0.07080747 -0.24133025 -0.22455913 0.24663547 -0.22548737 0.17447236 -0.36465126 0.018994385 0.32148194 -0.0625191 0.48879695 -0.20124927 -0.05948331 0.026267888 0.27779028 0.160438 -0.41166654 0.16825087 0.42269617 -0.22134124 0.009576701 -0.40811336 0.3015444 -0.044301495 -0.000903607 -0.18028805 -0.2630746 0.46673167 0.10759991 -0.09381577 0.042462524 0.42934144 0.4517052 -0.4315227 0.20289297 0.2952367 -0.025816593 0.48036423 -0.48168105 0.1397119 0.01736044 0.8257185 0.43615696 -0.17257379 -0.07872356 0.15633683 -0.21715161 0.31850496 -0.41377586 0.199944 0.065579735 0.18904407 -0.22755498 0.33494264 0.3064187 -0.07403255 -0.37707844 0.36529392 -0.2179013 0.2101275 -0.13707888 0.42242938 -0.020976719 0.48049265 -0.20657042 0.15017544 -0.2514519 0.18881986 0.30236903 -0.15530771 0.08234351 0.2946427 -0.13770008 -0.027067844 0.11252879 -0.22409263 0.17402084 0.3472297
无 -0.023530971 -0.0089800395 -0.015935713 -0.1233791 0.2521751 0.08782316 -0.06868818 0.3761191 -0.012216049 -0.23695229 0.1155456 -0.5589671 -0.14194044 0.26262578 0.006408981 -0.23815604 0.06604128 -0.14156829 0.047470994 0.27824968 -0.056053773 -0.04468947 0.10629955 -0.23379381 -0.27887124 0.064088784 -0.50480855 -0.467137 -0.07011685 -0.28311634 -0.040697236 -0.10911466 0.009040067 -0.022750262 -0.54139495 0.042751707 0.18297105 -0.28246436 0.12533566 0.053679317 0.24753009 0.2675056 0.11280741 0.1085957 -0.11023397 -0.44626126 0.16666514 -0.28512216 -0.1341937 -0.18689573 -0.15975007 -0.4095124 -0.059812233 0.17520054 0.30144173 -0.48475537 0.3149325 0.18532309 0.50629514 -0.09623444 0.06729757 -0.2910516 -0.051675323 0.57644445 -0.297602 0.3106574 0.22688444 0.013055694 0.20542507 -0.23843633 0.17863487 0.50419575 0.40394863 -0.03168036 -0.19827917 -0.32952523 0.20727345 -0.34657958 0.24240145 -0.02808054 -0.19840203 -0.031386286 -0.3881472 -0.049925186 0.08485428 0.18991691 0.33338976 0.22417603 0.11495422 -0.5517877 0.33811614 0.18722035 -0.20367265 -0.122709416 -0.25693846 0.07184322 0.010456725 -0.08334094 0.17972645 0.18588966
则 -0.09931701 0.14519595 -0.38200572 0.38711622 -0.057112604 0.1747733 0.27944353 -0.13395652 0.11480646 0.010391067 -0.33072022 -0.5977142 -0.024371004 0.25135145 -0.46518278 -0.038474742 -0.21777931 0.03396427 0.29383206 -0.23596354 0.04341622 -0.47631085 0.19266234 -0.056571975 -0.19095142 0.3814369 0.09053585 -0.050027773 0.2331216 -0.20869072 -0.13833393 0.27516934 -0.18119828 -0.13584264 -0.09376945 0.05554611 -0.053586178 -0.32911322 -0.115638845 -0.042943463 -0.22132184 0.21674547 0.08423135 0.24860619 -0.17700702 0.07917674 -0.3321017 0.16798133 0.13253722 -0.12632051 0.4729951 0.31319198 -0.17061181 0.028104344 0.1872305 -0.10402051 0.43183956 -0.55076057 -0.17445861 0.24437897 -0.64877856 0.18891701 0.41122466 0.44255134 -0.29867652 0.26317438 0.5912582 0.09949206 0.050872166 0.0044608084 0.20368576 0.40652737 -0.33246997 0.41738412 -0.08265999 -0.29426986 -0.072923586 0.2413561 -0.082544945 0.29868463 -0.18963107 -0.35978702 -0.16956659 0.15522072 0.14105828 -0.15493743 -0.027326485 0.2804659 -0.124021016 0.43808773 0.42537206 0.29674846 0.11834585 0.22548243 0.23627369 -0.60955983 0.44209048 0.052155722 0.22414124 0.1606919
！ -0.1048356 -0.10138776 0.4465258 0.27084014 0.42837265 0.009644635 0.078382336 0.16188227 0.32989663 0.12427882 -0.433181 0.15198115 0.42953232 -0.5816258 0.1789836 -0.04016751 0.131216 0.08034884 -0.39358667 -0.44580472 -0.1091527 -0.38526952 -0.33430403 -0.061316065 -0.096474305 0.6352263 0.15302432 0.04797052 0.022846915 0.10673448 0.2923185 0.20282608 0.24162981 -0.3760459 0.13912979 -0.29218683 0.07983975 -0.46336377 -0.3922836 0.3124644 0.11300738 -0.33761358 0.24303578 0.14780846 -0.011123894 -0.045634642 0.17695877 0.047969814 -0.15412743 -0.108634986 -0.44805148 -0.08039512 0.004025253 -0.13763778 0.27681622 -0.15258065 0.2304183 0.10418905 0.15040503 -0.3228542 0.03842631 -0.5287304 0.122019894 0.67185616 0.3395069 0.19779514 0.35368788 0.34918866 -0.025502495 -0.13973947 0.06622828 -0.04315583 -0.22821893 -0.22433478 0.30482632 -0.0062057814 0.009754141 -0.037489824 -0.43465635 -0.35305786 0.23302348 0.0112098595 -0.028736606 0.15101479 0.60127527 0.16691521 0.0041461624 -0.22447635 0.08352861 0.39561215 -0.5432664 0.1292467 -0.36221755 -0.085763395 -0.5558223 -0.0021122843 -0.0020670122 -0.23396099 0.2726527 -0.3615095
问 -0.12711021 0.050395537 -0.23231114 0.27978584 -0.3562109 0.5167225 0.117805354 0.15429817 0.17142954 -0.009210591 -0.32299957 -0.20528476 0.11647418 -0.4373151 0.10920498 0.24634522 -0.08125234 -0.17819197 -0.24453439 0.015737295 -0.13020994 -0.15372814 0.21192563 0.371535 0.20464318 0.10563849 0.04017791 0.15515596 -0.27885267 -0.4516069 -0.053565208 -0.16397043 -0.026129466 -0.18469977 -0.22184888 -0.59208065 0.007594105 0.19627531 0.26388907 -0.2948013 -0.18827589 0.04446703 0.2506115 0.21225475 0.20169832 0.15977459 0.31026357 0.42577627 -0.07493837 0.16052218 -0.086610034 -0.097556144 0.7384585 -0.13395265 0.036187775 -0.062116496 0.044120982 0.040121827 0.056675788 0.08107457 -0.12368135 0.30969924 0.009090782 0.6351178 -0.24313447 0.20016694 -0.13157734 0.18040194 0.10889057 0.052386217 -0.2768667 0.23277248 0.71058583 0.683494 0.09159036 -0.013982449 -0.015873766 0.37441137 -0.9100082 -0.20142923 0.5674454 -0.020550031 -0.3082882 -0.29010373 -0.30552053 -0.06163207 -0.34606543 -0.26560456 -0.085429005 0.07878935 -0.009894834 0.037385095 -0.07113759 -0.32962888 0.08879235 0.08133175 -0.53106767 -0.19749476 -0.10354667 -0.05525652
知 0.22771196 0.024236025 0.013965725 0.41047364 -0.05586919 0.25249386 -0.043200552 -0.34192988 0.24318852 0.12507758 0.13058975 -0.041100122 0.06161978 -0.15731929 0.17815621 0.2184366 0.08698684 0.0731504 0.5198485 0.4094268 -0.37116328 0.09327926 -0.075853735 -0.04626093 -0.07459663 -0.24688621 0.0050982363 0.20708263 -0.21562731 -0.5283276 -0.20545654 -0.2682408 0.0055456776 -0.17661949 -0.19891809 0.39687824 0.27423105 0.16019806 -0.6029202 0.016757978 0.11378824 -0.054619867 0.27521956 -0.35531887 0.35541558 -0.38719404 -0.030453932 -0.024989424 0.48374683 -0.044414748 -0.12670015 0.06148901 0.019015567 0.11420245 -0.10391183 0.09431814 -0.003587827 0.2567066 0.63214517 -0.36829418 0.32665375 0.10938331 0.18384787 0.76860255 -0.21816777 0.77179956 0.099702165 -0.18280378 0.11513139 -0.25568777 -0.54329026 -0.2678106 -0.08201261 0.09031491 -0.04702947 -0.168352 -0.033639953 0.2165051 -0.02676684 0.025048655 0.039127726 -0.33066574 0.04270435 -0.16045068 0.4151491 0.5705001 0.094881915 -0.54107064 0.07938256 0.21588226 0.18364914 0.06375469 0.21037188 0.18105762 -0.021210307 -0.56050587 -0.3123499 -0.06991713 0.020977784 -0.029350119
何 -0.11306801 -0.0023671344 0.26679957 0.14130324 0.41113228 0.006013727 0.1690265 -0.2709633 0.12584902 0.028270196 -0.1722421 0.4623201 0.12584333 -0.16907021 -0.09080536 0.11510702 0.21110871 -0.3512784 -0.29737845 0.22495629 -0.11370557 -0.066837914 0.24089323 -0.14807606 -0.10043925 -0.39936495 -0.33653465 -0.10799004 -0.11574382 -0.17448826 0.05529215 0.17899658 -0.3148861 -0.16513774 -0.024568485 -0.23003113 0.06781044 0.060611345 0.20716776 -0.18666811 -0.11294654 -0.16216707 0.3067406 0.0060724528 -0.033877734 -0.16448222 -0.41552234 -0.09485744 -0.14437987 -0.076319434 -0.063423164 0.026649931 -0.28256398 0.23548499 0.1466926 -0.1812947 -0.13772358 -0.6025717 0.2966732 -0.00867569 -0.12992245 0.1778136 -0.6877417 0.6750101 -0.40673158 0.24389805 -0.4469063 0.47167835 0.21633033 0.21665245 -0.18573704 0.006063481 -0.052976295 -0.50420505 0.18979262 0.176624 -0.06314925 0.2088573 0.062098738 -0.3325964 -0.11628327 0.16112088 -0.4323122 -0.75260353 0.13129976 0.33871523 -0.354125 -0.19456635 0.511524 0.26974744 0.103188135 -0.6424279 -0.11382826 0.16123554 0.011141387 0.010829585 0.033867095 -0.124561965 0.040802017 0.049532987
吾 0.39213234 0.22296843 0.26401094 0.038919862 0.20217048 0.31459236 0.19977066 -0.09198869 -0.269629 -0.09042248 -0.19615121 0.16526757 0.22472724 0.4072643 -0.05591332 -0.41552886 0.045020692 0.226405 0.03212436 -0.34739137 0.11730295 -0.14634094 0.5149819 -0.26453897 0.1669469 -0.2786986 0.28812504 0.5985144 0.07461851 0.31623358 0.29028082 0.09839802 0.2687198 0.0010067011 0.0928577 0.105015285 -0.22719204 -0.4556407 -0.04401774 0.15854771 -0.18100397 0.021566527 0.18163627 0.16690943 0.32584187 0.20794344 -0.52742136 0.28340122 -0.26231173 0.14858969 0.062225375 0.14077953 -0.43782952 0.12566508 -0.10900347 0.0019680255 0.4603166 0.26383436 0.36493045 -0.09277339 0.08324436 0.3736101 -0.14863835 0.6574192 0.010870223 0.17888746 -0.052469008 0.15774092 -0.38372126 -0.88397807 -0.11930378 0.5860132 -0.12376217 -0.10206694 -0.10286316 0.18197507 -0.022411568 -0.15254115 0.11590669 0.130331 0.06664071 0.073291056 -0.29977697 0.12271821 0.29420125 0.09929489 -0.45276874 -0.24097165 0.28561422 -0.37469935 0.20394655 0.42516208 0.23718801 -0.0014339123 0.13026239 -0.08110287 -0.40712917 -0.16878913 -0.09406208 -0.14803292
仁 -0.45977888 -0.13093512 0.33587986 0.16409363 -0.03868879 -0.06854416 0.017643653 0.027370248 0.24583216 -0.3057269 0.10279534 0.104076356 -0.30057368 -0.500096 -0.0071716076 -0.2250393 0.070448674 -0.15508214 0.16602628 0.35128483 -0.17026265 0.40935576 0.5322435 -0.08366841 0.27329212 -0.17670445 -0.34251383 0.15808214 0.28852662 -0.33457887 -0.3315728 -0.12194892 -0.04906406 -0.3957926 0.06326862 -0.07317399 0.6347526 0.59373504 -0.047835033 0.08775353 -0.12422504 -0.4166939 0.29838243 -0.039759785 -0.38445598 0.011148013 -0.26349157 0.38049522 -0.31059617 -0.5548237 0.011460368 -0.15220651 0.6587142 -0.23045792 0.053700928 0.6408554 0.24053922 0.3264339 0.049624532 -0.17055012 -0.2555979 0.066545546 -0.049966995 0.3481382 -0.17107251 0.5841163 -0.14589342 0.042324957 0.09479193 0.056429245 0.14940058 -0.40686786 0.062089957 0.4039859 -0.66809267 0.6849438 -0.08422441 -0.37653965 0.092450894 0.25668675 0.015222536 -0.01719273 -0.28233162 0.3076213 0.27838963 0.03151105 -0.08357016 -0.20721968 -0.13791808 0.1314062 0.039601866 0.05725626 -0.12753709 -0.005994528 -0.19183752 -0.008594008 0.25236553 -0.24101241 0.030937804 0.11662242
夫 -0.18337284 -0.011135543 0.5787642 -0.0359238 0.100071356 -0.18619433 -0.25744113 0.08660613 0.22700463 0.01774279 0.04088484 0.01715305 0.12568949 0.56407887 0.037976753 -0.38441032 -0.08264299 -0.17376499 -0.04958362 -0.023723705 -0.07211875 0.26182514 -0.26337036 -0.043513898 0.4002143 0.16124037 -0.13317299 0.3537524 0.55247056 -0.0023618618 0.0016373602 -0.117231146 0.35302413 -0.19366737 0.2575018 -0.035100296 0.25420654 -0.22869964 -0.3306579 0.16804783 0.15815857 -0.0130513115 -0.4274082 0.56635785 0.33179945 -0.56697166 -0.0005166567 -0.38764232 -0.04880363 -0.071443014 0.09869302 -0.19636278 -0.03784677 -0.41274202 -0.035535686 -0.1695387 -0.17283212 0.20726553 -0.12936445 -0.12071468 0.18853351 0.44483808 -0.3927618 0.6358393 -0.33718175 0.011670819 -0.5205852 0.009897562 -0.09871021 0.018498687 0.082310736 0.5305533 -0.066957876 -0.020570075 0.35388228 0.4520082 -0.07766298 0.12804355 -0.18191782 0.25433373 0.21644935 -0.60060227 -0.25067616 -0.38857248 0.45608905 0.15812494 -0.04073144 0.4769575 0.13929805 -0.4083253 0.35038608 -0.26968062 0.77169377 0.07454834 0.069932155 -0.14868264 -0.08583231 -0.13340227 -0.33892375 0.09932756
、 -0.4220305 0.31180918 0.2007613 -0.019387491 0.05644316 0.86051595 -0.5100562 -0.036384046 -0.1262054 -0.51492226 0.069476925 -0.1866096 0.5733289 0.17212683 0.27949548 -0.71901953 -0.6246125 -0.2653817 -0.13393028 -0.001449605 0.10774403 -0.14863028 0.18884441 0.46203744 0.4124582 0.23997353 0.13801481 0.013406357 -0.096236266 0.27775323 0.33685216 -0.16790256 -0.8247026 0.24232115 0.20610273 0.012657895 0.37161314 -0.053186227 0.26859042 0.17564479 -0.48864022 -0.5104647 0.0072420305 -0.19595796 -0.34227946 0.044054706 -0.15816672 0.08389626 -0.3020003 0.30879062 -0.34159824 0.06739821 -0.2330446 0.18307893 0.23392536 0.038074914 -0.32219636 0.13072218 0.46475846 0.00893143 0.106028505 -0.43043408 0.24265663 0.59596187 0.48221323 0.038840715 0.30453977 0.32383627 0.41788664 0.03728077 0.5290373 0.39371243 -0.043214865 -0.034541182 -0.31262937 -0.4491379 0.3851158 -0.21160106 -0.37535107 -0.41638097 0.18223956 -0.02144208 0.553802 -0.13308118 0.09631479 -0.070263915 -0.33130974 0.08467483 -0.18192197 0.071016215 0.1085896 -0.079650804 -0.08963812 -0.32410198 0.21168905 -0.22769839 0.12359717 0.4090258 -0.7585062 -0.09456225
道 0.2964622 0.0030348082 -0.1530056 0.39674878 0.1807561 -0.043339692 -0.2201781 -0.40919083 0.38292414 -0.39959985 0.20084047 -0.1848148 -0.31169826 -0.15298569 -0.08838683 -0.41732743 -0.0674853 0.14381854 -0.2318993 0.2694829 -0.020090126 -0.1790725 -0.567088 -0.17721577 0.3164238 -0.21042483 0.32615295 0.313645 0.54724634 -0.6694891 -0.3333776 -0.27547556 0.23911521 0.45676622 -0.10181793 0.07023906 -0.2808946 0.022641875 -0.27771994 -0.01857906 0.2951839 -0.04690821 0.75946397 -0.13870788 0.03365355 -0.2739052 -0.1072223 0.27606425 0.11485113 -0.22863287 -0.0009124582 -0.0073995935 0.28671357 -0.050635297 -0.34758487 -0.4337792 0.41369122 -0.22476467 0.036772512 0.06730794 -0.02338589 -0.06669104 -0.33197907 0.79084104 -0.09864751 0.030467693 -0.29619893 0.044228252 -0.056671035 -0.059297036 0.008800807 -0.23698945 0.023118097 -0.1256083 0.34324068 -0.6029419 -0.011396885 -0.1440958 0.53549737 0.20778103 -0.037324797 -0.002483091 -0.10759197 0.08774193 0.050956663 -0.44838002 0.50313145 0.29655257 -0.67086095 -0.14040546 0.14262822 0.14294696 -0.09562869 -0.15352625 0.081751615 0.02233512 -0.0024720787 0.12377247 -0.2764671 -0.2970238
焉 -0.543774 0.03823636 -0.15070252 -0.29912364 0.4505816 -0.07750856 0.46946496 -0.24585852 -0.061505865 -0.2845691 -0.52033633 -0.13005537 0.10404857 -0.37784278 -0.282757 -0.6225176 -0.10656361 0.26767004 0.07258228 0.05233396 -0.34408864 0.2734497 -0.06681596 -0.09685692 -0.22926264 0.363357 0.019457981 0.47286028 0.28482506 -0.6640737 -0.5367898 0.20752074 -0.004809632 0.17069715 0.22679733 -0.33833033 0.18098688 -0.15878128 -0.32166684 -0.049722534 0.22468008 0.1889616 0.16392227 0.23596895 -0.1873486 -0.13615622 0.11833451 0.12388742 0.14606124 -0.45880163 -0.17405358 -0.15577905 -0.21315253 0.10948418 -0.14447795 -0.0005753627 -0.629341 0.19452734 -0.23803663 0.2678384 0.42861122 0.33179212 -0.345069 0.41431615 -0.015756384 -0.20797168 -0.54618686 0.10605064 -0.25139737 -0.30126563 0.01598296 0.14233652 0.0953415 0.18929501 -0.5197371 0.29953858 0.010107627 0.11820829 -0.18358578 -0.20432115 -0.58996356 0.09826216 -0.012614197 -0.15905628 0.5268552 0.42085275 0.0062856223 -0.09159061 -0.08370047 -0.15448922 -0.24366517 0.038716678 0.2581411 0.18972638 0.2328063 -0.32933602 -0.3194593 -0.15357143 0.26778573 -0.6874541
行 -0.4704663 0.011205044 0.32199615 -0.122372024 -0.38088834 0.25988516 0.16410026 -0.2506144 -0.20787528 0.0964691 0.37783507 0.07944957 0.13253088 -0.03541515 -0.1333465 0.30101708 -0.44359207 0.2504446 -0.4902114 -0.4634702 -0.3725681 -0.3838414 0.2564775 -0.26441267 -0.0837257 0.058033925 0.16387348 -0.133784 0.1282139 -0.16663392 0.17045403 0.3275922 0.40813944 0.01139396 0.19706385 0.001023133 0.2784527 0.65220296 0.10701268 0.21707514 -0.4027365 -0.14321746 0.02165024 0.03892461 -0.33061114 -0.16987067 0.059224907 -0.1628319 -0.07981484 -0.37584373 0.19061685 0.11522193 0.34002846 -0.118246324 0.0849321 0.08322311 0.057193935 0.21697712 -0.22272545 0.7796728 -0.30717388 0.3313605 -0.47373185 0.65070903 0.109714314 0.3636122 0.16979669 0.105624706 -0.27505237 -0.11030875 0.14425245 -0.023590863 0.12743478 0.36065945 -0.22058609 -0.36740485 0.12495553 0.48676553 -0.23551574 -0.07877056 -0.42284474 -0.034686256 -0.0670014 0.24195743 -0.19813004 -0.3503879 0.034141786 0.1706746 0.03563801 0.26277348 0.37779537 -0.28025693 0.057461083 0.11447828 -0.6913829 -0.2416619 0.3536158 -0.17881054 -0.040692616 0.20529559
谓 -0.024515508 -0.10620617 0.5157131 0.02008355 0.08098752 0.10264241 -0.054723095 -0.32458422 -0.15697905 0.23250365 -0.28091782 -0.2711139 -0.20034796 -0.32982904 0.463281 0.36564317 0.021626128 -0.22013453 0.09884628 0.26079965 0.015834868 0.12473884 -0.22933587 -0.26937157 -0.13062374 -0.18977492 -0.27627373 0.084924914 -0.12797043 0.13550565 -0.3416577 -0.1276807 0.5940997 -0.30669332 -0.46647763 0.6429073 -0.5566728 -0.43824664 0.04862814 0.353427 0.21135297 0.36042863 0.33418 0.28150913 -0.77999157 -0.008761325 -0.029200543 -0.2424341 0.36996284 -0.03672816 0.5311709 -0.44035026 0.37750104 -0.33892718 -0.3120571 -0.06190068 -0.08412613 -0.34445754 0.6817694 -0.013527065 0.25015673 0.27180827 0.42837995 0.6427938 0.0855662 -0.32823348 -0.059962854 0.37951007 0.4475227 0.54949546 0.20651688 0.022391293 0.2985776 -0.197162 -0.07003096 -0.1331678 0.39828938 0.06201045 -1.0545933 -0.015620692 -0.11622338 -0.21796289 0.06528408 -0.10393109 0.35055646 0.039777443 -0.2428147 -0.2764111 0.055103302 -0.1756583 -0.20886053 0.6430657 0.23775695 -0.17502823 0.053522576 0.11937206 0.30586874 -0.21482515 -0.014996908 0.21700636
必 0.20275564 0.26843882 -0.004371516 0.21404822 -0.20101325 -0.094021104 0.24452065 0.28290394 0.38920423 -0.2100702 0.0037312722 -0.73101795 -0.19893634 0.24308886 0.40414795 -0.19225061 -0.021733701 -0.043560144 0.6797547 0.40965465 -0.41394743 0.19518255 0.31341952 -0.13745564 0.41400468 -0.37379888 0.20383875 -0.052313536 0.079858385 0.065434895 0.24435763 0.2668733 -0.27713403 0.009860603 -0.30272025 -0.13830777 0.025273982 0.99727535 -0.103032865 0.086771965 -0.007838464 -0.24149995 0.15786761 0.14500016 -0.40631726 -0.1765302 0.3633434 0.11648808 0.5325289 0.031459335 0.15038793 0.4157314 -0.32126543 -0.15741672 0.18752636 -0.17440806 -0.18797825 -0.08654469 -0.0103817675 -0.25848117 0.40191445 0.026101163 0.3360416 0.8554004 0.02282052 -0.4974025 0.14944324 0.4996633 0.0051073283 0.35201162 -0.27932754 0.029068429 -0.2908509 -0.5452438 -0.425363 -0.111519665 -0.045636307 0.42720482 0.39596763 0.029546322 -0.25532836 0.17830965 0.29185453 0.14040965 -0.20808195 -0.43473792 -0.10835227 -0.2565897 -0.20281616 0.4562745 0.4345989 -0.19598016 0.24808203 -0.15204501 0.0025998726 0.27141142 0.051763523 -0.34336725 -0.26323956 0.35822546
礼 -0.19460413 -0.46463776 -0.5096604 0.012781207 0.1361403 -0.016880307 -0.19323589 0.3096267 -0.24232647 0.16579278 -0.3934596 -0.6547694 -0.46957183 -0.1992091 0.18758722 -0.16673057 -0.32290882 0.079364344 -0.23107542 0.059965435 0.19529906 0.3512834 -0.073809795 -0.4365799 0.6170458 -0.021899382 -0.024937019 0.20883507 0.27104676 0.038806837 -0.26005542 -0.5389216 0.4819128 -0.26233423 -0.35612342 0.12586085 0.34573385 0.09965031 0.6034816 -0.09572664 0.16699564 -0.18476701 -0.07500293 0.053652965 -0.6582388 0.2781446 -0.6050005 -0.074320406 0.2716503 0.15234481 -0.056584544 0.015974727 -0.05363213 -0.26341817 -0.18951821 0.24068171 0.13827413 -0.428167 -0.07391562 0.7089615 -0.08630374 0.4496323 -0.0040586195 0.42523617 -0.10881812 0.346365 -0.11292815 -0.34930387 0.5708491 -0.07115567 0.043782953 0.14562209 -0.6839499 -0.5292377 -0.15255585 -0.3292102 0.19577889 0.11409832 -0.2404049 0.43785882 0.31425583 0.30683458 -0.15166269 0.18903737 -0.22553663 0.32091263 0.16395856 -0.12766604 -0.19368342 0.4668306 -0.08052783 -0.36688048 0.30873242 -0.2788596 0.0057917787 -0.25408694 -0.08234809 0.24748796 0.2647296 -0.25568688
孔 -0.06923664 0.22895917 0.008474331 0.6320443 0.26325285 0.11137957 0.13763303 -0.56831926 -0.39324397 0.2142303 -0.7485902 -0.17265953 0.23201637 -0.16362381 -0.33225083 0.37111053 -0.6715121 -0.17526455 0.20279576 -0.3980621 0.33185974 0.11899529 -0.35590175 0.81626207 0.051097907 -0.489307 -0.34016356 0.17751196 0.2421556 -0.15099148 0.14938954 -0.14437604 0.07829148 -0.021951027 -0.18491675 -0.34928316 0.17200138 0.39743423 0.46391395 0.13521017 0.11461414 0.12088745 -0.13495684 -0.28370443 -0.092678234 0.12126284 0.056652356 -0.44184178 -0.20197658 -0.12171798 0.042717636 0.044038225 0.42418006 -0.115406655 0.058934864 -0.23770936 0.16588372 0.11164208 0.38618827 0.32561415 0.0027764007 0.4765101 0.102017984 0.6357156 -0.7037543 0.014021089 0.45974383 0.016985282 -0.09576895 0.007407554 0.034829505 -0.2891848 -0.48238453 0.049612984 -0.12195761 0.28378513 -0.32290888 -0.38582826 -0.85785806 0.053925592 0.67346555 0.2644753 0.21828681 -0.056126963 0.386593 -0.2625993 -0.36581743 -0.1160026 -0.34012544 -0.19767524 -0.014445703 -0.12142612 0.0030202856 0.3887082 0.4386305 0.33477992 -0.12302747 -0.50649446 0.49958023 -0.20425275
斯 0.01121733 -0.11713237 0.19237715 -0.19570068 -0.012277585 0.09609435 -0.17555778 -0.0939822 -0.08203996 0.010239004 0.271502 -0.4665105 -0.06250478 -0.3304955 -0.02238661 -0.16279005 0.17547198 0.5365797 0.07849118 -0.29428777 0.30646744 0.4080045 0.10522841 -0.046479687 0.23639901 -0.0029012414 0.35084066 -0.5324941 -0.4643447 0.19164488 -0.35629815 0.68543077 0.24074142 0.18911876 -0.16520299 -0.60267484 -0.009131904 -0.06625394 -0.07423338 -0.07732403 -0.13998756 -0.15845476 0.7573469 0.00816235 -0.35814622 -0.12908037 0.111003205 -0.5234629 0.17101131 0.55220383 0.4873029 -0.2684552 0.50976056 0.00892332 0.0870309 0.15060626 -0.14783776 -0.3582668 -0.31241623 -0.27059793 0.16801512 0.43535498 -0.6244955 0.63900536 -0.5216045 0.3294872 0.09006469 0.16382177 0.09166882 0.51525 0.4474684 -0.163138 -0.17510669 -0.16495176 -0.18770073 0.3033865 -0.25485587 0.46857327 0.60093695 0.26695776 -0.26960012 -0.5349639 -0.15419526 0.15386216 0.58905387 -0.09521574 -0.24988554 -0.031568628 0.17416972 -0.25463337 -0.4470425 -0.18827291 0.10532126 0.08786203 0.31276733 0.10918014 0.14076763 -0.2622698 0.08418619 0.08028468
三 0.14337821 0.41727805 0.31083563 0.12191767 -0.2087772 -0.076731324 -0.25163382 0.22377807 -0.1514731 -0.31987044 0.1070011 -0.27720585 0.5844597 -0.44407174 -0.32018635 0.1586846 0.16214474 -0.16517577 -0.5577924 -0.30333623 0.56755483 0.34859267 -0.057711054 -0.16417354 -0.026719496 -0.19950543 -0.5020954 0.14644289 -0.15013291 -0.113759235 0.20118852 0.17290322 -0.2352203 -0.18090019 -0.7621498 0.32918563 -0.05295312 0.28317577 -0.04320338 0.33821824 0.5208551 0.16220783 0.281259 -0.07474716 0.2066521 -0.16589132 0.22208501 -0.12434606 0.11379236 -0.5161678 0.20910692 0.47934598 -0.1542082 -0.16609652 -0.20405647 0.3577951 0.30325615 0.27060226 0.26512372 0.19364838 0.27365983 -0.07232775 0.055465505 0.92958426 -0.10148651 0.3700709 0.18790245 0.085440665 0.09142977 -0.1286578 0.18973507 0.36057732 0.043701343 -0.15708831 0.49651358 0.5361847 -0.11984035 0.14748123 -0.10239066 0.18485743 -0.2858276 -0.20580064 -0.21123098 0.3324668 0.20661566 -0.04607617 0.09973942 0.22179669 0.29590765 -0.30661178 0.107566185 -0.9175832 0.037959132 -0.016954008 0.44773445 -0.49354634 0.47379088 -0.11510967 -0.31201673 -0.16766903
能 0.36183318 0.25738293 0.08271206 0.37244707 0.06842932 -0.21838413 0.29447958 0.01410372 -0.41449785 -0.10470418 -0.12349517 -0.37165886 0.10404817 0.43965364 0.1298499 0.13048558 0.28658333 -0.18410161 0.047330588 0.17256771 -0.08367703 -0.00039034782 -0.57715034 -0.061669532 0.09103589 -0.4439377 0.24186848 -0.06871104 0.472699 -0.53701943 -0.17779651 0.41660056 0.45435616 0.051832274 -0.12540096 0.12486071 0.27786955 -0.2369006 0.33545637 -0.33231333 -0.26731333 -0.30081305 -0.17507614 0.34682396 0.04089774 0.071375296 -0.097325705 0.115321584 -0.050392613 -0.24794172 -0.07118548 0.13198762 -0.18773183 0.046488013 -0.20670278 0.11065108 0.20924434 -0.734005 -0.24965858 0.11723278 -0.22640042 -0.29688635 0.06577514 0.57124317 -0.2931635 -0.022796001 -0.083114654 0.14455478 0.21522547 -0.80805504 -0.6213684 -0.18557423 -0.18069164 0.20781623 -0.0457987 0.18567666 0.043411016 0.47350702 0.08060137 0.34834856 -0.050961968 -0.29983112 0.48261437 0.09783042 0.07795405 0.5339604 -0.43007103 0.05551958 -0.29014796 0.08026305 -0.33422828 0.5300724 0.03229794 -0.26032433 0.09011555 -0.06326986 0.48493466 -0.026386933 0.25334567 0.15204152
见 0.16018458 0.27873513 0.33954227 0.09967377 0.13850883 0.76703286 0.19399011 0.2627319 -0.15051658 0.06635257 -0.23865454 -0.35720092 -0.26483735 0.33093488 0.106802665 0.33287758 -0.026390707 0.12521745 -0.01732132 -0.36967725 -0.32065284 -0.18286489 0.20470263 -0.15911508 0.065298624 -0.55130863 0.066927955 0.21381041 0.055704083 0.26012635 -0.14910083 0.16222602 0.48255607 -0.09033567 0.2958609 -0.0010915053 0.23738064 0.13060403 -0.095714636 0.5596158 -0.26053366 -0.061894447 0.10646117 0.33882907 -0.46139243 -0.10979946 -0.24010584 0.31251046 -0.16636346 -0.22125967 -0.7695787 -0.0038749392 0.48454866 0.2554732 0.27748394 -0.13618861 0.4518359 -0.7106362 0.0012510002 -0.50061387 -0.08033762 -0.24742842 0.14163409 0.42199665 0.19468263 0.078968674 0.27275413 0.11159796 -0.114557266 0.4358811 0.24284199 0.070213474 0.21838054 0.07714675 0.26189846 0.2823732 0.50661457 -0.14572485 0.4313569 0.19864054 -0.3008682 0.09241873 0.5243066 -0.037802927 0.48578572 -0.20381299 0.052298665 -0.15914246 -0.40481392 -0.09181386 0.008204567 0.07484978 0.90662766 0.25025865 0.06691771 0.24624664 -0.17707811 -0.16061382 -0.040600922 0.6073077
学 0.5592606 -0.031772774 0.30815592 -0.27617934 -0.5363606 0.064306594 0.5823865 -0.9145297 -0.473124 0.13731016 0.04082716 0.063315615 -0.048882052 0.16432725 -0.18954697 0.37865186 -0.0770656 -0.25517103 0.3477262 -0.4486159 -0.30584583 -0.18369594 0.32007834 -0.1254409 -0.1772626 1.1865326 0.21069722 -0.00569166 0.49522415 -0.021779837 -0.36665478 -0.19912766 0.277363 -0.046377912 0.22611974 0.2677226 0.33721367 0.5917465 0.023946209 0.2250961 -0.06262796 0.13461134 0.29883543 -0.5199943 0.251538 0.50744647 -0.32694635 -0.23175682 0.20266679 0.27747467 -0.37994334 -0.13823463 0.15939067 0.11816086 -0.101175964 0.6782237 0.15030831 -0.38963845 -0.29302642 -0.33582115 -0.01097167 -0.25586155 -0.1326143 0.883427 -0.16259721 -0.0707843 0.37962145 -0.26475215 -0.2227848 0.29109535 -0.23514333 0.20705305 -0.17332588 -0.17881277 -0.15558778 -0.08075577 0.3933238 -0.486704 0.012870859 -0.2526654 0.40920636 0.20140599 -0.2803014 -0.2927387 -0.0071057854 0.07200704 0.12417722 0.20540471 -0.08208692 -0.24824278 -0.23935261 -0.4533709 -0.17757583 0.6364103 0.15835558 -0.4450939 0.4808182 -0.3212879 -0.080646224 -0.21129698
事 0.25897667 0.21759503 0.050027598 0.6632217 0.07502358 0.41362116 0.21888942 0.06141444 -0.09972957 -0.26214674 -0.37073448 -0.029632831 -0.1702394 -0.02886429 0.6534168 0.23145063 0.1181638 0.37293205 -0.055415343 0.31024835 0.22226568 -0.27378663 -0.4478012 0.12453012 -0.0044790357 0.015313749 1.0957977 0.07089853 -0.16602567 -0.08371566 -0.22083582 -0.31524503 -0.16978535 -0.17012252 0.26578382 0.20677482 -0.10636213 0.01765275 0.20854832 0.4800103 0.22432214 -0.19673824 0.01513118 0.143954 -0.8098326 0.44835144 -0.26848492 0.45374042 -0.071806 0.64888644 0.5188085 0.24654454 -0.18817796 -0.38789892 -0.03089169 0.0015476202 -0.042691626 -0.16559882 -0.097625636 -0.010636181 -0.7260057 0.24442293 0.05668722 0.8795561 0.11463132 0.32392913 0.11095701 0.13313092 -0.025323039 0.37210035 0.03730412 0.26421684 0.4854108 0.6136761 0.104444176 -0.35283348 0.059069 -0.34330663 -0.12814434 0.37506515 -0.08382116 0.21706836 -0.18126947 -0.6308232 0.04181495 -0.29609877 -0.18932317 0.05476464 -0.09864174 -0.11490101 -0.10019372 -0.712017 0.4583433 0.053082004 0.521841 0.01755287 -0.2519297 0.17755178 0.20091963 0.33667058
是 -0.30196756 0.24901827 -0.024810705 -0.13208587 -0.08629225 0.036807485 -0.22444163 -0.17293972 -0.1824569 -0.32657018 0.53950524 -0.34907523 -0.45808858 -0.24070358 -0.0060542338 0.51250684 0.7204804 -0.41740713 0.0033875573 0.036702514 0.46465787 -0.2934854 0.21386613 -0.42438316 0.14388923 0.20128873 -0.22562286 0.56324196 0.03409538 0.12992309 0.08592649 0.28371435 -0.11967295 -0.50825787 -0.35511187 -0.69355047 0.2774045 0.19801861 -0.32224974 -0.05552947 0.64331716 -0.21866974 0.11640122 0.16763373 -0.039919395 0.030986976 -0.7231246 0.35119542 0.22845426 0.1137595 -0.31182447 0.3350266 0.78063285 0.019097274 0.18278024 -0.10663867 0.12216911 0.014939279 -1.0111195 0.41847914 -0.32555503 -0.25761643 -0.09326054 0.62251765 -0.6210339 -0.26193136 -0.5336501 -0.019628212 -0.28776202 -0.07277906 0.27097246 -0.0028022302 0.24732345 -0.4069498 0.18823747 0.17793556 0.01045658 -0.05624279 -0.29076475 -0.08106961 -0.06743498 0.09330878 0.63119596 -0.15895094 0.58141214 0.127368 -0.46182317 -0.39473572 0.34182468 0.21375823 0.4716546 0.04844082 -0.47884616 -0.031123104 0.059675317 -0.3995775 -0.0040356102 0.35998282 -0.30036145 -0.15034045
哉 0.20816953 0.3569919 0.20216335 0.50915873 0.42628887 0.2587901 -0.008466081 0.03740821 0.21946453 -0.09155505 -0.027320683 0.4902135 -0.63646704 -0.4572737 0.3000374 -0.24753016 -0.12314814 -0.30501026 -0.40840203 -0.35456002 0.057778597 -0.1971718 -0.40374544 0.38274935 0.26009998 -0.03610435 -0.081739224 0.108355455 -0.19922797 0.31919384 -0.29573733 0.38563824 -0.2851233 -0.12782559 0.15208203 0.0015643584 0.15126476 -0.05568548 0.22204466 0.35358655 -0.16018058 -0.081720665 0.31719276 -0.27024254 0.29435304 0.08872462 -0.7709257 0.20488042 0.84926856 0.13752106 -0.28225252 -0.6603347 -0.008888824 -0.026626948 -0.3862796 -0.60736644 0.41499582 0.2023835 -0.57085305 0.14212096 -0.48324233 0.27749696 -0.20881124 0.88522696 -0.11882162 -0.12849063 0.41707084 -0.059896544 -0.22284533 -0.22261219 0.26984802 0.39723563 0.5727527 0.33889532 0.06148256 -0.29042968 0.28695944 0.0438353 -0.08561489 -0.27524748 0.023765717 0.25756308 -0.055587813 -0.18738584 0.5216175 0.33519045 -0.30883646 -0.21638155 0.33944044 0.101005785 -0.06266128 0.006675455 0.073350474 -0.08117079 -0.6046201 0.54335344 0.12988828 -0.11462754 0.17883497 0.15763359
闻 0.4067912 -0.15606093 -0.028786113 -0.24885218 -0.47134697 0.02546151 -0.012897272 -0.3690684 0.27858824 -0.22691631 -0.029932458 0.055566337 -0.075180374 0.07684821 0.0520808 0.24589846 -0.16317879 -0.18330911 0.22884977 -0.42644694 -0.30377287 0.18842013 -0.103994854 0.24423216 -0.14249833 -0.11205126 0.33124283 -0.08394883 -0.016995434 -0.27549797 -0.37422624 0.16083449 -0.4538107 -0.04453202 -0.1490633 0.6616629 -0.054791808 0.36435354 -0.055916835 0.3178459 0.06410996 0.019403359 0.56244975 -0.054335836 0.25578406 0.49464828 0.071018994 -0.8593214 -0.26232457 -0.00030826722 -0.015105109 -0.19561888 -0.32852775 0.65060353 -0.33573323 -0.11956628 0.2545052 0.23602492 0.017437618 0.5773709 -0.25811753 0.50522524 -0.036387406 0.7526792 0.27418867 0.18837845 -0.5058123 0.28109014 0.3439263 -0.40835437 -0.11948555 -0.23034512 -0.6549111 0.4362406 0.17647609 0.16286595 0.4126938 0.47234437 -0.3594462 0.6251355 -0.07049119 0.38447806 -0.060048655 -0.09815885 0.5427432 0.38375303 -0.3418523 -0.38868597 0.112356886 0.32178253 -0.50660396 -0.14444351 0.30210245 -0.52232313 0.41295123 0.27843192 0.09442083 0.07435516 -0.60751194 0.19821103
未 0.21373738 0.1809717 -0.38521406 0.039570857 0.062780894 0.035007913 0.2542928 0.029418945 -0.17450346 -0.16247335 -0.014847158 -0.41328624 -0.40383655 -0.21921586 0.013569993 -0.08968738 -0.35003388 0.4448716 0.33046052 0.025768604 0.11675718 0.24299663 -0.19899598 0.21297002 -0.08702916 0.21628544 0.26468453 0.26800665 0.14031027 -0.133755 -0.2593605 -0.24071774 0.09674477 0.05392133 -0.13546178 0.018828116 -0.2728363 -0.17379205 -0.376211 -0.14177568 -0.2639197 -0.03816148 -0.092919715 -0.052014 -0.16303948 -0.32555 0.12353604 0.45042822 -0.23165877 -0.5183404 0.014874271 -0.05392924 -0.0072423983 0.25068462 -0.16890481 0.332517 0.59567827 -0.20422298 -0.22590964 -0.43337646 -0.2859916 -0.5749949 -0.092514575 0.4251739 -0.004096124 -0.117950596 -0.1976245 0.16536343 0.07890948 0.2993169 -0.20415188 -0.26252556 -0.19879271 -0.6349836 -0.7261571 0.20676659 -0.15192036 0.044290338 -0.3866902 0.44079468 0.002830741 -0.49624693 0.17978501 0.59312123 0.16870792 0.008788986 -0.12125521 0.19275878 -0.047118492 -0.37365544 -0.20681761 0.08472146 0.57826394 0.32128924 -0.03454825 0.30720928 0.38200113 -0.18274237 0.39682025 0.012584362
公 0.012497796 -0.4844785 -0.24666595 -0.36003795 0.7170833 0.16389892 0.42439315 -0.13433754 0.14953971 0.6648569 0.063416325 -0.39147407 -0.30714893 0.50521 -0.12839402 -0.23920634 0.17939499 0.08364162 0.23758604 0.27753046 0.20541297 -0.051331125 -0.16275848 -0.20160884 -0.12885804 0.048955675 0.3193441 -0.13890742 0.1323368 0.15503299 0.40833515 -0.05915373 0.03661576 0.30252773 0.08622003 0.40935606 0.16297854 -0.029328028 0.755683 0.09738787 0.035032995 -0.29620105 0.1850767 0.47294056 0.1642882 0.39508906 0.010742195 0.38491946 -0.011099073 0.3849987 0.027230712 -0.6109974 0.20982471 0.13230906 -0.38150683 -0.024479527 -0.02736779 0.08535818 0.4108823 -0.3379354 0.05797891 0.6584511 0.13552918 0.6427579 -0.18977594 0.08525623 0.27238095 0.4165572 -0.034124862 -0.06453251 -0.44200167 0.10395101 -0.23517129 -0.025802532 -0.15116979 -0.0593128 -0.76148885 0.45438707 -0.82479274 -0.17082113 0.16958858 -0.49392068 0.48088124 0.00035009682 -0.16806073 0.06768235 -0.043419816 0.28999612 -0.3541014 0.28788933 -0.45250684 -0.58031553 0.11374279 0.113459416 -0.3753449 -0.144769 -0.75324595 0.15024269 -0.12472095 -0.069738045
好 0.2644465 0.32100186 -0.09506848 -0.06977718 -0.43400443 0.29453048 0.8036498 0.163791 0.41873834 0.0016330758 -0.2703925 -0.52608365 -0.080976106 -0.032736063 0.189654 -0.05106283 0.087635435 0.32619578 0.54755646 -0.60095 -0.43970022 -0.008133624 0.07976784 0.11973435 -0.15510988 0.39973766 -0.30719665 -0.23810042 -0.42382458 0.44536388 -0.58240503 -0.57771146 0.084045894 0.28821933 0.3045166 -0.4233826 0.17702833 -0.20038253 -0.19602083 0.39085296 0.45809096 0.24619716 0.08968901 -0.123293765 -0.34009743 -0.3356631 -0.13054202 0.35111943 0.34691942 -0.39286345 -0.36024413 0.10369307 -0.22740145 -0.24289349 0.20163204 0.72350514 0.08795303 -0.7276021 0.15839742 0.022065671 -0.076434694 -0.03419372 0.006902962 1.3122702 0.1899725 0.09897549 0.42067116 0.29790667 0.4174212 -0.07596037 0.29936588 0.043760877 -0.79484725 0.14592755 -0.29422054 -0.1606766 0.29599106 0.050999917 0.077850565 0.05676213 -0.5818392 0.2468747 0.30390906 -0.36723596 -0.061343275 0.114443 -0.13102023 0.27566293 0.006047291 0.24846642 -0.3286258 0.00067799864 -0.21485066 0.34571713 -0.14374086 -0.27205187 0.13899267 -0.0040634954 0.5508673 0.087084986
我 -0.23164201 0.18549782 -0.1889057 0.127139 0.1707632 0.21538319 0.21931973 -0.07213931 0.5127326 -0.04638436 -0.0013197277 -0.08200899 -0.10719304 0.103602976 -0.4568165 0.38431025 -0.4114027 -0.6196519 0.050251693 -0.10689821 0.07827505 0.44394648 -0.4811973 -0.08401338 0.12830034 0.31463745 -0.35739604 0.39712754 -0.20541276 -0.23695625 -0.293391 -0.37628433 0.080696285 -0.13519368 -0.17656402 -0.6540093 0.1538514 -0.662497 0.4397561 -0.1625543 0.18041186 -0.087062396 0.024812585 -0.04993999 0.28642455 0.14042102 0.20255506 0.14623047 0.24237809 0.055945016 0.2761841 -0.12034696 -0.59681576 -0.16010188 -0.4566876 0.3396319 0.543689 -0.16071895 -0.2482028 -0.101585 -0.0637771 -0.07749813 -0.030705178 0.78541493 0.14627847 0.12845604 0.12992802 -0.20496921 -0.01267929 -0.19422022 0.18020912 0.1308907 -0.5638164 0.031960163 -0.38014412 0.2333418 -0.20051645 -0.4194977 0.11873085 0.3932952 -0.1840288 -0.7275666 0.27228224 -0.06462547 0.6359838 0.078918405 -0.10354078 0.104937844 -0.065331675 0.02879502 0.17131929 -0.17106768 -0.010929691 0.080484 -0.18919343 0.15395653 -0.18636283 -0.9192169 0.0037659337 0.3261063
路 -0.11418282 -0.039585408 0.4298343 0.4261801 0.18636706 0.14802416 0.23402464 0.05016621 -0.12811638 0.34151128 -0.35528076 -0.04187764 0.006419297 -0.13606295 0.33359343 0.038761184 0.2890888 0.18147269 -0.158459 -0.48492405 -0.27212313 0.64341974 0.011721058 0.13174331 0.21753836 -0.37480998 -0.015969386 0.14216046 0.45961756 -0.7146588 -0.2432689 0.45134044 -0.16480954 0.15342188 -0.12167774 0.09216319 -0.49480122 0.53410226 -0.55524087 -0.6271737 0.058807477 -0.6675079 0.04204542 0.5732032 -0.17396879 -0.06896379 -0.1165963 0.04197949 0.024301115 -0.27976593 0.41132587 -0.023258768 0.28868532 -0.18471558 -0.19750628 0.14549716 0.34793422 0.5999463 0.027620435 0.2260139 0.18189481 -0.19606505 -0.09673504 0.5776267 -0.20406058 0.07761444 0.63534474 0.7627678 -0.59944284 0.008730522 0.6867269 0.4522407 0.2182733 0.14299777 -0.3458674 0.4334316 -0.29271722 -0.2252705 -0.9082129 0.47343865 0.002850874 -0.092727594 -0.13880078 0.007904203 -0.21915857 0.17577171 0.66370153 -0.12063395 -0.40163922 -0.53353 -0.14815363 0.20968693 0.098860584 -0.244641 -0.26833823 -0.22273909 -0.30978912 -0.0477555 0.16809641 -0.53774613
在 0.38603324 -0.69448054 0.12959833 0.12377238 -0.027239509 0.72961986 -0.4773014 -0.30623838 -0.11148499 -0.20950547 0.12271646 -0.4925177 -0.4917462 0.19205053 -0.53093547 0.3314811 0.06540929 0.20052953 -0.17143808 -0.038309876 0.47209004 -0.39642575 0.25802398 -0.041784134 0.19069467 0.23252895 0.1386767 0.025213696 1.083532 0.018065365 -0.26991916 -0.19910066 -0.13345505 0.06681157 0.4103964 -0.24157514 0.16597651 0.29057142 0.10412316 0.6772234 0.056569632 0.3066111 0.7216514 -0.041314818 -0.12080648 0.111266956 0.55361086 0.6008676 -0.23229963 -0.017930593 -0.17217256 0.38433862 -0.64392126 0.43037444 0.38838324 0.21306978 -0.7893617 0.71979046 0.09555957 0.20219369 -0.15811537 0.009102573 -0.5107917 0.70017046 0.6152672 -0.23679027 -0.20939337 -0.42372146 -0.31720033 0.16162312 -0.093260854 0.27818403 0.17097002 0.0041622454 0.07910078 0.4063988 -0.36677042 -0.25491583 0.0041226465 0.55656123 -0.34326953 -0.36068782 0.3844897 -0.27511775 -0.054596942 -0.06348235 -0.27771395 0.12850186 -0.07294152 0.16693948 0.25695053 0.003487433 -0.07969588 0.17489295 0.25858977 0.027711455 -0.3310372 -0.27640536 -0.51514626 0.761527
已 0.42014596 -0.20297296 0.15786767 0.6897955 -0.33844662 -0.27221575 0.4238495 -0.19732426 -0.122813724 0.1426977 0.15557916 -0.36724368 -0.49381995 0.0266107 -0.36373228 -0.34014165 0.030724177 -0.13834931 -0.48837185 -0.6767384 0.33949193 0.04173194 0.12730087 0.32046917 -0.18642375 0.13708782 -0.17083132 0.085359804 -0.017225003 -0.3960407 -0.043345507 0.32226667 -0.099100225 -0.11738123 0.3395619 0.5695469 0.27523443 0.18371503 -0.31920072 0.97859 0.021245217 -0.16761671 0.6903412 -0.113017805 -0.13290678 -0.15779494 0.042294044 -0.21485597 -0.08619557 -0.2865419 0.086535946 0.06205155 0.031370994 0.56660205 -0.20209816 0.6792423 -0.719271 -0.073788896 -0.6671074 -0.21414553 0.75658727 -0.3573334 -0.16438904 0.4150907 -0.382389 -0.10465178 0.03938609 0.47954398 0.8833754 0.13591716 0.26985797 -0.25697076 0.40884492 -0.3220651 -0.3763229 0.2447092 0.09389436 0.23099749 -0.58273476 0.017019885 0.1699388 -0.11812185 -0.026302136 -0.36872652 0.4212094 0.36090034 -0.26411492 0.37030163 -0.424484 -0.14352892 -0.27833778 -0.284261 0.24684766 0.37138507 0.017827755 0.32738063 0.29452142 -0.13861626 0.12145906 0.4347989
得 0.16324279 -0.5971408 0.44265816 0.05690632 0.21482325 -0.081613846 0.32531306 -0.4550293 -0.09516578 -0.4845496 -0.7271948 -0.31639352 0.14165694 -0.055380173 0.043793097 -0.09122777 0.40332142 0.013998865 0.17679082 0.06711384 -0.5489948 0.15016647 0.22065595 -0.22297071 0.054845504 -0.10721061 0.38501132 -0.37126017 -0.3363158 -1.2266248 -0.33317173 -0.10817691 -0.25344115 -0.27187675 0.6543141 0.43368885 0.10009371 0.6073422 -0.27315754 -0.037655752 -0.61201656 0.32146612 0.053743094 0.10722695 -0.12794419 0.26705804 0.33116332 -0.30837634 -0.2184436 0.00845885 0.24488287 0.41617256 -0.38278595 0.18965603 -0.20438644 0.06320626 0.34375203 -0.55459666 -0.106250465 -0.33314684 0.020213684 -0.25862026 -0.5330724 0.3400527 0.07500351 0.3858345 0.029798033 -0.4101355 0.38843274 -0.1665347 -0.31332013 0.5820081 0.0059926263 0.029388772 -0.17913021 0.26090133 0.26190048 -0.046441086 -0.40192097 0.2002786 -0.43756068 -0.6257041 -0.001447932 0.18146959 0.17930251 0.35354996 0.014383611 -0.2620851 -0.59349024 -0.23988992 0.018867357 -0.30430883 -0.2322337 0.009025149 -0.37491882 -0.67696154 -0.39659005 0.11737004 -0.30952147 0.06263404
所 -0.3827018 -0.30357182 -0.06593195 0.1057004 -0.0123866005 0.114325136 0.48279956 0.21937269 0.1048619 -0.11818223 0.11063005 -0.5729399 -0.042381514 0.18516055 -0.05108635 -0.09420041 -0.055185974 -0.020169403 -0.1580697 0.14878003 0.6205911 -0.15733074 -0.19279821 -0.45781448 0.23063855 -0.41246584 -0.45383695 -0.17816617 -0.032253046 -0.07186958 0.124214485 -0.07468879 0.07385921 -0.42681468 -0.32624832 -0.08892945 0.43261003 -0.08235714 0.09958555 -0.0093363905 -0.21053971 -0.24633059 0.58076537 -0.18030183 0.11715055 -0.21763843 0.31490862 -0.33605713 0.16509683 -0.23197329 0.10084024 0.1642636 -0.22757924 0.049845427 -0.7157842 0.20820267 0.09804896 -0.046840027 -0.36426952 0.32293302 0.12649538 0.2222681 -0.08933941 0.68194205 0.1388616 0.17742856 -0.10810151 -0.7246111 -0.3216003 -0.6119624 0.27179718 -0.14280325 -0.75136364 0.3824975 0.10185117 0.3076795 0.25428578 0.21812147 0.1960423 -0.2620949 -0.42897663 0.1566622 -0.12180995 0.0023271176 0.38266668 0.20008601 -0.028198482 -0.03724924 0.31390622 0.32191724 -0.029656338 0.11902738 -0.24126995 0.39616403 0.0036885825 -0.07289129 -0.09016657 0.39684123 0.29046834 0.0071317316
民 -0.05106874 0.5176962 0.012862684 0.1447348 -0.09960243 0.33592874 0.4749829 -0.2917458 0.25615972 -0.34413776 0.35225868 -0.3166489 0.11110219 -0.8390424 -0.23001455 0.06697592 0.021754172 -0.07053862 -1.0281247 0.7113441 -0.10471808 -0.3197091 -0.5703639 -0.7449341 -0.18258718 0.07703667 0.119087964 -0.08266717 0.45863032 0.050750844 -0.45515448 0.48853332 0.077752106 0.33664703 -0.43117064 -0.14631778 -0.35314965 0.053180993 0.04696348 -0.31332195 0.27643353 -0.122780964 -0.014713222 -0.089461885 -0.052981418 -0.093594365 -0.43044472 0.10049269 -0.10266565 0.30367118 0.0015081206 -0.08430524 0.14616704 0.28068766 0.21322168 -0.72515905 -0.15833324 -0.20696254 0.22779615 -0.33568794 -0.25115243 0.076846115 -0.26987723 0.5492243 0.24913089 0.7323233 0.34449598 -0.22945558 0.54870224 -0.45153788 0.19365914 -0.058755238 -0.06532638 -0.17293774 -0.17648289 0.08162074 0.130574 -0.08914858 0.22007146 -0.15265413 -0.01601256 0.17186044 -0.001934018 -0.7625076 0.27237868 -0.35799316 -0.14924635 0.04798794 0.39409363 -0.17625484 -0.19613487 0.5825954 -0.17137977 0.13430567 0.08589921 -0.091301166 0.5395957 -0.049512047 0.35475102 0.5812012
小 -0.05206637 -0.632275 -0.10699474 -0.06679847 0.060122762 -0.015285355 -0.22823283 0.12563382 0.35232404 -0.14126906 -0.038956083 -0.1646109 0.22575565 -0.4387538 0.17942397 0.18158281 0.41857857 0.24460313 0.7330971 -0.21455376 -0.2267817 -0.23257455 0.42993045 0.11720451 0.13137248 0.24283458 -0.14652015 -0.5504434 -0.14349522 0.26654977 0.3240607 -0.3155058 -0.09748734 0.31164357 0.26422957 0.05460273 0.061537206 -0.057963192 0.06815416 0.16226754 0.034790143 -0.49709848 0.23192462 0.3343121 0.2227126 -0.9405162 -0.15805227 -0.18510406 0.4698774 -0.062918946 0.4962181 -1.0020654 -0.15457985 0.029022861 -0.13104606 -0.64564586 0.4220727 0.29169342 0.27882615 0.9897896 -0.07763267 -0.29044366 0.112384774 1.059012 0.6342189 -0.23723838 0.11501689 0.03075118 -0.15319397 0.1331654 -0.20449269 -0.104783885 0.63813 0.3211297 -0.30573133 0.4840742 -0.0013780633 0.24496777 0.48266795 0.118452445 0.14008448 0.021310963 -0.12280185 -0.056483034 -0.055639632 -0.6603663 0.32362399 -0.21381502 0.03648921 -0.09992551 0.041618425 0.32503274 0.14469652 0.280725 0.25302666 -0.1647968 0.048941683 -0.582942 0.6067743 -0.30106997
天 0.20259912 -0.17925054 0.35555398 0.09008415 0.22300592 -0.19807307 -0.6259088 0.1345634 0.3531134 0.18727256 -0.3503299 -0.2038536 0.52662736 -0.5412255 -0.27667052 -0.16810498 0.042328887 0.13934192 -0.09866974 -0.06536541 0.052271232 -0.24710451 -0.7931094 -0.037322912 -0.16432764 0.54803705 -0.519 0.16225491 0.36039102 0.033394005 0.45001104 0.1376548 -0.29202256 -0.10700711 -0.031934347 0.25088286 0.31831253 -0.071278036 -0.17673439 0.19173479 -0.6316551 0.01671282 0.22020613 0.18736073 -0.51065063 0.03430408 0.70390433 0.17822653 0.083616465 -0.5953189 -0.14165485 -0.5137485 -0.32959074 -0.45450312 0.30163133 -0.065762945 0.26192692 0.322634 -0.021727856 0.00094246335 0.033980135 -0.7128118 -0.22876571 0.5913538 0.019692665 0.020975154 0.29910555 0.39709795 -0.5998779 -0.37627366 0.38527015 -0.07881145 -0.48167726 0.31705505 -0.42465115 -0.17490676 -0.23343673 0.10493276 0.017113337 -0.16201927 -0.84316176 0.10062693 0.31123924 0.053838573 -0.21268116 0.49409002 -0.41199175 -0.3337656 -0.16420934 -0.28059223 0.3619077 -0.5075005 0.5335728 0.4869802 0.09142761 0.1184459 -0.721443 0.008922391 0.3140414 -0.060869865
乐 0.46685827 -0.0076886406 0.52557904 0.31735548 0.14675954 0.27160808 -0.4011155 0.20806733 0.07359187 0.14335804 -0.112253934 -0.67483217 -0.20891573 -0.07564923 -0.27315056 -0.31323078 -0.61780447 -0.10754062 -0.30679598 -0.07857985 -0.03479108 0.19258061 0.14673065 -0.05888771 0.492115 -0.3174256 -0.4676672 0.15260983 -0.45657724 0.11468859 -0.079798095 -0.25130594 0.15799442 -0.21245794 -0.43542063 0.66161 0.3411176 0.2935922 0.12135074 -0.25527897 0.06253881 0.30305701 0.10963521 0.31757563 -0.3356675 -0.25501943 -0.45511156 -0.025183188 -0.09486396 0.54735696 -0.8378949 -0.03870972 -0.3522407 -0.03553369 -0.14605786 0.5998162 -0.10258683 0.14767258 0.03644257 0.76793236 0.49150133 -0.12640393 -0.44311947 0.3947256 -0.060649287 0.24759486 0.30704802 -0.17038591 0.43935394 0.46001685 -0.27116308 -0.149878 0.12122518 -0.25976545 -0.111195 0.50237656 0.1957466 0.10323095 0.08423281 0.4301079 -0.34376752 0.051540103 -0.035038542 -0.052902926 0.13827834 -0.15811332 0.11348088 -0.5890344 0.5993067 -0.09891636 0.3619156 0.18492976 0.03675602 -0.32776386 -0.41617498 0.06967728 0.21950112 -0.37783143 0.09215391 -0.41575912
邦 -0.006121652 0.0016130706 0.07380835 0.12087317 0.07114241 0.054015223 -0.21112387 -0.36983258 -0.3802512 0.0958344 -0.23085687 -0.13261737 -0.097794406 -0.0207256 -0.3859328 -0.26509327 -0.27722135 0.27841705 0.39458105 -0.18666801 0.086486645 0.11628634 0.33103183 -0.49861038 -0.24893282 0.051796556 0.3461109 0.016953055 -0.053512353 -0.223588 -0.17807078 0.015841337 0.008861844 -0.23983322 -0.9636045 -0.033020366 -0.07113481 0.036242336 0.36132652 0.30313417 -0.59127045 0.46061978 -0.24890178 0.23278828 -0.30111733 -0.6652812 0.7584121 -0.1824896 -0.81189394 0.57801235 -0.6238709 -0.74117625 0.33582887 -0.24624234 -0.12755598 -0.4148602 0.38344216 0.1486868 -0.4360162 -0.16127098 -0.4859489 0.3250739 -0.29468423 0.544568 -0.41020316 0.57128215 -0.1930082 0.037571892 -0.012951112 -0.33228886 0.028417924 -0.3244069 0.24218963 -0.10409133 0.35395122 0.48477268 0.5791891 -0.10369413 -0.23276791 0.16292545 0.035928108 -0.3862913 -0.33436662 -0.49048284 0.21704002 -0.39368674 -0.6454359 0.44551477 0.212053 0.12075579 0.033518106 0.7783153 -0.2154877 -0.20258242 -0.25828132 -0.13210675 0.13087419 0.36068925 -0.25954887 0.014683938
亦 -0.08872262 0.4498752 -0.17932811 0.35317972 -0.20264494 -0.22685419 -0.66969615 -0.2396889 0.326151 -0.031741913 0.01025067 -0.5713997 0.26699507 -0.2704861 -0.2810079 0.60559607 -0.7305296 0.25081185 0.14218885 0.53496146 -0.00015794643 0.15966688 0.41966483 -0.47882453 0.070350446 -0.58473545 0.092996225 -0.52068764 -0.47779828 0.51467985 -0.097060464 0.4545213 -0.11214792 0.60151863 0.21770717 -0.21916866 -0.42867884 0.17210057 -0.21383938 0.061717603 -0.17862451 -0.07108732 0.12006963 -0.12114626 -0.46945578 -0.099202745 -0.22231166 -0.20658642 -0.027316554 -0.07205536 -0.30410177 -0.5844975 0.3065819 -0.48474586 -0.15574478 0.19969893 0.34328493 -0.28082445 -0.7761955 -0.03466062 0.13035145 -0.4807965 -0.75058115 0.79334545 0.33419037 -0.56583875 0.016517306 0.079829775 -0.18676627 -0.05554645 -0.13464132 0.07814176 0.26172128 -0.3575771 0.25020528 -0.71120554 -0.3474138 -0.3898456 -0.38693157 0.64701736 -0.47709233 -0.046470378 -0.5402278 0.04414685 0.04146981 0.69135344 -0.57375836 -0.3332669 -0.37442636 0.23786794 0.22635917 -0.24527921 0.040002223 0.055169933 -0.047770552 0.535528 -0.40862027 0.17367423 0.3623216 0.29611734
使 -0.34706736 0.6599588 0.30553645 -0.16614158 -0.42219085 0.46710762 -0.24445887 -0.0732572 0.020993533 -0.11566702 0.117827736 -0.39672655 0.3317927 -0.20332372 0.013453997 0.28018138 0.36331847 0.42408988 -0.055561546 0.38421193 0.15575968 0.25899515 -0.2262589 -0.3390211 0.10892917 -0.22568673 -0.31935453 0.45217806 -0.03815162 -0.2328146 -1.1471246 -0.42243582 -0.47405306 0.0997796 -0.3222415 -0.00221715 0.5934888 0.14666522 -0.06582111 -0.058109112 -0.17932421 -0.05431204 0.3629226 -0.1192908 0.03879319 0.39228514 0.061455365 0.19461106 0.06334987 0.113467716 -0.617164 -0.24305236 0.20076548 -0.13596632 -0.34528866 -0.8577126 -0.10103997 -0.35766226 0.084223375 -0.06586144 -0.6635889 -0.60356915 -0.35860848 0.55857664 -0.18714125 -0.5033024 0.10173684 0.46313807 0.19192797 0.42981556 0.2307608 0.608791 -0.034062017 -0.14538145 0.66764444 0.10465844 0.33830407 0.16754885 -0.4572213 -0.26666403 -0.37281692 -0.07197495 0.23735908 -0.23141082 -0.6620273 -0.021124307 -0.44557032 0.012817269 -0.29313397 -0.1953395 -0.13708724 0.17328826 0.11841355 -0.1315255 -0.07187484 0.28946438 -0.07804074 0.4701493 0.30780753 -0.41317588
大 0.0334289 0.027364563 -0.10651969 -0.53374565 0.31734312 -0.01181957 -0.41866747 -0.38709858 0.22848916 0.10451167 0.44750378 -0.5268242 -0.627613 -0.112892464 -0.43788722 -0.23971662 -0.046591513 0.43081233 -0.22277129 0.47923818 -0.42264786 -0.44674784 -0.2017545 0.48630297 -0.5874677 -0.83594084 -0.24173087 0.73012877 -0.090320446 -0.317422 -0.05275951 -0.10915593 0.13178457 0.5189321 0.57892424 -0.09725144 0.3568699 -0.20173682 -0.26092958 -0.3733584 -0.10256972 0.070192315 0.11425559 -0.6178643 -0.32314014 -0.53122663 0.10547301 0.106373556 0.3122393 -0.067934744 -0.12989394 -0.5376385 0.16910748 0.50973785 0.4609405 0.33341008 -0.35643762 -0.40406123 -0.21343866 0.23404835 -0.6277933 -0.15067866 0.08895594 0.5659186 -0.11638603 0.20109141 0.27743673 0.3890406 -0.45341858 0.046912827 0.27683195 0.05303081 -0.076247 -0.4170886 -0.32091147 0.6911653 -0.3667104 0.17970729 -0.055114724 -0.6864685 0.1061714 0.15786391 -0.05209474 -0.071953766 0.2520692 -0.17366527 0.4991056 -0.25039247 0.10423981 0.014342594 0.07430851 -0.055262446 0.054604158 -0.07203063 0.09560693 0.1974804 -0.25297564 0.17132838 -0.22109205 -0.49935964
下 -0.32660162 -0.15124696 0.39705923 0.14999267 0.25899294 0.026559059 -0.7780573 0.14117904 -0.37405378 0.29428715 -0.24213913 -0.111404054 0.13706313 -0.50065136 -0.27648783 -0.09340348 0.34500837 -0.14794558 -0.03155399 0.8685339 0.12279395 0.00053248566 0.76092684 -0.34239963 -0.19738227 0.27387452 0.27487743 0.42674118 0.78216314 -0.46936554 -0.027619576 0.21298137 -0.034087274 -0.7224774 -0.4783388 -0.012446657 -0.13647601 0.44377106 -0.008317096 0.10285672 -0.5621744 0.116638385 -0.27263355 -0.11386928 -0.26115668 0.30032545 0.03603524 -0.43564624 0.12610376 0.28526962 -0.5074234 -0.07763197 0.3722101 -0.10098834 -0.22966205 -0.20583399 0.37131944 -0.2556441 0.020361282 -0.49795777 -0.21168533 0.26030934 -0.26089105 0.82018703 -0.2513907 -0.0643953 -0.10632574 -0.09797902 -0.25215387 -0.49681225 -0.000453278 -0.42427513 -0.86023736 0.054807227 0.4831984 -0.07768169 0.10744707 0.16674943 0.112851754 -0.20316707 0.21943913 -0.033190846 0.5787486 -0.96517843 0.35501987 0.221852 -0.13253412 0.18253319 0.58200693 0.0011475113 -0.07821563 -0.5424397 0.17811206 0.79664665 0.39658257 -0.11347531 0.06657158 0.066316724 0.22662267 0.38821813
贡 -0.11192533 0.22267437 -0.072340906 0.055907857 -0.0059463186 0.33322045 0.14104919 -0.28363365 0.11529936 -0.4715727 0.16140111 0.3274542 -0.0016774858 0.09023783 -0.040247038 -0.24810717 0.09994317 -0.3809063 -0.60779214 -0.15460715 -0.38765076 0.16365847 0.10759959 0.39846203 0.08461625 -0.2589742 0.9141871 0.3481518 -0.13448414 -0.177761 -0.38621673 0.08658621 0.46291837 0.35641667 0.3921436 -0.40102437 -0.17267643 0.50354075 0.13958967 -0.37209326 0.3641846 0.18780123 0.37974697 -0.17355897 -0.38611946 -0.19970138 0.020939568 -0.36157176 -0.20788173 0.23367736 0.247432 -0.78102404 0.67341954 -0.12175616 0.2403917 0.32602105 0.7124886 -0.17959541 0.355478 0.29748738 0.61279297 0.26769638 0.24117637 1.3974528 -0.25423545 -0.42029005 0.036290616 0.12587558 0.3211255 0.10574961 -0.32746676 0.7210426 0.31784853 -0.21829706 -0.32640436 0.18437189 -0.31825897 -0.13246927 -0.5717919 -0.268723 0.059505917 0.12711574 0.55572605 -0.3325161 -0.16889869 0.2459902 -0.2668665 0.57121015 0.117447756 0.09150306 -0.12272075 -0.3847447 -0.04814725 -0.71724975 -0.008162498 -0.00506899 -0.14914359 -0.3405463 0.16067183 0.034598842
欲 -0.16392574 0.26662236 -0.39077836 -0.42444402 -0.2459164 -0.5125941 -0.31251428 -0.07457996 -0.7303638 -0.60214335 -0.032046314 -0.20491062 -0.22734572 -0.2778074 -0.021730863 0.2965832 -0.38391656 -0.46973696 -0.19360784 0.003310316 -0.7337591 0.14021774 -0.2781305 -0.034596525 -0.0059000137 -0.30968887 0.1283251 0.46093583 0.05846376 -0.5573634 -0.30647466 0.31956452 0.14086916 -0.26887554 0.43244413 -0.64598894 0.09560077 -0.1493014 -0.41547197 -0.10051703 -0.30567572 -0.35903597 -0.66178507 0.09145297 0.08489697 0.043484364 -0.23018247 -0.67234504 0.117191225 -0.6753717 -0.041303106 0.38141528 0.0011491532 0.2906641 0.44524544 0.059493445 0.20521887 0.21531521 -0.22107148 -0.012045947 0.35227552 -0.3788467 -0.37494272 0.69173175 0.22101243 0.3462052 0.15020497 0.06424456 0.23707455 0.416551 -0.41732237 0.10625276 -0.22750324 0.05891145 -0.61677814 0.18410346 0.3992022 -0.10292663 -0.21834639 -0.019281313 -0.6396252 -0.28097266 0.34037906 -0.44446158 0.3951394 -0.06329522 0.36693612 0.36968952 -0.29813775 -0.3527624 -0.27708316 -0.08951233 -0.32220677 0.25607175 0.03214693 -0.04166103 -0.16429532 0.250688 -0.15897447 -0.105037324
诸 -0.20340423 -0.48195863 0.43540147 -0.09048259 -0.16293421 0.014457605 0.09246289 -0.026823604 0.3757236 0.023915514 0.40458873 -0.4091624 -0.3289505 0.5162957 -0.6957823 0.3932389 0.42729676 0.017610533 -0.294636 0.065650195 -0.50470406 0.03210193 0.23980401 0.7826962 -0.016833328 -0.15670535 0.47022194 0.19605626 0.79961026 -0.5153973 -0.5103133 -0.19098996 0.04717731 0.08652039 -0.38312876 -0.8144557 -0.21731403 -0.41642788 0.15008046 0.24900222 0.03184081 -0.58582944 -0.06528401 0.4697019 0.17208035 -0.35737807 -0.2473192 0.6736822 -0.20988792 0.20267104 -0.27326363 -0.19096036 0.12184057 0.38050607 -0.9970996 0.2338409 -0.1719159 0.5972795 -0.20789306 0.21985383 -0.24836484 -0.30616143 0.20143114 0.9633005 0.110884376 0.16119617 0.030276159 0.008624055 0.6444567 -0.4178756 -0.43289366 -0.17050856 -0.05250554 -0.09904841 -0.47539362 -0.4971927 0.11880483 0.2625012 -0.29645517 -0.19914009 -0.23665303 -0.2601348 -0.03271868 0.28035676 0.2421538 -0.599307 -0.85338455 0.04126152 0.31454128 0.024149792 0.5356037 -0.15787774 0.42600608 0.13505355 -0.53884894 -0.08493123 0.018025212 0.044082176 -0.12676848 0.15225117
从 0.11528796 0.85655606 0.51557124 0.36621737 -0.12795457 -0.04857698 0.07743342 -0.2704441 0.041533586 -0.8947556 0.07052432 -0.59386885 -0.63226277 0.31224233 0.218547 0.2826394 -0.30549932 -0.09147824 0.12070699 0.41933703 -0.23421568 0.15653586 0.264228 -0.056645885 -0.16071753 -0.34321532 0.5114177 -0.20572558 0.1210663 0.6169643 -0.12696289 -0.9364435 0.05908628 -0.132128 0.48556578 -0.27620295 -0.23158497 -0.27060744 0.15907991 -0.13424322 0.18772472 0.028453177 -0.24329321 0.39739275 0.71877146 0.063215144 0.6671954 -0.59030473 0.22381312 -0.15951258 0.3528397 -0.08200816 -0.194537 -0.093598254 0.15077838 -0.14141804 0.34144717 -0.17447682 -0.41905907 -0.29056224 0.10481086 -0.80128384 0.053453233 0.5714848 -0.34584555 0.13610779 -0.44963887 0.3747618 -0.029602235 0.18037792 -0.18573761 0.5397436 0.058236845 0.33676934 -0.025352238 0.4482765 -0.33464372 0.43771023 0.0240674 -0.14627267 0.55782 0.29994145 -0.049413625 -0.02637501 0.4441106 0.25143936 -0.29537594 -0.24101605 0.2611967 0.1690794 0.0036447889 -0.4476709 0.5030944 0.30403003 0.06975879 0.05623811 0.11592047 -0.08106687 0.38873783 0.014513328
文 -0.15369731 0.428838 0.1843637 1.1963336 -0.5048024 -0.5703451 -0.04737021 0.0015220682 0.02695754 0.028072238 -0.05642853 0.14072067 0.09846632 0.0052007106 -0.6547106 0.2601317 0.024344968 0.43430564 0.73557377 0.2745854 0.16635114 -0.30456164 -0.10196889 0.15677364 -0.13841416 0.3771593 -0.094839975 0.0014733083 0.11737599 0.17312428 -0.16619042 -0.39481047 0.17592421 0.07612372 -0.28381482 0.19868827 0.04506892 0.3045371 0.057023436 0.029440908 -0.23040543 -0.35013667 0.6543014 0.5247341 -0.5931451 0.1330085 0.014602426 0.4712942 -0.5846958 0.11824655 0.050192703 -0.71196544 0.05732442 0.52847993 -0.16750774 0.08398662 -0.097430184 -0.09353889 -0.39723766 0.13936882 -0.06633789 -0.18912531 0.21336722 0.5444242 0.7001988 0.33856142 0.12741762 0.8327911 -0.41443118 -0.11435099 0.029476553 0.13679105 -0.25218624 -0.029774345 -0.26581872 -0.14900964 0.36069512 -0.27796844 -0.56554896 -0.5988464 0.5888424 -0.8273022 -0.28258952 0.12419453 -0.09602009 0.15701105 0.17469096 0.08670724 0.6693937 0.24253973 -0.45032316 -0.24037296 0.013963414 -0.1909329 -0.287711 0.09836889 0.43471983 0.019336138 0.019766679 0.42077678
政 -0.36260054 0.39673316 0.6718681 -0.15082775 0.09879807 0.23739639 0.15159447 -0.18967679 -0.14117248 0.05503572 -0.3802432 0.0044163116 0.2220216 0.54544574 -0.17713135 0.8637571 0.09674179 0.17935784 0.0628035 -0.10860744 0.40777093 -0.20068397 -0.3741386 -0.15133561 -0.30377483 -0.39367476 -0.050536785 -0.23837559 0.024182182 0.16553538 -0.5000684 0.06648757 0.092027046 0.3184134 -0.4857768 0.1836625 0.31096363 0.5911904 0.100854255 -0.3230829 -0.1273673 -0.5736438 0.42131236 0.2248659 0.22712164 -0.22085889 -0.38264582 -0.59823096 -0.4792983 -0.3360209 0.13382764 0.044431917 0.39139012 -0.02073781 0.5094793 0.04321022 -0.5711102 -0.27445412 -0.37610513 0.19180879 -0.47264796 0.35607234 -0.0924858 0.5918791 0.26715615 0.14093776 -0.056885026 -0.3560917 -0.31593376 0.3229761 0.104182474 0.3761099 -0.53383726 -0.49143392 0.244837 0.018257676 0.01185297 0.12989041 -0.45229322 -0.8233707 -0.11165613 -0.45338547 0.1923309 0.04427349 -0.49120414 -0.0745697 -0.16816173 -0.35743532 -0.4833552 0.1577719 -0.37577537 0.006099087 0.4932014 0.25713962 -0.57585603 -0.19238631 -0.16013573 -0.6643962 0.2479236 0.45656225
食 0.07285088 -0.051458582 -0.22478469 0.11347754 0.49265856 -0.14303504 -0.18961059 0.030778704 -0.25721446 -0.15618885 0.05340352 -0.6430172 0.5953468 0.48233148 -0.14830737 -0.29267135 0.118137315 -0.24653043 0.21838956 0.123433344 0.439792 0.44378302 -0.43248513 -0.18151376 0.13772014 -0.5196582 -0.3838458 0.0050330153 -0.12688169 -0.03610667 -0.40932804 0.40343106 -0.11268893 0.49124324 -0.3754861 0.046835832 0.30830216 0.17205131 0.00033181708 -0.2987704 -0.34786424 0.1859471 0.29267806 0.11292097 -0.02147276 -0.3895369 -0.018975975 0.33157796 -0.72307676 0.36690888 0.043785404 -0.1673592 -0.24226291 0.50002223 0.9332973 0.48368484 0.44341165 0.29017428 0.08706909 -0.3967067 0.7689611 -0.46796736 -0.38276806 0.7431671 0.95068663 -0.05198178 -0.3564153 0.3682043 -0.32654375 -0.1906971 0.4187835 -0.20869647 0.32864586 1.2189453 -0.08789096 -0.16733317 0.24721994 -0.15203717 -0.075927414 0.8724623 0.07562157 0.1600265 0.038979143 -0.6061552 0.55438554 -0.38552567 0.30427164 -0.5649052 0.24199829 -0.3390876 -0.21353824 0.38828877 0.31960544 0.19943075 0.11678735 -0.10706365 0.069532745 0.147981 0.2748886 0.16190127
善 0.2744634 0.26483896 -0.20216274 -0.6415873 -0.23099688 0.38705328 -0.117209524 0.31493092 0.15488166 0.37393755 -0.8856172 -0.25462234 -0.21939096 -0.07329469 -0.1798687 -0.10384548 -0.15421572 0.09973801 0.60348374 0.32893404 -0.014498781 -0.073424704 -0.19243023 -0.02316026 0.08196946 0.17666882 -0.051778726 0.08592282 -0.11903301 -0.124174096 0.7778195 0.4190781 -0.24020001 -0.18826982 0.2788105 -0.08044796 0.05188541 0.18498252 0.11004225 -0.6737547 0.28054664 -0.422755 -0.41558194 0.07073421 0.21507671 0.07224964 -0.8473208 0.1191845 -0.4930166 0.5740829 -0.074074574 -0.10783994 0.53821886 0.10116683 0.045618873 0.42175877 0.5657156 0.012169325 0.6020343 -0.18191467 -0.7713733 -0.38184237 -0.25348976 0.6995316 -0.28898785 0.12071982 0.11510266 -0.017881515 0.2819578 -0.02161978 -0.06618165 -0.07740099 0.19558209 0.04424752 -0.093148425 0.0027115943 0.73960936 0.44999453 -0.07425214 0.027993998 -0.36104244 0.13613316 0.36214188 0.34504983 0.3611373 0.4871721 -0.020957388 0.46857002 -0.30536488 -0.021928743 -0.3065 0.14057422 0.63791305 0.25236621 -0.6929729 0.07698864 -0.0720494 0.48439524 0.06852044 -0.21498121
后 0.44129053 -0.15882264 0.10515042 0.50965947 -0.30238444 -0.05377092 0.1427606 0.4337914 0.2405579 0.18984613 0.3091308 -0.24613047 0.04877136 0.14733386 0.25524473 -0.40771618 -0.0023584296 0.09927766 0.051298633 -0.014666627 0.13152623 0.14542435 -0.09707135 -0.46864885 0.13602419 -0.33663708 0.2646156 0.23504487 -0.093856096 -0.6546916 0.27676228 0.3835758 0.08117126 0.11055731 0.5207405 0.118677646 -0.25509325 0.5875674 -0.73701555 0.40111673 0.5669888 -0.17543188 -0.32948676 0.17237198 -0.08413384 -0.1448231 -0.35576612 -0.15882574 -0.30904958 0.4805826 -0.14252567 -0.32271338 -0.38503456 -0.47418034 0.48654705 0.242302 -0.41363737 -0.40270555 0.14651309 -0.4898808 0.24892783 -0.115608156 0.0984145 0.7995295 -0.7889009 0.1055731 -0.09866636 -0.29496342 0.03577592 -0.59231627 0.044750303 1.1203194 -0.0017190408 -0.12708126 -0.039472748 0.2619117 0.18330902 -0.20239879 -0.5030038 -0.378947 -0.08142436 0.058418926 -0.34751913 0.3613235 -0.19222869 -0.75805837 0.29852885 -0.15109302 -0.5385311 0.16569035 0.3490945 -0.55331975 0.23855327 -0.04224069 0.07796001 -0.22038849 -0.23062748 -0.46139 -0.17204277 -0.43001175
德 -0.71722674 -0.092453994 -0.03793328 0.17932248 0.5261045 0.24218386 -0.039053943 -0.8485054 0.78882676 0.007917587 0.16198033 0.23049073 -0.25565892 -0.24838789 0.3355458 -0.27919483 -0.045691274 0.03307945 0.45372576 -0.1873281 0.3911667 0.36866304 0.57363665 -0.28379238 0.61987597 0.041119803 0.043891687 0.39538923 -0.019135082 -0.47203103 0.39141604 -0.46355265 -0.07437874 -0.34575444 0.7853529 -0.19054079 0.2064998 -0.19105831 0.3456242 0.4874807 -0.027221864 -0.09005891 0.47008568 -0.12642781 -0.43258157 -0.777337 -0.0810384 0.32552534 0.2663097 -0.0818114 0.25434458 0.04680438 0.25665733 -0.113610335 -0.019113135 -0.775581 -0.03260675 -0.7667998 -0.26980737 -0.02609208 -0.32716957 0.01323306 -0.1487671 0.6416847 -0.2967679 0.19784972 -0.81140167 0.22852029 -0.31304187 0.1612293 -0.31404293 -0.047992513 0.4739578 0.3017178 -0.076205276 0.0036777353 0.027926918 -0.13494605 -0.17360575 0.11438679 -0.29729542 0.14908504 0.6482293 -0.17240971 -0.5283427 0.005251414 -0.3501537 0.35049984 0.41144952 -0.5275227 0.2795376 0.17492433 -0.2484324 0.64507526 0.25374246 -0.15549967 0.7465339 0.02867087 0.2486891 -0.24961598
求 -0.32326916 0.01793804 -0.57211626 -0.071856685 -0.18843941 0.5996992 0.07666936 -0.552355 0.19395812 0.13567227 -0.2870819 -0.49573505 -0.049024433 0.4656624 0.48299223 0.24270135 0.6882394 -0.15434015 -0.2665097 0.22694069 -0.015248634 0.096406676 -0.02350536 -0.57857925 -0.28267756 -0.06446551 -0.073883265 -0.1425585 0.38869044 -0.21779867 -0.49995852 0.60910904 0.8299028 -0.53469247 0.080165185 -0.014355618 -0.09336829 0.11451318 -0.2921141 -0.078094445 -0.20066226 0.049441356 0.49691167 -0.39853328 0.40754578 0.011996666 0.3311924 -0.7784281 0.49298555 0.42044792 -0.34433714 -0.25652128 -0.011503566 -0.012650865 -0.1727683 0.15792465 0.48894086 -0.113104284 0.2586302 -0.21712306 -0.24685311 -0.31563014 -0.47913298 0.6392497 0.05611189 0.27923095 -0.31115183 0.12425916 0.18374306 -0.0067651607 -0.16898343 -0.17890035 -0.07773299 0.041373394 -0.72785676 0.18613899 0.24929443 -0.32967898 -0.049226213 -0.18746345 -0.094906755 -0.11815587 0.2277621 0.36967713 -0.1895894 -0.47156215 -0.17249097 -0.029454267 0.16202356 0.24663465 0.16545485 -0.32300895 0.3716917 0.4369422 0.10995052 -0.11974158 -0.46606043 -0.1460191 0.10383919 -0.43818286
对 0.24646968 0.22380821 0.07092071 -0.81560427 -0.2443236 0.22930473 0.24174125 0.20468837 0.2390625 0.046126276 0.10032806 -0.13760181 0.0253391 -0.060840398 -0.18250288 0.48800924 -0.24722704 0.33885667 -0.5700985 -0.36099246 -0.1346468 0.19423404 -0.16337034 0.8631013 0.43761757 -0.20927592 0.20304643 -0.7078516 -0.025872879 0.42281964 -0.4279024 -0.3357673 0.26291347 -0.88731915 -0.14967328 -0.16520017 0.28196257 0.5721029 0.42472887 -0.047116555 -0.056221526 0.50126207 0.043462735 0.050337985 0.15248132 0.06576674 -0.24933158 -0.26843598 0.39440635 -0.7803331 0.043898787 -0.18380424 0.13603134 -0.094848946 -0.72443783 -0.6980873 0.052448936 -0.3282985 -0.40272284 -0.16657893 -0.08291504 0.1324757 0.81086844 1.3681368 0.30419946 -0.09763476 0.45149657 0.1414495 -0.23016836 -0.30592257 -0.18086861 0.61042315 -0.50050044 -0.20872954 -0.31662995 0.119793735 0.28188255 -0.3359966 -0.44753674 -0.24447183 0.511867 0.22220212 -0.6198916 0.21280143 0.281761 0.39736786 -0.40889433 -0.6569125 -0.586951 0.14220281 -0.20251735 -0.41143015 -0.045678474 0.34459174 -0.11252705 -0.06997846 -0.32086238 -0.29633185 -0.20636825 -0.30636182
恶 -0.33429474 0.13744347 0.00128644 -0.11374767 0.06792656 -0.4065067 -0.09135622 -0.28399846 0.041952334 0.19867128 0.17320953 -0.362102 -0.5161643 -0.11337134 0.13520296 -0.53396225 -0.34834808 -0.08350898 0.27969223 0.07547242 -0.34307632 0.45092937 -0.07847151 -0.33373043 0.049251158 -0.18058401 0.17453587 0.047660235 -0.3948573 -0.07175753 0.20005721 0.25264606 0.69845057 0.10254936 0.13778423 0.07331185 -0.4434658 0.22836815 0.20702031 -0.48591363 -0.1872119 -0.28647533 -0.16279799 0.34279823 -0.15999535 0.27842456 -0.008434508 0.21313684 -0.10405209 0.37519988 -0.21320756 0.055057112 0.3999632 -0.13114776 0.22690918 -0.0002070633 -0.47744173 0.3150458 0.79555035 -0.16926719 0.03245669 -0.2203905 -0.05993203 1.0098224 0.027453551 0.0737424 0.001945211 -0.039132904 0.5094284 -0.4953643 -0.4546812 0.8008181 -0.6414444 0.28557065 -0.20742793 -0.036612455 0.4212402 -0.46329156 0.29032007 0.27226555 0.03954039 0.14195192 0.46722236 -0.3316076 0.09243662 0.11352784 -0.23457195 -0.3163197 0.87843037 0.07419868 -0.19774733 0.14536741 0.20287524 0.18232727 0.22884993 0.05512588 -0.7897829 0.5816746 -0.182137 0.2747161
信 0.55801404 -0.07113737 -0.21556704 0.3293193 0.05923998 0.47682813 0.15673044 0.033514567 -0.46429807 0.41976613 -0.10019695 -0.3407763 0.31861693 -0.10681187 -0.3140833 0.26169038 0.60595566 0.6770509 -0.21514401 -0.15391785 0.3220097 0.21740289 0.29645327 -0.030855037 -0.030883428 -0.14346045 1.1058632 0.43145356 0.35761222 -0.31875682 0.38723838 0.22464962 -0.17807524 0.22760661 0.9895481 0.47062242 0.4057103 -0.023444213 0.10839316 -0.03508636 0.5556143 -0.4824498 -0.084257305 -0.08915082 -0.053926494 0.045497242 -0.2963875 0.14794524 -0.05340824 -0.38615334 0.08720212 0.015931735 0.061421152 0.103495635 -0.014438644 0.56019807 0.38293535 -0.21531007 0.106767006 0.043726873 0.25106555 -0.3634407 -0.57624674 0.76718926 0.15562904 -0.2988754 -0.44848856 -0.15722047 0.13509825 -0.055016663 0.35639796 0.0369033 -0.21103665 0.26373088 -0.4282761 -0.24432318 -0.1773431 0.23009773 -0.035757266 0.429468 -0.5998118 0.46369937 -0.28919822 -0.14182843 0.45600376 0.1292185 0.30807102 0.9556594 0.22391365 0.5816998 0.26732337 0.34725717 0.84104395 -0.45402673 0.04145761 0.35468945 -0.23973754 -0.22151785 0.67765546 -0.6923779
死 -0.3804991 -0.053877857 0.5932412 0.2063249 -0.014944069 0.41371217 0.26197663 -0.3623229 0.19101565 -0.31950095 0.30478522 0.15267177 -0.08398723 0.17425112 0.15085912 -0.20318642 -0.6276156 -0.017773971 0.13664946 0.14569339 0.16750807 -0.2804142 -0.3637686 0.033782236 -0.015159279 0.16724978 -0.47524196 0.12369042 -0.18250693 -0.47436994 0.36991903 0.09222101 0.22282109 0.10836675 0.67070305 0.21948703 0.21655874 0.36919716 0.1539968 0.57793283 -0.27182207 0.1853694 -0.2688644 -0.08986362 -0.173915 0.16663575 -0.51282436 0.23990573 0.37869978 -0.27026343 0.13494997 -0.703635 -0.13305703 -0.15371399 -0.18985128 0.21851666 0.7229662 -0.39277938 -0.11864066 0.24477221 0.17668578 -0.3658569 0.108937584 0.41354403 0.06612756 0.85179067 -0.18013683 -0.26151305 -0.04673397 -0.0039833887 -0.22836092 -0.02582668 0.08035311 0.601121 0.14559965 0.6141135 -0.008970644 -0.2855225 -0.58268696 -0.57422453 -0.07120255 0.03918468 -0.16539106 0.05591336 -0.10803356 0.29629725 0.039564475 0.4076133 -0.24960887 -0.48105633 0.013738194 0.061073717 -0.07933191 0.28910923 0.43499064 -0.25638646 -0.39686477 0.30195528 0.681058 -0.18756765
然 -0.40080371 0.13592184 0.12461406 0.5176523 0.3994295 -0.12519968 0.09017132 0.14109698 0.17421737 0.30017254 -0.10202253 -0.20559253 -0.49199155 -0.3417311 -0.028397467 -0.12711175 0.089758985 -0.42286554 0.033494912 -0.012498974 -0.4996465 -0.017394794 0.24671708 0.14529917 0.12555984 -0.21076773 -0.036521047 -0.16129574 -0.17655414 -0.06240435 -0.028803105 0.30028102 0.59422904 0.35236317 0.5885156 -0.1474586 0.43641573 0.4021942 -0.05717897 -0.0043788766 0.4200415 0.21775743 0.10732834 -0.13580784 -0.25386477 -0.3739347 -0.2200422 0.43258896 -0.26057604 0.26757464 -0.22137138 -0.50367355 -0.5970876 0.39556822 -0.07454291 -0.2536931 0.29492065 -0.067973666 -0.1578336 -0.04751072 -0.10301386 -0.051300585 0.55366385 0.4853766 0.1394884 0.2268586 0.07711355 0.028388385 0.037755784 0.44258276 0.58002275 0.46088615 -0.26222038 0.51042014 -0.10692117 0.634708 -0.2821452 -0.46525443 -0.897353 0.083917595 -0.452294 -0.08035661 -0.26095045 0.1550537 0.4108444 0.50308424 0.71636033 0.072848655 -0.11491552 0.0636184 -0.2536479 -0.5257168 0.32700512 -0.17907692 0.04771878 0.3070161 -0.72231895 -0.29101047 0.24742404 0.045814067
《 0.15447508 0.69612575 -0.104451105 -0.23898599 -0.36719882 -0.2357812 -0.044734422 -0.21598999 0.39420712 0.048134703 0.009542621 -0.63667405 0.15527213 0.37664983 0.07916342 -0.8409279 -0.5214771 -0.15879017 0.12736982 -0.2804685 -0.23252931 -0.14122005 0.05317603 -0.41398764 -0.14280447 0.0752559 0.46321213 0.066351876 -0.20615074 0.1318298 -0.031199055 -0.22242361 -0.52682984 -0.2823758 -0.6117751 0.23001479 -0.26069677 0.95244336 0.031039387 0.33839396 -0.13877603 -0.09725748 0.25135988 -0.27065998 0.2069192 0.062873825 -0.47669655 -0.21951465 -0.4123635 0.2705902 -0.32108048 -0.46436158 -0.29846892 -0.17082144 -0.49206644 -0.34711924 -0.2741638 -0.015839556 0.11117508 -0.19166341 0.07531876 0.19581242 -0.3213752 0.774291 0.39968422 -0.099856265 -0.25642985 -0.062094886 -0.33082604 -0.1963997 -0.28453717 0.33136088 -0.02876205 -0.84900624 -0.24635999 0.5145249 0.75006443 -0.18908243 -0.92982304 -0.13106063 0.53897583 -0.09502851 0.08309491 -0.57750005 -0.06075692 0.15987423 0.2673791 -0.111645676 0.44066596 -0.020188846 -0.047272004 0.15934846 -0.38206503 0.2492284 -0.07657423 -0.60551554 0.48885202 -0.09052099 -0.56875217 0.21319073
