1352 100
， 0.10485166 -0.0133831445 0.15679526 0.12133094 -0.0062075756 -0.459344 -0.023002759 -0.009376882 0.0588334 -0.081767865 0.009378867 -0.015084118 0.114144385 0.07277307 -0.002708262 -0.007997605 -0.002824474 -0.04418318 0.023338076 -0.12854439 0.017386846 -0.040873617 -0.052569136 -0.06894458 0.020134034 0.051028077 0.10231395 -0.08007576 -0.048602913 -0.06641016 0.029940998 0.030269893 0.09243385 0.028954009 0.09971573 0.0074776453 0.042227417 -0.13706443 0.045396406 0.0659068 -0.08012805 -0.051141027 0.06516664 -0.09454183 0.09288749 -0.027637087 -0.044232067 0.08501006 0.028224174 -0.14737357 0.011148926 -0.0009727103 -0.05863662 0.0020275647 0.009536681 0.040035956 0.023066651 0.024388362 -0.025913723 -0.031039702 0.053898543 -0.08799475 -0.018968448 -0.0816025 0.035578415 -0.01719377 -0.09712861 0.043437634 -0.07226524 0.073968925 0.089499556 0.047823034 -0.011758239 0.031668726 -0.032690376 -0.10302528 0.011707544 -0.048482414 -0.007969707 -0.20417783 0.11709398 0.046039823 0.060634818 0.021479674 -0.08302249 -0.064873144 0.054212414 -0.11663277 0.0029534663 0.00973445 -0.056356944 0.003985145 -0.0056206407 0.05676497 -0.012823571 0.39609447 -0.09221584 0.00553718 0.072840616 0.03364718
子 0.014815321 -0.029195353 -0.049780972 -0.059140857 0.08179625 0.46949986 0.001653876 -0.08293295 0.011842194 -0.009628656 -0.057608355 0.005463273 -0.022723602 -0.10980263 0.01000193 0.033293042 -0.028469559 -0.13290593 0.016271498 0.00034869777 0.021237459 0.10956696 0.025206706 0.1831448 -0.013424022 0.0032335988 0.023057994 0.029057214 -0.19365212 0.1334045 -0.054138545 0.07926613 0.18913294 0.009474828 0.06318821 0.07585099 -7.899577e-05 -0.12959093 -0.09508732 -0.0817868 0.06895133 0.120348744 0.027292743 0.08953828 -0.057218146 0.047895715 0.070798285 -0.003637764 0.07963821 0.03330723 -0.116060026 0.06903338 -0.12636174 -0.12572528 -0.11059667 0.084574245 -0.012521703 0.0024740298 0.014090786 -0.049227398 -0.096823886 0.07860831 -0.07370724 -0.11994016 0.043978885 0.120699055 0.02497837 -0.15196647 -0.044729978 0.01670682 0.033669364 -0.006454253 0.05993524 0.021836638 0.04015792 0.0204341 -0.16567793 -0.018442847 -0.0660005 0.14200519 0.19688874 -0.01043409 0.10790824 -0.047278903 0.053777453 -0.102675885 0.08122875 0.029408801 -0.013416933 -0.10119312 0.039051607 0.052597217 0.08759288 0.053952172 0.034540467 0.9609341 -0.15621254 -0.023749247 -0.104262605 0.1615985
。 0.09668542 0.17381091 -0.10062121 -0.0053022886 0.036526557 0.23383462 0.004163094 -0.01915232 -0.035512146 0.053430676 0.06882537 -0.05384842 -0.0107478425 0.12837897 -0.076777436 -0.05623921 0.04148067 0.04799253 0.0047642854 0.020188913 -0.053060554 0.044307962 0.038458712 -0.16495955 -0.00023971617 0.10107728 -0.06743117 0.025675468 0.012477162 0.104395956 -0.077892385 0.114172734 -0.21843688 -0.10285019 -0.017389024 -0.07043239 0.11740401 0.24288023 -0.10705878 0.21915454 0.06483869 -0.10271598 -0.06378542 -0.20694569 0.0026144125 -0.014582593 -0.08503475 -0.054525465 -0.08923576 0.070213035 0.046665646 -0.009810891 0.04334337 -0.022455355 0.040311858 -0.1990206 -0.04945217 -0.119468145 0.023794828 0.012685201 -0.18954383 -0.013919521 0.034717213 -0.055254396 -0.08074052 0.059689563 0.10619694 0.04263301 0.1577454 0.017562764 0.07309153 -0.1162351 -0.08253007 -0.03700077 0.11283558 0.19765332 0.08927115 -0.021619096 0.16646177 -0.29456902 0.05771166 -0.06276227 -0.15208645 0.030594964 0.13878524 -0.10587033 -0.021077018 0.022262009 -0.13472421 0.1155844 0.0025470625 -0.1556875 -0.068140805 -0.04239426 -0.3570278 0.91919404 -0.026484082 -0.0092447875 -0.056509536 0.1516547
： 0.049439352 0.06344229 0.16555345 0.17856435 -0.027756773 0.33504537 -0.08494184 0.016255423 0.0594387 0.101689845 -0.07363804 -0.013834253 0.039719347 -0.034728564 -0.11282643 0.14803866 0.05132051 -0.0031153974 0.06597943 0.020795194 -0.09771286 0.02514369 -0.06168767 -0.021736702 -0.030733034 0.07077867 -0.007376237 -0.103962906 0.052066904 -0.040330384 0.019812685 -0.026941953 0.023510043 0.02250783 -0.016210534 -0.022871936 -0.010165504 -0.10089046 -0.067490466 0.0499497 -0.06083083 -0.0675239 0.026192214 0.1465443 0.030271042 -0.06306421 -0.03865217 -0.15310353 0.032718588 -0.11133538 0.12224198 -0.028412098 0.021183934 -0.0064595724 0.0842255 -0.024230747 -0.119962536 0.0056458344 0.0060366285 0.055443056 0.0071722316 -0.005403347 -0.019706015 0.09442783 0.19222048 -0.21822366 -0.101398245 0.027982287 0.019346844 -0.03124884 -0.016871722 0.026412943 0.1128826 0.11968637 -0.052578222 -0.0489743 0.01690067 -0.05948009 0.16299443 0.40708703 -0.120776676 0.11003317 -0.05013719 -0.07346643 -0.070599616 0.10185871 -0.019464886 0.025872376 0.11994922 0.059934057 -0.11809197 0.11368248 -0.19661921 0.010358852 -0.10735182 0.7297616 0.15078047 0.0767106 0.088983536 -0.017552774
曰 0.10686359 -0.038948968 0.08908314 -0.0069333897 -0.05272078 0.43416747 -0.07613909 0.051274117 0.06834235 0.16935049 0.131426 -0.045146987 0.00680752 0.090655774 -0.080676965 0.022839194 -0.09338133 0.044849806 0.13427034 -0.056011647 0.052782286 -0.13159032 -0.10122185 0.064902194 -0.0039288322 -0.11766683 0.14489414 -0.21394509 0.020076513 -0.08407535 -0.10698072 0.048150945 -0.012995064 0.063065335 -0.0039513134 0.005216072 -0.06158209 -0.10515273 -0.042444143 0.061771557 0.089881726 0.0017070873 -0.07365424 0.023482256 0.042857032 -0.03501836 0.021096634 0.008726126 -0.10737612 0.013570342 0.01576987 0.06541576 -0.033332665 0.03765728 -0.03506346 -0.028591849 0.030420441 0.046382997 0.018274263 -0.05692048 0.0043417197 -0.0108705945 -0.06542055 0.061696347 0.15178299 -0.2745064 -0.059092294 0.050018262 0.016812587 -0.018393353 -0.04727958 0.057577018 0.022005213 -0.017355992 0.03929317 0.019375617 -0.10509501 0.006877051 0.11471017 0.41531125 -0.1390599 -0.053434327 0.010968446 0.029039452 0.011408278 -0.040995855 -0.07314433 0.17404504 -0.026283313 -0.02806483 -0.002838773 0.028288567 -0.021001475 -0.10515279 0.033682585 0.84537476 0.19902362 0.020625072 0.05419473 -0.040823564
之 -0.10838035 0.094346285 0.054573838 0.12590902 0.13443244 -0.20300901 0.105481856 0.119888596 -0.044957414 0.1434936 0.0075017856 -0.035178345 -0.032961097 0.35420752 0.013968166 0.074306995 0.009782692 0.12662815 0.13432275 0.15083002 -0.08224019 0.096566394 -0.1628375 0.1685072 0.113954365 -0.08588428 -0.089220844 -0.18533412 0.08540324 0.1702269 -0.07111429 -0.04457497 -0.08482688 0.04719374 -0.004889595 -0.11881826 -0.1315263 -0.11457083 0.04788846 -0.011724015 0.16699009 -0.12924612 0.12984364 0.22831982 0.019829905 -0.050986793 -0.06707864 0.18341252 -0.124218695 0.16974182 -0.06987353 -0.06908539 0.22528149 -0.079950586 -0.020128543 0.04005517 0.28294262 -0.027525466 0.050280508 -0.058335222 -0.046294995 0.023237182 0.057707764 0.029757166 -0.22172746 0.14326993 -0.012860305 0.08044361 -0.0025015413 -0.10059147 -0.08637626 -0.012863499 -0.060999975 0.044730037 -0.15959023 0.05522341 0.0021971196 -0.13369295 -0.13663594 0.0013656657 -0.1965945 -0.00047442465 -0.18671292 0.08355687 0.103672996 -0.050530285 -0.15123002 -0.1465175 0.09968056 -0.06427924 -0.115501724 0.049783546 0.033341244 0.050726596 0.1201076 0.4385846 0.09448643 -0.2638672 0.085106365 0.09045509
不 0.020264212 -0.08636267 -0.043721177 0.09990467 0.0955252 -0.48821205 0.09755535 0.04024146 0.039113514 -0.06420622 0.06464807 0.04900938 -0.058578927 0.22510174 -0.038773697 -0.10047575 0.069493994 0.102660425 -0.17262219 0.19838548 -0.14272846 -0.23806968 -0.013768564 -0.09624429 -0.019791273 -0.1424633 -0.1599113 0.05333394 -0.004448439 -0.0202571 0.013475901 0.21433906 -0.012531794 0.05405004 -0.15507717 0.069615625 -0.209875 0.109299384 -0.16419828 -0.37649515 -0.06568436 0.21726742 -0.0016874915 -0.023536997 -0.20685178 0.02631879 0.019797673 -0.020934397 -0.051721774 0.18735558 0.042742584 0.013794665 0.11667671 -0.058716215 -0.03901338 -0.12720878 -0.11909011 0.1623909 -0.013629885 0.040410504 0.15060334 0.042262904 -0.2453946 -0.09405831 0.40889853 0.05387356 -0.0067733773 0.07209754 0.08574995 0.041752897 -0.19487084 0.07815479 0.04017102 -0.075111866 0.0417353 0.03847812 0.07006827 -0.16119072 -0.07545687 -0.054246556 0.093840875 -0.088765055 0.021518871 -0.10012042 0.0772128 0.11563034 0.06716001 0.20083956 -0.066038296 -0.09920786 0.0019815096 -0.030308222 -0.1124477 -0.16111724 0.15732458 0.5469364 -0.037151527 0.09066999 -0.19092713 -0.09282671
也 0.05782029 0.04935694 -0.08697567 0.060482252 -0.23400378 -0.015884709 -0.031192977 0.11244448 -0.009211707 -0.2601464 0.005946919 0.11003932 -0.2530207 -0.0634405 0.010415162 -0.016948465 -0.006322409 0.13040666 -0.01582143 0.069193624 0.07415689 -0.15140288 -0.094228216 -0.18027027 -0.06128301 0.06576619 -0.04346106 -0.024113102 0.16551508 0.025086794 -0.35480398 -0.1393389 -0.07208018 -0.13791887 -0.025251448 0.13336009 0.14603482 0.058070045 0.019241488 -0.3033081 -0.15166451 -0.027116152 -0.115752 -0.07557816 -0.05791711 -0.23687121 0.15016848 0.03659196 0.08074677 0.06551548 -0.09813511 -0.29209182 -0.07490459 0.41585058 -0.17817056 0.017389504 -0.0027824081 -0.03376804 -0.025498092 -0.12851764 -0.10934467 -0.13245703 0.07593709 0.033914 -0.25752577 0.068682574 -0.038273007 0.29584202 -0.02516068 -0.064751424 0.18355003 -0.21437483 -0.059917863 -0.038720038 -0.01521738 0.040817633 0.087694064 0.033938993 -0.20980781 0.030788403 -0.08610171 -0.0036396922 0.23872577 -0.024868557 0.039432235 -0.11401927 0.027784089 -0.12014587 -0.012641747 -0.047176983 -0.2469332 0.05158698 0.07201174 0.014467252 0.14932676 0.66191214 0.12080125 0.022182392 0.02602502 -0.15958786
而 -0.19562274 -0.07990561 -0.1295721 -0.18771525 0.106081404 -0.4193271 0.14346278 -0.19729811 0.12544937 0.014822286 -0.24845439 -0.07294688 0.05762933 -0.054909233 0.11545109 0.23587428 0.08666182 0.05078822 -0.20965688 0.04373047 0.055626806 0.026380453 0.17179738 -0.04315994 -0.0544792 -0.101076506 -0.055782095 0.035882447 0.24352238 -0.22017016 -0.06785277 -0.24786837 0.12542726 -0.00011454626 -0.011089964 -0.060587317 -0.0004044742 0.11884632 -0.15861517 -0.007406479 -0.17442009 0.0946745 -0.30007428 -0.015195025 0.05571715 0.07335247 -0.0345506 0.07100037 0.12775435 -0.113669656 0.07431846 0.11783225 0.22924362 -0.104800455 -0.029293966 -0.06243014 0.12612656 -0.21993123 0.24274783 0.014552092 -0.13990055 -0.053508397 -0.10029111 0.3049612 0.38486204 -0.1616038 0.13572098 -0.020612024 -0.10463 0.047393396 0.23705415 -0.1322061 0.13320558 0.12595674 -0.17812197 0.047274474 -0.04248764 0.14975509 -0.19479738 -0.07824833 -0.0039094393 -0.0455502 -0.02736585 0.13769677 0.12688607 0.013853908 -0.13590072 0.073812015 -0.095883004 -0.13814677 0.17609182 0.03868247 0.061095405 -0.07616428 -0.14802895 0.6927649 -0.16332573 -0.13647124 -0.08713126 0.0050777127
？ 0.05388431 0.13973112 0.113044955 -0.013072969 -0.12216976 0.18638453 0.13105477 -0.08501962 -0.2524601 -0.036484376 0.11158449 -0.21760239 0.18578666 0.22588016 -0.054686025 -0.17227736 -0.15343888 0.13177897 0.07455048 0.21989508 0.14029045 0.007424763 0.082207605 0.19406924 -0.12860896 -0.13858907 -0.09030977 0.19026195 0.071386784 -0.11206561 0.02553666 -0.064790055 0.13944727 -0.039227203 -0.27531382 0.10838119 -0.23472558 -0.019056965 -0.2128885 0.41241646 0.030230824 0.28864902 -0.18933024 -0.18938737 0.19504818 -0.1304289 0.17267795 0.20241924 0.27033645 -0.16901974 -0.089214064 0.14102833 -0.028084297 0.0013473132 -0.0008355119 -0.13598812 -0.0955096 0.0774205 0.12498767 0.011518025 0.26837003 -0.15693791 0.018117165 -0.12921283 -0.43370125 -0.006944923 0.09420558 0.057376493 0.24731155 -0.0024396107 -0.21559303 -0.0137365 -0.022225583 0.10370631 -0.12864503 -0.053283524 -0.10882387 -0.19137631 0.1647882 -0.053319868 0.2830497 0.016442563 -0.0032018716 0.01267325 -0.17382221 0.32606873 -0.2589143 0.12032901 0.2688219 0.19613507 0.09560151 0.016426645 0.23000208 0.1151686 -0.060622405 0.96201247 0.1506001 0.29422766 -0.24461812 -0.069762975
其 0.09353392 -0.092622824 0.13314767 -0.17512362 0.101101205 -0.48051518 -0.029276196 -0.24865453 -0.0941388 0.078698575 0.061039 -0.064832225 -0.069278955 -0.22570361 0.1106091 -0.012688119 0.0552041 -0.0651629 -0.07861433 0.15780629 0.002942155 -0.1491504 0.083157085 -0.0016036164 0.027961316 0.15537994 0.04715402 -0.1416508 0.11134369 0.5048514 -0.1341518 0.031651556 0.13409568 -0.10867254 0.07662588 0.084220156 -0.30635154 0.054083396 -0.1800593 -0.066925116 -0.0938791 0.10623322 -0.032912236 -0.12288886 -0.027419493 0.14578 0.21168783 -0.18923946 -0.19760118 -0.13251054 0.045443896 -0.1469168 0.05213622 -0.008271639 -0.26388213 0.0699994 -0.09244086 0.08214501 -0.11577819 0.110172175 0.11758782 0.039797723 0.033002786 0.34777245 -0.1945273 -0.26851 -0.020311715 0.064562306 0.18949668 0.08208082 0.06615958 -0.16418923 -0.072668806 -0.09577175 -0.10364764 0.3711301 -0.0473437 0.007785426 -0.044486336 0.08707892 -0.05767121 0.050659597 0.07773238 -0.1090239 0.3536568 0.090359546 0.18659422 -0.19823402 0.082724795 -0.026395552 0.1581827 0.05874082 -0.20100339 -0.0398834 0.2734592 0.44110346 -0.008673148 -0.36818847 -0.10706223 0.008765411
人 -0.053510014 0.06805032 -0.18663621 0.23578003 -0.03704485 -0.1860182 0.011648917 -0.34065875 0.191183 0.120195545 -0.06182129 0.033575844 -0.05160635 -0.30184972 0.20593563 -0.06810213 -0.1865549 0.14309245 0.06042184 -0.19582468 0.38563216 -0.058689103 0.22476666 0.1338786 0.106920965 0.11162343 -0.18924335 -0.007202369 -0.2975344 -0.12962943 0.12657493 -0.025521025 0.015972694 -0.05122273 -0.17295821 -0.01775186 0.20665365 0.1852663 -0.10476439 -0.13387772 0.024924297 -0.09936856 -0.09318401 0.08756424 -0.11234109 0.03072268 0.022025421 -0.18948041 -0.30556998 -0.14755364 0.3138258 0.17127804 -0.0643192 0.08313969 0.2592109 -0.11441026 0.10372013 0.38517335 0.043233268 0.16677679 -0.021835191 0.12919843 0.2296615 0.07076576 -0.32918772 -0.16578083 0.21723102 0.1850569 0.0660884 -0.14241612 -0.13039029 0.08207302 0.111516446 0.08817251 0.16475268 0.073550165 -0.11770481 -0.09534584 -0.25005895 -0.08370597 0.20773394 0.0099647 -0.16789791 0.19123486 0.09903656 -0.002573046 -0.23276158 0.16959456 0.28342927 0.13525857 0.0023571511 -0.20146076 0.02640148 0.30277744 0.3115932 0.6543469 0.003440821 -0.21630247 0.3168787 -0.17315058
者 -0.2992061 0.22418347 0.11441567 -0.22866707 -0.18758808 -0.33090433 -0.11563015 0.056181792 0.23286551 0.15956998 -0.033648945 -0.20151009 -0.17500854 -0.1542889 0.001994866 -0.011855097 0.23226434 -0.058196187 -0.008276512 -0.27484113 0.23216848 0.023199111 -0.1381012 0.26781693 -0.35495204 -0.15224592 -0.0026064503 -0.21911548 -0.2112233 0.04925125 0.033017762 0.26521114 0.09264652 -0.116854325 -0.020257393 0.09302009 0.22661906 0.35881454 0.012981954 -0.2296565 0.053342912 0.069405645 -0.120111495 -0.21809828 0.09614054 0.005113221 -0.12456984 -0.22121339 0.16830637 -0.10597398 0.01197386 -0.04166872 0.27031326 0.10380298 -0.12275478 0.026651425 -0.07183109 -0.16342784 0.028164934 0.115861125 0.36431673 -0.0010809035 -0.22681907 0.49804085 -0.28208336 0.30238512 -0.120451696 0.071104765 0.13252895 -0.26669368 -0.017470999 -0.03978943 -0.040244278 0.14794755 -0.017803641 -0.14850354 0.022897407 -0.106116384 -0.12170739 -0.1920307 -0.3652788 0.22012827 -0.21359338 -0.16769573 -0.05598581 0.1897434 -0.051003687 0.28780833 0.043210365 -0.08888276 0.09592481 0.34563756 0.081015445 0.161603 0.10809997 0.5618339 -0.06514622 0.07678471 0.16405645 -0.108975425
以 -0.2307736 -0.045870703 0.08759886 -0.08547799 -0.006914937 -0.34996057 0.14395104 -0.030456834 -0.30386806 0.48537126 -0.18369502 -0.007708349 0.2162104 0.156221 -0.1339029 -0.19406134 -0.0143236285 -0.1759025 0.097054385 0.122099996 -0.07030382 -0.019915216 0.2007578 0.0074939053 -0.17325729 -0.0009136717 -0.018549692 0.3443945 -0.21076654 -0.14783736 -0.13566117 -0.11371142 -0.029955156 -0.08759824 0.013818306 -0.23146518 0.16135874 0.2850238 0.37905133 0.0287071 0.111958615 -0.10829272 0.20470425 0.35294735 -0.16756535 0.26287243 0.1561621 -0.17814255 0.24294725 -0.0899286 0.061352357 -0.1200523 -0.0580635 0.14419784 0.044599045 0.16305776 0.05623041 0.10032445 0.10569946 -0.09926447 0.0012260063 0.037238576 0.010838554 -0.025441574 0.18246391 0.21920285 -0.000542483 0.04270083 0.113225564 -0.20069994 0.06283919 0.13551825 -0.17997597 -0.27334407 0.13470885 -0.16129594 0.17004852 0.060881793 0.49883202 0.13255389 -0.024134468 -0.056323547 -0.19256034 0.24143636 0.09953276 -0.11634939 -0.14572686 -0.20198378 0.1263763 -0.1413084 0.07614257 -0.1025093 0.12711403 -0.009769308 0.4610688 0.79456246 -0.010886749 0.19237271 -0.0335487 -0.004200723
有 0.10157463 -0.19683522 -0.29425943 -0.019892482 -0.09673166 -0.10791339 -0.085840724 -0.08685791 -0.0002746889 -0.18541116 -0.17050125 0.31773233 0.12848686 -0.1042467 -0.2558969 -0.13065377 0.017181693 -0.11841352 -0.13292316 0.04139719 -0.026801081 0.042111993 -0.084998384 -0.07526992 0.36865675 -0.2416085 0.00022253503 -0.01038776 0.010641974 -0.029738119 0.11608107 -0.24051003 -0.18489136 -0.07392806 -0.32349706 0.17647074 0.17359416 0.14400119 0.41050532 0.22974065 -0.12126027 -0.13378045 0.12029639 0.025705671 0.12954132 0.15792798 0.04366309 -0.04864932 0.15593255 -0.06358723 0.04650155 0.015548229 0.33573386 -0.011738746 0.25951293 -0.02320335 0.20365594 0.05522727 -0.01941376 -7.452416e-05 0.25522488 -0.08923029 -0.21150544 0.11856759 -0.42049053 -0.21006715 -0.16702662 -0.28014132 0.12681986 -0.22505666 -0.1197711 0.042012896 0.14534731 -0.2722506 0.31013048 -0.41365883 -0.041859914 -0.24115966 -0.0021637601 0.16150816 -0.32271445 -0.07718536 0.2568866 -0.0149693275 0.053480793 0.24972115 0.23593374 0.3034503 0.059506148 -0.1909885 -0.0795961 -0.101059906 -0.041292977 -0.043117482 0.06075459 0.56151366 -0.14525674 0.059841722 0.17289431 0.22712255
于 0.21552172 -0.33693498 0.055861924 -0.057753004 -0.2715715 -0.24507737 0.07120819 0.12838896 0.034477606 -0.23989972 0.23530199 -0.22203815 -0.24918243 -0.015182168 0.089981265 -0.061221503 -0.19630428 -0.12855221 0.27706543 0.30364174 0.009482702 -0.06321451 0.1336456 -0.0049048574 -0.041971914 0.24541998 0.16756737 0.41764334 -0.13879648 -0.027637472 -0.02611957 -0.042003445 -0.14030388 -0.108241 0.29132867 -0.07860268 -0.019228108 -0.12009036 -0.010463505 0.20897947 0.041708227 -0.25010684 -0.16674939 0.19994958 -0.12206498 0.037868734 -0.23721693 -0.13556287 -0.24255422 -0.19022636 0.13762718 0.3108605 -0.03189419 -0.18636839 0.1598244 -0.27829507 -0.14035298 -0.029484015 0.28468812 -0.1432156 -0.32591122 0.047529466 0.30377105 0.26796895 -0.15364495 0.059914075 -0.041663125 -0.08034436 -0.072020866 -0.059826545 0.037473965 0.055884298 -0.118511066 0.05657023 0.12819022 -0.375154 -0.1007971 -0.01592149 0.12245038 -0.09531549 -0.30827063 0.21203916 0.11197378 0.10535675 -0.25237626 0.10239095 0.26821956 0.17786956 -0.095270365 -0.19041546 0.13858013 0.3156876 0.0636907 -0.23315494 -0.068952754 0.54798865 -0.06493833 -0.12134567 -0.07130899 -0.21316811
矣 -0.030335724 -0.27173284 -0.1096534 -0.032291114 0.21750534 0.19588049 -0.11921443 0.26026902 -0.39056388 -0.0258667 0.1901365 0.0036719847 0.067366526 -0.0063883173 0.10627294 0.034225028 -0.11504517 0.004467535 -0.1608343 -0.25025928 -0.102123424 -0.22477509 0.08237445 0.04095223 -0.060048405 0.012446101 -0.10942433 -0.033597913 0.040159155 0.013336571 0.08220646 -0.1736921 -0.2617182 0.05883457 0.1300995 -0.13643828 0.020699559 -0.06651866 0.3502515 -0.35783505 0.09636802 0.14289485 -0.32397646 -0.14538476 0.15167822 0.14121407 -0.07528682 -0.41466498 -0.20346466 0.07770243 0.22155778 0.37379295 0.099598296 -0.15478536 0.033227574 0.24844927 0.0726386 -0.059926957 -0.18230471 0.26819783 0.013015253 -0.0076233842 0.024846962 0.46923047 -0.3591023 -0.028902601 0.027408458 -0.06548307 -0.096444696 0.23079583 -0.111900724 -0.032269426 0.22524807 -0.430994 0.025371978 0.08190008 0.46082017 0.13028833 0.07284916 0.04646654 0.07134917 -0.13974734 0.14483477 0.03933821 -0.18498859 0.06460278 0.024253467 -0.46807608 0.08419755 0.2066463 0.056136537 -0.11721495 0.12888516 0.11681262 -0.3625479 0.78957736 0.13538234 0.1905446 -0.1127134 -0.1403084
为 -0.14519162 0.2678251 0.0065244697 0.070365824 -0.18413822 -0.31050584 -0.3547395 0.24348623 -0.02300917 0.11379944 0.4032242 0.17155603 -0.05717357 0.13283259 -0.076196544 0.30845365 0.27352348 0.07150845 -0.04591727 0.16118011 0.21765521 -0.12680791 -0.11071383 0.09597381 0.016128758 0.024772812 -0.22101638 0.07891379 -0.3321203 0.08132933 0.11462866 -0.096890904 -0.26938555 0.13188104 -0.09220343 0.0075717093 0.16763338 -0.23930356 -0.2213042 0.093037084 0.10621773 -0.38293454 0.04561705 0.19080336 -0.0009595212 0.21671212 -0.10176159 -0.100518554 -0.18645072 0.14960955 0.053144615 -0.102438025 0.15615834 0.2311751 0.06705105 -0.34943077 0.11119379 -0.1582751 0.26404208 -0.094822556 0.013215146 0.12786473 -0.1563201 -0.07528029 -0.09758568 0.20421748 0.10757513 -0.12546445 -0.018978693 0.2199826 0.15063459 0.32388687 0.088425465 -0.26680824 0.00081689685 0.14778514 -0.28680366 -0.05594766 -0.0660723 0.40264896 -0.06896766 -0.03928172 -0.37348446 0.11261777 0.06382009 0.3540639 0.09320097 -0.10638876 0.17282511 -0.026227536 0.18380463 -0.12562822 0.1892486 -0.019566286 0.2207239 0.5371429 -0.059706014 0.34926212 -0.09784088 -0.3536662
君 -0.19329625 -0.32258448 -0.002177648 0.24421228 -0.09060665 -0.01744365 0.038991947 0.09107392 0.19286178 0.24458666 -0.17050713 0.14086209 0.1366937 -0.3924904 0.38401946 0.24690133 0.1392678 0.1714712 -0.012331473 0.091976814 -0.08892711 0.17007442 -0.23100162 0.23585552 0.06720442 0.037965287 0.064459644 0.32461002 -0.100656234 0.48811176 0.16415477 0.19744392 -0.029688401 -0.03307882 -0.39408278 -0.16314173 -0.13501698 0.27896282 0.08989008 -0.010481969 -0.2784091 0.22564776 -0.0706681 0.16060357 -0.24805172 0.26421663 -0.12886731 -0.017885098 -0.21300255 -0.1348531 0.14057404 0.061092522 -0.0504026 0.26896748 0.038784433 0.06633221 -0.04736391 -0.43704927 0.036699962 -0.3344347 0.10101647 0.100662895 -0.05594724 -0.1490732 0.10449687 0.23785679 -0.11295482 0.1292966 -0.109720394 0.109099716 -0.21505167 0.012555163 0.17211626 0.06378455 0.1013677 0.27048388 0.08577248 -0.1120978 -0.380324 0.35307154 0.14395884 -0.0065906825 0.23733616 0.16532521 0.23223086 -0.06914348 0.2545277 -0.03516069 -0.42162398 0.28742635 -0.21009344 0.08977386 0.114924714 0.3201998 -0.08336372 0.80416095 -0.26547348 0.34837574 0.14819011 0.06478025
乎 0.08092101 -0.39643523 0.01024608 -0.5426889 -0.10694468 -0.19475445 -0.087479375 0.2426751 0.02316038 -0.2805829 0.12776518 0.1696937 0.003838002 0.030141905 0.27461347 0.11666775 0.10395402 -0.100338265 -0.014292824 0.17692569 0.19561638 0.11910895 0.29200798 -0.15189363 0.18783548 -0.15839402 0.119996995 -0.2895791 0.027089583 0.04362221 0.18479604 -0.12843524 0.11000831 0.19937643 -0.18130025 0.30823615 0.11407018 -0.000244347 -0.09601143 0.41778293 -0.038290687 0.19073057 -0.3062344 0.17326026 0.13994886 -0.19435693 0.13672727 0.053761996 -0.069203906 0.2961721 -0.028618999 0.2066885 -0.12843171 -0.0699227 0.097294256 0.23748338 0.06560953 0.0019060733 0.045167673 0.22973762 0.3397615 0.14695796 0.11107331 -0.08446894 -0.24845779 0.03080093 -0.14495806 0.044407956 -0.101056695 -0.32120746 0.08494936 -0.047779813 0.14802511 -0.3447222 -0.21165466 -0.055638634 0.11530907 0.19184417 0.043682076 0.32958907 0.03549932 0.19568636 -0.2610957 -0.053891525 -0.024394954 0.042304978 0.15120617 -0.06527695 -0.042643912 0.13321258 0.096660756 0.004276424 -0.22977051 0.36295867 0.14660014 0.613387 0.37646186 0.2839349 -0.41187823 -0.14924878
可 -0.112429105 -0.18749797 0.010764389 0.06194729 0.16437086 -0.50942 0.0737134 0.2660173 -0.33401102 -0.012142109 0.08435416 0.21298206 -0.21361682 0.13867435 -0.029259933 -0.153283 -0.104610845 0.041764557 0.14200197 0.3620787 0.24867621 -0.062665984 0.4249301 -0.2523278 -0.12343242 0.21075793 -0.1568939 -0.17523198 0.10422394 -0.08400953 -0.24677163 0.35604617 0.19109803 -0.059954014 -0.03185461 -0.16726604 -0.13368899 0.18456572 0.2721397 -0.29267567 -0.2492057 -0.089886 -0.1885127 -0.058599673 -0.12529588 0.07515317 0.04704065 -0.12013078 0.33142656 0.109728046 -0.12925237 0.070128664 -0.4374589 0.027299883 0.1429369 -0.15210438 0.09400134 -0.2729575 -0.27676412 -0.006183501 0.14988095 0.02989194 -0.39829788 0.014523084 -0.08615151 0.24493815 0.003269224 0.05021622 -0.06004442 -0.061079327 -0.11089768 -0.06531199 -0.2800449 -0.11471987 -0.025118358 0.0054019983 -0.3996908 0.20141803 -0.10712714 0.31325698 0.2572859 0.32562876 0.08903234 -0.24144699 0.040133897 -0.11094524 -0.13903257 0.0008875673 0.057356536 0.40305924 0.13588034 -0.1354779 0.2399937 -0.36651263 -0.35991654 0.5713936 0.22355963 -0.4961478 0.23760736 0.015623926
如 0.086066246 -0.109809294 -0.1130507 -0.18690462 -0.083133005 -0.35268092 0.1427609 -0.10185421 -0.40580973 -0.054150686 0.13940656 0.030180616 0.36760572 0.4136995 0.054733355 -0.4873983 -0.16185409 0.18308751 -0.17717351 -0.20425314 0.17928328 0.22894494 -0.37462047 -0.23570196 0.030739626 0.12473616 -0.11831182 0.3527246 0.049412053 -0.019949106 0.1579937 0.14068244 0.21091916 0.18867038 -0.31757453 -0.07894074 0.35847047 0.19371761 0.10752123 -0.184359 0.25923207 -0.22111459 0.01982763 0.15542132 -0.49644968 -0.41403955 -0.011526068 0.07633055 -0.14804798 -0.10731969 0.059465595 -0.070294835 -0.50493956 -0.111646816 0.018405588 -0.20343953 -0.049375895 -0.0037710695 -0.16306673 -0.00079040683 0.23513968 -0.23486906 -0.24159187 0.29745424 -0.07766342 -0.07039572 -0.08733455 0.018105663 -0.1897537 0.1368559 0.5768599 0.066725984 0.15972094 0.23567827 0.22231719 0.31010196 0.05524362 0.07742118 -0.11939203 0.30299413 -0.07993337 0.07499678 0.074890785 -0.41857192 -0.32250637 0.060475774 0.043597512 -0.0887987 -0.0036723078 0.01696203 0.18043868 0.29318705 0.15557869 -0.04092619 0.088923074 0.6065842 0.43841648 -0.012725808 -0.14707041 0.15165135
与 -0.043234494 0.06713156 0.09347253 0.3273063 -0.22475281 -0.29266313 -0.2775196 -0.30615848 -0.28267196 -0.3290465 0.11093325 -0.29417747 -0.109680615 0.038051285 -0.08472704 0.28279656 -0.46028376 0.20325494 0.33206233 0.09237495 0.38305858 0.21855734 0.3093414 0.04343981 -0.31557277 -0.26626018 0.036225446 0.09525636 0.06087878 0.17479984 0.19588512 0.22665425 0.11567735 -0.083079405 -0.06187181 -0.078425996 0.18066454 0.020204304 -0.04193093 -0.22592035 0.034770735 0.0017206373 0.3496388 0.028946672 0.37877786 -0.35468853 0.07425461 -0.13205543 0.031150926 -0.008226819 0.25098094 0.10728422 -0.20947081 0.30353948 -0.21998832 -0.2664942 -0.19269952 -0.05870291 -0.33514148 0.095306605 0.22547995 0.014895441 0.025686262 0.018767787 -0.05227747 0.18096411 -0.050900165 -0.12973791 -0.24448262 -0.05018152 -0.030234076 -0.30917653 -0.07308486 0.17319189 -0.20842908 -0.17677405 0.101588145 -0.023350077 0.12390628 0.42305437 -0.40880403 -0.11870145 -0.15196802 0.39462292 0.010194687 -0.20060158 -0.15547417 -0.066639975 -0.09215002 0.1503518 -0.14339088 0.15695283 0.12921843 -0.048121296 0.05151937 0.4658562 -0.09351847 -0.105217375 -0.18647856 -0.08410063
； 0.18534967 0.048595864 -0.47607082 0.40972126 0.35671687 -0.886812 0.029461915 -0.1946962 -0.0652369 0.22284825 0.0840828 -0.27562946 -0.12453682 0.2172289 0.28299034 0.12826067 0.15392338 -0.01901144 -0.032567013 -0.19627284 0.20605013 0.00034899678 -0.2085084 0.0218007 -0.38516596 -0.09420825 0.22733934 -0.062079504 0.17241731 0.04053158 0.1111525 0.10765439 -0.21820335 -0.23773076 -0.15784948 -0.07172165 0.0144505715 -0.070977926 -0.10551963 0.47189128 0.06434231 0.16267748 -0.11574334 0.13112012 -0.2958389 0.008330938 0.18140419 -0.009246064 0.17615637 0.089830145 -0.27325916 -0.012535502 0.09986132 0.14826825 0.21138927 -0.024586868 -0.25685862 0.041090317 -0.0018647577 -0.0514017 0.1468011 0.06720503 0.49819246 -0.063202046 -0.041417766 0.11768795 0.19679034 0.19786735 -0.010433244 0.09934763 0.065498956 0.09241127 -0.17809385 0.009906071 0.1181666 0.13670328 -0.2339324 0.0076608444 -0.11919555 -0.24914977 -0.2876055 -0.19729218 0.31373376 -0.39276308 -0.19057125 -0.11185161 -0.09390759 0.08522361 0.014916331 0.073532626 -0.19522256 0.20359755 -0.6033986 0.066025466 -0.19553593 0.5665725 0.0072878203 0.12277738 0.06998213 -0.13743219
言 0.012241704 -0.0010458847 0.47467586 0.17700939 -0.32533294 -0.4431972 0.12474098 0.16967724 -0.15939634 0.03880689 -0.33784285 0.3916732 -0.2646854 -0.3819364 0.081092104 -0.055868704 0.005530646 -0.058174524 0.08374406 -0.284905 0.051168784 -0.009904153 0.23797372 -0.22269386 0.24332087 0.16583285 0.20468023 0.029258087 -0.1266455 -0.124856874 -0.09454171 -0.20887618 -0.274631 0.0063546826 0.0008096376 -0.06452263 0.10378326 -0.12818292 0.105238974 0.19701362 0.23496355 0.13584709 -0.0055295536 0.31457794 0.03555519 -0.10032779 0.1282587 0.03240191 0.102476195 0.39072806 0.10719361 0.0027882748 -0.29339913 0.38135067 -0.23540854 -0.48933303 -0.07333623 0.27702966 -0.18247348 0.38227993 0.1552341 -0.270727 0.1880074 0.1148436 -0.30460843 0.05442497 0.0748644 -0.19882278 0.29134756 -0.18279153 0.026089495 -0.10424969 0.20312083 -0.19830206 -0.37300888 0.11196485 0.17779694 0.22672841 0.40648407 0.21519715 -0.047916524 0.030281456 0.0027785336 -0.12799607 0.04504042 -0.006188456 -0.2809812 0.30921292 0.0037102127 -0.08870039 -0.097909525 0.24875936 -0.050446503 -0.30312246 -0.16105029 0.4166425 -0.2877145 0.031701367 -0.20208603 0.17960206
无 0.104823865 -0.1573851 -0.09932763 0.1702571 -0.0760977 -0.53488463 -0.23458943 0.32229826 0.03586028 -0.224898 0.15182917 0.11877166 0.30432934 -0.16161577 -0.21297981 0.009568259 0.26068833 0.15303855 -0.12861623 -0.15972123 0.026889252 0.19224106 0.03269475 0.023580614 0.35723296 -0.32986134 -0.07435783 0.23860262 -0.26998204 -0.23012863 -0.3442518 -0.091567576 -0.22120675 -0.009359153 0.08101202 -0.122753784 -0.21596235 0.08962863 0.23099242 0.23358727 -0.13382156 0.3462728 0.09119402 0.08064702 0.00068747916 0.054672893 0.0747338 -0.06872803 0.31600785 0.3086861 0.0892871 0.14491586 -0.23392211 -0.084155716 -0.09905962 0.22529478 0.0052427314 0.081590556 0.038467254 -0.32688865 -0.18211652 -0.0008874094 -0.05145996 0.26489726 -0.21116894 -0.21659297 0.044869777 -0.10887542 -0.039302286 0.02189138 0.094281346 -0.03902974 0.20466611 0.38739637 -0.4763897 0.040591337 -0.09980671 0.17605177 0.024412312 0.24752675 -0.29924467 -0.4405445 0.0022953546 -0.2115532 0.046245456 -0.14357887 0.30748677 0.17370743 0.09041861 0.021940205 0.59325737 -0.54312277 0.017193485 -0.06441805 0.12024686 0.61722755 -0.29609838 0.0135115115 -0.23238212 -0.120963916
则 -0.01689989 0.07772821 -0.33023325 -0.20572385 0.21507886 -0.6586097 0.16172636 -0.13027382 -0.21287076 -0.15953273 0.081003524 -0.14689793 -0.1138448 -0.21858385 0.22765093 0.17241107 0.2738161 -0.167302 0.21175206 -0.15373965 -0.055412237 -0.26945186 -0.12785204 0.041064218 -0.14106916 0.025741866 -0.082106285 -0.08257175 0.16413806 0.07046606 0.024043823 -0.15515168 -0.024061926 -0.15743802 0.28245857 0.06021637 -0.15686655 -0.16398731 0.24095273 -0.2521621 0.06610768 -0.1154235 -0.027690023 -0.22622688 0.2185552 -0.40076014 -0.039480172 -0.11949881 0.12737498 0.1497632 -0.1712596 -0.122887164 -0.068922244 0.07874804 0.119057216 0.034866598 -0.67207354 -0.15100773 0.123949386 -0.36558712 -0.08265847 0.42698205 0.13620067 -0.02177593 0.19176635 -0.21996427 0.008018961 -0.22245185 -0.024554312 -0.10019391 0.18927975 0.16544652 0.14956823 -0.3267284 -0.24763303 0.26539448 0.189883 -0.37050602 0.2228056 0.21542603 0.065693885 0.07239096 0.15763274 0.28075176 0.041353125 0.18447936 0.38922703 0.20343195 0.007475696 0.14901431 0.15131265 -0.3884145 0.15461357 0.1387433 0.01618951 0.5441177 0.042215575 0.15828437 -0.07960065 0.53613484
！ 0.07070966 0.0006746782 -0.067612536 0.1418224 -0.12993665 0.14609432 0.027628774 -0.45277688 -0.10385382 -0.15171532 0.62902236 -0.2910813 0.06976979 0.20668411 0.09147742 0.010066985 0.040171266 -0.04569512 0.39081705 -0.1496825 -0.12738855 0.039209045 0.057352886 -0.11732786 0.09334627 0.15297648 -0.1248601 0.10717463 0.087955184 0.18047616 0.08652679 0.05278394 0.023288207 0.09752832 -0.3467992 0.10854875 0.3289942 0.18280849 0.046097368 0.5232681 -0.40484607 -0.018720873 0.117309414 -0.23319714 -0.3617388 0.01209456 0.16528828 0.029486489 0.16449289 0.45112467 0.35825193 0.19554035 0.030959353 0.15763216 -0.3436793 0.11324959 0.03191224 0.0021337164 -0.114380695 -0.05293785 0.27681673 0.02101328 -0.0129716685 0.20399316 -0.3157716 -0.10657454 -0.2957 0.2580834 -0.07810186 -0.06882209 -0.14261754 0.19352132 -0.15959649 -0.19778249 -0.20623423 0.11450762 0.066727884 0.025515141 -0.10585579 0.36051095 0.23917365 -0.008477413 -0.056669872 0.09880679 0.58729583 0.08451779 0.24878274 -0.062277235 -0.2782524 -0.08193734 -0.19944715 0.2156529 -0.054052144 -0.050593358 -0.020721054 0.78251296 0.14257623 0.0051988955 -0.46873862 -0.110749125
问 -0.110293865 -0.05558493 0.06543485 -0.078427605 -0.31368136 0.1634694 0.21031123 -0.26155913 0.094056286 -0.27083167 0.16660887 0.12023324 -0.14000861 -0.15157506 0.033788882 0.17244853 -0.5068955 0.13159671 0.263574 -0.09489354 -0.43716913 0.11105234 -0.11350952 -0.15136784 0.1552521 -0.038897473 0.34964025 0.18305781 -0.13039099 0.2172051 0.029412206 -0.058126632 -0.07478154 0.1371552 0.269955 0.1932036 0.39880523 -0.13871837 0.038801856 -0.23880187 0.007379115 0.21563733 0.068139695 0.05163903 0.15363677 0.22734965 -0.40931535 0.25126663 -0.084713615 0.08091894 -0.4636794 -0.2226712 -0.08195891 -0.09693547 0.651129 0.15206614 -0.10819049 0.3957591 0.2545373 -0.27064303 0.24345274 0.1339486 0.16452633 0.26173323 -0.44382915 -0.15597363 -0.02837922 -0.17870171 0.18519168 -0.005754823 0.11901254 -0.06780032 -0.10688001 -0.23203596 0.0902602 -0.07364589 -0.32324097 0.13909101 0.19870362 0.42005843 -0.21322158 -0.36226064 0.08267202 0.11579379 -0.048201855 0.107318655 -0.017171422 -0.30275694 0.0027803755 0.3976688 0.09634788 -0.015112416 0.06910792 -0.031832367 -0.071386255 0.86909556 -0.62317926 -0.016361654 0.06684627 -0.19793966
知 -0.3618705 0.46271196 0.11904092 0.27871642 -0.03945071 -0.19271342 0.32380858 -0.1424723 -0.3705749 -0.13650969 0.35919744 0.16533025 0.32063496 0.064100444 0.2262586 0.06826783 -0.2520583 -0.1290941 -0.17414406 0.16598682 -0.03580638 0.3406516 -0.1167214 0.060065355 0.31866953 -0.04283282 -0.05012626 -0.21524447 0.18936291 -0.40812644 0.14304456 -0.013839321 0.12628888 0.10432665 -0.24753794 -0.121364474 0.12990329 0.03708826 0.21875674 -0.66755134 -0.02402558 0.15775174 -0.064319156 0.16446352 -0.327025 -0.2964159 0.012588182 0.0034158689 0.113839015 0.14244366 -0.2582619 0.0633188 -0.012867162 -0.12584268 0.20780393 0.05951462 -0.27667102 -0.45220777 -0.067750454 0.29038393 -0.19193567 -0.053833745 0.20424803 0.14854835 -0.1975327 -0.18926205 -0.04638103 -0.09893755 0.027850557 -0.22105302 -0.20120661 0.08433986 -0.10223305 0.14616752 0.006152702 0.08221541 -0.07303192 -0.16870475 -0.025007725 0.03212414 0.0435786 -0.3154226 -0.30742314 0.1388411 0.4881626 0.13342586 -0.23023146 0.108553275 -0.08280613 0.009544327 0.12094307 0.020892272 0.0918454 -0.12330261 -0.29478732 0.6939643 -0.130235 -0.0050893296 -0.044588182 -0.23901571
何 -0.257708 -0.00569828 0.044437543 -0.18835285 -0.043649603 -0.046283457 -0.081467606 0.00091682514 0.25980425 -0.16445842 -0.020327033 -0.20670715 0.16347031 0.1866218 -0.26147482 0.0076708575 0.074283026 0.030094752 0.03929669 -0.020304969 0.007965966 0.061203554 0.21731184 -0.22447158 0.3339729 -0.015378367 0.06130627 0.28492594 0.16461997 -0.0629244 -0.069823146 -0.10509777 0.3277401 -0.035175294 -0.16843136 -0.06114676 -0.20503703 0.12737173 0.48958915 -0.14547029 0.037903186 -0.12983218 -0.05965394 -0.13672961 -0.38462177 -0.038022593 -0.21890345 0.23722859 0.2541132 -0.32230353 -0.28303808 -0.2161267 0.16869465 -0.18030012 -0.3531956 -0.4650761 0.08296113 -0.046913523 0.082862645 0.23552562 0.39677623 5.4733664e-05 0.010042808 -0.026647395 -0.69688696 0.12039761 0.15839435 -0.22932881 0.21151173 0.11275868 -0.1040052 0.16743454 -0.049455218 0.12598749 -0.08411074 0.122154206 -0.22106075 -0.21516573 -0.16055292 0.3275067 -0.02402502 -0.005178031 0.13392594 -0.13777915 -0.19822118 -0.084552966 -0.060166802 -0.061717954 0.13590209 0.2509126 -0.109311186 0.03704245 -0.3033593 0.24258627 0.120499305 0.54787046 0.2943773 0.41120505 0.08714293 -0.09057568
吾 0.017050192 -0.27416125 -0.22976114 -0.24790378 -0.21388717 -0.25503123 0.16120026 0.13924158 -0.06665382 0.40418753 -0.04772732 0.08642606 0.27530447 -0.2259101 -0.016179351 -0.2581307 0.031863127 0.021255232 -0.08404783 -0.041878376 -0.14944893 -0.112785265 0.035325076 0.08579409 -0.09228314 -0.011524637 -0.23621328 -0.21250457 0.054970056 -0.06573577 -0.12682006 0.2253519 -0.013608875 0.28280488 0.18528813 0.14468569 0.34411818 -0.23567668 0.2401751 0.05349458 0.068029806 0.2769339 -0.0050953478 -0.30265555 -0.34006664 -0.3691239 0.14134973 0.22479312 -0.2953429 -0.19712871 0.3991655 -0.014476383 -0.108261876 -0.14240873 -0.5102106 0.16709043 -0.124044985 0.05150329 -0.11931364 0.06702732 -0.026732348 0.4523208 0.21787089 0.1923195 -0.24032627 0.40015465 0.0756147 0.112933226 -0.12973501 -0.14308564 0.10968984 0.054937005 -0.0064709857 0.2182768 -0.3146562 -0.23925935 -0.053468328 -0.3630208 0.113473155 0.45333603 -0.06057569 -0.09426005 -0.0377919 0.10620148 -0.03242474 0.19039778 -0.0010523072 0.13438168 0.32867062 0.17507243 -0.11045923 -0.04310873 -0.13315398 -0.039951235 -0.37420192 0.514902 0.050166488 -0.14369105 -0.072631255 -0.11557862
仁 -0.1408266 0.3781752 0.1778685 -0.18965317 -0.04413159 -0.14405128 -0.27126497 -0.046861444 -0.16159892 0.25490332 0.29259053 0.021215372 -0.37646776 -0.07351956 0.1120638 -0.35053453 -0.16490845 0.10888586 -0.12177478 0.06775517 -0.13356785 -0.032030914 0.08338716 0.0018482609 0.25205877 -0.21022874 -0.087786905 0.13563254 -0.17808196 -0.071389124 -0.0073801046 0.10242449 0.42737848 0.08924929 0.07918702 0.04271096 -0.10326651 0.14869642 0.09534264 -0.27740294 -0.38564286 -0.055014424 0.10493162 0.37391236 0.16440699 0.091420196 -0.081459016 0.37755322 -0.17556038 0.17787923 -0.1576147 0.4166991 0.15150434 0.12109855 -0.019084536 0.021335175 0.17977372 0.029002033 0.043962758 0.097204246 0.11065974 -0.004380967 0.23730215 0.070248224 -0.4876794 -0.17378286 -0.3119166 -0.10378555 -0.17997015 -0.03417941 -0.20576577 0.43462047 0.08736507 -0.061634507 0.24617517 0.23163533 0.17973049 0.13415205 0.25163752 -0.052069243 -0.35199744 -0.015000168 -0.09820402 -0.32632324 -0.12028314 0.008390547 0.012906305 -0.050362736 -0.0062292153 -0.22772303 0.017907597 -0.18961622 0.0021156084 -0.05414345 -0.29723528 0.6505346 -0.25900257 0.22381881 0.00010751172 -0.31229725
夫 0.10893844 -0.092218764 -0.65801096 0.44622216 -0.08620329 0.11112356 0.38517427 0.13052322 -0.17501861 -0.08839168 0.33659703 -0.05418467 0.4790494 0.04388709 0.2095695 0.17510335 0.16047364 -0.028248379 -0.008435699 0.16672641 0.061781503 -0.34548774 0.3772122 -0.15254259 0.0464298 0.120079435 -0.38116655 -0.3625296 -0.3171083 0.19523095 -0.19611643 -0.0837244 -0.04748676 0.07219378 0.08967495 -0.012386465 -0.13584356 0.32024875 -0.032142546 -0.07652656 0.04762289 0.17316449 0.23164387 0.18947336 -0.0834935 -0.17065975 0.1913708 0.014638851 0.056606796 -0.2754328 -0.0015236813 -0.015931936 -0.24749595 0.08063119 -0.12562814 0.20900236 0.08806015 -0.6195145 -0.13241343 0.3478675 0.111639924 0.0076423907 0.038001034 0.096970595 -0.5191286 -0.112842984 0.00717175 -0.25668952 -0.14188004 0.09858447 0.034065798 -0.28871506 0.041725274 0.24486448 0.06686339 -0.08956466 0.24991767 -0.27535057 0.057164304 0.23089628 0.10701087 0.084367916 0.2819138 0.07316893 -0.39140448 -0.10496882 0.030748863 0.22531548 0.015178145 -0.16298383 -0.20834295 0.32294443 -0.3623484 0.044381395 0.10395199 0.5494032 -0.30383512 -0.27949014 -0.26751348 -0.12661283
、 0.057819203 0.07626875 -0.0031592317 0.15741046 0.25531954 -0.42651805 0.16761322 -0.15686859 0.22322777 -0.098698154 -0.31843278 -0.32258862 -0.27348593 -0.048674967 -0.10123704 -0.19964169 -0.22793305 0.043459114 0.22619101 0.026465876 -0.17463708 0.15724477 0.0065977047 0.11104388 -0.26694173 -0.19302846 -0.3460977 -0.041293666 -0.33672902 0.14458932 0.21068278 0.18049245 -0.3943678 0.014582553 0.054988045 -0.21718752 0.26819438 -0.09021885 -0.041660313 0.50193137 0.03189787 -0.31126544 0.28855678 -0.32157344 -0.33928314 -0.063396566 0.019110704 0.41772747 -0.4399002 -0.07230515 -0.5831383 -0.12411372 0.2412103 -0.28531274 0.25959858 -0.004859301 -0.12871836 0.0983949 -0.23923528 0.4231709 0.043244135 0.312388 -0.13938381 0.36984074 0.0650841 -0.01965781 0.21832009 -0.1205504 0.22008373 -0.054681532 -0.46239284 -0.2929277 0.56293154 0.28336945 0.13499537 -0.016504783 0.09307287 0.4971455 0.25318643 0.26352867 -0.14394255 -0.18696763 -0.23281375 0.08229665 -0.17098512 0.42648095 0.06740803 -0.2813435 0.033414975 0.010678839 -0.32063007 0.17744607 -0.019085689 -0.39028347 0.19310156 0.7737587 0.15339766 0.41210186 -0.48366234 0.06511357
道 -0.23346116 0.14836013 0.06599727 0.30088076 -0.13712807 -0.4959081 0.09123769 0.22424552 0.03683702 -0.32111508 0.24200468 -0.3286553 -0.165085 -0.39140618 0.065810114 -0.19964412 -0.25808215 0.19391318 0.043127913 -0.010731093 0.060757685 -0.0067433026 -0.24576737 0.19472821 -0.11264885 -0.1739827 -0.029177299 0.16105059 0.057415057 0.36846703 -0.1075455 -0.029027613 0.024590435 -0.020060498 0.08308376 0.13986273 -0.1169107 0.18097976 0.33713186 0.096364595 -0.21874814 -0.10419358 0.112535335 0.34776965 0.2819154 0.06636668 -0.15271431 -0.33400515 0.08255886 -0.00053811964 0.08911924 0.054076813 -0.025606984 -0.21923162 0.40270984 0.05457284 0.23474312 -0.2581689 0.013655366 -0.074302025 -0.058467984 -0.49533066 0.039393976 0.110061996 0.1715144 0.31604925 0.06554866 -0.079235524 0.5136072 -0.14333068 -0.08271392 -0.06145019 0.10780935 0.022987587 -0.026534243 0.08858369 -0.29047027 0.27095246 0.07890859 0.4106057 -0.024454258 0.028109008 0.40327248 0.13659708 -0.18860072 0.3370253 0.048599612 0.23343688 -0.18177582 -0.035668924 0.047520373 0.038179938 -0.2963313 0.47331527 -0.3791637 0.44844344 0.05229845 -0.52266985 0.003552987 -0.06408442
焉 0.101056874 0.17668262 0.1657803 -0.2533852 0.043492198 -0.0804749 -0.17778593 -0.18561459 0.01438814 -0.07103053 -0.15245077 0.047582366 -0.120596446 0.08698343 -0.5190893 -0.199643 -0.12018771 -0.053355485 0.34244794 0.21102034 -0.016719976 -0.012317273 -0.26013872 -0.0059484337 0.13981085 0.11571537 -0.38692904 -0.27756327 0.0089144735 0.038997754 0.44437286 -0.5631426 -0.23223628 -0.31405357 0.014867232 -0.040290616 -0.308654 0.28695738 -0.030189905 -0.17395085 -0.3265896 -0.22869155 0.013044157 0.2576356 0.05612791 -0.0639042 0.20811485 0.26974344 -0.046814412 -0.1538868 0.21633355 0.39602667 -0.15151255 -0.18638732 -0.09393781 0.5327598 -0.39151427 -0.0455262 -0.58197457 0.006984907 -0.030280598 -0.23683374 -0.18687488 -0.010956121 -0.26811734 -0.12948564 0.114585645 0.15200205 -0.31271878 0.54063004 -0.5512913 0.070882365 -0.13215353 0.08578123 -0.24167475 -0.2359471 -0.055674497 -0.17551936 -0.20906417 0.031522352 -0.17033292 0.3349244 0.26334473 -0.2142837 0.057390362 -0.16946541 -0.07098128 0.14208925 -0.26307896 -0.2806209 0.4483038 -0.48521286 0.062414594 0.22199616 -0.06995644 0.9168353 0.08712528 -0.104872435 0.14388755 -0.09932347
行 0.037429087 0.03409216 -0.3540252 -0.2736719 -0.042514253 -0.38250837 -0.04198591 -0.40248272 -0.021290926 -0.03738989 -0.3144201 -0.15133455 0.17961487 -0.033693146 0.112447545 -0.19923255 0.077854596 0.33262056 0.00047724217 -0.047244113 -0.32951725 -0.016701242 -0.37809557 -0.24512233 0.19503583 -0.2277471 0.20869678 -0.105654486 -0.20605288 0.060981847 -0.22297339 -0.15200159 0.037453786 -0.29660082 -0.11665204 -0.059202705 -0.06448362 -0.3530023 0.25272647 -0.071983114 0.1355565 0.14104977 -0.5541867 0.20992017 -0.15831234 0.58737737 -0.58992046 0.17465505 0.29880336 0.2241989 0.011508273 -0.023238065 -0.17676213 0.42904744 0.110591255 -0.24559003 -0.2997476 0.12085607 -0.053057507 -0.16878659 -0.114751816 -0.04833916 0.08707049 -0.03358042 -0.38010296 0.2235948 -0.044952285 0.23853761 0.023863073 0.00413916 -0.4253064 0.16481234 0.32845086 -0.09629766 -0.18018846 -0.10411978 0.15807441 0.112570204 0.24434483 0.43516827 0.19306366 0.0021381523 0.30372852 0.065479495 -0.06530713 0.064556256 0.11374663 -0.097936645 -0.0547111 -0.3844584 -0.0069196564 -0.321948 0.101259574 -0.028827822 -0.30095935 0.4163576 -0.040254824 -0.19151117 -0.15983509 0.048125025
谓 -0.18759194 -0.074362986 -0.38625684 0.29928592 0.7454615 0.12810093 -0.18777606 0.19810247 0.16293536 0.01694611 -0.08984978 -0.09559153 -0.002505791 0.4344537 -0.1220873 0.2885971 0.17932856 0.08196191 -0.01659443 -0.39914584 -0.36030403 -0.04921036 0.04143276 -0.010728116 -0.07668085 0.25987738 0.10494027 0.24107489 0.20643556 -0.1622798 0.28899264 -0.003171623 0.18472917 -0.32711992 -0.5627193 0.016226841 -0.31052023 0.05694557 0.12015216 -0.158631 0.25474924 -0.15182246 0.09420544 0.0641787 0.03799424 -0.09798332 -0.1808775 0.088519566 0.22174737 -0.25237986 0.20496078 -0.056178782 0.09747347 -0.051787794 0.1729094 0.07021666 0.30831683 -0.38536635 -0.49818733 -0.087556034 0.09705098 -0.06442467 0.3676345 -0.27976447 -0.35963917 0.07854882 0.07936416 0.06393313 0.33928016 0.021055149 0.4217937 -0.3169667 -0.057145085 -0.045045443 0.047678415 -0.22465324 0.14185485 0.03038943 0.160941 0.7175512 -0.2969814 0.29844087 0.1632249 0.15932806 0.26167524 0.21723327 0.23086844 -0.41679233 0.14125015 -0.12775244 0.5912992 0.19074681 0.24404871 -0.2883468 -0.018735915 0.6440545 -0.07660397 0.12174397 -0.21518604 -0.1978379
必 -0.30010065 0.041777916 -0.40095264 0.39683068 0.057149142 -0.4906346 0.13085225 -0.10897159 0.108079866 0.28220448 -0.07292083 0.39968097 0.15475906 -0.38592908 0.19497874 -0.122265264 -0.2277658 0.03870899 -0.2006647 -0.07872789 0.46465924 0.095388085 -0.32125413 -0.26233843 -0.33703944 0.26239824 0.20833473 0.04441747 -0.23188347 0.31275696 -0.27421945 -0.03577553 0.23732062 0.03554548 -0.047209844 0.08788661 -0.09102367 0.00491577 0.04111854 0.052472487 0.30560523 -0.5457654 -0.500734 -0.25080568 -0.13759889 -0.5691184 -0.2297289 0.20242666 -0.011439861 -0.024702588 -0.21432598 0.25381196 0.17722742 -0.22177719 -0.27452305 0.44108227 0.36739612 -0.046549603 -0.0073406706 -0.25431395 0.108687885 -0.16893832 -0.07250576 -0.061400212 0.020721482 -0.13636465 0.36883318 -0.31038147 0.1355586 -0.38827637 -0.19884132 0.1613388 0.14704624 -0.06763439 -0.21213229 0.011320854 0.18118529 0.05714747 0.40408462 -0.12475592 -0.3077682 0.09704424 -0.02049894 0.010494652 -0.3434043 -0.2075699 0.044055145 0.33524698 -0.2903507 0.06795916 -0.0038090667 0.20532194 0.23983116 0.070294715 0.3130041 0.6316356 -0.1627753 0.11234144 -0.08638556 0.05611173
礼 -0.0392678 -0.29204878 -0.08918778 -0.15728107 0.0010522736 -0.57555336 -0.020871466 0.051525142 -0.16219552 0.08954043 0.058423854 0.03637437 -0.28200182 -0.09179468 -0.16288874 0.14078078 0.08078696 -0.37184435 0.24584042 0.1651982 -0.17422006 -0.04065356 0.27242982 0.015361211 0.1120121 0.4241452 -0.25325286 0.15303181 -0.31934473 0.16529274 -0.2872581 -0.34135994 0.15756945 0.28119686 0.08774558 0.18374622 -0.1662439 -0.0096843075 0.2929881 0.018668802 0.2127307 -0.025832692 0.36617902 0.15552284 -0.21181862 0.17526063 -0.19790407 -0.019282084 0.1585797 0.035282742 -0.11440529 0.12834507 -0.041343033 0.34223104 0.21488717 0.10472008 0.11979578 -0.09797379 -0.014894793 -0.06376928 -0.012207175 -0.013193362 0.62673926 -0.2144963 -0.0110816425 -0.29945743 0.16974959 0.20791145 0.01758239 -0.1130145 0.20420074 -0.04077652 0.16343167 -0.14709044 0.04944186 0.098534025 0.2644134 -0.19173682 0.1143939 0.2387018 0.11211899 -0.25539464 -0.039392006 -0.24402556 -0.050846353 0.9205277 -0.06360833 0.050602246 -0.34889072 0.23898083 0.022228133 0.07149998 0.11302716 -0.20494567 0.083164304 0.52907836 0.50064963 0.13067237 0.45003042 -0.099722795
孔 -0.16387485 -0.542949 -0.050087202 -0.29615104 -0.15566047 0.27313587 0.13424799 0.16533044 -0.1862936 -0.2075855 -0.034310173 0.06756838 -0.3714232 0.28930163 -0.18546617 0.05248548 -0.19322479 0.044695716 0.0035264331 -0.31699693 -0.15233496 0.39295718 -0.07261948 -0.057578024 -0.018469818 0.012672651 0.14944638 0.30161193 -0.15412135 -0.2511536 -0.13722746 -0.37086013 0.004444231 -0.15397593 0.22485054 0.07076667 0.048381254 0.15853617 -0.32138547 -0.39348176 -0.13816091 0.28649807 0.05053705 -0.155317 -0.023973392 -0.044260565 -0.5429898 -0.33599445 0.5320047 -0.50633466 -0.23276398 -0.047696948 0.12762469 0.23982939 0.13840932 0.397344 0.3854052 0.29325035 -0.18302259 0.4168464 0.14905712 0.01289419 0.17591369 -0.09309066 -0.35964474 -0.084171 -0.09990575 0.16289121 0.12184181 0.48671123 -0.048915766 -0.21581064 0.18036419 -0.06425749 -0.494497 0.29141635 0.13593228 0.08108509 0.18455714 0.19492799 0.2863906 -0.3105518 -0.26547155 0.3870052 -0.44069573 -0.1099875 0.33838344 0.44305778 0.20280232 -0.6512288 0.32861385 0.14191683 0.14222205 -0.08821099 0.009706213 1.1981982 0.112466045 -0.23032561 0.07330321 0.31821996
斯 -0.6693123 0.03824696 -0.12506993 0.28155887 -0.160243 -0.10306451 -0.31436267 -0.2572676 -0.1713155 0.124487825 -0.019116793 -0.2598469 -0.30113938 0.14251152 0.15084794 -0.23832631 0.117103726 -0.31344768 -0.41446534 -0.059242476 -0.028626556 0.04817996 0.025447026 -0.19879615 -0.20229216 -0.27870172 -0.26082933 0.28129324 0.19032621 0.1581471 0.30279338 0.18993424 0.33551216 0.0851121 0.1539661 -0.19554974 -0.2898145 0.0835154 0.3962018 -0.2828547 -0.0070426175 0.35029775 -0.079672016 -0.2173734 0.5453925 -0.2028007 0.17413142 0.40416792 -0.009967884 0.50214946 0.18167105 0.39706206 0.07783625 0.052527525 0.12911233 -0.4121667 0.40553445 -0.0020763753 0.28397328 0.00560491 -0.148434 0.41045755 -0.05709533 0.1785294 -0.5812917 -0.25589928 -0.18308532 0.2354566 -0.043608394 0.33587041 0.10242831 -0.09166852 0.02947986 -0.065106235 -0.02024086 -0.25323328 0.3655294 -0.009237788 -0.022673476 0.22685908 -0.17945422 0.32816234 0.44257203 -0.012238224 -0.11507668 -0.14722843 0.113808155 0.025938105 0.0015389249 0.22353628 -0.09983805 -0.21000598 -0.31691572 -0.0039017166 0.17337093 0.6728565 0.015372628 -0.30168286 0.35826173 0.12166925
三 -0.28033388 -0.10475254 -0.2731513 0.025761524 0.088091545 -0.3085325 0.16228803 0.30491096 0.15237346 -0.09672686 0.25794527 -0.20673424 -0.16524579 0.025324164 -0.06703735 0.020649543 -0.2866231 -0.06023797 -0.35330498 0.35998523 -0.11846464 0.49559644 0.21869248 0.20635831 0.20042367 -0.15982713 -0.073321596 -0.20946512 -0.14759208 0.24465324 0.03050472 0.49407303 0.391775 0.25935754 0.52819335 -0.21592368 0.028266536 -0.19393057 0.19564761 0.009671136 0.17508298 -0.25729188 -0.16735446 0.101042256 0.10582332 0.39726812 0.1987427 -0.2754094 0.30845523 0.16437614 -0.33769852 -0.011438296 -0.1282288 -0.32194442 -0.37811038 0.0995907 0.29012823 -0.2742401 0.41853955 0.67613137 -0.05339643 -0.25635397 0.0025633906 0.046611853 0.21261875 0.027648864 -0.16158439 -0.2460912 -0.29814777 0.011100785 0.5690594 0.3784061 -0.33391362 -0.0013734172 0.11620939 0.14445382 0.018445281 -0.2140143 0.08178652 0.06787535 -0.16442217 -0.26077503 0.29195043 0.1054727 0.043891616 0.05836848 -0.3299172 0.047457952 0.059870634 -0.069083765 -0.36491597 -0.36250442 0.014521106 -0.38259077 -0.30441085 0.8080331 0.05969958 0.15516526 0.31975645 -0.22650589
能 0.366734 0.18779513 -0.19041216 -0.3093517 0.13085432 -0.45866898 0.39548305 -0.41440037 -0.3695223 0.008902965 -0.08789327 -0.13101229 -0.2775156 0.015344108 0.30229357 0.31907752 -0.22299767 -0.047418877 0.06983299 0.017753873 0.35047826 -0.26439977 0.10853818 -0.22637103 0.35999534 -0.15937826 0.13054445 -0.12568323 0.21760575 0.045228213 0.32217458 0.041011788 -0.077135675 0.07082275 -0.0780349 0.50554097 -0.1559527 0.0059280954 0.021104496 -0.3029172 0.37334478 0.08832344 0.3196951 0.26152653 0.079284325 0.16804934 0.06745822 -0.32267344 0.02598911 -0.12771201 0.54620886 -0.10277412 -0.074056126 -0.08305928 -0.0023952713 0.17409523 -0.27393353 -0.1801326 0.015780346 0.07543332 -0.3282058 0.20932403 0.080934964 0.06726385 -0.23838952 -0.08217625 -0.0058987658 0.08762537 0.18749651 0.06428468 -0.081865095 -0.06437188 0.17355785 0.26457754 -0.08719307 0.17038924 -0.086697094 -0.05388433 -0.08770979 -0.027909162 0.2722237 0.06581829 -0.04495507 -0.017297678 -0.25907296 -0.2896205 0.09522295 0.32833257 -0.13091533 0.14377332 0.18396914 -0.051239744 0.18008456 0.8322496 -0.019603817 0.5759814 -0.21661733 0.3888 -0.21069683 -0.5686688
见 0.22201227 -0.34752116 -0.16445802 -0.35606527 0.47510326 -0.3650668 -0.053919822 -0.047562853 0.4105204 0.05063221 0.26850697 -0.17122658 -0.030785585 0.0311144 0.19773191 -0.06718959 0.114036776 -0.08379653 -0.019039745 -0.1099088 -0.24145481 0.61516494 -0.10925432 0.24215072 -0.21612579 -0.027464641 -0.32531747 0.07899842 0.007705684 -0.008840835 -0.049107615 0.0698865 -0.09572792 -0.32759258 0.25942335 0.18967132 0.25420105 0.1812166 -0.16344641 -0.36764032 -0.3465052 0.3837962 0.014777412 -0.07983476 0.123893954 -0.015553644 0.35650936 -0.0784904 -0.4075066 -0.08263109 0.20055911 0.2615754 -0.3962804 -0.19786605 -0.124350585 -0.18391305 -0.089293554 0.1615126 -0.2934836 -0.24976939 0.19195989 -0.24469687 0.030192504 -0.11418535 -0.336142 0.12576272 0.2425108 0.2209157 0.32996163 -0.21690689 -0.042091724 -0.22132069 0.48601055 -0.09694436 0.13449717 0.2259666 -0.0069464287 -0.13831045 0.36795864 0.041179787 -0.044049513 -0.16878408 -0.08977795 0.1572326 -0.18378389 0.08054522 0.12900043 0.02143868 0.35147557 -0.32861832 -0.3502541 0.19278464 0.20500903 -0.13379382 -0.1022636 0.62251705 -0.2440514 0.14820112 0.161898 0.2777808
学 -0.057295892 0.021513715 0.15467507 0.06811853 -0.03612359 -0.21633065 0.080677465 0.23953488 -0.18101121 0.022824554 -0.32073966 -0.2701734 -0.107058495 0.07897931 -0.06945871 0.48281497 -0.14020674 0.2985022 -0.042568207 -0.08578373 -0.16156065 0.0019320573 -0.14130771 -0.015287217 -0.06133091 -0.28534 0.094303824 -0.32271713 0.1967522 -0.36204094 -0.4626801 -0.43701702 0.3340157 0.04407273 -0.41059574 0.209377 -0.18405637 0.14353895 -0.05242657 -0.25841948 -0.24734913 -0.16519096 0.028022634 -0.10396481 -0.332565 0.45926574 -0.16284327 -0.18962598 -0.24185587 0.55452615 -0.2968034 0.17708758 -0.35401252 0.08555254 0.34587255 -0.14020422 0.32245475 0.102892525 -0.29281402 -0.12931463 -0.5664456 0.06271333 0.19445617 -0.14384775 -0.38296476 0.18446006 -0.16232961 -0.093631 -0.050996415 0.16533212 0.15718165 -0.46317035 0.07231625 -0.1108608 -0.0006957376 0.176689 -0.05804905 -0.015293372 0.06805972 0.2593893 0.21163145 -0.110510685 0.17819895 0.31484497 -0.3921317 0.26618785 0.23168404 0.15805398 -0.05469366 -0.28204492 0.028061152 -0.03852559 -0.67504627 -0.28288227 -0.2773954 0.5368332 0.18250528 0.23528713 0.091237105 -0.17977946
事 0.21825935 0.14757349 -0.31138638 -0.16788666 -0.105865404 -0.6847256 0.23812437 -0.045273665 0.37611693 -0.1801986 0.2900652 -0.06318729 -0.24453628 0.23047552 -0.10893778 0.14653327 0.2140435 0.18666814 -0.35169154 -0.13585253 0.16659904 -0.30376446 -0.07266007 0.7458291 -0.18027623 0.30452466 -0.20448428 0.5240449 0.009538572 -0.002853832 0.21256502 -0.3040777 -0.006496113 0.57459396 0.036022063 0.16891831 -0.0689352 0.25190827 0.07925188 0.27985182 0.47588328 0.56668293 0.29370695 -0.045575943 0.64044565 -0.00808135 -0.37645018 0.05970644 -0.37079987 -0.10228392 -0.14001222 -0.22349437 -0.5169939 0.31466964 -0.106343485 -0.020268729 -0.13152586 0.08475899 -0.32371172 -0.030905006 -0.2872293 0.18607435 0.04317673 0.29070863 -0.076440625 0.3643781 0.062295996 0.041137427 -0.036260996 0.23567632 -0.21164916 -0.13632242 0.22696732 -0.37769657 0.08891776 -0.526462 -0.35025102 -0.006850523 0.29059282 0.51136005 -0.38467222 -0.35644293 -0.116034545 0.17165343 0.037799228 -0.27140084 0.093743704 0.043125894 -0.22447398 -0.42635232 -0.40788877 -0.1186822 -0.15460683 0.0146818375 -0.26452753 0.4980754 0.14434288 0.12001972 0.15610594 -0.078476496
是 -0.011023623 -0.2997176 0.012678424 0.07312831 -0.3217096 -0.013477802 0.05650871 0.06933065 -0.10514106 0.15280822 0.05336582 0.10617478 -0.23619181 0.15060139 0.16310614 0.27122238 -0.14802733 -0.16788937 0.12936208 -0.048790723 0.06720634 0.02728068 0.23326844 0.1298717 0.11988752 -0.08142945 0.30552343 0.1558543 -0.13156146 -0.2830271 0.12768358 -0.10389235 -0.7951976 0.4514679 -0.028470436 -0.028005414 -0.110002 -0.30317917 0.29960197 -0.37015536 0.26591423 0.07173604 0.19340673 0.056264263 0.15087402 0.21240954 -0.011210653 -0.05644029 -0.22338939 -0.043063384 -0.10457013 -0.05702918 0.23301433 0.0054050023 -0.48866287 -0.29746702 0.07208002 -0.21993843 -0.41079652 -0.07997007 0.21574931 -0.44465178 0.029079622 -0.2549607 -0.450843 0.25001785 -0.21631037 0.22079447 0.035894137 0.11876152 0.13044523 0.25815845 0.114550896 -0.14858739 0.1771698 0.35944265 -0.10804461 0.099146664 -0.47572076 -0.054109007 -0.18128751 0.07032489 0.21602625 -0.0022314177 -0.18577802 -0.22250107 -0.17287053 0.47831815 0.26035273 0.14482374 0.5727187 -0.18018118 0.067797974 0.13538869 0.046820056 0.88391125 -0.08175402 0.0075289765 -0.34492403 0.32463843
哉 -0.2599598 -0.025089536 -0.084973976 -0.06378169 -0.45730463 0.26242647 0.21147643 0.0033076045 0.07364344 0.30997702 0.37580732 -0.14058235 0.11013352 0.3494043 0.6644852 -0.034425322 0.13742632 0.011704703 0.098335505 0.2572958 -0.2872796 -0.26026988 0.29055032 0.3546082 -0.03626031 -0.42374915 0.19828795 0.1189832 0.05240443 -0.2637776 0.3076786 -0.27248055 -0.019757647 -0.29899386 0.15046673 0.03429914 0.2106591 -0.4351311 0.04545601 0.070278555 0.17346875 -0.12120901 0.26036683 -0.42819884 0.16477346 0.2990407 -0.030200418 0.4863657 0.044130735 0.05251182 0.1899962 0.044133928 -0.32746372 -0.07677095 0.24662273 0.06556739 -0.104861 0.17827289 -0.18156622 0.03897249 0.19327039 -0.23715329 -0.026049038 0.083489 -0.5706911 0.047741365 0.30055335 0.11303722 0.32438663 -0.5355864 -0.2999087 -0.020227697 -0.10374871 0.032659717 -0.28462175 -0.0088019725 -0.2420198 -0.21645932 -0.11200051 0.5552535 0.41432804 -0.36266014 -0.15141052 -0.07450922 0.085689254 0.32440934 0.18598223 -0.032934695 -0.28703177 -0.13368602 0.19193001 0.30244726 -0.121605635 0.026547957 0.08579989 0.7707327 0.12038549 0.084822245 0.10852867 -0.08830024
闻 0.20514375 0.021633282 -0.009944715 -0.015160277 0.066468656 -0.2780206 0.16288564 0.022995053 -0.2918571 -0.0145545425 0.27396142 -0.3083664 0.0049778563 0.12953405 -0.050891567 0.024457622 -0.5281617 -0.4061067 0.07375415 -0.28636336 -0.33884642 0.13579822 0.02060579 -0.33986956 -0.040428944 -0.22394839 0.25623658 0.05819565 0.102763966 0.10574219 -0.1532583 -0.109838836 0.09313402 0.031109646 -0.16470377 -0.29767174 -0.078085266 -0.037607346 -0.09073175 -0.39578864 0.4081789 0.15384138 -0.17176944 -0.12718102 -0.47549787 -0.048488904 0.5740838 -0.16650505 0.095524766 0.04578335 -0.041124623 0.06281987 -0.12597956 0.4708147 0.214328 0.30852124 0.28392038 0.4865544 0.3568161 -0.1549289 -0.25037485 -0.023439135 -0.49855113 -0.10556695 -0.5342796 0.24697927 -0.2524464 -0.1225254 -0.18024974 -0.29760233 -0.18826984 0.035361692 -0.19135289 -0.014953055 0.1475662 -0.18061183 0.09373703 -0.08373964 0.025587732 0.46084154 -0.07219103 0.0036371413 -0.2889151 -0.072834715 -0.4230475 -0.11265244 -0.15039083 -0.13098456 0.4043644 -0.02892969 0.040012553 -0.2677211 -0.22188383 0.18131836 -0.39057297 0.54311323 0.1642422 0.1365329 0.22330926 -0.09624195
未 -0.36708876 -0.034848034 0.11008042 -0.17809016 0.06375714 -0.32328904 0.43116042 -0.09275665 0.029351028 0.098066874 0.075857826 0.17377104 -0.3586341 0.2337531 -0.47771883 0.006887176 -0.01809046 -0.06621589 -0.31007987 -0.0656742 0.33103442 -0.027672919 -0.33412132 0.19842914 0.34540588 0.08628669 0.09552451 -0.16725856 -0.14836305 -0.08707388 -0.026477324 0.34515095 0.031739425 -0.07612314 -0.08559249 0.08291746 0.3326499 0.29816815 -0.12583801 -0.41819686 -0.6368463 -0.061119206 0.016864184 -0.46246317 0.07419549 0.38947874 -0.054496963 -0.10587908 0.048367772 -0.28828233 -0.039245572 0.46819565 -0.07653011 -0.29246542 0.0231206 -0.042661224 -0.2846865 -0.23925462 0.22023381 -0.35474983 0.0720347 -0.24935502 0.39253348 0.16853786 -0.49235615 0.04668367 0.44853193 -0.18993741 -0.3445821 -0.01051458 -0.10882444 -0.6775683 0.21976674 -0.04527477 -0.06836429 0.3071194 0.046593465 0.029913131 0.26916423 0.4281349 -0.38756865 0.027871195 0.22545071 -0.16663079 0.11711071 0.002607627 0.13644741 0.2098375 -0.18896566 0.08823312 -0.13106325 0.034866754 -0.08936582 0.29047313 -0.18991984 0.4163013 0.35026544 -0.06804925 -0.079880595 -0.22316095
公 0.47270364 -0.35848635 0.33945912 -0.14569077 0.21047962 0.025988426 0.03714063 0.25857058 -0.34032962 -0.22674756 -0.40509185 0.16122784 0.08494634 -0.13988218 -0.2176451 -0.23543459 -0.02869777 0.033020124 0.14295438 0.034409918 -0.30169788 -0.20145278 -0.053380564 -0.17330484 0.005553248 0.0013368587 0.10512099 -0.013659036 0.22217013 0.045678098 -0.05388259 -0.024787338 0.088675275 0.028545683 -0.26783988 0.23917127 0.37183222 0.4404508 0.053223886 0.012928805 0.34683022 0.087410085 0.14847752 -0.42391613 0.4961178 0.11265484 -0.6746758 -0.26172015 0.0651287 -0.055357054 0.023043342 -0.1948815 0.26160908 -0.09836485 -0.07401138 -0.05412394 -0.1453479 -0.3165513 0.471417 0.035680715 0.38732168 0.13366765 0.24775451 0.054163907 -0.11720452 -0.30184615 0.35301507 -0.12501393 -0.2425551 0.23670773 -0.28704226 0.32568324 -0.28830054 0.18347314 0.16096468 0.033601295 -0.1635756 0.2686414 -0.085893564 0.554447 0.39206493 -0.061340187 -0.23991153 0.06830983 0.023168534 0.035255052 -0.28488272 0.033099614 0.35877493 -0.651236 -0.08772332 0.71255904 0.23002146 -0.032078024 -0.048587017 0.848173 -0.50260365 -0.2995209 0.12759814 0.46101373
好 0.029603008 -0.039238684 -0.12743047 -0.24813366 0.18274568 -0.4536643 0.39138687 -0.56960434 -0.31250337 0.10724877 -0.31583807 0.27913097 0.044217438 0.17238706 -0.18986031 -0.05328149 0.36069912 0.10563916 -0.045779787 0.053604666 0.58023524 -0.055620506 -0.21032722 0.15210448 -0.14376307 -0.55291694 -0.17523257 0.13824962 -0.10507545 -0.54574984 -0.06463822 0.30433336 0.21289352 -0.20351754 -0.49228406 -0.06528853 0.11492121 -0.06082058 0.15902875 -0.6287977 -0.25743678 0.121420905 -0.08758776 -0.035950586 0.22741257 -0.033249628 0.018110573 -0.11136041 -0.19708419 0.05902246 0.016585017 0.3973745 0.092554994 0.25407758 -0.513675 -0.005661246 0.4892183 -0.31652233 -0.27065513 -0.4322819 -0.24768652 -0.15389746 -0.19679283 -0.035931986 -0.29928458 0.19046094 0.32288462 -0.24406785 0.11054096 -0.13940865 0.21735385 0.32024726 0.34910673 0.060593035 -0.1861633 0.46361557 -0.030663379 0.20603302 0.2612344 -0.05881196 -0.19792208 -0.17720631 -0.023220921 -0.11371107 0.17147473 0.45077276 0.26763132 -0.08026363 -0.44583187 -0.29419598 -0.19580665 0.19145514 -0.57731456 0.06915609 0.1633692 0.8298712 -0.22064433 0.23329891 0.60995126 -0.051550284
我 0.059601393 0.21083607 0.1632391 0.4109458 0.12121435 -0.19417888 0.353277 0.36391097 -0.016262505 0.2867317 0.10496297 0.09181261 0.07778677 -0.24242303 0.19543241 0.07566638 0.44159272 0.106790386 0.09889745 -0.12255516 0.21217038 0.43951553 0.27994823 0.6133467 0.2505533 0.0014621927 -0.064193144 0.12848142 -0.28040558 -0.009661069 0.10403131 -0.62026155 0.6929538 -0.28211662 0.09368641 0.14915924 0.24897987 -0.29718196 -0.32892185 -0.13586478 -0.123947375 -0.16987856 0.017446835 -0.35083133 -0.017253995 -0.25591275 -0.21162695 -0.18548968 -0.017106144 0.24571626 0.34280276 -0.08287974 0.3134441 -0.48817822 -0.15632965 -0.19034266 -0.28617936 -0.08083921 -0.34868357 -0.028074205 0.058038745 0.22290885 -0.35916042 0.024620738 -0.73604196 -0.20875677 -0.18228325 0.32284653 -0.3974556 -0.04318614 -0.06339546 0.15558955 0.05579823 -0.4142008 0.2616984 0.05867772 0.038756795 -0.25358376 0.11726102 0.29003784 -0.1754345 0.00441868 -0.13862514 -0.1469983 -0.7518205 0.118033074 0.048319478 0.30340555 0.13987364 -0.19499026 -0.14332353 0.047422826 0.093077295 0.036454517 0.16472629 0.5768751 0.29232278 0.0029042761 -0.09394585 0.13924915
路 0.23201564 -0.5012745 -0.12944251 -0.05469871 0.088097736 0.20430462 0.40807143 -0.12395976 -0.14013591 -0.20546883 0.45270836 -0.26131082 -0.07114694 -0.36468148 -0.41028237 0.13442981 0.048759453 -0.32570744 -0.2238948 0.44740552 0.21263854 0.095799826 0.24957997 -0.08469024 -0.13487874 -0.07243442 0.050780874 0.20074213 -0.034734394 0.15184537 0.050615452 0.13782634 0.021096475 -0.07175969 0.29609397 -0.08748082 -0.036837507 -0.04455221 0.0010750653 -0.3621281 0.21914071 0.16267055 -0.398016 0.43676543 -0.015684173 0.49048582 -0.26551053 0.26233357 0.031475183 0.08484377 0.5248716 -0.15336724 0.44429195 -0.1184924 0.6872267 0.32724342 -0.6374519 -0.20426513 0.46150616 -0.33818746 0.26810074 0.20402464 -0.3942016 0.09462099 -0.50845337 -0.051512312 -0.18521854 0.21067208 -0.23363684 0.15922983 -0.5141223 -0.451722 0.01132524 0.29748747 0.07020964 0.07299591 0.008301321 0.20303538 0.30997697 0.15274093 -0.102433145 -0.14010847 0.08813846 0.034635987 0.4171117 -0.3679831 0.6007537 0.31478375 0.2516501 0.16710079 0.09232214 0.15232122 0.08885714 0.05397119 0.19251207 1.0760698 -0.3021213 -0.34248784 -0.46244296 0.11398473
在 -0.076466195 0.19305903 0.08898303 -0.19022894 -0.34576702 -0.46039212 0.16274449 -0.084780335 -0.025318999 -0.29884255 0.15435475 -0.08532921 0.29012993 -0.16961111 0.36875176 -0.39105716 0.10521364 0.06030534 -0.29662284 0.49115625 0.26590154 0.42534688 0.18249069 -0.17373648 -0.5867378 -0.29673985 -0.010662192 0.03986599 -0.16441628 -0.09118495 -0.0075149275 -0.39876914 -0.86234343 -0.002502577 -0.23738548 -0.069677815 0.09254848 0.006049651 0.18115962 0.0759866 -0.21879525 -0.32921937 0.2962385 -0.35481742 -0.34543854 -0.04333244 0.027224278 -0.14553595 -0.25534493 0.027224964 -0.17961793 -0.09939443 0.1695297 -0.10468245 0.0116942255 0.10539428 0.19718572 0.17630811 0.0028610914 -0.050211422 0.408519 0.057531912 0.16698821 0.23675193 -0.19860312 0.14024335 -0.29560384 0.008128937 0.21668057 0.2517667 -0.17216553 -0.50558615 -0.09426755 -0.09094596 0.026559802 0.14166778 -0.065635495 -0.66066825 0.15046531 0.66445357 0.079766445 0.19459993 0.6171324 0.13378844 -0.41423857 -0.08097586 -0.50929457 0.10461219 -0.6411524 -0.6433984 0.04388084 -0.42327568 -0.17250101 -0.0071191913 -0.41280183 0.49320257 -0.43528196 -0.12176007 0.28076217 0.19773589
已 -0.1268797 -0.3015336 -0.25098163 -0.07339394 0.25159025 0.15298201 0.1739375 -0.12199238 0.1333413 -0.3159917 -0.00042215633 0.14751503 -0.06437918 0.042834155 0.30672204 -0.28674325 0.27593866 -0.1076891 -0.16299269 -0.43542904 0.39114305 0.2403341 0.09610151 0.002231602 -0.010392066 -0.2170549 0.060472343 -0.05030761 -0.044667974 0.027690325 -0.36765727 -0.2611979 0.057793956 0.20094344 0.028743884 0.42487842 -0.46814 0.45449948 0.4557154 -0.31282467 -0.07041237 -0.34244505 -0.075671546 0.28919214 -0.0014729329 -0.544124 0.13831672 0.44432047 -0.2214376 0.56824285 0.09127197 0.018203603 0.004375807 -0.120989524 -0.23064403 0.29973614 -0.15567407 -0.20237671 0.08310245 -0.009945436 0.030081442 -0.087080106 -0.42643362 -0.04517241 -0.64400274 0.21573879 -0.014199519 -0.24552663 -0.18014847 0.2441649 -0.17867139 0.2718145 -0.08336677 0.29951683 0.3075072 0.013666085 0.3091775 0.23346141 0.3235965 0.11517393 0.21993501 0.19277765 0.17163965 0.23870604 0.20146355 0.17058174 -0.18846017 -0.59239775 0.14231911 -0.3687213 -0.0448379 -0.15162753 -0.17207052 -0.5888046 -0.50873667 1.0393155 0.03922471 0.068427876 0.20519993 -0.7295228
得 0.4432045 -0.17616731 -0.060663644 0.10213352 0.043591622 -0.7530301 -0.20957758 -0.30540982 -0.5926434 0.12104303 0.17981549 -0.27767196 -0.023048146 -0.29223987 0.12006947 0.3554529 -0.19563207 -0.13416356 0.024438988 0.16429004 -0.093665615 -0.33815098 -0.12362424 0.23389964 -0.25258988 -0.13771749 0.11734802 -0.033715714 -0.09110225 0.27752325 -0.31936178 -0.29795736 0.11209243 0.14380926 -0.3323794 -0.6068062 -0.19022901 0.32239306 -0.23503476 -0.2717546 -0.08679836 -0.093702495 -0.1730564 -0.21666265 -0.23083052 -0.045404214 -0.1401974 -0.06390705 0.14692353 0.1745342 0.19478706 -0.18291932 0.15008059 -0.2694145 0.12193857 0.32031354 0.14082474 0.22938098 0.17533177 0.31113645 -0.13896321 -0.008985195 0.15992413 -0.41614845 -0.39299488 -0.0012295825 -0.1827937 0.045395896 0.09036936 0.0969146 -0.31177968 0.2869946 0.6071463 0.019309225 0.09978236 0.1706282 0.16109961 -0.27808386 0.2239376 0.5031388 -0.03886133 -0.0095622735 0.39894328 -0.47917557 0.060440734 -0.46922782 -0.24922498 0.11506446 0.074339285 0.11824365 0.0066008377 0.21957372 -0.2594996 0.035161052 -0.28879613 0.28725177 -0.12881733 0.08905134 0.117394194 -0.087886155
所 -0.27578178 -0.33793873 -0.40859777 -0.177184 -0.11607166 -0.51004857 0.32746565 -0.44453272 -0.20159611 -0.22464113 0.18101123 0.073047765 -0.29804686 0.24333468 -0.14505382 -0.3922112 0.4995422 -0.28671697 0.2229741 0.5382196 -0.23008674 0.19211465 0.007916185 0.06082369 0.1341336 0.059619967 0.17533755 0.3235692 0.12411529 0.13331512 0.05618424 -0.0047057318 0.18158713 -0.11781971 0.047926888 0.3588364 0.057604637 0.25965974 -0.012387562 0.050970573 0.3299681 0.1218807 0.12894525 0.39179698 0.3548008 -0.26965246 0.270289 0.026764052 0.36311755 0.274791 0.15980773 0.05178286 0.04638382 0.008661588 -0.47009465 0.25904846 -0.22239175 -0.13871327 -0.2437046 0.21033387 -0.28385344 -0.015756862 -0.081554405 0.16267651 -0.10159997 0.065596424 -0.7930605 0.22104222 -0.1922153 -0.2178652 0.24624582 -0.2136273 -0.18138275 0.4786288 0.15447381 0.19403087 0.023056876 -0.20233914 0.25829995 0.059296843 -0.08098384 -0.37337366 0.08229061 -0.04804137 -0.2695306 0.06806663 0.11768176 0.2365553 -0.20034608 0.005276655 0.25689402 -0.39281148 0.4478673 0.12070099 -0.043173324 0.69335777 0.24678445 0.034872893 0.30224225 0.0020683322
民 -0.14662185 0.61145675 -0.26045662 0.023461109 -0.029503638 -0.5130663 0.15344699 0.050675813 -0.08156652 -0.14363267 0.06837157 0.19066238 -0.052933097 0.41577485 0.71673363 -0.3140523 0.18291391 0.034277715 0.37262952 -0.31723633 0.01969652 0.39655456 0.08094075 0.51433 -0.036738522 0.3502978 0.008955631 0.3022586 -0.2886654 -0.04540763 -0.2747047 -0.31340694 -0.056988265 0.03583478 0.22558032 0.21079047 -0.218025 0.3522857 0.3784316 0.095076375 -0.31308195 0.023629628 0.33325243 0.059737835 -0.22282502 0.16979346 0.014846138 0.11699487 0.09154851 -0.028237 0.01017072 -0.38156128 -0.07411515 -0.3378703 0.7720902 -0.032060087 0.08867796 0.03873964 -0.18516381 0.081508555 -0.3765712 -0.0059499117 -0.040369608 -0.14689052 0.27464244 -0.3705816 -0.29434645 -0.05886036 -0.011379245 0.0877035 0.16884732 -0.13031133 0.025310742 -0.15719715 0.088401735 -0.28696206 0.3599213 0.42365497 0.077647194 0.25491214 0.33135986 0.33650684 -0.054934207 -0.23730601 0.35631308 0.013887719 0.27327934 0.5367471 0.2970279 0.17062525 0.4952455 0.14426082 -0.32184538 -0.0030405724 -0.41214862 0.61206496 -0.19504024 -0.040052447 -0.009845057 0.027023042
小 -0.035278913 0.015138594 -0.2448789 0.26491842 0.13402948 -0.24361387 -0.20092921 0.04163628 0.3502835 -0.0026031458 -0.24093321 -0.36830312 0.07324016 -0.07777799 0.3630925 -0.28973618 0.11816864 -0.03916595 0.1512369 0.044414196 0.122171156 -0.5577742 -0.109956905 0.062376663 0.001337458 0.29293516 0.17688447 -0.11655019 -0.2510152 -0.17769411 0.3694791 0.061041716 0.090257056 -0.43995845 -0.017120413 0.4553784 0.33450714 -0.16554642 -0.028265396 -0.5032883 -0.48165086 -0.15920182 -0.057936613 0.21385275 -0.1467357 -0.19800475 0.3442031 0.0346946 -0.09526813 0.2078957 0.00855946 0.3472359 -0.19255875 0.36048198 0.41952232 -0.054203555 0.37521338 -0.39576653 -0.07239027 0.30838093 -0.46477285 -0.39294252 0.16468704 -0.3785296 -0.117826425 -0.32895607 0.11290477 0.05572982 -0.15694597 -0.17981263 0.10005004 -0.17429568 0.24146074 -0.34334487 -0.7296734 0.03553317 -0.14460817 -0.110279225 -0.33168158 0.42697442 -0.24914023 0.06403186 -0.052725915 -0.12823698 0.2141954 -0.1648607 -0.18443216 -0.2730746 -0.19491969 -0.07139585 0.031440236 -0.3412353 0.04356321 0.83774227 -0.12542704 0.6836001 0.035371654 -0.08126446 -0.06320547 0.47264192
天 -0.32217798 0.15141614 0.037127707 0.099608086 -0.4123371 -0.4140092 0.22154687 0.31324938 -0.012192718 -0.33598912 -0.19722061 0.10851519 0.15462962 -0.038062744 0.09987051 -0.08121309 -0.13063437 -0.04321098 -0.35956532 0.027586354 0.23144244 0.10053208 0.3061235 -0.19123448 -0.054261263 0.2459403 -0.2966163 0.23447025 0.41250756 -0.07162254 0.12326228 0.051666 0.046932388 0.03962008 0.2990369 0.10516942 0.48507914 0.16612425 -0.14119755 0.30327338 0.00036399663 -0.22612551 0.17068292 0.41412154 0.13226132 0.23305212 0.44402915 -0.70490885 0.3012024 0.24697289 -0.20506057 -0.010781474 0.29094017 -0.054712877 -0.07306998 -0.123672694 -0.0969444 0.25708306 -0.31499648 0.6528139 -0.24716285 0.031030528 0.0248192 -0.14770338 -0.4247021 -0.36329305 -0.13002935 0.14483245 -0.14871322 0.04437228 -0.5568013 0.4016657 0.38870868 0.2930016 0.0008196974 -0.2794738 0.24270302 -0.10037183 -0.43663502 0.46695584 -0.011049546 -0.12284367 -0.031355713 0.025908463 0.24644333 0.16442983 0.05778938 -0.037544113 0.2339587 -0.11341194 0.03409311 0.102798186 -0.063483596 -0.28470773 -0.049708374 0.59361386 -0.06317464 -0.39368775 -0.26953226 0.30995843
乐 -0.12635452 -0.0984339 -0.12822787 -0.3761868 -0.16017964 -0.7164255 -0.40563297 0.33093464 0.18972105 0.13850108 0.0665074 0.3474546 0.2140232 0.08233227 -0.1255934 0.199145 -0.13199998 -0.39347076 0.14475891 -0.0055769393 -0.102295175 0.2087912 0.3563822 0.039075334 -0.50822216 -0.1242446 0.075548746 -0.094014674 -0.5426269 0.15313806 0.0820711 -0.20148316 -0.028365875 -0.061814275 -0.8479413 -0.20362158 -0.17770633 -0.12024176 0.23917736 -0.2127476 0.15127997 0.055767115 -0.059557978 0.3368393 -0.14612058 0.0022479766 0.2560738 0.29368395 -0.6011238 -0.09976743 0.07030366 0.3578302 -0.36170468 -0.18114112 -0.09258792 0.14124481 -0.39848793 -0.4230016 0.03238714 0.50350034 0.27946082 0.029172985 0.35759827 -0.13510819 -0.20940349 -0.04040942 -0.23331231 0.2016452 0.322915 -0.27065817 -0.076832294 -0.39849877 0.0028276287 0.5524249 0.25784695 0.4267756 -0.42954764 0.63894284 0.30480146 -0.010163151 0.2584505 0.120620035 -0.07860849 -0.010624465 -0.14483553 0.6932347 0.076405205 0.07417325 -0.039525766 0.18889995 0.00871445 -0.72487056 0.2671387 -0.34745228 0.18265043 0.5150184 0.038920745 0.099437326 0.18443772 -0.0054709436
邦 0.36114863 -0.2272395 -0.34657148 0.06943756 0.23216118 -0.562553 -0.37159663 0.0066339937 -0.10390494 -0.36407182 -0.26223093 0.11887614 0.065203756 -0.146247 -0.29030082 -0.2426433 -0.20120843 -0.0446773 -0.25177583 -0.2804141 -0.22003669 -0.08753618 -0.33805367 -0.0134951705 0.067781664 -0.29992378 0.4755452 0.26149973 0.22615798 0.40041262 0.40336984 0.31608674 0.11293886 -0.013131293 0.34550372 -0.19848949 0.033229247 -0.11136508 0.25332394 0.11644737 0.047242273 0.2633957 0.19726594 0.2349072 -0.69974494 0.13340627 -0.1321844 0.3594791 -0.09041592 0.4187566 0.038083486 0.20632091 -0.18565778 0.07270858 -0.11623925 -0.22135873 0.40688175 -0.27593014 0.5900227 0.076426834 0.01982493 -0.36308968 0.4305998 0.16552275 -0.020125687 -0.25573054 -0.12577258 -0.12666886 0.20414169 -0.13702755 0.026273958 -0.2867372 0.15280521 0.016312387 -0.12734959 -0.0070218365 0.17718664 -0.07792826 -0.562577 0.54180133 0.3836423 0.29174697 -0.09997172 0.1467354 -0.4246525 0.24523321 -0.34919956 0.15658617 -0.0020875884 0.088816755 0.4807171 -0.24156588 0.20271891 0.047941532 -0.16008744 0.56668544 0.15370402 -0.5869025 0.19058233 -0.11128083
亦 -0.22548029 -0.29661077 0.46396536 0.65755796 -0.24422008 -0.46270174 -0.22469163 -0.14587851 0.5359433 0.6063174 0.25031984 0.18046248 0.19323975 0.0995981 -0.023398452 0.13995887 -0.2846934 -0.15856175 -0.22310075 0.5713069 0.19048628 0.09722034 0.09035341 -0.15215091 0.40622127 -0.05148438 -0.3140652 0.80554473 0.17324641 0.16952705 0.13109969 0.17770836 0.06664699 0.41400176 0.2766882 0.09530353 -0.1244596 -0.006024014 0.25052044 -0.3492471 0.51082116 0.010440394 -0.20352183 0.1472242 -0.39495015 -0.10582732 0.019203136 0.35394606 0.07700879 -0.1504905 0.2601608 -0.13232754 -0.059246708 -0.18123847 0.09909447 -0.15440865 -0.07224521 0.034899235 -0.016309444 0.11864188 0.22926855 -0.6489537 -0.257523 -0.09774612 0.33309308 -0.15261745 -0.31334552 0.41216338 0.3789377 -0.03602845 -0.20252119 0.057301223 -0.270018 0.026173618 -0.25908905 0.3225748 0.3358033 -0.012286342 -0.39413434 0.5284366 -0.11749532 0.049958 -0.08501917 0.29728428 -0.0361084 -0.09828637 0.2954692 -0.14916654 0.43142232 0.12052208 0.5729673 0.14253306 -0.38295814 0.27732432 -0.08120189 0.69510335 0.22536418 -0.017357422 0.46606228 0.36557975
使 0.33688402 0.09728308 -0.31748146 0.19147462 -0.0016727282 -0.5773151 0.14992625 0.3765541 0.40786985 -0.35277802 -0.012995085 0.004487937 -0.45100078 0.16679725 -0.1965899 0.27490467 -0.28250808 -0.43238717 -0.060858727 0.402969 0.12418948 0.48033115 0.10759583 0.2608825 -0.26589987 0.05647228 -0.25650388 -0.009063765 -0.20070308 -0.09078412 0.2624717 0.01612806 -0.27027857 -0.24864575 0.097488225 0.2072208 -0.2478299 -0.12078518 0.34251142 0.0295059 0.11552075 -0.11218444 -0.0955467 0.1341878 -0.45084852 0.17706558 -0.06320628 0.65644354 0.44919616 -0.32876298 -0.41788653 -0.120480746 0.23620819 0.11030542 -0.18437041 0.006756246 0.03986892 -0.3981929 -0.04060301 -0.08805514 -0.2871324 -0.006395105 -0.38249135 0.17395763 -0.06493866 -0.00252371 -0.2268452 0.25911877 0.23966661 -0.03731115 0.3711352 -0.255489 0.29122046 -0.42742974 0.5313009 0.3624676 0.06486859 0.43872175 -0.101422586 0.3630967 0.40575624 -0.13719669 -0.70467216 0.05701732 0.19926587 -0.35468593 -0.21595113 0.16363077 0.25299427 -0.07014365 0.0014504225 0.16471629 -0.50419456 -0.072193496 0.26818103 0.5718261 0.08017009 0.11984792 0.15037757 -0.04493329
大 -0.017232636 -0.025349613 -0.22162727 -0.06555679 0.025126327 -0.32705912 0.020492744 0.088111654 -0.18147634 0.04531456 0.15410629 0.0067133293 0.26012537 0.38992697 -0.38612258 0.007937038 0.18652216 -0.0032311925 0.1205269 -0.07461193 -0.0808861 -0.035284113 0.29598752 -0.085841574 0.011828875 -0.12918925 -0.4577575 0.12836787 -0.53004676 0.044783432 0.11695053 -0.19772731 -0.25094113 -0.0274857 0.57415086 0.22667414 0.007016381 0.23157096 0.16749309 -0.22713426 -0.30922362 -0.16299537 0.04289548 0.22036114 0.30095527 -0.2611267 0.05461128 -0.023890166 -0.029144205 0.05499136 -0.31395808 0.33644825 0.15372826 0.32350934 -0.14404576 -0.3360121 0.020788046 0.1519568 0.051381826 0.04883371 -0.066689916 -0.013194243 0.039027482 0.03163522 -0.013369334 0.065332785 0.031178337 0.56079555 -0.43573275 -0.24712172 -0.39923275 0.16715713 0.35084054 0.28214145 0.09579234 0.4079401 -0.6140099 -0.10695676 -0.13408637 0.12493342 0.037477918 0.37372681 -0.3043411 0.003097511 0.3435024 -0.23420753 0.14496657 0.31382826 0.2923558 0.5157932 -0.44754887 0.7077589 -0.041192766 -0.03536921 0.055372093 0.5801938 -0.068562225 0.08347008 0.29399398 0.17016132
下 -0.63556117 0.15407665 -0.24548033 -0.028208427 -0.30870873 -0.37252998 -0.061072554 -0.012727822 0.1738215 0.08509345 -0.04881603 -0.36518148 0.04281161 0.20727922 0.229662 0.118999235 0.016452746 -0.59788823 0.45434085 0.11766513 0.1338821 0.29892275 0.15883805 -0.8434999 0.23064676 0.195095 0.22285506 -0.12742224 0.08856735 0.035870668 -0.07958551 0.16496648 -0.18988289 -0.23846558 0.08812825 -0.078877226 0.35925665 -0.03330998 0.030764418 -0.008548351 -0.62783486 0.03982936 0.26143563 0.4338406 -0.5314444 -0.019526945 -0.020207789 -0.234627 -0.19886924 0.30906665 -0.386498 0.07647266 0.5254669 -0.056947693 -0.3780147 -0.16028437 0.14257152 -0.22223143 -0.48813233 0.18138666 -0.13756062 0.00088756013 0.12999438 0.012245638 -0.23545775 -0.1653351 -0.0669741 -0.2979403 -0.054771684 0.50489295 0.052054957 0.4156281 0.23110305 0.20679046 0.26837736 -0.2493368 0.1821269 -0.2768249 -0.1623772 0.099400364 -0.09634715 -0.3581557 0.16867183 -0.1752164 -0.22862945 -0.06062203 0.35597613 0.52909404 0.43156755 0.03797447 0.31922692 0.21024048 0.45624506 -0.13317065 -0.35800648 0.58132243 0.19910847 -0.20837592 0.015802843 0.08839302
贡 -0.0130688045 0.18230984 -0.16665798 -0.1432803 -0.1832211 0.41637778 0.053663827 0.017308038 0.19666967 0.0951138 -0.041926153 -0.14254409 -0.21015058 -0.6437106 0.0075662388 -0.1880215 0.23316781 0.13839754 0.34605467 0.14184843 -0.17594537 -0.28444266 -0.003613676 -0.6040785 -0.26192027 -0.5428878 0.09376914 0.4037256 -0.5518276 -0.007103703 -0.15135384 0.050194975 0.14561448 0.40932998 -0.29206127 -0.03348615 -0.6313675 -0.17456083 0.06816443 0.038870584 0.33150518 -0.44120303 0.40290898 0.055944216 -0.008249887 0.16415843 -0.03143268 0.18527554 0.30780542 -0.011616474 -0.008384175 -0.30951995 -0.11420954 -0.2916366 -0.085242234 0.112132095 -0.026773363 -0.3018884 -0.07070877 0.45471567 0.2671464 0.075322986 -0.1709419 -0.031750116 -0.3150799 -0.13786046 0.50309443 0.3914142 -0.26544735 0.15794444 -0.04929149 0.15076426 -0.48401585 -0.19064347 0.3746727 -0.3198597 0.06549519 -0.37336445 -0.46044028 0.85788774 -0.23993531 -0.55074245 0.025724843 0.09238957 -0.767075 -0.4212886 -0.12114348 0.1302507 -0.25081053 0.34453663 -0.11431246 -0.0019498265 -0.38713664 -0.45241705 -0.16743986 1.2707002 -0.1317821 0.18926173 0.28492856 -0.11652115
欲 -0.16475864 -0.13620159 -0.630875 -0.1646044 0.07965955 -0.5301741 0.14921363 -0.14163417 0.17989454 0.4509969 -0.17782733 -0.08628739 0.13033982 -0.41195107 -0.40795863 -0.015424039 -0.2781413 0.13323748 0.6233424 0.49416038 0.21762149 0.21082096 0.2682658 0.07121486 0.23928839 0.029503714 -0.029718557 0.24649994 -0.6280412 -0.37948507 -0.06350931 -0.198464 0.115392335 -0.41729033 0.11027134 -0.021473141 -0.109345786 0.2711478 0.123454146 -0.23070277 -0.07284762 -0.24343422 0.08380724 0.2252334 -0.34773368 0.032981697 0.023644503 -0.3264677 0.38125545 0.32807305 0.34753397 0.38911 0.2176115 0.036384284 0.27962506 0.19769073 0.008585756 0.95728064 0.29308283 0.3812301 0.2608824 -0.04966267 -0.051631846 -0.29256958 -0.50873864 -0.16765223 -0.30233687 0.023901114 0.4925931 0.47063637 0.3803042 -0.33742505 0.23959565 0.53895974 0.5554449 0.117688715 0.26061806 -0.46163115 0.29986867 0.09315794 -0.20289582 0.09254021 0.05909667 -0.17104602 0.32470438 -0.47135353 0.107952684 0.02443026 -0.03337741 0.07351559 -0.2841045 0.041391276 0.26352847 0.2926349 -0.103635706 0.7781307 0.22071907 -0.14293118 -0.38840413 0.040645935
诸 0.105993055 -0.0596521 0.08777037 -0.3324886 -0.16785464 -0.16184455 0.41042212 -0.3959496 0.20959711 -0.070011154 0.34525654 -0.24547084 -0.07520185 -0.40863538 -0.00759607 0.36470637 -0.112874016 -0.024469813 0.2210163 0.50740457 0.5622871 -0.14827177 -0.13370554 0.4068603 0.073434316 0.11270275 -0.0065309703 -0.52247727 -0.10526298 -0.44903776 0.14956947 -0.07170469 -0.05231322 -0.20940052 -0.12883084 -0.22505039 0.19765392 0.23674767 -0.5187462 -0.32472652 0.29122207 0.071890615 -0.04179747 0.09620092 0.33472106 -0.6362377 -0.3427389 0.25798514 0.058289457 0.039393444 -0.102303624 -0.21988791 0.21682926 0.087803796 -0.16136555 0.31588534 0.20238239 -0.07332003 0.24499859 0.04897995 -0.006523665 0.09121996 0.11045657 0.5896586 0.10654003 -0.13695286 0.26810393 0.4386805 0.00048469898 0.39549288 0.13173507 0.37185457 -0.49227944 0.21968739 0.22768003 -0.6122705 0.12784368 0.26193687 -0.024690377 0.6316666 0.53181446 -0.04104824 0.29524657 -0.099043384 -0.011894621 0.84898424 -0.14425197 -0.07515685 0.4545562 0.022389261 -0.015856538 -0.084061086 -0.049194485 0.8188662 -0.098013625 0.83107036 -0.11313571 0.04439599 0.1295745 0.7114593
从 -0.58908755 0.1514225 0.08620061 0.03432312 -0.20979714 -0.48107108 0.0334845 -0.37185505 -0.06939119 0.15591191 0.2623172 -0.27794114 0.06578208 -0.026524583 0.100875005 -0.014322663 -0.31165203 0.5013676 0.29160962 -0.15369797 -0.54231024 -0.50847304 0.02011013 0.5181391 0.016898429 0.37879223 -0.15667485 0.052455653 -0.9150083 -0.12647934 0.23786756 -0.47102776 -0.39946544 -0.07374531 0.01442182 0.27245042 -0.21469358 -0.19253597 -0.51717514 -0.4461017 0.3138914 0.5104991 -0.5624572 -0.5321156 -0.3668259 0.03344918 -0.30136108 -0.013502972 -0.030269567 0.055014215 0.00964559 -0.062712505 0.03451578 0.13588125 -0.1311289 -0.1275198 -0.18862346 -0.0065357545 0.33008438 -0.06466947 0.19239162 0.26344383 -0.1708542 0.1392544 -0.55906594 -0.35016853 -0.34879526 -0.152276 -0.19641532 -0.2757448 0.464799 0.035607398 0.15487845 -0.044010896 -0.080003195 0.5043986 -0.38961756 -0.015348006 -0.2145634 0.4421351 -0.23469904 0.51143736 0.14022145 0.5192114 -0.038787197 0.19031267 -0.08825635 -0.052246112 -0.12671404 0.17331617 0.12011787 0.6326159 -0.22368109 -0.16179535 -0.42533973 0.4160807 -0.23797722 0.062406518 -0.35408783 -0.55598295
文 -0.04722139 -0.2719842 -0.1383204 -0.3870633 -0.25894445 -0.1277805 0.20393153 0.11024556 0.061304055 -0.009273137 -0.12550762 -0.20887323 0.33193168 0.11428699 0.22936183 0.018223863 -0.16779193 -0.21439412 -0.21349381 -0.32394037 -0.05768963 -0.11292927 -0.1376674 -0.06647852 0.12139457 0.5750729 -0.26929653 -0.11684186 -0.23304904 0.29170564 0.5062836 -0.07900402 0.33992338 0.12732922 -0.44054022 0.29335648 -0.15111542 -0.35503215 0.8059981 -0.10363563 0.005583076 -0.15073843 0.26249245 -0.13009343 0.53516996 0.37171072 -0.015774552 -0.30540484 -0.0022832844 0.11383162 -0.57797295 -0.23417343 0.11601796 0.20516664 0.061058387 0.0689039 -0.1215325 0.2770008 -0.10732471 -0.4807788 -0.3157672 -0.10501031 0.056763086 0.41862375 -0.11848701 0.34895694 0.23012401 0.0099093495 0.15416227 0.45487177 -0.11319289 0.40432608 -0.51477057 0.42288822 0.45357314 -0.03430636 0.18452904 -0.11838803 -0.054747105 0.6050665 -0.13319214 -0.080348015 0.058199253 -0.06304095 -0.12338019 0.3258839 -0.13386333 0.18998103 -0.02695575 0.10811875 -0.7511075 0.10817501 0.22516187 0.019967848 -0.20022134 0.69621885 0.12375834 -0.09005221 -0.489839 0.04813159
政 0.034542654 -0.23971806 0.34856072 0.19862689 0.13925382 -0.16243128 -0.12735362 0.29462677 -0.2858704 -0.22045748 -0.36698103 -0.24347076 -0.08514886 -0.014911473 0.30413643 -0.38516995 -0.2401357 -0.4065556 0.04837689 0.104482956 0.21252087 -0.2443642 -0.17857172 -0.20107143 0.10818236 -0.10061324 -0.45529324 0.3505338 -0.021331098 -0.015978588 0.25912324 -0.4044178 0.20249341 -0.10877649 0.2709012 0.16213334 -0.35935828 0.0030773513 -0.40795365 0.11815843 0.36138552 -0.06777979 0.37459564 0.024259161 -0.21023412 0.24541233 -0.86377126 -0.27407312 0.28647512 -0.6836435 -0.31848374 -0.09226215 -0.21751754 0.14575712 -0.045305625 -0.1151608 -0.30919462 -0.20569177 0.17857535 -0.27510297 -0.20688616 0.30250704 -0.16038641 -0.032082096 -1.1247423 0.29960948 -0.2591829 -0.043523986 0.1323485 0.13139798 0.19846147 -0.25575474 0.30332294 -0.35810983 -0.2517967 -0.22168083 0.322906 -0.0023811997 0.05155657 0.32514998 0.21537825 0.52933604 0.09026766 -0.31227264 -0.07947206 -0.16875671 -0.27395704 0.47465068 -0.0021398007 0.009091947 -0.047019355 -0.23856501 0.19536881 -0.5063535 0.014945199 0.55403274 0.003633218 0.20835987 0.11852226 -0.16383718
食 0.048755057 0.14850467 0.014406436 -0.37438595 -0.23900121 -0.60926944 0.08118259 0.16496566 -0.07446712 0.6869559 -0.26322564 -0.33052665 -0.43065402 -0.63127434 -0.35225007 -0.21199682 0.7548293 -0.28473505 -0.25428247 -0.052457098 -0.09740811 0.19740152 -0.015048848 -0.26000807 0.12991455 0.028035818 -0.18823524 0.1838809 0.02776131 0.40962481 0.28749055 0.099078715 -0.48117635 0.35392383 0.22086847 -0.27028158 0.2818166 0.16975911 -0.33001903 -0.15607102 -0.3665761 0.052399393 -0.07616963 0.3267536 0.072948076 0.1736019 0.34243333 -0.009423269 -0.16762514 -0.057285395 0.2561947 -0.3617116 -0.05645699 -0.2930758 -0.08097777 0.5278451 0.45281816 0.052731678 0.57570964 -0.58353114 0.3300628 -0.08140689 -0.16144781 -0.21280646 -0.17259498 -0.08109457 -0.26110268 -0.17996137 0.43399993 0.2042014 -1.019519 0.08101636 0.12452824 0.50903946 0.16737023 0.4372816 0.23917077 0.5310376 -0.13053767 -0.00022368654 -0.04298485 0.22612764 -0.20049278 0.2660178 0.13196152 -0.41949585 -0.17497301 0.15011962 0.13881227 -0.18180415 -0.2861293 -0.30391845 -0.021819856 -0.3614847 0.10455132 0.83911896 0.6726857 0.33365488 0.1331187 -0.27116275
善 0.1956924 -0.31194496 0.032104466 -0.20616895 0.5607695 -0.20810464 0.49370283 -0.54720044 0.29845077 0.079665296 -0.12714113 -0.20297003 -0.14618975 0.049344033 0.051340148 -0.35099572 0.076677516 0.59853226 0.36204317 -0.05303678 -0.276075 -0.31402102 0.059476152 0.042657446 -0.25363943 -0.63070357 -0.2276147 0.17756277 0.27961287 -0.2337361 -0.17506689 -0.15458724 -0.19070193 0.77868557 -0.10383691 -0.28558427 -0.11526616 -0.05380349 0.2104265 -0.123675615 -0.015512273 0.22840987 -0.031560857 0.6219863 0.14568532 -0.371099 0.13386352 -0.41115516 -0.013707799 -0.031469684 0.6618849 -0.17799899 -0.41365275 0.12938522 0.011262709 -0.22645077 0.23536332 0.1726535 0.16272178 0.38316417 -0.021775458 0.6463261 0.2017667 0.413637 -0.60651296 -0.05262497 -0.06675149 0.26666024 -0.25717482 -0.24885981 0.33937404 0.14712824 0.024265321 0.075734474 -0.19172126 0.53962195 0.16802247 -0.08803073 -0.46158135 0.06914259 0.26951194 0.04042533 -0.57526606 0.031374108 -0.055285815 0.018863505 -0.06387206 0.09103359 -0.15263082 -0.16029716 -0.17072718 0.075667016 0.14712921 0.16850124 -0.08884865 0.6538905 -0.032504905 0.08612711 -0.10998284 0.5258138
后 -0.24579152 0.043006685 0.014745107 0.3453085 -0.55367017 -0.27084213 -0.27266613 0.108165726 -0.21891643 0.03353882 0.2789118 -0.09144047 -0.037928 0.033820055 0.3797718 0.33359644 0.29729724 -0.10210799 0.006511831 0.10337806 -0.04025946 -0.09105948 0.20038214 -0.23739861 0.017549848 -0.7230242 -0.064272605 -0.041055262 0.031019816 0.15698428 -0.52517647 -0.032958902 0.07805087 -0.07125745 0.4924901 0.07857257 -0.023666881 0.47591892 0.063137144 -0.35226724 0.07770978 0.0049522026 -0.04555759 0.29375684 -0.1207883 0.1346411 -0.2722882 -0.38394454 -0.18810171 -0.3622699 0.049984977 0.16686839 0.044057645 -0.6571171 0.2571459 0.039927814 -0.19971818 -0.4174154 -0.19829069 -0.04507734 -0.6947722 -0.31549686 -0.058319677 -0.5352439 -0.35038462 -0.2057379 0.6526984 -0.23417431 0.18148717 0.021984486 -0.34763244 0.07004244 0.07646832 -0.21844803 -0.60883594 -0.28696907 -0.05528268 0.07461276 0.50568265 0.27115247 0.1562752 0.27611113 0.20313008 -0.2534212 0.28696954 0.09402569 -0.21732563 -0.28097057 0.22899404 0.122789115 -0.3430013 0.28382733 -0.29064724 -0.3231104 0.36815527 0.45739043 0.16439377 0.37760782 0.3328589 0.15914059
德 -0.19237679 0.118778534 0.38162398 0.091412224 0.50650555 -0.081802964 -0.63094324 0.18527572 -0.1812799 -0.48759782 -0.17398122 -0.17672017 -0.115877256 0.46990636 0.75314766 0.23645401 0.5208919 -0.03786202 0.32239 -0.23324387 0.13333659 -0.019689852 0.2092804 0.42764738 -0.06818587 -0.04731572 -0.04329859 0.56724113 0.17791462 -0.04079948 0.124160066 0.35770762 0.22631758 -0.039453294 -0.29585415 0.09360926 0.26450962 0.6084526 -0.1110952 -0.27787504 0.1257668 0.070738725 -0.14419441 -0.107350715 0.16124049 0.4128979 -0.017361296 0.26958522 0.079520196 -0.023038367 -0.36744836 -0.17589127 0.38806698 -0.18637335 -0.053398658 -0.18429595 -0.22343181 -0.013466823 0.05506331 -0.22012272 -0.29493687 -0.36843324 -0.46222606 0.1602429 -0.41677696 -0.1727467 0.39631528 0.30370906 0.08495853 0.07967663 0.19653288 -0.09654073 0.36067364 0.20962232 -0.19205013 -0.20860308 -0.20741642 -0.34456733 0.23419604 0.606667 0.25355747 -0.013412728 -0.40145293 0.19444753 -0.57827514 0.13579167 0.14100362 -0.037741408 -0.4032641 0.21608366 0.08417133 -0.08336985 -0.11071361 0.44977668 0.310575 0.4309935 0.33400166 -0.4382905 0.4032532 -0.0005516755
求 -0.0023706935 0.50109583 -0.083925895 -0.20205425 -0.10336185 -0.47312498 -0.12270226 0.34520343 0.048724536 0.26727092 0.3806342 0.07242514 -0.17252097 0.09361131 -0.032692745 -0.067525335 0.05695784 0.1256184 -0.3737497 0.25170833 -0.13944173 -0.034405105 -0.23574567 -0.106343 0.13300408 0.14063726 0.22071971 0.2860814 0.42759615 0.4844227 -0.05640518 -0.51546097 0.3043058 -0.22390062 -0.06167107 0.08547572 -0.38890055 -0.11008007 -0.3610573 -0.11638324 -0.38986453 -0.051251035 -0.2710962 0.03131601 -0.17625858 -0.08030674 -0.38123658 -0.22276147 0.13183795 0.2995974 -0.24336372 0.110294595 -0.4572273 0.25821915 -0.18128063 0.15835993 0.00829687 0.5114105 -0.083223954 0.48834267 0.11591895 -0.022357114 0.13684912 0.30627394 -0.4734251 0.04266592 0.10045193 -0.02087687 -0.42339024 -0.5579891 0.21536629 0.036979835 0.10975618 -0.29587966 -0.091822326 0.10245149 -0.8126183 0.4970837 0.003199106 0.37288755 0.039154813 -0.26388484 -0.09339887 0.50581956 0.3051647 -0.16556428 -0.22000751 0.31740403 0.6539172 -0.08981115 -0.14417125 -0.4245836 -0.15087862 0.53101695 -0.13465108 0.48337966 0.30129933 -0.006477703 0.05253857 0.42332882
对 0.45218727 0.22910523 0.04377008 0.009472025 0.56643885 0.078040406 0.17458889 0.09449137 -0.35018566 0.19097582 0.055287912 -0.5477949 -0.05433379 -0.21100381 -0.08728235 0.19735512 -0.28642067 0.016106317 -0.25629237 0.5700391 -0.43122885 0.00048839103 0.019412845 0.011643122 0.68202835 -0.058399394 0.10521633 -0.29110178 0.43701863 -0.14103673 0.038973037 -0.23421629 0.18349013 0.010609503 -0.32666117 -0.019770809 0.147129 -0.49993762 -0.36961436 -0.032203436 0.31544656 0.16878945 -0.3375865 0.07824278 0.31532067 -0.35630456 -0.37917104 0.28492695 0.23342162 -0.14580105 -0.10802847 0.44321823 -0.70065254 0.24696895 -0.26286685 0.09641179 0.3877693 0.06336495 -0.14361615 -0.36960676 0.24514213 -0.20930152 -0.42345622 0.34608427 -0.28251043 -0.015281314 -0.42986846 0.46202725 0.58449894 -0.11833229 -0.06682679 0.42306238 0.17481913 -0.08481666 -0.070589505 -0.032579537 -0.408963 -0.52983147 0.009261725 0.5432532 -0.42330346 0.17362875 -0.27315065 0.02374843 0.07947605 0.4790897 -0.049187005 0.52117026 -0.21845597 -0.060532987 -0.026167832 0.13203695 -0.3780207 -0.43569997 -0.33936116 0.9342786 0.26093054 0.122730955 0.1153486 -0.39010286
恶 -0.45719132 0.4874938 -0.14370528 -0.029827047 -0.16798744 -0.47810316 -0.19063568 -0.3686652 0.044017274 0.3210881 -0.042224713 0.35325396 0.05504482 0.08633648 -0.20580436 0.4474441 0.008468855 0.13146664 0.10317591 0.36433074 0.071293935 -0.23932402 -0.073806174 0.24319164 -0.34942722 0.15959421 -0.26830187 0.35198945 0.20025536 -0.43605748 -0.06774336 0.45971352 -0.17598037 0.3213629 -0.039792296 0.3602158 0.07993856 0.3619825 0.2309657 -0.21086411 0.19404781 -0.040260106 -0.46640956 0.3352338 0.020560462 0.053215504 0.33569732 0.2766041 0.087422274 -0.02150594 -0.17040375 0.08262509 -0.11001829 0.15070455 -0.27369797 0.63166606 0.7113391 0.19334096 0.11349751 -0.22988681 0.2385228 -0.22961482 0.325734 0.040874597 -0.28482652 -0.21541916 0.21103239 0.01960468 0.014207855 0.028644677 -0.2788865 -0.18757913 0.6149498 0.385905 0.49283156 -0.32068443 0.20928465 0.06505777 -0.055157535 -0.14338239 0.41442344 -0.20041442 0.03801344 0.36527744 -0.21597977 0.043268483 0.084383115 0.27962938 0.006594788 0.6272829 0.5153668 0.33728927 0.3092739 0.0071463054 0.103597306 0.7167742 -0.2544172 -0.042380087 -0.27096373 0.0072305673
信 -0.41286033 0.09414921 0.18340883 -0.44986644 0.26796943 -0.5010226 0.046334215 -0.29267246 0.01877287 0.18533322 -0.18840218 -0.15584786 0.069730304 0.44923216 -0.13045824 -0.056435797 -0.123284645 0.129126 0.2744767 -0.03241121 0.37721205 -0.50929165 0.14207432 0.6056146 0.51667887 -0.41033176 0.25851148 0.4569352 -0.39290053 0.0935017 -0.2167027 0.10839825 -0.31283286 -0.17957444 -0.11821719 0.37055 0.28928226 -0.11174543 -0.2846045 -0.28818458 -0.1993114 0.21381 -0.1761666 0.3330243 -0.10879014 -0.031944614 -0.11020837 -0.09798657 -0.19975449 0.045075778 0.05842261 -0.17214262 -0.23931675 -0.17197292 0.26104498 0.2970534 -0.08101202 -0.08645078 0.16473645 -0.109761864 0.18338388 0.09315104 0.08588247 0.34002778 0.20193206 0.05817954 0.33296183 -0.36119947 -0.1749923 -0.22423746 0.28522143 -0.29332113 -0.06787518 -0.013024471 -0.086029254 -0.20982102 0.09225662 -0.1332326 -0.28684026 0.18962975 0.37663278 0.08140709 -0.036896 -0.24632563 -0.092212275 0.1523239 0.37800178 0.26765132 -0.36139256 0.014009305 -0.703516 0.0045829895 -0.14793937 -0.09175424 -0.34413746 0.5350339 0.29106432 -0.49259815 0.6877228 0.17136617
死 0.040775627 0.2893933 -0.21199453 0.009632804 -0.26432252 -0.40046942 0.014356342 0.09003686 -0.21194404 -0.048091047 -0.04474154 0.07892248 0.03578835 -0.119289845 0.006905087 -0.17855424 -0.30538926 0.12475599 0.5218832 -0.28175354 -0.38734937 -0.031032972 -0.016078169 0.08395152 -0.14237718 -0.28400934 0.40289918 -0.19222721 -0.03726526 -0.20476593 -0.3308298 -0.4172813 0.32247764 0.48855293 0.31358662 0.25909162 0.052339002 0.0744522 0.05802933 -0.026588827 -0.026812894 0.07093646 -0.17315729 0.3571674 0.12876831 0.13291359 0.042251006 0.1163728 -0.43805414 0.014888109 0.16806225 -0.15596806 0.60882646 0.20307103 -0.01257222 -0.11153163 -0.4204933 -0.21735969 0.15908755 0.011055914 -0.21934067 -0.30532172 0.028876228 -0.19209555 -0.26952773 0.03892631 0.24911949 0.29962102 0.3079496 -0.059159316 -0.1074164 -0.23069572 0.3486239 0.10099336 0.42888376 -0.252776 0.39915144 -0.13482983 -0.18121374 0.24700628 -0.091789946 -0.16349123 0.095955126 -0.17808785 0.61953616 0.23676693 0.5481227 -0.16297722 0.18505393 -0.098247625 0.2840416 0.2364372 -0.25901607 -0.53758854 -0.19027439 0.47837162 -0.3938973 0.3424194 0.064867556 -0.13194333
然 0.19819969 0.5425554 -0.035807863 -0.02118924 0.18639919 -0.1992087 -0.056700435 0.13349918 0.16989009 -0.106305026 0.601729 0.1066378 0.26376137 -0.32161045 -0.36506706 -0.060826432 -0.14674045 -0.28046966 0.42148623 0.00031028345 -0.09636759 0.05058746 0.7679468 0.065213196 -0.5761339 -0.21642302 0.0015421222 0.20800331 0.16472091 -0.16014832 -0.30057028 0.006831763 0.044431556 -0.1509274 0.17542905 0.18897845 -0.18615192 0.036650978 0.116209224 -0.27776626 0.03117856 0.049140047 -0.122419 0.4438747 0.13352707 0.27924162 -0.44351825 0.30433846 -0.0013517465 0.40422767 0.7114825 0.49216476 -0.21520185 0.14925171 -0.068530455 0.31148896 -0.08217892 0.251367 0.36638454 0.13008058 -0.22434025 -0.32613784 0.03401248 0.007323301 -0.11620913 -0.11960855 0.2512708 -0.32801914 -0.06897816 -0.30582097 -0.61638874 -0.27558395 -0.2624856 0.011790903 -0.12288219 0.28692135 -0.074688934 -0.65350944 -0.009661863 0.6660779 -0.0025442434 0.24527526 0.03162955 -0.29728988 -0.24928355 0.44716913 -0.04164059 -0.22965407 0.07818111 -0.48963568 -0.47487307 0.10671235 -0.045711193 -0.09194265 -0.17397603 0.5460075 0.12826565 0.09503398 -0.2183567 0.61671454
《 0.09065844 -0.4676974 -0.015311452 -0.17677765 -0.08699092 -0.381646 0.29430306 0.4288561 -0.2346452 -0.032489732 -0.46756965 0.017889103 0.23291594 -0.5915574 0.29941466 -0.096765146 0.051572602 0.0014567254 0.41914108 -0.3946765 -0.14087117 -0.23796897 0.37875044 -0.6174256 0.19943029 -0.085971266 -0.21841003 0.2780893 -0.067082465 0.2199894 0.030240392 -0.16305342 0.14111006 0.3221723 -0.42000544 0.04378946 -0.36408478 -0.011494482 0.08591983 -0.10842364 0.47136518 -0.20019974 -0.0817278 -0.112005785 -0.35904017 -0.43788666 -0.028336365 0.5727009 0.09402463 0.6077995 -0.33228266 -0.032331876 -0.07119877 0.044215884 0.42094052 -0.26563156 0.3470194 -0.4969963 -0.44004384 0.4358009 -0.83977073 -0.2824906 -0.1191568 0.045286704 0.07585557 0.009987547 -0.2870002 -0.12596051 0.2348746 0.0062180716 -0.008266747 -0.22537714 -0.3448796 0.46742025 -0.35346818 0.18342824 -0.018454595 -0.23794244 0.4103055 0.54461795 -0.047178417 0.016989311 -0.42244446 0.24122427 -0.0063483277 0.29441193 0.14613977 0.33625472 0.24136178 0.3773273 -0.06818706 0.085190676 0.24576892 -0.32225955 -0.27229452 0.95314515 0.00606662 0.59709233 0.14934255 -0.42081344
