1352 50
， -0.12761885 0.07298139 0.063150726 -0.08456951 -0.16272043 0.09741856 0.18646409 0.14752261 0.074094705 0.15718186 0.2577557 -0.7761358 -0.026784984 0.01001074 -0.08490817 -0.23259406 0.031883236 -0.1531688 0.6739252 0.043009408 0.018895326 -0.12945609 0.031540185 0.13180958 0.11640012 0.34594935 0.025669955 -0.06662007 0.501704 0.058320116 0.15412915 -0.11854159 -0.090092964 0.1515392 -0.27276826 0.2962731 0.0054533505 -0.0055760546 0.14083144 0.024794582 0.16100593 -0.3103536 0.078579575 -0.10656964 -0.07978373 0.000606386 -0.1723699 -0.27322367 -0.020596128 -0.038347613
子 -0.05721485 0.20200787 0.20852387 -0.34622478 -0.1610805 0.11369369 0.022670569 -0.042252313 0.27945328 0.03380641 -0.4300203 -0.5324352 -0.3050961 0.042137098 -0.25914368 0.22816508 -0.09991442 0.24717768 -0.32296866 -0.09381639 -0.063446626 0.150795 -0.38439816 -0.43824255 0.344975 0.1842934 0.0035549365 0.5071053 0.04060017 0.10503244 0.26896942 1.2280279 0.44345027 -0.23983493 -0.091722354 1.0961932 0.14289245 0.06604586 -0.23826483 0.17885885 0.092109896 0.06050529 0.2286484 -0.24255033 0.10954744 -0.03937203 -0.22980382 -0.007296837 0.030054623 -0.13924712
。 0.00607396 -0.6811969 -0.10126093 0.23143598 -0.072251804 -0.08758508 -0.18632811 -0.124245316 -0.08919732 -0.0144822 0.093694486 -0.8283035 -0.3567292 0.16896585 0.14407216 0.014840264 -0.23901658 -0.29002813 -0.07776111 -0.13177302 -0.065982945 0.004896576 0.20523836 0.032304402 0.006132001 -0.4221525 0.08503563 -0.23850563 -0.42929685 0.20064148 -0.12300626 -0.008597709 0.029776333 0.54888654 0.0069023445 1.6178038 -0.24864598 0.15477625 -0.04010603 -0.06599659 -0.00037008754 -0.14357115 -0.04957656 -0.0973979 -0.18285674 0.10217036 -0.20266119 0.11157157 0.055553515 0.064376384
： 0.14805327 1.2906667 0.3499589 0.032338563 -0.22636043 0.125062 -0.124074146 0.008154551 -0.17440248 0.018307725 0.08638344 -0.41247204 -0.101922214 0.05682586 0.07732416 -0.26595715 -0.12297384 0.25791553 -0.5726977 -0.14054552 0.18788643 -0.12254779 0.17510006 -0.120588444 0.0977863 0.3872629 -0.2670258 -0.098365806 0.3584552 -0.15371288 -0.25981182 -0.5976836 -0.20458381 0.12835523 0.119948484 1.7082336 -0.5479747 0.09778853 -0.16674614 -0.010000442 -0.2516549 0.07532066 -0.10553423 -0.11292935 0.11628985 0.15778692 -0.13336475 -0.0648715 0.1617016 0.48127964
曰 -0.26397008 0.0720593 0.20561966 0.30931246 0.094995745 -0.16208118 0.49305186 0.24998184 -0.24794827 0.12174902 -0.022503197 0.2511773 -0.18284965 0.17353122 -0.14770088 0.03980136 0.24956708 0.19567023 0.52921325 0.29281497 0.06498169 0.08319488 -0.21194853 0.13814928 -0.1099469 -0.3544341 0.00029063786 0.57770306 0.047202177 -0.051140547 0.19771546 1.0710264 0.04801278 -0.94997746 0.18675797 2.2111423 0.38562816 0.043147627 -0.10704958 0.35946095 0.37370095 -0.6126464 -0.07679978 0.103518456 0.22300746 0.022086816 0.2076704 0.18428636 -0.19235206 0.16199942
之 0.36718142 0.14950986 -0.06343211 0.12266777 -0.14680582 -0.21771032 0.022906253 0.29839614 -0.41089636 0.25787306 0.093839444 -1.2952737 -0.062155135 -0.06078613 0.20093241 0.037714336 -0.16152793 0.5775796 0.16696908 -0.13628756 0.13680464 0.0422095 -0.0080046635 0.26383674 -0.11713927 -0.26159352 0.027331918 -0.25601047 -0.33656704 -0.07563174 -0.21596235 0.5000078 0.27505156 -0.24219075 -0.007936477 -0.14226238 -0.25169107 -0.096758954 -0.01428676 0.21623419 -0.053755898 0.26373163 0.18556899 -0.10820701 -0.17614911 0.19125918 -0.31463397 -0.16650973 0.028679624 0.4735308
不 -0.19525157 0.15310845 -0.24540848 0.6694963 0.02332769 -0.14743702 0.046418734 -0.69119406 -0.043723904 -0.16982973 0.08467874 -0.6274807 -0.108579524 -0.10603988 -0.19154295 0.082833774 0.12545832 0.06624371 0.68109 -0.25006056 0.031182002 0.20847048 -0.3348827 -0.20506522 -0.013258838 -0.3114187 -0.3311112 0.28864244 0.4173616 0.04783378 -0.09220311 -0.3118374 0.19666454 -0.48346293 -0.18246326 0.28565913 -0.02232228 -0.192947 -0.534665 -0.4136433 -0.3179309 0.420276 -0.058628984 -0.07753604 -0.065128185 -0.2922105 -0.10141681 -0.022081839 -0.13755995 -0.007691449
也 0.120576166 -0.48742825 0.043260682 0.484207 -0.064140774 -0.35474196 0.19658577 -0.022111075 0.058570176 0.040276002 -0.13173246 -1.594352 0.31480822 -0.3797765 0.098271385 -0.36799422 0.10508071 0.14721777 -0.2652028 0.44612208 -0.11885723 0.042956535 -0.0616359 -0.6451051 -0.2554668 0.40897563 0.25567868 -0.11291198 0.15158162 -0.032583833 -0.26679206 -0.15744324 0.44136757 -0.51071596 0.4435146 -0.0022777757 0.0815389 -0.13658145 -0.32007298 0.14545166 0.27170122 -0.044372264 -0.059767433 0.085434794 0.17579022 0.14092036 -0.04657194 -0.23638019 -0.09742486 0.09019303
而 -0.23940739 0.28785828 0.038256407 0.09715156 0.36568812 -0.3727297 0.11627334 -0.0048711873 -0.17707698 0.4777916 -0.37915605 -1.6551977 -0.47149485 -0.10667217 0.14317162 -0.30829138 0.1203001 0.23844348 0.3131081 -0.4139048 -0.1365652 -0.9726437 -0.06264542 -0.17722008 -0.19710733 -0.34652406 0.19459198 0.17403865 0.29446715 0.059670243 -0.10769146 -0.060837075 0.047838498 0.0952338 0.31865603 0.04822945 -0.0846 0.12535875 -0.016796317 -0.24644768 -0.24147534 -0.21892968 0.14976497 0.6138829 0.14511593 -0.89842725 0.077649474 0.102898225 -0.16578402 0.2963534
？ -0.052711155 0.6419046 0.5405348 -0.5237227 -0.23102869 0.3711388 -0.14943396 -0.141128 0.17854302 -0.09766348 -0.20476896 -1.1387861 0.048061736 0.46515056 -0.07535532 0.49555212 0.13024181 -0.2804796 0.34202883 -0.14209077 0.027781276 -0.43474507 0.13824837 -0.75714403 0.03434721 -0.42326698 0.024184879 0.06941136 -0.67450094 0.0064852713 0.8116527 -0.6328347 -0.2761452 0.2200512 0.38077208 1.0829855 -0.03452996 -0.18109114 -0.012318406 0.28965294 0.2292763 0.12263428 0.042642865 -0.45814747 0.03477736 0.31883484 0.046383087 -0.2711718 0.19591144 0.102990486
其 0.35616118 0.60528415 -0.16509329 -0.18187222 -0.048416156 -0.5387677 0.29300508 0.23177658 0.080205 -0.10285396 -0.27179253 -0.80685043 0.3147221 -0.013223106 -0.103792064 0.21288386 0.39322892 0.012918633 0.6960978 -0.08073395 -0.06926311 0.5237337 0.11825701 -0.30003422 0.42305616 -0.32688928 0.005541276 -0.4101854 -0.18206255 -0.44693086 0.16144435 -0.5788257 0.96621966 -0.61095005 0.33604768 0.33876768 0.081375025 0.37473464 0.098386094 -0.25128755 -0.28440097 0.02818695 -0.30388165 0.27923265 0.018987598 0.09812372 0.017600004 0.2534633 -0.1934733 -0.37131548
人 0.5264511 0.8033553 0.15639903 0.42611548 0.30641943 -0.08369849 -0.08869955 0.4041926 0.5385476 0.04559108 -0.13478105 -0.5242687 0.28537342 0.18966188 -0.2949623 0.13415559 0.13380462 -0.3259299 -0.38777146 0.04800342 -0.10557327 -0.060021996 0.29627326 0.049680375 -0.3177672 -0.5881546 0.3066008 0.19200285 0.3513272 0.36016816 -0.028418023 0.52668303 0.025653785 -0.07795302 0.045221966 0.2552893 0.18754056 -0.65791845 0.2709106 -0.565853 -0.58717275 -0.28936887 -0.34355468 -0.36789393 -0.17178325 -0.20197842 -0.22258732 -0.04135462 -0.5517182 -0.23140155
者 0.115636475 0.17002435 0.006914146 0.12499873 0.0742969 0.34438306 0.7615681 -0.14333242 -0.4806554 0.3338096 -0.29548365 -1.5998286 0.20727009 -0.24281368 0.039884698 0.5059253 -0.13783938 -0.38369855 0.018293763 0.070857316 -0.20810293 -0.43972415 -0.030260313 0.006122095 0.44094542 -0.85890263 0.34443265 0.3626642 0.6454315 0.2772457 -0.073341176 0.24284714 -0.105230115 -0.077265844 0.50126535 -0.17908439 0.2618491 0.12715152 0.23235622 0.3082914 0.09720137 0.27515528 -0.28507516 -0.50133973 -0.10891473 0.638773 0.41960296 0.39837527 0.14100328 0.0020181248
以 -0.12117372 0.21634004 -0.44514903 0.9789658 0.3113812 0.25580195 -0.5166762 0.25065735 0.30488724 0.44200715 0.14396693 -0.32182583 0.71765655 -0.95447457 0.22528648 0.6757758 0.15558417 0.3364993 0.42657667 -0.11082164 0.19802389 0.11118371 -0.26892784 -0.52615035 0.30027646 0.316084 0.3192806 0.7414557 0.60693794 0.028603284 0.16381492 -0.022123005 0.19860749 0.22325204 0.12334682 0.8334466 -0.63220745 -0.08585035 0.27698606 -0.18780807 -0.06299254 -0.06462879 0.06970273 0.65282434 -0.022696568 0.087103285 0.27696672 -0.28492162 0.112258434 0.38679937
有 0.011474483 0.57657355 -0.55279696 0.401933 0.14376421 0.029033907 0.0241065 -0.38027057 -0.12607554 0.4318612 0.06422233 -0.3807607 0.33242056 -0.049572818 0.044849303 0.09064727 0.11888117 -0.11290407 0.113847725 -0.16708992 -0.24779463 0.29214692 0.24682179 0.48285192 -0.35744074 0.17068735 -0.18788734 0.34496576 0.112268254 -0.7823213 0.17963243 0.31726354 0.41452116 -0.187918 0.5067692 0.28808755 -0.05353865 0.012144408 0.05065747 -0.4880149 0.6612522 -0.13028619 0.08303403 -0.876724 -0.43726495 0.08056166 -0.26133662 0.32880956 -0.119002864 0.17635077
于 -0.19300249 1.154288 -0.06473743 -0.043892857 -0.39880577 0.07121398 -0.043035544 -0.498435 -0.79020214 -0.36442813 0.7057172 -0.89858323 0.065139905 -0.46079516 0.3438707 0.26870793 -0.44278726 -0.1876165 0.6365703 0.99538314 0.12931667 -0.053797916 -0.08034048 0.0567074 -0.21508561 0.48739976 0.648421 0.10285918 -0.30414662 0.027779123 -0.25270778 0.22524466 0.2513806 0.25620466 0.0924885 1.0189457 0.3747247 -0.09538738 0.04986527 -0.24578497 0.18104348 0.48107475 -0.09918765 1.214046 -0.21202937 -0.21174519 0.502197 -0.0695652 -0.35099086 -0.3422909
矣 0.41432047 0.037620954 -0.14035961 0.37005278 0.1391471 -0.26557973 -0.82526684 0.81138253 -0.4126924 -0.54369634 0.15759808 -1.9912605 0.30016953 -0.2415143 -0.93770564 0.32988706 0.6433636 0.427227 -0.37510827 0.33919322 -0.45132476 0.44285193 0.26441133 -0.18472224 0.07646488 0.07623641 0.04495715 0.16965358 0.36016104 -0.114114895 -0.56577176 0.40313527 -0.838876 -0.29172426 -0.11314912 0.24937552 0.05854137 -0.7159384 0.38011003 -0.54239595 0.62683594 0.26401144 0.29468173 0.028797127 0.28452224 -0.3348158 0.3899154 0.9366491 0.019598788 0.04602742
为 -0.17745024 0.27479202 0.2062042 1.1007898 -0.32167563 -0.2968843 -0.42309988 -0.11422783 0.031322747 0.13403295 -0.22546834 -0.3114862 0.02290014 -0.31479272 0.20782131 0.07357402 0.5826424 -0.123979606 0.37817463 0.39642537 0.9958096 -0.19292982 -0.13061272 -0.3133191 0.29429823 0.547363 0.8690436 -0.38360116 -0.14668408 0.2044424 0.40323713 0.37985256 -0.28277498 -0.06551191 0.51601136 0.65126765 -0.3777438 -0.066566035 -0.26422817 -0.03656766 -0.5627404 0.10150612 0.21601425 -0.89139205 0.09927495 -0.31687462 0.18070006 0.08691062 -0.100405775 -0.18330717
君 0.14514655 -0.03829573 0.7895141 -0.03973326 -0.20171681 -0.5609325 -0.49671724 0.063615166 -0.32395512 0.0326057 -0.4324149 0.041412845 -0.10172773 -0.30919963 -0.13472496 -0.07748464 -0.2903555 0.17291164 0.27264962 0.263338 0.45228785 0.19965625 0.07842475 -0.25854546 -0.0060560643 0.28686452 -0.62505615 0.3368657 0.21821769 0.12741047 0.6546112 0.472642 0.5002027 -0.36661613 0.760364 1.0344983 0.10401469 -0.38941225 -0.6407845 -0.014731391 0.061820522 -0.16402572 -0.21646895 -0.016261792 -0.088556446 -0.4078962 -0.5172784 -0.15688236 -0.40432218 -1.0055226
乎 -0.11731302 0.38155442 -0.18593459 0.87504536 0.38252646 0.6958801 -0.1448193 0.29289392 -0.1269049 -0.119663596 0.30083445 -1.6788859 -0.27467242 0.25724754 0.18838407 -0.19347847 0.10630096 -0.15651485 0.059016623 0.647319 0.2142309 0.09024263 0.35745627 -0.81370056 -0.034023773 -0.14901946 -0.7009526 0.32506964 -0.6018072 -0.25629714 0.61503506 0.31821504 -0.30635044 0.042127404 0.3197061 -0.0002826234 0.27365512 -0.12679686 0.40210775 0.02410372 0.28602383 -0.46423784 0.15928155 -0.033721846 -0.09812174 -0.23211655 0.7141177 0.415983 -0.012672047 -0.16104847
可 0.35385314 0.4863374 0.2641703 0.9056958 -0.21179879 0.028101534 0.5181206 0.6919111 0.51126146 0.3591897 -0.19886222 -0.20656355 0.39197105 0.10842882 -0.49778712 0.3589097 0.50741976 0.5216839 0.19157203 0.2726078 -0.5201953 -0.10995111 0.09070972 -0.58559453 -0.6500836 -0.76747906 0.06890519 -0.52698517 0.3853167 0.15013373 -0.7410039 0.06850555 -0.030466504 0.029267581 0.30413082 0.74859864 0.6916798 0.712795 -0.54664904 -0.571195 -0.26240978 -0.12360927 0.13069205 0.21523604 -0.08586331 0.052011147 -0.678696 -0.6347657 0.37781242 -0.291354
如 -0.33367306 0.16109782 0.64122224 -0.16821223 0.45297524 0.1526052 -0.110230654 0.23423891 -0.2906904 -0.0033719973 -1.1896607 -0.67276126 0.3679627 -0.2681899 -0.16317187 0.05848536 0.74836797 -0.1361054 0.6706602 0.26373625 -0.2074227 0.11606181 -0.106011055 0.6545277 0.29985592 0.51334614 0.1290007 0.002516698 0.2325956 0.027631512 -0.2609388 0.54793036 -0.41079342 0.17609328 0.8806863 0.8168557 -0.0747118 -0.23438834 0.06092597 -0.87891394 0.003136092 0.28757536 -0.55810064 0.14575717 -0.003274475 0.97056025 0.077366784 0.20431635 -0.6571351 -0.33065918
与 -0.34416586 0.21646933 -0.004857501 1.1066455 -0.6209708 0.20184965 0.36605716 -0.1595737 0.27968594 0.06479857 -1.0029008 -0.8601994 -0.41802382 0.030044883 -0.18477201 0.1257282 0.3299066 0.13466305 -0.4963761 0.5929114 0.38566086 0.6641039 0.00574448 0.1820555 0.42512387 -0.2301382 0.02137395 0.1250613 0.43821532 -0.5315454 0.41988578 0.08409272 -0.2968231 -0.05686302 -0.26388147 -0.018191721 -0.7201203 -0.34376395 -0.29539758 -0.29272705 0.42808446 -0.38485575 -0.4262111 -0.17277037 -0.16470183 -0.124835394 0.021866072 -0.59034497 0.06489658 -0.16565216
； 0.119591326 0.108578295 0.10888023 -0.19509365 -0.033981487 -0.014570958 -0.70238924 0.24378 0.035479054 -0.3652914 0.21326034 -1.1927725 0.2289052 -0.43432444 0.47108248 -0.50021654 0.51133615 -0.19715028 0.12061594 0.6361484 -0.045817602 -0.4926152 -0.17315567 0.33396202 0.32059002 -1.0088177 -0.51357424 -0.021506136 0.51755995 0.43568328 0.84582937 -0.3863349 0.6482987 0.5229955 -0.4763137 0.98478436 0.1139291 0.6484677 0.017107269 -0.8892823 -0.56736326 0.009210228 -0.20284745 -0.19678555 -0.3903241 0.39751118 0.079974525 0.2087799 -0.13544475 0.0809653
言 -0.11040559 0.3932184 0.20507993 0.21689074 -0.17360918 0.34633234 -0.117638655 0.8115219 0.31651363 0.059428528 0.43613812 -0.07352636 0.3891881 0.32715216 -0.5973768 0.6234934 -0.15064521 0.57375747 -0.22304079 0.00430445 -0.03643877 -0.08045998 0.085173644 -0.74033135 -0.29842037 -0.1487189 0.20037344 -0.3666996 0.9411958 0.16684224 0.24313363 0.14388935 0.6475425 0.72556573 0.09175588 0.33341295 -0.47552574 -0.5581236 -0.4712651 -0.21365157 0.14180297 -0.12821805 0.4191776 0.36877567 0.570747 0.5222004 -0.23876004 0.2496436 -0.38255244 -0.43979555
无 0.553271 0.41160777 -0.61044896 0.8476884 0.2585669 1.1084307 -0.00404094 0.7472144 -0.17505656 -0.2582475 -0.33956122 -0.65044975 -0.37689725 0.058184262 0.08474311 -0.16934256 -0.14662167 0.36196822 1.0495876 -0.14921816 1.0802487 0.77260476 -0.7941769 -0.04098241 0.004947902 0.3269166 -0.029283812 0.5184176 0.119026504 0.66533476 -0.28231236 -0.21671201 0.6150568 -0.185628 0.33344397 0.22529256 0.030405449 -0.5896789 -0.15008463 -0.6144899 0.23938197 -0.35815838 0.27994907 -0.11956581 -0.13929902 0.14236468 -0.6448033 0.6347842 0.49470004 0.10734896
则 0.3598973 0.88129723 0.26097596 0.055564463 -0.004634588 0.32295457 -0.5914266 -0.31103346 0.75948113 -0.47330043 -0.56189716 -1.232072 -0.32771647 -0.38226926 0.28119132 -0.34949076 -0.46425208 -0.07486311 0.9639184 -0.01594305 0.08926411 0.46745786 -0.11032897 -0.46882197 0.13914153 -0.42643747 0.19327495 -0.36283493 0.9427983 0.13468857 0.04713785 0.28074953 -0.36673114 -0.2705983 -0.012033537 0.5181791 0.27936316 -0.38196513 0.112893656 0.087741576 -0.29344398 -0.6780424 0.49404678 1.2755497 -0.35491028 0.5883639 0.57340425 -0.24802244 0.32085356 0.77375287
！ -0.45958513 0.80732685 1.308889 0.46325618 -0.18734738 -0.23622361 -0.28589633 0.12179045 0.020688403 -0.31258515 -0.4486415 -0.7013512 0.3271905 0.21330053 0.24416988 0.17306651 0.29805169 -0.21841684 -0.022430567 0.6729021 -0.26644704 0.17097424 -0.5895539 -0.8094741 -0.57466656 0.32567084 0.2699288 0.10737454 -0.8342659 0.4049571 0.327629 0.009278366 0.20361285 0.92367834 -0.21687225 1.1586659 -0.28695586 0.26219192 0.912772 -0.050202098 0.2661378 -0.57161874 -0.38801548 -0.53989184 -0.34705308 0.14076735 -0.58361995 -0.053746123 0.71646625 0.21615264
问 -0.49372485 0.35765597 -0.43799487 -0.23111062 0.278201 -0.23020956 -0.06450579 0.13674961 -1.0589265 -0.479032 -0.3301857 -0.23732671 -0.40436023 0.15907095 -0.081508875 0.10315019 0.06135772 -0.2029721 -0.38800302 0.007658207 0.65539694 0.71489584 -0.5001737 -0.35304704 -0.44983733 0.08478947 0.7878533 -0.35368937 0.6246815 -0.023511907 0.63813126 0.5902998 0.23639049 -0.23329167 0.24331722 1.16202 0.006679265 -0.1417737 0.3550099 0.30528557 0.11878208 -0.47898814 0.13768412 -0.4334416 -0.3888003 -0.004713089 0.51062787 0.2741092 -0.29016992 -0.23617522
知 -0.31688258 0.10892924 0.53008735 0.8477732 -0.1705598 -0.08677471 0.08373567 0.6368938 -0.8597384 0.56284845 -0.39184573 -0.08624965 0.1934298 0.17882118 0.10201283 0.7892803 0.006579651 0.30187523 0.036499567 0.3156115 -0.015845155 0.2766687 -0.5472657 -0.22983514 -0.27433154 -0.4927681 0.39246127 -0.083569184 0.49871007 0.11801788 -0.066607036 -0.31802887 0.12800063 -0.19657731 0.16470478 0.29209983 -0.031078042 0.8514171 0.38553217 -0.25484496 0.13361946 -0.36640346 0.032125846 -0.1484156 -0.17530367 -0.16369712 -0.066591874 -0.2857899 0.13089079 -0.097181536
何 -0.09009679 0.41738355 0.6420937 0.8334115 -1.1964546 -0.24301918 -0.19618958 0.23686726 -0.30915296 -0.3183041 -0.31742638 -0.45189044 0.18175669 0.17166874 0.2121305 0.57173854 -0.21784653 0.68067265 0.36209518 0.20881873 -0.032205515 0.6253995 -0.3166602 0.55676466 0.60641825 -0.23311578 0.28404462 0.13980971 -0.18708836 -0.56072813 0.5899098 -0.19534068 -0.16154651 0.01341859 0.480333 0.10844234 0.78213495 -0.3847785 -0.7764519 0.054393016 0.6714062 -0.46164262 -0.43197587 -0.6759774 0.1656246 -0.24369994 -0.6639272 0.42221418 0.24461912 -0.046690647
吾 0.035683252 0.118716225 0.18288814 1.0792009 0.11782714 0.27114686 -0.40675423 0.80705446 -0.32135338 0.673318 0.21261984 -0.17168677 -0.38616705 -0.47902104 -0.18636478 -0.058354907 0.3681185 0.5209637 0.46051633 -0.18488823 -0.54488784 0.1419545 0.9744822 -0.57524973 0.120217726 -0.041219544 -0.012859622 -0.6514206 0.14552262 -0.92146504 0.101472996 0.40527657 0.53294367 -0.5228441 0.052465197 0.45408928 0.47549775 0.014139752 0.058771312 -0.67752403 -0.42517254 0.07643314 -0.28903276 -0.17962433 -0.02285029 0.5162379 0.14723687 -0.33123964 0.5590642 -0.37105063
仁 -0.4917848 0.65364015 0.15885916 0.053406533 -0.005271334 -0.27523702 0.023268525 0.5665049 -0.14107986 -0.606469 0.21760477 -0.63407457 0.116324276 -0.33957198 -0.33744964 0.31289512 -0.19573298 0.08556426 -0.05089785 0.5693511 -0.38523173 0.1672899 0.1575502 -0.68061876 0.03722364 -0.8935912 -0.18561812 0.035340827 -0.05967822 -0.25251108 -0.5367286 0.65199584 -0.16465928 0.18097934 -0.053492155 -0.054980572 -0.45226577 0.7192322 -0.6738729 -0.04338753 -0.64478093 -0.42600173 0.02152054 -0.7601891 0.109295 -0.07869564 -0.33336794 0.19732852 -0.37213746 -0.26971713
夫 0.6318223 0.17771405 0.10886068 0.25807726 0.15413453 -0.5872633 -0.46418586 -0.29827556 -0.06964452 0.6300597 0.23214965 -0.15178397 0.5676781 0.6010678 -0.16883874 0.32307053 0.40026197 -0.015442241 0.2178929 0.45516163 -0.17939597 0.32680237 0.17820416 -0.33940086 0.25216666 -0.20272021 -0.4162645 0.21174636 -0.22196619 0.108891495 0.06971076 0.3579599 0.2502152 -0.7115039 0.24447879 1.0573574 -0.7020837 0.0087137 0.054297365 -0.008538368 0.8137091 -0.23039925 -0.58729196 -0.24262197 -0.27439028 0.36562836 0.86074114 -0.74936426 0.07094074 -0.3781588
、 -0.33675522 0.02465788 -0.9033245 0.40377414 -0.4409879 0.24968675 0.42707172 0.3655281 -0.09974648 0.14712329 -0.0940077 -1.1434903 -0.15834436 0.5102003 0.6207871 -0.14157309 0.0482775 -0.16963758 0.35976952 -0.039969727 -0.38310438 -0.0297509 0.21689293 0.72527736 -0.6766054 0.69899255 -0.08006827 0.15491702 0.115669996 0.58260256 1.0088583 -0.45441535 -0.11258841 -0.8237834 0.452896 1.419759 -0.41181275 0.036028676 -0.13713531 0.24938259 -0.7391639 0.59498674 0.32565963 0.010822511 0.6875234 0.78251565 0.14068358 0.85460854 0.663673 -0.4517659
道 -0.40417767 -0.07059893 -0.02281725 0.511657 -0.6392804 -0.13394159 -0.37797573 0.19929747 -0.20188527 0.18139735 -0.79452956 -0.06620811 -0.49052146 0.20941319 -0.47040424 0.84034735 -0.4882098 -0.30595163 0.6139637 0.57137215 0.26647678 -0.5393891 -0.11381006 -0.315573 -0.52430594 -0.84025276 0.0049113315 -0.10821746 0.9775073 -0.8690204 -0.5387202 -0.25433293 0.3438098 -0.73064184 0.24109674 0.35564938 0.2546544 0.016774792 0.7758808 -0.16534194 0.12702957 -0.46053764 0.015629549 0.03834543 0.47462377 -0.22749507 -0.5520531 -0.16392793 0.27609935 -0.057907067
焉 -0.09012953 -0.0458158 -0.056110874 0.46312007 1.0611662 0.3339469 -0.07569107 0.26702976 -0.1622335 -0.9145992 -0.7334177 -0.9816771 0.22885284 -0.6674029 -0.6664151 -0.47973883 0.20495881 1.0715326 0.31866992 -0.15137643 -0.5225762 -0.13977808 -0.8020414 0.050649785 -0.5271086 -0.12765263 0.57691246 -0.17716116 0.01788964 -0.5771383 -0.5097889 0.15185595 -0.13119127 -0.37076423 -0.17931713 0.93224895 -0.576001 0.7920933 -0.11530825 0.5154585 0.5853035 -0.29880038 -0.48792845 -0.18063955 0.121918775 -0.6880264 0.7235486 0.16690305 -0.5497985 -0.5989019
行 -0.076690055 0.34252685 -0.48490533 0.32935345 0.24888039 -0.95062363 -0.32731578 -0.48908168 -0.29076087 -0.36741528 0.20862442 -0.09043391 0.09449726 -0.40293494 -0.47614977 0.03253244 -0.026874196 -0.2910601 0.41901213 -0.06422104 -0.5628092 -0.30090865 0.25207615 -0.40122455 0.42140812 -0.3591204 0.1905048 -0.32104176 0.5860468 0.3355641 0.05110991 0.8932822 -0.16505739 -0.39593345 0.6497265 0.4057005 -0.55817634 0.72908705 0.043358706 -0.49652126 0.2802855 -0.478027 0.58548063 -0.49983773 0.00030296182 -0.15177295 -1.3203491 0.08344936 0.5809835 -0.47709367
谓 0.48180458 0.12741642 0.3561092 0.3225105 -0.05736222 0.4395336 -0.02691915 -0.31101725 -0.005105844 0.057241708 -0.0002238162 -0.60365236 0.6971531 0.2677664 -0.100368656 -0.085360825 0.42316133 -0.81719625 0.45981053 0.6363779 -0.8384392 0.28172058 -0.69498974 0.16879684 0.09508898 -1.0111152 1.0404891 0.31912684 -0.3620123 0.04672211 -0.002526886 0.55583704 -0.20678316 -0.24266836 0.074426666 1.2403239 -1.788319 -0.56619656 -0.5220134 -0.37421253 0.17187987 0.43344632 0.35599822 -0.4885348 0.61726207 -0.77355 -0.1763502 0.17427118 0.18967998 -0.111208126
必 -0.114973515 -0.022124419 0.36434054 -0.29152372 -0.39333183 0.20172179 -0.056051996 0.73745304 -0.11545263 -0.57847196 -0.14743477 -0.11545567 0.18006966 0.14637056 -0.21062976 -0.7119118 0.28372753 0.333546 1.0467331 0.5048126 -0.23545486 0.6160035 -0.30265766 -0.6716163 -0.23840071 -0.23516724 -0.3620327 0.6300912 0.5749603 0.19306591 0.08560737 -0.004496311 0.3218793 0.7864378 1.2733163 0.5469968 -0.53520435 0.08949104 0.47133732 -0.3202155 0.45780852 0.55458057 -0.081689484 -0.07805456 0.027546166 0.33631378 -0.32653663 0.39635652 -0.27519462 0.2661704
礼 -0.28313792 0.14209643 0.45419008 0.94862914 -0.65751994 -0.022130603 -0.12298638 1.387011 -0.36792856 -0.8128926 -0.46806195 -0.26523092 0.45296082 1.0827004 0.06472272 0.08117619 -0.4613819 0.01782605 0.5690244 0.102256775 -0.7915516 -0.13581707 -0.46865875 -0.036074463 -0.020039393 0.02786954 0.07983137 -0.49490348 0.4234561 -0.5363235 -0.34839237 0.5158245 0.054571122 -0.19567508 0.8428882 0.35899332 -0.07291772 -0.329798 -0.24456117 -0.3450668 -0.49790043 0.070911705 0.3562915 -0.3367882 0.4594248 -0.29633036 0.62605375 -0.17124878 0.2679768 0.028535875
孔 0.31716806 0.21236889 -0.3451483 0.1827275 -0.7106359 -0.342701 -0.07816762 0.72081447 -0.16793674 0.18180616 -0.308148 -0.9983009 0.18628696 -0.049077716 -0.56321406 -0.36259264 -1.0005609 1.1915611 -0.048930276 -0.2623132 -0.17688438 0.4936615 -0.21952225 -0.864472 -0.045815073 -0.035073496 -0.15192974 -0.10438317 -0.5814085 -0.64515966 0.66896427 1.6740748 0.12872873 -0.20318878 0.09692087 1.3744037 -0.29644737 -0.86632675 -0.31993407 -0.27077815 0.16314928 -0.22748554 -0.6503955 0.14876945 -0.21493617 -0.6914315 0.5605531 -0.52354455 -0.07863444 -0.58270156
斯 0.14208718 0.16180448 -0.12431099 -0.2968306 -1.0404744 -0.02251157 -0.57558894 -0.6806836 -0.66983646 -0.24118172 0.32906005 -1.1565092 0.16319005 -0.07839397 -0.67250365 0.19393203 0.51064533 0.4228597 -0.24292381 -0.25640523 -0.4600623 0.3192144 0.013532044 -0.5123133 -0.23149258 -0.79200333 0.27338585 0.32251063 1.0332732 -0.19244435 0.059599783 -0.07842326 0.50141436 0.3860384 0.43801197 -0.004441557 0.49897408 0.6362862 0.1677397 -0.120084696 0.39861193 -0.8151043 0.02571222 0.097208895 -0.33855873 -0.039458115 0.41364062 -0.388698 0.039254867 -0.4899442
三 0.053834803 -0.09424676 -0.09020144 0.09462374 -0.12307186 -0.29547238 -1.0753368 0.628015 0.24197358 0.1515625 -0.034612697 -0.60449725 -0.14161378 0.6684261 -0.9854092 0.089944206 0.29263145 0.25374296 0.9463788 0.052336004 0.5612207 0.6948279 -1.0313243 -0.28127328 -0.739286 0.21429159 -0.3231103 0.6623598 0.22605737 -0.13537206 -0.29337513 0.22600749 -0.059051864 -0.37956366 0.0013843417 1.2192103 0.57819283 0.69784003 0.31981656 -0.019885939 0.37565732 1.1019236 0.16601466 -0.16118379 -0.328591 -0.6326649 -0.14580745 -0.010096481 0.7492172 -0.34988037
能 0.83299243 -0.35465467 1.0411116 0.001463996 -0.23061985 -0.018755116 -0.07224723 0.71086067 -0.5986272 -0.3267623 -0.3384318 -0.4359124 0.5404665 -0.64418703 -0.1563755 0.052944195 -0.07331538 0.60158014 0.33112317 -0.008563935 0.6132127 -0.32777354 0.46765563 -0.68339515 -0.07932532 -0.6946712 -0.48110583 0.20043677 1.2435862 -0.5609291 0.7165307 -0.24307872 -0.058170512 -0.9161016 -0.6693427 0.47920892 -0.31550905 0.14428338 0.39963967 -0.189315 -0.4861753 -0.07023213 -0.7213774 -0.2962434 -0.801633 -0.8962639 -0.39177185 0.23981662 -0.6730448 0.65850335
见 -0.21516854 0.8354419 0.014421045 0.5485399 -0.07097974 -0.01920396 -0.3276972 -0.17622067 -0.47807252 0.50512683 -0.41779834 -0.4460001 0.069582924 0.22004177 -0.36645225 0.10579925 0.08214126 -0.6448212 0.4164781 0.3091283 0.2034897 -0.6347951 0.08415554 -0.56464857 -0.061050415 -0.58325696 -0.37040356 -0.27431875 0.057340957 -0.37585962 -0.24760921 0.54040277 -0.38269696 -0.22708951 -0.7355674 0.22615056 -0.3787756 -0.6897443 -0.8963477 0.6093706 -0.21017958 -0.5945118 -0.48322782 -0.47796965 0.38446435 0.94372356 -0.99507105 0.74380344 -0.7820807 -0.8395799
学 -0.09398431 0.25093335 -0.4730097 0.7773684 -0.40801975 -0.14090575 -0.3465057 0.6447316 -0.23408332 -0.45535734 -0.2233415 -0.033508964 0.49066237 0.058348 -0.33882633 -0.055016752 0.5395759 0.4559114 0.59613127 -0.69258416 -0.51534754 -0.0052268365 -0.22026284 -0.4122782 -0.7134943 0.03611369 -0.059306324 -0.027413318 0.16767985 0.4990798 0.57226175 1.098399 -0.1714735 0.3502148 -0.4081902 0.72587323 0.14353642 -0.22994196 -0.7299981 0.07431242 -0.11187658 -0.64105344 0.21625695 -1.410636 -0.40490952 0.44031927 0.17814003 -0.5321401 -0.5805427 0.66816324
事 0.15404293 1.0426844 -0.06863051 0.32802457 0.61774313 -0.5973034 0.22067495 -0.18618852 -0.8857621 -0.65807784 -0.1541247 -0.46308097 -0.5151867 0.36214128 -0.17944363 0.47283137 -0.118415214 -0.707995 0.7464963 0.41900763 0.67085844 -0.0035431567 0.4905768 -0.16784874 -0.060580347 0.38428307 0.23800372 0.010879142 0.26738888 -0.3997301 0.040453542 1.0246978 0.41915172 0.25127372 0.4217975 -0.11301447 -0.47312164 0.3673764 -0.94693196 -0.29870734 -0.16925065 0.46186817 -0.04766248 -0.48939854 0.6398727 0.20695178 -0.032625407 0.039883338 0.327531 0.1642472
是 0.2753841 0.3181595 -0.04271087 0.23232695 -0.50660205 -0.5885013 -0.45398095 -0.35188013 -0.25043273 -0.17308149 -0.7869046 -0.34591773 0.5213464 -0.99003255 -0.65536195 -0.33695382 -0.6399132 0.17422706 0.60071987 0.4014765 -0.7763873 0.16707371 -0.15606521 0.0014246578 -0.6921091 -0.471044 0.121137954 0.30027533 0.257373 -0.94577324 -0.027927332 0.024994697 0.4686675 0.5063553 0.32375962 0.6117093 0.011749044 -0.90505624 0.1730262 -0.13735461 0.34606102 0.06084436 -1.0931181 -0.5557857 -0.46555427 0.31875995 0.11296679 -0.37301674 0.9540328 0.12231402
哉 1.2029232 0.6471742 0.40344387 0.84655696 -0.11478046 0.60986024 -0.20109275 -1.154309 0.046313204 0.61888033 -0.12871544 -1.3646095 0.06030895 -0.09441174 -0.30795744 0.4207347 -0.5103101 0.3263396 -0.2601019 0.76861614 -0.1302451 1.0152925 -0.24136835 -0.24617457 -0.9773718 -0.36249503 0.5739447 -0.16063796 -0.10884657 -0.2767373 1.0316048 0.36279902 -0.7895525 -0.3598368 0.38323155 0.3802918 -0.21577984 0.17492607 0.47876197 0.15502629 -0.19560245 -0.3831547 -0.7418486 -0.18741983 0.22744375 0.1605754 -0.15045695 -0.68460757 0.34377852 -0.48418567
闻 0.012889883 0.26208505 0.46080348 0.40136996 0.112622224 0.4289914 -0.85650593 0.52245444 -0.69084334 -0.5792903 0.093666755 -0.09167324 0.2511267 0.27046 0.029551202 0.43501234 -0.3623599 -0.90701276 0.68154204 -0.31259045 -0.17064102 -0.7927678 -1.4345609 -0.39696288 0.103898115 -0.056427334 0.7972612 -0.7598811 0.029024214 -0.28688952 -0.022336775 0.933996 0.27555737 -0.2748067 0.2123338 0.9979587 -0.015447799 -0.14002392 0.090626396 -0.3426503 0.72415453 0.06946039 0.08251956 -0.36700308 0.45017987 0.31484053 -0.68955505 0.11708313 -0.25611874 0.2232878
未 0.7984926 -0.05077206 -0.07299258 0.40535066 0.079609826 0.8094333 0.31606013 -0.63580316 -0.37207308 -0.6452195 -0.16064067 -0.3242657 -0.68716776 0.122147605 -0.5277999 0.024926268 0.31628993 0.006288012 1.2994324 -0.10280948 0.17215368 0.42772096 -0.3858489 -0.8327413 0.060215957 -0.51416534 0.4420648 -0.6291857 0.99670494 -0.19720505 -0.4439893 0.17511658 0.19603465 -0.16577823 -0.10242511 1.208489 -0.23270068 -0.813791 0.17722295 0.10877323 0.45979342 0.68612474 -0.5347904 0.04132833 -0.45354867 0.5340768 0.30559105 0.317588 -0.72448283 0.06506531
公 -0.22871009 0.5868113 0.48392904 -0.26707298 -0.42796376 0.37968537 -0.021880679 -0.060401488 -0.11011279 1.2577958 0.038690846 -0.9760788 1.381307 0.6651746 -0.6272511 -0.4002705 -0.5539015 -0.24436365 -0.33991054 0.4722466 -0.45882082 0.9176278 0.383137 -0.5336328 -0.66980785 -0.5551019 0.46325016 -0.20860039 0.66173637 0.43095163 0.25715846 0.8186521 1.0973934 -0.21621308 -0.0756118 0.891106 0.22790428 -0.43344766 -0.0005257002 0.5853327 -0.5304025 -0.12923603 0.8546815 0.500144 0.42651853 -0.82068527 -0.32388654 0.7922719 -1.0618095 -0.024176395
好 0.23735717 -0.6346379 -0.567403 -0.10364306 -0.50617415 -0.5718048 -0.2727106 -0.111675 -0.61616254 0.5172441 -0.51083905 -0.93905634 -0.13179055 -0.53904957 0.057272337 0.3073457 0.67566496 1.2530278 0.6813212 -0.10489933 0.490314 -0.9161329 0.09043642 -0.4513845 0.64608675 -0.45898134 0.42588344 0.18757877 1.3990604 0.06898969 -0.1791156 0.023073072 -0.18451397 -0.45440266 0.4335799 0.23256926 -0.551509 0.30127633 -0.18084449 -0.5522426 0.3684054 -0.059710108 -0.26302856 -0.8273491 -0.13172063 0.057216596 0.14283204 0.9244356 0.7770212 -0.30531028
我 -0.32690278 0.20037393 0.51265687 0.39642206 -0.3696389 -0.7130237 -0.5129801 1.2283329 0.3686819 -0.18608737 -0.24700448 -0.53628445 0.015502417 0.60513014 -0.18257143 0.014405708 -0.2559653 -0.2147147 0.39040598 -0.22573265 -0.83370507 -0.11477539 -0.14785871 -0.6695969 -0.38608003 -0.0703894 0.45043808 0.38849702 0.29569998 -1.2461369 0.69256043 0.50387794 0.65752876 0.10552097 0.017485593 0.35574812 0.613544 -0.061542396 -0.99209356 0.22673343 -0.84045565 -0.18458553 -0.6796335 -0.24682885 0.056296058 -0.41472387 0.7601962 0.7139056 -0.28781408 0.8585789
路 0.80118537 0.5230016 0.497789 -0.7460974 -0.0830173 -0.2629536 1.0537347 -0.20937854 -1.1557598 0.2880896 -0.5301472 -0.8335084 -0.80703604 0.4683985 -0.21111356 0.059417505 0.041984778 -0.09653778 1.0702059 -0.6044782 -0.11422808 0.10995424 0.5322286 -1.0183232 -0.17187424 0.17544273 -0.541051 0.2878013 -0.53199846 0.10380176 0.05046843 1.3535278 0.8398053 0.25336003 0.024554783 1.2551373 0.4368837 -0.23803872 0.20545328 -0.40648225 -0.20905438 -0.6355063 -0.52998984 0.02118666 0.3229474 -0.057223376 0.06122587 0.6535455 0.40108985 0.18383694
在 -0.59257686 0.38110924 -0.08971782 0.42477039 -0.47130084 -0.114245236 0.077109575 -0.78090584 -0.4648618 -0.3812332 0.071701236 -0.41966975 0.42244795 0.53502053 -0.10164289 0.76249605 -0.6675427 0.5267647 0.43808728 0.14579433 0.8605975 -0.7114119 0.6929001 0.22029048 -0.20592894 0.12261859 -0.6656271 -0.95029205 -0.037513163 -0.06287444 -0.15618584 0.67764246 0.80515045 -0.15817346 0.4541582 0.42960632 -0.140874 0.71404016 0.08901494 -0.43805864 1.3906736 0.29669514 -0.6224006 0.13185419 0.14065242 0.008503649 -0.35974732 -0.6730759 -0.21895853 -1.2406257
已 0.541393 0.09222499 -0.35745886 0.50217974 -0.039052244 0.09602341 -0.3772988 0.24542756 -0.24505301 -0.2342108 -0.27085832 -0.70835376 -0.31654954 0.36836487 0.032350037 -0.1295466 0.0030691503 -0.20842966 0.0887623 0.9819413 -0.81901026 0.04905558 -0.21016622 -1.2518456 0.103237316 -1.2304401 0.11026193 0.16329047 0.1581072 0.3356506 -0.5710243 0.17615265 -0.6704735 0.39600927 0.39561978 0.9075791 -0.32240084 -0.4324342 -0.20853747 -1.122587 0.9395792 0.23715481 0.58103 -0.44834256 -0.22713988 -0.16169168 -0.6132474 0.34025753 0.26441792 -0.6648179
得 0.03586573 0.23640867 0.48695186 0.9527098 -0.49658746 -0.25194204 -0.14242755 -0.47670537 -0.17967418 -0.44845232 0.30087444 -0.409639 -0.67943615 -0.02175456 -0.963798 0.6693244 0.021627534 0.26690164 0.292107 0.19124195 -0.26550505 -0.73139423 1.1530782 -0.9408849 0.67168826 -0.27581722 -0.12404874 -0.3724985 0.55412984 0.10317847 -0.47554114 -0.2479821 0.5258883 -0.2795054 0.26351202 0.11846489 -0.34444568 -0.064440005 0.34717563 -0.78950596 0.21520732 0.075902686 0.3167376 -0.087652706 -0.17731148 0.2495496 -0.09944024 0.24939671 -0.6580335 0.9063022
所 -0.5730642 0.1915417 0.6285547 1.7879974 -0.018072639 0.46978328 0.44187957 -0.5673069 0.21679358 -0.29239926 0.29648125 -0.7593279 -0.013428528 -0.104969375 -0.3011586 -0.014932533 0.12155383 1.6477162 0.18426546 -0.856655 -0.8026132 -0.6872231 -0.40865105 -0.12464832 0.29560357 -0.5436641 0.38509706 0.034935605 0.37242398 -0.6489304 -0.36994898 0.40989164 0.2582188 0.685153 0.44592914 0.58846015 -0.15329318 -0.2614585 0.5790199 0.4722327 -0.20541479 -0.35638204 -0.4832473 -0.16440532 0.10065622 0.38179338 -1.0603218 0.5468137 -0.47543892 -0.8836988
民 0.3657896 0.5184388 -0.010450892 0.6232295 0.026675796 -0.84888446 0.6307923 -0.2069938 0.34281492 -0.26233268 -1.4327073 -0.19614805 -0.2755688 0.6198874 -0.07193321 0.446734 0.22655633 -0.032295525 0.42113525 0.8842095 -0.8562588 -1.0560482 0.29177493 -0.15416485 0.07971494 0.013801964 0.10472002 0.25327647 0.8142312 0.016690794 0.7663438 0.0670212 -0.20188496 -0.47871494 -0.18700938 0.44202656 0.25575817 -0.19498613 -0.1187779 -0.8146815 0.12131427 -0.12412534 -0.12955633 -0.17940685 -0.07256484 -0.9005281 0.31145442 0.05915789 0.22829433 0.15915461
小 0.35921693 0.62201583 0.20792997 0.19127803 0.11980395 -0.5301483 0.2530373 0.15712498 0.32690465 -0.016389793 0.0019144884 -0.22459637 -0.54492295 -1.0016675 -0.4856151 0.5334667 0.88665897 0.61385876 0.3113679 -0.099026985 0.03624674 0.20166951 0.023695651 -0.5509972 0.4009722 0.39036876 -0.41152823 -0.71057653 0.5605974 0.06990465 0.18372601 1.1630492 1.1078789 -0.010303909 0.34797564 0.8052788 -1.0087392 -0.6454774 -0.26466623 0.17827898 0.5734959 0.0285104 -0.41644418 0.27597937 -0.63250357 -0.6574251 -0.022051852 -0.2941748 0.16233106 0.33783212
天 0.4923648 0.5197687 -0.38505203 0.20715734 -0.34938496 0.41738513 -0.80927545 0.6569348 0.30114517 -0.27268037 -0.81453156 -0.67666245 -0.94761044 0.17541923 -0.3862878 0.10246939 0.5056264 0.16877706 0.47928178 -0.45196775 -0.4750385 0.5944277 0.63225245 0.2865017 -0.6579744 0.13300918 -0.13091984 -0.08143913 -0.07675996 -0.39584094 -0.208024 0.914004 1.2730783 0.07994013 1.27493 0.20185101 0.276812 -0.15649176 -0.30903715 -0.23035365 0.24435726 0.32729092 0.6959854 -0.36498407 -0.15065123 -0.35948908 0.068508975 -0.6348437 0.23891486 -1.2073905
乐 -0.027822088 0.0020874264 0.7172455 0.82094085 -1.1745946 0.44731054 -0.5136053 0.5182842 -0.4918889 -0.6153327 -0.86888695 -0.2960045 0.3974829 0.12399976 0.45323622 -0.15264224 0.38943318 0.34847286 0.30334023 -0.43979478 -0.4496117 -0.16776657 1.1703786 -0.9165046 0.54422784 0.6975237 -0.18949342 0.74853164 0.45071122 -0.38256893 -0.14331946 0.393713 0.6015069 -0.21070834 0.098473705 0.06199892 -0.06897494 -0.028373849 -0.5247111 -0.045113854 0.6691024 -0.2282064 0.41293216 -0.36008322 -0.52191675 -0.113197975 -0.11108503 0.45379823 0.40041947 0.22942531
邦 0.4549752 0.33499855 0.4911958 0.04984353 0.824767 -0.28651544 -0.5683051 0.47773415 -0.0788616 -0.93068415 -0.32093146 -0.36659268 -0.03487677 -0.12889878 -0.6512279 0.42130974 -1.0329012 -0.8268395 0.35163665 0.17315072 0.088887334 -0.090641715 0.20500316 0.067914404 0.44075117 -0.2999598 -0.19591838 0.5156059 0.8971151 -0.95328397 0.35245228 0.52775043 0.31889775 0.06438469 1.045776 0.4757325 -0.2886888 0.05357845 -0.6858999 -0.87037665 -0.054844502 0.16846266 0.5791984 0.7812875 1.2107733 0.38566232 0.2120088 -0.36572313 0.37824515 -0.069505125
亦 -0.30573046 0.47805932 1.1519891 1.0048674 -0.08591476 0.017904768 1.2843218 -0.22058709 -0.079921 -0.060953766 0.04023196 -0.40729517 -0.30195487 -0.329364 -0.7125684 0.16126078 -0.6956131 -0.00014992635 1.1598345 0.0547066 0.0019203345 0.43530974 -1.0756996 -0.37885156 0.62474453 -0.34045732 -0.05660705 0.09031351 -0.1470133 -0.20097482 -0.17398515 0.5078486 -0.096473046 0.13844295 0.42354062 0.4294699 -0.7334949 -1.0081917 -0.23880763 -1.0298773 -0.21232356 -0.19766067 -0.11407683 0.044982444 0.7442429 -0.33602098 -0.4127579 0.30051428 0.6312639 -0.15980233
使 0.24288727 -0.008595586 0.49930504 0.44282058 0.15874574 0.17526689 -0.04476012 0.33913568 0.1738105 0.24114525 -0.5743913 -0.44001272 -0.6295183 -0.027645474 -0.52504915 0.59426576 -1.1050812 -0.7599204 0.433613 -0.4077766 -0.6601137 0.19326828 -0.15501605 -0.3211899 0.4136104 0.015641576 0.336183 0.3951538 0.73882633 -0.05129903 0.28127804 0.1741316 0.59179103 -0.11162565 0.20586868 0.20648354 -1.1255431 -0.08739061 -1.6555182 0.1671734 0.12814118 0.03633178 -0.24817955 0.10951929 -0.916656 0.42747942 0.61696595 0.67762023 1.3961087 -0.65960336
大 0.28359073 0.8555326 -0.8221594 0.2849639 -1.2948104 -0.6932318 -0.30404225 0.85194886 -0.22713687 -0.21532203 -0.22940402 -0.9825794 -0.58392483 -0.71739346 -0.5283623 0.96706617 -0.27833864 0.037382204 -0.5233866 0.2502754 -0.10145458 0.042297218 -0.29876104 0.28017524 0.4592972 -0.13069431 0.04781213 0.6882489 0.36401933 -1.1954666 0.5941949 0.3144288 -0.56489426 0.46405974 0.04210605 0.31156975 0.21133015 -0.43427616 -0.4607212 -0.71884084 -0.1178894 -0.22415556 -0.626436 1.1285404 -0.25866953 -0.6141284 -0.46506935 0.06633361 0.11836327 -0.2396317
下 0.12452831 0.42850497 0.49681383 0.0028669091 0.52810234 -1.456049 -0.11332443 0.10320436 0.5579618 0.51002735 -0.11439753 -0.8340946 -0.6776765 -0.389578 1.4396415 0.5580316 -0.9529491 0.66801107 0.7387361 0.6451808 0.012918674 -0.7542944 -0.54419255 -0.021795345 -0.7452573 -0.81155264 0.6682262 -0.7300611 0.2677181 -0.40093052 0.3006545 0.68067944 -0.3001689 -0.21949425 1.3156587 0.6733051 -0.3696002 -0.7439271 0.22760615 0.29861787 0.5065434 -0.5635824 -0.54620296 -0.8581029 0.4311015 0.20599945 -0.080011696 0.057668995 0.1499911 -0.6385474
贡 0.034567304 1.015979 0.8174135 -0.33258158 0.35087222 0.24878651 0.9697624 0.15189199 -1.3129674 0.4620405 -0.099882156 -0.8932283 0.019185467 -0.076965675 -0.9523881 0.44200855 -0.6950699 0.5541544 0.21658167 0.0136889145 0.20703693 -0.03506105 -0.6059014 -0.8503245 -0.18568507 -0.35468757 -0.040059477 0.31365684 -0.4241867 0.08738419 -0.26103207 0.92201173 0.5160212 -1.0691384 -0.15289591 1.9883026 0.15500498 -0.49791712 -0.84539807 0.33054304 1.2041628 -0.78668356 -0.9300352 -1.076479 -0.12888405 -0.41132802 -0.19362347 0.3956565 -0.2599039 0.29060036
欲 -0.7077438 -0.0002039939 0.81655777 1.0471385 1.2378705 0.071828544 1.0187552 -0.094363324 0.56115514 -0.37614617 -0.8344188 -0.4815173 -0.18661977 -0.11468224 -0.4189025 0.9769901 -0.9001809 0.10273556 0.46616554 -0.46308577 0.15859571 -0.6786492 0.3041383 0.14337902 -0.008995822 0.33879903 0.32306564 -0.13896526 0.06520693 0.51904327 0.60136503 0.33634454 0.46110207 -0.15166734 0.093798675 0.70900947 0.038366903 -0.49727273 0.31034005 -0.3016319 0.5150847 -0.50090015 -0.6474954 0.22097358 -0.7595572 -0.26623547 0.51712865 -0.11387599 0.12398349 0.15436006
诸 -0.4053288 0.7145272 0.25463092 0.060777217 0.040027745 0.7039671 -0.7961679 -0.04144175 -0.25526583 -1.4044459 -0.479377 -1.0787866 0.5045006 -0.5415562 -0.4247123 -0.42080203 0.15499695 0.4616032 0.19324717 0.69390523 0.066805586 -0.06923746 0.46885645 0.9011429 0.49745202 -0.3529743 -0.34377995 0.5497158 -0.07703259 0.8350452 -0.4180076 -0.048573136 0.21902138 -1.1162726 1.0633925 0.9541041 0.9877791 0.86102355 0.46149844 0.33865708 0.18418868 -1.1864753 0.3793574 0.13750823 0.018907124 0.17180978 0.6349775 -0.6373128 0.78886956 -0.31537887
从 -0.43066713 0.082784705 -0.044952378 1.0302918 -0.14712371 0.22582285 0.0072418763 0.7500832 -0.916702 -0.57950526 -0.041343763 -0.15748592 -0.96953773 0.9595842 0.35097817 0.25818256 -0.08241525 -0.3771889 0.604555 0.13100024 0.15873007 -0.27683142 0.32516852 -0.852492 -0.08383573 -0.022325901 0.006212717 1.0659152 1.2689929 -0.09676745 -0.23521642 0.27866563 0.3056551 -0.27766594 1.1235402 0.2078505 -0.6072697 -0.3491067 0.8541181 0.87127095 -0.8116891 0.21124735 -0.0027382604 -0.4783093 -0.4918965 0.27902073 -0.0043030186 0.042112034 -0.5657275 -0.9824833
文 -0.2521931 0.29172215 -0.3517529 -0.7414968 -0.69324964 0.4186144 -0.6693137 -0.08183849 0.56914014 0.3054105 -1.1728448 -0.33301726 0.44086462 -0.7135495 0.050838064 0.6131762 -0.068178914 0.097527176 0.8310743 0.06725373 -0.6934533 -0.14842941 0.6258788 -0.29321992 -0.74320567 0.013999973 0.7691408 -0.5432864 -0.22920285 0.36211866 0.17379929 0.6824997 -0.22893302 -0.27359927 -0.21324953 0.81477606 -0.30380505 -0.6994391 -0.2342112 -0.9762734 0.4025294 0.26648858 -0.50598025 -0.7072784 0.044267967 0.80342734 -0.1557766 -0.37873405 0.374976 0.07772578
政 -0.028926875 0.45594105 0.3389699 -0.6619494 -0.053697046 0.11553638 -0.869675 0.10974632 -0.98989564 0.13694344 -0.6883616 -0.77373713 0.49133173 -0.28172347 -0.19766366 0.8240699 -0.7810013 0.47482985 0.76312715 1.4846112 -0.7090757 0.42212752 1.1806737 -0.035144046 -0.40609068 -0.11205516 0.47302988 -0.5740568 0.2502144 -0.18260653 0.23583734 0.92445546 0.11189382 0.17465845 0.3380103 -0.1487647 -0.13968521 0.5432189 -0.76796985 -1.0324978 -1.0163623 -0.5123548 -0.116275355 -0.4931165 -0.6200727 -0.6126524 -0.21521069 0.88616455 -0.5760843 -0.6613755
食 -0.49805692 -0.09220244 -0.042596146 0.43261486 -0.33500436 -0.24321549 0.05027905 0.055070005 0.26407212 -0.97779906 -0.3298566 -0.41161078 0.23944063 0.61184573 -1.1795788 0.23524319 0.44644642 -0.06997586 0.13569608 -0.6058318 1.4342357 -0.29051286 1.0646784 -0.27318972 -0.82682234 0.12760435 0.1514557 1.0490235 0.31772754 0.2308399 0.50573087 1.162884 0.119491674 -0.08525981 0.074575394 0.5668881 0.38968644 0.24202159 -0.3286029 -0.4085936 0.73684734 -0.11861627 -0.6477007 0.028351402 0.5824899 0.064159654 -0.024465645 -0.4504686 -0.29527062 0.80847144
善 -0.20587508 0.31643218 0.13448647 0.3548069 0.18829958 -0.64473146 0.08572635 0.92976356 -0.17749321 -0.17765763 -0.162735 -0.14056788 -0.191612 0.323031 0.43205252 1.16901 0.45641607 0.92439544 0.63259286 -0.75783825 0.36463794 0.3669825 0.43381172 -0.5424287 -0.41750047 0.31152236 0.5995442 0.13948426 -0.13004212 0.42709398 -0.15895429 -0.6715913 0.33105165 0.35013035 -0.34217173 0.44708937 0.16777699 0.44154903 -0.17434031 -0.35765287 0.9823881 -0.63500583 -0.82092655 -0.75706077 -0.63685286 0.8646984 0.080721736 -0.06875285 -0.9882678 0.08911728
后 -0.66237956 0.03920602 -0.3074188 0.04452522 -0.32108536 -0.67409605 0.040493242 0.58325624 0.17348598 -0.25949934 -0.3986012 -0.7618107 0.054044727 0.4943458 0.24551906 0.18507855 0.07465453 0.45250982 0.39183953 -0.44959846 0.7215129 1.0744015 0.07345252 -0.81204873 -0.32257947 -0.2989769 0.07771609 -0.09374873 0.69456565 -0.013221379 0.09564321 0.20130154 -0.27744654 0.252551 0.227601 0.4602033 -0.17437607 0.29416183 0.24515031 -0.7649406 0.20627664 -0.38035634 1.0716137 0.70969784 0.21210204 -0.34737873 0.33764356 0.6785863 -0.11721799 -1.1219735
德 0.14179598 0.47564948 0.6866387 0.51398754 -0.46807048 -0.71149707 0.19015722 0.5028727 0.88252085 -0.60432816 -0.78798825 -0.5341308 0.3889629 0.44511384 -0.08017571 0.1553616 0.5083957 0.18516399 0.35481066 0.28949088 -0.050000187 0.36546233 0.3457241 0.4770619 -0.18091135 -0.09478627 -0.077264056 0.3761905 0.20194292 -0.33094844 -0.4160498 0.4722646 0.5241903 0.38888326 0.24970347 0.13933143 -0.38464734 -0.1550744 -0.48308036 0.38060167 -0.58402896 -0.83142024 0.24543202 -0.6691681 -0.37583047 0.15325232 0.24985144 0.3507451 -0.057083353 -0.5006924
求 0.35132387 0.40362614 0.31691378 0.27955082 0.5956658 -0.71125925 0.20699593 -0.17125162 1.1983622 -1.015632 -0.5266855 -0.08451119 0.70998764 0.116120465 0.0827955 1.341341 -0.12260012 -0.5299686 0.18620558 0.57955724 -0.43908572 0.03457796 -0.21478646 -0.75590366 0.54344666 -0.557838 -0.11624087 0.2226049 0.9786013 -0.42195317 0.6340092 0.17495464 0.18390937 -0.45542815 0.38723156 0.78511655 -0.55646485 0.047236305 -0.5987551 0.13830832 0.5371668 -0.79286444 -0.009671158 0.29985622 0.7769222 -0.10820796 -0.9221378 0.10599676 -0.31298167 0.8339641
对 -0.20920801 0.3636681 -0.019887527 0.11691119 0.12939885 1.6308159 0.5098475 -0.25095898 0.060428664 -0.10441671 -0.7073147 -0.66129935 0.35266852 0.8273863 -1.02582 0.16893929 -0.038904354 0.51779914 -0.16937634 -0.111576855 0.40520793 -0.29362908 -0.754253 -0.45450914 -0.42983243 0.21722862 -0.16290581 0.34616274 0.52812463 0.19660641 -0.27903655 0.9429423 0.12279844 -1.0166441 0.65441895 1.3854613 -0.5530007 0.58605003 -0.59598017 0.39131403 0.7950654 -0.12583533 -0.035641737 -0.093750045 -0.61217326 0.16172689 0.47938937 0.3468193 0.032515746 0.18301833
恶 -0.48965174 -0.91534555 0.41870072 -0.06590334 0.7316468 -0.22556338 -0.57777363 0.7145282 0.24127175 -0.55308956 -0.25544247 -0.55004084 0.23008022 0.12649912 -1.3602647 0.7075695 -0.20130894 1.1444974 0.5545877 0.04351417 0.369706 -0.78443503 -0.87681115 0.3514629 -0.1612379 -0.19258095 -0.33857724 0.16609138 0.69149286 0.09582442 1.4118745 0.101047434 -0.23619519 -0.175765 0.027046405 0.6867189 -0.70540416 -0.03450019 -0.19907375 -0.1327799 0.19547921 -0.026638899 -0.6260445 0.2414259 0.19297288 0.4096036 -0.2833204 0.21167932 -0.19804807 -0.9111339
信 0.407556 0.20573263 0.20204563 0.7163164 0.3228782 0.26180923 -0.78931147 -0.054308295 -0.98229665 -0.08936846 -0.24973896 -0.1417681 -0.21021815 -0.114521675 -0.2839021 0.013968926 0.16264254 0.3306402 0.55561095 -0.25817308 -1.2812937 -0.7358055 0.7748636 -0.52369636 -0.7932668 -0.10851696 0.093590364 0.25047505 0.5544021 0.26665783 -0.090981476 0.16672263 0.06863279 -0.0056899795 -0.5498158 0.36299706 0.68337494 0.10469845 -1.1535314 -0.0538386 -0.077998675 0.34961355 0.20749544 -0.6461943 0.036669705 0.51962817 -0.31443095 -0.44901276 -0.304324 -0.12116602
死 -0.30509758 0.41855013 0.48171648 0.66957873 0.35359576 -0.01168396 0.014493456 0.09920815 -1.0630534 0.5300252 -0.05708511 -0.26284826 0.107224934 0.33271316 -0.41245058 0.37813815 0.99840665 0.17928244 -0.44678852 0.12495224 -0.8176886 1.1468304 0.5641247 -0.49994752 -0.93485576 0.1626062 0.41702023 -0.7804746 1.1960462 0.012574974 0.8334994 0.39043927 0.7638685 -0.08762959 0.5837651 0.0010196799 -0.0559334 0.14043488 0.014860405 0.30807477 0.08591923 -1.0072733 0.2746058 -0.19696274 -0.9896417 -0.2605523 -0.055300284 0.9938066 -0.7113926 -0.27644876
然 -0.35873482 1.0474234 -0.28672978 0.7627644 1.1801038 -0.6059541 -0.021471355 0.5129457 -0.25652605 0.24872622 -0.1666505 -0.28252584 -0.65696055 0.15561895 0.12147908 0.29104447 -0.9163143 0.6073686 -0.13500535 0.1810766 -0.20597628 0.60021985 0.06752818 -0.28839332 0.5254383 0.15159549 0.27736622 -0.46186754 0.25919685 0.64112836 0.2790992 0.700264 -0.44200763 0.1299087 0.59340394 0.4914635 0.88050425 0.93574554 -0.19569305 0.015366082 0.44278848 -0.26504883 -0.5778127 -0.1360791 0.85488194 -0.5223982 -1.1627434 0.7860609 -0.23679513 -0.024310937
《 0.11661398 0.49471268 -0.044905227 -0.0034671035 -0.87817687 -0.07076464 -0.3486919 0.4808724 -0.51466453 0.5144001 -0.96261257 -0.089451425 1.1909363 0.46772105 0.6041253 -0.19319473 -1.2555703 1.7856822 0.8344892 0.77293617 -0.4807084 0.40368527 0.77648604 -0.77803683 0.36282912 0.6661738 -0.11662108 0.37219813 0.27081537 -1.0876672 -0.45496485 -0.042450294 -0.008945057 -0.5489841 0.187813 1.4296397 0.30256113 0.21382296 -0.02101373 -0.3718376 0.53683656 -0.18284091 -0.06145867 0.04113999 -0.2235377 0.0295163 0.43113226 1.1999236 0.28951746 0.099050455
》 0.30574846 -0.12039969 0.5041457 0.66772276 0.11358171 0.97713476 -0.12611388 0.044793047 -0.339216 -0.3781899 0.017942728 -0.25548127 0.8015033 -0.052908495 0.46729416 0.3103316 -1.0576193 0.7313911 0.44831538 0.2977786 -0.40400696 0.67080086 1.4358552 -1.5359169 -0.2822605 0.31199044 -1.1547093 0.24944669 0.3582315 -0.1613327 -0.16079436 0.43906882 -0.21464896 -0.301694 -0.7190716 1.0078386 -0.43372744 0.22430143 -0.1675409 -0.6350843 0.9202198 -0.69141674 0.72364956 0.09437797 1.350631 0.033269774 0.3063659 1.0331436 0.85300696 -0.2837853
由 -0.06506015 0.32184878 0.20580637 0.6462699 0.19161429 0.24449827 0.47259775 0.5277896 -0.20908529 -0.54357326 -0.69247425 -0.047553845 0.4192289 -0.04392655 0.6060551 0.50389034 1.2748613 0.3701087 -0.002444048 0.53648347 -0.4518345 -0.11001677 0.32077992 -0.50760335 0.086005546 -0.24481982 0.48976955 -0.6150053 0.4289977 0.6175905 0.9992547 0.0018175264 0.85530776 0.075153574 0.093947165 0.7237007 -0.5090816 -0.6294395 -0.008789417 -0.5184131 0.63748354 0.3863018 -0.72583103 -0.235197 -0.40647328 0.5096007 0.13597481 -0.80740845 0.0018573692 -0.36196783
仲 -0.6449276 0.17854881 -0.5362376 0.89659923 -0.6046995 -0.8170131 -0.15969576 -0.5962572 0.017803658 -0.6710599 0.37844148 -0.16867158 0.6765237 0.08544199 -0.59260195 0.22349419 -0.4148303 1.0659924 -0.115289815 0.48721015 -1.0190904 1.0637518 0.32381314 -0.47290257 -1.0135232 0.16987783 -0.33428383 -0.30154365 1.0304624 0.090663604 0.4599225 0.6689184 -0.30015785 -0.3911363 0.76749724 0.8019188 -1.1000292 -0.16891754 -0.16984643 0.20443664 -0.6083261 0.3240424 -0.8185357 0.51626635 -0.2896705 0.7904389 0.7863026 -0.40879062 0.020881914 0.24026462
非 -0.3932467 0.7890151 0.40027165 0.48885202 -0.22805956 0.008646297 0.2969423 0.4685634 0.48702875 -0.28440186 -1.5061828 -0.19647738 0.7115146 0.017672442 0.355462 -0.30890697 -0.18645631 -0.73508924 0.661435 0.4333377 0.8013954 0.6058636 -0.29271528 -0.03567212 -0.69880235 -0.02335746 0.30874133 -0.17797516 0.19250152 -0.43833253 -1.39181 -0.1363347 0.0487735 -0.30651313 0.44170976 0.9911161 0.29327786 -0.43921676 0.18182291 -0.6345741 1.1834091 -0.1608067 -0.5269512 0.12158337 -0.25902194 0.10547993 -0.102031425 -0.2651921 -0.60063976 0.47464976
出 -0.09202338 0.3192749 -0.6908523 -0.22997253 0.011465932 0.63564193 0.3800189 0.46183586 -0.5571243 0.08341293 0.07642139 -0.07746377 0.3714087 0.7462441 -0.2156448 0.96139675 -0.08226253 0.15247813 0.1981752 0.15724765 0.4649704 -0.4191433 0.13467683 -0.8378689 -0.5495085 0.115413755 0.09719952 0.22564398 0.91093767 0.5844962 -0.42888066 1.4623954 -0.86845624 -0.44624475 0.16991723 0.7948926 0.27070722 0.045787103 -0.7727155 -0.1664587 -0.0699657 -0.0058914386 -0.11291648 -0.36052296 -0.7516605 -0.21309902 -0.1600326 0.26451632 0.4629201 0.16671053
过 0.47742963 0.51492715 0.06477112 -0.064101 -0.2369051 0.6763216 0.5738864 0.0023034944 0.7719447 0.22256178 -0.25887266 -0.42772803 -0.12860218 0.18999359 -0.39186355 0.15999508 0.28713217 0.42105937 0.33672002 0.78932476 0.69255316 0.3366992 0.50778365 0.39267763 -0.8305846 -0.50113827 1.6845088 -0.1480135 0.69652766 -0.15069155 0.10244768 0.4826257 0.50116843 0.766021 0.22661091 1.0397252 0.79378057 0.7303064 -0.56249106 -0.22478078 1.0113044 0.74827707 0.33988857 -0.17870997 -0.23721802 0.5413616 -0.93562746 0.6702742 -0.014488416 -1.3679546
一 1.2249771 0.6797129 -0.576893 1.5033009 0.1682498 0.59383255 -0.8784691 0.0680229 -1.4629987 0.028700605 -0.25815263 -0.36592945 -0.21584158 0.5253457 -0.8871078 -1.3520308 0.16428217 0.65270656 0.6578045 0.02350541 0.24806607 0.68921113 -0.23148565 -0.21551795 0.007803317 -0.036284484 0.48608777 0.71482855 -0.12434566 -0.11572275 -0.4147882 0.67989635 0.5983415 0.48837048 0.33643416 0.3884428 0.4908203 -0.19234858 1.0963167 -0.08113424 -0.4189714 -5.2611067e-05 -1.0554166 -0.09778559 0.4645949 -0.047259428 -1.578144 0.32625073 0.61328447 0.28594008
虽 -0.21714807 0.6144488 -0.2141575 0.02036718 -0.19420902 -0.2564645 0.1935899 0.37076503 0.27801192 -1.0565406 0.20918325 -0.57895434 -0.9019788 0.31090856 -1.1464909 0.87483215 -0.5721904 -0.40999144 0.091145076 -0.5885866 0.8591814 0.056824673 0.09140982 -0.5543817 0.20731352 -0.87436455 -0.12229682 0.45759875 1.1319541 0.5528068 -0.6946611 0.35636917 0.10716712 -1.3014446 0.041774478 0.72711724 -0.07309436 -0.6673805 0.23819496 -0.2826529 0.041404564 -0.22456312 -0.2540072 0.3020004 1.3743054 1.6262195 -0.27844477 -0.013546475 1.211626 -0.18220894
足 0.37304986 0.06841869 0.4381122 0.74827445 -0.52108425 0.8552838 0.44080195 0.7849295 0.30271184 0.27579352 -1.0434347 -0.4611744 -0.45478854 -0.14383353 0.27993563 -0.3734293 -0.104537904 1.1525315 0.5272501 0.13385019 -0.04265804 0.29757705 0.1505402 -0.2716107 -0.2479172 0.5864144 0.22223082 0.18374649 0.6717008 0.0644506 -0.041102134 0.68815327 0.11536046 0.28243577 0.7013483 0.69309694 0.28777003 1.08678 -1.3519229 0.6195782 -0.81665456 0.41150513 -0.56703246 0.1107041 -0.53076315 0.86423635 -0.13868198 -0.4424204 -0.583672 -0.19411124
居 0.047766104 0.34359998 -0.6011754 0.95723337 0.66357285 0.1542491 -0.06578348 0.5411379 -0.05252589 -0.7246601 0.09693699 -0.17192635 0.72441447 1.1360168 0.71331626 0.024086097 -0.50461864 -0.4254893 0.17075083 0.010770945 0.08935562 -0.91230565 0.6364891 0.5477621 -0.24128105 0.27703568 0.04530363 0.7266635 0.18365385 -0.1713201 0.15003616 1.5486851 -0.04674159 -1.2075126 0.7188362 0.48076507 -0.69131476 -0.259679 -0.045174845 -0.37095192 -0.28264514 -0.26152304 -0.44502866 0.16532175 0.33948085 0.9675781 -0.3557847 -1.0946654 0.010620783 -0.7775591
尔 0.080438346 0.40690574 0.37123594 0.00073644717 0.1557639 0.4527801 -0.42405108 0.39341763 0.70601714 0.4430565 -0.057226762 -0.96122295 -0.29184952 1.1408994 -1.1821463 -0.18065454 -0.46535784 1.1357653 0.48702955 0.0044005513 -0.77048874 -0.09187713 0.80525935 -0.042071156 -0.9944387 -1.0081844 1.3517104 0.51410395 -0.27467164 -0.36037508 -0.04438172 -0.13714364 0.15034789 -0.20906463 -0.5530178 0.20762847 -0.46889853 -0.097854264 0.2268459 -1.2096835 0.30706176 0.28050724 0.13147454 -0.48115972 1.3953772 -0.607324 1.208747 0.03950742 0.104235046 0.26796877
夏 0.68803865 0.65110433 0.77573335 0.041758012 -0.3257829 -0.236646 -0.3217226 -0.31942567 -0.8817739 0.15353341 -0.061492033 0.46470115 0.62507844 0.32313517 0.20152637 0.09563702 -0.27717763 0.42048642 0.5534791 0.21087283 -0.006410114 0.5410061 0.43426844 -0.81413084 0.41478688 -0.54469514 -0.16125855 0.3687171 -0.05772802 0.11319167 0.55639476 1.5580058 0.33509007 0.30689502 0.49543262 1.8632362 -0.40268013 0.22666842 0.3717585 0.28947446 0.72116613 -1.183705 0.98005223 -0.096113086 -0.007964554 -0.32334864 0.44739848 0.08388775 -0.005245156 0.12179795
父 -0.2925717 0.77336603 -0.08639059 0.22576448 0.068764456 0.24976516 0.187594 0.034166224 -0.36218694 -0.36804357 -0.389074 -0.29794106 0.10580284 -0.49388534 0.06762038 0.108456254 -0.65724087 -0.0664773 0.22169442 0.5178354 0.54355615 -0.057166915 1.6025665 -0.06024541 -0.47934914 -0.3896734 -0.5477352 0.27638787 0.7045306 -0.82794595 1.1418995 0.4679167 1.5989902 0.25444037 0.6851958 0.12276559 0.044590387 -0.75643116 0.3465642 -0.70302004 -0.52733076 0.5003539 -1.4499981 -0.10419328 0.3927075 0.6030877 0.12428433 0.012024954 -0.98301923 0.65201926
及 -0.28228575 -0.27734378 -0.2811597 1.0498604 0.050431073 0.12520097 0.23042983 0.14632885 0.3148674 0.70971715 -0.86805695 -0.808509 0.575975 -0.0875239 -0.75441563 0.21128598 0.2221711 -0.12838487 0.3535641 -0.014297591 -0.5821302 -0.026707696 0.5134409 0.17965575 0.6922672 -0.97817653 0.15915726 -0.50607467 1.6182166 0.79445326 -0.12752025 0.64846957 0.7168644 -0.39466777 -0.32276437 0.6953752 -0.7878256 0.4441436 -0.009978202 -0.117115974 0.051448915 0.22835074 -0.049026683 0.3546394 -1.1103798 0.79187727 -0.40431955 1.1465865 0.5585093 -0.24012038
己 -0.10852834 -0.03873382 1.1217649 -0.1437912 0.4754145 -0.38829005 0.31107506 0.5627911 0.3626595 0.31108326 -0.48059928 -1.088233 0.12878689 -0.67740107 -0.5665951 -0.12765494 0.66174483 -0.17101713 0.5351 -0.6693662 -0.61078 0.6785431 -0.4377838 -0.65138483 0.011304942 -1.4325753 0.24400564 0.2868533 1.0115172 0.22116049 -0.09663987 -0.15693496 0.52720594 -1.2728593 0.78291094 0.47399923 -0.21232066 -0.19852227 -0.88355184 0.17838742 -1.1478755 -0.81874764 0.4754176 -1.4357122 -0.08581588 -0.5204459 -0.36533082 0.3738197 0.21697643 0.6783067
予 -0.0068047666 0.39029202 0.36513412 0.25826913 -1.2508276 0.25212583 0.090096354 1.2176003 0.21855919 -0.48953134 0.33520055 -0.10651552 -1.2819178 -0.39579663 0.3923059 0.15646164 -0.029680679 -0.2737696 0.4334039 -0.29212862 -0.8744375 0.33272594 0.45202404 -0.40570474 0.34222317 -0.5614349 0.4930172 0.5726645 0.73572415 0.14705986 1.0490854 -0.46294576 0.68850493 -0.88743037 0.6964702 0.5461767 0.38594863 0.26980194 0.49811855 -0.48527017 -0.02719371 0.21062623 0.044662368 -1.6099017 0.5136584 0.19788627 0.77577144 -0.890003 0.41083556 0.4433848
色 -0.47187504 -0.021624437 -0.3932543 0.30610725 0.47572312 -0.88777775 0.2559016 -0.31875166 -0.05007702 -0.7109909 -0.058278542 -0.599537 0.5252158 0.63510746 -0.6703637 -0.20267756 0.8678806 0.5675562 1.0316471 0.5556244 0.21636765 -0.3725266 0.8395258 -0.10830574 -0.37147558 0.32398838 0.58712554 0.7678611 0.3857011 0.8524437 -0.8117154 0.02185331 0.6661229 0.14570925 0.042003375 0.5872017 0.51344734 -0.45182085 -0.7693166 0.60737795 -0.3198351 0.076701164 -0.76909006 -1.0323316 2.0231814 -0.19843838 0.4862925 0.020454591 -0.058049418 -0.151601
友 -0.94617677 -0.5805383 0.4026424 0.8935373 -0.51503706 0.027840115 -0.020246765 -0.39674962 -1.0036377 -0.4579872 -0.19577916 -0.458006 0.006915477 -0.5354027 -0.10310239 0.6688634 -0.35723874 0.3733623 -0.121593185 0.70299435 -0.15883766 0.11212695 0.38348848 -1.647629 -0.8772299 0.6543091 -1.2680103 -0.12359508 1.327346 -0.3345788 0.8373519 0.7961641 -0.020044906 -0.27365798 0.25725058 0.118079916 0.5912512 -0.07433363 0.5735226 -0.92112523 -0.8574304 -0.60883635 -0.44168517 -0.6134143 -0.08542879 -0.35232297 -0.109205894 0.7072619 0.009863628 0.47707576
成 0.13472047 0.5825004 0.56063956 -0.45534652 -0.21804602 -0.5830889 -0.2262518 -0.3597689 -0.1436448 -0.5727901 0.07463006 -0.20230925 -0.20473115 -0.32659796 -0.41870537 1.1854279 -0.121427946 0.47909716 0.2892608 -0.3465139 0.49666217 -0.026571572 0.8327308 -0.7394337 -0.4544059 -0.63012755 0.051783588 -0.110337675 0.06288404 0.115742095 0.5139999 0.1936825 0.6699687 -0.506021 -0.13706595 0.45404455 -0.6030862 0.41135418 0.075896464 0.50211203 0.4067902 -0.7487018 -0.5792538 -0.50423443 -1.2870293 -0.13940841 -0.4341862 0.27130592 0.26862097 0.27393535
远 0.75439155 -0.0061705755 0.09100229 1.4908826 0.39944413 -0.72619504 0.044212863 0.18038045 -0.12802686 0.019951316 0.7593082 -0.8455972 0.3305366 1.2963749 -0.41510853 0.30560774 0.077461414 1.3971363 0.3188572 0.7886277 0.352969 -0.24424979 -0.4614808 0.078677446 -0.030885901 0.61440945 0.33175308 -0.3456305 0.16515334 -0.47860307 0.21511473 0.40553737 0.17266437 1.1613141 -0.4730162 0.055600744 0.11059867 0.82350934 -0.4074541 -0.79053533 0.8745075 0.2174342 -0.3218635 -0.6405722 -0.07744453 0.07257719 -0.33738378 -0.40815544 0.4466221 -0.41431347
上 -0.13437358 0.23756844 0.48219097 -0.39554283 0.32895043 -0.42224163 0.22675279 0.9391128 -0.020202136 -0.62723476 -0.04850864 -0.40017885 0.9352761 0.94755244 -0.29851556 -0.03581149 0.4812104 0.63962525 0.7015649 -0.44291365 0.07407547 0.47247833 0.94611996 0.36910576 0.41959646 -0.8561862 -0.23483743 1.224865 0.03159685 0.25794375 -0.30517077 -0.07038658 0.14848611 0.277477 0.5066737 0.4007087 -1.4208949 -1.0154976 -1.1906422 0.40668225 0.18104805 -0.16183448 0.50345224 -1.1840197 -0.5671901 0.31916803 0.09498252 -0.6605927 -0.4385952 -0.98270935
立 -0.04222532 0.28963137 0.30820763 1.0009824 -0.45245788 -0.6019956 0.8543937 0.72106516 0.11578621 -0.3145856 -1.0898646 -0.9175998 0.82427806 0.3366186 -0.6463949 -0.032549277 0.31953362 0.74590385 0.3366548 0.22619174 0.6092647 0.1285218 -0.33676618 -0.0019884221 -0.25898573 -0.65456724 1.3853697 0.2949281 -0.12789468 -0.1994081 0.32099858 0.20437798 0.8198964 -0.6967303 -0.1153419 -0.112942144 0.35288775 0.11734724 -0.13560852 -0.23771235 -0.1400012 0.23842075 -0.3886999 -0.6391551 0.020862088 0.23803052 -1.1598856 0.15368608 0.4952959 -0.08676213
今 0.0061402274 0.4717285 0.09008509 0.22903429 -0.8020398 -0.88035005 -0.95094824 0.33669913 -0.76453996 -0.88102096 -0.99372715 -0.7003702 -0.5326164 -0.36058986 -0.016230838 -0.15271695 -0.1536934 0.09732985 -0.03468359 -0.4526323 0.2562048 0.63193023 -0.33821586 -0.4165658 -0.32213476 -0.36350942 0.50111276 -0.50234 1.9020281 -0.06399997 0.3664938 0.2744475 -0.6957615 -0.05267992 0.057262693 0.22206125 0.05208426 -0.6405644 -0.41867325 0.36854184 -0.33991715 0.113354996 0.056566887 -0.26541376 0.2596727 0.75114954 -0.08564554 0.34918496 -0.28536597 -0.39925104
张 0.68155676 -0.29767832 1.7841363 -0.3336663 0.6629554 0.8058756 0.30615252 -0.15999267 -1.8627306 -0.11979285 -0.7719961 -0.6406428 0.2720627 -0.087524444 -1.1188716 0.14528024 -1.5447044 -0.12586416 1.0748421 0.41229945 -0.14604427 -0.22943197 -0.20913143 -1.1691253 -0.2337092 0.8037784 0.3183354 0.29644868 0.22670335 0.3285409 0.9660067 -0.4571735 0.36125222 -0.33605242 -0.24772613 2.2076786 0.4005031 0.1413882 -0.268661 0.5918013 0.60233116 -0.66260564 -0.060878046 -0.9110419 -0.6130304 -0.6953528 -0.36122248 0.15392332 -0.677419 -0.048309416
中 1.0584297 0.61961293 -0.3881781 0.3111601 0.49676242 0.056170862 -1.0085446 0.29737347 0.029867131 -0.43012935 0.17286424 -0.61022407 -0.09443123 -0.013298158 -0.1841639 0.96633023 0.09969923 1.0495876 0.596953 0.71734655 -0.38930574 -0.1975256 0.9478062 0.09356543 0.7688901 -1.6011727 0.15894209 -0.58907133 0.6065748 -0.74167675 -0.80976176 0.9464145 0.17996442 -0.105606854 0.20065866 0.5191002 -0.5577664 0.45934674 0.38559753 -0.96715564 -0.16199742 -0.38166964 -0.6458077 0.8536315 -0.9114503 -0.042620007 -0.46068364 -0.4710354 0.58306503 -0.5565221
季 -0.63681763 0.4892708 -0.8031837 0.30813912 -0.5053511 0.28603408 -0.05588218 0.31040704 0.10185856 0.6559057 0.20516297 -0.55179 -0.58028084 0.40462887 -0.63004863 -0.035193745 -1.4742622 1.6950384 -0.4822456 0.48495412 -0.5867441 1.1262528 0.26165178 -0.7740807 -0.7419693 0.27518272 -0.35859403 0.57066786 0.17419441 -0.0915309 1.0384114 1.4693123 0.8816367 -0.2131109 0.021641329 0.7946814 -0.5205392 -0.6848376 -0.6384064 -0.13790928 -0.50963426 0.2896188 -0.023897476 -0.06514209 0.46648484 0.2491155 -0.73837245 0.64356196 0.034663107 -0.26679283
臣 0.63169837 0.35350737 0.7158739 -0.39647505 0.16515523 -0.93777966 0.56542516 0.24940073 0.0062630116 0.80491364 -0.12973072 -0.90228456 0.06589799 0.27472243 -0.29438376 0.42787984 0.43855572 0.5788429 0.37467954 1.1902688 0.8907776 -0.43366948 0.20917213 -0.46927378 -0.34705397 -0.82137185 -0.21222994 0.9841721 1.03172 0.43961966 -0.0021184313 0.50222635 1.0965918 1.1955197 1.0562686 0.19872212 -0.15246898 -0.85869956 -0.12909918 -0.396846 -0.05170471 0.055866905 0.25912485 -0.08799579 -0.30740204 0.67556983 -0.6077284 -0.3371711 1.0705838 -0.35932094
贤 0.8601279 -0.011027199 0.7497438 0.44635552 -0.8088634 0.4406566 0.5967787 0.20536922 -0.42065552 -0.24757409 -0.5862135 -0.42415637 -0.6700726 -0.48888457 -0.58556 0.788718 -0.34038845 0.730915 0.081628576 0.008328651 1.1142653 0.013294823 0.5479436 -0.6333113 -1.2738383 -0.6601363 0.49626067 0.45383662 -0.14019948 -0.9645243 0.5882517 0.07730063 0.1971207 0.62165517 -0.39964998 0.62746406 -0.12152134 0.033756137 -0.94081205 -0.42467755 -0.7694228 0.19260454 0.3970267 -0.42889354 0.731971 0.5629499 0.80625314 -0.027181102 0.34063733 -0.49019864
思 0.24224097 0.40799245 -0.65135854 0.14199692 0.15728897 0.356285 -0.488502 -0.3739065 -0.15172334 0.17597267 -0.8971278 -0.32502443 1.1104418 -0.32284853 0.81609076 0.02067039 -0.66025555 -0.54085225 0.9412693 0.43746513 0.042469244 -0.74774957 0.14577422 -0.90822935 -0.78136754 -0.2428401 -0.21690138 0.6864519 0.48133382 -0.16265249 0.506072 0.006250786 -0.048366092 0.37187994 0.16197416 0.5966575 0.17078082 0.009719057 -1.1272613 0.21724185 -0.23758893 -1.2018831 -0.76701814 0.67280036 -0.06825018 -0.16322617 0.008709974 0.7633645 -0.3130526 0.057158727
齐 -0.2689662 0.050609283 -0.49386844 -0.2072606 -0.28016704 -0.3133042 -0.27037966 0.1259686 0.68739104 0.54518104 -0.78023446 -0.37930337 -0.373319 1.1055685 0.007199353 0.6246422 -0.39803043 0.23277494 0.30564874 0.39556903 -0.010414324 0.38036877 1.362624 -0.36769572 1.0051881 0.29697236 0.029057506 -0.34151396 0.604439 -0.40550047 0.11081328 0.3419612 0.95264995 -0.58767736 0.3036231 0.2343792 -0.5688153 0.41229665 0.21884756 -0.6823145 0.70153004 0.12301051 -0.1806947 -0.35139364 1.5118636 0.3789045 0.23693617 0.30072728 -0.12291253 0.16553849
义 0.71803606 -0.11555051 0.06655779 0.15087174 -1.4621034 -0.8067372 -0.7627289 0.056433223 -0.5577703 -1.0085344 -0.96963316 -0.4694167 -0.08771875 0.28025657 -1.1792904 -0.0012728057 0.20028284 0.86534274 0.90966904 -1.9017389 0.24012694 -0.5842891 0.36410943 -1.2128848 0.37143898 -0.4748092 -0.36192998 -0.32666272 0.4202379 0.22259481 0.6167258 0.08439579 1.3881408 -0.65825677 0.13464142 0.1468092 0.09729536 -0.049486946 -0.16694893 -0.41999328 -0.64004064 -0.6413288 -0.6411742 -0.44491127 -0.42161882 0.3225733 -0.48744065 -0.6584126 -0.30900395 -0.89639294
正 -1.1787337 0.37012345 -0.42481723 1.5706321 1.2622982 0.1348269 -0.13441566 -0.42548186 -0.35886943 -0.12638324 -0.9076909 -0.47156188 0.056170277 -0.12150733 0.0550633 -0.2751023 0.12703782 0.29405567 0.52428645 -0.3308644 -0.48873746 -0.04448252 0.5663493 0.26904884 0.67762446 -1.2124746 -0.14409304 -1.13251 0.008568032 -0.074554265 1.2872772 0.52315116 -0.36224225 -0.5773432 -0.17310174 -0.057700943 -0.70425063 0.0706885 -0.9747045 0.33151788 0.75987536 -0.20285423 -0.5830019 -0.8167498 0.91201556 0.4373289 -0.5058182 -0.5235731 0.63494104 0.06329221
命 0.17454411 0.8906101 0.45786512 -0.3431681 0.34369725 -0.21270135 -0.45369488 0.16640946 1.2794157 0.014784293 -0.20560083 -1.644803 -0.26242018 -0.24942318 0.9445355 0.5147053 -0.22792721 0.5896555 0.45148134 -0.3244261 -0.43030035 -0.36073792 -0.40871495 -0.52034426 -0.51025516 -0.5491722 -0.5679371 -0.9999093 1.0648868 -0.23580562 0.31496873 0.51523674 0.7544184 0.20530002 0.22085474 0.3310702 0.48027214 0.34306446 -0.4409967 0.11213339 0.6859915 0.73092633 1.1280336 -1.2061001 -0.30670503 -0.18591864 0.5742039 -0.09742873 0.098780625 -0.18877935
曾 -0.25348344 0.48957497 0.85211015 0.11803299 -1.4477059 -0.77892613 0.6147868 0.8103009 -0.10359376 1.3025868 -0.3703978 -1.0593232 0.23941074 0.073672965 -0.93306345 -0.74724525 -0.56672776 0.60223633 -0.41496155 -0.35185382 0.015287262 1.7890205 0.1291782 -0.06463985 -0.78150773 -0.7909669 0.6837338 0.72716194 -0.32673627 0.5082089 0.47279072 1.2028751 0.2550695 -0.3088156 0.022445925 1.4844095 0.47967064 -0.7314728 -0.4875831 -0.39692533 0.1909869 -0.43898812 0.25969782 -0.18632953 0.036730897 0.35988712 0.6050825 -0.07637532 -0.44397327 -1.448401
伯 -1.1970125 0.8417163 -0.76175725 0.08301194 0.66809744 -0.8597546 -0.09237291 -0.09272801 -0.40648967 0.33888865 -0.19919111 -0.5148898 1.0219721 0.41710556 -0.5427719 0.10336554 -1.2525936 1.1071037 0.089945614 0.8314414 -1.082078 1.1018534 0.46906444 0.3300788 -0.5225118 0.6095652 0.64237976 -0.66430503 -0.05202189 -0.4078744 0.041127946 0.84145004 0.2895541 -0.27303228 0.11374998 1.3194549 -0.16563615 -0.45384088 -0.21854937 0.9455311 -0.122821316 0.6956521 -0.4377173 -0.80591935 0.35181436 0.059425917 -0.09863869 0.6005353 0.6500729 -0.05381805
门 0.21152584 -0.04970321 -0.16226701 -0.24417031 -0.5150683 -0.34776995 0.34688443 0.32311887 -0.29742774 -1.1695259 -0.21558264 -1.0118153 -0.49066254 1.5240015 -0.4173833 1.8845047 -0.11888417 0.789497 -0.26665878 1.0036097 -0.12053235 1.0239495 -0.6414896 -0.44048956 0.4843542 -0.7724521 -0.33312568 0.1469458 0.7472022 0.3368285 0.23010695 -0.07486444 0.22071311 -0.1791726 -0.010747734 0.1270209 0.40587637 1.181609 -0.2462526 0.79385316 0.36688596 -0.44320565 0.18892047 -0.33158147 0.5226064 -0.19454804 -0.24234396 -0.6384212 -0.4235148 0.46241465
敢 0.4395361 0.7197311 0.3975972 0.4750066 -0.07368544 0.31667283 0.25033802 0.4923435 -1.0371797 -0.32521272 0.45234224 0.123649344 -0.33730447 0.69436413 0.24823977 -0.72246236 0.64934045 0.37490946 0.65276545 0.06547249 -0.23859918 -0.25700748 0.48142305 -1.6205425 -0.42523503 0.24001937 -0.6360936 -0.3194421 0.7126603 -1.1208223 0.7025117 1.0357966 0.14973128 -0.21358392 1.3038211 0.81379414 -0.16916247 1.5421766 -0.04820427 -0.76681596 -0.52345395 -0.3510187 -0.34086233 -0.5469667 1.567192 -0.8560161 0.27031532 -0.33773106 -0.862862 0.3665321
犹 0.41730574 0.37682647 -0.34215173 0.7598391 -1.0199393 0.057676364 -0.3297253 0.24765386 -0.28866702 -0.12444234 -0.64177066 -0.8338198 -0.5355395 -1.3768613 0.32404253 0.64857966 1.2197789 0.7269911 0.22758542 0.11266594 0.50771195 -0.13879645 -0.024720917 -0.60852605 -0.18275268 0.23188326 -0.70906335 -0.40410018 0.5228091 0.07286922 0.4749372 0.088325195 0.44840717 0.42111915 -1.156902 0.34375262 -0.2914557 -0.09399076 -0.5190355 0.32336405 0.17642729 -0.5174739 -1.6514094 0.21790726 0.32953078 -0.6282618 0.2211192 0.054814916 0.12820356 -0.56116694
生 0.01009066 0.46753502 0.92942244 0.05904619 -0.9145408 -0.42302752 0.48115492 0.42378774 -0.55367225 -0.97884995 -0.025007071 0.032771233 0.79922897 -0.6217852 0.16015264 0.8138364 0.22099403 1.0843645 -0.01741407 0.5239305 -1.0200888 -0.27208745 0.44102055 0.12779193 0.760278 -0.36302972 -0.28083053 -1.2280215 0.40626645 0.8250515 0.28657144 0.14609988 0.27290404 0.35036466 -0.41297182 1.0731117 0.5040798 -0.50612736 -0.6312369 -0.19769308 1.0867529 -0.019910023 0.5064041 -0.4558761 0.24030983 -0.6254494 -0.2795598 -0.56462306 -0.056855686 0.5914925
日 -0.63594836 0.6377192 0.32769334 0.7932088 -0.4812455 0.64901984 -0.6911353 0.3818756 -0.787505 0.485736 -0.15828238 -0.21901713 -0.5991968 -0.08745675 0.09694277 -0.34674108 -0.07826226 -1.442068 0.5240806 -0.1551081 -0.76963943 0.10952693 -0.3197426 -0.4369551 -0.44924602 0.039417204 -0.52645844 -0.72442687 0.87071043 0.50611115 0.138559 -0.046849027 -0.035284586 -1.8226851 -0.33538887 0.54308295 -0.83977276 -0.9886685 -0.024818975 -1.1460979 0.2246597 0.19267198 0.30684683 -0.15439245 0.8763393 1.3974488 0.36179549 -0.5394989 -0.11905028 0.8772773
敬 -0.2058928 0.50920403 0.30890337 -0.011961226 -0.42768177 -0.24336381 -0.1259517 0.13752368 -0.64156526 0.39827293 -1.1781517 -0.48516116 -0.2937452 0.7901798 0.1259235 0.54618144 -1.2370298 0.33029872 0.66015184 -0.12740843 0.40098616 0.12801957 0.9781442 -0.28366098 -0.043793343 0.34190184 0.26071936 0.016131511 0.80937475 1.1591964 0.40960404 0.36044842 0.66937864 -0.6079269 -0.1888541 0.104282565 0.027643003 0.32898226 -0.551535 -0.028204042 0.70186853 0.3527184 0.1939735 1.1652399 -0.2271337 -0.17487983 -1.5177828 -0.6658192 -0.121330366 -0.25304782
难 0.3885355 -0.04682491 1.0164845 0.5478023 0.4750176 -0.21180303 -0.22020662 0.37606558 0.50351495 -0.5465257 0.3518255 -1.4254816 -0.19391531 -0.39645937 0.047086887 1.1803558 -1.6707696 0.7934007 0.53956807 0.6466599 0.44499913 -0.23661745 0.1807732 -0.6859095 -0.1169591 0.027175477 0.12211904 0.7150013 0.54893315 1.1401875 -0.53686166 -0.2784486 0.97749543 0.82776093 -0.5752455 -0.12436728 -0.09767051 -0.43264672 -1.1248838 0.40549603 -0.025698213 0.35917035 0.43511614 -0.24892236 -1.2218715 1.5685786 0.15520397 0.041102033 -0.48218647 -0.38416266
直 0.45023817 -0.20287919 0.7165155 0.37605342 0.100175545 0.0960641 -0.4958883 0.33384782 -0.17484947 -0.98806244 -0.54972166 -0.11452641 -0.40905455 -0.50567335 -0.32295126 1.1004728 0.4694946 0.46545488 0.7179257 -0.6720307 -0.2460579 -0.03259122 0.43927032 0.46312645 -1.1600122 0.0051581482 0.6382693 0.75203127 1.0096439 -0.22549118 0.24609496 0.73712134 0.7057566 0.55800027 0.8912961 0.16979323 0.48867536 -0.33887872 -0.629046 0.21005659 -0.19564262 -1.1480224 -0.29611024 -0.43841767 0.14993234 0.35512018 0.06872011 -0.45211208 -0.43517178 1.1468401
丧 -0.24338385 1.5013614 0.51533765 0.0310297 0.54793143 -0.68792605 -0.06860341 1.2901199 -0.020434171 -0.96696913 -0.93881017 -0.54796195 -0.11352658 0.2762386 -0.53797424 0.43287373 0.38103756 0.07568839 0.19548036 0.78374225 0.9219198 0.42895097 0.2859394 0.34866098 -1.5606788 0.7102793 -0.18868634 -0.6021285 -0.0983101 -0.26587656 0.5584842 0.7319859 0.3344432 6.9603746e-05 1.0517191 -0.030397385 0.32746437 0.5424629 0.07715941 -0.2963597 -0.10683017 -0.038964175 0.1757377 -0.31139898 -0.93379045 0.6842345 -0.48110858 0.1859034 -0.9960541 0.012620708
说 -0.40504438 -0.23547275 0.32390073 0.40621766 -0.19314958 -0.22375642 -0.53480005 -0.18983302 -0.52367514 -0.034470156 -0.8294893 -1.2460039 0.030137356 -0.342782 -1.0037748 0.35291752 -0.15260378 -0.4102946 0.6208433 -0.40026566 0.54407847 -0.59558576 0.50376225 -1.3775964 0.26669517 0.3597928 0.002211252 1.0896623 0.34369075 0.225854 -0.64807105 1.3164082 -0.18237771 0.9797057 -0.6555638 0.2158196 -0.09427212 0.7643174 -1.1368618 -0.41156015 0.26013744 0.35730115 -0.026659263 -0.1948603 0.22896829 0.14979494 -0.54996294 -1.005536 0.4815558 0.34786972
自 0.5805573 0.8108382 0.43690565 0.37035006 0.79086345 -0.49827582 -0.93263835 -0.1264724 -0.07808358 -0.6121559 0.58343315 -1.0362054 -0.44975194 -0.7165543 -0.071508326 1.5329899 0.07656831 -0.29222038 0.043072496 -0.53669876 0.22288957 0.054710362 -0.16201867 0.21603905 -0.27230814 0.456048 -0.6836791 0.3057401 0.0108045945 -0.10376373 -1.0367992 0.2472918 -0.22471909 -1.311735 0.5789041 0.92128044 0.4642241 -0.003652741 -0.55969137 0.39989826 0.28220305 -0.8546072 0.027731543 0.122577064 0.1003338 -0.048131958 0.1209068 1.0490295 0.079659924 -0.862123
用 -0.27274263 0.73047084 -0.38462967 0.86755687 -0.13769944 1.1313084 0.024109432 -0.30795228 -0.11078929 0.09594449 -0.11763753 -0.2580356 -0.21001051 0.9069226 -1.0441543 0.44276717 0.37965074 -0.19405158 1.1249382 -0.7868598 0.4832925 0.5886995 0.23037557 0.8198457 -0.7723463 -0.86082727 0.74584323 -0.04048983 1.6351202 -1.0829335 0.29592636 -0.07287968 -0.44358355 -0.15791798 0.64107805 0.42959812 0.105344586 0.7728059 0.46958393 -0.0043001557 0.16911371 0.0018846652 0.4689411 -1.4272698 0.34913605 0.3905742 0.03850635 -0.8808201 -0.039887402 0.9234233
周 -0.40246758 -0.15253736 0.25573936 0.102175124 -0.17977235 0.07676483 -0.544365 0.7336698 -0.14719328 -0.4824789 -0.4147879 -0.25929177 -0.1480898 -0.67377406 -0.58224016 0.3934833 0.029308481 -0.37689304 0.87852955 -0.07055937 -0.0052829827 -0.57789373 1.2904922 0.03657421 -0.74054873 -0.18971695 -0.13431431 -0.11247131 -0.33492118 -0.012716959 0.447733 1.00333 0.118949495 -0.23667406 -0.29650897 0.85433066 -1.1393915 -0.13156211 -0.8248946 0.3599348 0.7636328 0.7739974 0.63082236 0.15590173 0.1528486 -0.37604135 1.0379878 0.8809986 0.17409933 -0.12100118
颜 -1.0018477 0.42810482 -0.1646361 -0.12927777 -0.7077797 -0.30887347 0.27645552 0.6353837 0.6543204 1.4388072 -0.92179173 -1.0208887 -0.56071997 -0.5528229 -1.660994 0.02530575 -0.49665 0.63768053 -0.697476 0.2989051 0.54591995 0.8855339 -0.12555094 -0.20988087 -0.19895422 -0.30362853 -0.29945487 1.177013 0.4833603 -0.5297571 0.46189854 0.26062644 0.007736406 -1.4091942 0.36451995 1.1102121 0.081156015 0.47420123 -0.1375736 -0.012379105 0.35861918 -0.18264338 -0.4558835 -0.18037742 0.9836863 0.9590915 0.86491406 1.5690552 0.3043046 -0.56994456
年 -0.08019987 0.7685199 0.76256657 -0.53007597 -0.94984233 -0.81046766 -0.31998825 -0.37406525 -0.011696919 0.38002193 -0.37675935 -0.32031405 -0.18675938 0.43986958 -0.012388353 1.3606868 0.015763167 0.29364577 0.5480904 0.7143981 -1.2671881 -0.91008353 -0.42779034 -0.5597253 -1.1727564 0.5114777 -0.03688903 0.55528307 1.2487266 -0.57844377 0.0521739 0.60286885 -0.43393555 -0.90939456 -0.57080317 1.1134675 -0.5038779 0.09657693 0.6648198 -0.788591 0.31705043 -0.24009517 -0.4842921 0.2803055 0.3266781 0.5910351 -0.043762382 -0.11170527 0.039524987 -0.8207825
告 -0.31840792 0.11650115 0.2577316 -0.18623176 0.053737447 -0.088942274 -1.1571041 -0.03681672 -0.17434883 -0.20884812 0.22054501 0.024099583 -0.018217348 1.1077396 -0.5964603 0.0076427497 -0.13746004 -0.10037221 1.0995239 -0.14378756 0.5320329 0.108491145 0.5082691 -1.8620855 -0.80885416 0.13374454 -0.8387505 0.26232508 0.32741058 0.80150235 1.1788238 1.168813 0.37790924 0.18383582 -0.379884 0.9108514 0.39130375 -0.008034242 -0.032854024 -0.19304605 -0.10757569 0.39967775 -0.47480857 -1.2271966 -0.5879246 0.084791474 -0.32553875 0.04014279 -0.05895377 0.045183867
十 -0.1135011 1.7635415 0.383431 0.45474604 0.69161797 -0.48304284 0.920066 -0.31168097 -0.44349143 -0.6629551 0.37156683 -0.08416184 -0.41328326 0.7239879 -0.1886928 -0.3623429 -0.26215833 1.018131 0.6781692 1.9708321 -0.9897646 -0.2096351 -0.39302728 0.0732124 -0.636878 -0.9320039 -0.2611067 1.3596319 1.3941641 -0.539595 -0.26892427 -0.6548145 0.82874423 -0.26055992 0.59745556 0.82856244 -0.24843064 -0.98236334 1.0064572 0.32329902 0.42116255 0.3056017 0.17382877 -0.4295346 -1.3714917 0.12258496 -0.29964098 0.4071718 -0.19708933 -0.32336476
怨 0.09220687 0.5049394 0.9946436 1.0303181 -0.04259948 -0.059268225 -0.351594 1.114017 0.29237187 0.47865537 -0.22566596 -0.44740185 0.24910495 -0.35864788 0.04600219 -0.065292 -1.032998 0.9508713 0.23334952 0.37522587 0.29170883 -0.3105143 1.3802648 -0.104796305 -0.8389889 -0.4964921 -0.25001395 1.0418975 -0.45906457 -0.83679813 0.5855889 -0.06575728 -0.0015164745 -0.18294969 -0.13051589 -0.25017655 0.013402371 -0.59614056 -0.39319336 -0.53662175 0.463953 0.03890846 -0.41559923 -0.44077587 0.32299846 0.8823906 0.0362386 -0.042470057 -0.45808277 0.08167312
达 -0.6497551 0.32044306 0.07566259 1.0480293 -0.0844328 -0.59066397 -0.5580337 1.6456178 -0.3891817 0.4362704 0.365927 -0.061330277 0.12962677 0.11399823 -0.30319244 -0.53226745 0.06537053 -0.16376 -0.58704305 0.31461814 0.2444367 0.33990642 0.34363607 -0.5260575 -0.06562547 -0.8498671 0.6329946 0.71454 0.9263031 0.3735498 -0.072025634 0.7711916 1.1928114 0.6086436 -0.24105081 0.10261299 -0.14059442 0.09334073 -1.0663425 0.42379323 0.3575097 -0.75574684 -0.33154255 -0.3059841 -0.1309898 0.57356226 0.04642984 -0.23911123 0.6389188 0.5055758
孝 0.2554415 -0.22380356 -0.21361803 0.083349876 0.09044527 -0.53321517 -0.014923844 1.9179046 -0.613245 0.0017295154 -0.45661005 -0.6535699 0.8286645 -0.30084926 -1.0031877 1.5656347 0.013548348 0.4043432 0.06283496 0.22238179 -0.40597928 1.2837828 -0.256265 -0.61715937 -1.2487472 -0.123769715 0.838554 -0.18380362 0.095149584 -0.037487164 0.48932636 0.16350353 -0.40484148 -0.17935324 0.004222927 0.4060646 0.30263376 0.8770549 -0.078667425 -0.51459455 -0.73943305 -0.7102264 0.28412232 -0.8297665 0.47833592 -0.38516477 -0.0875961 -0.24618073 -0.07448875 -0.24293388
弟 0.4107956 0.043659993 -0.5292514 0.8247192 1.3755882 0.2669574 0.5770647 0.5241012 0.6175324 0.53934914 -0.7687413 0.3390707 -0.40635666 -0.317869 -0.9564415 -0.17463715 -0.5560457 -0.61999834 0.66631943 -0.03173424 -0.6617888 1.0040945 1.1580658 0.4759724 -0.46478042 -0.50964385 0.52510893 -1.3348045 0.32934582 0.8013608 1.2767453 2.3982642 0.18391153 -0.39769578 0.4572497 2.157998 -0.18304574 -0.038999427 0.5040333 0.24208441 0.05411249 0.24837866 0.3207086 0.23565917 0.92052335 -0.54736364 -0.3122251 -1.2115047 -0.05906273 0.524957
至 0.008879921 0.024564903 -1.4218552 0.5464309 -1.2388924 0.7966654 -0.5317515 0.5598835 -0.88329643 1.9572301 0.47344366 0.18907821 0.063295655 0.94576204 -0.11248863 0.36282358 0.22359814 0.67704815 0.18400279 -0.18200167 0.10031262 -0.830194 0.15001361 -0.71424073 -0.54662013 -0.45060846 0.8023081 -0.2002463 0.53675854 0.09440115 0.38244593 1.8378309 -0.46979567 -0.684075 0.14928529 1.0804704 0.06708295 1.1401356 0.39361927 -0.75141543 0.82873565 0.25597706 -0.11732404 -0.60222954 -1.16137 0.5802541 0.59072995 -0.16339515 0.28049296 0.9652958
先 0.53439933 -0.623365 -0.09472325 -0.4382624 -0.58991706 -0.11497875 -0.6981566 0.19198821 0.57683367 0.9251969 0.24692935 -0.64627403 -0.306769 -0.44666994 -0.36765072 -0.24429345 0.37227672 0.20939933 0.015022305 0.73824155 0.24899769 1.2280148 0.77638793 0.20952575 -0.11287862 0.24530898 0.25735974 0.6127317 0.6012108 0.029422589 0.25729507 -0.24394582 -0.013996351 -0.63237923 1.5071678 0.6139563 -0.02620868 0.88782144 -1.1096774 -0.47093618 -0.41846037 0.17329176 -0.5408238 0.7685422 0.36050043 0.31101942 -0.3592057 0.17752391 -0.54441047 -0.7314406
师 0.21588585 0.35657254 -0.8862878 0.5135599 -0.57167053 0.06536288 -0.27891606 1.765008 0.3801405 0.9599422 -0.25126645 -0.5881136 0.26892558 -0.045896765 0.95499957 0.20229882 0.30024174 -0.3636595 0.90984756 0.23065643 0.035956394 0.6505809 1.1808368 -1.0122267 0.4295964 -0.81328154 2.1744146 -0.5185565 0.26987442 -1.6406769 0.7632195 1.2333994 -0.84660184 -0.5763369 0.25442302 0.34534308 -0.764924 -0.27042666 0.20770134 0.35405338 -0.20168044 0.92185706 0.16902858 0.06350983 -0.02864262 -0.453235 -0.2581901 0.12469553 -0.16064231 0.28034505
女 -0.5246792 0.71149296 -0.5876368 0.85028917 0.25309503 0.1758882 0.26550224 0.88876617 0.5373727 -0.31233084 0.01640294 -0.0023391584 -0.6397902 -0.55553526 0.06658607 -0.8202415 -0.49368623 0.4879289 0.5135075 0.43691918 -1.4972587 0.043103404 -0.5100278 -1.4939623 0.4807388 -0.49807322 0.116758935 0.20276411 -0.7610017 -1.0804129 0.13039725 0.6083521 1.3890822 -0.04816761 0.8624014 1.0610161 -1.0608417 -0.8732149 0.28087902 -0.29188243 -0.31715128 0.35974407 -0.16807719 0.1646371 0.5853818 0.3469584 -0.7803675 -0.6099815 0.3473535 -0.25516972
多 -0.14569268 -0.15381302 -0.11087076 0.7828377 -0.09815468 0.8263554 -1.0250956 0.17683281 -1.141498 -0.06810789 -0.8159495 -0.08056736 0.2701292 0.5852143 -0.034540854 -0.01835624 -0.75729054 1.2185339 1.1654825 -0.050447367 -0.17475995 -0.26216468 -1.3429979 -1.045767 0.3623452 -0.29654267 -0.76837444 -0.46346244 0.007200452 0.08036553 0.2999791 0.20451893 0.6891344 0.28140214 1.0980921 0.5029388 -0.06836503 -0.06327011 -0.50563735 0.25480926 -0.3500725 0.57346493 -1.9118105 0.10666718 -0.46846342 0.17232871 0.8473095 0.07174525 0.19029039 0.096461676
忠 0.1241783 -0.4387276 -0.02386756 0.107454956 -0.06992989 -0.47974554 -0.0021488748 0.47661775 -0.35319635 0.32393816 0.08914458 -0.0014846221 -0.58403903 0.8032453 -1.4801991 1.0985525 0.04607143 2.0170786 1.075104 0.964361 -0.30604067 0.26992235 0.46294886 -0.7871189 -1.1916739 0.007648042 -0.5001001 1.1834296 0.16771425 0.44842404 0.3438495 0.6508872 -0.7083877 -0.23234318 0.051888444 0.5083071 -0.48063123 0.44911623 0.6900045 -0.269516 -0.687755 -0.7427656 -0.43527475 0.04022175 0.12442808 -0.09889153 -0.43048814 0.20399727 0.11975218 0.48203486
四 0.96171045 0.4945823 -0.8386808 0.71553624 0.19378254 -0.3651324 -0.8977265 1.0045925 0.6489963 0.16599202 0.1769013 -0.37655008 0.029833693 1.1657531 -0.6887326 -0.1200226 0.042534657 1.4843056 -0.030919744 0.2761193 0.60321033 -0.15480357 -0.744348 0.7663664 -0.48845437 -0.046132382 -0.7389773 -0.13177569 1.0633794 -1.4484419 -0.049478892 1.0403019 -0.06495613 -0.44166967 -0.27226648 1.2798408 0.7212246 0.4314898 0.20796871 -0.5108959 0.5687994 0.48248094 -0.4647237 -0.0729695 -1.1363249 -0.86429685 -0.1333273 -0.80739367 -0.06091108 -0.061994273
疾 0.27275866 -0.013018359 0.3492791 0.63404965 -0.37560934 0.124517545 -0.4895474 -0.8312971 -0.19579759 0.38482967 -0.87736577 -0.95521975 0.66380024 0.94984746 -0.8717186 -0.4092181 0.3258568 -0.2990449 0.022602811 0.58859986 -0.89608353 -0.3850661 0.2713045 0.49852818 0.227803 -0.38021994 0.19500498 0.18504961 0.5118287 0.7511778 0.11272609 0.9100097 -1.1304902 -0.87454855 0.27262738 0.2811883 0.3645749 0.16009174 -0.058674075 -0.41516992 0.40678114 -0.012366832 -0.9328084 -0.05931597 -0.5750029 0.020830996 -2.037783 0.5941131 0.28469273 -0.70100427
服 -0.8683639 -0.24146362 0.12072116 0.61020255 -0.14243571 -0.044811096 -0.48956835 -0.33648404 0.117195405 -0.2861489 -1.5027744 -0.55103177 -0.27933496 0.989564 0.0947034 -0.0503702 -0.3587014 -0.63178784 0.5575317 0.31423974 0.58011764 0.14656116 0.805389 -0.47939095 -0.921635 0.67317796 -1.213048 1.3005204 0.10490571 0.76932544 -0.46653047 -0.1094699 0.5134439 -1.8723317 0.20124562 0.45785376 -0.059107535 -0.0066408683 0.08421057 -0.41966125 0.29992804 -0.04432399 -0.36378384 0.41746897 -1.1281508 -0.43165526 -1.334435 -0.8225938 -0.4014793 -0.06331123
氏 -0.2933301 0.9461721 0.926091 0.1765955 0.21673492 -0.84516287 0.17881253 -0.41532487 -0.20250492 0.11107622 0.44049093 -0.47709352 -1.035875 -0.24394883 0.94029367 0.35847023 -0.41775414 0.9785638 0.46407393 1.862657 0.34996068 0.07421505 -0.1757425 -0.28415728 -1.457526 0.12491497 0.6626134 0.6631014 0.28452015 0.15455522 -0.2755241 1.3653604 0.17663151 0.19400445 -0.617158 0.9169733 -0.38177025 0.16247554 -0.768841 0.5989392 0.019607386 0.7218444 -0.08202321 0.09560788 0.26301676 -0.6153013 0.049925763 0.747365 0.8620947 0.5470516
冉 0.7103965 0.625794 0.9495755 0.26516774 -0.814174 -0.5156316 0.46123224 0.59267837 -0.17220324 0.15704034 -0.84468037 -0.28082308 -0.005915138 -0.78399706 -1.3650273 -0.34781453 0.19665559 0.8346848 -0.12149298 0.32979015 -0.19749276 1.3698162 0.036734764 0.9686525 -0.747408 0.22512887 0.52687675 0.6476558 -0.05004924 1.1427615 1.4502511 0.84756505 0.61435 -0.72900337 0.18032555 1.0963702 0.4586941 0.91000175 -0.867315 0.7897382 0.94135404 0.0949985 0.28770098 0.16779736 0.9781273 0.20366007 -0.42798147 0.45258027 1.0022819 0.4685788
将 1.3210195 0.18293981 0.1021605 -0.03705937 -0.7558376 0.34271643 -0.9362465 -0.024379293 -0.29823947 -0.087011196 -0.18770012 -0.67648035 -1.2800412 0.17334642 -0.13109112 1.7467841 -0.03680792 0.42062488 0.8607593 -0.34519893 -1.3095123 -0.5419078 -0.0054987716 -0.6455487 -0.044235636 0.496917 1.0823987 0.009312139 0.080417566 -0.1790885 -0.35281298 0.16092229 -0.55021465 -0.2656772 0.2059274 0.8685199 0.19030054 0.16715348 -0.12421387 0.2410043 -0.6974126 -0.67593527 1.272406 0.31378478 0.34024486 -0.7136011 -0.6046096 0.57399535 -0.13859798 -1.1682283
士 1.0125176 0.07258132 0.5517098 0.18319613 -0.85267967 -0.35071754 0.577499 -0.70663816 0.27813563 0.3803881 -0.32445064 -0.16972128 -0.49514908 0.3331101 0.5934578 0.70683676 0.3736957 1.8450619 0.27502254 1.3739825 -0.45150635 -0.102748 0.15636383 0.0018278172 0.98628795 -1.1177646 0.47352904 -0.4881549 -0.013351688 0.22817956 0.4619948 0.5271345 -0.26758105 0.29430014 1.0045757 0.86033404 -0.36966956 1.1531366 -1.0493861 -1.6048523 0.6302714 -0.4671911 -0.7812998 0.136354 -0.27922365 0.47445932 0.75878936 0.36737782 -0.8730417 -0.018013978
丘 0.49208784 0.11692973 0.8688269 -0.1448558 -1.6923814 -0.4590607 -0.44035608 0.5179008 0.34193924 0.45156512 -0.104121566 -0.27512985 -0.23915483 0.74044603 1.0947882 0.23244613 0.72240895 -0.75515395 0.37916073 -0.60280925 -0.2971981 0.98101425 0.6101774 -0.15689583 -1.7727709 0.75932 0.4718818 0.07180264 0.95660865 -0.45361638 0.3343596 0.2205444 0.51854444 -0.77604717 0.13808367 0.7268694 -0.18807402 0.6428508 -1.3048141 -0.40891987 0.02948975 0.14046738 -0.33473405 -1.0023236 0.15650964 1.1296128 -0.15206254 -0.7655842 -1.5384548 -1.1787175
身 0.87387735 1.7237748 -0.56717795 -0.29302934 0.27604645 0.76152945 -0.19224639 1.0617106 0.69979215 -0.7123429 -0.2994592 -0.57827127 1.4548997 -1.0302868 0.27469173 1.3390925 -0.36677313 0.38423145 0.28387007 -0.46971467 -0.2139244 -0.27800372 0.37711936 -0.54383546 -0.5093291 -1.151578 -1.462468 -0.9092517 0.6678137 0.28380963 0.35887495 -0.24176016 0.95866835 -0.22011389 0.9972983 0.16419588 0.2334767 1.0137414 0.4080799 -1.2304926 0.6894099 -0.25810713 -0.67378265 -0.015461409 -0.10957848 -0.04403071 -0.18982747 0.9564206 -0.05631945 0.13907188
入 0.034072917 0.7928301 -0.12311851 0.414929 -0.4836859 0.41472328 0.7201179 0.29690233 -0.7365928 0.47842914 -1.466907 -0.5253318 0.7711613 0.21491261 -1.2384115 -0.0779911 -0.4992287 -0.96573734 0.08353097 -0.57073575 -1.1809793 0.21756706 0.2572701 -1.0101258 0.29468673 -0.6691055 1.0751868 -0.14564414 0.013121363 -0.098285705 0.25203672 1.2693678 0.56371427 -1.0778245 -0.6202136 0.7581647 -0.8447725 1.2506143 -0.7897698 0.30648232 0.402591 -0.047942843 0.91170627 0.17718203 -0.7893239 -0.3826489 0.9162766 -0.008728622 -0.046005137 0.03609561
志 -0.5216902 0.3827541 0.6547589 0.66134644 -0.7625728 -0.3676921 -0.2472096 0.26509035 -0.75062853 -0.84931296 -0.5937043 -0.6685315 0.7379687 -0.074262954 -0.18480124 -0.49088594 -0.3432207 -0.052313957 0.038981367 -0.5746557 0.09967168 1.0486283 0.46468532 -0.067953356 -0.55187005 -0.9034663 -1.5468999 -0.83615816 1.1227562 -1.1410916 0.8888114 1.3000478 -0.6380916 0.43758118 0.1058775 0.17760043 0.42486748 -0.54621667 -0.27083004 -1.7186462 0.93892306 0.94103247 -0.12530273 -0.114888266 0.024998857 -0.53029364 -0.18502869 0.024008036 -0.6668637 -0.20668991
耻 -0.12898986 -0.13441055 1.867266 0.47635108 0.66168183 0.24436925 -1.1008542 -0.17197517 -0.15800911 0.31715208 0.17734796 -0.925896 -0.89012784 0.47334686 0.058193643 0.3404067 -0.256585 -0.77538127 0.7807442 -1.1945661 -0.42470774 -1.0795441 0.17458239 0.7718631 -0.7356292 -0.78173757 0.24829713 0.9754935 0.36116043 -1.1432574 0.35541 1.0263067 0.16735035 0.010674366 0.65233797 0.27128986 0.12835464 -0.19276813 -0.8728877 -0.2146417 0.5721455 0.14496413 -0.9076771 -0.33273005 -0.14648134 -0.5472539 -0.13831733 -0.2839806 -0.33141345 -0.9455649
失 0.15735207 -0.46543336 -0.0030411805 2.149392 0.14351307 0.000696911 -0.42024818 0.09541506 -0.20819204 0.26995817 0.5774367 -1.1092126 -0.28495976 0.9906644 0.25336576 -0.1000034 0.38406944 0.4766824 0.7647139 -0.15287395 -0.44547117 -0.8473081 1.0181125 -0.38049886 1.6981395 -1.6089348 0.13847522 0.69067866 1.084328 -0.17175187 1.2061434 0.6257089 -0.34050602 0.5103382 -0.12102919 0.23411182 0.43553495 0.42998478 -0.038610734 -0.14851165 1.0937045 0.23573743 -1.335656 0.4752107 0.08490325 0.4693908 -1.0323921 0.74209046 0.48208016 -0.02165906
安 0.97437495 -0.47011968 -0.12201863 1.0089263 -0.42972496 0.45721403 -0.14158487 0.3267754 0.48147133 -0.4274626 -0.75073826 -0.36557502 -0.36667505 -0.8560169 -0.17703578 0.9218627 0.5580944 0.44238842 0.84422374 0.97789097 0.1561251 -0.6138978 -0.34848878 -0.76889205 0.19376045 -0.14230035 0.33261767 0.99271613 0.056557037 0.046881266 0.035132296 0.3424597 -0.41808334 -1.2065494 -0.24385567 0.17938739 -0.4786824 0.95030874 0.0098471735 -0.9958458 -0.7235022 -0.27074066 0.5556219 -0.20525753 0.32899708 0.51769876 -0.16754693 -0.04154324 -0.2847428 -0.065382436
富 0.0007794592 0.77032137 0.41374028 0.06856003 0.2275018 -0.08003133 -1.3123847 0.22730383 0.91583574 0.13888982 0.2847416 -0.5116854 -1.0285231 0.93601173 -0.751866 0.5582689 -1.0222938 0.8604181 0.9236056 -0.050675042 -0.17724767 -0.54847264 0.8737999 -0.13373516 -1.0991234 -0.08975009 1.3519703 0.76125133 -0.2910766 -0.8130118 0.26688805 0.55125475 0.30461624 -0.21666822 -0.28122538 -0.02279814 -0.9496264 -1.0219625 -0.9673891 -1.6320894 0.747983 0.16883247 -0.036093134 -0.9224803 -1.1026344 0.32488135 0.7321503 0.73155344 0.18804364 -0.7016457
赐 -1.2903506 0.49413028 -0.1151288 -0.019896662 0.63454086 -0.2147888 0.02636238 0.898962 0.52501446 -0.9643676 -1.3823512 -0.07946683 -0.046101004 0.20895244 0.73580027 0.10442255 0.0022051716 -0.7665735 -0.028692147 0.47400576 0.19307695 1.4329375 -0.3262386 -0.63751817 -0.86740404 -0.43094236 0.29395142 -0.81244713 0.66867584 0.92655313 -0.25722605 1.3647469 -0.14150915 0.28884476 0.26495543 2.1415794 -0.6497855 1.0092472 -0.31319094 -0.17502968 0.18325396 -0.97999144 -0.28999504 -0.03409487 0.5059244 1.0986584 0.13878907 -1.3267928 -1.1711073 -0.90500146
患 -0.33215725 1.626443 -0.3387494 0.78442013 0.8228846 -0.047290754 -0.60144293 0.5203768 -0.10872505 0.15192965 -0.046388388 -0.719922 -0.24887276 0.8707494 0.082431935 -0.21176213 -0.15835318 0.9777957 0.9756223 -0.9787371 0.14817914 0.25606766 -0.17997874 -0.6557558 0.9503964 -0.20938051 0.449775 0.5972692 -0.26222476 -0.41799867 0.5873507 0.26035118 0.39878386 0.2936477 -0.26427257 -0.07345202 -0.29346558 -0.12885895 -0.33418 -0.61586094 0.042650532 -0.59741277 0.040657964 0.26269606 -0.45734027 -0.15614174 -0.78146976 -0.26197416 0.6877866 -0.77025044
百 -0.9481636 0.42121887 0.30048716 0.71778053 0.6058291 0.22051996 0.6816251 0.5391755 -1.2247334 -0.90457565 -0.18378843 -0.39262998 0.69359684 0.2799656 -1.1571556 0.5409241 0.059508823 -0.48510042 -0.22238639 -0.130583 -0.70546144 1.2192568 0.69368047 0.41097265 -1.3333163 -0.28432715 -1.6984109 0.64455473 0.58943266 -0.65080065 0.058094177 1.3273108 -0.37470505 0.1420813 0.75247234 0.9583066 0.04193874 -0.45675772 0.25878504 0.46509406 1.1000066 -0.05008544 -0.28336436 0.34270442 -0.7073542 -0.02651654 -1.3767209 -0.18350725 0.7365821 -0.0823697
回 -0.55447376 -0.07836266 -0.29492062 0.7588002 0.40907013 1.0064981 0.89325494 1.050945 0.5611327 1.0996727 -0.03031539 -0.419699 -0.69905025 0.515595 -0.43578652 0.21418157 1.1193277 -0.2838702 0.07984992 0.31042397 -1.1757611 1.070908 0.5013356 0.047969382 0.0022629816 -0.22877339 0.07306194 0.21335933 0.17047465 -0.8012695 1.1997267 -0.16481116 0.45750585 0.50765723 0.29705694 0.4742949 -0.45224717 0.24860598 -0.36345103 -0.8935846 1.3126574 -0.12108231 -1.3482085 -1.2832545 0.524514 -1.1268549 -1.0407366 -0.10399752 -0.42684865 -0.32940623
宰 -0.7681648 0.08130157 0.1223377 0.9102915 0.15637667 1.335519 -0.0961802 -0.2787926 -1.1348668 0.17730388 -0.45032534 -0.69469804 0.80075985 -0.5189195 -0.28892452 0.37325525 -1.4347003 -0.37346762 -0.49329934 0.71823853 -0.39940843 1.1310642 -0.39531276 0.2645752 -0.86831176 0.5231726 0.65361387 -0.2843122 0.344798 -1.0457081 -0.06411781 0.68209165 0.19239774 -0.06342031 -0.41300356 0.73841494 -0.0019699726 -1.0283737 0.62943184 -1.606134 0.2658548 -0.38749117 -0.07061583 -0.9362978 0.4725023 0.58770794 0.52036387 -0.85566187 0.83456147 -0.4634078
朝 -0.43223175 0.34501117 0.10794138 0.18001635 0.22269015 0.25339362 -1.574966 -1.0000985 -0.54424995 0.078575425 -0.13740022 0.14901628 -0.22723746 0.36955953 0.092699215 -1.4160602 -0.1505814 -0.0017973376 0.58927333 -0.8297593 0.14975575 -0.29230827 -0.5519751 -0.008023393 -0.64254826 0.117270835 0.17920116 -0.24687444 0.8331763 1.0125058 0.12543483 0.9310244 2.2070708 -1.1352631 -0.06987088 0.91746384 0.4305493 0.16391315 -0.4363935 -1.1738133 0.43433264 0.17859276 -0.3549933 -0.3744124 0.23439333 -0.40569603 0.34623846 1.1944059 -1.1561749 0.72974086
莫 -0.765795 -0.33928347 1.0744759 1.1196911 0.17826553 0.45888665 0.3740794 -0.04092895 -0.7168985 -0.32307848 -0.15325336 -0.27230904 -1.0062639 0.61951834 0.30124053 0.3387988 0.55283296 0.29003814 0.4993109 0.25346532 -0.74098223 -0.3532647 -0.19338025 0.28275684 -0.29598692 0.416359 0.7829995 0.3936043 1.4448441 -0.13454226 -0.7974318 -0.5909722 0.12879117 -0.040185746 1.1225088 0.124153964 -0.07623416 -0.43929434 -0.6614108 -0.38825235 -0.8765887 -1.2271053 0.03170332 -0.756322 0.013905645 0.86237633 1.1731151 0.6119924 -0.21240063 -0.679987
若 0.59246796 0.5767412 1.2786118 0.08276788 0.17948787 -0.8473697 -0.5971152 -0.085007064 0.5481173 0.70614237 0.62734157 -0.37746322 -1.4179528 0.37892973 -0.40272963 0.30037498 -0.36183578 1.1114495 -0.22455665 0.52414113 0.22054078 -0.083861366 0.7608668 -0.27179313 -0.6799421 0.042266317 1.431305 -0.36956012 -0.12413974 -0.9278297 0.72396785 -0.35861662 -0.21114653 -0.20547202 -0.52274626 1.3107332 0.23500846 -1.4264516 -1.7218894 -0.1613755 -0.01830537 0.060993396 -0.81377685 -0.23379104 0.37071759 0.61185366 -1.2961512 0.85805064 0.26467705 0.88653594
云 -0.11616746 0.21667658 0.667915 1.1324974 -1.5065105 -0.20043446 0.11657613 0.769561 -0.13073654 -0.5354274 -0.16491915 -0.006883348 0.9154575 0.2581626 0.43196222 -0.5749679 -0.44256032 0.42343026 1.174371 -0.25899857 0.0011202581 0.22476281 -0.3508818 -0.32110032 0.54334646 -0.40216863 0.046942122 1.3595978 -0.4316308 -1.8399723 0.8177203 0.73474854 -0.3128456 0.1898268 -0.1811935 1.324715 -0.47000626 1.1270005 0.84961087 -0.15035936 1.2824612 0.11903689 0.297434 0.73453796 1.6972786 0.6052267 -0.38663426 1.2731847 -0.18169665 -0.8399296
孙 -0.54664975 -0.56891984 1.3355782 0.0021553005 -0.03653944 -0.8222594 -0.62863153 -0.35528353 0.87182057 -0.82713383 -1.394192 -0.4879636 0.10946781 0.6904712 1.1023173 -0.472144 -1.1316148 0.5018288 1.670389 -0.3512648 -0.116670325 0.0865048 1.1330973 -0.13891578 -0.107110344 -0.3290437 0.7522106 0.1036078 -0.71749854 1.3558812 0.23639043 0.684969 -0.22669128 -1.6336633 -0.012894798 0.98153764 -0.05493662 0.68848634 -0.100341015 -0.10237255 0.17189254 -1.0513495 -1.426932 0.43491033 0.5683541 0.47732276 -1.0694683 0.3898138 -0.2319169 0.95089644
或 -1.1582797 -0.2167175 1.7586241 -0.22526036 0.2914345 0.46211538 -0.45202333 -0.3306879 -0.20010695 -0.10899174 -0.081865646 -0.8761348 0.10977852 0.8426514 -0.4667516 0.34371325 -0.8972463 1.2800356 -0.754482 0.098197594 -0.7599402 0.41874748 -0.23607323 0.16535725 0.6815053 -0.27346203 0.8675967 -0.21829428 0.5168624 -0.96737945 -0.14216201 0.3067894 0.25810426 -0.12834671 0.13568345 0.9767946 0.13262507 -0.033419676 -1.2110265 -0.82467014 0.7806715 -0.39438945 0.3337351 -0.83712685 -0.69389963 -0.38084853 1.4473855 -1.0767077 -0.24803476 -0.39158994
勇 0.2477205 -0.10962599 0.386055 -0.17486572 0.24314177 0.52390957 0.24186052 0.583499 -0.5722525 -0.14726435 -0.43131137 -1.0877227 0.8819679 -0.07795604 -0.7093019 0.038466323 1.0446829 1.261164 0.7130571 -0.27384782 -0.4515642 -0.60995865 1.1912557 -0.57772714 -0.4538006 -0.85931754 0.057131838 1.4418778 0.5739371 -0.8858503 0.8801194 -0.056075286 0.19431138 1.0221559 1.3733991 -0.43973798 -1.2470459 -0.10921089 -0.21100797 0.20111106 0.6411088 0.52840555 0.039001767 -0.412877 -0.045310702 -0.6818965 -0.3955607 0.117520675 -0.42268154 -0.37815636
孰 0.4831258 1.1580414 0.52964365 0.6355785 0.123706914 0.68797606 1.1827565 0.6841857 -0.044237416 0.5267767 -0.41107047 -0.5091561 -0.17315876 -0.6590638 0.5674752 0.8245381 -0.38695157 0.24450296 0.1614823 0.58465075 0.46150488 0.58345443 -1.2256911 -1.1732669 -0.06423115 -0.32907987 0.04094024 0.27823985 -0.13829426 0.090973966 1.1073797 1.1242775 -0.5690693 0.11423031 0.8236314 0.30414274 -0.7538146 0.89853364 -1.7514093 0.04995716 -0.15165517 -0.46536002 -0.692665 -0.20883827 -0.49369395 0.65619683 -0.728837 -0.023743277 -0.40186933 -0.13652289
叔 0.23920256 1.1180798 -0.9741975 0.31418136 -0.30919135 0.09657397 0.95720077 -0.5090355 -1.0350239 -0.44556504 0.11669318 -0.8262471 0.56902 0.9407065 -0.069377586 -0.5549012 0.18800692 1.3492836 -0.13840845 0.634909 -0.3366094 1.9366436 -0.4084482 0.5656168 -0.52544314 0.011562433 -0.4533647 -0.53143144 -0.1926909 0.74637026 0.44002745 0.68346107 0.17287715 -0.3286365 0.4191948 1.9230326 0.19784538 -0.45923775 -0.57005054 -0.299777 -0.22296393 0.21090072 0.4813713 0.05292633 1.3269542 -0.13887146 0.11308761 0.12174591 -0.49473062 -0.31159982
渊 0.028944414 1.2017094 0.6980407 -0.85556775 -0.3426883 0.2015287 0.37379622 -0.8828116 -1.2500837 0.19513188 0.23921964 -0.99729985 -1.1277654 1.6196601 -0.7384512 0.67101467 0.103336774 0.38353977 0.4980174 -0.21086332 -1.703003 1.6892048 0.09028207 -1.2900585 0.250665 0.6129097 -0.09256447 -0.7133151 0.7930308 0.8315716 -0.4440654 0.95921886 0.63693637 0.904833 0.69811636 1.44773 0.4448988 0.4565366 -1.3953484 0.32134432 0.4647939 -0.88616574 -0.54426223 -0.6624339 1.0694276 -0.555441 -0.07276168 0.19188474 -0.6475541 0.08763659
